[n]
3

[smoother]
kylm.model.ngram.smoother.MKNSmoother

[closed]
true

[max_length]
91

[vocab_cutoff]
0

[start_symbol]
<s>

[terminal_symbol]
</s>

[unknown_symbol]
<unk>

\data\
ngram 1=172
ngram 2=665
ngram 3=1587

\1-grams:
-1.908115	%	-1.713602
-1.285851	,	-2.345456
-0.9820789	.	-2.626619
-2.883772	10am	-0.7604988
-3.040503	10pm	-0.6299278
-3.319501	11am	-0.4205508
-3.26809	11pm	-0.4565393
-3.158373	1am	-0.5374319
-3.138789	1pm	-0.5524194
-4.159978	2am	-0.03519987
-3.656844	2pm	-0.218978
-3.091655	3am	-0.5891263
-3.231507	3pm	-0.4829115
-3.387222	4am	-0.3886563
-3.284917	4pm	-0.4581281
-4.168097	5am	-0.04676512
-4.079459	5pm	-0.09282377
-3.627554	6pm	-0.2954642
-4.989282	7am	0.05111974
-3.64686	8am	-0.2240279
-4.360893	8pm	-0.008090422
-3.038066	9am	-0.6318951
-3.584876	9pm	-0.2566607
-1.494415	</s>
-0.9298373	<num>	-2.646952
-99	<s>	-2.156568
-1.275876	a	-2.321948
-2.828664	accumulation	-0.880764
-2.165808	after	-1.55485
-5.415251	afternoon	0.04019798
-4.477399	all	-0.05938079
-3.508557	also	-0.3822901
-2.312817	amounts	-1.344881
-2.432076	an	-1.252855
-1.513012	and	-2.139061
-3.572226	areas	-0.3339817
-1.651524	around	-1.936627
-1.752147	as	-1.848161
-3.270158	at	-0.4879248
-3.515795	be	-0.3824768
-2.064293	becoming	-1.612811
-2.215953	before	-1.506304
-1.583104	between	-2.047966
-4.813191	blowing	-0.03070037
-4.360893	blustery	-0.05756632
-2.310992	breezy	-1.34678
-3.43298	by	-0.4651595
-2.277475	calm	-1.3409
-1.598524	chance	-2.055489
-3.910101	chill	-0.1943793
-2.700642	clear	-0.98325
-4.136497	clearing	-0.1024868
-2.875339	clouds	-0.8292463
-1.707312	cloudy	-1.882457
-4.93813	cold	0.0006860569
-2.520751	could	-1.175291
-3.795462	damaging	-0.2382906
-3.656844	day	-0.255782
-3.54995	decreasing	-0.3577087
-5.290312	definite	-0.009417049
-2.803528	drizzle	-0.8421334
-3.587021	during	-0.339652
-5.415251	dust	0.04059448
-4.03504	early	-0.1081161
-2.404104	east	-1.202314
-4.445214	evening	-0.04312611
-3.023141	except	-0.7281805
-3.122257	expected	-0.6019977
-3.474071	falling	-0.4021278
-3.632301	feet	-0.2746876
-3.892372	flurries	-0.1519555
-2.670176	fog	-0.97449
-5.591342	for	-0.005023879
-3.174702	freezing	-0.6096759
-4.258904	frost	-0.09485035
-4.136497	gradual	-0.1255452
-3.076131	gradually	-0.6822435
-2.633975	gust	-1.05912
-2.192621	gusts	-1.476043
-5.047274	gusty	-0.01644185
-4.778429	hail	0.01579299
-2.940549	half	-0.7718639
-3.419616	heavy	-0.4384907
-1.613596	high	-2.039949
-3.023141	higher	-0.726474
-3.802467	ice	-0.2357739
-3.021968	in	-0.730397
-2.371758	inch	-1.289074
-3.396828	inches	-0.45134
-2.513248	increasing	-1.177541
-1.906362	is	-1.711227
-3.914649	isolated	-0.187872
-2.745624	less	-0.9652228
-3.809587	level	-0.1791421
-2.997503	light	-0.6735833
-2.514702	likely	-1.078984
-3.122257	little	-0.6488805
-1.794352	low	-1.858255
-4.387222	lowering	-0.0719954
-2.475732	mainly	-1.201448
-4.184802	mid	-0.113915
-2.628736	midnight	-0.9870663
-4.716281	mixed	-0.01822825
-4.184802	morning	-0.09085319
-1.760177	mostly	-1.899622
-1.380596	mph	-2.214078
-1.80053	near	-1.813027
-2.332705	new	-1.350505
-5.290312	night	0.03769483
-3.122257	no	-0.6508037
-2.473905	noon	-1.130712
-2.625201	north	-0.9964904
-2.94347	northeast	-0.7134485
-2.418739	northwest	-1.121304
-3.353296	occasional	-0.4763041
-1.492318	of	-2.125543
-3.287067	one	-0.5148232
-2.678058	or	-1.030586
-2.666288	otherwise	-1.014336
-5.415251	overnight	0.01549298
-2.308381	partly	-1.363147
-2.713108	patchy	-0.9990141
-2.387494	percent	-1.285837
-3.487539	periods	-0.3827083
-2.304774	possible	-1.329382
-2.856143	possibly	-0.8477982
-1.90762	precipitation	-1.756879
-3.396828	produce	-0.4584614
-2.65963	quarter	-1.017837
-3.758833	quarters	-0.2296316
-2.096215	rain	-1.477882
-2.390082	rainfall	-1.246868
-3.649334	remainder	-0.2931616
-3.52876	rising	-0.3697884
-3.497921	scattered	-0.3897431
-3.51946	severe	-0.2934779
-1.94784	showers	-1.625185
-3.431474	sleet	-0.3503
-2.510535	slight	-1.169916
-4.778429	small	-0.03199494
-2.467491	snow	-1.125791
-3.130445	some	-0.6340507
-1.939048	south	-1.649295
-2.333904	southeast	-1.201955
-2.188823	southwest	-1.341465
-4.85098	sprinkles	0.02056551
-3.952853	steady	-0.179276
-3.160784	storms	-0.6188861
-2.145505	sunny	-1.506355
-3.319501	temperature	-0.5002106
-2.558724	tenth	-1.11052
-2.745624	than	-0.8896812
-2.992552	the	-0.769852
-2.454147	then	-1.224513
-3.755652	three	-0.2590018
-4.184802	through	-0.113915
-4.290312	thunder	-0.08634874
-2.861773	thunderstorm	-0.7801509
-2.535391	thunderstorms	-1.077402
-5.415251	times	0.04019798
-2.175785	to	-1.42069
-3.553916	two	-0.3472283
-3.910101	values	-0.1775389
-3.487539	variable	-0.3827233
-5.591342	very	-0.004781176
-2.131648	west	-1.395706
-4.989282	widespread	-0.01904196
-1.492768	wind	-2.045355
-2.603899	winds	-1.047754
-3.163208	windy	-0.5952656
-1.379955	with	-2.267288
-4.85098	zero	0.0331429

\2-grams:
-0.007588852	% .	-1.573755
-3.006284	, and	-0.08551439
-3.193371	, becoming	-0.06016782
-3.246616	, clear	0.9512318
-1.841931	, cloudy	1.131313
-1.739112	, except	0
-3.193371	, freezing	0.4499193
-2.763246	, increasing	0.07617073
-1.191704	, mainly	0
-1.712922	, mostly	1.157149
-2.27389	, partly	1.016232
-3.432253	, possibly	-0.03150913
-3.462216	, snow	-0.01491026
-3.654102	, sunny	1.507041
-1.170277	, then	0.0001488924
-0.09611349	, with	-0.03477621
-0.5132428	. </s>
-4.61017	. a
-2.749832	. areas	0.08032867
-3.392686	. blustery	-0.0004130602
-1.32982	. breezy	0
-1.493397	. calm	-0.8046871
-0.9269431	. chance	0.3031921
-1.523988	. cloudy	0.7458373
-1.640289	. east	-0.3793875
-1.950729	. high	-0.3660119
-2.292107	. increasing	-0.3115157
-2.059942	. light	-0.1231415
-2.141085	. little	0
-1.889184	. low	0.8407096
-1.097819	. mostly	-1.103118
-1.351533	. new	0
-1.815334	. north	-0.08757669
-2.761981	. northeast	0.005188435
-1.735978	. northwest	-0.1200683
-1.685116	. otherwise	0
-2.267748	. partly	0.8174894
-1.887948	. patchy	0.1028673
-2.828415	. snow	-0.2144666
-2.149272	. some	0
-1.166594	. south	-0.7120576
-1.890011	. southeast	-0.2104818
-1.543099	. southwest	-0.3667194
-3.869807	. steady	0.1522546
-2.576746	. temperature	-0.02964187
-4.434079	. the	-0.006243536
-4.61017	. very
-1.353332	. west	-0.5055221
-4.00811	. widespread	0
-2.928929	. wind	-0.1927794
-1.652802	. winds	-0.2190955
-2.182847	. windy	0.0006155968
-0.8937034	10am ,	-0.2470254
-0.1481766	10am .	-0.7173377
-1.695336	10am and	-0.05955231
-1.332192	10pm ,	-0.06345198
-0.1208501	10pm .	-0.6243091
-2.246006	10pm and	-0.00923103
-0.615025	11am ,	-0.2191765
-0.409263	11am .	-0.288673
-1.230449	11am and	-0.06745764
-0.9082646	11pm ,	-0.1247758
-0.2388331	11pm .	-0.4151917
-1.817345	11pm and	-0.01866707
-1.308412	1am ,	-0.05092339
-0.1840941	1am .	-0.4995449
-1.219012	1am and	-0.1018985
-0.9380485	1pm ,	-0.1457097
-0.2037666	1pm .	-0.5076232
-1.50574	1pm and	-0.05461258
-1.20412	2am ,	-0.003987355
-0.7704644	2am .	-0.0320714
-1.748188	2am and	-0.00928942
-0.6097468	2pm ,	-0.1440032
-0.6647944	2pm .	-0.1055389
-1.329906	2pm and	-0.0365194
-0.8072643	3am ,	-0.2089916
-0.2000238	3am .	-0.5088526
-2.427053	3am and	-0.006786276
-1.081956	3pm ,	-0.0855225
-0.1894336	3pm .	-0.4514874
-2.49693	3pm and
-1.787106	4am ,	0.01295765
-0.1946517	4am .	-0.3759235
-1.555548	4pm ,	-0.008682476
-0.1686032	4pm .	-0.4377274
-2.047275	5am ,
-0.6323015	5am .	-0.06391478
-0.5581545	5pm .	-0.1011246
-0.2841854	6pm ,	-0.2881728
-1.94939	7am ,
-1.405322	7am .	-0.01050264
-0.8669782	8am ,	-0.07562926
-0.5220428	8am .	-0.151647
-1.107712	8am and	-0.06417672
-1.464532	8pm ,	0.0128572
-0.8624721	8pm .	-0.05302228
-0.7268352	9am ,	-0.2655088
-0.3195774	9am .	-0.4836239
-0.8431395	9am and	-0.2370333
-0.7391999	9pm ,	-0.1157465
-0.5224908	9pm .	-0.1680187
-1.173769	9pm and	-0.06149931
-0.9790819	<num> %	0
-0.5697113	<num> .	-2.035288
-0.7146794	<num> and	-1.445697
-2.503947	<num> by	0
-2.720301	<num> during	0.03272384
-3.291241	<num> early	-0.01223005
-2.703268	<num> feet	0
-4.662309	<num> inch
-2.981068	<num> inches	0.2590655
-0.4515627	<num> mph	0
-3.486218	<num> of	-0.0189303
-1.458461	<num> percent	0
-1.4703	<num> to	-0.8983613
-99	<s> <s>	0
-0.4480112	<s> a	-1.615502
-2.637472	<s> areas	0.2207044
-2.087033	<s> clear	0.6616012
-2.009965	<s> cloudy	1.436921
-3.798841	<s> definite	0
-3.555802	<s> flurries	0.1732311
-2.466402	<s> freezing	0.3339354
-1.655826	<s> increasing	-0.4045547
-2.432418	<s> isolated	0.003290117
-0.6306377	<s> mostly	0.3549908
-1.937007	<s> occasional	0.04894873
-0.9139036	<s> partly	0.0924083
-1.740984	<s> patchy	0.4232207
-2.001227	<s> periods	0.003083766
-1.283629	<s> rain	0.5443805
-2.072521	<s> scattered	0.03797749
-1.141307	<s> showers	-0.5385001
-2.318115	<s> snow	0.02217618
-1.264497	<s> sunny	0.5726557
-1.112044	a <num>	-1.285245
-3.919308	a calm	0.3974118
-0.9724631	a chance	0.6353943
-2.069275	a east	0.210059
-2.08172	a half	-0.3130593
-0.5663929	a high	-1.389772
-3.919308	a light	0.05254243
-0.5615258	a low	-0.1354023
-2.185309	a north	0.2327013
-3.919308	a northeast	0.2549108
-2.636007	a northwest	0.6769856
-1.876339	a quarter	-0.4770325
-1.236441	a slight	0
-1.339525	a south	-0.2703284
-2.089362	a southeast	0.1700144
-2.249062	a southwest	0.4255336
-2.731787	a steady	0.01723616
-2.754955	a temperature	0.1713392
-1.284629	a tenth	0
-1.587679	a thunderstorm	0
-1.545294	a west	-0.05898345
-0.3530828	accumulation expected	0
-0.3673232	accumulation of	-0.6160906
-1.107747	after 10am	-0.007989407
-1.183902	after 10pm	0.1207352
-1.805706	after 11am	0.03666976
-1.502159	after 11pm	0.06880227
-1.180298	after 1am	-0.03473338
-1.29616	after 1pm	0.005729318
-2.172003	after 2am	-0.00478635
-1.901356	after 2pm	-0.04205767
-1.166173	after 3am	-0.07306492
-1.251654	after 3pm	0.00262773
-1.34927	after 4am	0.05357841
-1.646783	after 4pm	0.2545977
-2.160421	after 5am	0.02769434
-3.439175	after 5pm
-2.277807	after 8am	0.08685659
-2.293047	after 8pm	-0.002098761
-1.198625	after 9am	-0.2006385
-1.901356	after 9pm	0.007119343
-0.66722	after midnight	-0.1132823
-0.8360304	after noon	-0.1446046
-1.760925	afternoon .	0.028536
-1.338014	all rain	0.05704765
-1.036984	all snow	-0.03814889
-0.2310818	also possible	0.2611775
-0.2844937	amounts between	-1.074698
-0.5990062	amounts of	-0.8125985
-0.72934	amounts possible	-0.6407009
-0.02485702	an inch	0.05717409
-3.382431	and 10am	0.03452602
-3.081401	and 11am	0.383702
-3.060212	and 1am	0.4109605
-3.127159	and 1pm	0.540163
-3.479341	and 2am	0.008057637
-2.920033	and 2pm	0.1982419
-3.30325	and 3am	0.6389936
-3.040009	and 3pm	-0.01531514
-2.729219	and 4am	0.3577576
-1.967458	and 4pm	0.1261994
-4.081401	and 5am
-3.178311	and 9am	0.05115036
-0.1337471	and <num>	-1.60342
-4.081401	and a
-3.479341	and areas	0.3282192
-3.428189	and cold	0
-2.597101	and freezing	0.3785634
-1.640492	and half	-0.310856
-3.00222	and midnight	0.9588981
-2.299646	and noon	0.5938035
-2.826129	and one	0.08814903
-1.351832	and possibly	-0.02950472
-3.382431	and produce	0.3849657
-1.318723	and quarter	-0.4767576
-1.929113	and sleet	0.004756868
-1.642859	and snow	-0.3321751
-4.081401	and then
-2.373831	and three	0.05256948
-1.258906	and thunderstorms	-0.134705
-2.045972	and two	-0.001426429
-1.977598	and variable	0
-0.2584929	areas of	-0.3467831
-0.005518555	around <num>	-1.591715
-3.767947	around a	0.02732359
-2.537498	around an	1.140761
-0.306878	as <num>	-1.199826
-0.3116902	as high	-1.423113
-2.21104	as low	-0.1748406
-3.145538	as zero	-0.0001411214
-0.1499792	at <num>	-0.3487315
-2.292994	at times	0
-2.133539	be heavy	-0.004798283
-0.2377482	be severe	0
-2.423939	becoming all	0
-3.537882	becoming blustery
-0.6628208	becoming calm	-0.8054144
-2.477184	becoming clear	0.9512318
-0.9224581	becoming east	-0.5414104
-2.176154	becoming light	-0.08256533
-1.263724	becoming mostly	-0.3465787
-1.36909	becoming north	-0.1552521
-1.527158	becoming northeast	-0.1394038
-1.752552	becoming northwest	-0.2056552
-1.778214	becoming partly	0.2881653
-0.6987184	becoming south	-0.736251
-1.25008	becoming southeast	-0.4342767
-1.287462	becoming southwest	-0.4373874
-1.626724	becoming sunny	1.23745
-0.8737103	becoming west	-0.6356118
-0.979893	before 10am	0.1844419
-1.151371	before 10pm	0.221326
-1.339518	before 11am	0.06585848
-1.309683	before 11pm	0.1376591
-1.619818	before 1am	0.2966917
-1.292027	before 1pm	0.1900387
-2.78861	before 2am	0.01060483
-1.913549	before 2pm	-0.006325327
-1.311489	before 3am	0.2862811
-1.587896	before 3pm	0.322641
-2.29376	before 4am	0.3851843
-3.08964	before 4pm	0.00215571
-1.426882	before 6pm	0
-2.913549	before 7am	0.004907334
-1.6831	before 8am	0.04235929
-2.913549	before 8pm	0.0001001963
-1.463814	before 9am	0.1748082
-1.646377	before 9pm	0.06533191
-0.9099448	before midnight	0.3573982
-0.5388006	before noon	-0.1442466
-2.932664	between 10am	-0.0485044
-3.613905	between 10pm	-0.01011732
-2.807725	between 11am	-0.04857351
-3.358633	between 11pm	-0.01573961
-2.679407	between 1am	-0.07087681
-2.951147	between 1pm	-0.04133911
-3.710815	between 2am	-0.00227499
-3.108755	between 2pm	-0.01825552
-3.835754	between 3am	-0.005969594
-4.011845	between 3pm
-2.881511	between 8am	-0.0287319
-2.209071	between 9am	-0.1750335
-2.914935	between 9pm	-0.0294561
-0.06421548	between <num>	-1.929286
-1.055437	between a	-1.037981
-2.932664	between midnight	-0.05212291
-1.923709	between noon	-0.3476977
-1.976416	between one	-0.1505574
-2.756573	between three	0.170724
-4.011845	between two
-4.011845	between zero
-1.78295	blowing dust
-1.260071	blowing snow	0.06990804
-0.7911162	blustery ,	0.6251237
-2.0086	blustery north
-0.01893864	breezy ,	-0.6676996
-0.9981077	by 10am	-0.04465522
-2.359835	by 10pm
-1.484774	by 11am	0.08397887
-2.359835	by 2pm
-1.882714	by 3am	0.4178189
-2.183744	by 3pm	0.4440095
-1.815767	by 4am	0.4246985
-1.359836	by 4pm	0.4441914
-1.484774	by 5am	0.07858595
-0.8546855	by 5pm	0.001852006
-2.183744	by 7am	0.00982671
-1.338646	by 8am	0.01282047
-2.359835	by 8pm
-0.8900135	by 9am	-0.03917218
-2.183744	by midnight	0.02267559
-1.116797	by noon	-0.03746236
-0.456366	calm .	-0.7034379
-0.2139903	calm wind	-1.156395
-3.996556	chance for
-0.003759007	chance of	-1.413338
-0.4426104	chill values	0
-0.0450587	clear ,	-0.3041694
-0.600151	clearing ,	0.5765939
-0.06575203	clouds ,	-0.1501657
-0.007297812	cloudy ,	-1.076652
-3.888825	cloudy .
-3.235613	cloudy and	-0.02224205
-2.742697	cloudy during	0.2738777
-3.712734	cloudy overnight	0
-2.482285	cloudy through	0
-1.298611	cold ,	0.6797667
-1.02534	could be	0
-0.1435194	could gust	0
-0.9190437	could produce	0.008168817
-0.372912	damaging winds	-0.2115773
-0.2984976	day .	-0.2567304
-0.2486419	decreasing to	-0.210202
-1.638489	definite drizzle	0.02585511
-0.5552468	drizzle ,	-0.4880936
-0.6400464	drizzle .	-0.4098157
-0.5324125	drizzle after	-0.2851938
-1.099873	drizzle before	-0.03755689
-0.2651916	during the	-0.2419702
-1.937016	dust .
-1.937016	dust before
-0.7117175	early .	-0.006428666
-0.968842	early evening	0.004409119
-1.106782	east .	-0.1106802
-1.529345	east around	1.704283
-1.407812	east between	0.6195492
-0.9341242	east northeast	0.2861154
-0.8057523	east southeast	0.7471802
-0.2760876	east wind	-0.05314469
-0.8495072	evening ,	-0.03583472
-0.08980967	except higher	0
-0.1101265	expected .	-0.4621509
-0.2171825	falling to	-0.3684922
-0.4858448	feet .	-0.1671216
-1.847573	feet after	0.0926348
-2.069421	feet in	-0.006166228
-1.041393	feet lowering	0
-1.055181	feet rising	0.2999483
-0.5740313	flurries .	-0.1054377
-1.732394	flurries after	0.01809125
-1.033424	flurries before	0.1841817
-0.5208358	fog .	-0.6191817
-0.5940996	fog after	-0.291761
-0.4691609	fog before	-0.05976075
-1.866405	fog between	-0.05867612
-1.934498	for flurries
-1.296038	freezing drizzle	0.07891434
-1.840106	freezing fog	0.3642209
-0.1597706	freezing rain	0.02373087
-0.9859569	frost after	-0.03246411
-0.9859569	frost before	-0.04374839
-0.600151	gradual clearing	0
-0.1002126	gradually becoming	-0.648895
-0.03892491	gust as	-0.7762486
-0.01449488	gusts as	-1.193172
-1.402875	gusty winds	0.0102715
-1.148508	hail .	0.0159266
-1.023028	half and	-0.2006801
-0.6399598	half inch	0.1972121
-0.2854105	half of	-0.5764375
-2.192196	heavy at	-0.005379504
-0.454473	heavy rain	-0.2284527
-0.5487429	heavy rainfall	-0.2320939
-0.4487967	high as	-1.318831
-0.1969618	high near	0.006075501
-0.08980967	higher amounts	-0.6389543
-0.3769625	ice accumulation	0.6563305
-2.482874	in the	-0.006243536
-0.09076312	in thunderstorms	-0.4827031
-0.6730956	inch ,	-0.7206004
-0.131213	inch possible	-0.64785
-0.1884028	inches possible	0.1070616
-0.3918847	increasing clouds	0
-0.2769787	increasing to	-0.8024073
-0.009311281	is <num>	-1.713252
-2.391509	is also	0.2926779
-0.4455223	isolated showers	0.4605602
-0.04970453	less than	0
-0.3811076	level <num>	-0.2325832
-1.317245	light .	0.148361
-0.5751697	light and	-0.3923198
-1.423701	light east	0.615523
-1.388939	light north	0.2157054
-2.281033	light northeast	0.2549108
-1.775883	light northwest	0.8323543
-1.56503	light rain	-0.02997595
-2.678973	light snow
-0.8068171	light south	0.5418512
-1.637581	light southeast	0.5925769
-1.657784	light southwest	0.7508816
-1.298762	light west	0.5213889
-0.8561518	light wind	-0.2105248
-0.5430498	likely ,	0.4477115
-0.5532548	likely .	-0.6631273
-1.62941	likely after	0.284507
-0.6999907	likely and	-0.584711
-0.9318897	likely before	0.5505698
-1.5325	likely between	-0.1615195
-0.1101265	little or	-0.4785981
-0.008807419	low around	0.02820802
-2.169374	low as	0.1155199
-0.8002014	lowering to	0.312426
-0.2814804	mainly after	0.5267708
-0.4014693	mainly before	0.05650514
-1.703682	mainly between	-0.1214513
-0.6368221	mid morning	0
-1.171781	midnight ,	-0.2234694
-0.07732242	midnight .	-0.9746016
-1.921903	midnight and	-0.05421111
-1.09108	mixed with	-0.03907254
-0.6368221	morning ,	-0.08356181
-1.021664	mostly clear	0.06770271
-0.1705275	mostly cloudy	0.09837759
-0.6628085	mostly sunny	0.2610326
-0.8142917	mph ,	-0.7816262
-0.1691399	mph .	-1.827929
-0.9358622	mph becoming	-0.4860168
-2.17162	mph decreasing	0
-1.382103	mph increasing	-0.6263292
-0.005934985	near <num>	-1.731744
-2.102434	new ice	0.1658376
-2.500374	new precipitation	-0.02909171
-0.09553999	new rainfall	-0.2307885
-2.977495	new sleet	0.02026859
-0.8487727	new snow	-0.4076525
-1.638489	night .	0.01213752
-0.9071139	no ice	0.04526369
-0.1847601	no snow	-0.4022637
-1.017625	noon ,	-0.3806436
-0.1214774	noon .	-1.06539
-1.056594	noon and	-0.3845989
-1.51296	north .	0.1199042
-2.22617	north around	1.869093
-1.572958	north between	0.7420577
-1.101231	north northeast	0.506382
-0.4596334	north northwest	0.5375372
-0.3678335	north wind	0.2079573
-0.5405961	northeast .	-0.160008
-1.562498	northeast around	1.830311
-1.173638	northeast between	0.7102886
-0.337367	northeast wind	0.4057517
-1.214458	northwest .	-0.04202291
-2.798789	northwest <num>	0.002371282
-2.798789	northwest around	1.886126
-1.757396	northwest between	0.7401232
-0.06271107	northwest wind	-0.2380314
-0.7632597	occasional rain	0.2622384
-0.30103	occasional showers	-0.2516111
-2.342285	of <num>	-0.2094355
-0.950277	of an	0.007164478
-2.678707	of around	-0.1190822
-3.323802	of blowing	0
-1.971619	of drizzle	-0.01802176
-3.226892	of flurries	0.0118675
-2.201586	of fog	0.6891577
-2.091229	of freezing	0.2660748
-2.940585	of frost	0.02952653
-1.256235	of less	0
-2.971619	of light	-0.04948246
-0.418726	of precipitation	-0.02674317
-0.8078178	of rain	-0.5157375
-0.6960095	of showers	-0.7665464
-1.533165	of snow	-0.4237099
-3.36159	of sprinkles	0
-1.632868	of the	-0.2425643
-0.4216949	one and	-0.3533376
-0.486313	one inch	0.2615442
-0.2929388	or drizzle	0.1073716
-1.143255	or freezing	0.3404515
-0.4870831	or no	0
-0.0417913	otherwise ,	-1.031941
-1.760925	overnight ,	0.6945736
-0.1593999	partly cloudy	0.5867813
-0.5766948	partly sunny	0.6692836
-0.05121712	patchy fog	0.04319221
-2.623508	patchy freezing	-0.003778608
-2.049476	patchy frost	0.06120788
-0.02249362	percent chance	0.7676661
-0.2225321	periods of	-0.2076699
-0.1397028	possible .	-0.9853657
-1.298778	possible after	0.0584642
-0.7370421	possible in	-0.004126072
-0.06873555	possibly a	-0.8526517
-1.923244	possibly mixed	0
-2.913151	precipitation amounts	0.09633899
-0.008075357	precipitation is	-0.08797491
-1.838849	produce gusty	0
-0.2141251	produce heavy	-0.003245503
-1.570004	produce small	0
-0.5319877	quarter and	-0.618035
-0.2102182	quarter of	-0.8410984
-0.9294189	quarters and	-0.08276969
-0.4814	quarters of	-0.1508696
-1.051169	rain ,	-0.589421
-0.8579278	rain .	-0.7445258
-0.7768012	rain after	0.1249708
-0.7348208	rain and	-0.846047
-1.15075	rain before	0.3777534
-2.205745	rain between	-0.09477057
-0.9791456	rain likely	0.4812186
-0.7866162	rain or	-0.4803706
-1.295922	rain showers	1.258235
-1.404341	rainfall .	-0.245451
-0.04090019	rainfall amounts	-0.6392134
-0.2947811	remainder of	-0.2971367
-0.2395324	rising to	0.1119062
-0.7235492	scattered flurries	0.02500501
-1.621176	scattered rain	0.08880786
-0.4658403	scattered showers	0.3882618
-1.475048	scattered snow	0.1526416
-1.843025	scattered thunderstorms	0.04790475
-0.511616	severe ,	0.4627977
-0.5956888	severe .	-0.1540199
-1.608526	severe and	-0.02464351
-0.8974625	showers ,	0.2871448
-0.5954778	showers .	-1.103315
-0.992846	showers after	0.5558652
-0.7840489	showers and	-0.9395893
-0.8647048	showers before	0.1898145
-1.471398	showers between	-0.4539566
-0.7828727	showers likely	0.06087428
-1.62042	sleet ,	0.001639586
-1.40654	sleet .	0.00251114
-1.170451	sleet accumulation	0.1707817
-2.360783	sleet after
-0.5478693	sleet before	0.120466
-0.7222934	sleet between	-0.1776023
-1.457693	sleet likely	0.1969271
-0.02961454	slight chance	0.8835869
-1.148508	small hail	0
-1.358365	snow ,	-0.2181445
-0.9359126	snow .	-0.4103858
-0.4491884	snow accumulation	0.05279076
-1.895484	snow after	0.3181006
-1.465015	snow and	-0.1922224
-1.142156	snow before	0.06509447
-2.849726	snow between	-0.007066865
-2.974665	snow could	0.03543386
-1.369001	snow level	0
-1.582555	snow likely	0.860068
-0.6237714	snow showers	0.02991819
-0.2558535	some of	-0.5264735
-0.7769916	some storms	0.3808242
-1.271842	some thunder	0
-1.448251	south .	-0.178796
-1.502076	south around	1.468299
-1.179713	south between	0.203004
-0.8418828	south southeast	0.4009288
-0.854598	south southwest	0.5542742
-0.247894	south wind	-0.5043056
-1.337861	southeast .	-0.01987281
-3.101289	southeast <num>	0.007363226
-1.553104	southeast around	1.688255
-0.9677498	southeast between	0.3303778
-0.1113942	southeast wind	-0.2681845
-1.094671	southwest .	-0.2541664
-3.240799	southwest <num>	0.007363226
-1.842859	southwest around	1.739998
-1.511094	southwest between	0.5724777
-0.0746648	southwest wind	-0.4364091
-1.216286	sprinkles .	0.02076317
-0.4704139	steady temperature	-0.1038015
-0.1190575	storms could	-0.5177268
-0.01302675	sunny ,	-0.8272746
-0.7960796	temperature around	1.719231
-0.7765575	temperature falling	0.2188432
-0.4389337	temperature rising	0.03729653
-0.3029011	tenth and	-0.8713843
-0.3670442	tenth of	-0.7857148
-2.895422	than <num>
-0.09954253	than a	-0.8627536
-1.014609	than one	-0.1058396
-2.506956	the afternoon	0
-0.7485486	the day	0
-1.569104	the early	-0.01244554
-2.506956	the evening	0.05861909
-2.382017	the night	0
-0.741039	the remainder	0
-2.506956	the snow	-0.007136555
-0.3660289	the storms	0.08349037
-0.4402655	then a	-0.7828714
-2.163311	then becoming	-0.04685482
-2.987219	then cloudy	-0.007513025
-1.228812	then falling	0.1014576
-2.686189	then freezing	0.4966628
-1.708466	then gradual	0
-0.6480992	then gradually	0
-2.987219	then isolated	0.1851998
-1.716152	then occasional	0.3585412
-2.862281	then periods	0.3868166
-1.087764	then rain	0.5950855
-2.862281	then rising	0.3625951
-1.908038	then scattered	0.1329446
-0.8590354	then showers	0.004354537
-2.987219	then sleet	0.007811776
-1.851557	then snow	0.1643951
-2.186108	three inches
-0.3535995	three quarters	0
-0.6368221	through mid	0
-0.7201593	thunder is	-0.09000369
-1.839199	thunderstorm ,	-0.01483969
-0.5146875	thunderstorm .	-0.4529285
-0.5381686	thunderstorm after	-0.06589249
-0.5989268	thunderstorm before	-0.184948
-2.31632	thunderstorm between	-0.01198797
-0.927381	thunderstorms ,	-0.3725068
-0.3642039	thunderstorms .	-0.6026771
-0.8697649	thunderstorms after	-0.1780798
-1.080783	thunderstorms also	0.04318836
-0.9955819	thunderstorms before	0.1352333
-2.485189	thunderstorms between	-0.01678989
-1.220962	thunderstorms likely	0.2541568
-1.760925	times .	0.005596807
-0.22907	to <num>	-1.109705
-1.271147	to around	1.468299
-0.5335353	to between	-0.1492408
-1.487502	to near	1.559959
-2.287802	two and
-0.252372	two inches	0.09623617
-0.4903832	values as	-0.1751114
-1.383489	values between	0.8371743
-0.2225321	variable wind	-0.3778188
-1.934498	very windy
-1.252209	west .	-0.184018
-2.375407	west <num>	-0.04462528
-1.720269	west around	1.677378
-1.451128	west between	0.5125221
-1.033775	west northwest	0.633343
-0.8521815	west southwest	0.7136089
-0.204325	west wind	-0.3651786
-1.34733	widespread fog	0.4222683
-1.366307	wind .	-0.6255853
-0.9303653	wind <num>	-1.250967
-0.819905	wind around	0.5276474
-1.7824	wind at	-0.003602326
-1.05074	wind becoming	-0.7109959
-0.2422781	wind between	-1.073028
-2.420265	wind chill	0
-1.207628	winds .	-0.2066652
-0.06650169	winds could	-0.5162149
-0.1196399	windy ,	0.08381498
-0.08023939	with a	-1.778791
-2.417771	with damaging	0
-3.473288	with freezing	0.4844969
-0.8149295	with gusts	0
-3.815711	with snow	0.01194904
-2.207185	with thunderstorms	-0.3036167
-1.257679	zero .	0.03093394
-1.956649	zero and

\3-grams:
-0.007588852	<num> % .
-0.3260123	10am , then
-0.7114986	10pm , then
-0.359433	11am , then
-0.5222834	11pm , then
-0.7676858	1am , then
-0.4771213	1pm , then
-1.11869	2am , then
-0.4805544	2pm , then
-0.372912	3am , then
-0.6303496	3pm , then
-1.405322	4am , then
-1.065393	4pm , then
-0.2841854	6pm , then
-0.6643619	8am , then
-1.402875	8pm , then
-0.3062312	9am , then
-0.544068	9pm , then
-0.7889821	blustery , with
-0.01893864	breezy , with
-0.0450587	clear , with
-0.600151	clearing , with
-0.06575203	clouds , with
-1.371138	cloudy , then
-0.02389034	cloudy , with
-1.298611	cold , with
-0.1574622	drizzle , mainly
-0.8495072	evening , then
-0.08980967	inch , except
-1.751087	likely , becoming
-0.1821518	likely , mainly
-2.110109	likely , possibly
-1.025788	likely , then
-1.411139	likely , with
-0.3539661	midnight , then
-0.6368221	morning , then
-0.01449488	mph , with
-0.2133393	noon , then
-1.906148	otherwise , clear
-0.5014626	otherwise , cloudy
-1.422777	otherwise , increasing
-0.3724529	otherwise , mostly
-0.9334217	otherwise , partly
-2.313633	otherwise , sunny
-1.760925	overnight , with
-1.454845	rain , and
-1.915576	rain , becoming
-2.392697	rain , freezing
-0.1708482	rain , mainly
-2.170848	rain , possibly
-1.72369	rain , snow
-1.591065	rain , then
-0.372912	severe , with
-2.416973	showers , freezing
-0.2283259	showers , mainly
-0.8281415	showers , then
-0.8906339	showers , with
-1.216286	sleet , mainly
-1.322219	snow , and
-1.991226	snow , becoming
-1.167317	snow , freezing
-0.5338489	snow , mainly
-1.769377	snow , possibly
-0.01302675	sunny , with
-1.018885	thunderstorm , mainly
-0.267361	thunderstorms , mainly
-1.038563	thunderstorms , then
-0.1196399	windy , with
-0.2349058	% . </s>
-1.233691	% . little
-0.465636	% . new
-2.161796	10am . areas
-1.131832	10am . cloudy
-1.645166	10am . high
-1.082614	10am . increasing
-0.3507955	10am . mostly
-1.011258	10am . otherwise
-1.266531	10am . partly
-1.383644	10am . patchy
-1.802774	10am . snow
-2.320665	10pm . areas
-1.560998	10pm . cloudy
-1.968483	10pm . increasing
-1.342942	10pm . low
-0.3036321	10pm . mostly
-1.053494	10pm . otherwise
-1.041912	10pm . partly
-2.077627	10pm . patchy
-1.524785	10pm . snow
-0.8577875	11am . cloudy
-2.104942	11am . high
-0.4782597	11am . mostly
-1.351614	11am . otherwise
-1.627821	11am . snow
-1.803912	11am . some
-0.8695718	11pm . cloudy
-1.562293	11pm . low
-0.5470529	11pm . mostly
-0.9602329	11pm . otherwise
-1.754178	11pm . partly
-1.074952	11pm . patchy
-2.106361	11pm . snow
-1.805331	11pm . some
-1.326336	1am . areas
-1.657329	1am . cloudy
-0.7620645	1am . low
-0.7822678	1am . mostly
-0.5481846	1am . otherwise
-1.689514	1am . partly
-2.025306	1am . patchy
-1.762064	1am . some
-1.281515	1pm . areas
-0.5851855	1pm . cloudy
-1.208965	1pm . high
-0.4925333	1pm . mostly
-1.954931	1pm . otherwise
-2.021878	1pm . patchy
-1.845787	1pm . some
-2.322908	1pm . the
-2.322908	1pm . widespread
-1.840942	2am . cloudy
-1.062791	2am . mostly
-1.03931	2am . otherwise
-1.910269	2pm . cloudy
-0.8960282	2pm . mostly
-0.774606	2pm . some
-2.227887	3am . areas
-2.130977	3am . breezy
-1.683819	3am . cloudy
-2.227887	3am . increasing
-0.943456	3am . low
-0.60206	3am . mostly
-0.8387206	3am . otherwise
-0.7227367	3am . patchy
-1.716003	3am . some
-2.283301	3pm . breezy
-1.982271	3pm . cloudy
-1.646479	3pm . increasing
-0.343782	3pm . mostly
-0.7781513	3pm . otherwise
-1.760422	3pm . partly
-1.398695	3pm . some
-2.206826	4am . areas
-1.428675	4am . cloudy
-1.984977	4am . east
-0.544068	4am . mostly
-0.9515533	4am . otherwise
-2.206826	4am . partly
-0.7108193	4am . patchy
-1.706795	4pm . breezy
-0.1823402	4pm . mostly
-2.271067	4pm . some
-1.748188	4pm . west
-1.170262	5am . east
-1.869232	5am . increasing
-0.827839	5am . mostly
-1.744293	5am . otherwise
-0.6550645	5pm . breezy
-1.329675	5pm . west
-1.893947	5pm . wind
-1.549003	7am . otherwise
-1.770852	7am . wind
-0.9062716	8am . cloudy
-1.396358	8am . mostly
-0.6668985	8am . otherwise
-1.960629	8am . partly
-0.8495072	8pm . cloudy
-1.242308	9am . cloudy
-2.171726	9am . high
-0.2592387	9am . mostly
-1.111029	9am . otherwise
-1.819544	9am . partly
-1.819544	9am . some
-0.5694355	9pm . cloudy
-1.973128	9pm . low
-0.9317352	9pm . mostly
-1.973128	9pm . partly
-2.878086	<num> . blustery
-0.8416269	<num> . breezy
-0.9853174	<num> . calm
-1.132491	<num> . east
-1.545342	<num> . light
-1.301082	<num> . north
-2.247381	<num> . northeast
-1.22254	<num> . northwest
-0.6525422	<num> . south
-1.375825	<num> . southeast
-1.029058	<num> . southwest
-0.8421112	<num> . west
-2.432812	<num> . wind
-1.669873	<num> . windy
-1.760925	afternoon . mostly
-0.1148284	calm . </s>
-0.9195204	calm . chance
-2.181324	calm . new
-2.319627	calm . winds
-0.3579348	day . breezy
-1.232996	day . calm
-2.056905	day . southwest
-1.185046	drizzle . areas
-1.991226	drizzle . cloudy
-1.845098	drizzle . increasing
-0.7659168	drizzle . mostly
-0.39794	drizzle . patchy
-1.33646	early . breezy
-1.01424	early . calm
-1.295067	early . east
-1.859339	early . south
-1.7344	early . west
-0.3177357	east . </s>
-1.164968	east . chance
-1.627366	east . new
-1.481238	east . winds
-0.1205739	expected . </s>
-2.403121	expected . little
-1.766298	expected . new
-1.007687	feet . cloudy
-0.9634832	feet . high
-1.375664	feet . low
-0.792087	feet . mostly
-1.781755	flurries . cloudy
-0.5449663	flurries . mostly
-2.160769	fog . high
-0.120958	fog . otherwise
-2.382617	fog . temperature
-1.359361	hail . cloudy
-1.4843	hail . mostly
-1.012234	light . </s>
-1.857332	light . chance
-0.9542425	light . winds
-0.602551	likely . cloudy
-2.101845	likely . low
-0.2832423	likely . mostly
-1.770852	likely . snow
-1.800815	likely . some
-2.363612	midnight . areas
-0.7365023	midnight . cloudy
-0.8401907	midnight . increasing
-1.202244	midnight . low
-0.4316459	midnight . mostly
-1.105334	midnight . otherwise
-1.7104	midnight . partly
-1.534308	midnight . patchy
-1.748188	midnight . some
-2.567732	midnight . temperature
-0.2757565	mph . </s>
-0.4144361	mph . chance
-3.269046	mph . little
-2.058192	mph . new
-1.166098	mph . winds
-1.763428	night . west
-2.357935	noon . areas
-0.5592842	noon . cloudy
-0.8955368	noon . high
-1.926571	noon . increasing
-0.5776175	noon . mostly
-1.074634	noon . otherwise
-1.53186	noon . partly
-0.9548143	noon . patchy
-1.724466	noon . some
-2.755875	noon . widespread
-0.90309	north . </s>
-1.286307	north . chance
-1.023065	north . winds
-0.4863619	northeast . </s>
-0.539973	northeast . chance
-1.898542	northeast . new
-1.676694	northeast . winds
-0.5212821	northwest . </s>
-0.9252401	northwest . chance
-2.081587	northwest . new
-0.9566486	northwest . winds
-0.03123677	possible . </s>
-2.889021	possible . areas
-2.491081	possible . cloudy
-2.71293	possible . low
-2.190051	possible . mostly
-2.645983	possible . new
-2.247564	rain . areas
-1.30144	rain . cloudy
-1.144902	rain . high
-2.423656	rain . increasing
-0.4335386	rain . low
-0.7424142	rain . mostly
-2.423656	rain . partly
-1.946534	rain . snow
-2.071473	rain . some
-0.841024	rain . temperature
-0.877947	rainfall . high
-0.7318189	rainfall . low
-1.781037	rainfall . steady
-0.9485281	rainfall . temperature
-1.322219	severe . cloudy
-0.5973136	severe . low
-1.074435	severe . mostly
-2.347241	showers . areas
-0.760245	showers . cloudy
-1.218372	showers . high
-1.95727	showers . low
-0.3112661	showers . mostly
-1.195509	showers . partly
-1.021278	showers . patchy
-2.046211	showers . snow
-1.617782	showers . some
-2.610483	showers . steady
-2.786574	showers . temperature
-1.797037	sleet . areas
-1.672098	sleet . cloudy
-1.160215	sleet . mostly
-0.8279976	snow . cloudy
-1.697229	snow . high
-1.441957	snow . low
-0.4027631	snow . mostly
-1.317018	snow . snow
-1.742987	snow . some
-0.3988165	south . </s>
-0.750999	south . chance
-1.996512	south . new
-1.115698	south . winds
-0.3935436	southeast . </s>
-1.214339	southeast . chance
-1.934498	southeast . new
-1.422615	southeast . winds
-0.314486	southwest . </s>
-0.9513081	southwest . chance
-1.624724	southwest . new
-1.014977	southwest . winds
-1.558709	sprinkles . cloudy
-1.558709	sprinkles . mostly
-1.780557	sprinkles . partly
-1.69897	thunderstorm . cloudy
-0.69897	thunderstorm . high
-0.8109438	thunderstorm . low
-1.661181	thunderstorm . mostly
-0.570101	thunderstorm . some
-1.48509	thunderstorm . temperature
-0.2196128	thunderstorms . </s>
-1.746422	thunderstorms . cloudy
-1.833572	thunderstorms . high
-2.486784	thunderstorms . increasing
-1.520643	thunderstorms . low
-1.164565	thunderstorms . mostly
-2.611723	thunderstorms . partly
-2.611723	thunderstorms . patchy
-0.9013239	thunderstorms . some
-1.760925	times . cloudy
-0.67132	west . </s>
-0.5484154	west . chance
-1.700704	west . new
-0.8198901	west . winds
-0.2196661	wind . </s>
-0.5847875	wind . chance
-2.622214	wind . little
-0.3713565	winds . high
-2.001445	winds . mostly
-1.556303	zero . northwest
-1.778151	zero . south
-1.653213	zero . west
-0.1449695	after 10am .
-1.255273	and 10am ,
-0.8444645	before 10am ,
-0.2145143	before 10am .
-0.9075905	between 10am and
-0.6716959	by 10am ,
-0.1679734	after 10pm .
-1.100707	before 10pm ,
-0.2263522	before 10pm .
-1.544068	between 10pm and
-0.4737415	after 11am .
-1.132626	and 11am ,
-1.433656	and 11am .
-0.5754078	before 11am ,
-0.5138117	before 11am .
-0.8002014	between 11am and
-1.09108	by 11am ,
-0.297248	after 11pm .
-0.750519	before 11pm ,
-0.3859551	before 11pm .
-1.298611	between 11pm and
-0.1668206	after 1am .
-0.9588141	and 1am .
-0.9153244	before 1am ,
-0.5351132	before 1am .
-0.6949111	between 1am and
-0.2072332	after 1pm .
-1.070038	and 1pm ,
-1.797037	and 1pm .
-0.779184	before 1pm ,
-0.3642107	before 1pm .
-0.9238295	between 1pm and
-0.7477686	after 2am .
-1.34733	and 2am ,
-1.405322	before 2am ,
-1.638489	between 2am and
-0.5395488	after 2pm .
-0.8838797	and 2pm ,
-1.696793	and 2pm .
-0.5908758	before 2pm ,
-1.065393	between 2pm and
-0.1623652	after 3am .
-1.356981	and 3am ,
-1.561101	and 3am .
-0.5409018	before 3am ,
-0.5228788	before 3am .
-1.760925	between 3am and
-1.467361	by 3am .
-0.1908772	after 3pm .
-0.9408786	and 3pm ,
-0.9813948	before 3pm ,
-0.4859847	before 3pm .
-1.760925	by 3pm .
-0.2281582	after 4am .
-1.48734	and 4am ,
-0.7413738	and 4am .
-0.9098234	before 4am .
-1.402875	by 4am .
-0.3749256	after 4pm .
-1.519525	and 4pm ,
-0.2390168	and 4pm .
-1.638489	before 4pm ,
-0.9777236	by 4pm .
-0.7382798	after 5am .
-1.09108	by 5am .
-0.5630359	by 5pm .
-0.2841854	before 6pm ,
-1.546543	before 7am .
-1.760925	by 7am .
-0.8364551	after 8am .
-1.003205	before 8am ,
-0.5537553	before 8am .
-0.8631024	between 8am and
-0.9588141	by 8am ,
-0.8495072	after 8pm .
-1.467361	before 8pm ,
-0.1727505	after 9am .
-1.065393	and 9am ,
-0.5617167	before 9am ,
-0.6437089	before 9am .
-0.3689527	between 9am and
-0.5889835	by 9am ,
-0.5395488	after 9pm .
-0.6161974	before 9pm ,
-0.8052536	before 9pm .
-0.8920946	between 9pm and
-2.487267	a <num> of
-0.02378119	a <num> percent
-3.407731	and <num> .
-3.553859	and <num> early
-0.00438956	and <num> mph
-0.1457269	around <num> .
-2.186877	around <num> by
-2.000744	around <num> during
-0.5866304	around <num> mph
-2.305167	as <num> .
-2.215767	as <num> early
-0.01538704	as <num> mph
-0.1485021	at <num> mph
-0.004144761	between <num> and
-0.007588852	is <num> %
-0.3811076	level <num> feet
-0.01209479	near <num> .
-1.85474	near <num> by
-1.544068	northwest <num> to
-0.394147	of <num> to
-1.760925	southeast <num> to
-1.760925	southwest <num> to
-1.731745	to <num> feet
-1.541865	to <num> inches
-0.04730475	to <num> mph
-2.223106	to <num> of
-0.8920946	west <num> to
-0.02420491	wind <num> to
-0.4480112	<s> <s> a
-2.637472	<s> <s> areas
-2.087033	<s> <s> clear
-2.009965	<s> <s> cloudy
-3.798841	<s> <s> definite
-3.555802	<s> <s> flurries
-2.466402	<s> <s> freezing
-1.655826	<s> <s> increasing
-2.432418	<s> <s> isolated
-0.6306377	<s> <s> mostly
-1.937007	<s> <s> occasional
-0.9139036	<s> <s> partly
-1.740984	<s> <s> patchy
-2.001227	<s> <s> periods
-1.283629	<s> <s> rain
-2.072521	<s> <s> scattered
-1.141307	<s> <s> showers
-2.318115	<s> <s> snow
-1.264497	<s> <s> sunny
-0.4561628	<s> a <num>
-0.4069156	<s> a chance
-0.6198046	<s> a slight
-1.760925	around a <num>
-1.292124	between a half
-0.5545067	between a quarter
-0.2327372	between a tenth
-0.06387141	possibly a thunderstorm
-2.198046	than a <num>
-0.7648985	than a half
-0.1527229	than a tenth
-0.1635325	then a chance
-0.7543908	then a slight
-3.835088	with a calm
-1.888145	with a east
-0.3852625	with a high
-3.738178	with a light
-0.3803954	with a low
-2.004179	with a north
-3.738178	with a northeast
-2.454877	with a northwest
-1.158394	with a south
-1.908231	with a southeast
-2.067932	with a southwest
-2.550657	with a steady
-2.573825	with a temperature
-1.364163	with a west
-0.4937398	ice accumulation expected
-0.9897464	ice accumulation of
-0.8118343	sleet accumulation of
-0.3749256	snow accumulation expected
-0.3619864	snow accumulation of
-1.559308	drizzle after 10pm
-1.21936	drizzle after 11pm
-2.286307	drizzle after 1am
-0.293606	drizzle after 9am
-0.9640874	drizzle after midnight
-1.544068	feet after midnight
-1.544068	flurries after 3am
-0.9071936	fog after 10pm
-1.056633	fog after 11pm
-0.5979948	fog after 1am
-2.105851	fog after 2am
-1.443093	fog after 4am
-2.202761	fog after 5am
-2.327699	fog after 9am
-0.6464582	fog after midnight
-1.10721	frost after 2am
-1.380211	frost after 4am
-1.157608	likely after 10am
-1.320335	likely after 1pm
-1.082974	likely after 3am
-1.884607	likely after 4am
-1.884607	likely after 4pm
-1.407485	likely after midnight
-1.884607	likely after noon
-1.439734	mainly after 10am
-1.011929	mainly after 10pm
-2.131405	mainly after 11am
-1.447158	mainly after 11pm
-1.286307	mainly after 1am
-1.256343	mainly after 1pm
-2.256344	mainly after 2am
-2.733465	mainly after 2pm
-0.7792222	mainly after 3am
-1.371737	mainly after 3pm
-1.153681	mainly after 4am
-1.329772	mainly after 4pm
-2.307496	mainly after 5am
-1.931832	mainly after 8am
-1.763428	mainly after 8pm
-2.432435	mainly after 9am
-1.909556	mainly after 9pm
-0.8545602	mainly after midnight
-1.001071	mainly after noon
-1.726611	possible after 10pm
-1.571709	possible after 11am
-1.872739	possible after 11pm
-1.292955	possible after 1am
-0.9184963	possible after 1pm
-1.872739	possible after 4pm
-1.668619	possible after 8am
-1.571709	possible after midnight
-0.5673875	possible after noon
-0.5633414	rain after 10am
-2.053428	rain after 10pm
-2.053428	rain after 11am
-1.980877	rain after 1am
-1.503756	rain after 1pm
-2.316669	rain after 2pm
-1.632422	rain after 3am
-1.632422	rain after 3pm
-1.219759	rain after 4am
-2.140578	rain after 4pm
-1.617699	rain after 9am
-0.6916999	rain after midnight
-0.7146091	rain after noon
-2.335257	showers after 10am
-1.075186	showers after 10pm
-1.755474	showers after 11am
-1.858136	showers after 11pm
-1.490159	showers after 1am
-1.654016	showers after 1pm
-1.992835	showers after 2am
-1.733197	showers after 2pm
-1.293865	showers after 3am
-0.7486699	showers after 3pm
-1.602864	showers after 4am
-1.502748	showers after 4pm
-2.432167	showers after 8am
-1.830107	showers after 9am
-1.344031	showers after 9pm
-0.607716	showers after midnight
-1.241836	showers after noon
-1.359625	snow after 10am
-1.711807	snow after 10pm
-1.468769	snow after 11am
-1.359625	snow after 11pm
-1.836746	snow after 9am
-1.614897	snow after midnight
-1.711807	snow after noon
-2.122216	thunderstorm after 10am
-2.247155	thunderstorm after 11am
-0.9918821	thunderstorm after 1am
-1.423246	thunderstorm after 1pm
-2.247155	thunderstorm after 2pm
-1.946125	thunderstorm after 3pm
-0.5283762	thunderstorm after midnight
-0.6487289	thunderstorm after noon
-1.221849	thunderstorms after 11am
-0.9665762	thunderstorms after 1pm
-1.086186	thunderstorms after 2pm
-1.585027	thunderstorms after 3pm
-1.283997	thunderstorms after 5am
-0.9746941	thunderstorms after midnight
-0.627088	thunderstorms after noon
-1.760925	the afternoon .
-1.338014	becoming all rain
-1.036984	becoming all snow
-0.7201593	is also possible
-0.2642128	thunderstorms also possible
-0.08980967	higher amounts possible
-1.18089	precipitation amounts of
-0.193508	rainfall amounts between
-0.5128291	rainfall amounts of
-0.6368221	around an inch
-0.02528275	of an inch
-1.322219	, and freezing
-0.845098	, and sleet
-1.588832	10am and 11am
-1.442704	10am and 1pm
-1.810681	10am and 2pm
-1.442704	10am and 4pm
-1.50965	10am and noon
-1.640978	10pm and 4am
-1.82823	11am and 2pm
-1.004321	11am and 4pm
-1.351109	11am and noon
-1.553883	11pm and 1am
-1.775732	11pm and 4am
-1.42529	1am and 2am
-1.851258	1am and 3am
-0.7969007	1am and 4am
-1.171614	1pm and 2pm
-1.440459	1pm and 3pm
-1.586587	1pm and 4pm
-1.638489	2am and 4am
-1.15557	2pm and 3pm
-1.667453	2pm and 4pm
-1.760925	3am and 4am
-1.516315	8am and 11am
-1.692406	8am and 4pm
-1.090346	8am and 9am
-1.692406	8am and noon
-1.472757	9am and 10am
-1.431364	9am and 11am
-0.4515671	9am and noon
-1.687975	9pm and 3am
-0.9476119	9pm and midnight
-0.004144761	<num> and <num>
-1.298611	cloudy and cold
-0.4286479	half and three
-0.2225321	light and variable
-2.355388	likely and areas
-0.1266452	likely and possibly
-1.057353	midnight and 1am
-1.50965	midnight and 3am
-1.618048	noon and 1pm
-1.504105	noon and 2pm
-0.2697432	noon and 4pm
-0.2512512	one and two
-0.1165981	quarter and half
-0.7575647	quarters and one
-0.5153477	rain and possibly
-0.8132344	rain and sleet
-0.3917255	rain and snow
-1.927178	rain and thunderstorms
-1.255273	severe and produce
-1.028645	showers and possibly
-2.261923	showers and sleet
-0.09757054	showers and thunderstorms
-1.64836	snow and areas
-0.7105079	snow and freezing
-0.8244513	snow and sleet
-0.05948951	tenth and quarter
-0.3369426	. areas of
-0.5945069	<s> areas of
-1.34733	and areas of
-0.4426104	east around <num>
-0.005891413	low around <num>
-1.18089	north around <num>
-0.8364551	northeast around <num>
-1.544068	northwest around <num>
-1.871184	of around a
-0.6407347	of around an
-0.201473	south around <num>
-0.4156032	southeast around <num>
-0.5141048	southwest around <num>
-0.4704139	temperature around <num>
-0.201473	to around <num>
-0.398708	west around <num>
-0.01888534	wind around <num>
-0.03892491	gust as high
-0.01449488	gusts as high
-0.01069125	high as <num>
-0.5217493	low as <num>
-1.40824	low as zero
-0.4737415	values as low
-1.760925	heavy at times
-0.1485021	wind at <num>
-2.133539	could be heavy
-0.2377482	could be severe
-0.8772827	, becoming all
-2.314394	gradually becoming clear
-0.3412661	gradually becoming mostly
-0.8557561	gradually becoming partly
-0.7042664	gradually becoming sunny
-0.421165	mph becoming calm
-0.9930303	mph becoming east
-1.934498	mph becoming light
-1.354218	mph becoming north
-1.318503	mph becoming northeast
-1.57195	mph becoming northwest
-0.958767	mph becoming south
-1.694166	mph becoming southeast
-1.239321	mph becoming southwest
-0.7958526	mph becoming west
-0.9777236	then becoming clear
-0.7560905	wind becoming east
-1.300671	wind becoming north
-2.179336	wind becoming northeast
-2.153007	wind becoming northwest
-0.4071063	wind becoming south
-0.8934978	wind becoming southeast
-1.272867	wind becoming southwest
-0.9195633	wind becoming west
-1.126487	drizzle before 10am
-0.9863083	drizzle before 1am
-1.494464	drizzle before 1pm
-1.749736	drizzle before 9am
-0.7585102	drizzle before 9pm
-1.971585	drizzle before midnight
-1.248642	flurries before 1am
-1.176091	flurries before midnight
-1.812913	flurries before noon
-0.8827872	fog before 10am
-1.644548	fog before 11am
-1.557398	fog before 1am
-2.054723	fog before 1pm
-0.9085944	fog before 3am
-0.9175493	fog before 3pm
-2.20085	fog before 7am
-1.320037	fog before 8am
-1.237063	fog before 9am
-2.054723	fog before midnight
-0.6142632	fog before noon
-0.9408786	frost before 8am
-1.71693	likely before 10am
-1.591992	likely before 10pm
-1.893022	likely before 11am
-1.972203	likely before 11pm
-2.194052	likely before 1am
-2.069113	likely before 1pm
-2.069113	likely before 2am
-1.972203	likely before 3am
-0.885843	likely before 6pm
-0.8516289	likely before 9am
-2.194052	likely before 9pm
-1.467053	likely before midnight
-0.6219548	likely before noon
-1.414632	mainly before 10am
-1.071405	mainly before 10pm
-1.326677	mainly before 11am
-0.9976184	mainly before 11pm
-1.826075	mainly before 1am
-1.743101	mainly before 1pm
-1.689855	mainly before 3am
-1.9587	mainly before 4am
-1.928737	mainly before 8am
-1.706888	mainly before 9am
-1.573349	mainly before 9pm
-0.9618136	mainly before midnight
-0.4308864	mainly before noon
-2.318063	rain before 10am
-1.619093	rain before 10pm
-1.161716	rain before 11am
-2.096215	rain before 11pm
-1.494155	rain before 1am
-0.8556653	rain before 1pm
-1.892095	rain before 3am
-2.096215	rain before 3pm
-0.7088248	rain before 6pm
-2.318063	rain before 8pm
-1.840942	rain before 9pm
-0.7577581	rain before midnight
-1.238882	rain before noon
-0.6777066	showers before 10am
-0.8457211	showers before 10pm
-1.782846	showers before 11am
-1.338394	showers before 11pm
-1.998446	showers before 1am
-1.318499	showers before 1pm
-1.119268	showers before 3am
-2.103182	showers before 4am
-2.667453	showers before 6pm
-1.71321	showers before 8am
-1.697416	showers before 9am
-2.190332	showers before 9pm
-1.653213	showers before midnight
-0.587067	showers before noon
-1.69897	sleet before 10am
-1.778151	sleet before 11am
-1.632023	sleet before 1am
-1.246672	sleet before 1pm
-1.875061	sleet before 2am
-0.8050234	sleet before 2pm
-1.062148	sleet before 3pm
-2	sleet before 4pm
-2	sleet before 8pm
-1.875061	sleet before 9am
-1.273001	sleet before noon
-1.110474	snow before 10am
-1.669782	snow before 10pm
-0.8653014	snow before 11am
-0.993088	snow before 11pm
-1.211144	snow before 1pm
-1.49369	snow before 2pm
-0.8826755	snow before noon
-1.268974	thunderstorm before 11am
-0.2825466	thunderstorm before midnight
-1.152468	thunderstorm before noon
-1.717046	thunderstorms before 10am
-1.665894	thunderstorms before 10pm
-1.921166	thunderstorms before 11pm
-1.277713	thunderstorms before 1pm
-1.620136	thunderstorms before 9pm
-0.9866676	thunderstorms before midnight
-0.4298044	thunderstorms before noon
-0.091061	amounts between a
-1.01204	amounts between one
-1.792197	amounts between three
-0.3689527	east between <num>
-0.8920946	fog between 1am
-1.690196	likely between 10am
-1.912045	likely between 11am
-0.5829861	likely between 9am
-1.912045	likely between 9pm
-1.912045	likely between midnight
-1.875061	mainly between 10am
-1.750123	mainly between 11pm
-1.352183	mainly between 1am
-1.750123	mainly between 8am
-0.8470325	mainly between 9am
-1.750123	mainly between 9pm
-0.6178542	north between <num>
-0.5307587	northeast between <num>
-0.6118198	northwest between <num>
-1.544068	rain between 11pm
-1.367977	rain between 1am
-1.419129	rain between 9pm
-1.043466	rain between midnight
-1.444412	showers between 10am
-2.19774	showers between 10pm
-1.332438	showers between 11am
-2.19774	showers between 1pm
-1.313133	showers between 8am
-1.59568	showers between 9am
-1.771771	showers between 9pm
-2.19774	showers between midnight
-0.3324385	showers between noon
-1.455691	sleet between 11am
-1.179484	sleet between 1pm
-1.807873	sleet between 2am
-1.233842	sleet between 2pm
-1.932812	sleet between 3am
-1.154661	sleet between 9am
-1.029722	sleet between noon
-1.763428	snow between 1pm
-0.1075463	south between <num>
-0.1512677	southeast between <num>
-0.3130021	southwest between <num>
-1.546543	thunderstorm between 9pm
-1.773299	thunderstorms between 1pm
-1.55145	thunderstorms between 9am
-0.04454175	to between <num>
-1.257679	values between <num>
-0.2575643	west between <num>
-0.005074986	wind between <num>
-1.78295	of blowing dust
-1.260071	of blowing snow
-0.7889821	. blustery ,
-0.01893864	. breezy ,
-0.9981077	<num> by 10am
-1.484774	<num> by 11am
-1.882714	<num> by 3am
-2.183744	<num> by 3pm
-1.815767	<num> by 4am
-1.359836	<num> by 4pm
-1.484774	<num> by 5am
-0.8546855	<num> by 5pm
-2.183744	<num> by 7am
-1.338646	<num> by 8am
-0.8900135	<num> by 9am
-2.183744	<num> by midnight
-1.116797	<num> by noon
-0.02733325	. calm wind
-1.544068	a calm wind
-0.04662521	becoming calm .
-0.007588852	. chance of
-0.01647405	a chance of
-0.02249362	percent chance of
-0.02961454	slight chance of
-0.4426104	wind chill values
-0.9238295	, clear ,
-0.2613206	<s> clear ,
-0.9238295	becoming clear ,
-0.05314318	mostly clear ,
-0.600151	gradual clearing ,
-0.06575203	increasing clouds ,
-0.1109585	, cloudy ,
-0.03880364	. cloudy ,
-2.814414	. cloudy during
-1.708904	. cloudy through
-0.2334871	<s> cloudy ,
-2.017033	<s> cloudy during
-0.009206031	mostly cloudy ,
-3.02073	mostly cloudy and
-2.673942	mostly cloudy during
-0.02612629	partly cloudy ,
-2.992111	partly cloudy during
-1.760925	then cloudy overnight
-1.298611	and cold ,
-1.760925	snow could be
-0.4777342	storms could be
-0.3677726	storms could produce
-0.03892491	winds could gust
-0.372912	with damaging winds
-0.2984976	the day .
-0.2486419	mph decreasing to
-1.638489	<s> definite drizzle
-1.638489	definite drizzle before
-0.8803901	freezing drizzle .
-1.408664	freezing drizzle before
-0.7191734	of drizzle .
-0.5827549	of drizzle after
-0.7801298	of drizzle before
-0.4478751	or drizzle ,
-0.7135423	or drizzle .
-0.5680028	or drizzle after
-1.575427	or drizzle before
-0.2947811	<num> during the
-0.8495072	cloudy during the
-0.6643619	<num> early .
-0.8772827	the early evening
-0.895478	. east northeast
-0.9377099	. east southeast
-0.170791	. east wind
-2.117271	a east northeast
-1.256933	a east southeast
-0.2101288	a east wind
-0.5929894	becoming east .
-1.015552	becoming east around
-0.8940194	becoming east between
-0.9409182	becoming east northeast
-0.6212461	becoming east southeast
-1.711807	light east northeast
-1.359625	light east southeast
-0.9159272	light east wind
-0.8772827	early evening ,
-1.760925	the evening ,
-0.08980967	, except higher
-0.1101265	accumulation expected .
-0.4575991	temperature falling to
-0.2984976	then falling to
-0.4858448	<num> feet .
-1.847573	<num> feet after
-2.069421	<num> feet in
-1.041393	<num> feet lowering
-1.055181	<num> feet rising
-1.549003	<s> flurries .
-1.770852	<s> flurries before
-1.568202	of flurries after
-1.225779	of flurries before
-0.5701246	scattered flurries .
-1.282256	scattered flurries before
-1.653213	freezing fog after
-1.410174	freezing fog before
-0.7537679	of fog .
-0.9489942	of fog after
-0.697652	of fog before
-0.5265481	patchy fog .
-0.588696	patchy fog after
-0.4823728	patchy fog before
-1.823213	patchy fog between
-1.773299	widespread fog .
-1.472269	widespread fog before
-0.8772827	, freezing rain
-0.4737415	<s> freezing rain
-0.5782821	and freezing rain
-1.126873	of freezing drizzle
-1.728933	of freezing fog
-0.3385028	of freezing rain
-1.574031	or freezing drizzle
-0.3872162	or freezing rain
-1.638489	patchy freezing fog
-1.467361	then freezing rain
-1.216286	with freezing rain
-1.122762	of frost after
-1.122762	of frost before
-1.364082	patchy frost after
-1.364082	patchy frost before
-0.600151	then gradual clearing
-0.1002126	then gradually becoming
-0.03892491	could gust as
-0.01449488	with gusts as
-1.402875	produce gusty winds
-1.148508	small hail .
-0.7066417	a half and
-0.3235733	a half inch
-0.1165981	and half of
-1.760925	be heavy at
-0.4526091	produce heavy rain
-0.546879	produce heavy rainfall
-0.07415768	. high near
-0.006502681	a high near
-0.01069125	as high as
-0.08980967	except higher amounts
-0.8239087	new ice accumulation
-0.4484761	no ice accumulation
-1.760925	feet in the
-0.08980967	possible in thunderstorms
-0.6159216	an inch ,
-0.1533213	an inch possible
-0.2296105	half inch possible
-0.2808266	one inch possible
-0.4426104	<num> inches possible
-0.2512512	two inches possible
-0.5351132	, increasing clouds
-0.1488043	. increasing clouds
-0.1158618	<s> increasing clouds
-0.05133055	mph increasing to
-0.007588852	precipitation is <num>
-0.7201593	thunder is also
-0.4514728	<s> isolated showers
-1.760925	then isolated showers
-0.04970453	of less than
-0.3811076	snow level <num>
-0.539649	. light and
-1.38818	. light east
-1.353418	. light north
-2.245513	. light northeast
-1.740363	. light northwest
-0.7712964	. light south
-1.60206	. light southeast
-1.622263	. light southwest
-1.263241	. light west
-0.8338929	. light wind
-1.544068	a light wind
-0.6716959	becoming light .
-0.8794929	of light rain
-1.202067	rain likely ,
-0.6734894	rain likely .
-1.303093	rain likely after
-0.9051532	rain likely and
-0.5627305	rain likely before
-1.087493	rain likely between
-0.4552928	showers likely ,
-0.5535197	showers likely .
-0.6108393	showers likely and
-1.685742	showers likely before
-2.518251	showers likely between
-1.190332	sleet likely .
-1.792392	sleet likely before
-1.792392	sleet likely between
-0.9724165	snow likely ,
-0.8559109	snow likely .
-1.68842	snow likely after
-1.910269	snow likely and
-1.38739	snow likely before
-0.6089647	thunderstorms likely ,
-0.9825453	thunderstorms likely .
-1.354931	thunderstorms likely after
-1.103119	thunderstorms likely before
-0.1101265	. little or
-0.06505547	. low around
-0.006430747	a low around
-0.4737415	as low as
-0.8002014	feet lowering to
-0.2814804	, mainly after
-0.4014693	, mainly before
-1.703682	, mainly between
-0.6368221	through mid morning
-0.05831305	after midnight .
-1.083682	and midnight ,
-1.333559	and midnight .
-0.8174197	before midnight ,
-0.2008819	before midnight .
-0.9075905	between midnight and
-1.760925	by midnight ,
-1.09108	possibly mixed with
-0.6368221	mid morning ,
-1.195128	, mostly clear
-0.1735999	, mostly cloudy
-1.045959	, mostly sunny
-0.01126732	. mostly cloudy
-0.6881448	<s> mostly clear
-0.455257	<s> mostly cloudy
-0.3801826	<s> mostly sunny
-2.135133	becoming mostly clear
-0.1654838	becoming mostly sunny
-0.8142917	<num> mph ,
-0.1691399	<num> mph .
-0.9358622	<num> mph becoming
-2.17162	<num> mph decreasing
-1.382103	<num> mph increasing
-0.006019178	high near <num>
-0.2947811	to near <num>
-2.102434	. new ice
-2.500374	. new precipitation
-0.09553999	. new rainfall
-2.977495	. new sleet
-0.8487727	. new snow
-1.638489	the night .
-0.9071139	or no ice
-0.1847601	or no snow
-0.0834919	after noon .
-0.5243737	and noon ,
-0.919825	and noon .
-1.031681	before noon ,
-0.09643288	before noon .
-0.228882	between noon and
-0.7676858	by noon ,
-1.306272	. north northeast
-0.5471438	. north northwest
-0.2609488	. north wind
-0.3120001	a north northwest
-0.8885638	a north wind
-0.8750613	becoming north .
-1.588272	becoming north around
-0.9431771	becoming north between
-0.7329545	becoming north northeast
-0.7329545	becoming north northwest
-1.541995	light north northeast
-0.7886674	light north wind
-0.3435413	. northeast wind
-1.544068	a northeast wind
-0.2952777	becoming northeast .
-1.79588	becoming northeast around
-1.532639	becoming northeast between
-0.8302956	east northeast .
-2.136721	east northeast around
-1.247419	east northeast between
-0.3155347	east northeast wind
-1.544068	light northeast wind
-0.9622114	north northeast .
-1.196295	north northeast around
-1.027152	north northeast between
-0.6434527	north northeast wind
-0.0467138	. northwest wind
-0.4426104	a northwest wind
-0.4876592	becoming northwest .
-1.863323	becoming northwest <num>
-1.988262	becoming northwest around
-1.103655	becoming northwest between
-1.065393	light northwest wind
-1.09492	north northwest .
-1.709569	north northwest between
-0.1504374	north northwest wind
-1.394331	west northwest .
-2.379608	west northwest around
-1.62628	west northwest between
-0.1560252	west northwest wind
-0.7241817	<s> occasional rain
-0.3519471	<s> occasional showers
-1.876987	then occasional rain
-0.6217147	then occasional showers
-0.8239087	<num> of an
-0.8085339	accumulation of <num>
-1.144956	accumulation of around
-0.2628503	accumulation of less
-0.06824902	amounts of less
-1.499458	areas of blowing
-1.800488	areas of drizzle
-0.3772421	areas of fog
-1.733541	areas of freezing
-1.116241	areas of frost
-1.874318	chance of drizzle
-3.121472	chance of flurries
-1.998711	chance of freezing
-2.8662	chance of light
-0.3133064	chance of precipitation
-0.7251567	chance of rain
-0.5950469	chance of showers
-1.427745	chance of snow
-3.256171	chance of sprinkles
-0.1165981	half of an
-0.3220145	periods of rain
-0.90309	periods of showers
-0.05948951	quarter of an
-0.4286479	quarters of an
-0.2947811	remainder of the
-0.1491078	some of the
-0.06824902	tenth of an
-0.7575647	and one inch
-0.2512512	between one and
-0.3260123	than one inch
-0.1101265	little or no
-0.1221002	rain or drizzle
-0.9724165	rain or freezing
-0.0417913	. otherwise ,
-1.760925	cloudy overnight ,
-0.3241362	, partly cloudy
-1.055108	, partly sunny
-0.1448484	. partly cloudy
-2.18327	. partly sunny
-0.1999301	<s> partly cloudy
-0.4992636	<s> partly sunny
-0.394147	becoming partly cloudy
-0.06570772	. patchy fog
-2.611015	. patchy freezing
-0.1518453	<s> patchy fog
-1.621176	<s> patchy frost
-0.02249362	<num> percent chance
-0.2246084	<s> periods of
-1.638489	then periods of
-1.012837	also possible .
-0.3074012	also possible after
-0.08980967	amounts possible in
-0.02774424	inch possible .
-0.1884028	inches possible .
-1.09108	, possibly mixed
-0.06387141	and possibly a
-1.18089	new precipitation amounts
-0.007588852	of precipitation is
-1.255273	and produce heavy
-1.83068	could produce gusty
-0.2194123	could produce heavy
-1.561835	could produce small
-0.1165981	a quarter and
-0.05948951	and quarter of
-0.9294189	three quarters and
-0.4814	three quarters of
-1.16594	<s> rain ,
-0.6324426	<s> rain .
-1.99417	<s> rain after
-0.7246575	<s> rain and
-1.6789	<s> rain before
-0.4686937	<s> rain likely
-2.056318	<s> rain or
-1.693141	<s> rain showers
-1.298611	all rain after
-1.210185	freezing rain ,
-1.335123	freezing rain .
-0.9733956	freezing rain after
-0.9797358	freezing rain and
-0.8391169	freezing rain before
-1.268177	freezing rain between
-0.6390584	freezing rain likely
-0.3089026	heavy rain .
-0.8772827	light rain before
-0.6498718	occasional rain ,
-1.936179	occasional rain .
-1.01536	occasional rain after
-1.936179	occasional rain and
-1.81124	occasional rain before
-1.047677	of rain ,
-1.08077	of rain .
-0.6602483	of rain after
-0.7214301	of rain and
-1.132082	of rain before
-2.835373	of rain between
-0.6303496	of rain or
-1.157159	of rain showers
-1.778151	scattered rain and
-1.352183	scattered rain showers
-1.70757	then rain ,
-1.496717	then rain .
-0.8113196	then rain after
-0.8702975	then rain and
-1.230449	then rain likely
-0.7241694	then rain or
-2.0086	then rain showers
-0.359433	heavy rainfall .
-0.02357108	new rainfall amounts
-0.2947811	the remainder of
-0.8118343	feet rising to
-0.2691826	temperature rising to
-1.638489	then rising to
-0.6855717	<s> scattered flurries
-1.680109	<s> scattered rain
-0.5301203	<s> scattered showers
-1.541806	<s> scattered snow
-1.805048	<s> scattered thunderstorms
-1.836746	then scattered rain
-0.8225055	then scattered showers
-1.711807	then scattered snow
-0.511616	be severe ,
-0.5956888	be severe .
-1.608526	be severe and
-1.766937	<s> showers ,
-1.164877	<s> showers .
-0.5807459	<s> showers and
-0.2457224	<s> showers likely
-1.192797	isolated showers ,
-0.810462	isolated showers .
-1.192797	isolated showers after
-1.578148	isolated showers and
-1.192797	isolated showers before
-0.7123657	occasional showers ,
-0.3884057	occasional showers and
-0.7532176	of showers ,
-0.4854525	of showers .
-0.8236063	of showers after
-0.9387608	of showers and
-0.8208662	of showers before
-1.3113	of showers between
-1.548477	rain showers ,
-1.022507	rain showers .
-1.415852	rain showers after
-1.740363	rain showers and
-0.3871092	rain showers before
-1.615424	rain showers between
-1.263241	rain showers likely
-1.097604	scattered showers ,
-0.7473563	scattered showers .
-1.381601	scattered showers after
-0.8827605	scattered showers and
-1.416363	scattered showers before
-1.510854	snow showers ,
-0.4944638	snow showers .
-1.045014	snow showers after
-0.6226315	snow showers before
-1.369525	snow showers between
-1.086978	snow showers likely
-1.582063	then showers ,
-1.678973	then showers .
-0.6753693	then showers and
-0.3482215	then showers likely
-1.615663	and sleet ,
-1.401783	and sleet .
-1.209898	and sleet accumulation
-0.5431125	and sleet before
-0.7175366	and sleet between
-1.510928	and sleet likely
-1.638489	new sleet accumulation
-1.760925	then sleet likely
-0.02961454	a slight chance
-1.148508	produce small hail
-1.11869	, snow ,
-0.3811076	. snow level
-1.083682	<s> snow ,
-1.463893	<s> snow .
-1.764923	<s> snow and
-0.7736969	<s> snow likely
-0.8956913	<s> snow showers
-1.018885	all snow after
-1.742786	and snow ,
-0.7296241	and snow .
-2.379608	and snow after
-0.8655028	and snow before
-2.379608	and snow between
-1.601456	and snow likely
-0.4003628	and snow showers
-1.556303	blowing snow .
-1.778151	blowing snow after
-1.778151	blowing snow before
-0.1416124	new snow accumulation
-1.402875	new snow and
-0.1279926	no snow accumulation
-1.160178	of snow ,
-0.7265223	of snow .
-1.81339	of snow after
-1.19609	of snow and
-0.942485	of snow before
-0.4344736	of snow showers
-1.662758	scattered snow .
-1.223425	scattered snow showers
-1.760925	the snow could
-1.28289	then snow ,
-1.421193	then snow .
-1.421193	then snow and
-1.37004	then snow likely
-1.421193	then snow showers
-1.765917	with snow ,
-0.2558535	. some of
-0.7769916	. some storms
-1.271842	. some thunder
-0.8740382	. south southeast
-0.9138442	. south southwest
-0.1456579	. south wind
-0.6494524	a south southeast
-0.6383634	a south southwest
-0.3327953	a south wind
-0.6773942	becoming south .
-0.7312193	becoming south around
-0.4088564	becoming south between
-1.384432	becoming south southeast
-1.182012	becoming south southwest
-1.072427	light south southeast
-1.725639	light south southwest
-0.4319087	light south wind
-0.06517053	. southeast wind
-0.176947	a southeast wind
-0.8435442	becoming southeast .
-1.030631	becoming southeast around
-0.3350145	becoming southeast between
-1.005155	east southeast .
-2.354108	east southeast <num>
-1.22917	east southeast around
-0.7139584	east southeast between
-0.3982604	east southeast wind
-0.9408786	light southeast wind
-1.709913	south southeast .
-1.968191	south southeast around
-1.850092	south southeast between
-0.07401343	south southeast wind
-0.03053347	. southwest wind
-0.2371655	a southwest wind
-0.3967033	becoming southwest .
-0.9806231	becoming southwest around
-0.7571979	becoming southwest between
-0.9588141	light southwest wind
-1.31597	south southwest .
-2.161068	south southwest around
-1.799341	south southwest between
-0.0899231	south southwest wind
-0.8525146	west southwest .
-1.922552	west southwest around
-1.320493	west southwest between
-0.19896	west southwest wind
-1.216286	of sprinkles .
-1.216286	. steady temperature
-0.5062062	a steady temperature
-0.372912	some storms could
-0.1491078	the storms could
-1.298611	, sunny ,
-0.05083517	<s> sunny ,
-0.3102566	becoming sunny ,
-0.02406287	mostly sunny ,
-0.06448619	partly sunny ,
-0.9845273	. temperature falling
-0.338614	. temperature rising
-0.6696029	a temperature falling
-1.043184	a temperature rising
-0.4704139	steady temperature around
-0.3029011	a tenth and
-0.3670442	a tenth of
-0.09954253	less than a
-1.014609	less than one
-1.760925	. the snow
-1.15557	during the early
-2.093422	during the evening
-0.3275049	during the remainder
-1.760925	in the afternoon
-0.6447133	of the day
-2.278182	of the night
-0.2621937	of the storms
-0.4405274	, then a
-2.163161	, then becoming
-2.98707	, then cloudy
-1.228663	, then falling
-2.68604	, then freezing
-1.708317	, then gradual
-0.6479501	, then gradually
-2.98707	, then isolated
-1.716003	, then occasional
-2.862131	, then periods
-1.087614	, then rain
-2.862131	, then rising
-1.907889	, then scattered
-0.8588863	, then showers
-2.98707	, then sleet
-1.851408	, then snow
-0.4302475	and three quarters
-0.7575647	between three quarters
-0.6368221	cloudy through mid
-0.7201593	some thunder is
-1.839199	a thunderstorm ,
-0.5146875	a thunderstorm .
-0.5381686	a thunderstorm after
-0.5989268	a thunderstorm before
-2.31632	a thunderstorm between
-0.7149038	and thunderstorms ,
-0.6733745	and thunderstorms .
-0.6639183	and thunderstorms after
-0.7831047	and thunderstorms before
-2.272712	and thunderstorms between
-1.008484	and thunderstorms likely
-0.08980967	in thunderstorms .
-1.467361	scattered thunderstorms after
-0.2642128	with thunderstorms also
-1.760925	at times .
-0.02309899	<num> to <num>
-0.2486419	decreasing to between
-0.222184	falling to around
-2.033424	falling to near
-0.05133055	increasing to between
-0.8002014	lowering to <num>
-1.111783	rising to <num>
-1.126023	rising to around
-0.3676159	rising to near
-0.2512512	and two inches
-0.4903832	chill values as
-1.383489	chill values between
-0.2225321	and variable wind
-0.9671762	. west northwest
-0.8204403	. west southwest
-0.1570557	. west wind
-1.15817	a west northwest
-1.338906	a west southwest
-0.1188824	a west wind
-0.5174821	becoming west .
-1.64068	becoming west <num>
-0.9855417	becoming west around
-0.7164009	becoming west between
-1.357379	becoming west northwest
-0.7375902	becoming west southwest
-1.861335	light west southwest
-0.685244	light west wind
-1.34733	. widespread fog
-0.4426104	. wind chill
-0.7416093	calm wind .
-0.1202442	calm wind becoming
-1.878522	east wind .
-1.046013	east wind <num>
-0.5408629	east wind around
-1.259429	east wind at
-0.3314859	east wind between
-0.357591	light wind becoming
-1.483881	north wind .
-0.7698471	north wind <num>
-0.9254546	north wind around
-1.471292	north wind at
-0.314656	north wind between
-1.703622	northeast wind .
-0.9425041	northeast wind <num>
-0.5820369	northeast wind around
-1.164353	northeast wind at
-0.5480524	northeast wind between
-2.2309	northwest wind .
-0.9770486	northwest wind <num>
-0.8560434	northwest wind around
-1.771152	northwest wind at
-0.1706462	northwest wind between
-1.655741	south wind .
-0.913375	south wind <num>
-0.7831399	south wind around
-2.236261	south wind at
-0.1842997	south wind between
-1.743314	southeast wind .
-0.8102605	southeast wind <num>
-0.7925318	southeast wind around
-1.858033	southeast wind at
-0.2229238	southeast wind between
-2.212568	southwest wind .
-0.9313723	southwest wind <num>
-0.7893222	southwest wind around
-1.978485	southwest wind at
-0.1755687	southwest wind between
-0.2225321	variable wind .
-1.935283	west wind .
-0.8250678	west wind <num>
-0.91825	west wind around
-1.749647	west wind at
-0.182126	west wind between
-0.03892491	. winds could
-0.372912	damaging winds .
-1.402875	gusty winds .
-0.1198353	. windy ,
-0.08005347	, with a
-2.417585	, with damaging
-0.8147436	, with gusts
-2.206999	, with thunderstorms
-1.225779	mixed with freezing
-1.568202	mixed with snow
-1.255273	as zero .

\end\
