
\data\
ngram 1=5588
ngram 2=26004
ngram 3=15923

\1-grams:
-3.324721	!	0.04583649
-2.313537	's	0.1024827
-4.510357	+	0.0149083
-1.421041	,	-0.004950523
-3.15497	-	0.06916108
-1.40428	.	-0.04050405
-3.841351	/	0.00173509
-4.686449	00	0.004857383
-4.209327	01	0.004527653
-4.385418	02	0.004701973
-4.288508	03	0.004624289
-4.385418	04	0.004701973
-4.686449	048	-1.687456e-05
-4.510357	05	0.004779671
-3.35401	1	0.01778882
-4.686449	1-1/8	0.00632041
-4.510357	1.0	0.0005212813
-4.288508	1.5	-0.0002785349
-4.686449	1.5"	-0.000146526
-3.407695	10	0.02309388
-4.084389	10-speed	-0.0002168433
-4.510357	100	-9.184783e-05
-3.841351	100%	0.004106974
-4.510357	1000	-0.0001661233
-4.686449	100g	6.809046e-05
-4.142381	100m	0.004410181
-3.315381	100mm	0.005658437
-4.686449	100mm-travel	-7.052814e-05
-4.288508	101	-0.0002052531
-4.084389	1020	-0.0002324682
-3.23929	105	0.006363322
-4.510357	105mm	0.00472089
-4.510357	10m	0.001486695
-4.385418	10r	0.001408997
-4.510357	10sp	-6.948615e-05
-4.510357	11	0.001112853
-4.288508	11-25t	0.001244584
-4.510357	11-28t	0.001399967
-4.033236	11-32t	-0.0004907403
-4.686449	11-34t	5.020181e-05
-4.686449	110	-0.0001420559
-4.209327	110mm	0.004487837
-4.686449	11m	0.001564407
-4.686449	11r	0.001564407
-4.142381	12	3.710808e-05
-4.385418	12-25t	-0.0001052086
-4.686449	12-27t	5.020181e-05
-4.686449	120	0.001062074
-4.686449	1200	0.004857383
-3.419277	120mm	0.02029568
-4.385418	12k	0.00135817
-3.75703	12km	0.01614692
-4.686449	12x135mm	0.0001262341
-4.510357	130/140mm	0.0006079924
-4.686449	130mm	0.0006857045
-4.686449	136	0.004857383
-4.686449	14	-0.0001420559
-4.510357	14-28t	-0.0001527111
-4.142381	14-34t	-0.0004634207
-3.783359	140mm	0.005299953
-4.385418	1450grams	-0.000288526
-4.510357	14mm	-0.0002108277
-4.209327	15	0.0001343315
-4.510357	150	0.001543594
-3.811387	150mm	0.004562503
-4.510357	1580	-0.0001661233
-4.510357	15mm	0.0006870197
-4.084389	16	0.01225075
-4.510357	16"	0.0007900777
-4.686449	16.75"	0.0004976423
-4.686449	160-135mm	-2.581731e-05
-3.783359	160mm	0.005690057
-4.510357	160mm-travel	0.0003706889
-4.510357	165mm	0.00472089
-4.288508	18	0.005641515
-4.686449	18"	0.0004976423
-4.510357	18.5kg	0.0149083
-4.686449	1800	0.004857383
-4.686449	180mm	0.0004528771
-4.385418	19	7.202188e-05
-4.686449	19.5"	0.0004976423
-4.686449	1930's	0.01498601
-4.510357	1930s	0.0165592
-4.385418	1k	-0.0002929962
-4.510357	1st	-0.0002108277
-4.385418	1twenty	0.01129552
-3.161404	2	0.02181594
-4.686449	2,5	0.0001799121
-4.686449	2-speed	0.01044605
-4.142381	2.0	0.0106131
-4.686449	2.1	0.0007752868
-4.142381	2.1"	9.083305e-06
-4.510357	2.2"	0.0003527844
-4.510357	2.25"	0.0003527844
-4.288508	2.3""	0.000159934
-4.686449	2.35	0.0001575454
-4.686449	2.5	0.0008872904
-3.288509	20	0.02290021
-4.142381	20"	0.01705858
-4.686449	20-speed	9.492507e-05
-4.686449	20.5	-0.0001420559
-4.033236	20.75"	-4.605105e-05
-4.686449	200	0.004857383
-4.084389	2000	0.02130476
-4.686449	2000g	0.000551366
-4.686449	2001	0.002269552
-4.510357	2007	0.0149083
-3.686449	2009	0.01339384
-2.732206	2010	0.01270548
-1.940204	2011	0.003877215
-4.510357	2025	-0.0001348275
-4.510357	20kg	0.0165592
-4.209327	20mm	0.0008258785
-4.033236	21	0.002334765
-4.385418	21"	0.0003422319
-4.686449	210	0.004857383
-4.686449	214	0.004857383
-4.686449	216	0.004857383
-4.510357	22	0.02237548
-4.385418	22-32-44t	0.001219065
-4.686449	220	0.001057592
-4.510357	22t	8.267918e-06
-4.510357	23	0.0004048545
-4.385418	2300	0.0007571949
-3.75703	24	0.006395012
-4.288508	24"	0.02146213
-4.288508	24-speed	0.001060631
-4.686449	24.1	-0.0001375858
-4.142381	25	0.00501787
-3.841351	25-9	-0.0008232865
-4.510357	25.4	-0.0002152979
-4.142381	25/9	-0.0003444146
-4.510357	25t	0.0001318216
-4.686449	25x9t	-0.0001197048
-3.946086	26	0.004238153
-4.385418	26"	5.24293e-05
-4.686449	26-inch	0.0001396529
-3.987478	27	0.006828662
-4.686449	27-9	0.0001307071
-4.385418	27-speed	0.01197577
-4.288508	28	-0.0003187803
-4.686449	28"	-0.0001286454
-3.811387	28-38-48t	-0.0005685563
-4.686449	28-inch	0.0001396529
-4.510357	28mm	-7.670073e-05
-4.209327	29	9.071291e-05
-3.873535	29"	-0.0003316443
-3.456	29er	0.03096766
-4.686449	29ers	0.001613775
-4.686449	2mm	-0.000101823
-4.510357	2nd	-0.0002617596
-4.686449	2x10	0.0001307071
-3.078994	3	0.02091838
-4.510357	3-d	-0.0002197681
-4.288508	3-pc	-0.0002812682
-3.873535	3-peice	-0.0007770348
-4.288508	3-piece	-0.0002159236
-4.385418	3-position	0.01643163
-4.288508	3-speed	5.530851e-05
-4.686449	3-way	-2.581731e-05
-4.510357	3.0	0.0001586696
-3.468965	30	0.02109819
-4.686449	30-39-50t	0.0001799121
-4.385418	300	0.01130899
-4.510357	3000	0.004779671
-4.686449	30hm12k	0.001564407
-4.510357	30hm3k	0.0007020545
-4.209327	30mm	-0.0004635182
-4.510357	31	0.005815725
-4.510357	31.8	-0.0002197681
-4.510357	310	0.004779671
-4.686449	314	0.004857383
-4.686449	316	0.004857383
-4.686449	318	0.001062074
-4.385418	32	0.0005181127
-4.510357	32c	0.0002929349
-4.686449	32mm	-0.0001420559
-4.385418	34	-0.000288526
-4.686449	34-50t	0.0002246486
-4.385418	34/50t	-5.32523e-05
-3.987478	35	0.02279669
-4.686449	350	0.004857383
-4.510357	3500	0.005516618
-4.686449	36	-0.0001420559
-4.288508	360	-0.0003662105
-4.288508	3700	0.00597263
-3.987478	38c	-0.000190812
-4.385418	3900	0.01711055
-4.209327	3d-forged	-0.0003686302
-4.510357	3rd	-0.0002063575
-4.686449	3t	-0.000146526
-3.589539	4	0.007028487
-4.686449	4-position	-5.711534e-05
-4.510357	4-x	0.0001855194
-4.686449	4.0	0.004857383
-4.510357	4.5"	0.00472089
-3.841351	40	0.003924879
-4.510357	400	0.004779671
-4.686449	4000	0.004857383
-4.288508	401	0.004971799
-4.686449	41-thermal	0.01663692
-4.686449	410	0.004857383
-4.686449	410mm	-0.0001375858
-3.306237	4130	-0.001991057
-4.686449	42	-9.288185e-05
-4.686449	420	0.001102418
-4.510357	4300	0.001175643
-4.385418	44	0.0006704637
-4.686449	4400	0.004857383
-4.288508	45	0.005192095
-4.686449	4500	0.0005245032
-4.686449	46-36t	9.492507e-05
-4.686449	4600	0.004857383
-4.385418	47	0.0003271562
-4.288508	48	-0.0004216126
-4.385418	4900	0.005312089
-4.686449	49mm	0.0003186106
-4.385418	4x	3.175129e-05
-4.686449	4x/dirt	0.01044605
-3.75703	5	0.01763926
-4.686449	5-7yrs	-0.0001331156
-4.385418	5.5	0.001742912
-3.873535	50	0.01208455
-4.288508	50-34t	-0.0002544408
-4.510357	5000	0.004779671
-4.510357	501	0.01138669
-4.209327	50mm	-0.0004081177
-4.686449	510	0.004857383
-4.510357	5100	0.004779671
-4.686449	514	0.004857383
-4.686449	516	0.004857383
-4.385418	52	0.004963493
-3.946086	520	5.654781e-05
-4.686449	5300	0.004857383
-4.385418	531	0.0002107605
-4.142381	55	0.006779402
-4.686449	55-rs	-8.39405e-05
-4.510357	5500	0.004779671
-4.142381	5700	0.004644506
-4.288508	57mm	-0.0003662105
-4.686449	5800	0.004857383
-4.686449	59	0.0002246486
-4.288508	5900	0.004624289
-4.084389	6	0.01204395
-4.686449	6+1	5.467382e-05
-4.686449	6.9	-0.000146526
-4.142381	60	0.01107598
-4.510357	60's	0.0165592
-4.686449	60.1	0.006452006
-4.209327	600	0.004550265
-4.142381	6000	0.005694807
-4.686449	601	-0.0001286454
-3.279908	6061	-0.0008873618
-3.987478	6061-t6	0.0002986921
-4.209327	6069	0.001005389
-4.686449	60hmm1k	0.001564407
-4.686449	60s	0.01498601
-4.510357	62	0.006550772
-4.510357	63-millimeter	0.000531862
-4.510357	6300	0.004779671
-4.142381	631	0.0204235
-3.811387	63mm	-0.0003234707
-4.686449	64	-0.0001152344
-4.510357	65	0.0003824682
-4.686449	6500	0.004857383
-4.686449	67	-0.0001152344
-4.288508	6700	0.02218472
-4.686449	6:00	0.01002028
-4.510357	6sp	-0.0002018872
-3.396414	7	0.02869619
-4.686449	7-speed	0.0007797666
-4.510357	7.0	0.004779671
-4.385418	7.2	0.004759897
-4.385418	7.5	0.004713792
-4.288508	7.6	-0.0002544408
-4.686449	7.7	-2.134596e-05
-3.987478	7.75"	-0.0006381831
-4.385418	7.9	-0.0001767563
-4.209327	70	0.005282075
-4.686449	700	-0.0001375858
-3.811387	7000	0.0009866202
-3.686449	7005	0.003501569
-3.540321	700c	0.008009341
-4.385418	700c-	-1.575745e-05
-4.686449	700x23c	0.0004304966
-4.686449	700x26c	-8.39405e-05
-4.686449	700x28c	0.0004304966
-4.510357	701	0.01138669
-4.510357	71	-9.905809e-05
-4.686449	710	0.004857383
-4.686449	714	0.004857383
-4.510357	720	0.004779671
-4.510357	7200	0.004779671
-4.510357	725	-0.0001812834
-4.385418	73	-0.0001767563
-4.686449	73.5	0.0002693899
-4.385418	7300	0.005438921
-4.510357	75	-9.905809e-05
-4.142381	7500	0.004468962
-3.987478	75mm	0.004950371
-4.385418	76	-0.0001767563
-4.686449	770	-0.0001420559
-4.209327	7700	0.004546618
-4.510357	777	0.0001111468
-4.510357	78mm	-0.0001303565
-4.686449	790	-8.841119e-05
-4.142381	7sp	-0.0003998177
-3.324721	8	0.009906492
-3.841351	8"	-0.0009296059
-4.686449	8-1/4"	-9.735244e-05
-4.084389	8-speed	-1.083617e-05
-4.686449	8.25	-3.923102e-05
-4.142381	8.25"	-0.0003578328
-4.686449	8.5	-3.923102e-05
-4.686449	80	0.004857383
-4.686449	8000	0.004857383
-3.645056	80mm	0.004648942
-4.686449	81	5.020181e-05
-4.686449	8500	0.004857383
-4.209327	853	0.003033283
-4.686449	85mm	0.00632041
-4.686449	8700	0.004857383
-4.686449	88	0.004857383
-4.209327	899	-0.0003991765
-4.142381	8m	0.001175986
-4.288508	8r	0.001331313
-3.987478	8sp	-0.0007748621
-3.167935	9	0.0743228
-4.385418	9's	0.0004944664
-4.385418	9-speed	0.0001419451
-4.686449	9-twenty	0.0006498768
-4.385418	9.7	0.004701973
-4.288508	9.8	0.01123131
-4.686449	9.9	0.004857383
-4.686449	90	-0.0001375858
-4.142381	9000	0.004468962
-4.686449	90mm	-0.0001420559
-4.686449	914	0.004857383
-4.686449	916	0.004857383
-4.686449	949	-8.841119e-05
-4.510357	9500	0.004779671
-4.385418	97	0.004980768
-4.686449	98	0.004857383
-4.686449	980	-8.841119e-05
-4.686449	99	0.004857383
-4.385418	9m	0.001408997
-4.686449	9r	0.001564407
-4.033236	9sp	-0.0004886773
-4.686449	9spd	0.01663692
-3.783359	9t	-0.0008503253
-3.263203	:	0.05066536
-4.686449	;	-0.000146526
-1.854259	</s>
-99	<s>	0.005372703
-3.496117	?	0.0335035
-4.686449	?"	-0.0001375858
-1.635296	a	-0.06466083
-4.686449	a-6	0.0008335253
-4.686449	a-frame	0.01663692
-4.385418	a-head	-0.0001561292
-3.572505	a1	-0.0007065746
-3.987478	a1-sl	0.00135029
-4.686449	a2	-1.687456e-05
-4.142381	a2-sl	0.0009411908
-3.946086	aaron	0.001214287
-4.686449	abilities	0.00632041
-4.033236	ability	0.01079243
-3.783359	able	0.005233703
-4.084389	aboard	0.02514465
-3.288509	about	0.03461136
-3.908297	above	0.04282373
-4.288508	absolut	-0.0004904394
-3.873535	absolute	0.02351457
-3.873535	absorb	0.001858209
-4.288508	absorbing	0.003448023
-4.385418	absorbs	0.002114142
-4.084389	absorption	0.03781441
-3.946086	abuse	0.03932424
-4.686449	abyss	0.004857383
-4.686449	ac01	0.004857383
-4.686449	ac02	0.004857383
-4.510357	accelerate	-0.0002125815
-4.385418	accelerates	0.01789458
-4.385418	accelerating	0.01715573
-4.033236	acceleration	0.02384537
-4.686449	accent	-8.39405e-05
-4.385418	access	0.0148306
-4.209327	accessed	-0.0003634096
-4.686449	accessibly	-7.931623e-06
-4.686449	accessories	6.809046e-05
-4.142381	acclaimed	0.01744247
-4.510357	accommodate	0.01057925
-4.686449	accommodating	0.01663692
-4.385418	accomplished	0.0003422319
-4.209327	according	0.006009645
-4.288508	accordingly	0.0248324
-4.686449	account	0.0005871855
-4.510357	accounts	0.0165592
-4.686449	accuracy	0.01731114
-3.908297	accurate	4.330871e-05
-3.783359	ace	0.01741447
-4.084389	acera	0.0004911555
-4.686449	acera/alivio	-3.02886e-05
-4.209327	achievable	0.01700038
-3.987478	achieve	0.04102745
-4.385418	achieved	0.02311559
-4.033236	achieves	0.001591029
-4.686449	acronym	0.01663692
-3.946086	across	0.02453527
-4.686449	acting	0.0004125929
-4.142381	actinum	-0.0007253385
-4.385418	action	0.03457355
-3.75703	active	0.01599539
-4.686449	activity	-0.000146526
-4.686449	actually	-0.000146526
-4.686449	adapt	-3.460111e-06
-4.288508	adaptability	0.01707805
-4.686449	adaptation	0.01663692
-4.033236	adapted	0.005776717
-4.686449	adapts	0.00632041
-3.625751	add	0.04461309
-3.732206	added	0.01333483
-3.908297	addict	-0.0002557107
-4.686449	addiction	0.005635843
-4.686449	addicts	8.150759e-05
-4.209327	adding	0.006635212
-4.033236	addition	0.02274863
-3.708725	additional	-0.001341296
-4.510357	address	0.02319329
-3.908297	adds	0.006673058
-4.510357	adept	0.0004020233
-3.873535	adequate	-0.000890566
-3.783359	adjust	0.06392166
-3.525081	adjustable	0.02266734
-4.686449	adjustable-travel	-0.0001420559
-4.288508	adjusted	0.006032248
-4.385418	adjuster	0.03215311
-4.510357	adjusters	0.0165592
-4.084389	adjustment	0.04128811
-4.510357	adjustments	0.02321462
-4.510357	admired	-0.0001258854
-4.209327	admiring	-0.0004394107
-3.625751	advanced	0.0118019
-4.033236	advantage	0.02151135
-4.686449	advantages	0.004798602
-3.625751	adventure	0.01576069
-3.873535	adventures	0.03361277
-4.385418	adventuring	0.02311559
-4.385418	advice	0.0148306
-3.419277	aero	0.01312194
-4.686449	aero-shaped	0.0002470187
-3.75703	aerodynamic	0.03913634
-4.686449	aerodynamically	0.0002291225
-4.142381	aerodynamics	0.05077613
-4.686449	aerospace	-0.0001420559
-4.686449	aerospace-grade	0.001057592
-4.510357	aesthetic	-0.0002197681
-4.686449	aesthetically	-0.000146526
-4.385418	aether	7.480654e-05
-4.686449	affix	9.954674e-06
-4.385418	afford	0.006165
-4.510357	affordability	0.01718825
-3.708725	affordable	0.04667664
-4.510357	afforded	0.0002677485
-4.686449	africabike	-6.158635e-05
-4.686449	africabikes	0.00632041
-3.161404	after	0.035188
-3.686449	after-market	-0.0007484359
-3.686449	aftermarket	-0.0005647554
-4.385418	afternoon	0.01832222
-4.686449	afterwards	0.01731114
-4.686449	afx	3.678566e-05
-4.142381	again	0.01708235
-4.288508	against	0.02305226
-4.209327	age	0.007258759
-4.686449	aged	-0.000146526
-3.607267	aggressive	0.02054566
-4.686449	aggressively	2.784179e-05
-4.084389	aggressiveness	0.004332538
-4.510357	aggressor	7.365647e-05
-3.407695	agile	0.03136701
-4.510357	agility	0.01996142
-3.873535	ago	0.03605592
-4.385418	ahead	0.03457355
-4.288508	aim	0.007132112
-4.385418	aimed	0.0003243251
-4.686449	ain't	-0.0001420559
-4.510357	aintree	0.004909973
-3.324721	air	0.08656101
-4.209327	air-sprung	0.001893174
-4.686449	airborne	-0.000146526
-4.686449	airflow	0.003146965
-4.510357	airformed	-0.0001884761
-4.686449	airplanes	0.01498601
-4.385418	airs	0.01648151
-3.665259	aitken	0.0014908
-4.510357	akrose	0.0003063638
-4.209327	aksium	-0.0001711124
-4.209327	al	0.004577402
-4.686449	ale	-6.605726e-05
-3.510357	alex	0.023315
-4.686449	alex/formula/shimano	-4.81733e-05
-4.686449	alfa	0.001564407
-3.783359	alfine	0.04028423
-4.510357	alienation	0.0001183983
-4.686449	alignment	0.01663692
-4.686449	alike	0.01663692
-4.033236	alive	0.006993576
-3.841351	alivio	0.00115937
-2.466341	all	0.0846229
-4.686449	all-	0.003025372
-4.510357	all-around	0.000821448
-4.686449	all-black	0.0006095741
-4.209327	all-conditions	0.01494941
-4.084389	all-day	0.0189418
-4.686449	all-duty	-0.000146526
-4.686449	all-encompassing	0.0001307071
-3.783359	all-mountain	0.009657871
-3.783359	all-new	0.02281818
-4.686449	all-roads	0.01663692
-3.908297	all-round	0.002369291
-4.209327	all-rounder	0.008562144
-4.686449	all-silver	0.0006095741
-3.732206	all-weather	0.03223238
-4.510357	allant	0.005516618
-4.084389	allez	-0.000337715
-3.419277	allow	0.03954247
-3.873535	allowing	0.03066179
-3.607267	allows	0.05006741
-2.643086	alloy	0.06044874
-4.686449	allrounder	0.023271
-4.686449	allure	-9.288185e-05
-3.946086	almost	0.009458945
-4.510357	aloha	8.260435e-05
-3.607267	along	0.03172994
-4.510357	alp	-0.0002572891
-4.510357	alpen	-0.0002018872
-3.732206	alpha	-0.0002230987
-4.142381	alpine	0.01706373
-3.987478	alps	0.0023296
-4.209327	already	0.01087412
-3.014351	also	0.03461375
-4.686449	alt	0.004857383
-4.686449	alt.ernative	0.00632041
-4.385418	altamira	7.480654e-05
-4.686449	alter	0.023271
-4.686449	altered	0.0009769144
-4.686449	alternates	1.889815e-05
-4.510357	alternative	0.02389938
-4.288508	although	5.698836e-05
-4.510357	altitude	-0.0002259942
-3.946086	altus	-1.721899e-06
-2.554509	aluminium	0.1023982
-3.645056	aluminum	0.003112261
-3.732206	always	0.01677692
-4.686449	always-reliable	0.001349051
-4.686449	alx-200	0.0001396529
-3.873535	am	0.004206006
-4.686449	amateur	-9.735244e-05
-3.811387	amazing	0.01108311
-4.084389	amazingly	0.01543495
-4.288508	ambitious	-0.000124752
-4.686449	american	-7.946974e-05
-4.510357	among	0.02320518
-4.385418	amongst	-0.0002929962
-3.873535	amount	0.003944532
-3.987478	ample	-0.0005924444
-4.385418	amplitude	-0.0004351073
-3.873535	amr	-0.001070244
-4.686449	amx	3.678566e-05
-2.448402	an	-0.008976845
-4.385418	an6	0.001816188
-4.686449	analysis	0.004798602
-4.084389	anatomy	0.0342629
-1.465165	and	0.03465188
-4.686449	andros	1.889815e-05
-3.987478	angle	0.05040736
-4.510357	angled	0.005558131
-3.908297	angles	-0.0008738492
-4.510357	angular	-0.0002152979
-4.510357	animal	0.001548083
-4.686449	announce	0.023271
-4.686449	anodized	-0.000146526
-4.385418	another	-0.0002652025
-4.686449	answer	0.007365207
-4.510357	answers	0.01870336
-4.686449	anti-theft	-0.000146526
-2.923021	any	0.001481323
-4.288508	anyone	0.002308171
-3.443411	anything	0.04691398
-3.645056	anywhere	0.05436081
-4.385418	apart	0.03606345
-4.209327	apex	0.0003717181
-4.686449	aplomb	0.01731114
-4.510357	app	0.000531862
-4.510357	appeal	0.01723343
-4.510357	appealing	0.001756043
-4.510357	appearance	0.0004138092
-4.510357	applause	0.001213031
-4.142381	apple	-0.0004634207
-4.510357	application	0.004950691
-4.385418	apply	0.02311559
-4.686449	applying	-0.0001152344
-4.510357	appreciate	4.404905e-05
-4.142381	approaching	0.02288258
-4.385418	approval	0.01480376
-4.510357	approved	0.001435868
-4.288508	approx	0.01761032
-4.686449	aprebic	0.001564407
-4.209327	aps	0.0001315069
-4.385418	ar1	0.02229778
-4.510357	ar3	0.01499721
-4.510357	ar4	0.01138669
-4.510357	ar5	0.01138669
-4.686449	ar5's	0.0001441261
-4.686449	arcade	0.004857383
-4.209327	archer	0.007198388
-2.661143	are	0.03857923
-4.142381	area	0.03192009
-3.987478	areas	0.01479843
-4.510357	argyle	0.0009155732
-4.686449	aria	0.0001664919
-4.209327	ariel	0.005336463
-4.385418	ario	0.0006243562
-4.686449	aristocratic	-0.000146526
-4.686449	arite	6.809046e-05
-3.908297	arm	-0.0008264087
-4.510357	armadillo	-0.0001974169
-4.686449	armour	0.0004304966
-4.686449	army	0.004798602
-3.063199	around	0.07632695
-4.686449	around-but	-9.735244e-05
-4.686449	around-town	0.01044605
-4.510357	arresting	-4.092648e-05
-4.686449	arrived	0.01731114
-3.873535	art	0.02489533
-4.385418	arte	0.0007376946
-4.686449	article	0.004857383
-2.340096	as	0.05656279
-4.142381	ascend	-0.0005125969
-4.084389	ascents	0.01451995
-4.686449	ask	0.005635843
-4.142381	aspect	0.0006748985
-4.288508	asphalt	0.03676458
-4.686449	aspiring	0.0006633117
-4.686449	assault	-0.0001420559
-4.686449	assembling	0.004798602
-4.510357	assembly	0.02082875
-4.385418	assist	0.02146027
-4.033236	assure	0.0227394
-4.686449	assured	-0.000101823
-4.686449	astern	3.678566e-05
-4.686449	astral	-0.000146526
-4.209327	asx	-0.0006163813
-4.686449	asymetric	0.0002470187
-4.686449	asymetrical	0.0001530723
-3.783359	asymmetric	-0.0009728391
-4.209327	asymmetrical	-0.0003740929
-2.83519	at	0.07751217
-4.686449	at450	0.0001888589
-4.385418	athena	0.004976242
-4.510357	atherton	0.004738094
-4.288508	athletes	0.01707805
-4.510357	athletic	0.001193585
-4.686449	atlus	0.004857383
-4.510357	attack	-0.0002197681
-4.686449	attainable	0.01731114
-4.686449	attempts	0.00632041
-4.686449	attention	0.00632041
-4.510357	attitude	0.03292995
-4.209327	attractive	-6.712141e-05
-4.686449	attributes	0.01663692
-4.510357	audacio	-0.0002125815
-4.686449	aura	1.44264e-05
-4.385418	auriga	-0.0001086525
-4.686449	aurigo	2.784179e-05
-4.288508	aurora	0.005002677
-4.510357	automatically	-0.0002152979
-3.247116	available	0.04063079
-4.084389	avalanche	0.006165839
-4.142381	avenida	-0.0002415271
-3.297282	avid	0.05570307
-4.385418	avoids	0.02311559
-4.510357	awaits	0.01723343
-4.209327	award	0.005377985
-3.908297	away	0.03273192
-4.385418	awesome	0.001684511
-4.510357	axa	-0.0002197681
-4.288508	axis	0.005460188
-4.142381	axle	0.02418524
-4.288508	axles	0.0327354
-4.686449	b-frame	0.01731114
-4.686449	b/b	0.01663692
-4.385418	b10	0.01130899
-4.385418	b12	0.01127715
-4.510357	b16	0.006414559
-4.510357	b17	-0.0001840057
-4.686449	b67s	0.002121242
-4.686449	babylon	0.0001441261
-3.297282	back	0.05161847
-4.686449	backbone	0.0004304966
-3.987478	backcountry	0.01665202
-4.288508	backflip	0.0002466406
-4.686449	background	-3.460111e-06
-3.946086	backlash	0.01593801
-4.686449	backpedal	1.011402e-06
-4.686449	backroads	0.01731114
-4.686449	backside	0.004798602
-3.75703	bad	-0.00090884
-4.209327	bag	0.004487837
-3.364229	balance	0.01968532
-3.908297	balanced	0.02046014
-4.686449	balances	-7.052814e-05
-4.686449	balancing	0.01002028
-4.385418	balistec	0.001408997
-4.686449	ball	0.01731114
-4.385418	ballistic	0.001408997
-4.686449	balls	0.0005782302
-4.209327	bang	0.005954578
-4.209327	bang;	0.02296024
-4.686449	banger	0.0001262341
-4.510357	banging	0.01036834
-4.288508	bank	0.01701425
-4.686449	banked	-8.39405e-05
-3.35401	bar	0.06234093
-4.084389	bar-ends	-0.0005187091
-4.510357	bar/stem	-4.092648e-05
-4.288508	barel	0.01707941
-4.510357	barely	0.009873963
-4.686449	bargain	7.703512e-05
-4.686449	bark	0.01663692
-4.686449	barrier	0.004857383
-3.35401	bars	0.06462567
-4.686449	barspin	0.01731114
-4.686449	basagoitia	0.01663692
-4.288508	base	0.02234728
-3.708725	based	0.01724411
-4.288508	bases	0.0248324
-4.084389	basic	0.0007123972
-4.686449	basically	0.01663692
-4.142381	basket	0.04482403
-4.510357	bass	0.005416962
-4.142381	bat	0.01500147
-4.686449	battered	0.01663692
-4.209327	battery	0.02143402
-4.385418	battle	-0.0001946414
-4.686449	battle-tested	0.0002067534
-3.279908	bb	0.0470422
-3.665259	bb30	0.01536897
-4.510357	bb5	-0.0001258854
-2.708725	be	0.09144939
-4.686449	beach	0.01663692
-3.686449	bearing	0.00177927
-3.75703	bearings	0.06718475
-4.385418	beast	0.02382168
-4.686449	beasts	0.004798602
-3.841351	beat	0.05934257
-4.209327	beatbox	-0.0002382025
-4.686449	beating	-0.0001420559
-4.510357	beats	0.03223081
-3.556115	beautiful	0.02047388
-3.841351	beautifully	0.0007259322
-4.209327	beauty	0.03200122
-3.75703	because	0.01785243
-3.841351	become	0.02309533
-4.385418	becoming	0.02311559
-4.288508	beefed	0.0003093166
-4.686449	beefier	0.0002067534
-4.385418	beefy	0.0002868618
-3.288509	been	0.02375146
-4.686449	beer-can	-8.39405e-05
-4.686449	beers	0.01731114
-3.946086	before	0.05940129
-4.033236	beginner	0.005689258
-4.033236	beginners	0.04207448
-4.686449	beginning	0.004798602
-4.288508	behind	0.01938472
-3.540321	being	0.03350687
-4.686449	belief	0.001847226
-4.084389	believe	0.00158641
-4.686449	bell	0.01663692
-3.946086	bellissimo	-0.000434571
-4.510357	beloved	-0.0002930519
-4.686449	below	-0.000146526
-4.033236	belt	0.004469442
-4.288508	benchmark	0.007632347
-4.686449	bend	-5.264436e-05
-4.686449	benefit	0.001290743
-3.572505	benefits	0.008507246
-4.385418	bent	-0.0001141527
-4.686449	bermed	-8.39405e-05
-4.209327	berms	0.02406824
-2.954055	best	0.008518224
-4.385418	best-selling	-0.0002661743
-3.306237	better	0.07454558
-4.686449	better-than-ever	0.007365207
-3.396414	between	0.04341511
-4.686449	bevelled	-0.0001197048
-4.686449	beware	0.0001485991
-4.084389	beyond	0.04105668
-4.084389	bf	0.000282028
-4.686449	bi-polar	-2.134596e-05
-4.686449	bianca	9.492507e-05
-3.297282	bianchi	0.004958594
-3.811387	bicycle	0.02275093
-3.841351	bicycles	0.05253234
-4.510357	bicycling	-0.0002707005
-3.202149	big	0.03415162
-4.510357	big-hit	7.983329e-05
-4.288508	bigger	0.0006405032
-4.686449	biggest	-8.39405e-05
-1.617706	bike	0.05795701
-4.385418	bike-	0.02311559
-4.033236	bike;	0.02324912
-4.510357	biker	0.01717894
-2.591279	bikes	0.08498621
-4.686449	bikes-with	0.01002028
-3.946086	bikes;	-0.0003086954
-4.686449	biket	0.006452006
-3.645056	biking	0.07839644
-4.288508	biologic	-0.000313326
-3.75703	bit	0.01286241
-4.209327	bite	0.006167298
-4.686449	bits	0.001290743
-4.686449	bl01	0.004857383
-3.708725	black	0.015897
-4.288508	blade	0.01836748
-4.142381	bladed	0.0006736524
-4.686449	blades	0.001847226
-4.142381	blank	0.01662223
-4.209327	blast	0.006266629
-4.209327	blasting	-4.305871e-05
-4.142381	blasts	0.001225354
-4.686449	blaze	0.004857383
-4.686449	blazing	0.0006095741
-3.572505	blend	0.00373232
-4.510357	blender	0.01753277
-4.288508	blending	0.02305452
-3.987478	blends	0.02360215
-4.686449	bless	0.003146965
-4.142381	bliss	0.02576644
-4.686449	blizzard	-7.931623e-06
-4.686449	block	-0.0001420559
-4.686449	blood	-0.0001420559
-4.686449	bloodline	0.01731114
-4.385418	blow	-0.0002572334
-4.209327	blue	0.03337257
-4.033236	blur	-0.0004611446
-4.686449	blush	-0.0001375858
-3.324721	bmc	-0.0006538853
-2.725028	bmx	0.09056111
-4.686449	board	0.01731114
-4.686449	boasting	-0.000146526
-4.288508	boasts	0.007081209
-4.510357	bob	0.0149083
-4.385418	bobbing	-1.575745e-05
-3.841351	body	0.03314754
-4.686449	bold	-0.0001331156
-4.686449	bolt	1.889815e-05
-4.510357	bolted	-0.0002108277
-4.686449	bomber	-1.687456e-05
-3.811387	bombing	-0.0009042557
-4.288508	bombproof	0.01475292
-4.510357	bonded	0.001486695
-3.510357	bontrager	-0.0002011969
-4.033236	boost	0.005012141
-4.288508	born	0.007818799
-4.686449	borrows	0.0002693899
-4.385418	bosanova	0.02156116
-4.686449	bosses/guides	0.007365207
-4.288508	boston	0.0121148
-3.334266	both	0.03215019
-4.288508	bottle	0.004636108
-4.686449	bottles	0.01663692
-3.468965	bottom	-0.002410566
-4.510357	bought	0.003297886
-4.686449	bounce	0.0002201748
-3.987478	box	0.05110231
-4.510357	boxes	0.01723343
-3.841351	boy	0.0006315623
-4.686449	boys	-0.000146526
-4.686449	br-m486	0.0003051863
-3.468965	bracket	0.08151399
-4.686449	bragging	6.809046e-05
-3.708725	brain	0.001674319
-4.686449	brain-regulated	0.0006857045
-4.686449	brainer	0.01731114
-3.443411	brake	0.05365502
-4.686449	brakeless	0.01663692
-2.708725	brakes	0.07134143
-4.686449	brakes/	0.023271
-3.686449	braking	0.06142839
-3.572505	brand	0.05068244
-3.946086	brands	0.002412978
-4.686449	brave	9.954674e-06
-4.686449	bravest	0.0002514929
-4.686449	braze-	-0.000146526
-4.209327	braze-ons	0.01194418
-4.510357	brazed	0.00156604
-4.385418	break	0.02652404
-4.686449	breakage	0.01731114
-4.686449	breakaways	0.01731114
-4.686449	breaking	0.01044605
-4.686449	breaks	0.023271
-4.686449	breath	0.004798602
-4.686449	breathe	0.0004752591
-4.385418	breathes	0.006041877
-4.288508	bred	0.005704997
-4.510357	breed	0.00472089
-4.288508	breezer	-3.081508e-05
-4.686449	brera	0.0006498768
-4.288508	brethren	0.01707805
-4.209327	brian	-0.0005037536
-4.686449	bridleway	0.01731114
-4.686449	brighten	0.0005424115
-4.288508	bring	0.03562611
-4.385418	bringing	0.02311559
-4.142381	brings	0.03367176
-4.686449	britannia	0.0006498768
-4.385418	british	-0.0003591055
-4.385418	briza	0.006354436
-3.841351	brompton	0.01740753
-4.686449	bronson	0.004857383
-4.686449	bronze	0.0005424115
-3.946086	brooks	0.006810647
-4.209327	brother	0.004708589
-4.288508	brothers	0.01640382
-4.686449	brought	0.00632041
-4.686449	brunch;	0.001102418
-4.510357	brushless	-0.0002197681
-4.686449	brutal	5.467382e-05
-4.686449	brutally	-3.460111e-06
-4.510357	bubbleword	4.852196e-05
-4.288508	buck	0.02229778
-4.209327	bucks	0.01700038
-4.686449	budding	0.003025372
-3.908297	budget	0.02457906
-4.686449	buffer	-7.946974e-05
-3.589539	build	0.05869077
-4.686449	builds	0.001613775
-2.966289	built	0.06449933
-3.987478	built-in	0.00123209
-4.686449	bulk	0.0003275604
-4.686449	bulletproof	-2.134596e-05
-4.686449	bullit	-4.370218e-05
-3.783359	bump	8.152681e-06
-4.686449	bumper	0.01663692
-4.142381	bumpers	0.02051804
-3.987478	bumps	0.03242441
-4.385418	bumpy	-0.0001936438
-4.686449	burger	0.001847226
-4.686449	burl	6.361827e-05
-4.686449	burlier	0.01731114
-4.686449	burliness	0.004798602
-4.510357	burly	0.01584075
-4.686449	burn	0.0005424115
-4.288508	burner	0.006126326
-4.686449	burning	-0.000146526
-4.510357	burst	0.004652179
-4.686449	bursting	0.007365207
-4.142381	bus	0.01797255
-4.686449	bush	7.256281e-05
-4.686449	business	0.01498601
-4.510357	busting	0.01036834
-4.686449	busy	9.045251e-05
-2.76737	but	0.0689156
-4.510357	butcher	-0.0001812834
-3.589539	butler	-0.001481469
-2.887108	butted	0.03799574
-4.686449	buttered	0.0005424115
-4.510357	butterfly	3.79546e-06
-4.686449	buttery	0.0003902143
-3.811387	buy	0.01673461
-4.686449	buyer	0.000215701
-4.686449	buying	6.809046e-05
-4.288508	buzz	0.01475292
-2.938261	by	0.05326918
-4.686449	byways	0.01731114
-4.686449	c	-7.052814e-05
-4.209327	c-4	0.001189352
-4.686449	c-7	0.001564407
-4.686449	c1	-0.0001062935
-4.686449	c2c	-5.264436e-05
-4.686449	c3	-7.931623e-06
-4.288508	caad	-0.0002517025
-4.510357	caad8	6.552553e-06
-4.510357	caad9	0.01656044
-4.385418	caadx	-0.0002428417
-3.645056	cable	0.03189881
-4.288508	cable-pull	0.0002914083
-4.209327	cables	0.007340306
-4.686449	cackling	0.0004125929
-4.385418	cadenza	-0.0003769895
-4.510357	cadet	0.004720005
-4.686449	caffeine	0.00632041
-4.686449	cage	-5.264436e-05
-4.686449	cages	0.01731114
-4.385418	caldera	0.007504766
-4.686449	caliper	-0.0001331156
-3.783359	call	0.01432376
-4.686449	called	0.023271
-4.288508	calliper	0.000461567
-4.288508	callipers	-4.870939e-05
-4.510357	calorie-burning	0.006242699
-4.142381	camaleonte	8.755666e-05
-4.288508	camber	-0.0001963092
-3.468965	came	-0.001086481
-4.686449	camouflage	0.007365207
-4.142381	campagnolo	0.006107219
-2.788821	can	0.01709835
-4.084389	can't	0.0006481471
-3.841351	canal	-0.001088853
-3.005207	cannondale	0.018489
-4.510357	cantilever	0.0006169498
-4.385418	capabilities	0.03457355
-4.686449	capability	0.01731114
-3.419277	capable	0.03704638
-4.510357	capacity	0.0149083
-4.288508	capewrath	-0.0005503387
-4.510357	caps	0.0149083
-4.686449	capture	0.004857383
-4.209327	car	0.02392215
-4.686449	car-trapped	-8.841119e-05
-2.403147	carbon	0.09933171
-4.385418	carbon-fibre	0.000625649
-4.686449	carbon-wrapped	0.0001485991
-4.686449	carbone	0.0001575454
-3.783359	care	0.003711895
-4.510357	care-free	-0.0001080007
-4.686449	careful	-0.000146526
-3.946086	carefully	-0.0009123796
-3.946086	carrier	0.05075264
-4.686449	carriers	0.003146965
-4.686449	carriers;	0.01498601
-3.732206	carry	0.02814025
-4.084389	carrying	0.01723255
-4.686449	cars	0.0004797355
-3.873535	cartridge	-0.0009218691
-4.686449	carve	0.0001262341
-4.510357	case	0.001597467
-4.686449	cash	0.01663692
-4.686449	casino	0.004857383
-3.324721	cassette	0.06750917
-4.288508	cast	0.0006302139
-4.510357	casting	0.01723343
-4.686449	casual	0.0003723124
-4.385418	catastrophic	-0.0002929962
-4.686449	catching	0.01663692
-4.686449	categorize	0.01731114
-3.811387	category	0.04738304
-4.686449	cause	0.001613775
-4.686449	caused	0.001290743
-4.084389	cd	0.004391319
-4.510357	cd0.1	-0.000149983
-4.209327	cd01	-0.0003472617
-4.686449	celebrate	0.023271
-4.385418	celebrated	0.0008035775
-4.686449	celebrates	-0.000146526
-4.686449	cell	0.004857383
-4.510357	centaur	0.005516618
-4.686449	center-pull	0.0006946619
-4.686449	centerline	0.01731114
-4.686449	centers	0.023271
-4.686449	centimetre	-8.39405e-05
-4.686449	cento	-0.000146526
-4.510357	centostrade	-2.923197e-05
-4.209327	centre	0.006135516
-4.686449	centred	0.01663692
-4.510357	centrelock	-4.092648e-05
-4.510357	centrepiece	0.00472089
-4.385418	centres	0.007209796
-4.686449	ceramic	-7.946974e-05
-4.686449	certainly	0.01002028
-4.385418	cervelo	-0.0004261666
-3.255085	chain	0.02843416
-4.385418	chainguard	0.03215311
-4.686449	chainguides	-0.0001241751
-4.209327	chainring	1.512218e-05
-3.510357	chainset	0.01633507
-4.686449	chainset/mega	-0.0001420559
-3.75703	chainstay	0.01462297
-4.084389	chainstays	0.06559344
-4.142381	challenge	0.01657309
-4.510357	challenges	0.00204353
-4.142381	challenging	0.02292997
-4.686449	chamber	0.004857383
-4.510357	chameleon	-0.0001857547
-4.686449	champions	-0.0001420559
-4.288508	championship	0.0003866702
-4.686449	championship-winning	-3.02886e-05
-4.686449	championships	0.01731114
-4.686449	chance	0.004798602
-4.084389	change	0.005026321
-4.686449	changed	-0.000146526
-4.142381	changes	0.05081413
-4.084389	changing	-0.0004757281
-4.686449	character	0.01731114
-4.385418	characteristic	0.01715573
-4.209327	characteristics	0.01899367
-3.525081	charge	-0.0001169459
-4.510357	charger	-0.0002063575
-4.686449	charges	0.0007304935
-3.908297	charity	0.0007864551
-4.686449	chasm	0.004857383
-3.645056	chassis	0.0426916
-4.510357	chatter	0.02153797
-4.686449	check	0.007365207
-3.987478	checkout	-0.0007320725
-4.142381	chew	0.0001539897
-4.686449	chick	0.01663692
-4.288508	chicqilo	0.0131794
-4.142381	child	0.001502314
-4.686449	chilling	0.0003186106
-3.028437	choice	0.04992393
-4.385418	choices	0.0002348039
-4.686449	chomping	0.0004797355
-3.297282	choose	0.05004872
-4.510357	chorus	0.004779671
-4.686449	chose	5.020181e-05
-4.209327	chosen	0.001090631
-4.510357	chris	-3.37048e-05
-4.385418	chrome	-0.0002992216
-4.686449	chrome-effect	-0.0001197048
-4.385418	chromo	0.002859755
-3.510357	chromoly	0.004136519
-4.510357	chromoplastic	-2.303832e-05
-4.686449	chs-2	-0.000146526
-4.686449	chugging	0.0005424115
-4.510357	cinder	-0.0002796412
-4.209327	cinema	0.01721729
-4.288508	circuit	0.02565581
-4.385418	circuits	0.000947008
-4.510357	cities	0.01723343
-3.247116	city	0.06185922
-4.686449	ck-c4000st	0.0002246486
-4.686449	claiming	2.784179e-05
-4.209327	claims	0.006009645
-3.946086	clamp	0.03287718
-3.468965	class	0.08396641
-3.202149	classic	0.03828967
-4.686449	classical	0.002984848
-4.385418	classics	0.01648151
-4.288508	classy	0.01633659
-3.589539	claud	-0.001827574
-3.482329	clean	0.05873272
-4.686449	cleaner	0.0003275604
-4.288508	clear	-7.448063e-05
-3.431176	clearance	0.05483091
-4.686449	clearances	-3.475985e-05
-4.686449	clearcoated	-0.000146526
-4.686449	clearly	0.002121242
-4.510357	cleaver	0.01138669
-4.288508	cleveland	0.006686121
-3.908297	clever	0.03506809
-4.686449	cleverly	-0.000146526
-4.686449	cleverness	0.006452006
-3.188138	climb	0.06831951
-4.385418	climber	0.01648151
-3.625751	climbing	0.06038926
-3.315381	climbs	0.04994519
-4.686449	clincher	0.0004304966
-4.686449	clinton	0.001290743
-4.385418	clipless	-0.0001275686
-4.686449	clix	0.0001441261
-4.288508	clock	0.01707805
-4.385418	clone	0.004643192
-3.75703	close	0.006892225
-4.510357	closest	0.006242699
-4.686449	closet	0.001102418
-4.510357	clothes	0.01730461
-4.385418	club	0.0004912328
-4.288508	clubman	0.006830593
-4.510357	clx	-5.606853e-05
-4.209327	cnc	-0.0001415006
-3.708725	co	-0.001770676
-4.209327	co-cured	-0.0004394107
-4.686449	coast-to-coast	0.01731114
-4.686449	coaster	1.011402e-06
-4.686449	coated	-0.0001241751
-3.873535	cobalt	0.0001764613
-4.686449	cobb	0.0009096948
-3.987478	cobbles	0.004177294
-4.686449	cobblestone	-3.02886e-05
-4.686449	cobia	-3.460111e-06
-4.686449	cobra	0.004857383
-4.142381	coded	-0.0005054068
-4.142381	coil	0.000619687
-3.873535	coil-sprung	-0.0004117975
-4.686449	coilair	-0.000101823
-3.75703	col	-0.001194513
-4.385418	col-destroying	-2.47033e-05
-4.510357	collaborate	-0.0002108277
-4.686449	collaboration	0.007365207
-4.686449	collar	0.006452006
-4.084389	collecting	-0.0006501121
-3.946086	colnago	0.01845379
-4.288508	colnagos	-0.0003759458
-4.686449	color	-0.0001331156
-3.783359	colour	0.02290332
-4.510357	colour-matched	0.002856397
-4.385418	colourful	0.001950991
-4.288508	colours	0.05085324
-4.686449	combat	0.01731114
-3.708725	combination	0.007188376
-4.385418	combine	0.01962802
-3.334266	combined	0.004480964
-3.324721	combines	0.03653692
-3.783359	combining	0.03362723
-4.084389	combo	0.050774
-4.510357	combs	0.0006527813
-3.645056	come	0.03550052
-3.038089	comes	0.03553766
-2.675725	comfort	0.08046514
-2.832143	comfortable	0.07816422
-4.288508	comfortably	0.01791798
-4.142381	comfy	0.001041424
-3.645056	coming	0.01194529
-4.510357	command	-0.0001142084
-4.510357	commands	-0.0002197681
-3.75703	commencal	0.0005411475
-4.510357	commitment	0.02389938
-4.686449	committed	0.00632041
-4.510357	communal	0.01036834
-4.510357	community	0.01723343
-3.456	commute	0.06818524
-3.231604	commuter	0.09988993
-4.686449	commuter;	0.01002028
-3.811387	commuters	0.05280556
-4.385418	commutes	0.03585928
-3.468965	commuting	0.0505133
-3.374695	comp	0.005631496
-3.05806	compact	0.02245835
-4.288508	companies	0.0190263
-4.084389	companion	0.02273434
-4.385418	company	0.01944837
-4.686449	comparably-priced	0.0009589879
-4.510357	compare	-0.0002197681
-3.732206	compatible	0.0238929
-4.686449	compete	0.00632041
-3.607267	competition	0.03558426
-4.288508	competition-ready	0.01844686
-3.708725	competitive	0.02055634
-4.686449	competitively	-7.931623e-06
-4.385418	complement	0.02335876
-4.385418	complemented	0.0001900502
-4.288508	complements	0.02303791
-2.991843	complete	0.04058551
-4.510357	completed	0.007287495
-3.873535	completely	0.001138963
-4.510357	complex	-0.0001258854
-3.708725	compliance	0.07050157
-4.686449	compliancy	0.01498601
-3.607267	compliant	0.04067217
-4.142381	compliment	0.009631855
-4.686449	complimented	0.007365207
-4.686449	complimenting	0.002134722
-3.665259	component	0.005601726
-3.540321	componentry	0.05019548
-2.754483	components	0.07325374
-4.686449	compresses	-0.0001420559
-4.510357	compression	0.0166348
-3.686449	compromise	0.03430672
-4.385418	compromising	0.0004374779
-4.686449	computer	-0.000146526
-4.209327	conceived	0.0151162
-4.686449	concentrate	0.001613775
-3.572505	concept	0.0100933
-4.686449	concepts	0.01498601
-4.686449	concession	0.00632041
-4.084389	concrete	0.01677663
-4.288508	condition	0.01702356
-3.15497	conditions	0.05661038
-4.686449	cone	0.004857383
-4.288508	cones	0.005605944
-3.407695	confidence	0.05773015
-4.142381	confidence-inspiring	0.001026435
-3.407695	confident	0.03204483
-4.686449	confidently	0.01731114
-4.209327	configuration	0.00152299
-4.686449	configured	0.005635843
-4.686449	confirmed	0.0001262341
-4.385418	conquer	0.0001061366
-4.686449	conscious	5.020181e-05
-4.686449	consequently	0.01663692
-4.510357	consider	-0.0001840057
-4.686449	considerable	-4.81733e-05
-4.510357	consist	0.00472089
-4.510357	consistency	0.0149083
-4.510357	consistent	0.0165592
-4.510357	consistently	-0.0002197681
-4.385418	consisting	0.004643192
-4.510357	consists	0.00472089
-4.510357	conspiracy	0.000531862
-4.510357	constant	-0.0002394066
-3.811387	constructed	0.03647671
-3.443411	construction	0.05497541
-4.686449	consulate	0.004857383
-4.510357	consumer	0.0001737807
-4.385418	contact	0.007209367
-4.686449	contemporary	-3.460111e-06
-4.209327	contender	0.03318845
-3.525081	contessa	0.01527283
-4.686449	conti	-0.000146526
-4.033236	continental	0.02009461
-4.686449	continue	0.00632041
-4.686449	continued	0.007365207
-4.510357	continues	0.006242699
-4.288508	continuous	-0.000439494
-4.510357	contrast	6.641392e-05
-4.385418	contributed	0.006165
-3.216627	control	0.06507526
-4.686449	controllable	0.01498601
-3.873535	controlled	0.01764696
-4.686449	controltaper	-1.687456e-05
-3.732206	convenience	0.009337318
-4.385418	convenient	0.0008916698
-4.288508	conventional	0.0007438196
-4.686449	convert	0.023271
-3.873535	cool	0.0439877
-4.084389	cooper	-0.0007234092
-4.686449	coordinated	0.0009455436
-4.033236	cope	0.006821514
-4.686449	copper	-8.39405e-05
-4.510357	coral	5.128732e-05
-3.75703	core	0.02842031
-4.686449	cork	0.0001262341
-4.686449	corner	0.01498601
-3.783359	cornering	0.03122181
-4.084389	corners	0.05363606
-4.288508	corporate	0.000725893
-4.686449	cosmetics	0.01663692
-4.686449	cosmic	-3.460111e-06
-4.209327	cost	0.01741616
-4.686449	cost-effective	0.01663692
-4.510357	costing	-0.0002751709
-4.686449	costly	0.0001530723
-4.686449	costs	5.467382e-05
-3.686449	could	0.004709172
-4.510357	count	0.001536063
-3.396414	country	0.02379015
-4.686449	countryside	0.001102418
-4.686449	county	-0.000146526
-3.873535	couple	0.009463943
-4.288508	coupled	0.007132112
-4.686449	couples	0.023271
-3.987478	course	0.04493066
-4.385418	courses	0.03331528
-4.686449	cover	0.0004215448
-4.510357	coverage	-2.303832e-05
-4.510357	covered	0.01723343
-4.288508	covers	0.001098014
-4.686449	coveted	-0.000146526
-4.686449	cp	0.0001888589
-3.496117	cr-mo	0.003104489
-4.510357	cr-moly	0.0001558844
-3.607267	cr1	0.0003598819
-4.686449	cr720	-0.0001420559
-3.946086	crafted	0.02954831
-4.084389	craftsmanship	0.01817493
-3.873535	crank	0.03038842
-3.271475	cranks	0.09528784
-3.75703	crankset	0.07490037
-4.288508	crankworx	-0.0003617403
-4.686449	cranmer	0.0001262341
-4.686449	craving	0.0002559671
-4.686449	crazy	0.0007260145
-4.385418	cream	0.004643192
-3.297282	create	0.03393647
-3.589539	created	0.01726084
-3.873535	creates	0.01067463
-4.084389	creating	0.03507262
-4.510357	creation	0.00472089
-4.385418	crisp	0.01700951
-4.510357	crisp-shifting	1.721294e-05
-4.686449	criterium	-5.264436e-05
-4.142381	critical	-0.0004830503
-4.385418	crmo	0.0001436235
-4.209327	cro	-0.0005126944
-4.288508	cro-mo	0.01975637
-4.510357	croix	-0.0001080007
-3.625751	cromo	0.01245307
-3.510357	cromoly	0.02030095
-4.510357	crono	-4.712315e-05
-4.385418	crop	0.0003870011
-3.247116	cross	0.02487597
-4.686449	cross-racer	0.01663692
-4.209327	crossing	0.02296024
-4.686449	crossing-boundaries	-8.841119e-05
-4.084389	crosstrail	0.005451138
-4.686449	crossway	-0.000146526
-4.686449	crosswind	-0.0001331156
-3.946086	crowd	0.03964319
-4.686449	crowded	-0.0001241751
-3.873535	crown	0.01377631
-4.686449	crown/steerer	-0.0001420559
-4.209327	cruise	-4.92183e-05
-4.142381	cruiser	0.01744858
-4.209327	cruises	0.0007916531
-4.385418	cruising	0.02343431
-4.686449	crux	-3.460111e-06
-3.456	cruz	0.04143342
-4.510357	cry	0.0005005181
-4.686449	crysis	0.004857383
-4.510357	cumbersome	0.0165592
-3.811387	cup	0.004196177
-4.510357	cups	0.0165592
-4.385418	curbside	0.004831423
-4.686449	curiously	-0.000146526
-4.686449	current	0.007365207
-4.686449	currently	0.001613775
-4.510357	curvaceous	0.001486695
-4.510357	curve	-0.0002662301
-4.084389	curved	0.0341943
-4.288508	curves	0.01832547
-3.095384	custom	0.0142858
-4.209327	custom-butted	0.0004882198
-4.686449	custom-drawn	5.91461e-05
-4.510357	custom-shaped	0.01507593
-4.385418	custom-tuned	0.000715283
-4.686449	customer	-8.39405e-05
-4.686449	customers	-0.0001241751
-4.686449	customization	0.01731114
-4.510357	cut	-0.0001974169
-4.686449	cut-corners	0.01663692
-4.686449	cut-out	0.0007932057
-4.385418	cutting	-0.0002438216
-4.033236	cutting-edge	0.001528516
-4.288508	cva	0.0003764792
-3.873535	cx	0.01609196
-4.686449	cx-1	0.023271
-3.686449	cycle	0.01853172
-3.811387	cycles	0.03386956
-3.841351	cycling	0.05227163
-3.783359	cyclist	0.03464608
-3.271475	cyclists	0.01381739
-3.873535	cyclo	-0.0007636173
-4.510357	cyclo-tourists	0.01723343
-3.75703	cyclocross	0.02841058
-4.686449	cyclocross-inspired	-0.000146526
-4.510357	d	0.0001066734
-4.510357	d-6	0.001486695
-4.209327	d-shaped	-0.0003321112
-4.510357	d24	0.01138669
-4.510357	d3	0.004779671
-4.510357	d6	6.02348e-05
-4.385418	d7	0.005438921
-4.686449	d7hg	0.004857383
-4.686449	da	0.001062074
-3.407695	dahon	0.01072732
-3.665259	daily	0.01551322
-4.510357	dakar	0.0001066734
-4.686449	dalesman	0.004857383
-4.209327	dama	-0.0002702044
-3.841351	dampen	0.00138922
-3.468965	damping	0.0592908
-4.510357	dare	0.01686726
-4.510357	dark	0.0004003771
-4.686449	darkstar	0.0006498768
-4.142381	dart	0.01692215
-4.385418	darty	0.01648151
-4.686449	dash	0.004798602
-4.510357	date	0.02042535
-3.407695	dawes	0.01267398
-3.195087	day	0.03957645
-4.686449	day-in	0.01663692
-4.142381	day-long	-0.0002890241
-4.686449	day-out	0.01663692
-4.510357	day-to-day	0.0002498483
-4.209327	days	0.01929302
-4.686449	db	9.045251e-05
-3.540321	de	-0.002405708
-4.510357	deal	0.007287495
-4.686449	dealer	0.002121242
-4.686449	debris	0.01663692
-4.686449	debut	0.004857383
-4.209327	decade	0.03590809
-4.686449	decades	0.01731114
-3.987478	decals	0.02206035
-4.686449	deceleration	0.01498601
-4.686449	decent	0.01663692
-4.510357	decide	-5.881398e-05
-4.510357	decided	0.006242699
-4.510357	deco	0.001769514
-4.686449	decrease	0.000551366
-3.841351	dedicated	0.01228311
-4.686449	dedication	0.01731114
-3.811387	deep	0.01761649
-4.686449	deep-section	-0.000146526
-4.686449	deeper	0.0002738643
-4.510357	defender	0.002907136
-4.385418	define	-2.917627e-05
-4.686449	defines	0.023271
-4.033236	definition	0.004235935
-4.686449	deformed	-0.000146526
-4.510357	defy	-0.0001974169
-4.033236	degree	0.004410608
-4.686449	deliberate	0.01498601
-4.686449	delightfully	0.0003902143
-3.468965	deliver	0.03971944
-4.209327	delivering	-0.0004339733
-3.625751	delivers	0.03654317
-3.908297	deluxe	0.01594229
-3.873535	demand	0.03536479
-4.686449	demanded	0.01002028
-4.385418	demanding	0.02321962
-4.288508	demands	0.02228836
-4.510357	demolishes	0.02319329
-4.510357	demon	0.00472089
-4.686449	denotes	-0.000146526
-4.686449	dent	-0.0001420559
-3.665259	deore	0.005731401
-4.686449	deore/slx	5.467382e-05
-4.510357	deore/xt	0.0006646186
-4.686449	departure	0.005635843
-3.589539	dependable	0.01694622
-4.385418	depending	0.001458365
-4.686449	depth	-0.0001286454
-4.510357	depths	0.01996142
-3.385419	derailleur	0.07223761
-4.510357	derailleurs	0.0149083
-4.686449	derive	-0.000110764
-4.686449	derived	0.001290743
-4.510357	derives	-0.0001884761
-4.288508	descend	0.03507249
-3.873535	descending	0.0172752
-4.142381	descends	0.01722813
-4.686449	descent	0.01731114
-3.540321	descents	0.05006054
-4.686449	describe	0.023271
-3.946086	described	0.001134845
-3.946086	describes	0.009321367
-4.686449	deserted	0.003025372
-3.033236	design	0.08451981
-4.385418	designation	0.01715573
-2.610902	designed	0.0259987
-4.510357	designing	0.01488609
-4.686449	designs	0.01731114
-4.510357	destroy	0.001536063
-4.686449	detachable	0.0002470187
-3.873535	detail	0.03623131
-4.209327	details	0.002014582
-4.385418	detangler	0.03215311
-4.686449	determination	0.01663692
-3.589539	developed	0.04226751
-4.686449	developing	8.598005e-05
-4.209327	development	0.0004226057
-4.686449	devour	-4.81733e-05
-3.811387	dew	0.02174556
-4.686449	df23	0.0001888589
-3.987478	dh	0.02143373
-4.686449	dh1	0.004857383
-4.385418	di2	-0.0001829626
-3.946086	dial	0.001422333
-3.987478	dialled	0.03686432
-4.510357	dials	0.00204353
-4.686449	diamand	-9.735244e-05
-4.288508	diameter	-0.000181863
-4.510357	diameters	0.02250266
-4.084389	diamond	0.002661704
-4.510357	diamondback	-0.0002930519
-4.686449	didn't	-0.0001331156
-4.686449	diehard	-9.288185e-05
-4.686449	difference	1.889815e-05
-3.645056	different	0.004262242
-4.686449	digger	-8.39405e-05
-4.142381	diligently	-0.0004678915
-4.686449	dimensionally	-0.000101823
-4.385418	dimensions	0.01681281
-4.510357	diploma	0.004792364
-3.908297	direct	-0.0005938093
-4.686449	direct-acting	-0.0001286454
-4.686449	direct-mount	-4.370218e-05
-3.987478	directly	0.00806426
-3.14238	dirt	0.05344886
-4.385418	dirt-jumping	0.000216902
-4.686449	dirty	5.020181e-05
-4.686449	disapoint	0.01731114
-4.385418	disappoint	0.001458365
-2.805635	disc	-0.003003389
-4.686449	discern	-0.000101823
-4.686449	discerning	0.01663692
-4.686449	discovering	0.023271
-4.209327	discovery	-0.0006414212
-4.510357	discs	0.0165592
-4.686449	dish	0.01663692
-4.686449	displays	0.001564407
-4.510357	dissimilar	0.00204353
-3.908297	distance	0.03421316
-4.510357	distances	0.0165592
-4.510357	distinct	-8.117224e-05
-4.142381	distinctive	0.001014492
-4.686449	distressed	-0.0001062935
-4.209327	district	0.008046293
-4.686449	diverse	0.0003454606
-4.686449	diversity-laden	-0.0001420559
-4.686449	dj2	0.0007752868
-4.686449	dld	1.889815e-05
-4.510357	dlr	-5.881398e-05
-4.686449	dls	-0.000101823
-4.142381	dlt	-0.000438334
-4.686449	dm18	0.0001888589
-4.385418	dmr	-0.0002929962
-4.510357	dna	0.01996142
-3.23929	do	0.07820103
-4.510357	do-anything	0.000100501
-3.708725	do-it-all	0.01255495
-4.686449	doable"	0.01731114
-4.686449	doctor	0.001537482
-4.686449	doddle	0.0001888589
-3.908297	does	0.03785188
-3.873535	doesn't	-0.000121025
-4.510357	dog	0.009713832
-4.686449	dogleg	0.0007797666
-4.033236	dogma	0.0375184
-4.686449	dogs	0.01731114
-3.908297	doing	0.00460043
-4.288508	dolce	-0.0001371236
-4.385418	dolomite	0.000244911
-4.510357	domain	0.0006287799
-4.510357	dominance	0.01723343
-4.686449	dominant	-0.0001286454
-4.209327	dominate	0.02528572
-4.510357	dominates	-7.670073e-05
-4.510357	dominating	0.03431226
-4.288508	domination	0.03449587
-3.908297	don't	0.0003106622
-4.510357	donate	0.0006063823
-4.142381	done	0.02344001
-4.686449	door	0.01731114
-4.686449	dope	0.0001172885
-3.23929	double	0.005495781
-3.443411	double-butted	0.01041371
-4.686449	double-chainring	2.336995e-05
-4.686449	double-tap	0.000309661
-4.209327	double-walled	0.006230292
-4.686449	doubletap	-6.605726e-05
-4.510357	doubt	0.02335149
-2.962173	down	0.09939021
-3.482329	downhill	0.04573772
-4.510357	downtown	0.01649539
-4.209327	downtube	0.04319682
-4.288508	doyle	0.0006331165
-4.084389	dr	0.0169516
-4.510357	drag	0.02498778
-4.510357	draining	0.000375165
-4.510357	drastically	-0.0001169432
-4.686449	draw	-0.0001286454
-3.783359	drawn	0.01429232
-4.142381	drcv	0.0003913448
-4.084389	dream	0.01852221
-4.686449	dress	0.003146965
-4.288508	dressed	0.007764437
-4.686449	drifts	0.002121242
-3.841351	drive	0.01833636
-4.510357	drive-train	0.007287495
-4.385418	driven	0.0107262
-4.385418	driver	-0.0001337666
-4.686449	drivers	0.01498601
-4.686449	drivertrain	0.01663692
-3.315381	drivetrain	0.05969319
-4.686449	drome	0.01731114
-3.324721	drop	0.004848309
-4.686449	drop-bar	0.01044605
-4.288508	dropout	0.01712869
-3.589539	dropouts	0.0650588
-4.686449	dropped	0.01663692
-3.783359	drops	0.08531787
-4.510357	drum	-7.670073e-05
-3.908297	dry	-0.0009068949
-4.288508	ds28	-4.423599e-05
-3.987478	dt	-0.0007320725
-4.686449	dt-swiss	0.003146965
-3.987478	dual	-0.0002243092
-4.385418	dual-piston	0.0001497759
-4.686449	dualen	0.004857383
-4.686449	dude	0.01663692
-4.510357	due	0.006242699
-4.686449	duel	1.889815e-05
-4.385418	dulce	0.01126337
-4.686449	dull	0.023271
-4.686449	dumbed-down	-0.000146526
-4.385418	dune	0.004691175
-3.75703	duo	0.01594483
-3.946086	dura	-0.0007828502
-4.209327	dura-ace	-0.0003758345
-3.271475	durability	0.06081288
-3.195087	durable	0.07677721
-4.385418	durango	0.0003882086
-4.385418	durangos	0.0005302941
-4.686449	durham	0.004857383
-3.946086	during	0.02362448
-4.510357	duro	0.0005721647
-4.288508	dust	0.0170189
-4.686449	duster	9.954674e-06
-4.686449	dutchess	0.004857383
-3.783359	duties	0.03521972
-4.033236	duty	0.02770858
-4.510357	dyad	-0.0001052644
-4.686449	dynamic	0.0009769144
-4.510357	dynamics	0.00472089
-4.209327	dynamism	0.003866876
-4.209327	dynamo	-0.0002309738
-4.510357	e	0.01723343
-4.686449	e100	-4.81733e-05
-4.686449	e160ta	-4.81733e-05
-4.209327	e5	0.0006675136
-3.686449	each	0.0173332
-4.686449	earn	0.0002693899
-4.209327	earth	0.01688208
-3.247116	ease	0.06381463
-4.385418	easier	0.00611447
-4.686449	easiest	1.44264e-05
-3.556115	easily	-0.000114501
-4.686449	easily;	0.003146965
-3.708725	eastern	-6.595743e-05
-3.686449	easton	0.01909927
-3.174565	easy	0.03969052
-4.510357	easy-maintenance	0.001271339
-4.686449	easy-to-use	0.01663692
-4.142381	eat	0.003269053
-3.873535	eating	0.0008062012
-4.142381	eats	-0.0003874103
-4.510357	ec	0.006414559
-4.142381	eccentric	-0.0003963534
-4.686449	echelon	0.004857383
-4.510357	eclat	0.01650468
-3.908297	economical	0.03170485
-4.686449	economically	-7.931623e-06
-3.908297	eddie	-0.0003257474
-3.987478	eddy	-0.0007097197
-3.811387	edge	0.006162269
-4.385418	edginess	0.001691816
-4.686449	edgy	0.001129317
-4.288508	edict	-2.97302e-05
-4.084389	edition	0.01726984
-4.686449	editor	0.001959506
-4.686449	ef50	-0.0001331156
-4.686449	effect	-0.0001241751
-4.686449	effective	-7.499898e-05
-3.161404	efficiency	0.07382084
-3.05806	efficient	0.08385674
-4.385418	efficiently	0.01716175
-4.288508	effort	0.02071764
-4.209327	effortless	0.03199775
-4.510357	effortlessly	0.03465125
-4.686449	efx	3.678566e-05
-4.209327	eh	-0.0004304701
-4.510357	eight	-0.0002885817
-3.908297	either	0.01710393
-4.142381	el	0.006706621
-4.686449	elaborate	0.0001262341
-4.084389	elastomer	0.006957432
-3.873535	electric	0.0108177
-4.288508	electrically	-0.00035727
-4.510357	electronic	-5.434218e-05
-4.686449	electronics	0.0002738643
-4.033236	elegance	0.02036277
-3.987478	elegant	0.03420342
-4.686449	elegantly	2.336995e-05
-4.209327	element	0.009480779
-4.288508	elements	0.03979006
-4.686449	elevating	0.01498601
-3.873535	eliminate	0.02267927
-4.686449	eliminated	0.0001485991
-4.510357	eliminates	-3.645447e-05
-3.456	elite	0.0416446
-3.686449	elixir	-6.409839e-05
-4.686449	elliptical	-0.000146526
-4.686449	elmer	0.01663692
-3.946086	else	0.00352291
-4.686449	emblazoned	0.001613775
-4.510357	emd	6.194078e-05
-4.142381	emerging	0.001075794
-4.686449	emphasis	-0.0001286454
-3.783359	emphasize	-0.000324859
-4.385418	emphasizes	5.134306e-05
-4.686449	employing	-0.000146526
-4.510357	employment	0.00472089
-4.510357	emptying	0.000375165
-4.385418	emx	0.0001660014
-4.686449	enable	0.023271
-3.946086	enables	-0.0008007327
-4.686449	encounter	0.002121242
-4.510357	encountered	0.001536063
-4.686449	encourages	0.01002028
-3.443411	end	0.01471844
-4.385418	ends	0.03285225
-4.033236	endurance	0.01279959
-4.686449	endurance-focused	0.0009769144
-3.987478	enduro	0.001047943
-4.686449	energetic	0.00632041
-4.209327	energy	0.004941505
-4.209327	engine	0.0004824404
-3.732206	engineered	0.05541845
-4.142381	engineering	0.0319387
-4.385418	engineers	0.006165
-4.686449	enhance	0.001384936
-4.142381	enhanced	0.01741916
-4.686449	enhances	0.023271
-4.385418	enhancing	0.02559765
-3.987478	enjoy	0.02535244
-3.75703	enjoyable	0.02151744
-4.033236	enjoying	0.02268258
-4.288508	enjoyment	0.01475292
-4.288508	enjoys	0.02303791
-3.23929	enough	0.008360965
-3.106665	ensure	0.03830909
-3.75703	ensures	0.0002177584
-3.873535	ensuring	0.009349361
-4.385418	enter	0.02311559
-4.686449	entering	0.0002693899
-4.288508	enters	0.02303791
-3.946086	enthusiast	0.0001106271
-4.142381	entirely	0.007722418
-4.686449	entities	-0.000101823
-3.540321	entry	0.008998831
-3.665259	entry-level	0.01873
-4.209327	enviable	-0.0003231684
-4.385418	envy	0.006990607
-4.385418	eon	0.02232835
-3.607267	epic	0.01818446
-4.510357	epics	0.01723343
-4.686449	eps	-0.000146526
-4.686449	equal	-0.000146526
-4.510357	equalizer	6.641392e-05
-3.732206	equally	0.01702276
-4.288508	equation	0.01707805
-4.510357	equilibrium	8.260435e-05
-4.510357	equilink	0.0004630639
-4.385418	equilizer2	-0.0002840557
-4.033236	equipment	0.01796668
-3.625751	equipped	0.0782946
-4.686449	era	0.0001396529
-3.908297	ergo	-0.0006502627
-4.686449	ergon	0.0001262341
-3.708725	ergonomic	0.009022308
-4.385418	ergonomically	0.0008602885
-4.385418	ergonomics	0.0003243251
-4.686449	eric	-0.0001420559
-4.686449	erik	-0.0001420559
-4.084389	errand	-0.0005857695
-4.510357	errands	0.0149083
-4.510357	escape	0.004724527
-4.510357	especially	0.005558131
-4.288508	espresso	0.01884566
-4.510357	essence	0.00472089
-4.385418	essential	0.006165
-4.686449	essentially	-5.264436e-05
-4.385418	essentials	0.01709194
-4.686449	essex	0.004857383
-4.686449	established	-0.0001420559
-4.686449	et	-0.000146526
-4.686449	ethic	0.004857383
-4.142381	europe	0.01692272
-4.686449	ev134803	0.0005871855
-4.686449	ev142295	0.01731114
-4.686449	ev142296	0.0001485991
-3.783359	evans	-0.0003040539
-3.306237	even	0.04270934
-4.209327	event	0.01718795
-4.385418	events	0.01715573
-3.431176	ever	0.06991813
-3.35401	every	-0.0005406779
-4.686449	every-day	-3.460111e-06
-4.142381	everyday	0.0007886025
-3.732206	everyone	0.018639
-3.686449	everything	0.04842348
-4.288508	everywhere	0.02043878
-4.385418	evo	0.004701973
-4.385418	evolution	0.02155429
-4.686449	evolutionary	-8.841119e-05
-4.510357	evolved	0.0001961522
-3.708725	ex	0.004032507
-4.510357	exact	2.615814e-05
-4.686449	exacting	-0.000146526
-4.033236	exactly	0.001508781
-4.084389	example	0.02795748
-4.686449	excel	0.0004797355
-3.556115	excellent	0.02479388
-4.510357	excels	0.00227144
-4.288508	except	0.01575144
-4.385418	exceptional	4.795418e-05
-4.686449	exceptionally	-4.81733e-05
-4.686449	exciting	0.01498601
-3.75703	exclusive	0.02335865
-4.510357	exclusively	0.009009951
-4.686449	excuse	0.00632041
-4.288508	exercise	0.03277457
-4.510357	exhilaration	0.0001111468
-4.510357	exo	-7.395854e-05
-4.385418	exotic	-0.0002053225
-4.510357	expand	0.0006527813
-4.209327	expect	0.03590809
-4.510357	expectations	0.001769514
-3.946086	expected	0.01827067
-4.385418	expedition	-8.903828e-05
-4.686449	expensive	0.0007752868
-3.607267	experience	0.08724528
-4.510357	experienced	-3.817774e-05
-3.708725	expert	0.01184139
-4.686449	expertise	0.0004797355
-4.686449	explodes	0.002134722
-4.686449	exploit	0.0007618482
-4.686449	exploiting	0.023271
-4.686449	exploration	0.01498601
-4.209327	explorations	0.01632615
-4.510357	explorer	-0.0002063575
-4.510357	exploring	0.04085787
-4.510357	extend	0.0006527813
-4.288508	extended	-0.000426083
-4.510357	extending	0.0006527813
-4.686449	extension	0.01498601
-4.686449	extensive	-0.000146526
-4.209327	external	-0.0004983391
-3.841351	extra	0.000971792
-4.686449	extra-long	9.939769e-05
-4.686449	extraordinarily	0.0003320355
-4.209327	extraordinary	-0.0001745247
-4.686449	extras	0.005635843
-4.510357	extravaganza	0.0005721647
-3.873535	extreme	0.02122204
-3.75703	extremely	0.001776109
-4.686449	eye	-0.000146526
-4.686449	eyeleted	-3.02886e-05
-3.364229	eyelets	0.0188657
-4.686449	eyeletted	0.0001888589
-4.686449	ez-fire	0.0001530723
-4.686449	f	0.01731114
-4.510357	f-lite	1.549913e-05
-4.686449	f.i.s.t	0.000309661
-4.288508	f1	0.004875927
-4.686449	f100	-0.0001375858
-4.686449	f120rl	0.001062074
-4.686449	f150	0.001062074
-4.288508	f2	0.004627062
-4.385418	f3	0.005438921
-4.686449	f3's	-0.000146526
-4.510357	f4	0.00476975
-4.510357	f5	0.01138669
-4.385418	f75	0.01130899
-4.385418	f85	0.02168814
-4.510357	f95	0.005145287
-4.510357	fabien	-0.0002108277
-4.686449	fabled	-0.0001331156
-3.946086	face	0.05702817
-4.510357	faced	0.007287495
-4.686449	facilitate	0.0004842121
-3.344026	fact	0.004566157
-4.686449	facto	-4.370218e-05
-3.783359	factor	0.02395088
-4.209327	factors	-0.0002650355
-4.385418	factory	-0.0001365122
-4.209327	fade	-0.0004849227
-4.686449	fades	0.01731114
-4.033236	faf	-0.000215003
-4.385418	failure	0.0148306
-4.510357	fairly	-2.303832e-05
-3.811387	familiar	0.03454388
-4.686449	fancy	0.01731114
-4.686449	fans	0.004798602
-3.686449	far	0.03549883
-4.686449	farther	0.0003275604
-4.686449	fashion	0.01663692
-2.754483	fast	0.09999324
-4.142381	fast-rolling	0.01626616
-4.686449	fast-shifting	0.01498601
-4.686449	fast;	0.003146965
-3.607267	faster	0.05697238
-3.783359	fastest	0.04534781
-4.385418	fat	0.0002197129
-3.607267	fatigue	0.04933731
-4.288508	fatigue-free	-0.0003617403
-4.510357	favourite	1.102581e-05
-4.686449	favourites	0.01731114
-4.686449	fc	-0.000146526
-4.686449	fc-330	0.001564407
-4.288508	fc-440	0.001473513
-4.142381	fc-770	0.00251501
-4.686449	fcc	-7.052814e-05
-4.686449	fearless	0.0001351799
-4.510357	feathery	0.0006483024
-3.841351	feature	0.0005326531
-4.686449	featured	0.001613775
-2.409987	features	0.1219813
-2.805635	featuring	0.03219358
-4.686449	fed	-0.000146526
-4.510357	feedback	0.006242699
-3.247116	feel	0.09134818
-4.686449	feeling	0.004798602
-3.908297	feels	2.855924e-05
-4.510357	feet	0.01723343
-4.686449	fell	-0.0001197048
-3.124156	felt	-0.004785537
-4.686449	felt-sponsored	0.002269552
-3.216627	female	0.005054154
-4.686449	female-friendly	0.0006095741
-4.084389	female-specific	0.0006482686
-4.288508	female-tuned	0.0007438196
-4.686449	feminine	-0.0001286454
-3.946086	fender	0.01464767
-4.686449	fender-ready	-0.000146526
-4.209327	fenders	0.02140797
-4.510357	fer	0.02237548
-3.556115	few	0.007468233
-4.686449	fewer	-0.0001241751
-3.456	fiber	0.02319327
-3.607267	fibre	0.0491529
-4.686449	fibres	0.01663692
-4.686449	fiery	-0.0001420559
-4.686449	fight	6.361827e-05
-4.510357	figures	-0.0002197681
-4.510357	filter	-0.0001276243
-4.510357	finalist	0.005018564
-4.686449	finally	-5.264436e-05
-3.708725	find	0.02180597
-4.288508	finds	0.00291387
-3.783359	fine	0.01748607
-4.686449	fine-touch	-0.000146526
-4.510357	fine-tuned	0.01490461
-4.033236	finesse	0.01444232
-3.811387	finest	0.0004760867
-4.686449	finger	-0.000146526
-3.873535	finish	0.08199926
-3.75703	finished	0.02399691
-4.510357	finishes	0.02834583
-3.873535	finishing	-0.0008798872
-4.288508	fire	0.002663773
-3.374695	first	0.0468624
-4.686449	first-timers	-9.735244e-05
-3.783359	fisher	0.0003297951
-2.901119	fit	0.10737
-3.385419	fitness	0.04104222
-4.686449	fitness-based	-8.841119e-05
-4.209327	fitness-inspired	0.001074171
-4.510357	fitness-level	0.01036834
-3.987478	fitness-specific	-0.0006426545
-4.385418	fitnessminded	0.000216902
-4.385418	fits	0.001066549
-3.686449	fitted	0.01463538
-3.811387	fitting	0.0167436
-4.288508	five	0.0008393429
-4.385418	five-0	0.01205858
-4.686449	five-inch	0.0006857045
-4.686449	fixated	-0.000146526
-3.625751	fixed	0.005661186
-4.510357	fixed-gear	0.001024706
-4.385418	fixie	0.01802517
-4.288508	flagship	0.004476909
-4.510357	flair	0.0165592
-4.686449	flair;	0.0004125929
-4.686449	flak	-0.000146526
-3.686449	flash	0.04047105
-3.686449	flat	-0.0001823241
-4.084389	flatbar	0.009979986
-4.686449	flatlands	0.01498601
-4.288508	flats	0.02246507
-4.686449	flatter	-5.711534e-05
-4.686449	flawless	-0.0001420559
-4.084389	fledged	0.0006975942
-3.607267	flex	0.01336669
-4.686449	flex-free	0.01663692
-4.686449	flex-resistant	0.0002112272
-4.209327	flexes	-0.0002560915
-4.385418	flexibility	0.002138458
-4.686449	flies	0.01731114
-3.873535	flight	-0.0008885678
-4.288508	flip	-0.0003662105
-4.510357	flip-flop	5.299493e-05
-4.510357	float	0.001319197
-4.686449	floodgate	0.0001083429
-4.385418	floor	0.01844984
-4.288508	flop	1.223694e-05
-4.288508	flow	0.000223785
-4.209327	flowcontrol	-0.0004304701
-4.686449	flowers	0.01663692
-4.510357	flowing	0.01726737
-4.686449	fluorescent	-0.0001375858
-3.732206	fly	0.02511705
-4.510357	flyer	0.01744894
-3.987478	flying	0.0106735
-4.686449	foc-ultra	0.001564407
-4.385418	focale	-0.0002929962
-4.510357	focus	0.001536063
-4.385418	focused	0.001458365
-4.686449	foes	0.001613775
-3.841351	fold	0.08323313
-4.686449	folded	3.678566e-05
-4.510357	folders	0.01723343
-3.174565	folding	0.05027409
-4.209327	folds	0.02036507
-4.510357	follow	0.01016693
-4.686449	following	0.007365207
-4.686449	fondo	0.0003723124
-4.686449	fooling	0.0002201748
-4.686449	footed	-7.931623e-06
-4.288508	footprint	0.004739309
-1.8779	for	0.06351292
-4.209327	forays	0.01700038
-4.209327	force	0.0168043
-4.510357	foremost	0.001213031
-4.288508	forest	0.0344663
-4.510357	forests	0.01723343
-4.385418	forever	0.03215311
-3.908297	forged	0.007073565
-4.209327	forget	0.01007138
-3.841351	forgiving	0.0004563058
-2.669415	fork	0.08820093
-4.686449	fork-all	-0.0001420559
-4.686449	fork-which	0.000551366
-2.55291	forks	0.1036577
-3.908297	form	0.0241599
-4.686449	form;	0.001393908
-3.841351	formed	0.001780133
-4.686449	former	0.0002067534
-4.510357	formidable	-0.0002930519
-4.385418	forms	0.02311559
-3.946086	formula	0.03859949
-4.686449	fortunately	0.01663692
-3.946086	forward	0.005919367
-4.209327	foster	0.00182888
-4.510357	fosters	0.0004406749
-3.625751	found	0.01377983
-4.385418	foundation	0.005480433
-4.209327	four	0.006262085
-4.686449	fourstroke	-0.000146526
-3.396414	fox	0.04255203
-4.385418	foxy	0.004691175
-4.209327	fp1	0.005471749
-4.686449	fp2	0.004857383
-4.288508	fp3	0.01787437
-4.686449	fpk	0.0007752868
-4.686449	fpquattro	0.004857383
-4.510357	fps	0.000531862
-4.209327	fps2	0.0004690013
-4.084389	fr	0.01194262
-4.510357	fraction	0.009713832
-4.686449	fractured	-0.0001331156
-2.14238	frame	0.1481641
-3.073665	frames	0.07739332
-3.987478	frameset	0.01845277
-4.686449	framesets	0.0002962369
-3.732206	france	-0.001224558
-4.686449	france-worthy	0.000309661
-4.686449	francisco-type	-8.841119e-05
-4.288508	frank	0.0220764
-4.084389	freaks	0.01617085
-3.873535	free	0.04140119
-4.385418	free-wheel	0.0008916694
-4.686449	freecharge	0.01663692
-4.686449	freechucker	8.598005e-05
-4.209327	freedom	0.01226734
-4.686449	freedrive	0.00632041
-4.686449	freeeride	0.01044605
-3.783359	freeride	0.04538955
-4.686449	freeriders	-0.0001197048
-4.510357	freeroad	0.0008992023
-4.209327	freestyle	0.01637976
-4.686449	freeway	-0.000146526
-3.732206	freewheel	0.04688482
-4.686449	french	-0.0001375858
-4.686449	frequency	0.004857383
-4.686449	frequent	-0.0001152344
-4.084389	fresh	0.00523175
-3.946086	friction	0.0142871
-4.510357	friction-free	0.000531862
-4.385418	friday	-0.0001588705
-4.209327	friend	0.0344182
-4.686449	friendly	-0.0001286454
-4.142381	friends	0.04128595
-4.686449	fries	0.0001664919
-4.686449	fringe	0.0002335965
-2.478276	from	0.05224582
-2.85394	front	0.0659972
-4.686449	frown	0.01731114
-4.510357	frr	0.004779671
-4.510357	fs	0.005516618
-4.686449	fs01	0.004857383
-3.572505	fsa	0.01514997
-3.35401	fsr	0.007942629
-3.686449	fuel	-0.001237013
-3.297282	fuji	0.0001199199
-4.288508	fulcrum	0.004559213
-2.783359	full	0.004121467
-4.385418	full-carbon	0.00285405
-4.385418	full-coverage	0.0002107605
-4.686449	full-size	0.00632041
-4.686449	full-sized	9.045251e-05
-4.084389	full-suspension	0.01650811
-4.686449	full0carbon	-0.0001197048
-3.078994	fully	-0.004995037
-4.686449	fully-sealed	5.020181e-05
-3.306237	fun	0.04067579
-4.686449	function	0.01731114
-4.686449	functional	0.01663692
-4.510357	functioning	0.01036834
-4.686449	funkadelic	0.01663692
-4.686449	funky-less	-7.931623e-06
-4.686449	fuquay	-0.0001420559
-4.510357	furious	-0.0002930519
-3.987478	further	0.03243352
-4.510357	fusee	-6.501362e-05
-4.288508	fusing	0.02303791
-4.510357	fusion	-0.0001840057
-4.385418	fuss	0.02939051
-3.607267	future	0.01801323
-3.510357	fx	0.02909411
-4.686449	g-outs	0.01731114
-4.686449	g-sport	-0.000146526
-4.510357	g2	0.001144247
-4.686449	g3	-4.81733e-05
-4.288508	g6000	-4.423599e-05
-4.510357	gabbro	0.008316328
-4.510357	gain	5.299493e-05
-4.510357	galaxy	0.01138669
-4.686449	gamble	0.01663692
-4.686449	gambler	-7.931623e-06
-4.510357	game	0.01723343
-4.510357	garage	0.0149083
-4.686449	garbage	0.01731114
-4.288508	gardens	0.02520973
-4.510357	garnered	-0.0002197681
-3.625751	gary	0.0002782661
-4.686449	gas	0.01498601
-4.686449	gates	0.001564407
-4.686449	gateway	0.00632041
-4.686449	gave	-0.0001286454
-3.181298	gear	0.02259257
-4.084389	geared	0.01079201
-4.385418	geared-only	0.002829437
-3.216627	gearing	0.06833942
-3.148629	gears	0.1002206
-4.686449	gearset	0.01731114
-4.288508	gel	-6.660298e-05
-4.510357	general	-0.0002197681
-4.288508	generation	0.004532969
-4.385418	generous	-0.0003948727
-3.686449	genesis	-0.001653978
-4.288508	geneva	0.004971799
-4.033236	genius	0.004436054
-4.686449	gentle	-0.000146526
-4.385418	geoff	-0.0002929962
-4.385418	geometries	0.03379871
-2.584358	geometry	0.1205485
-4.686449	george	-0.000146526
-4.686449	germany	0.01663692
-3.084388	get	0.06294131
-4.686449	get-it-done-with-style	0.0001575454
-4.686449	getaway	0.01731114
-4.033236	gets	0.05497534
-3.572505	getting	0.005729456
-3.181298	ghost	-0.003146364
-4.686449	girls	0.0002514929
-4.385418	giro	-0.0003573394
-4.686449	git'r	-0.0001241751
-3.431176	give	0.03897005
-3.456	gives	0.04342439
-3.841351	giving	0.03579343
-4.686449	glance	0.0004797355
-4.209327	glances	0.00130301
-4.209327	glide	2.801255e-05
-3.946086	globe	0.01659575
-4.686449	gloss	-0.000146526
-4.686449	glove	0.01731114
-4.686449	glow	0.002121242
-4.686449	gnarl	0.001613775
-4.686449	gnarl-hound	0.007365207
-4.510357	gnarly	1.997242e-05
-3.130146	go	0.04685806
-4.686449	go-anywhere	0.01663692
-4.686449	go-fast	0.001129317
-4.209327	goal	0.01218396
-4.510357	goals	3.79546e-06
-4.510357	goat	0.0165592
-4.686449	god	0.001847226
-3.841351	goes	0.03429584
-3.510357	going	0.03534135
-3.873535	gold	0.005004844
-4.686449	gone	0.0003454606
-3.364229	good	0.03483187
-4.385418	goods	0.03457355
-4.288508	gossamer	0.0003312869
-3.908297	got	0.01706955
-4.686449	gotta	-0.000101823
-4.510357	grace	-0.0001571819
-4.510357	grade	0.01841859
-4.686449	gradient	0.01731114
-4.510357	gradients	-0.0002197681
-4.510357	graduate	0.006164945
-3.811387	grams	0.06523309
-4.385418	gran	-0.0003662799
-3.946086	graphics	0.05107579
-4.385418	gravel	0.01712451
-4.084389	gravity	0.03413157
-4.686449	grease	-0.000146526
-3.023691	great	0.04712816
-4.209327	greater	0.0004373271
-4.288508	greatest	-0.0002087044
-3.456	greatness	0.003993604
-4.288508	green	-6.830398e-05
-4.510357	grin	0.01723343
-4.686449	grind	0.004857383
-4.510357	grinder	0.004792364
-3.732206	grip	0.0290785
-4.385418	grippy	8.544631e-05
-3.188138	grips	0.06410289
-4.686449	grit	0.01498601
-4.510357	gritty	-9.621668e-06
-4.686449	groats	9.939769e-05
-3.946086	groceries	0.006666297
-4.510357	groove	0.005558131
-4.288508	ground	0.01660028
-4.686449	ground-breaking	0.0001262341
-3.873535	group	0.0298454
-3.987478	groupset	0.05066456
-4.510357	grow	0.0001961522
-3.443411	gt	0.01620279
-4.142381	gtr	0.0001344428
-4.686449	gtwgeometry	-7.946974e-05
-4.686449	gtxr	-0.0001197048
-3.841351	guaranteed	0.02690683
-4.084389	guarantees	0.0003329204
-4.686449	guard	0.01498601
-4.142381	guards	0.01459759
-4.686449	guess	-2.581731e-05
-4.288508	guide	0.008932214
-4.686449	guise	0.023271
-4.288508	gun	0.0006004304
-4.686449	gusset	0.01731114
-4.686449	gusset-free	9.954674e-06
-4.686449	guts	-5.264436e-05
-4.510357	guvnor	0.001417917
-4.686449	guys	0.0002514929
-4.385418	gx2	-0.0002706448
-4.084389	gyro	0.05184849
-4.510357	h2	8.877978e-05
-4.142381	habitat	0.001732821
-3.75703	had	0.03406309
-4.510357	hair	0.0165592
-4.385418	half	-0.0002858086
-4.209327	halflink	-0.0002247852
-4.510357	halfway	4.852196e-05
-4.686449	hallway	-0.000146526
-4.686449	halt	-8.841119e-05
-4.209327	hammer	0.02368096
-4.033236	hand	-0.0002474564
-4.385418	hand-built	0.003386989
-4.510357	hand-made	0.01650004
-4.510357	hand-picked	0.005503027
-4.686449	hand-welded	0.001290743
-4.142381	handbuilt	0.006494442
-4.510357	handcrafted	0.0165592
-3.443411	handle	0.04302017
-3.645056	handlebar	0.0237004
-3.263203	handlebars	0.07734179
-4.084389	handled	-0.0004041656
-4.686449	handlepost	0.01663692
-4.686449	handlers	-0.000146526
-4.686449	handles	0.0004125929
-2.958095	handling	0.08149942
-4.288508	handmade	0.0003451353
-4.686449	handpicked	0.001129317
-4.686449	handplant	3.678566e-05
-4.686449	handsome	-0.0001197048
-4.686449	hang	-9.735244e-05
-3.841351	hanger	0.05660131
-3.987478	hangers	0.0143647
-4.686449	happen	0.01731114
-4.686449	happens	0.01731114
-4.686449	happier	0.0003723124
-4.686449	happiest	0.0001396529
-4.142381	happy	0.0002403025
-3.496117	hard	0.03688988
-4.686449	hard-case	0.0004304966
-4.288508	hard-core	7.93658e-05
-4.686449	hard-pack	6.809046e-05
-3.987478	hardcore	0.0001133392
-4.385418	harder	0.03285225
-3.75703	hardest	-0.001037991
-4.686449	hardpack	1.889815e-05
-4.209327	hardrock	0.005467926
-3.130146	hardtail	0.0766632
-3.525081	hardtails	0.04080626
-4.686449	hardware	0.01663692
-4.686449	harmonious	-4.81733e-05
-4.686449	harmoniously	0.01663692
-4.510357	harsh	0.01723343
-4.385418	harshly	0.001678345
-2.663196	has	0.04220225
-4.510357	hassle	0.0155903
-3.987478	hassle-free	0.0179762
-3.732206	haul	0.03358345
-2.83519	have	0.03944676
-4.288508	having	0.0235601
-4.686449	hawaiian	0.01731114
-4.209327	hazard	0.0004046864
-4.686449	hazards	0.01731114
-4.385418	hb	-4.430534e-05
-3.419277	he	-0.00190822
-3.078994	head	0.01920083
-4.686449	head's-up	0.002269552
-4.510357	head-angle	0.0149083
-4.686449	head-turning	0.0002022798
-4.686449	headaches	0.01731114
-3.908297	heading	0.001033646
-4.288508	heads	0.0169551
-3.572505	headset	0.05821107
-4.385418	headshock	-0.0002929962
-3.496117	headtube	0.07127842
-3.811387	headtubes	0.01562774
-4.510357	health	0.0149083
-4.385418	heap	0.004643192
-4.510357	heaps	0.00472089
-4.686449	heard	0.01731114
-4.385418	heart	0.01988373
-4.510357	heartbeat	0.01723343
-3.708725	heat	-0.001449618
-4.209327	heat-treated	0.0009635104
-4.385418	heavier	0.0001346726
-4.510357	heavily	0.007287495
-3.873535	heavy	0.01621376
-4.686449	heckler	-9.735244e-05
-4.385418	heel	-0.0001499273
-3.665259	height	0.05651653
-4.686449	height-adjustable	1.889815e-05
-4.385418	heights	0.05093092
-4.686449	heist	0.004857383
-4.686449	helicopters	0.0002738643
-4.385418	hell	0.0008827031
-4.686449	hellride	0.0001217612
-3.407695	help	0.01328475
-4.209327	helpful	0.00152299
-3.873535	helps	0.007329709
-4.510357	hemisphere	0.0003527844
-4.686449	hence	0.023271
-4.686449	her	-0.000146526
-3.625751	here	0.04211247
-4.686449	heretic	0.004857383
-4.510357	heritage	0.01716498
-4.385418	hero	0.01877046
-4.510357	hg	-0.0002438773
-4.385418	hi	0.005438921
-4.686449	hi-ten	0.0002335965
-3.946086	hi-tensile	-0.0002566371
-4.686449	hidden	-0.0001331156
-3.078994	high	0.03537055
-4.288508	high-end	0.001171304
-4.510357	high-performance	8.877978e-05
-4.686449	high-quality	0.01663692
-4.686449	high-strung	0.001384936
-4.510357	high-value	0.01638854
-3.510357	higher	0.0003641366
-3.873535	highest	0.001311203
-4.686449	highlighted	0.0003454606
-4.686449	highlights	0.023271
-4.288508	highly	-0.0004278475
-4.686449	highly-customized	-3.460111e-06
-3.908297	hill	0.03249997
-3.811387	hills	0.03589136
-4.385418	hilly	-0.0001275686
-4.385418	himod	0.0001777567
-4.142381	himself	0.01692272
-4.686449	hinge	0.01731114
-4.686449	hinges	0.0007932057
-4.288508	hint	0.004565508
-4.686449	hipsters	0.006452006
-3.708725	his	-0.001411123
-4.385418	history	0.007710032
-3.482329	hit	0.03972447
-4.084389	hits	0.061239
-3.873535	hitting	0.05167368
-4.209327	hmf-net	0.001253642
-4.686449	hmx-net	0.001564407
-4.686449	hob	0.004857383
-4.385418	hoffman	0.0007527132
-4.686449	holder	0.01731114
-4.510357	holding	0.001536063
-4.686449	holds	-8.39405e-05
-4.686449	holdsworth	0.004857383
-4.510357	hole	-0.0001482403
-4.686449	holes	0.005635843
-4.686449	holidays	0.01731114
-4.510357	hollow	-0.0001750646
-4.686449	hollowtech	-7.946974e-05
-4.288508	holy	2.566192e-05
-4.084389	homan	0.008242134
-3.364229	home	0.05345269
-4.686449	homework	0.01731114
-4.686449	honed	0.001290743
-4.686449	honey	0.00632041
-4.385418	honky	-0.0002929962
-4.686449	honours	0.01731114
-4.686449	hookooekoo	0.0005245032
-4.209327	hope	-0.0004394107
-4.686449	horizon	-6.605726e-05
-4.084389	horizontal	-0.0003817999
-4.033236	horst	-0.0005399397
-4.510357	host	0.00472089
-4.686449	hottest	-0.0001197048
-3.732206	hourglass	0.0007284842
-4.510357	hours	0.001536063
-3.75703	how	0.01139335
-4.385418	however	0.01665937
-3.75703	ht	0.03172788
-4.510357	htc-columbia	0.0001961522
-3.75703	htx	-0.0009966614
-3.181298	hub	0.06361102
-4.686449	hub;	0.023271
-4.385418	hubbed	-2.47033e-05
-3.35401	hubs	0.05106396
-4.686449	hucker	-1.687456e-05
-3.665259	huge	-0.001489021
-4.510357	human	0.0001139238
-4.686449	humanitarian	-0.0001197048
-4.686449	humu	0.004857383
-4.686449	humuhumu-nakunuka-apuaa	0.005635843
-4.686449	hundreds	0.0006857045
-2.503179	hybrid	0.0640039
-4.385418	hybrids	0.0003226789
-2.974641	hydraulic	-0.005594473
-4.686449	hydraulically-damped	0.0007752868
-4.686449	hydraulics	0.01663692
-4.142381	hydro	0.0001210097
-4.385418	hydro-formed	0.002829437
-4.510357	hydroform	-9.011528e-05
-3.188138	hydroformed	0.02565417
-4.209327	hydroforming	0.01632615
-4.686449	hyperglide	1.44264e-05
-4.385418	i	-0.0002232096
-4.686449	i-beam	0.000309661
-4.686449	i-motion	0.0001307071
-4.686449	iconic	0.0002559671
-4.686449	id	0.0004797355
-4.288508	idea	0.00178655
-2.923021	ideal	0.0155877
-4.209327	ideally	-0.0003991765
-4.385418	identical	0.006165
-4.288508	identity	0.01854798
-3.224051	if	0.02618524
-4.385418	ignite	0.02311559
-3.987478	ii	0.00700585
-4.686449	iii	-8.39405e-05
-4.385418	image	0.004643192
-4.510357	imbued	0.007287495
-4.510357	immediate	0.03223081
-4.288508	immediately	0.0002466406
-4.510357	immerse	-0.0002018872
-4.686449	imp	0.000309661
-4.084389	imp3	0.01788091
-4.385418	imp4	0.001408997
-4.686449	impact	0.0001307071
-3.946086	impacts	0.01661223
-4.385418	impeccable	0.01648151
-4.686449	imperiale	-0.0001420559
-4.510357	important	0.01723343
-4.686449	importantly	0.01663692
-4.686449	imposing	-8.841119e-05
-4.385418	impossible	-7.390277e-05
-4.686449	impress	0.007365207
-4.142381	impressive	0.01680245
-4.686449	impressively	-8.841119e-05
-4.084389	improve	0.003012095
-3.496117	improved	0.01719492
-4.510357	improvement	0.00796082
-4.686449	improvements	0.01498601
-2.281615	in	0.1003236
-4.510357	incarnation	0.00472089
-3.572505	inch	0.009619982
-4.142381	inches	0.006635324
-4.686449	inclement	-6.158635e-05
-4.686449	inclined	0.007365207
-3.783359	include	0.05385089
-4.385418	included	0.007182074
-3.732206	includes	0.01156646
-3.946086	includes;	0.009531995
-3.510357	including	0.03597178
-4.686449	incomparable	0.001384936
-4.385418	incorporated	0.00636806
-4.142381	incorporates	0.03473261
-3.946086	increase	0.02293835
-3.572505	increased	0.0009253745
-4.288508	increases	-9.514761e-05
-4.142381	increasing	0.0244552
-3.873535	incredible	0.001550189
-3.556115	incredibly	9.522866e-05
-4.385418	independence	0.01715573
-4.510357	individuals	0.01757934
-4.084389	industry	0.001703258
-4.510357	inertia	-0.0002152979
-4.385418	infinito	-0.0002696745
-4.510357	infinity	0.0002929349
-4.686449	influence	-8.39405e-05
-4.385418	influenced	0.0001900502
-4.686449	infused	0.007365207
-4.510357	initial	-0.0002152979
-4.686449	initiative	0.006452006
-3.946086	inman	0.001951061
-4.686449	inner	-0.000146526
-4.510357	innovation	0.01884816
-4.033236	innovations	-0.0006589277
-4.033236	innovative	0.01665381
-4.385418	input	0.006463991
-4.686449	inseparable	-0.0001286454
-4.288508	insert	-0.0002633835
-3.783359	inserts	0.04726272
-4.686449	inset	-0.000146526
-4.288508	inside	0.04430645
-4.510357	insideout	-0.0002063575
-4.686449	insist	0.001613775
-4.510357	inspiration	0.001213031
-4.288508	inspire	0.00154985
-3.783359	inspired	0.0004659244
-4.686449	inspires	1.44264e-05
-4.209327	inspiring	0.01671458
-4.686449	installation	4.125766e-05
-4.510357	instance	8.267918e-06
-4.209327	instant	0.000333016
-4.686449	instantly	0.01663692
-4.686449	instead	0.004798602
-4.686449	integrate	-0.000146526
-3.05298	integrated	0.02414055
-4.686449	integrating	0.003146965
-4.686449	integration	0.002121242
-4.686449	intended	0.005635843
-4.510357	intensify	-0.0002197681
-4.686449	inter	5.020181e-05
-4.510357	interchangeable	-0.0001142085
-4.385418	interface	-0.0002661743
-4.084389	interfaces	0.01689435
-4.686449	interlock	-0.0001286454
-4.686449	intermediate	0.0005871855
-3.572505	internal	-0.0008131084
-4.209327	internally	-0.0004143366
-4.510357	internals	0.0149083
-3.005207	into	0.04311161
-4.686449	introduce	0.023271
-4.142381	introduced	0.001732821
-4.033236	introducing	0.02272731
-4.142381	introduction	0.005931989
-4.288508	introductory	0.01021296
-4.686449	intuitive	2.336995e-05
-4.385418	invaluable	-0.0002035837
-4.510357	invented	-6.775746e-05
-4.686449	invention	-7.052814e-05
-4.385418	investment	-0.000288526
-4.385418	invisible	2.280279e-05
-4.686449	involved	0.01731114
-4.288508	involving	0.02303791
-4.510357	ion	-0.0002063575
-4.510357	ios	0.006328311
-4.686449	iphone	0.001102418
-4.686449	ipod	0.0001217612
-4.510357	iroko	0.0003063638
-3.908297	irregularities	0.001344746
-4.288508	irresistible	-0.0003349179
-1.821048	is	0.04132663
-3.987478	isc	0.00152733
-4.385418	iscg	-0.0003725185
-4.033236	isn't	0.001732691
-4.142381	isozone	-0.0002611305
-4.510357	issue	0.007287495
-4.686449	isx	-0.0001420559
-2.120601	it	0.09838137
-4.209327	it'll	0.0001689702
-4.686449	it1s	-0.0001286454
-4.385418	italia	-0.0002947506
-4.385418	italian	-0.0002348801
-4.686449	itch	0.005635843
-4.385418	item	0.006165
-4.686449	items	-8.39405e-05
-3.009755	its	0.003896595
-4.385418	itself	0.0118236
-4.209327	izoard	0.0160894
-4.084389	jack	0.02444664
-4.686449	jacket	-0.000110764
-4.686449	jagwire	0.0006498768
-4.510357	jake	0.02840791
-3.510357	jamis	0.0153028
-4.385418	japanese	0.0001257219
-4.385418	jarrah	0.0001598505
-4.142381	jaunts	0.01695666
-4.686449	jealous	0.01731114
-4.686449	jean	-0.0001286454
-4.209327	jekyll	0.01571667
-3.908297	jet	-0.0001282364
-4.686449	jetstream	-0.0001331156
-4.686449	jewel	0.01731114
-4.686449	jiggle	0.002121242
-4.510357	job	0.01736978
-4.385418	john	-0.0004351073
-4.686449	join	-5.264436e-05
-4.686449	joined	0.00632041
-4.686449	jointed	0.0003454606
-4.209327	joints	0.01632615
-4.510357	joker	0.02237548
-4.385418	journals	0.0148306
-4.686449	journey	0.01663692
-4.209327	journeys	0.01700038
-4.209327	joy	0.0205414
-4.385418	juicer	-0.0002053225
-3.987478	juicy	0.0007427028
-3.841351	juliett	0.007023929
-3.572505	jump	0.009167791
-4.209327	jumper	0.01585945
-4.084389	jumping	0.01034218
-3.841351	jumps	0.03228738
-4.385418	junction	-3.364918e-05
-4.686449	junkies	-0.0001286454
-4.288508	jus	0.02303791
-2.966289	just	0.02816024
-4.686449	justice	0.004857383
-4.385418	justin	-0.0002617039
-4.686449	k-force	7.703512e-05
-4.288508	k-vid	0.02305923
-4.385418	kabush	0.0148306
-4.510357	kahuna	-8.117224e-05
-4.686449	kaiser	0.004857383
-4.510357	kalahari	0.007114241
-4.686449	kammtail	9.954674e-06
-4.288508	kansi	0.007294671
-4.510357	karakum	0.004779671
-3.288509	keep	0.04136689
-3.732206	keeping	0.02971144
-3.908297	keeps	0.02930016
-3.783359	kenda	-0.000901863
-4.686449	kept	-3.475985e-05
-4.385418	kern	-0.0003215755
-4.385418	kevlar	-0.0002393509
-4.686449	kevler	-0.0001375858
-4.385418	key	-0.000233897
-4.385418	khe	-9.52312e-05
-4.510357	kickstand	0.0149083
-4.510357	kids	0.03465125
-4.510357	kill	0.009942565
-4.510357	killer	0.0004199301
-4.142381	kilo	0.005199887
-3.708725	kind	0.003479382
-4.686449	kinds	0.004798602
-3.908297	kinematics	-0.0003431782
-4.510357	kinesis	0.0001989449
-4.686449	kinetix	0.0001575454
-4.288508	king	0.004501318
-4.084389	kink	0.01710022
-3.525081	kit	0.06114585
-3.572505	kitted	-0.001283034
-4.686449	kluncker	0.01663692
-4.686449	kmc	0.0004304966
-4.510357	knew	4.852196e-05
-4.686449	knob	-6.158635e-05
-4.686449	knobby	-0.0001241751
-4.385418	knobs	0.01715573
-4.209327	knock	0.01467525
-4.686449	knocking	0.0002201748
-3.686449	know	0.01315961
-4.209327	knowledge	0.01972837
-4.033236	known	0.02237369
-4.385418	komodo	-0.0002795855
-3.023691	kona	0.02619931
-4.686449	kore	-0.0001286454
-4.510357	ksyrium	-8.117224e-05
-4.084389	kula	0.006778201
-4.288508	kuma	-0.0005816327
-4.084389	kwest	-0.0005768287
-4.686449	kwick	-0.0001241751
-4.288508	l.e.d	-0.0003662105
-3.75703	la	-0.001136383
-4.510357	lab	0.001881794
-4.142381	laced	0.01348889
-4.510357	lacking	-0.0001795351
-3.946086	ladies	0.01748157
-3.783359	lady	0.04293066
-4.686449	laid	6.361827e-05
-4.686449	lait	0.01731114
-4.510357	laminate	-0.0002197681
-4.510357	lanai	0.004756183
-3.75703	lance	0.0007952816
-4.686449	land	-0.0001420559
-4.686449	lands	1.011402e-06
-4.142381	landscape	0.01624849
-4.385418	lane	0.01648151
-4.288508	lanes	0.01763362
-4.385418	langster	0.005017801
-4.686449	language	0.0001262341
-3.625751	lapierre	5.261204e-05
-4.209327	lapierres	-0.0003589386
-3.783359	large	-0.0002774553
-3.987478	larger	0.01636477
-3.987478	largest	-0.0001460495
-4.686449	laser	0.0005245032
-4.686449	laser-accurate	0.005635843
-4.510357	laserdisc	0.0004675419
-3.589539	last	0.03373962
-4.686449	lasting	0.0004752591
-4.209327	late	0.005325078
-3.708725	lateral	-0.001082838
-4.385418	laterally	0.005480433
-3.540321	latest	0.000319402
-4.209327	latitude	0.006316595
-4.686449	laugh	0.0004797355
-4.385418	laughing	0.0003271561
-4.686449	launched	0.002121242
-4.686449	laurels	0.01663692
-4.686449	lavaredo	0.004857383
-4.686449	lay-up	0.01663692
-4.385418	layers	0.0148306
-4.510357	laying	0.0236159
-4.686449	layout	0.004798602
-4.209327	layup	0.001463198
-4.510357	lazy	-0.0001768121
-4.385418	lbs	0.01715573
-4.686449	lead	0.01731114
-4.686449	leader	0.002121242
-4.385418	leading	0.0231558
-4.686449	leaf	-3.475985e-05
-4.686449	leaf-shaped	-2.134596e-05
-4.686449	league	0.004798602
-4.686449	learnt	0.001290743
-4.510357	least	0.006505362
-4.084389	leather	0.0002596201
-4.288508	leave	0.02322915
-4.686449	leaves	0.001690083
-4.385418	leaving	0.02397295
-3.783359	lector	-0.0009769218
-4.686449	led	0.0004528771
-4.510357	left	0.01736978
-4.510357	lefty	0.0006975746
-4.288508	leg	0.02245092
-4.686449	legacy	0.01731114
-4.084389	legend	0.003577124
-3.525081	legendary	0.01737711
-4.142381	legged	0.001529267
-4.686449	legion	0.004857383
-4.686449	legitimate	6.809046e-05
-3.946086	legs	0.03393212
-3.946086	leisure	0.03550538
-4.033236	leisurely	0.01847897
-4.510357	lends	0.02319329
-3.732206	length	0.01557559
-4.686449	lengthened	0.0004976423
-4.686449	lengths	0.01663692
-3.315381	less	0.04288948
-4.686449	lessens	-0.000110764
-3.908297	let	0.02522637
-4.033236	lets	0.02501111
-4.385418	letum	0.0001150884
-3.195087	level	0.04274131
-4.510357	levels	0.02163199
-3.987478	lever	0.06769549
-4.686449	leverage	0.01498601
-4.288508	leveraging	0.02303791
-4.288508	levers	0.05082074
-4.084389	lexa	0.004402265
-4.686449	lhd	5.020181e-05
-4.686449	liberty	0.004857383
-4.686449	lies	-5.264436e-05
-3.732206	life	0.03176593
-4.686449	lifestyle	0.01731114
-4.288508	lifetime	0.004551056
-2.693012	light	0.07265215
-3.334266	lighter	0.05378915
-3.540321	lightest	0.06161134
-4.209327	lighting	0.03218986
-4.288508	lightness	0.04082134
-4.084389	lightning	1.48557e-05
-4.686449	lightning-quick	-0.0001152344
-3.987478	lights	0.02195907
-2.713321	lightweight	0.07085378
-2.883675	like	0.06610946
-4.510357	likely	0.006242699
-4.686449	likes	0.00632041
-4.209327	likewise	-0.0003678806
-4.686449	limit	-0.0001197048
-4.510357	limited	-0.0001974169
-4.142381	limits	0.03459234
-3.306237	line	0.103218
-4.686449	line-up	0.01663692
-4.084389	linear	-0.0005231801
-4.385418	lined	-0.0001874346
-3.607267	lines	0.04644571
-3.987478	link	0.04755367
-4.084389	linkage	0.01459224
-4.686449	links	0.01663692
-4.288508	lisa	0.004554691
-3.873535	list	0.0269543
-4.510357	lite	4.681357e-05
-4.510357	lite-speed	-0.0002930519
-3.841351	literally	0.01585906
-3.686449	lithium	-0.0004814066
-3.841351	little	0.0109443
-4.510357	live	6.641392e-05
-4.686449	lived	0.0001888589
-4.142381	lively	0.0177672
-4.288508	lives	0.02067337
-4.686449	lk	-7.931623e-06
-4.510357	lo	0.0006975746
-4.686449	lo-bolt	0.0002693899
-3.946086	load	0.01671221
-4.033236	loaded	0.0251838
-4.686449	lobolt	-4.81733e-05
-4.686449	lobule	-4.81733e-05
-3.686449	local	-0.0002511835
-3.811387	lock	0.0343692
-4.686449	lock-on	0.0001262341
-4.209327	lock-out	0.05073301
-4.686449	locked	0.0003186106
-4.385418	lockjaw	0.0003674543
-3.496117	lockout	0.07286229
-4.686449	lockout-equipped	0.01663692
-4.385418	log	-5.601268e-05
-4.686449	logical	-0.000146526
-4.288508	logo	0.02264894
-4.686449	london	0.01663692
-2.876889	long	0.07924528
-4.686449	long-distance	-5.264436e-05
-4.288508	long-drop	-0.000265119
-4.510357	long-lasting	0.01557175
-4.686449	long-the	-0.0001197048
-4.686449	long-time	-0.0001375858
-3.288509	longer	0.04290152
-3.732206	longest	0.01534531
-4.288508	longstanding	-0.0004949099
-3.456	look	0.05964063
-4.686449	looked	0.0001843855
-3.0684	looking	0.01490444
-3.344026	looks	0.08955313
-4.686449	loop	0.002984848
-4.686449	looped	0.0002738643
-4.142381	loose	-0.0004634207
-4.686449	losing	-0.0001286454
-4.510357	loss	0.00472089
-4.288508	lost	0.001186249
-3.946086	lot	0.01083533
-4.142381	lots	0.004410181
-4.686449	loud	0.01663692
-3.908297	love	0.008827509
-4.385418	loved	0.03285225
-4.510357	lovely	0.0149083
-4.686449	lovers	0.0002022798
-3.987478	loves	0.02605814
-4.686449	loving	0.01663692
-4.686449	lovingly	2.784179e-05
-3.15497	low	-0.001058406
-4.385418	low-maintenance	0.01512792
-4.510357	low-profile	0.003234789
-4.686449	low-rise	0.0008335253
-4.686449	low-slung	0.0004528771
-4.686449	low-vibration	5.483103e-06
-3.589539	lower	0.05701612
-4.686449	lowers	0.01663692
-4.288508	lowest	0.0004733973
-4.686449	loyal	0.00632041
-3.987478	lt	0.02537736
-4.686449	lt2	-8.39405e-05
-4.142381	ltd	0.005680537
-4.510357	lu-a54	-0.0002152979
-4.686449	lucero	0.004857383
-4.288508	luggage	0.0005629997
-4.510357	luggage-carrying	-0.0002197681
-4.686449	lugged	0.0002335965
-4.510357	lugs	0.03292995
-4.686449	lunch	0.01663692
-4.510357	lungs	-0.0002197681
-4.288508	luxe	0.007427082
-4.510357	luxurious	1.274038e-05
-4.686449	luxury	0.004798602
-4.686449	lyrik	-0.000146526
-3.908297	m	0.0165267
-4.686449	m2025	0.0008335253
-4.510357	m3l	0.02169311
-4.510357	m3l-x	0.004756183
-4.209327	m4	0.00052276
-4.510357	m475	-0.0002197681
-4.385418	m4sl	0.0006781149
-3.783359	m5	-0.0002995734
-4.510357	m575	-0.0001616526
-3.14238	machine	0.05757114
-4.033236	machined	0.0001685471
-4.510357	macneil	0.000557111
-4.686449	mad	-0.0001241751
-2.983157	made	0.08748879
-4.686449	madman	0.002121242
-4.686449	madness	0.01731114
-3.374695	madone	0.03109973
-4.510357	mag	-0.0002108277
-4.142381	magazine	0.02598807
-4.510357	magazines	0.0165592
-4.209327	magic	0.006925756
-4.686449	magma	0.01731114
-4.209327	magnesium	0.03186148
-4.686449	magnitude	-7.946974e-05
-3.783359	main	0.002368923
-4.510357	mainframe	0.01716498
-4.510357	mainly	0.0002408984
-4.510357	maintain	0.006196706
-4.686449	maintained	0.0003454606
-4.033236	maintaining	-0.0001819987
-4.686449	maintains	0.0001172885
-3.540321	maintenance	0.05972775
-4.686449	maintenance-free	-0.0001420559
-4.385418	major	0.002819225
-4.686449	majority	0.004798602
-2.901119	make	0.0438799
-4.510357	makeover	0.02318631
-3.202149	makes	0.04172612
-3.15497	making	0.04252281
-4.385418	malum	0.0001150884
-4.686449	mamba	-3.460111e-06
-4.142381	man	-0.0005125969
-4.510357	manage	0.006242699
-4.288508	managed	0.009361797
-4.686449	managing	0.00632041
-4.686449	mangled	0.002121242
-4.686449	manhattan	0.004857383
-4.686449	manic	0.004857383
-4.142381	manipulated	0.0007961363
-4.033236	manners	0.02184828
-4.209327	manoeuvrability	0.03199775
-4.510357	manoeuvring	0.00204353
-4.686449	mantle	0.005635843
-4.510357	mantra	0.003185219
-4.510357	manual	0.0165592
-4.142381	manufactured	-1.048652e-05
-4.142381	manufacturers	0.001116183
-3.908297	manufacturing	0.01562951
-3.443411	many	0.04056007
-3.732206	marathon	0.02873577
-3.946086	marathons	0.03160961
-4.686449	marathons-the	-0.0001331156
-4.385418	marie-helene	-0.0002929962
-3.572505	market	0.04124839
-4.686449	market-leading	-0.000146526
-4.686449	marketed	0.001833755
-4.510357	marlin	-8.117224e-05
-4.686449	marquee	0.006452006
-4.142381	marriage	0.004410181
-4.686449	marries	0.003146965
-4.084389	marzocchi	0.01581329
-4.288508	massive	0.01465757
-4.510357	master	7.365647e-05
-4.686449	mastering	-0.0001331156
-4.209327	match	0.02296024
-3.665259	matched	0.01290083
-4.686449	matches	-0.0001331156
-4.142381	matching	0.0002761411
-4.385418	mated	0.0137219
-3.556115	material	0.05219341
-3.873535	materials	0.03323066
-4.686449	materials-that	-0.0001375858
-4.510357	mates	0.0165592
-4.510357	mating	-8.117224e-05
-4.510357	matrix	0.005127182
-4.142381	matte	-0.0005188201
-3.732206	matter	0.04661985
-3.75703	mavic	0.01543827
-4.510357	max	0.0005302384
-4.686449	maximise	0.0007618482
-4.033236	maximize	0.0004121696
-3.364229	maximum	0.0009890124
-4.686449	maxle	-0.0001420559
-4.385418	maxmax	0.0006883908
-4.209327	maxxis	0.01747031
-3.873535	may	0.0002287385
-4.510357	maybe	0.01324584
-4.686449	mayfair	0.004857383
-3.665259	mean	0.04397683
-4.686449	meander	-0.000110764
-4.686449	meandering	0.0002201748
-3.987478	meaning	0.01910955
-3.468965	means	0.0563371
-4.288508	meant	0.01188846
-4.288508	measure	0.02215888
-4.686449	measured	0.0003454606
-4.686449	measurement	0.0007887257
-4.686449	mech	0.01663692
-3.607267	mechanical	-0.001171802
-3.665259	meet	0.0235353
-3.946086	meets	-0.0005547836
-4.686449	mega-sized	-8.39405e-05
-4.686449	mega-solid	-0.0001286454
-4.385418	mega/marathon	-0.0002661743
-4.288508	megavalanche	0.0008693234
-4.686449	mellow	6.809046e-05
-4.288508	mellowpark	0.006087316
-4.142381	men	0.01671004
-4.510357	mens	0.0149083
-3.811387	merckx	0.002125029
-4.510357	merckxs	-0.0002152979
-4.686449	mercury	0.004857383
-4.385418	mess	0.007514248
-4.686449	messengers	0.01731114
-4.510357	met	8.267918e-06
-4.142381	meta	-0.0005724693
-4.686449	meteor	0.004857383
-4.686449	methods	0.01498601
-4.686449	methonal	-0.0001375858
-4.510357	meticulous	0.0001228726
-4.510357	meticulously	-0.0001633978
-4.288508	metro	-0.0003304473
-4.385418	metropolis	0.0003882086
-4.686449	metropolis2	-7.946974e-05
-4.084389	micro	0.0003300298
-4.686449	micron	0.004857383
-3.419277	mid	0.02637213
-4.510357	mid-range	8.877978e-05
-4.385418	mid-sized	3.452852e-05
-3.946086	might	0.001935587
-4.142381	mike	-0.0004500081
-4.510357	milanino	0.005657082
-4.686449	milano	0.004857383
-4.686449	mild	7.256281e-05
-3.732206	mile	0.02196828
-4.142381	mileage	0.01687889
-3.443411	miles	0.05722074
-4.686449	mimic	0.023271
-4.686449	mimosa	-0.0001420559
-3.496117	mind	0.04325097
-4.686449	minded	0.0006095741
-4.084389	mini	-0.0005562217
-3.987478	minimal	-2.231478e-05
-4.686449	minimise	-3.475985e-05
-4.288508	minimising	-0.0002499695
-4.510357	minimize	0.0004093318
-3.873535	minimum	0.02335993
-4.385418	minnows	0.01649669
-4.686449	minted	0.002984848
-3.987478	minutes	0.0006694348
-4.209327	mirraco	-0.0007326283
-4.686449	miserable	0.0001485991
-4.033236	miss	-0.0009244456
-4.510357	missed	0.009873963
-4.142381	missing	0.009631855
-4.385418	mistake	0.01648151
-4.288508	mix	0.01030485
-4.385418	mixed	0.009448626
-4.142381	mixer	0.005453048
-4.385418	mixte	0.003562876
-4.142381	mlo	0.001529267
-4.510357	mm	0.005109076
-4.686449	mmc	0.001564407
-4.510357	mo	0.003198737
-4.686449	mobeus	-0.0001197048
-4.686449	mobile	0.023271
-4.686449	mobility	-0.0001331156
-4.686449	mod	7.703512e-05
-4.142381	mode	0.02290391
-3.324721	model	0.07035513
-3.732206	models	0.02081307
-4.686449	moderate	-0.000101823
-3.510357	modern	0.01283399
-4.686449	modest	9.492507e-05
-4.510357	modified	0.001247414
-4.142381	modular	-0.0004008249
-4.686449	modulate	0.0001396529
-4.686449	modulated	-6.605726e-05
-4.209327	modulation	0.0344182
-4.033236	modulus	0.0008233137
-4.510357	mold	0.0149083
-4.686449	molded	-9.735244e-05
-4.686449	molding-to	-0.000146526
-4.385418	moly	0.0009066638
-4.686449	moment	9.045251e-05
-4.686449	momentous	0.00632041
-4.142381	momentum	0.02206477
-4.686449	moncoque	0.002984848
-4.385418	monday	0.006165
-3.202149	mondraker	0.03896406
-4.209327	mondrakers	-0.0002746789
-3.841351	money	0.04260698
-3.607267	mongoose	0.0320435
-4.686449	mono	0.004857383
-3.482329	monocoque	0.0276441
-4.385418	monolever	0.0148306
-4.686449	monona	0.0006498768
-4.686449	monoque	-0.0001286454
-4.385418	monostay	0.0157213
-4.686449	monster	0.0004304966
-3.841351	montague	0.0183036
-4.686449	montare	0.004857383
-4.686449	month-long	-0.000101823
-4.288508	months	0.004565508
-4.385418	monza	0.001253476
-4.510357	mood	0.01723343
-4.510357	moods	0.01723343
-4.686449	moon	0.01663692
-2.713321	more	0.04882595
-4.510357	morning	0.01649074
-4.686449	morph	0.0002738643
-4.686449	morphs	0.0002738643
-2.938261	most	0.004132873
-4.510357	mothra	0.007878821
-4.686449	motion	0.01663692
-4.510357	motor	0.0149083
-4.385418	moulding	-0.0001382393
-3.783359	mount	0.03275053
-2.136832	mountain	0.03866517
-4.686449	mountain-levelling	7.703512e-05
-3.811387	mountains	0.05167307
-3.873535	mounted	0.007138587
-3.783359	mounting	0.01622443
-3.306237	mounts	0.101933
-4.209327	move	0.01731368
-4.209327	movement	0.03199775
-4.686449	moving	0.023271
-4.686449	mp2	0.0006095741
-3.708725	mtb	0.02426796
-4.142381	mu	-0.0006448473
-3.385419	much	0.03384114
-3.987478	mud	0.0142888
-3.443411	mudguard	0.01268643
-3.315381	mudguards	0.06569697
-4.142381	multi	0.0008409926
-3.841351	multi-day	-0.001057557
-4.686449	multi-link	-5.711534e-05
-4.510357	multi-mould	-2.303832e-05
-4.686449	multi-pivot	-0.0001197048
-4.686449	multi-purpose	0.0001575454
-4.686449	multi-tasking	0.0002201748
-4.686449	multifaceted	-0.000146526
-4.510357	multiple	-0.0002108277
-4.510357	multisport	0.0008678314
-4.686449	multitude	0.004798602
-4.686449	mundane	0.01663692
-4.686449	muscular	0.0007752868
-4.686449	muss	0.01663692
-4.686449	must	0.004798602
-4.686449	muster	0.01731114
-4.686449	mx	0.0002559671
-4.686449	mx6	0.004857383
-4.288508	my	-0.0004171421
-4.084389	myka	-0.0004310029
-4.510357	mystic	0.004756183
-4.686449	n	-0.0001375858
-4.209327	nail	0.00130301
-4.510357	nails	0.01608671
-3.645056	name	0.04998454
-3.431176	named	0.00376644
-4.288508	nano	0.0003927709
-4.686449	nanoalloy	0.001847226
-4.686449	narrow	0.0008335253
-4.033236	narrower	-0.0004621857
-4.686449	nastiest	-0.0001420559
-4.686449	nasty	0.0005871855
-4.686449	national	4.125766e-05
-3.708725	natural	-9.283633e-05
-4.033236	nature	0.03418527
-4.686449	navigate	0.0001262341
-4.510357	navigator	0.005516618
-4.209327	ncx-d	-0.0004349404
-4.385418	near	0.02311559
-4.686449	near-vertical	5.467382e-05
-4.686449	nearest	-0.0001062935
-4.510357	nebula	0.0001049752
-4.686449	necessarily	-0.000146526
-4.209327	necessary	0.008534586
-4.686449	necessity	0.01731114
-4.142381	neck	0.02372575
-3.202149	need	0.05800367
-3.708725	needed	0.05499839
-4.686449	needing	0.01002028
-3.572505	needs	0.07167048
-4.686449	negotiating	5.91461e-05
-4.385418	neon	0.000227002
-4.686449	neos	2.336995e-05
-4.686449	netherlands	-0.0001420559
-3.946086	neutrally	-0.0005100508
-4.084389	nevada	-0.0003198102
-4.510357	nevegal	-0.0002018872
-3.708725	never	0.01010193
-2.675725	new	0.04652486
-4.686449	new-to-the-sport	0.0001083429
-3.873535	newly	-0.0001434362
-4.686449	newspaper	-0.0001420559
-3.873535	next	-0.000628927
-3.873535	nexus	-0.0003618145
-3.510357	nice	0.01493638
-4.385418	nicely	0.007154784
-4.686449	nicely-spaced	0.0001530723
-4.510357	nicked	0.0149083
-4.510357	nickel	-0.0001276243
-4.686449	nicks	-0.000146526
-4.510357	nico	-0.0002197681
-4.288508	night	0.001175791
-4.686449	nightwasp	0.004857383
-4.686449	nightwolf	-4.81733e-05
-3.811387	nimble	0.01726778
-3.344026	niner	0.009054873
-4.510357	nipping	0.0007049409
-3.75703	nirone	-0.001145327
-4.142381	nitrous	-0.000789734
-3.13622	no	-0.004897342
-4.288508	no-compromise	0.0007631176
-4.385418	no-compromises	-2.338114e-06
-4.510357	no-holds-barred	0.000745267
-4.288508	no-nonsense	0.01629476
-4.686449	no7	0.004857383
-4.686449	noblest	-0.000146526
-4.510357	nobody	0.0004899326
-4.686449	nod	0.00632041
-4.686449	nolift	0.0002470187
-4.033236	nomad	0.008264611
-4.686449	non-existent	0.01731114
-4.686449	non-slip	-0.0001420559
-4.084389	none	0.01722969
-4.510357	nonsense	-9.621668e-06
-4.288508	normally	-0.000303623
-4.510357	norman	-0.0002197681
-4.209327	north	0.01697187
-4.385418	northern	-0.0002929962
-4.510357	northshore	0.005009513
-4.686449	northwest	0.01663692
-4.686449	nose	-0.0001420559
-4.288508	nosedives	0.01640382
-3.095384	not	0.07268289
-4.686449	note	8.150759e-05
-3.783359	nothing	0.01722913
-4.686449	noticeable	-6.605726e-05
-4.686449	noticeably	0.0006857045
-4.686449	notorious	0.0001575454
-4.288508	notoriously	-0.0003662105
-4.385418	novela	-0.0002097943
-4.510357	novelo	-0.0001616526
-4.510357	novice	-3.370483e-05
-4.510357	novus	0.0001676194
-3.431176	now	0.0293708
-3.708725	ns	-0.0003499077
-4.686449	numbers	0.001613775
-4.033236	numerous	-0.0004756028
-4.510357	nunu	0.01138669
-4.288508	nylon	-0.0002052531
-4.510357	o	4.233993e-05
-4.686449	obligatory	-5.264436e-05
-4.510357	obstacle	0.03465125
-4.510357	obstacles	0.007227933
-4.209327	obtain	-0.0004170588
-4.686449	obvious	-0.0001197048
-4.686449	obviously	0.0001262341
-4.510357	occasional	-2.751032e-05
-4.510357	ocean	0.01650933
-4.510357	oclv	0.001486695
-4.686449	octagon	-0.000146526
-4.686449	octalink-splined	-7.931623e-06
-4.510357	odd	-7.395857e-05
-3.306237	odyssey	0.01513763
-1.945297	of	0.03879827
-3.288509	off	0.1093877
-3.510357	off-road	0.04459517
-4.686449	off-road;	0.023271
-4.288508	off-the-bank	-0.0003662105
-3.306237	offer	0.0679716
-3.589539	offering	0.03496646
-4.686449	offerings	0.001613775
-2.996253	offers	0.03536544
-4.686449	office	0.01663692
-4.686449	offset	0.0002693899
-4.510357	often	0.0005436745
-4.385418	og	-2.917627e-05
-4.033236	old	0.0004897732
-4.686449	olive	-0.0001241751
-4.686449	omega	9.045251e-05
-4.686449	omnium	-3.02886e-05
-2.390882	on	0.100784
-4.686449	on-road	0.001129317
-4.209327	on-the-fly	0.0003208189
-4.686449	onboard	0.023271
-4.510357	once	0.0165592
-4.084389	onda	0.001035607
-2.9344	one	0.04718675
-4.686449	one-piece	-4.370218e-05
-4.686449	one40	-9.735244e-05
-3.987478	online	0.001499934
-3.255085	only	0.06642727
