
\data\
ngram 1=5784
ngram 2=26070
ngram 3=15860

\1-grams:
-4.383838	"all	-0.0002823965
-4.684868	"backbone"	0.0004379038
-4.286928	"breezer"	-1.63441e-05
-4.684868	"climbing"	-0.0001187918
-4.383838	"comfort"	0.002129032
-4.286928	"corporate"	0.0006711683
-4.684868	"distressed"	-0.000100845
-4.684868	"do	-0.0001412243
-4.684868	"doable"	0.01740943
-4.684868	"fast"	0.01740943
-4.383838	"high	-0.0002823965
-4.684868	"internally	-0.0001412243
-4.684868	"mobile"	0.02335931
-4.383838	"ontic	-0.000353028
-4.684868	"open"	-0.0001232784
-4.684868	"pain	-0.0001412243
-4.1408	"pure	-0.0004850838
-4.684868	"race"	0.002134835
-4.286928	"steel	0.006256357
-4.684868	"the	0.0003525574
-4.031655	"v"	0.0001777533
-3.730625	&	0.0002587832
-4.383838	'a	-0.00027791
-4.383838	'bobbing'	-4.14651e-06
-4.684868	'cross	-0.0001322514
-4.207747	'do	0.002191029
-4.508777	'do-it-all'	-0.0001579766
-4.684868	'drome	0.01740943
-4.684868	'entry	0.0001280417
-4.684868	'fit	0.01503818
-4.684868	'flash	-0.0001412243
-4.684868	'master	-0.0001412243
-4.508777	'no-nonsense'	-0.0002555287
-4.684868	'oclv'	0.001566953
-4.383838	'old	-0.0002823965
-4.684868	'serious'	0.002279177
-4.383838	'stealth'	-0.0001432937
-4.383838	'zero	0.0004674903
-4.684868	(35	-9.187136e-05
-4.684868	(a	0.0005682019
-4.508777	(also	2.153957e-05
-4.383838	(approx)	0.0002877587
-4.684868	(caad)	-0.0001412243
-4.684868	(carbon	-0.0001412243
-4.508777	(eat	-0.000202844
-4.684868	(ev134803)	0.000595165
-4.383838	(except	0.005441656
-4.684868	(hence	0.02335931
-4.684868	(including	-0.0001412243
-4.684868	(m5	0.0008424048
-4.684868	(mountain	-0.0001367379
-4.684868	(or	-0.0001412243
-4.684868	(road	-0.0001367379
-4.508777	(simulation	0.01658291
-4.383838	(such	0.001696149
-4.1408	(with	-0.0004525078
-4.684868	(x0)	0.004876499
-4.684868	(xt)	0.004876499
-4.508777	+	0.0149631
-1.42064	,	0.001787364
-3.153389	-	0.06518548
-4.383838	-it's	-3.557064e-05
-4.684868	-minded	0.0006176353
-4.508777	-regarded	0.001771215
-4.684868	-slice	0.0001325308
-4.684868	-speed	-3.353797e-05
-1.402019	.	-0.03527215
-3.83977	/	0.001790725
-4.684868	0.1	0.004876499
-4.684868	00	0.004876499
-4.286928	01	0.004635187
-4.383838	02	0.004726354
-4.286928	03	0.004651301
-4.383838	04	0.004726354
-4.684868	048	-2.007527e-05
-4.508777	05	0.00480142
-3.352429	1	0.01787681
-4.684868	1-1/8	0.006349471
-3.684868	1.0	0.005937827
-4.684868	1.1	0.0002313044
-4.383838	1.2	0.0003429389
-4.684868	1.36	0.004876499
-4.1408	1.5	0.0001428337
-4.684868	1.5"	-0.0001412243
-3.663678	10	0.02290637
-4.082808	10-speed	-0.0001826274
-4.508777	100	-8.051045e-05
-3.83977	100%	0.004177461
-4.508777	1000	-0.0001579766
-4.684868	100g	7.417513e-05
-4.1408	100m	0.004446775
-3.3138	100mm	0.005826882
-4.684868	100mm-travel	-6.494924e-05
-4.286928	101	-0.0002003948
-4.082808	1020	-0.0002279552
-3.23771	105	0.006589621
-4.508777	105mm	0.004746961
-4.508777	10m	0.001491874
-4.383838	10r	0.001416808
-4.508777	10sp	-5.806703e-05
-4.684868	11	-0.0001412243
-4.286928	11-25t	0.001266637
-4.508777	11-28t	0.001416756
-4.031655	11-32t	-0.0004633786
-4.684868	11-34t	5.622108e-05
-4.684868	110	-0.0001367379
-4.207747	110mm	0.004521803
-4.684868	11m	0.001566953
-4.684868	11r	0.001566953
-4.383838	12	-0.0002767505
-4.383838	12-25t	-9.3924e-05
-4.684868	12-27t	5.622108e-05
-4.684868	120	0.001071789
-4.684868	1200	0.004876499
-3.417696	120mm	0.02045183
-4.383838	12k	0.001368715
-3.755449	12km	0.01628461
-4.684868	12x135mm	0.0001325308
-4.508777	130/140mm	0.0006189648
-4.684868	130mm	0.0006940439
-4.684868	14	-0.0001367379
-4.508777	14-28t	-0.0001445155
-4.1408	14-34t	-0.0004447017
-3.781778	140mm	0.0053657
-4.383838	1450grams	-0.0002823965
-4.508777	14mm	-0.000202844
-4.383838	15	0.0003082533
-4.508777	150	0.00156091
-3.809807	150mm	0.004625878
-4.508777	1580	-0.0001579766
-4.508777	15mm	0.000701201
-4.082808	16	0.01230805
-4.684868	16"	0.0001459986
-4.684868	16''	0.0006580852
-4.684868	16.75"	0.0005008014
-4.684868	160-135mm	-2.007527e-05
-3.781778	160mm	0.005769291
-4.508777	160mm-travel	0.0003673174
-4.508777	165mm	0.004746961
-4.286928	18	0.005659916
-4.684868	18"	0.0005008014
-4.508777	18.5kg	0.0149631
-4.684868	1800	0.004876499
-4.684868	180mm	0.0004603664
-4.383838	19	8.238203e-05
-4.684868	19.5"	0.0005008014
-4.684868	1930's	0.01503818
-4.508777	1930s	0.01658291
-4.383838	1k	-0.0002823965
-4.508777	1st	-0.000202844
-4.383838	1twenty	0.01133637
-3.166354	2	0.02207192
-4.684868	2,5	0.0001864046
-4.684868	2-speed	0.01044908
-3.480748	2.0	0.01681373
-4.207747	2.1	0.001746066
-4.1408	2.1"	2.795376e-05
-4.684868	2.2	0.004876499
-4.508777	2.2"	0.0003583325
-4.508777	2.25"	0.0003583325
-4.508777	2.3	0.000418005
-4.286928	2.3""	0.0001735282
-4.684868	2.35	0.0001639564
-4.383838	2.5	0.00600354
-3.587958	20	0.02278465
-4.1408	20"	0.01709814
-4.684868	20-speed	0.0001011075
-4.684868	20.5	-0.0001367379
-4.031655	20.75"	-2.447935e-05
-4.684868	200	0.004876499
-4.082808	2000	0.02135884
-4.684868	2000g	0.0005592146
-4.684868	2001	0.002279177
-4.508777	2007	0.0149631
-3.684868	2009	0.01350496
-2.730625	2010	0.01320971
-1.939013	2011	0.00315053
-4.684868	2011bmx	0.01044908
-4.508777	2025	-0.0001265666
-4.508777	20kg	0.01658291
-4.207747	20mm	0.0008490748
-4.286928	21	0.001412261
-4.383838	21"	0.0003506563
-4.684868	210	0.004876499
-4.684868	214	0.004876499
-4.684868	216	0.004876499
-4.684868	22	0.01740943
-4.383838	22-32-44t	0.001238109
-4.684868	220	0.00106729
-4.508777	22t	1.705077e-05
-4.383838	2300	0.0007745491
-3.83977	24	0.006638002
-4.082808	24"	0.02123726
-4.286928	24-speed	0.00108201
-4.684868	24.1	-0.0001322514
-4.286928	25	0.004902713
-3.83977	25-9	-0.0007855181
-4.508777	25.4	-0.0002073305
-4.1408	25/9	-0.0003223416
-4.508777	25t	0.0001260121
-4.684868	25x9t	-0.0001143052
-4.082808	26	0.004469119
-4.1408	26"	-0.0001133355
-4.684868	26-inch	0.0001459986
-3.985898	27	0.006871807
-4.684868	27-9	0.0001370201
-4.383838	27-speed	0.01199606
-4.286928	28	-0.000324879
-4.684868	28"	-0.0001232784
-3.809807	28-38-48t	-0.0005211117
-4.684868	28-inch	0.0001459986
-4.508777	28mm	-6.822775e-05
-4.207747	29	0.0001202269
-3.871954	29"	-0.0002833012
-3.454419	29er	0.03085433
-4.684868	29ers	0.001611996
-4.684868	2mm	-9.635823e-05
-4.508777	2nd	-0.000251042
-4.684868	2x10	0.0001370201
-3.082808	3	0.02131008
-4.508777	3-d	-0.000211817
-4.286928	3-pc	-0.0002677109
-3.871954	3-peice	-0.0007420037
-4.286928	3-piece	-0.0001992085
-4.383838	3-position	0.01646071
-4.383838	3-speed	2.84932e-05
-4.684868	3-way	-2.007527e-05
-3.755449	3.0	0.005108578
-4.508777	3.1	0.005830562
-3.707144	30	0.02126355
-4.684868	30-39-50t	0.0001864046
-4.383838	300	0.01136079
-4.508777	3000	0.00480142
-4.684868	30hm12k	0.001566953
-4.508777	30hm3k	0.0007133705
-4.207747	30mm	-0.0004447924
-4.508777	31.8	-0.000211817
-4.508777	310	0.00480142
-4.684868	314	0.004876499
-4.684868	316	0.004876499
-4.684868	318	0.001071789
-4.383838	32	0.0005285212
-4.508777	32c	0.0003011843
-4.684868	32mm	-0.0001367379
-4.383838	34	-0.00027791
-4.684868	34-50t	0.0002313044
-4.383838	34/50t	-7.028561e-05
-4.031655	35	0.02304121
-4.684868	350	0.004876499
-4.508777	3500	0.005544003
-4.684868	36	-0.0001367379
-4.286928	360	-0.000352963
-4.286928	3700	0.006010456
-3.985898	38c	-0.0001668573
-4.383838	3900	0.01714213
-4.207747	3d-forged	-0.0003437162
-4.508777	3rd	-0.0001983575
-4.684868	3speed	3.377959e-05
-4.684868	3t	-0.0001412243
-4.684868	3twenty	0.0006580852
-3.587958	4	0.007066336
-4.684868	4-position	-5.148751e-05
-4.508777	4-x	0.0001978691
-4.207747	4.0	0.004576261
-4.508777	4.5	0.000418005
-4.508777	4.5"	0.004746961
-4.383838	4.7	0.0003429389
-3.985898	40	0.004278274
-4.508777	400	0.00480142
-4.684868	4000	0.004876499
-4.286928	401	0.004993926
-4.684868	41-thermal	0.01665799
-4.684868	410	0.004876499
-4.684868	410mm	-0.0001322514
-3.304657	4130	-0.001860305
-4.684868	42	-8.738447e-05
-4.684868	420	0.001107782
-4.508777	4300	0.001191611
-4.383838	44	0.0006184587
-4.684868	4400	0.004876499
-4.508777	45	0.004803463
-4.684868	4500	0.0005322536
-4.684868	46-36t	0.0001011075
-4.684868	4600	0.004876499
-4.286928	48	-0.0004056479
-4.383838	4900	0.005341637
-4.684868	49mm	0.0003256093
-4.383838	4x	4.196475e-05
-4.684868	4x/dirt	0.01044908
-3.755449	5	0.01776695
-4.684868	5-7yrs	-0.0001412243
-4.383838	5.2	0.004930253
-4.031655	5.5	0.006672749
-4.684868	5.9	0.0002313044
-3.871954	50	0.01217723
-4.286928	50-34t	-0.0002407857
-4.508777	5000	0.00480142
-4.508777	501	0.01143586
-4.207747	50mm	-0.0003921094
-4.684868	510	0.004876499
-4.508777	5100	0.00480142
-4.684868	514	0.004876499
-4.684868	516	0.004876499
-3.944505	520	8.249853e-05
-4.684868	5300	0.004876499
-4.383838	531	0.0002261184
-4.684868	55	0.004876499
-4.684868	55-rs	-7.841051e-05
-4.508777	5500	0.00480142
-4.1408	5700	0.004680346
-4.286928	57mm	-0.000352963
-4.684868	5800	0.004876499
-4.286928	5900	0.004651301
-4.082808	6	0.01212189
-4.684868	6+1	6.070953e-05
-4.508777	6.2	0.00658653
-4.508777	6.5	0.0003955369
-4.684868	6.9	-0.0001412243
-4.1408	60	0.01113567
-4.508777	60's	0.01658291
-4.508777	60.1	0.006345025
-4.207747	600	0.004582844
-4.1408	6000	0.005732887
-3.278328	6061	-0.0007224786
-3.985898	6061-t6	0.0003347686
-4.207747	6069	0.001029481
-4.684868	60hmm1k	0.001566953
-4.684868	60s	0.01503818
-4.508777	63-millimeter	0.0005425563
-4.508777	6300	0.00480142
-4.1408	631	0.0205385
-3.809807	63mm	-0.0002809724
-4.684868	64	-0.0001098185
-4.684868	6500	0.004876499
-4.684868	67	-0.0001098185
-4.286928	6700	0.0223119
-4.684868	6:00	0.01004472
-4.508777	6sp	-0.0001938709
-3.394833	7	0.02895176
-4.684868	7-speed	0.0007884496
-4.286928	7.0	0.00471236
-4.508777	7.1	-9.066668e-05
-4.383838	7.2	0.004787412
-4.383838	7.3	-0.0001657327
-4.207747	7.5	0.004589429
-4.082808	7.6	-0.000465867
-4.684868	7.7	-1.55876e-05
-3.985898	7.75"	-0.0006113688
-4.383838	7.9	-0.0001657327
-4.383838	70	0.005411994
-4.684868	700	-0.0001322514
-3.809807	7000	0.001038167
-3.684868	7005	0.00356454
-3.53874	700c	0.005665333
-4.383838	700c-	-4.14651e-06
-4.684868	700x23c	0.0004334116
-4.684868	700x26c	-7.841051e-05
-4.684868	700x28c	0.0004334116
-4.508777	701	0.01143586
-4.684868	710	0.004876499
-4.684868	714	0.004876499
-4.508777	720	0.00480142
-4.508777	7200	0.00480142
-4.508777	725	-0.0001702723
-4.684868	73.5	0.0002762091
-4.383838	7300	0.005468937
-4.1408	7500	0.004501233
-3.985898	75mm	0.005000625
-4.684868	770	-0.0001367379
-4.207747	7700	0.004576261
-4.508777	777	0.0001158153
-4.508777	78mm	-0.0001220793
-4.684868	790	-8.289751e-05
-4.1408	7sp	-0.0003750262
-3.342445	8	0.01021389
-3.83977	8"	-0.0008863851
-4.684868	8-1/4"	-9.187136e-05
-4.082808	8-speed	2.413243e-05
-4.684868	8.25	-3.353797e-05
-4.1408	8.25"	-0.000335809
-4.684868	8.5	-3.353797e-05
-4.684868	80	0.004876499
-4.684868	8000	0.004876499
-3.643475	80mm	0.004738822
-4.684868	81	5.622108e-05
-4.684868	8500	0.004876499
-4.207747	853	0.003046719
-4.684868	85mm	0.006349471
-4.684868	8700	0.004876499
-4.684868	88	0.004876499
-4.207747	899	-0.0003831356
-4.1408	8m	0.001191688
-4.286928	8r	0.001341755
-3.985898	8sp	-0.0007368624
-3.166354	9	0.07453664
-4.383838	9's	0.0005079402
-4.383838	9-speed	0.0001599725
-4.1408	9.7	0.004777814
-4.207747	9.8	0.0112107
-4.508777	9.9	0.00480142
-4.684868	90	-0.0001322514
-4.1408	9000	0.004501233
-4.684868	90mm	-0.0001367379
-4.684868	914	0.004876499
-4.684868	916	0.004876499
-4.684868	949	-8.289751e-05
-4.508777	9500	0.00480142
-4.684868	980	-8.289751e-05
-4.383838	9m	0.001416808
-4.684868	9r	0.001566953
-4.031655	9sp	-0.000449619
-4.684868	9spd	0.01665799
-3.781778	9t	-0.0008039261
-4.684868	9twenty	0.0006580852
-3.261622	:	0.05020924
-4.684868	;	-0.0001412243
-1.852678	</s>
-99	<s>	0.007607527
-1.634488	a	-0.06002992
-4.684868	a-6	0.0008424048
-4.684868	a-frame	0.01665799
-4.383838	a-head	-0.0001421106
-3.570925	a1	-0.0006306596
-3.985898	a1-sl	0.001387295
-4.684868	a2	-2.007527e-05
-4.1408	a2-sl	0.0009679613
-4.1408	aaron	-0.0005646885
-4.286928	aaron's	-0.0001127098
-4.684868	abilities	0.006349471
-4.1408	ability	0.01094674
-4.508777	ability?	9.336681e-05
-3.781778	able	0.005299544
-4.082808	aboard	0.02525117
-3.286928	about	0.03418007
-3.906717	above	0.04301218
-4.286928	absolut	-0.0004718053
-3.871954	absolute	0.02343032
-3.871954	absorb	0.00190421
-4.286928	absorbing	0.003462975
-4.383838	absorbs	0.002129032
-4.082808	absorption	0.03800755
-3.944505	abuse	0.03949291
-4.684868	abyss	0.004876499
-4.684868	ac01	0.004876499
-4.684868	ac02	0.004876499
-4.508777	accelerate	-0.0002016845
-4.383838	accelerates	0.01800688
-4.383838	accelerating	0.01725929
-4.031655	acceleration	0.02393195
-4.684868	accent	-8.289751e-05
-4.383838	access	0.01488803
-4.207747	accessed	-0.0003472383
-4.684868	accessibly	-2.12442e-06
-4.684868	accessories	7.417513e-05
-4.1408	acclaimed	0.01748694
-4.508777	accommodate	0.0106116
-4.684868	accommodating	0.01665799
-4.383838	accomplished	0.0003506563
-4.207747	according	0.006049233
-4.286928	accordingly	0.0249432
-4.684868	account	0.000595165
-4.508777	accounts	0.01658291
-4.684868	accuracy	0.01740943
-3.906717	accurate	7.36959e-05
-3.781778	ace	0.0174944
-4.082808	acera	0.0005279594
-4.684868	acera/alivio	-2.456286e-05
-4.207747	achievable	0.0171092
-3.985898	achieve	0.04124147
-4.383838	achieved	0.02320917
-4.031655	achieves	0.001614064
-4.684868	acronym)	0.01665799
-3.944505	across	0.0246226
-4.684868	acting	0.0004199347
-4.1408	actinum	-0.0006958902
-4.383838	action	0.03470005
-3.755449	active	0.0161098
-4.684868	activity	-0.0001412243
-4.684868	actually	-0.0001412243
-4.684868	adapt	2.36342e-06
-4.286928	adaptability	0.01718424
-4.684868	adaptation	0.01665799
-4.031655	adapted	0.00582419
-4.684868	adapts	0.006349471
-3.62417	add	0.04481273
-3.730625	added	0.01342769
-3.906717	addict	-0.0002070739
-4.684868	addiction	0.005653279
-4.684868	addicts	8.764108e-05
-4.207747	adding	0.006682966
-4.031655	addition	0.02281575
-3.707144	additional	-0.00128214
-4.508777	address	0.02328423
-3.906717	adds	0.006747226
-4.508777	adept	0.0004122438
-3.871954	adequate	-0.0008530296
-3.781778	adjust	0.06416418
-3.5235	adjustable	0.02276964
-4.684868	adjustable-travel	-0.0001367379
-4.286928	adjusted	0.006071925
-4.383838	adjuster	0.03223148
-4.508777	adjusters	0.01658291
-4.082808	adjustment	0.04145871
-4.508777	adjustments	0.02326595
-4.508777	admired	-0.0001220793
-4.207747	admiring	-0.0004235165
-3.62417	advanced	0.01188628
-4.031655	advantage	0.0216157
-4.684868	advantages	0.004822041
-3.643475	adventure	0.01585818
-4.684868	adventure!	0.005989861
-3.871954	adventures	0.03380182
-4.383838	adventuring	0.02320917
-4.383838	advice	0.01488803
-3.429595	aero	0.01337785
-4.684868	aero'	-0.0001143052
-4.684868	aero-shaped	0.0002537562
-3.755449	aerodynamic	0.03937109
-4.684868	aerodynamically	0.0002357949
-4.1408	aerodynamics	0.0509718
-4.684868	aerospace	-0.0001367379
-4.684868	aerospace-grade	0.00106729
-4.508777	aesthetic	-0.000211817
-4.684868	aesthetically	-0.0001412243
-4.383838	aether	-0.0001588846
-4.684868	affix	1.582723e-05
-4.383838	afford	0.006199325
-4.508777	affordability	0.01725456
-3.707144	affordable	0.04686564
-4.508777	afforded	0.0002774783
-4.684868	africabike	-6.046205e-05
-4.684868	africabikes	0.006349471
-3.159823	after	0.03472808
-3.684868	after-market	-0.0006900573
-3.684868	aftermarket	-0.0005102027
-4.383838	afternoon	0.01835359
-4.684868	afterwards	0.01740943
-4.684868	afx	4.2756e-05
-4.1408	again	0.01719736
-4.286928	against	0.02315439
-4.207747	age	0.007278495
-4.684868	aged	-0.0001412243
-3.605687	aggressive	0.02067571
-4.684868	aggressively	3.377959e-05
-4.082808	aggressiveness	0.004371761
-4.508777	aggressor	4.780479e-06
-3.406114	agile	0.03154632
-4.508777	agility	0.02003824
-3.871954	ago	0.03602983
-4.383838	ahead	0.03470005
-4.286928	aim	0.007145553
-4.383838	aimed	0.0003371778
-4.684868	ain't	-0.0001367379
-4.508777	aintree	0.004935123
-3.32314	air	0.08701228
-4.207747	air-sprung	0.001914416
-4.684868	airborne	-0.0001412243
-4.684868	airflow	0.002491267
-4.508777	airformed	-0.0001804109
-4.684868	airplanes	0.01503818
-4.383838	airs	0.01650784
-3.755449	aitken	-0.0001862033
-4.286928	aitken's	0.0003038371
-4.508777	akrose	0.0003191546
-4.207747	aksium	-0.0001542395
-4.207747	al	0.00461008
-4.684868	ale	-6.046205e-05
-3.508776	alex	0.02350621
-4.684868	alex/formula/shimano	-4.251286e-05
-4.684868	alfa	0.001566953
-3.781778	alfine	0.04047221
-4.508777	alienation	0.0001305028
-4.684868	alignment	0.01665799
-4.684868	alike	0.01665799
-4.031655	alive	0.007024
-3.83977	alivio	0.001230715
-2.475353	all	0.08556645
-4.207747	all'	-7.791389e-05
-4.684868	all-	0.003024205
-4.508777	all-around	0.0007641583
-4.684868	all-black	0.0006176353
-4.207747	all-conditions	0.01501606
-4.082808	all-day	0.01898651
-4.684868	all-duty	-0.0001412243
-4.684868	all-encompassing	0.0001370201
-3.781778	all-mountain	0.009710452
-3.781778	all-new	0.02290636
-4.684868	all-roads	0.01665799
-3.906717	all-round	0.00239777
-4.207747	all-rounder	0.008607895
-4.684868	all-silver	0.0006176353
-3.730625	all-weather	0.03236368
-4.508777	allant	0.005544003
-4.082808	allez	-0.0003174178
-3.417696	allow	0.03977697
-3.871954	allowing	0.03080152
-3.605687	allows	0.05031052
-2.641505	alloy	0.06044255
-4.684868	allrounder	0.02335931
-4.684868	allure	-8.738447e-05
-3.944505	almost	0.009500869
-4.508777	aloha	-6.704453e-05
-3.605687	along	0.03189516
-4.508777	alp	-0.0002465552
-4.508777	alpen	-0.0001938709
-3.730625	alpha	-0.0001656814
-4.1408	alpine	0.01717866
-3.985898	alps	0.002368601
-4.207747	already	0.01092217
-3.02211	also	0.03482222
-4.684868	alt	0.004876499
-4.684868	alt.ernative	0.006349471
-4.383838	altamira	-0.000140927
-4.684868	alter	0.02335931
-4.684868	altered	0.0009863181
-4.684868	alternates	2.480333e-05
-4.508777	alternative	0.02402919
-4.286928	although	7.469932e-05
-4.508777	altitude	-0.0002241204
-3.944505	altus	4.201126e-05
-2.552928	aluminium	0.09984595
-3.643475	aluminum	0.003181228
-3.730625	always	0.01690951
-4.684868	always-reliable	0.001359816
-4.684868	alx-200	0.0001459986
-3.871954	am	0.004257703
-4.684868	amateur	-9.187136e-05
-3.809807	amazing	0.01114507
-4.082808	amazingly	0.0155122
-4.286928	ambitious	-0.0001106237
-4.684868	american	-7.392345e-05
-4.508777	among	0.02329911
-4.383838	amongst	-0.0002823965
-3.871954	amount	0.003996884
-3.985898	ample	-0.0005596235
-4.383838	amplitude	-0.0004191857
-3.871954	amr	-0.001024598
-4.684868	amx	4.2756e-05
-2.446822	an	-0.007971732
-4.383838	an6	0.001837419
-4.684868	analysis	0.004822041
-4.082808	anatomy	0.03439992
-1.463845	and	0.04029566
-4.684868	andros	2.480333e-05
-3.985898	angle	0.05061037
-4.508777	angled	0.0055782
-3.906717	angles	-0.0008420777
-4.508777	angular	-0.0002073305
-4.508777	animal	0.001551898
-4.684868	announce	0.02335931
-4.684868	anodized	-0.0001412243
-4.383838	another	-0.0002486612
-4.684868	answer	0.007370751
-4.508777	answers	0.01877541
-4.684868	anti-theft	-0.0001412243
-2.92144	any	0.001732811
-4.286928	anyone	0.002323497
-3.44183	anything	0.0471686
-3.643475	anywhere	0.05461885
-4.383838	apart	0.03619872
-4.207747	apex	0.0003199787
-4.684868	aplomb	0.01740943
-4.508777	app	0.0005425563
-4.508777	appeal	0.01733436
-4.508777	appealing	0.001771215
-4.508777	appearance	0.0004269925
-4.508777	applause	0.001226216
-4.1408	apple	-0.0004447017
-4.508777	application	0.004980533
-4.383838	apply	0.02320917
-4.684868	applying	-0.0001098185
-4.508777	appreciate	5.29626e-05
-4.1408	approaching	0.02298405
-4.383838	approval	0.01486402
-4.508777	approved	0.001443781
-4.684868	approx	0.01740943
-4.684868	aprebic	0.001566953
-4.207747	aps	0.0001389247
-4.383838	ar1	0.02241953
-4.508777	ar3	0.01504133
-4.508777	ar4	0.01143586
-4.508777	ar5	0.01143586
-4.684868	ar5's	0.000150488
-4.684868	arcade	0.004876499
-4.207747	archer	0.007222098
-2.659562	are	0.03948981
-4.1408	area	0.03200636
-3.985898	areas	0.01464946
-4.508777	argyle	0.0009305901
-4.684868	aria	0.0001729355
-4.207747	ariel	0.005377783
-4.383838	ario	0.0006383045
-4.684868	aristocratic	-0.0001412243
-4.684868	arite	-6.612157e-06
-3.906717	arm	-0.0007915449
-4.508777	armadillo	-0.0001893843
-4.684868	armour	0.0004379038
-4.684868	army	0.004822041
-3.061619	around	0.0768484
-4.684868	around-but	-9.187136e-05
-4.684868	around-town	0.01044908
-4.508777	arresting	-3.232308e-05
-4.684868	arrived	0.01740943
-3.871954	art	0.02496896
-4.383838	arte	0.0007205749
-4.684868	article	0.004876499
-2.338515	as	0.0564311
-4.1408	ascend	-0.0004940571
-4.082808	ascents	0.0145879
-4.684868	ask	-0.0001367379
-4.1408	aspect	0.000442292
-4.286928	asphalt	0.0369036
-4.684868	aspiring	0.00066258
-4.684868	assault	-0.0001367379
-4.684868	assembling	0.004822041
-4.508777	assembly	0.02089945
-4.383838	assist	0.02154572
-4.031655	assure	0.02285497
-4.684868	assured	-9.635823e-05
-4.684868	astern	4.2756e-05
-4.684868	astral	-6.943638e-05
-4.207747	asx	-0.0005894488
-4.684868	asymetric	0.0002537562
-4.684868	asymetrical	0.0001594669
-3.781778	asymmetric	-0.0009239665
-4.207747	asymmetrical	-0.0003595288
-2.833609	at	0.07726113
-4.684868	at450	0.0001908944
-4.383838	athena	0.005007477
-4.508777	atherton	0.004762611
-4.286928	athletes	0.01718424
-4.508777	athletic	0.001209619
-4.684868	atlus	0.004876499
-4.508777	attack	-0.000211817
-4.684868	attainable	0.01740943
-4.684868	attempts	0.006349471
-4.684868	attention	0.006349471
-4.508777	attitude	0.03308586
-4.207747	attractive	-4.852057e-05
-4.684868	attributes	0.01665799
-4.508777	audacio	-0.0002016845
-4.684868	aura	-6.046205e-05
-4.383838	auriga	-9.15399e-05
-4.684868	aurigo	3.377959e-05
-4.286928	aurora	0.005032382
-4.508777	automatically	-0.0002073305
-3.245535	available	0.04020926
-4.082808	avalanche	0.006120313
-4.1408	avenida	-0.0002280591
-3.295702	avid	0.05528031
-4.383838	avoids	0.02320917
-4.508777	awaits	0.01733436
-4.383838	award	0.005496221
-4.508777	award?	-0.0001490025
-3.906717	away	0.03285439
-4.383838	awesome	0.001708181
-4.508777	axa	-0.000211817
-4.286928	axis	0.005496124
-4.1408	axle	0.02406297
-4.286928	axles	0.03289937
-4.684868	b-frame	0.01740943
-4.684868	b/b	0.01665799
-4.383838	b10	0.01136079
-4.383838	b12	0.01133176
-4.508777	b16	0.006445256
-4.508777	b17	-0.0001759241
-4.684868	b67s	0.002134835
-4.684868	babylon	0.0001459986
-3.295702	back	0.05199288
-3.985898	backcountry	0.01678002
-4.286928	backflip	0.0002621248
-4.684868	background	2.36342e-06
-3.944505	backlash	0.01598275
-4.684868	backpedal	6.851333e-06
-4.684868	backroads	0.01740943
-4.684868	backside	0.004822041
-3.755449	bad	-0.0008673873
-4.207747	bag	0.004521803
-3.362648	balance	0.01991358
-3.906717	balanced	0.02052681
-4.684868	balances	-6.494924e-05
-4.684868	balancing	0.01004472
-4.383838	balistec	0.001416808
-4.684868	ball	0.01740943
-4.383838	ballistic	0.001416808
-4.684868	balls	0.000586177
-4.207747	bang	0.005987777
-4.207747	bang;	0.02305908
-4.684868	banger	0.0001280417
-4.508777	banging'	0.010374
-4.286928	bank	0.01712313
-4.684868	banked	-7.841051e-05
-3.362648	bar	0.06268755
-4.082808	bar-ends	-0.0004972796
-4.508777	bar/stem	-3.68113e-05
-4.286928	barel	0.01718854
-4.508777	barely	0.009903712
-4.684868	bargain	7.866367e-05
-4.684868	bark	0.01665799
-4.684868	barrier	0.004876499
-3.352429	bars	0.06494088
-4.684868	barspin	0.01740943
-4.684868	basagoitia	0.01665799
-4.286928	base	0.02239176
-3.707144	based	0.01729874
-4.286928	bases	0.0249432
-4.082808	basic	0.0007423459
-4.684868	basically	0.01665799
-4.1408	basket	0.04497884
-4.508777	bass	0.005443979
-4.1408	bat	0.01505729
-4.684868	battered	0.01665799
-4.207747	battery	0.02148567
-4.383838	battle	-0.000183683
-4.684868	battle-tested	0.0002133439
-3.417696	bb	0.04598769
-3.809807	bb's	0.01406316
-3.663678	bb30	0.01548332
-4.508777	bb5	-0.0001175919
-2.707144	be	0.08419205
-4.684868	beach/bar/chick/dude/townie/lunch/kluncker/smoothie-run	-0.0001187918
-3.684868	bearing	1.440349e-05
-3.755449	bearings	0.06740218
-4.383838	beast	0.02395412
-4.684868	beasts	0.004822041
-3.83977	beat	0.05959896
-4.207747	beatbox	-0.0002844108
-4.684868	beating	-0.0001367379
-4.508777	beats	0.03230655
-3.554534	beautiful	0.02059342
-3.83977	beautifully	0.0007898301
-4.207747	beauty	0.03196014
-3.755449	because	0.01726571
-3.83977	become	0.02322395
-4.383838	becoming	0.02320917
-4.286928	beefed	0.0003250293
-4.684868	beefier	0.0002133439
-4.383838	beefy	0.0002980042
-3.286928	been	0.02403657
-4.684868	beer-can	-7.841051e-05
-4.684868	beers	0.01740943
-3.944505	before	0.05964611
-4.031655	beginner	0.005742256
-4.031655	beginners	0.04225904
-4.684868	beginning	0.004822041
-4.286928	behind	0.01949339
-3.554534	being	0.03377053
-4.684868	belief	0.001684074
-4.082808	believe	0.001442601
-4.684868	bell	0.01665799
-3.944505	bellissimo	-0.0004043286
-4.508777	beloved	-0.0002824484
-4.684868	below	-0.0001412243
-4.031655	belt	0.003667678
-4.286928	benchmark	0.007668817
-4.684868	bend	-4.700023e-05
-4.684868	benefit	0.001301295
-3.570925	benefits	0.008623085
-4.383838	bent	-0.0001298298
-4.684868	bermed	-7.841051e-05
-4.207747	berms	0.02410305
-2.952474	best	0.00874455
-4.383838	best-selling	-0.0002554769
-3.304657	better	0.07493735
-4.684868	better-than-ever	0.007370751
-3.394833	between	0.04370641
-4.684868	bevelled	-0.0001143052
-4.684868	beware	0.0001549773
-4.082808	beyond	0.04127084
-4.082808	bf	0.0003016497
-4.684868	bi-polar	-1.55876e-05
-4.684868	bianca	0.0001011075
-3.3138	bianchi	0.00321476
-4.508777	bianchi's	-0.0001612969
-3.809807	bicycle	0.02288884
-3.83977	bicycles	0.05256052
-4.508777	bicycling	-0.0002824484
-3.200568	big	0.03445802
-4.508777	big-hit	8.887728e-05
-4.286928	bigger	0.0005942051
-4.684868	biggest	-7.841051e-05
-1.617797	bike	0.06212248
-4.383838	bike'	0.01725929
-3.781778	bike's	-0.0005787452
-4.508777	bike)	0.00125464
-4.383838	bike-	0.02320917
-4.031655	bike;	0.02336078
-4.508777	bike?	-0.0002330944
-4.508777	bikepinnacle's	-0.000202844
-4.508777	biker	0.01728259
-2.618542	bikes	0.08613877
-4.684868	bikes-with	0.01004472
-3.944505	bikes;	-0.0003047205
-4.684868	bikes?	0.005989861
-4.684868	biket	0.006481556
-3.643475	biking	0.07863922
-4.286928	biologic	-0.0002956137
-3.755449	bit	0.01296844
-4.207747	bite	0.006176863
-4.684868	bits	0.001301295
-4.684868	bl01	0.004876499
-3.707144	black	0.01602861
-4.286928	blade	0.01840018
-4.1408	bladed	0.0006965239
-4.684868	blades	0.001684074
-4.1408	blank	0.01674722
-4.207747	blast	0.006311383
-4.207747	blasting	-2.279872e-05
-4.1408	blasts	0.00123673
-4.684868	blaze	0.004876499
-4.684868	blazing	0.0006131415
-3.570925	blend	0.003813839
-4.508777	blender	0.01762376
-4.286928	blending	0.02307794
-3.985898	blends	0.02370973
-4.684868	bless	0.002491267
-4.1408	bliss	0.02474654
-4.684868	blizzard	-2.12442e-06
-4.684868	block	-0.0001367379
-4.684868	blood	-0.0001367379
-4.684868	bloodline	0.01740943
-4.383838	blow	-0.0002465033
-4.207747	blue	0.03353716
-4.031655	blur	-0.000430754
-4.684868	blush	-0.0001322514
-3.32314	bmc	-0.0004888768
-2.728219	bmx	0.088797
-4.684868	bmx's	0.0003525574
-4.684868	board	0.01740943
-4.684868	boasting	-0.0001412243
-4.286928	boasts	0.007127699
-4.508777	bob	0.0149631
-3.83977	body	0.03334548
-4.684868	bold	-0.0001277649
-4.684868	bolt	2.480333e-05
-4.508777	bolted	-0.000202844
-4.684868	bomber?	-0.0001322514
-3.809807	bombing	-0.0008580376
-4.286928	bombproof	0.01481298
-4.508777	bonded	0.001491874
-3.508776	bontrager	-0.0001020005
-4.031655	boost	0.005068487
-4.286928	born	0.007803999
-4.684868	borrows	0.0002717184
-4.383838	bosanova	0.02160745
-4.684868	bosses/guides	0.007370751
-4.286928	boston	0.01216915
-3.332685	both	0.03232642
-4.286928	bottle	0.00467355
-4.684868	bottles	0.01665799
-3.467384	bottom	-0.00239419
-4.508777	bought	0.002648107
-4.684868	bounce	0.0002268143
-3.985898	box	0.05130812
-4.508777	boxes	0.01733436
-3.83977	boy	0.0006906042
-4.684868	boys	-0.0001412243
-4.684868	br-m486	0.000312136
-3.508776	bracket	0.08210549
-4.383838	bracket)	0.01725929
-4.684868	bragging	7.417513e-05
-3.707144	brain	0.001738398
-4.684868	brain-regulated	0.0006940439
-4.684868	brainer	0.01740943
-3.44183	brake	0.05379781
-4.684868	brakeless	0.01665799
-2.707144	brakes	0.07132179
-4.684868	brakes/	0.02335931
-3.684868	braking	0.06171773
-3.62417	brand	0.02989543
-4.684868	brand!	-0.0001143052
-4.684868	brand"	0.01740943
-4.684868	brand's	0.0008963664
-3.944505	brands	0.002449071
-4.684868	brave	1.582723e-05
-4.684868	bravest	0.0002582467
-4.684868	braze-	-0.0001412243
-4.207747	braze-ons	0.01199958
-4.508777	brazed	0.001583438
-4.383838	break	0.02592292
-4.684868	breakage	0.01740943
-4.684868	breakaways	0.01740943
-4.684868	breaking	0.01044908
-4.684868	breaks	0.02335931
-4.684868	breath	0.004822041
-4.684868	breathe	0.0004828298
-4.383838	breathes	0.006069565
-4.286928	bred	0.005732734
-4.508777	breed	0.004746961
-4.684868	brera	0.0006580852
-4.286928	brethren	0.01718424
-4.207747	brian	-0.0005558189
-4.684868	bridleway	0.01740943
-4.684868	brighten	0.0005502274
-4.286928	bring	0.03575286
-4.383838	bringing	0.02320917
-4.1408	brings	0.03380456
-4.684868	britannia	0.0006580852
-4.383838	british	-0.0003429067
-4.383838	briza	0.006395314
-3.871954	brompton	0.01543266
-4.684868	brompton's	2.929145e-05
-4.684868	bronson	0.004876499
-4.684868	bronze	0.000545734
-3.944505	brooks	0.006849145
-4.207747	brother	0.004746292
-4.286928	brothers	0.01643279
-4.684868	brought	0.006349471
-4.684868	brunch;	0.001107782
-4.508777	brushless	-0.000211817
-4.684868	brutal	6.070953e-05
-4.684868	brutally	2.36342e-06
-4.508777	bubbleword	5.29626e-05
-4.508777	buck	0.02243786
-4.508777	buck!	0.005914781
-4.207747	bucks	0.0171092
-4.684868	budding	0.003024205
-3.906717	budget	0.02471526
-4.684868	buffer	-0.0001143052
-3.587958	build	0.05903668
-4.684868	builds	0.001611996
-2.964709	built	0.06496028
-3.985898	built-in	0.001258057
-4.684868	bulk	0.0003345918
-4.684868	bulletproof	-1.55876e-05
-4.684868	bullit	-2.905042e-05
-3.781778	bump	6.060966e-05
-4.684868	bumper	0.01665799
-4.1408	bumpers	0.02059926
-3.985898	bumps	0.03260183
-4.383838	bumpy	-0.0001768414
-4.684868	burger	0.001684074
-4.684868	burl	6.968649e-05
-4.684868	burlier	0.01740943
-4.684868	burliness	0.004822041
-4.508777	burly	0.01590198
-4.684868	burn	0.0005502274
-4.286928	burner	0.006167645
-4.684868	burning	-0.0001412243
-4.508777	burst	0.00468092
-4.684868	bursting	0.007370751
-4.1408	bus	0.01809513
-4.684868	bush	1.582723e-05
-4.684868	business	0.01503818
-4.508777	busting	0.010374
-4.684868	busy	9.661865e-05
-2.76579	but	0.0693287
-4.508777	butcher	-0.0001074409
-3.587958	butler	-0.001392808
-2.885527	butted	0.03848179
-4.684868	buttered	0.0005502274
-4.508777	butterfly	1.2562e-05
-4.684868	buttery	0.0003974744
-3.83977	buy	0.01652262
-4.684868	buy)	0.0003345918
-4.684868	buyer	0.0002223242
-4.684868	buying	7.417513e-05
-4.286928	buzz	0.01481298
-2.93668	by	0.05305128
-4.684868	byways	0.01740943
-4.508777	c	0.004812542
-4.207747	c-4	0.001205109
-4.684868	c-7	0.001566953
-4.684868	c1	-0.000100845
-4.684868	c2c	-4.700023e-05
-4.684868	c3	-2.12442e-06
-4.684868	caad	4.724431e-05
-4.286928	caad8	-0.0001127098
-4.508777	caad9	0.01658707
-4.383838	caadx	-0.0002262188
-3.643475	cable	0.03211518
-4.286928	cable-pull	0.0003070556
-4.286928	cables	0.00732613
-4.684868	cables!	0.005989861
-4.684868	cackling	0.0004199347
-4.383838	cadenza	-0.0003608559
-4.508777	cadet	0.004744456
-4.684868	caffeine	0.006349471
-4.684868	cage	-4.700023e-05
-4.684868	cages	0.01740943
-4.508777	caldera	0.005544003
-4.684868	caldera's	0.0001280417
-4.684868	caliper	-0.0001277649
-3.781778	call	0.01373034
-4.684868	called	-0.0001412243
-4.286928	calliper	0.0004778359
-4.286928	callipers	-3.430372e-05
-4.508777	calorie-burning	0.006274391
-4.1408	camaleonte	0.000113903
-4.286928	camber	-0.0001824421
-3.467384	came	-0.0009962182
-4.684868	camouflage	0.007370751
-4.1408	campagnolo	0.006149745
-2.787241	can	0.017696
-4.082808	can't	0.0006855254
-3.83977	canal	-0.001049134
-3.046379	cannondale	0.01729775
-3.985898	cannondale's	-0.0006066465
-4.508777	cantilever	0.000627955
-4.383838	capabilities	0.03470005
-4.684868	capability	0.01740943
-3.417696	capable	0.03723853
-4.508777	capacity	0.0149631
-4.286928	capewrath	-0.0005290016
-4.508777	caps	0.0149631
-4.684868	capture	0.004876499
-4.207747	car	0.02406675
-4.684868	car-trapped	-8.289751e-05
-2.403834	carbon	0.09792235
-4.684868	carbon's	-0.0001412243
-4.383838	carbon-fibre	0.0006364484
-4.684868	carbon-wrapped	0.0001549773
-4.684868	carbone	0.0001639564
-3.781778	care	0.003772114
-4.508777	care-free	-9.964194e-05
-4.684868	careful	-0.0001412243
-3.944505	carefully	-0.000869049
-3.944505	carrier	0.05095998
-4.684868	carriers	0.002491267
-4.684868	carriers;	0.01503818
-3.730625	carry	0.02827632
-4.082808	carrying	0.01728502
-4.684868	cars	0.0004873229
-3.871954	cartridge	-0.000884447
-4.684868	carve	0.0001325308
-4.508777	case	0.001610473
-4.684868	cash	0.01665799
-4.684868	casino	0.004876499
-3.32314	cassette	0.06476333
-4.286928	cast	0.000650019
-4.508777	casting	0.01733436
-4.684868	casual	0.0003795072
-4.383838	catastrophic	-0.0002823965
-4.684868	catching	0.01665799
-4.684868	categorize	0.01740943
-3.809807	category	0.04757141
-4.684868	cause	0.001611996
-4.684868	caused	0.001301295
-4.082808	cd	0.00442622
-4.286928	cd0.1	-0.0003147376
-4.383838	cd01	-0.0001780187
-4.684868	celebrate	0.02335931
-4.383838	celebrated	0.0007462214
-4.684868	celebrates	-0.0001412243
-4.684868	cell	0.004876499
-4.508777	centaur	0.005544003
-4.684868	center-pull	0.000703034
-4.684868	centerline	0.01740943
-4.684868	centers	0.02335931
-4.684868	centimetre	-7.841051e-05
-4.684868	cento	-0.0001412243
-4.508777	centostrade	-1.766611e-05
-4.207747	centre	0.006167749
-4.684868	centred	0.01665799
-4.508777	centrelock	-3.232308e-05
-4.508777	centrepiece	0.004746961
-4.383838	centres	0.007220606
-4.684868	ceramic	-7.392345e-05
-4.684868	certainly	0.01004472
-4.383838	cervelo	-0.0004102124
-3.253504	chain	0.02866996
-4.383838	chainguard	0.03223148
-4.684868	chainguides	-0.0001187918
-4.207747	chainring	3.559445e-05
-3.508776	chainset	0.01578684
-4.684868	chainset/mega	-0.0001367379
-3.755449	chainstay	0.01471064
-4.1408	chainstays	0.05735583
-4.684868	chainstays)	0.007370751
-4.1408	challenge	0.01661729
-4.508777	challenges	0.002059756
-4.1408	challenging	0.02303749
-4.684868	chamber	0.004876499
-4.508777	chameleon	-0.0001657846
-4.684868	champions	-0.0001367379
-4.286928	championship	0.0004085063
-4.684868	championship-winning	-2.456286e-05
-4.684868	championships	0.01740943
-4.684868	chance	0.004822041
-4.082808	change	0.005079804
-4.684868	changed	-0.0001412243
-4.1408	changes	0.0510685
-4.082808	changing	-0.0004512223
-4.684868	character	0.01740943
-4.383838	characteristic	0.01725929
-4.207747	characteristics	0.01911314
-3.53874	charge	-0.001962521
-4.684868	charge's	-2.007527e-05
-4.508777	charger	-0.0001983575
-4.684868	charges	0.0007389965
-3.906717	charity	0.0008182043
-4.684868	chasm	0.004876499
-3.643475	chassis	0.04287731
-4.508777	chatter	0.02162078
-4.684868	check	0.007370751
-3.985898	checkout	-0.0007056007
-4.1408	chew	0.0001749621
-4.286928	chicqilo	0.01323309
-4.684868	child	-0.0001412243
-4.207747	child's	-2.4029e-05
-4.684868	chilling	0.0003256093
-3.026856	choice	0.05010496
-4.383838	choices	0.0002473294
-4.684868	chomping	0.0004873229
-3.295702	choose	0.05036584
-4.508777	chorus	0.00480142
-4.684868	chose	5.622108e-05
-4.207747	chosen	0.001115035
-4.508777	chris	-2.215529e-05
-4.383838	chrome	-0.000285725
-4.684868	chrome-effect	-0.0001143052
-4.383838	chromo	0.002866735
-3.508776	chromoly	0.004252547
-4.508777	chromoplastic	-1.436955e-05
-4.684868	chs-2	-0.0001412243
-4.684868	chugging	0.0005502274
-4.508777	cinder	-0.0002689888
-4.207747	cinema	0.01732814
-4.286928	circuit	0.02576797
-4.383838	circuits	0.0009576372
-4.508777	cities	0.01733436
-3.245535	city	0.06210876
-4.684868	ck-c4000st	0.0002313044
-4.684868	claiming	3.377959e-05
-4.207747	claims	0.006049233
-3.944505	clamp	0.03306524
-3.467384	class	0.08438811
-3.200568	classic	0.03829628
-4.684868	classical	0.002983533
-4.383838	classics	0.01650784
-4.286928	classy	0.01637115
-3.587958	claud	-0.001761567
-3.480748	clean	0.05902095
-4.684868	cleaner	0.0003345918
-4.286928	clear	-5.432882e-05
-3.429595	clearance	0.05512076
-4.684868	clearances	-2.905042e-05
-4.684868	clearcoated	-0.0001412243
-4.684868	clearly	0.002134835
-4.508777	cleaver	0.01143586
-4.684868	cleveland	0.004876499
-4.383838	cleveland's	-0.0001253417
-3.906717	clever	0.03522586
-4.684868	cleverly	-0.0001412243
-4.684868	cleverness	0.006481556
-3.186557	climb	0.06875403
-4.383838	climber	0.01650784
-3.643475	climbing	0.0607946
-3.3138	climbs	0.0502574
-4.684868	clincher	0.0004334116
-4.684868	clinton	0.001301295
-4.383838	clipless	-0.0001253417
-4.684868	clix	0.000150488
-4.286928	clock	0.01718424
-4.383838	clone	0.004671895
-3.755449	close	0.006968401
-4.508777	closest	0.006274391
-4.684868	closet	0.001107782
-4.508777	clothes	0.01740875
-4.383838	club	0.0005105363
-4.286928	clubman	0.006869952
-4.508777	clx	-8.169124e-05
-4.207747	cnc	-0.0001215999
-3.707144	co	-0.001725401
-4.207747	co-cured	-0.0004235165
-4.684868	coast-to-coast	0.01740943
-4.684868	coaster	6.851333e-06
-4.684868	coated	-0.0001187918
-3.871954	cobalt	0.0002192376
-4.684868	cobb	0.0009188526
-3.985898	cobbles	0.004221772
-4.684868	cobblestone	-2.905042e-05
-4.684868	cobia	2.36342e-06
-4.684868	cobra	0.004876499
-4.1408	coded	-0.0004839213
-4.1408	coil	0.0006331226
-3.871954	coil-sprung	-0.0003725138
-4.684868	coilair	-0.000100845
-3.755449	col	-0.001149388
-4.383838	col-destroying	-1.312501e-05
-4.508777	collaborate	-0.000202844
-4.684868	collaboration	0.007370751
-4.684868	collar	0.006481556
-4.082808	collecting	-0.0006352159
-3.944505	colnago	0.01852185
-4.286928	colnago's	-0.0002417371
-4.684868	color	-0.0001277649
-3.809807	colour	0.02301374
-4.684868	colour!	0.005989861
-4.508777	colour-matched	0.00286045
-4.383838	colourful	0.001972716
-4.286928	colours	0.05104038
-4.684868	combat	0.01740943
-3.707144	combination	0.007260652
-4.383838	combine	0.01968123
-3.332685	combined	0.00460929
-3.32314	combines	0.03538378
-3.781778	combining	0.0337716
-4.1408	combo	0.05089031
-4.684868	combo!	0.005989861
-4.508777	combs	0.0006639174
-3.643475	come	0.03568438
-3.036508	comes	0.03593179
-2.680547	comfort	0.07812268
-2.830562	comfortable	0.07883486
-4.286928	comfortably	0.01803036
-4.1408	comfy	0.001065396
-3.643475	coming	0.01204047
-4.508777	command	-0.0001029526
-4.508777	commands	-0.000211817
-3.871954	commencal	-0.001141294
-4.286928	commencal's	-0.000352963
-4.508777	commitment	0.02402919
-4.684868	committed	0.006349471
-4.508777	communal	0.010374
-4.508777	community	0.01733436
-3.454419	commute	0.0685476
-3.230023	commuter	0.100276
-4.684868	commuter;	0.01004472
-3.809807	commuters	0.05303674
-4.383838	commutes	0.03598888
-3.467384	commuting	0.05073368
-3.373114	comp	0.005789695
-3.056479	compact	0.02276644
-4.286928	companies	0.01896288
-4.082808	companion	0.02286772
-4.383838	company	0.01956374
-4.684868	comparably-priced	0.0008963664
-4.508777	compare	-0.000211817
-3.730625	compatible	0.02404104
-4.684868	compete	0.006349471
-3.605687	competition	0.03570474
-4.286928	competition-ready	0.01855954
-3.707144	competitive	0.02068853
-4.684868	competitively	-2.12442e-06
-4.383838	complement	0.0234562
-4.383838	complemented	0.0002024123
-4.286928	complements	0.02313411
-2.990263	complete	0.04088254
-4.508777	completed	0.007295672
-3.871954	completely	0.001195614
-4.508777	complex	-0.0001175919
-3.707144	compliance	0.07078063
-4.684868	compliancy	0.01503818
-3.605687	compliant	0.04081675
-4.1408	compliment	0.009669458
-4.684868	complimented	0.007370751
-4.684868	complimenting	0.002139345
-3.663678	component	0.005701019
-3.53874	componentry	0.05045418
-2.752902	components	0.07377656
-4.684868	compresses	-0.0001367379
-4.508777	compression	0.01666171
-3.684868	compromise	0.03449181
-4.383838	compromising	0.0004565849
-4.684868	computer	-0.0001412243
-4.207747	conceived	0.01518348
-4.684868	concentrate	0.001611996
-3.570925	concept	0.0102373
-4.684868	concepts	0.01503818
-4.684868	concession	0.006349471
-4.082808	concrete	0.01689338
-4.286928	condition	0.01713248
-3.153389	conditions	0.05678069
-4.684868	cone	0.004876499
-4.286928	cones	0.005634946
-3.406114	confidence	0.05803844
-4.1408	confidence-inspiring	0.001044511
-3.406114	confident	0.03222091
-4.684868	confidently	0.01740943
-4.207747	configuration	0.001546056
-4.684868	configured	0.005653279
-4.684868	confirmed	0.0001235525
-4.383838	conquer	0.0001240331
-4.684868	conscious	5.173268e-05
-4.684868	consequently	0.01665799
-4.508777	consider	-0.0001759241
-4.684868	considerable	-4.251286e-05
-4.508777	consist	0.004746961
-4.508777	consistency	0.0149631
-4.508777	consistent	0.01658291
-4.508777	consistently	-0.000211817
-4.383838	consisting	0.004671895
-4.508777	consists	0.004746961
-4.508777	conspiracy	0.0005425563
-4.508777	constant	-0.0002286074
-3.809807	constructed	0.03663313
-3.44183	construction	0.05521984
-4.684868	consulate	0.004876499
-4.508777	consumer	0.0001831676
-4.383838	contact	0.007223094
-4.684868	contemporary	2.36342e-06
-4.207747	contender	0.033331
-3.5235	contessa	0.01512928
-4.684868	conti	-0.0001412243
-4.031655	continental	0.02021419
-4.684868	continue	0.006349471
-4.684868	continued	0.007370751
-4.508777	continues	0.006274391
-4.286928	continuous	-0.0004235945
-4.508777	contrast	7.540896e-05
-4.383838	contributed	0.006199325
-3.215046	control	0.06552032
-4.684868	controllable	0.01503818
-3.871954	controlled	0.01770147
-4.684868	controltaper	-1.109995e-05
-3.730625	convenience	0.00941797
-4.383838	convenient	0.0009005168
-4.286928	conventional	0.00076112
-4.684868	convert	0.02335931
-3.871954	cool	0.04410494
-4.082808	cooper	-0.0006968867
-4.684868	coordinated	0.0009413401
-4.031655	cope	0.006845471
-4.684868	copper	-0.0001412243
-4.508777	coral	5.865708e-05
-3.755449	core	0.02826021
-4.684868	cork	0.0001280417
-4.684868	corner	0.01503818
-3.781778	cornering	0.0313317
-4.082808	corners	0.05383395
-4.684868	cosmetics	0.01665799
-4.684868	cosmic	2.36342e-06
-4.207747	cost	0.01752953
-4.684868	cost-effective	0.01665799
-4.508777	costing	-0.0002645021
-4.684868	costly	0.0001594669
-4.684868	costs	6.070953e-05
-3.684868	could	0.004760898
-4.508777	count	0.001536917
-3.394833	country	0.02395189
-4.684868	countryside	0.001107782
-4.684868	county	-0.0001412243
-3.871954	couple	0.008848917
-4.286928	coupled	0.007145553
-4.684868	couples	0.02335931
-3.985898	course	0.0421981
-4.383838	courses	0.03347861
-4.684868	cover	0.0004289194
-4.508777	coverage	-1.436955e-05
-4.508777	covered	0.01733436
-4.286928	covers	0.001080598
-4.684868	coveted	-0.0001412243
-4.684868	cp	0.0001908944
-3.494536	cr-mo	0.003191345
-4.508777	cr-moly	0.0001472451
-3.605687	cr1	0.0004246312
-4.684868	cr720	-0.0001367379
-3.944505	crafted	0.02961048
-4.082808	craftsmanship	0.0180394
-3.871954	crank	0.0304759
-3.269894	cranks	0.0949287
-3.755449	crankset	0.07520372
-4.286928	crankworx	-0.0003484765
-4.684868	cranmer	0.0001280417
-4.684868	craving	0.0001998741
-4.684868	crazy	0.0007345011
-4.383838	cream	0.004671895
-3.295702	create	0.03417989
-3.587958	created	0.01739393
-3.871954	creates	0.01073649
-4.082808	creating	0.03521087
-4.508777	creation	0.004746961
-4.383838	crisp	0.01702963
-4.508777	crisp-shifting	2.602846e-05
-4.684868	criterium	-4.700023e-05
-4.1408	critical	-0.0004614833
-4.383838	crmo	0.0001542442
-4.207747	cro	-0.0004941479
-4.286928	cro-mo	0.01978478
-4.508777	croix	-9.964194e-05
-3.62417	cromo	0.0125369
-3.508776	cromoly	0.02039607
-4.508777	crono	-3.562256e-05
-4.383838	crop	0.000395589
-3.253504	cross	0.02501421
-4.684868	cross-racer	0.01665799
-4.207747	crossing	0.02305908
-4.684868	crossing-boundaries	-0.0001098185
-4.082808	crosstrail	0.005507493
-4.684868	crossway	-0.0001412243
-4.684868	crosswind	-0.0001277649
-3.944505	crowd	0.03974412
-4.684868	crowded	-0.0001187918
-3.871954	crown	0.01382717
-4.684868	crown/steerer	-0.0001367379
-4.207747	cruise	-2.606009e-05
-4.1408	cruiser	0.0175662
-4.207747	cruises	0.0008075442
-4.383838	cruising	0.02353204
-4.684868	crux	2.36342e-06
-3.467384	cruz	0.03952926
-4.684868	cruz's	-2.456286e-05
-4.508777	cry	0.000511098
-4.684868	crysis	0.004876499
-4.508777	cumbersome	0.01658291
-3.809807	cup	0.004272828
-4.508777	cups	0.01658291
-4.383838	curbside	0.004862125
-4.684868	curiously	-0.0001412243
-4.684868	current	0.007370751
-4.684868	currently	0.001611996
-4.508777	curvaceous	0.001491874
-4.508777	curve	-0.0002555287
-4.082808	curved	0.03428636
-4.286928	curves	0.01836738
-3.093803	custom	0.0145737
-4.207747	custom-butted	0.0005133415
-4.684868	custom-drawn	6.519801e-05
-4.508777	custom-shaped	0.01513429
-4.383838	custom-tuned	0.0007354052
-4.684868	customer	-7.841051e-05
-4.684868	customers	-0.0001187918
-4.684868	customization	0.01740943
-4.508777	cut	-0.0001893843
-4.684868	cut-corners	0.01665799
-4.684868	cut-out	0.0008019378
-4.383838	cutting	-0.0002330426
-4.031655	cutting-edge	0.00154655
-4.286928	cva	0.0003924372
-3.871954	cx	0.0161554
-4.684868	cx-1	0.02335931
-3.684868	cycle	0.01870329
-3.906717	cycles	0.03410755
-4.383838	cycles!	-0.0002812378
-3.871954	cycling	0.05026669
-4.684868	cycling's	-0.0001277649
-3.781778	cyclist	0.03485586
-3.269894	cyclists	0.01406236
-3.871954	cyclo	-0.0007330262
-4.508777	cyclo-tourists	0.01733436
-3.755449	cyclocross	0.02856108
-4.684868	cyclocross-inspired	-0.0001412243
-4.508777	d	0.0001158153
-4.508777	d-6	0.001491874
-4.207747	d-shaped	-0.0003158257
-4.508777	d24	0.01143586
-4.508777	d3	0.00480142
-4.508777	d6	-8.051038e-05
-4.383838	d7	0.005468937
-4.684868	d7hg	0.004876499
-4.684868	da	0.001071789
-3.44183	dahon	0.008969053
-4.383838	dahon's	0.0006351282
-3.663678	daily	0.01559541
-4.508777	dakar	0.0001158153
-4.684868	dalesman	0.004876499
-4.207747	dama	-0.0002449313
-3.83977	dampen	0.001436412
-3.467384	damping	0.05957831
-4.508777	dare	0.01689502
-4.508777	dark	-0.0002779619
-4.684868	darkstar	0.0006580852
-4.1408	dart	0.01695829
-4.383838	darty	0.01650784
-4.684868	dash	0.004822041
-4.508777	date	0.02052276
-3.406114	dawes	0.01287354
-3.207747	day	0.03995345
-4.684868	day-in	0.01665799
-4.1408	day-long	-0.0002696689
-4.684868	day-out	0.01665799
-4.508777	day-to-day	0.0002595128
-4.508777	day?	-0.000211817
-4.207747	days	0.01941365
-4.684868	db	9.661865e-05
-3.53874	de	-0.002320088
-4.508777	deal	0.007295672
-4.684868	dealer	0.002134835
-4.684868	debris	0.01665799
-4.684868	debut	0.004876499
-4.207747	decade	0.03604863
-4.684868	decades	0.01740943
-3.985898	decals	0.02212128
-4.684868	deceleration	0.01503818
-4.684868	decent	0.01665799
-4.508777	decide	-5.027575e-05
-4.508777	decided	0.006274391
-4.508777	deco	0.001608995
-4.684868	decrease	0.0005592146
-3.83977	dedicated	0.01237189
-4.684868	dedication	0.01740943
-3.809807	deep	0.01769662
-4.684868	deep-section	-0.0001412243
-4.684868	deeper	0.0002806998
-4.508777	defender	0.002908454
-4.383838	define	-2.659258e-05
-4.684868	defines	0.02335931
-4.031655	definition	0.004280639
-4.684868	deformed	-0.0001412243
-4.508777	defy	-0.0001893843
-4.031655	degree	0.004461806
-4.684868	deliberate	0.01503818
-4.684868	delightfully	0.0003974744
-3.467384	deliver	0.03999052
-4.207747	delivering	-0.0004122193
-3.62417	delivers	0.03673893
-3.944505	deluxe	0.01400115
-4.684868	deluxe's	-0.0001412243
-3.871954	demand	0.03552372
-4.684868	demanded	0.01004472
-4.383838	demanding	0.02331947
-4.286928	demands	0.02242067
-4.508777	demolishes	0.02328423
-4.508777	demon	0.004746961
-4.684868	denotes	-0.0001412243
-4.684868	dent	-0.0001367379
-3.663678	deore	0.005836694
-4.684868	deore/slx	6.070953e-05
-4.508777	deore/xt	0.0006787182
-4.684868	departure	0.005653279
-3.587958	dependable	0.01704645
-4.383838	depending	0.001461851
-4.684868	depth	-0.0001232784
-4.508777	depths	0.02003824
-3.383838	derailleur	0.07254514
-4.508777	derailleurs	0.0149631
-4.684868	derive	-0.0001053318
-4.684868	derived	0.001301295
-4.508777	derives	-0.0001804109
-4.286928	descend	0.03520976
-3.871954	descending	0.01741145
-4.1408	descends	0.01734663
-4.684868	descent	0.01740943
-3.53874	descents	0.0503149
-4.684868	describe	0.02335931
-3.944505	described	0.00117105
-3.944505	describes	0.009369479
-4.684868	deserted	0.003024205
-3.031655	design	0.08501729
-4.383838	designation	0.01725929
-2.609321	designed	0.02668994
-4.508777	designing	0.01494374
-4.684868	designs	0.01740943
-4.508777	destroy	0.001536917
-4.684868	detachable	0.0002537562
-3.871954	detail	0.0363819
-4.207747	details	0.001869295
-4.383838	detangler	0.03223148
-4.684868	determination	0.01665799
-3.587958	developed	0.04245884
-4.684868	developing	9.212985e-05
-4.207747	development	0.0004445664
-4.684868	devour	-4.251286e-05
-3.809807	dew	0.02184456
-4.684868	df23	0.0001908944
-3.985898	dh	0.02150291
-4.684868	dh1	0.004876499
-4.383838	di2	-0.000169042
-3.944505	dial	0.001459591
-3.985898	dialled	0.03694592
-4.508777	dials	0.002059756
-4.684868	diamand	-9.187136e-05
-4.286928	diameter	-0.0001621031
-4.508777	diameters	0.02254188
-4.082808	diamond	0.002679612
-4.508777	diamondback	-0.0002824484
-4.684868	didn't	-0.0001277649
-4.684868	diehard	-8.738447e-05
-4.684868	difference	2.480333e-05
-3.643475	different	0.00428299
-4.684868	digger	-7.841051e-05
-4.1408	diligently	-0.0004491888
-4.684868	dimensionally	-9.635823e-05
-4.383838	dimensions	0.01688063
-4.508777	diploma	0.004817081
-3.906717	direct	-0.000558097
-4.684868	direct-acting	-0.0001232784
-4.684868	direct-mount	-3.802544e-05
-3.985898	directly	0.008104431
-3.1408	dirt	0.05378996
-4.383838	dirt-jumping	0.0002293621
-4.684868	dirty	5.622108e-05
-4.684868	disapoint	0.01740943
-4.383838	disappoint	0.001461851
-2.804054	disc	-0.002538655
-4.684868	discern	-9.635823e-05
-4.684868	discerning	0.01665799
-4.684868	discovering	0.02335931
-4.207747	discovery	-0.0006175024
-4.508777	discs	0.01658291
-4.684868	dish	0.01665799
-4.684868	displays	-0.0001412243
-4.508777	dissimilar	0.002059756
-3.906717	distance	0.03437642
-4.508777	distances	0.01658291
-4.508777	distinct	-7.271566e-05
-4.1408	distinctive	0.001047375
-4.207747	district	0.008102216
-4.684868	diverse	0.0003525574
-4.684868	diversity-laden	-0.0001367379
-4.684868	dj2	0.0007749615
-4.684868	dld	2.480333e-05
-4.508777	dlr	-5.027575e-05
-4.684868	dls	-9.635823e-05
-4.1408	dlt	-0.0004166037
-4.684868	dm18	0.0001908944
-4.383838	dmr	-0.0002823965
-4.508777	dna	0.02003824
-3.286928	do	0.07609877
-4.508777	do-anything	0.0001125403
-3.755449	do-it-all	0.01276074
-4.684868	doctor	0.001548937
-4.684868	doddle	0.0001953843
-3.906717	does	0.03729253
-3.871954	doesn't	-7.191184e-05
-4.508777	dog	0.009756762
-4.684868	dogleg	0.0007884496
-4.031655	dogma	0.03773651
-4.684868	dogs	0.01740943
-3.906717	doing	0.003969489
-4.286928	dolce	-0.0001306717
-4.383838	dolomite	0.0002588207
-4.508777	domain	0.0006337564
-4.508777	dominance	0.01733436
-4.684868	dominant	-0.0001232784
-4.207747	dominate	0.02539645
-4.508777	dominates	-6.822775e-05
-4.508777	dominating	0.03440564
-4.286928	domination	0.034625
-3.906717	don't	0.0003627181
-4.508777	donate	0.0005573323
-4.1408	done	0.02357322
-4.684868	door	0.01740943
-4.684868	dope	0.0001235525
-3.23771	double	0.005698286
-3.44183	double-butted	0.01052235
-4.684868	double-chainring	2.929145e-05
-4.684868	double-tap	0.000303154
-4.207747	double-walled	0.006270356
-4.684868	doubletap	-6.046205e-05
-4.508777	doubt	0.02344597
-2.960592	down	0.1000833
-3.494536	downhill	0.03214484
-4.684868	downhill's	0.007370751
-4.508777	downtown	0.01652178
-4.207747	downtube	0.04335223
-4.286928	doyle	0.0006513551
-4.082808	dr	0.01707023
-4.508777	drag	0.02509332
-4.508777	draining	0.0003852874
-4.508777	drastically	-0.0001086171
-4.684868	draw	-0.0001232784
-3.781778	drawn	0.0143805
-4.1408	drcv	0.0004131843
-4.082808	dream	0.01863927
-4.684868	dress	0.002491267
-4.286928	dressed	0.007783105
-4.684868	drifts	0.002134835
-3.83977	drive	0.01849435
-4.508777	drive-train	0.007295672
-4.383838	driven	0.010739
-4.383838	driver	-0.0001286443
-4.684868	drivers	0.01503818
-4.684868	drivertrain	0.01665799
-3.3138	drivetrain	0.0600164
-3.32314	drop	0.004340228
-4.684868	drop-bar	0.01044908
-4.286928	dropout	0.0171691
-3.587958	dropouts	0.06529456
-4.684868	dropped	0.01665799
-3.781778	drops	0.08565
-4.508777	drum	-6.822775e-05
-3.906717	dry	-0.0008723249
-4.286928	ds28	-3.430372e-05
-3.985898	dt	-0.0007056007
-4.684868	dt-swiss	0.002491267
-3.985898	dual	-0.0001842994
-4.383838	dual-piston	0.0001619909
-4.684868	dualen	0.004876499
-4.508777	due	0.006274391
-4.684868	duel	2.480333e-05
-4.383838	dulce	0.01131793
-4.684868	dull	0.02335931
-4.684868	dumbed-down	-0.0001412243
-4.383838	dune	0.004730442
-3.755449	duo	0.01600065
-3.944505	dura	-0.0007536546
-4.207747	dura-ace	-0.0003538685
-3.269894	durability	0.06117306
-3.193506	durable	0.0763187
-4.383838	durango	0.0003981451
-4.383838	durango's	0.0005438988
-4.684868	durham	0.004876499
-3.944505	during	0.02375519
-4.508777	duro	0.0005830062
-4.508777	dust	0.01733436
-4.508777	dust)	-0.0002073305
-4.684868	duster	1.582723e-05
-4.684868	dutchess	0.004876499
-3.781778	duties	0.03538492
-4.031655	duty	0.02783192
-4.508777	dyad	-9.397588e-05
-4.684868	dynamic	0.0009863181
-4.508777	dynamics	0.004746961
-4.207747	dynamism	0.003886265
-4.207747	dynamo	-0.0002113997
-4.286928	e	0.01718424
-4.383838	e+	0.0005079402
-4.684868	e100	-4.251286e-05
-4.684868	e160ta	-4.251286e-05
-4.207747	e5	0.0006932909
-3.684868	each	0.01740689
-4.684868	earn	0.0002717184
-4.207747	earth	0.01699632
-3.245535	ease	0.06418176
-4.383838	easier	0.006151532
-4.684868	easiest	6.851333e-06
-3.554534	easily	-7.18981e-06
-4.684868	easily;	0.002491267
-3.707144	eastern	-6.253936e-05
-3.755449	easton	0.01662389
-4.383838	easton's	0.0001350456
-3.172984	easy	0.04004112
-4.508777	easy-maintenance	0.001284737
-4.684868	easy-to-use	0.01665799
-4.286928	eat	0.002838605
-3.871954	eating	0.0008528616
-4.1408	eats	-0.000368414
-4.684868	ec	0.004876499
-4.684868	ec"	0.001548937
-4.1408	eccentric	-0.0003773897
-4.684868	echelon	0.004876499
-4.508777	eclat	0.01653111
-3.906717	economical	0.031803
-4.684868	economically	-2.12442e-06
-3.906717	eddie	-0.0003599564
-3.985898	eddy	-0.0006831664
-3.809807	edge	0.006205095
-4.383838	edginess	0.001533929
-4.684868	edgy	0.001139278
-4.286928	edict	-2.7381e-05
-4.082808	edition	0.01729905
-4.684868	editor's	0.0002582467
-4.684868	ef50	-0.0001277649
-4.684868	effect	-0.0001187918
-4.684868	effective	-6.943638e-05
-3.159823	efficiency	0.07380745
-3.056479	efficient	0.08433367
-4.383838	efficiently	0.01726826
-4.286928	effort	0.02080612
-4.207747	effortless	0.03208139
-4.508777	effortlessly	0.03477512
-4.684868	efx	4.2756e-05
-4.207747	eh	-0.0004145433
-4.508777	eight	-0.0002779619
-3.906717	either	0.01716758
-4.286928	el	0.00495514
-4.508777	el"	0.001772722
-4.684868	elaborate	0.0001325308
-4.082808	elastomer	0.006998514
-3.871954	electric	0.01078909
-4.286928	electrically	-0.0003439899
-4.508777	electronic	-4.578763e-05
-4.684868	electronics	0.0002806998
-4.031655	elegance	0.02044925
-3.985898	elegant	0.03435104
-4.684868	elegantly	2.929145e-05
-4.207747	element	0.009531602
-4.286928	elements	0.03994296
-4.684868	elevating	0.01503818
-3.871954	eliminate	0.02280631
-4.684868	eliminated	0.0001549773
-4.508777	eliminates	-2.783477e-05
-3.454419	elite	0.04185744
-3.684868	elixir	1.298019e-05
-4.684868	elliptical	-0.0001412243
-4.684868	elmer	0.01665799
-3.944505	else	0.003558519
-4.684868	emblazoned	0.001611996
-4.1408	emerging	0.0008779201
-4.684868	emphasis	-0.0001232784
-3.781778	emphasize	-0.000292948
-4.383838	emphasizes	4.972902e-05
-4.684868	employing	-0.0001412243
-4.508777	employment	0.004746961
-4.508777	emptying	0.0003852874
-4.383838	emx	0.0001767035
-4.684868	enable	0.02335931
-3.944505	enables	-0.0007716024
-4.684868	encounter	0.002134835
-4.508777	encountered	0.001536917
-4.684868	encourages	0.01004472
-3.44183	end	0.01470367
-4.383838	ends	0.03301079
-4.031655	endurance	0.01283575
-4.684868	endurance-focused	0.0009863181
-3.985898	enduro	0.001082256
-4.684868	energetic	0.006349471
-4.207747	energy	0.004970659
-4.207747	engine	0.0005016997
-3.730625	engineered	0.05560545
-4.1408	engineering	0.03202796
-4.383838	engineers	0.006199325
-4.684868	enhance	0.001386828
-4.1408	enhanced	0.01746356
-4.684868	enhances	0.02335931
-4.383838	enhancing	0.02569896
-3.985898	enjoy	0.02548211
-3.755449	enjoyable	0.02097747
-4.031655	enjoying	0.02279207
-4.286928	enjoyment	0.01481298
-4.286928	enjoys	0.02313411
-3.23771	enough	0.008559486
-3.105084	ensure	0.0384904
-3.755449	ensures	0.0002826571
-3.871954	ensuring	0.009406321
-4.383838	enter	0.02320917
-4.684868	entering	0.0002717184
-4.286928	enters	0.02313411
-3.944505	enthusiast	0.0001460046
-4.1408	entirely	0.007752602
-4.684868	entities	-9.635823e-05
-3.554534	entry	0.009152694
-3.663678	entry-level	0.01883108
-4.207747	enviable	-0.0003068502
-4.383838	envy	0.007024713
-4.383838	eon	0.02245316
-3.605687	epic	0.01835693
-4.508777	epics	0.01733436
-4.684868	eps	-0.0001412243
-4.684868	equal	-0.0001412243
-4.508777	equalizer	7.091949e-05
-3.730625	equally	0.01718145
-4.286928	equation	0.01718424
-4.508777	equilibrium	-9.397588e-05
-4.508777	equilink	0.0004764269
-4.383838	equilizer2	-0.0002734235
-4.031655	equipment	0.01802009
-3.62417	equipped	0.07856935
-4.684868	era	0.0001459986
-3.906717	ergo	-0.0006221647
-4.684868	ergon	0.0001280417
-3.707144	ergonomic	0.009097579
-4.383838	ergonomically	0.0008780197
-4.383838	ergonomics	0.0003371778
-4.684868	eric	-0.0001367379
-4.684868	erik	-0.0001367379
-4.082808	errand	-0.0005645846
-4.508777	errands	0.0149631
-4.508777	escape	0.004748995
-4.508777	especially	0.0055782
-4.286928	espresso	0.0189065
-4.508777	essence	0.004746961
-4.383838	essential	0.006199325
-4.684868	essentially	-4.700023e-05
-4.383838	essentials	0.01719818
-4.684868	essex	0.004876499
-4.684868	established	-0.0001367379
-4.684868	et	-0.0001412243
-4.684868	ethic	0.004876499
-4.1408	europe	0.01703417
-4.684868	ev142295)	0.01740943
-4.684868	ev142296)	0.0001549773
-3.781778	evans	-0.0003262936
-3.304657	even	0.04304357
-4.207747	event	0.01730043
-4.383838	events	0.01725929
-3.429595	ever	0.07025942
-3.352429	every	-0.0004244125
-4.684868	every-day	2.36342e-06
-4.1408	everyday	0.0008235823
-3.730625	everyone	0.01861767
-3.684868	everything	0.04868189
-4.286928	everywhere	0.01985992
-4.383838	evo	0.004726354
-4.684868	evolution	0.004822041
-4.508777	evolution)	0.01658291
-4.684868	evolutionary	-8.289751e-05
-4.508777	evolved	0.0002056207
-3.707144	ex	0.00418893
-4.508777	exact	3.500629e-05
-4.684868	exacting	-0.0001412243
-4.031655	exactly	0.001358583
-4.082808	example	0.02808441
-4.684868	excel	0.0004873229
-3.554534	excellent	0.02492943
-4.508777	excels	0.002291423
-4.684868	except	0.01004472
-4.383838	exceptional	5.665515e-05
-4.684868	exceptionally	-4.251286e-05
-4.684868	exciting	0.01503818
-3.755449	exclusive	0.02353077
-4.508777	exclusively	0.009013593
-4.684868	excuse	0.006349471
-4.286928	exercise	0.03293574
-4.508777	exhilaration	0.0001203052
-4.508777	exo	-0.0001253936
-4.383838	exotic	-0.0001959716
-4.508777	expand	0.0006639174
-4.207747	expect	0.03604863
-4.508777	expectations	0.001608995
-3.944505	expected	0.01840492
-4.383838	expedition	-7.477502e-05
-4.684868	expensive	0.0007749615
-3.605687	experience	0.08763525
-4.508777	experienced	-2.664441e-05
-3.707144	expert	0.0119443
-4.684868	expertise	0.0004873229
-4.684868	explodes	0.002139345
-4.684868	exploit	0.0007704657
-4.684868	exploiting	0.02335931
-4.684868	exploration	0.01503818
-4.207747	explorations	0.01635775
-4.508777	explorer	-0.0001983575
-4.508777	exploring	0.04097163
-4.508777	extend	0.0006639174
-4.286928	extended	-0.0004101346
-4.508777	extending	0.0006639174
-4.684868	extension	0.01503818
-4.684868	extensive	-0.0001412243
-4.207747	external	-0.0004738984
-3.83977	extra	0.001021463
-4.684868	extra-long	0.0001055964
-4.684868	extraordinarily	0.0003390832
-4.207747	extraordinary	-0.000151824
-4.684868	extras	0.005653279
-4.508777	extravaganza	0.0005830062
-3.871954	extreme	0.02128792
-3.755449	extremely	0.00185258
-4.684868	eye	-0.0001412243
-4.684868	eyeleted	-2.456286e-05
-3.362648	eyelets	0.01904824
-4.684868	eyeletted	0.0001908944
-4.684868	ez-fire	0.0001594669
-4.684868	f	0.01740943
-4.508777	f-lite	2.722818e-05
-4.684868	f.i.s.t	0.000303154
-4.286928	f1	0.00490971
-4.684868	f100	-0.0001322514
-4.684868	f120rl	0.001071789
-4.684868	f150	0.001071789
-4.286928	f2	0.004532822
-4.383838	f3	0.005468937
-4.684868	f3's	-0.0001412243
-4.508777	f4	0.004794385
-4.508777	f5	0.01143586
-4.383838	f75	0.01136079
-4.383838	f85	0.02176324
-4.508777	f95	0.005171304
-4.508777	fabien	-0.000202844
-4.684868	fabled	-0.0001277649
-3.944505	face	0.05722512
-4.508777	faced	0.007295672
-4.684868	facilitate	0.0004918158
-3.342445	fact	0.00471899
-4.684868	facto	-3.802544e-05
-3.781778	factor	0.02407771
-4.207747	factors	-0.0002485054
-4.383838	factory	-0.0001253417
-4.207747	fade	-0.0004604331
-4.684868	fades	0.01740943
-4.031655	faf	-0.0001882069
-4.383838	failure	0.01488803
-4.508777	fairly	-1.436955e-05
-3.83977	familiar	0.03460795
-4.684868	familiar?	0.02335931
-4.684868	fancy	0.01740943
-4.684868	fans	0.004822041
-3.684868	far	0.03568464
-4.684868	farther	0.0003345918
-4.684868	fashion	0.01665799
-2.755449	fast	0.1008489
-4.1408	fast-rolling	0.01630922
-4.684868	fast-shifting	0.01503818
-4.684868	fast;	0.002491267
-3.605687	faster	0.05724258
-3.781778	fastest	0.04547694
-4.383838	fat	0.0002306107
-3.605687	fatigue	0.04957705
-4.286928	fatigue-free	-0.0003484765
-4.508777	favourite	2.273856e-05
-4.684868	favourites	0.01740943
-4.684868	fc	-0.0001412243
-4.684868	fc-330	0.001566953
-4.286928	fc-440	0.001455849
-4.1408	fc-770	0.002538238
-4.684868	fcc	-6.494924e-05
-4.684868	fearless	0.0001325308
-4.508777	feathery	0.000659422
-3.83977	feature	0.0005870649
-4.684868	featured	0.001611996
-2.408406	features	0.1227842
-2.804054	featuring	0.03221049
-4.684868	fed	-0.0001412243
-4.508777	feedback	0.006274391
-3.245535	feel	0.08958334
-4.684868	feeling	0.004822041
-3.906717	feels	6.654474e-05
-4.508777	feet	0.01733436
-4.684868	fell	-0.0001143052
-3.230023	felt	-0.005323119
-3.755449	felt's	0.0007636887
-4.684868	felt-sponsored	0.002279177
-3.215046	female	0.005251108
-4.684868	female-friendly	0.0006176353
-4.082808	female-specific	0.0006768802
-4.286928	female-tuned	0.00076112
-4.684868	feminine	-0.0001232784
-3.944505	fender	0.01473657
-4.684868	fender-ready	-0.0001412243
-4.207747	fenders	0.02150495
-4.508777	fer	0.0224946
-3.554534	few	0.007396901
-4.684868	fewer	-0.0001187918
-3.454419	fiber	0.02261058
-3.605687	fibre	0.04933041
-4.684868	fibres	0.01665799
-4.684868	fiery	-0.0001367379
-4.684868	fight	6.968649e-05
-4.508777	figures	-0.000211817
-4.508777	filter	-0.0001164173
-4.508777	finalist	0.005044113
-4.684868	finally	-5.148751e-05
-3.707144	find	0.02197494
-4.286928	finds	0.0002845897
-3.809807	fine	0.01765425
-4.684868	fine-touch	-0.0001412243
-4.508777	fine-tuned	0.01496232
-4.684868	fine?	7.866367e-05
-4.031655	finesse	0.0145129
-3.809807	finest	0.0003693817
-4.684868	finger	-0.0001412243
-3.871954	finish	0.08212686
-3.755449	finished	0.02414547
-4.508777	finishes	0.02845961
-3.871954	finishing	-0.0008452313
-4.286928	fire	0.002675874
-3.373114	first	0.04685067
-4.684868	first-timers	-9.187136e-05
-3.809807	fisher	-0.001561744
-4.684868	fisher's	2.36342e-06
-2.92144	fit	0.1058765
-4.207747	fit's	0.002683295
-3.383838	fitness	0.04122964
-4.684868	fitness-based	-8.289751e-05
-4.207747	fitness-inspired	0.00108659
-4.508777	fitness-level	0.010374
-4.383838	fitness-minded	0.0002293621
-3.985898	fitness-specific	-0.0006158564
-4.383838	fits	0.001085035
-3.684868	fitted	0.01472423
-3.809807	fitting	0.01666607
-4.286928	five	0.0008403313
-4.383838	five-0	0.01211611
-4.684868	five-inch	0.0006940439
-4.684868	fixated	-0.0001412243
-3.62417	fixed	0.005754439
-4.508777	fixed-gear	0.001032703
-4.383838	fixie	0.01813797
-4.286928	flagship	0.004516688
-4.508777	flair	0.01658291
-4.684868	flair;	0.0004199347
-4.684868	flak	-0.0001412243
-3.707144	flash	0.04055133
-3.684868	flat	-0.0001117634
-4.082808	flatbar	0.009998801
-4.684868	flatlands	0.01503818
-4.286928	flats	0.02252891
-4.684868	flatter	-5.148751e-05
-4.684868	flawless	-0.0001367379
-4.082808	fledged	0.0007218853
-3.605687	flex	0.01348862
-4.684868	flex-free	0.01665799
-4.684868	flex-resistant	0.000217834
-4.207747	flexes	-0.0002395285
-4.383838	flexibility	0.002163792
-4.684868	flies	0.01740943
-3.871954	flight	-0.0008617926
-4.286928	flip	-0.000352963
-4.508777	flip-flop	6.194098e-05
-4.508777	float	0.001326684
-4.684868	floodgate	0.0001145744
-4.383838	floor	0.01848929
-4.286928	flop	2.978457e-05
-4.286928	flow	0.0002479479
-4.207747	flowcontrol	-0.0004145433
-4.684868	flowers	0.01665799
-4.508777	flowing	0.01737137
-4.684868	fluorescent	-0.0001322514
-3.730625	fly	0.02527875
-4.508777	flyer	0.01754896
-3.985898	flying	0.0107065
-4.684868	foc-ultra	0.001566953
-4.383838	focale	-0.0002823965
-4.508777	focus	0.001536917
-4.383838	focused	0.001461851
-4.684868	foes	0.001611996
-3.83977	fold	0.08278242
-4.684868	folded	4.2756e-05
-4.508777	folders	0.01733436
-3.172984	folding	0.05054011
-4.207747	folds	0.02049575
-4.508777	follow	0.01019776
-4.684868	following	0.007370751
-4.684868	fondo	0.0003795072
-4.684868	fooling	0.0002268143
-4.684868	footed	-2.12442e-06
-4.286928	footprint	0.004775513
-1.876995	for	0.06531157
-4.508777	for?	0.02969327
-4.207747	forays	0.0171092
-4.207747	force	0.0168838
-4.508777	foremost	0.001226216
-4.286928	forest	0.03454768
-4.508777	forests	0.01733436
-4.383838	forever	0.03223148
-3.906717	forged	0.007143002
-4.207747	forget	-0.0004929999
-3.83977	forgiving	0.0004926645
-2.672031	fork	0.08263279
-4.684868	fork!	0.005989861
-4.684868	fork)	0.004876499
-4.684868	fork-all	-0.0001367379
-4.684868	fork-which	0.0005592146
-2.551329	forks	0.1039187
-3.906717	form	0.02432596
-4.684868	form;	0.001404837
-3.83977	formed	0.001840452
-4.684868	former	0.0002133439
-4.508777	formidable	-0.0002824484
-4.383838	forms	0.02320917
-3.944505	formula	0.03877314
-4.684868	fortunately	0.01665799
-3.944505	forward	0.00598197
-4.383838	foster	-4.214712e-05
-4.508777	foster's	-5.027575e-05
-4.508777	fosters	0.0004539563
-3.62417	found	0.01318062
-4.383838	foundation	0.005503134
-4.207747	four	0.006306825
-4.684868	fourstroke	-0.0001412243
-3.394833	fox	0.04277969
-4.383838	foxy	0.004730442
-4.207747	fp1	0.005516494
-4.684868	fp2	0.004876499
-4.286928	fp3	0.01795499
-4.684868	fpk	0.0007749615
-4.684868	fpquattro	0.004876499
-4.508777	fps	0.0005425563
-4.207747	fps2	0.0004882115
-4.082808	fr	0.0117614
-4.508777	fraction	0.009756762
-4.684868	fractured	-0.0001277649
-2.143289	frame	0.1465115
-4.286928	frame's	0.0007291856
-3.072084	frames	0.07771558
-3.985898	frameset	0.0183297
-4.684868	framesets	0.000303154
-3.730625	france	-0.001218606
-4.684868	france-worthy	0.000303154
-4.684868	francisco-type	-8.289751e-05
-4.286928	frank	0.0221228
-4.082808	freaks	0.01620771
-3.871954	free	0.04159576
-4.383838	free-wheel	0.0009050164
-4.684868	freecharge	0.01665799
-4.684868	freechucker	9.212985e-05
-4.207747	freedom	0.01230669
-4.684868	freedrive	0.006349471
-4.684868	freeeride	-0.0001367379
-3.781778	freeride	0.04549177
-4.684868	freeriders	-0.0001143052
-4.508777	freeroad	0.0009112391
-4.207747	freestyle	0.0164174
-4.684868	freeway	-0.0001412243
-3.730625	freewheel	0.04703067
-4.684868	french	-0.0001322514
-4.684868	frequency	0.004876499
-4.684868	frequent	-0.0001098185
-4.082808	fresh	0.005271045
-3.944505	friction	0.01436293
-4.508777	friction-free	0.0005425563
-4.383838	friday	-0.0001477817
-4.207747	friend	0.03454996
-4.684868	friendly	-0.0001232784
-4.1408	friends	0.04145065
-4.684868	fries	0.0001729355
-4.684868	fringe	0.0002223242
-2.476695	from	0.05199816
-2.852359	front	0.06655644
-4.684868	frown	0.01740943
-4.508777	frr	0.00480142
-4.508777	fs	0.005544003
-4.684868	fs01	0.004876499
-3.570925	fsa	0.01528975
-3.352429	fsr	0.008090846
-3.684868	fuel	-0.001162667
-3.362648	fuji	-0.001256648
-4.082808	fuji's	-0.0004141238
-4.286928	fulcrum	0.004596372
-2.781778	full	0.004662123
-4.383838	full-carbon	0.002863928
-4.383838	full-coverage	0.0002081487
-4.684868	full-size	0.006349471
-4.684868	full-sized	9.661865e-05
-4.082808	full-suspension	0.01655205
-4.684868	full0carbon	-0.0001143052
-3.077413	fully	-0.004736057
-4.684868	fully-sealed	5.622108e-05
-3.304657	fun	0.04099036
-4.684868	function	0.01740943
-4.684868	functional	0.01665799
-4.508777	functioning	0.010374
-4.684868	funkadelic	0.01665799
-4.684868	funky-less	-2.12442e-06
-4.684868	fuquay	-0.0001367379
-4.508777	furious	-0.0002824484
-3.985898	further	0.03261392
-4.508777	fusee	-6.255585e-05
-4.286928	fusing	0.02313411
-4.508777	fusion	-0.0001759241
-4.383838	fuss	0.02944214
-3.605687	future	0.01817798
-3.508776	fx	0.02926305
-4.684868	g-outs	0.01740943
-4.684868	g-sport	-0.0001412243
-4.508777	g2	0.001160101
-4.684868	g3	-4.251286e-05
-4.286928	g6000	-3.430372e-05
-4.508777	gabbro	0.008358642
-4.508777	gain	6.194098e-05
-4.508777	galaxy	0.01143586
-4.684868	gamble	0.01665799
-4.684868	gambler	-6.494924e-05
-4.508777	game	0.01733436
-4.508777	garage	0.0149631
-4.684868	garbage	0.01740943
-4.286928	gardens	0.02532493
-4.508777	garnered	-0.000211817
-3.707144	gary	-0.001467343
-4.286928	gary's	3.101159e-05
-4.684868	gas	0.01503818
-4.684868	gates	0.001566953
-4.684868	gateway	0.006349471
-4.684868	gave	-0.0001232784
-3.179718	gear	0.02280873
-4.082808	geared	0.01081963
-4.383838	geared-only	0.002833388
-3.215046	gearing	0.06793051
-3.147049	gears	0.1007864
-4.684868	gearset	0.01740943
-4.286928	gel	-5.226259e-05
-4.508777	general	-0.000211817
-4.286928	generation	0.004567107
-4.383838	generous	-0.0003832914
-3.684868	genesis	-0.001590349
-4.286928	geneva	0.004993926
-4.031655	genius	0.004311478
-4.684868	gentle	-0.0001412243
-4.383838	geoff	-0.0002823965
-4.383838	geometries	0.03396397
-2.582777	geometry	0.1216004
-4.684868	george	-0.0001412243
-4.684868	germany	0.01665799
-3.082808	get	0.06327969
-4.684868	get-it-done-with-style	0.0001639564
-4.684868	getaway	0.01740943
-4.031655	gets	0.05498615
-3.570925	getting	0.0058408
-3.23771	ghost	-0.00440132
-4.031655	ghost's	-0.0006036912
-4.684868	girls	0.0002582467
-4.383838	giro	-0.0003440548
-4.684868	git'r	-0.0001187918
-3.429595	give	0.0384611
-3.454419	gives	0.04292956
-3.83977	giving	0.03595307
-4.684868	glance	0.0004873229
-4.207747	glances	0.001311758
-4.207747	glide	5.280273e-05
-3.944505	globe	0.01673234
-4.684868	gloss	-0.0001412243
-4.684868	glove	0.01740943
-4.684868	glow	0.002134835
-4.684868	gnarl	0.001611996
-4.684868	gnarl-hound	0.007370751
-4.508777	gnarly	3.171794e-05
-3.128565	go	0.04729955
-4.684868	go-anywhere	0.01665799
-4.684868	go-fast	0.001139278
-4.207747	goal	0.0122247
-4.508777	goals	1.2562e-05
-4.508777	goat	0.01658291
-4.684868	god	0.001684074
-3.83977	goes	0.03443395
-3.508776	going	0.0355283
-3.871954	gold	0.005066632
-4.684868	gone	0.0003525574
-3.362648	good	0.03503985
-4.383838	goods	0.03470005
-4.286928	gossamer	0.0003513464
-3.906717	got	0.01716702
-4.684868	gotta	-9.635823e-05
-4.508777	grace	-0.0001490025
-4.508777	grade	0.01852703
-4.684868	gradient	0.01740943
-4.508777	gradients	-0.000211817
-4.508777	graduate	0.00619472
-3.809807	grams	0.06547577
-4.383838	gran	-0.000353028
-3.944505	graphics	0.05129034
-4.383838	gravel	0.01723089
-4.082808	gravity	0.03427396
-4.684868	grease	-0.0001412243
-3.02211	great	0.04757409
-4.207747	greater	0.0004516909
-4.286928	greatest	-0.0001890424
-3.454419	greatness	0.004112886
-4.286928	green	-6.452136e-05
-4.508777	grin	0.01733436
-4.684868	grind	0.004876499
-4.508777	grinder	0.004817081
-3.730625	grip	0.02927197
-4.383838	grippy	0.0001003465
-3.193506	grips	0.06457761
-4.684868	grips)	0.01503818
-4.684868	grit	0.01503818
-4.508777	gritty	-9.039504e-07
-4.684868	groats	0.0001055964
-3.944505	groceries	0.006695507
-4.508777	groove	0.0055782
-4.286928	ground	0.0166329
-4.684868	ground-breaking	0.0001325308
-3.871954	group	0.02977179
-3.985898	groupset	0.05087451
-4.508777	grow	0.0002056207
-3.454419	gt	0.01428958
-4.684868	gt's	0.0004289194
-4.1408	gtr	0.0001537697
-4.684868	gtw(geometry	-7.392345e-05
-4.684868	gtxr	-0.0001143052
-4.684868	guarantee's	3.826778e-05
-3.83977	guaranteed	0.02699088
-4.1408	guarantees	0.0003245785
-4.684868	guard	0.01503818
-4.1408	guards	0.01466291
-4.684868	guess	-2.007527e-05
-4.286928	guide	0.00895057
-4.684868	guise	0.02335931
-4.286928	gun	0.0006172067
-4.684868	gusset	0.01740943
-4.684868	gusset-free	1.582723e-05
-4.684868	guts	-4.700023e-05
-4.508777	guvnor	0.001430269
-4.684868	guys	0.0002582467
-4.383838	gx2	-0.0002599636
-4.082808	gyro	0.052032
-4.508777	h2	9.785642e-05
-4.1408	habitat	0.00175957
-3.755449	had	0.03427259
-4.508777	hair	0.01658291
-4.383838	half	-0.0002722632
-4.207747	halflink	-0.0002081082
-4.508777	halfway	5.745169e-05
-4.684868	hallway	-0.0001412243
-4.684868	halt	-8.289751e-05
-4.207747	hammer	0.02379137
-4.031655	hand	-0.0002221267
-4.383838	hand-built	0.003395885
-4.508777	hand-made	0.01652644
-4.508777	hand-picked	0.005525816
-4.684868	hand-welded	0.001301295
-4.1408	handbuilt	0.006541667
-4.508777	handcrafted	0.01658291
-3.44183	handle	0.04248967
-3.643475	handlebar	0.02379721
-3.261622	handlebars	0.07696184
-4.082808	handled	-0.0003793988
-4.684868	handlepost	0.01665799
-4.684868	handlers	-0.0001412243
-4.684868	handles	0.0004199347
-2.968864	handling	0.07976888
-4.383838	handling's	3.429595e-07
-4.286928	handmade	0.0003609789
-4.684868	handpicked	0.001139278
-4.684868	handplant	3.826778e-05
-4.684868	handsome	-0.0001143052
-4.684868	hang	-9.187136e-05
-3.871954	hanger	0.03853123
-4.684868	hanger)	0.01665799
-3.985898	hangers	0.01443791
-4.684868	happen	0.01740943
-4.684868	happens	0.01740943
-4.684868	happier	0.0003795072
-4.684868	happiest	0.0001459986
-4.1408	happy	0.0002674313
-3.494536	hard	0.03705413
-4.684868	hard-case	0.0004334116
-4.286928	hard-core	9.715848e-05
-4.684868	hard-pack	7.417513e-05
-3.985898	hardcore	0.0001201758
-4.383838	harder	0.03301079
-3.755449	hardest	-0.0009922939
-4.684868	hardpack	2.480333e-05
-4.207747	hardrock	0.005509732
-3.128565	hardtail	0.07690724
-3.5235	hardtails	0.04101455
-4.684868	hardware	0.01665799
-4.684868	harmonious	-4.251286e-05
-4.684868	harmoniously	0.01665799
-4.508777	harsh	0.01733436
-4.383838	harshly	0.001696149
-2.661615	has	0.04302537
-4.508777	hassle	0.01565059
-3.985898	hassle-free	0.01810932
-3.730625	haul	0.03379485
-2.833609	have	0.03928184
-4.286928	having	0.02366712
-4.684868	hawaiian	0.01740943
-4.207747	hazard	0.0004265817
-4.684868	hazards	0.01740943
-4.383838	hb	-2.987884e-05
-3.417696	he	-0.001801995
-3.077413	head	0.01955312
-4.684868	head's-up	0.002279177
-4.508777	head-angle	0.0149631
-4.684868	head-turning	0.000208854
-4.684868	headaches	0.01740943
-3.906717	heading	0.001084078
-4.286928	heads	0.01706669
-3.570925	headset	0.05847298
-4.383838	headshock	-0.0002823965
-3.494536	headtube	0.07062013
-3.809807	headtubes	0.01568297
-4.508777	health	0.0149631
-4.383838	heap	0.004671895
-4.508777	heaps	0.004746961
-4.684868	heard	0.01740943
-4.383838	heart	0.01996318
-4.508777	heartbeat	0.01733436
-3.707144	heat	-0.001396699
-4.207747	heat-treated	0.0009903708
-4.383838	heavier	0.0001497524
-4.508777	heavily	0.007295672
-3.871954	heavy	0.01630158
-4.684868	heckler	-2.905042e-05
-4.383838	heel	-0.0001388058
-3.663678	height	0.05677234
-4.684868	height-adjustable	2.480333e-05
-4.383838	heights	0.05111543
-4.684868	heist	0.004876499
-4.684868	helicopters	0.0002806998
-4.383838	hell	0.0008960174
-4.684868	hellride	0.0001280417
-3.406114	help	0.01344416
-4.207747	helpful	0.001546056
-3.871954	helps	0.007398797
-4.508777	hemisphere	0.0003583325
-4.684868	her	-0.0001412243
-3.643475	here	0.04017156
-4.684868	here's	0.0001235525
-4.684868	heretic	0.004876499
-4.508777	heritage	0.01726858
-4.383838	hero	0.01880817
-4.508777	hg	-0.0002330944
-4.383838	hi	0.005468937
-4.684868	hi-ten	0.0002223242
-3.944505	hi-tensile	-0.0002405745
-4.684868	hidden	-0.0001277649
-3.093803	high	0.03605353
-4.286928	high-end	0.001187001
-4.508777	high-performance	9.785642e-05
-4.684868	high-quality	0.01665799
-4.684868	high-strung	0.001386828
-4.508777	high-value	0.01645184
-3.508776	higher	0.0003962652
-3.871954	highest	0.001365561
-4.684868	highlighted	0.0003525574
-4.684868	highlights	0.02335931
-4.286928	highly	-0.000408985
-4.684868	highly-customized	2.36342e-06
-3.944505	hill	0.03268923
-4.684868	hill?	-0.0001232784
-3.809807	hills	0.03602301
-4.383838	hilly	-0.0001163655
-4.383838	himod	0.0001779432
-4.1408	himself	0.01703417
-4.684868	hinge	0.01740943
-4.684868	hinges	0.0008019378
-4.286928	hint	0.004596842
-4.684868	hipsters	0.006481556
-3.707144	his	-0.001355144
-4.383838	history	0.00774387
-3.480748	hit	0.04000359
-4.082808	hits	0.06125033
-3.871954	hitting	0.05181671
-4.207747	hmf-net	0.001266715
-4.684868	hmx-net	0.001566953
-4.684868	hob	0.004876499
-4.383838	hoffman	0.000684595
-4.684868	holder	0.01740943
-4.508777	holding	0.001536917
-4.684868	holds	-7.841051e-05
-4.684868	holdsworth	0.004876499
-4.508777	hole	-0.0001400283
-4.684868	holes	0.005653279
-4.684868	holidays	0.01740943
-4.508777	hollow	-0.0001669504
-4.684868	hollowtech	-7.392345e-05
-4.286928	holy	3.876709e-05
-4.286928	homan	0.006445696
-4.383838	homan's	-0.0001253417
-3.362648	home	0.05374359
-4.684868	homework	0.01740943
-4.684868	honed	0.001301295
-4.684868	honey	0.006349471
-4.383838	honky	-0.0002823965
-4.684868	honours	0.01740943
-4.684868	hookooekoo	0.0005322536
-4.207747	hope	-0.0004235165
-4.684868	horizon	-6.046205e-05
-4.082808	horizontal	-0.0003569515
-4.031655	horst	-0.0005172464
-4.508777	host	0.004746961
-4.684868	hottest	-0.0001143052
-3.730625	hourglass	0.0007803669
-4.508777	hours	0.001536917
-3.755449	how	0.01141942
-4.383838	however	0.01668928
-3.755449	ht	0.03185154
-4.508777	htc-columbia	0.0002056207
-3.755449	htx	-0.0009494639
-3.179718	hub	0.06401955
-4.684868	hub;	0.02335931
-4.383838	hubbed	-1.312501e-05
-3.352429	hubs	0.05136268
-4.684868	hucker?	-0.0001053318
-3.663678	huge	-0.001421682
-4.508777	human	0.000126012
-4.684868	humanitarian	-0.0001143052
-4.684868	humu	0.004876499
-4.684868	humuhumu-nakunuka-apua'a	0.005653279
-4.684868	hundreds	0.0006940439
-2.501598	hybrid	0.06478491
-4.383838	hybrids	0.0003384452
-2.973061	hydraulic	-0.005337873
-4.684868	hydraulically-damped	0.0007749615
-4.684868	hydraulics	0.01665799
-4.1408	hydro	0.0001447817
-4.383838	hydro-formed	0.002833388
-4.508777	hydroform	-8.169124e-05
-3.186557	hydroformed	0.02591142
-4.207747	hydroforming	0.01635775
-4.684868	hyperglide	-5.597479e-05
-4.383838	i	-0.0002094358
-4.684868	i-beam	0.000303154
-4.684868	i-motion	0.0001370201
-4.684868	iconic	0.0001998741
-4.684868	id	0.0004873229
-4.286928	idea	0.001637636
-2.92144	ideal	0.01597149
-4.207747	ideally	-0.0003831356
-4.383838	identical	0.006199325
-4.286928	identity	0.01862529
-3.22247	if	0.02363034
-4.383838	ignite	0.02320917
-3.985898	ii	0.007066285
-4.684868	iii	-7.841051e-05
-4.383838	image	0.004671895
-4.508777	imbued	0.007295672
-4.508777	immediate	0.03230655
-4.286928	immediately	0.0002621248
-4.508777	immerse	-0.0001983575
-4.684868	imp	0.000303154
-4.082808	imp3	0.01791764
-4.383838	imp4	0.001416808
-4.684868	impact	0.0001370201
-3.944505	impacts	0.01673419
-4.383838	impeccable	0.01650784
-4.684868	imperiale	-0.0001367379
-4.508777	important	0.01733436
-4.684868	importantly	0.01665799
-4.684868	imposing	-8.289751e-05
-4.383838	impossible	-6.2504e-05
-4.684868	impress	0.007370751
-4.1408	impressive	0.01685509
-4.684868	impressively	-8.289751e-05
-4.082808	improve	0.003047773
-3.494536	improved	0.01738689
-4.508777	improvement	0.007988092
-4.684868	improvements	0.01503818
-2.280034	in	0.09764262
-4.508777	incarnation	0.004746961
-3.570925	inch	0.006488037
-4.207747	inches	0.004521803
-4.684868	inches)	0.002134835
-4.684868	inclement	-5.597479e-05
-4.684868	inclined	0.007370751
-3.781778	include	0.05396392
-4.383838	included	0.007223094
-3.730625	includes	0.01163843
-3.944505	includes;	0.009583806
-3.5235	including	0.03634748
-4.684868	incomparable	0.001386828
-4.383838	incorporated	0.006408986
-4.1408	incorporates	0.03485301
-3.944505	increase	0.02306054
-3.570925	increased	0.001018439
-4.286928	increases	-7.799195e-05
-4.1408	increasing	0.02456201
-3.871954	incredible	0.001587094
-3.554534	incredibly	0.0001974506
-4.383838	independence	0.01725929
-4.508777	individuals	0.01768454
-4.082808	industry	0.001726712
-4.508777	inertia	-0.0002073305
-4.383838	infinito	-0.0002531495
-4.508777	infinity	0.0003011843
-4.684868	influence	-7.841051e-05
-4.383838	influenced	0.0002024123
-4.684868	infused	0.007370751
-4.508777	initial	-0.0002073305
-4.684868	initiative	0.006481556
-4.031655	inman	8.8525e-05
-4.508777	inman's	-5.027575e-05
-4.684868	inner	-0.0001412243
-4.508777	innovation	0.01888324
-4.031655	innovations	-0.0006350992
-4.031655	innovative	0.01673857
-4.383838	input	0.006502349
-4.684868	inseparable	-0.0001232784
-4.286928	insert	-0.000249761
-3.781778	inserts	0.0474364
-4.684868	inset	-0.0001412243
-4.286928	inside	0.04448229
-4.508777	insideout	-0.0002689888
-4.684868	insist	0.001611996
-4.508777	inspiration	0.001226216
-4.286928	inspire	0.001568513
-3.781778	inspired	0.0005288279
-4.684868	inspires	2.031526e-05
-4.207747	inspiring	0.01674411
-4.684868	installation	4.724431e-05
-4.508777	instance	-2.783477e-05
-4.207747	instant	0.0003546495
-4.684868	instantly	0.01665799
-4.684868	instead	0.004822041
-4.684868	integrate	-0.0001412243
-3.051399	integrated	0.02446498
-4.684868	integrating	0.002491267
-4.684868	integration	0.002134835
-4.684868	intended	0.005653279
-4.508777	intensify	-0.000211817
-4.684868	inter	4.724431e-05
-4.508777	interchangeable	-0.0001029526
-4.383838	interface	-0.0002554769
-4.082808	interfaces	0.01697711
-4.684868	interlock	-0.0001232784
-4.684868	intermediate	0.000595165
-3.570925	internal	-0.0007231947
-4.286928	internally	-0.000324879
-4.508777	internals	0.0149631
-3.003627	into	0.04058198
-4.684868	introduce	0.02335931
-4.1408	introduced	0.00175957
-4.031655	introducing	0.02283403
-4.1408	introduction	0.005974205
-4.286928	introductory	0.01022388
-4.684868	intuitive	2.929145e-05
-4.383838	invaluable	-0.0001926579
-4.508777	invented	-6.373982e-05
-4.684868	invention	-6.494924e-05
-4.383838	investment	-0.00027791
-4.383838	invisible	3.747421e-05
-4.684868	involved	0.01740943
-4.286928	involving	0.02313411
-4.508777	ion	-0.0001983575
-4.508777	ios	0.006363247
-4.684868	iphone	0.001107782
-4.684868	ipod	0.0001280417
-4.508777	iroko	0.0003191546
-3.906717	irregularities	0.001384628
-4.286928	irresistible	-0.0003215563
-1.819468	is	0.03830172
-3.985898	isc	0.001561804
-4.383838	iscg	-0.0003563687
-4.031655	isn't	0.001558672
-4.1408	isozone	-0.0002358329
-4.508777	issue	0.007295672
-4.684868	isx	-0.0001367379
-2.21726	it	0.1077443
-4.207747	it'll	0.0001870848
-2.81858	it's	0.04454952
-4.684868	it1s	-0.0001232784
-4.684868	it?	0.005989861
-4.383838	italia	-0.0003126474
-4.383838	italian	-0.0002240685
-4.684868	itch	0.005653279
-4.383838	item	0.006199325
-4.684868	items	-7.841051e-05
-3.01277	its	0.004212317
-4.383838	itself	0.01186348
-4.207747	izoard	0.01613182
-4.082808	jack	0.0246021
-4.684868	jacket	-0.0001053318
-4.684868	jagwire	0.0006580852
-4.508777	jake	0.02851713
-3.605687	jamis	0.01611339
-4.1408	jamis'	-0.0006240823
-4.383838	japanese	0.0001407692
-4.383838	jarrah	0.0001734504
-4.1408	jaunts	0.01707118
-4.684868	jealous	0.01740943
-4.684868	jean	-0.0001232784
-4.207747	jekyll	0.01579207
-3.906717	jet	-9.531918e-05
-4.684868	jetstream	-0.0001277649
-4.684868	jewel	0.01740943
-4.684868	jiggle	0.002134835
-4.684868	job	0.01740943
-4.684868	job!	0.005989861
-4.383838	john	-0.0004236723
-4.684868	join	-4.700023e-05
-4.684868	joined	0.006349471
-4.684868	jointed	0.0003525574
-4.207747	joints	0.01635775
-4.508777	joker	0.0224946
-4.383838	journals	0.01488803
-4.684868	journey	0.01665799
-4.207747	journeys	0.0171092
-4.207747	joy	0.0187471
-4.383838	juicer	-0.0001914834
-3.985898	juicy	0.0007759003
-3.83977	juliett	0.007097723
-3.570925	jump	0.009242967
-4.207747	jumper	0.01591847
-4.082808	jumping	0.01036523
-3.83977	jumps	0.03238196
-4.383838	junction	-2.21034e-05
-4.684868	junkies	-0.0001367379
-4.286928	jus	0.02313411
-2.964709	just	0.02836648
-4.684868	justice	0.004876499
-4.383838	justin	-0.0003216212
-4.684868	k-force	8.315242e-05
-4.286928	k-vid	0.02311583
-4.383838	kabush	0.01488803
-4.508777	kahuna	-7.271566e-05
-4.684868	kaiser	0.004876499
-4.508777	kalahari	0.00715209
-4.684868	kammtail	1.133926e-05
-4.286928	kansi	0.006956679
-4.508777	karakum	0.00480142
-3.286928	keep	0.04090897
-3.730625	keeping	0.02914381
-3.906717	keeps	0.02869005
-3.781778	kenda	-0.000848457
-4.684868	kept	-2.905042e-05
-4.383838	kern	-0.0003081605
-4.383838	kevlar	-0.0002285556
-4.684868	kevler	-0.0001322514
-4.383838	key	-0.000208264
-4.383838	khe	-7.806974e-05
-4.508777	kickstand	0.0149631
-4.508777	kids	0.03477512
-4.508777	kill	0.009969644
-4.508777	killer	0.0004257223
-4.1408	kilo	0.00524362
-3.707144	kind	0.00354746
-4.684868	kinds	0.004822041
-3.906717	kinematics	-0.0003065509
-4.508777	kinesis	0.0002113435
-4.684868	kinetix	0.0001639564
-4.286928	king	0.004535339
-4.082808	kink	0.01723292
-3.5235	kit	0.06144482
-3.570925	kitted	-0.001212147
-4.684868	kmc	0.0004379038
-4.508777	knew	5.745169e-05
-4.684868	knob	-5.597479e-05
-4.684868	knobby	-0.0001187918
-4.383838	knobs	0.01725929
-4.207747	knock	0.01473794
-4.684868	knocking	0.0002268143
-3.684868	know	0.01325178
-4.207747	knowledge	0.01981308
-4.031655	known	0.02247072
-4.383838	komodo	-0.0002689369
-3.093803	kona	0.02536694
-3.809807	kona's	-0.0007887223
-4.684868	kore	-0.0001232784
-4.508777	ksyrium	-7.271566e-05
-4.082808	kula	0.006839462
-4.286928	kuma	-0.0005604096
-4.082808	kwest	-0.0005556112
-4.684868	kwick	-0.0001187918
-4.286928	l.e.d	-0.000352963
-3.755449	la	-0.001091045
-4.508777	lab's	-0.000211817
-4.1408	laced	0.01353444
-4.508777	lacking	-0.0001714373
-3.944505	ladies	0.01762158
-4.031655	lady	0.01699091
-4.1408	lady"	0.02298405
-4.684868	lady's	0.0009863181
-4.684868	laid	6.968649e-05
-4.684868	lait"	0.01740943
-4.508777	laminate	-0.000211817
-4.508777	lanai	0.004776228
-3.755449	lance's	-0.0009922939
-4.684868	land	-0.0001367379
-4.684868	lands	6.851333e-06
-4.1408	landscape	0.01628272
-4.383838	lane	0.01650784
-4.286928	lanes	0.01766537
-4.383838	langster	0.005028096
-4.684868	language	0.0001325308
-3.663678	lapierre	-0.001885187
-4.684868	lapierre!	0.005989861
-4.684868	lapierre's	0.0002223242
-4.207747	lapierres	-0.0003427509
-3.781778	large	-0.0002291964
-3.985898	larger	0.01641987
-3.985898	largest	-0.0001174391
-4.684868	laser	0.0005322536
-4.684868	laser-accurate	0.005653279
-4.508777	laserdisc	0.0004809214
-3.587958	last	0.03387662
-4.684868	lasting	0.0004828298
-4.207747	late	0.005353041
-3.707144	lateral	-0.001028581
-4.383838	laterally	0.005503134
-3.53874	latest	0.0004117845
-4.207747	latitude	0.006174634
-4.684868	laugh	0.0004873229
-4.383838	laughing	0.0003429391
-4.684868	launched	0.002134835
-4.684868	laurels	0.01665799
-4.684868	lavaredo	0.004876499
-4.684868	lay-up	0.01665799
-4.383838	layers	0.01488803
-4.508777	laying	0.0237114
-4.684868	layout	0.004822041
-4.207747	layup	0.001488966
-4.508777	lazy	-0.0001702722
-4.383838	lbs	0.01725929
-4.684868	lead	0.01740943
-4.684868	leader	0.002134835
-4.383838	leading	0.02325246
-4.684868	leaf	-2.905042e-05
-4.684868	leaf-shaped	-1.55876e-05
-4.684868	league	0.004822041
-4.684868	learnt	0.001301295
-4.508777	least	0.006540954
-4.082808	leather	0.0002881561
-4.286928	leave	0.02332902
-4.684868	leaves	0.00169759
-4.383838	leaving	0.02407276
-3.781778	lector	-0.0009269293
-4.684868	led	0.0004603664
-4.508777	left	0.01746483
-4.508777	lefty	0.0006998824
-4.286928	leg	0.02253948
-4.684868	legacy	0.01740943
-4.082808	legend	0.003616485
-3.5235	legendary	0.01751752
-4.1408	legged	0.001549174
-4.684868	legion	0.004876499
-4.684868	legitimate	7.417513e-05
-3.944505	legs	0.03404947
-3.944505	leisure	0.03566195
-4.031655	leisurely	0.01860173
-4.508777	lends	0.02328423
-3.730625	length	0.01564812
-4.684868	lengthened	0.0005008014
-4.684868	lengths	0.01665799
-3.3138	less	0.04318986
-4.684868	lessens	-0.0001053318
-3.906717	let	0.0253526
-4.031655	lets	0.02513067
-4.383838	letum	0.0001330177
-3.193506	level	0.04287039
-4.508777	levels	0.02167741
-3.985898	lever	0.06772847
-4.684868	leverage	0.01503818
-4.286928	leveraging	0.02313411
-4.286928	levers	0.0510107
-4.082808	lexa	0.004286566
-4.684868	lhd	5.622108e-05
-4.684868	liberty	0.004876499
-4.684868	lies	-4.700023e-05
-3.730625	life	0.03196123
-4.684868	lifestyle	0.01740943
-4.286928	lifetime	0.004585261
-2.691432	light	0.07342633
-3.332685	lighter	0.05393335
-3.53874	lightest	0.06180954
-4.207747	lighting	0.03227716
-4.286928	lightness	0.04098819
-4.082808	lightning	3.957894e-05
-4.684868	lightning-quick	-0.0001098185
-3.985898	lights	0.02201669
-2.71174	lightweight	0.0715258
-2.882094	like	0.06638806
-4.508777	likely	0.006274391
-4.684868	likes	0.006349471
-4.207747	likewise	-0.0003517256
-4.684868	limit	-0.0001143052
-4.508777	limited	-0.0001893843
-4.1408	limits	0.03473065
-3.304657	line	0.1037215
-4.684868	line-up	0.01665799
-4.082808	linear	-0.0005017669
-4.383838	lined	-0.000182507
-3.605687	lines	0.04665669
-3.985898	link	0.04772009
-4.082808	linkage	0.01466925
-4.684868	links	0.01665799
-4.286928	lisa	0.004587292
-3.871954	list	0.0268614
-4.508777	lite	5.416706e-05
-3.83977	literally	0.01592393
-4.508777	litespeed	-0.0002824484
-3.684868	lithium	-0.0004148628
-3.83977	little	0.01099823
-4.508777	live	7.091949e-05
-4.684868	lived	0.0001953843
-4.1408	lively	0.01784683
-4.286928	lives	0.02074933
-4.684868	lk	-2.12442e-06
-4.508777	lo	0.0006998824
-4.684868	lo-bolt	0.0002762091
-3.944505	load	0.01684924
-4.031655	loaded	0.02531063
-4.684868	lobolt	-4.251286e-05
-4.684868	lobule	-4.251286e-05
-3.684868	local	-0.000177949
-3.809807	lock	0.03453302
-4.684868	lock-on	0.0001280417
-4.207747	lock-out	0.05092556
-4.684868	locked	0.0003256093
-4.383838	lockjaw	0.0003699021
-3.570925	lockout	0.07344402
-4.207747	lockout)	-0.0002799228
-4.684868	lockout-equipped	0.01665799
-4.383838	log	-4.454865e-05
-4.684868	logical	-0.0001412243
-4.286928	logo	0.02278087
-4.684868	london	0.01665799
-2.875308	long	0.07994954
-4.684868	long-distance	-4.700023e-05
-4.286928	long-drop	-0.0002485834
-4.508777	long-lasting	0.01563197
-4.684868	long-the	-0.0001143052
-4.684868	long-time	-0.0001322514
-3.286928	longer	0.04320152
-3.730625	longest	0.01541114
-4.286928	longstanding	-0.0004762921
-3.454419	look	0.05997546
-4.684868	looked	0.0001908944
-3.06682	looking	0.01519718
-3.342445	looks	0.08981186
-4.684868	loop	0.002983533
-4.684868	looped	0.0002806998
-4.1408	loose	-0.0004447017
-4.684868	losing	-0.0001232784
-4.508777	loss	0.004746961
-4.286928	lost	0.001208088
-3.944505	lot	0.01090996
-4.1408	lots	0.004446775
-4.684868	loud	0.01665799
-3.906717	love	0.008217501
-4.383838	loved	0.03301079
-4.508777	lovely	0.0149631
-4.684868	lovers	0.000208854
-3.985898	loves	0.02547279
-4.684868	loving	0.01665799
-4.684868	lovingly	3.377959e-05
-3.159823	low	-0.001751365
-4.383838	low-maintenance	0.01518475
-4.508777	low-profile	0.003240216
-4.684868	low-rise	0.0008424048
-4.684868	low-slung	0.0004603664
-4.684868	low-speed	-0.0001367379
-4.684868	low-vibration	1.133926e-05
-3.587958	lower	0.05726958
-4.684868	lowers	0.01665799
-4.286928	lowest	0.0004881333
-4.684868	loyal	0.006349471
-3.985898	lt	0.02544622
-4.684868	lt2	-7.841051e-05
-4.1408	ltd	0.005726044
-4.508777	lu-a54	-0.0002073305
-4.684868	lucero	0.004876499
-4.286928	luggage	0.0005825596
-4.508777	luggage-carrying	-0.000211817
-4.684868	lugged	0.0002223242
-4.508777	lugs	0.03308586
-4.508777	lungs	-0.000211817
-4.383838	luxe	0.005468937
-4.684868	luxe's	0.0002627372
-4.508777	luxurious	2.153957e-05
-4.684868	luxury	0.004822041
-4.684868	lyrik	-0.0001412243
-3.906717	m	0.01658373
-4.684868	m2025	0.0008424048
-4.508777	m3l	0.02173404
-4.508777	m3l-x	0.004780767
-4.207747	m4	0.0005421668
-4.508777	m475	-0.000211817
-4.383838	m4sl	0.0006922598
-3.809807	m5	-0.0001762524
-4.508777	m575	-0.0001534896
-3.1408	machine	0.05776816
-4.031655	machined	0.0001996616
-4.508777	macneil	0.000548342
-4.684868	mad	-0.0001187918
-2.981576	made	0.08731887
-4.684868	madman	0.002134835
-4.684868	madness	0.01740943
-3.373114	madone	0.03135006
-4.508777	mag	-0.000202844
-4.207747	magazine	0.02401368
-4.684868	magazine's	-0.0001412243
-4.508777	magazines	0.01658291
-4.207747	magic	0.00695012
-4.684868	magma	0.01740943
-4.207747	magnesium	0.03195046
-4.684868	magnitude	-7.392345e-05
-3.781778	main	0.002423627
-4.508777	mainframe	0.01726858
-4.508777	mainly	0.0002505303
-4.508777	maintain	0.00553491
-4.684868	maintained	0.0003525574
-4.031655	maintaining	-0.00015351
-4.684868	maintains	0.0001235525
-3.53874	maintenance	0.06004243
-4.684868	maintenance-free	-0.0001367379
-4.383838	major	0.002826058
-4.684868	majority	0.004822041
-2.899538	make	0.04363197
-4.508777	makeover	0.02330385
-3.200568	makes	0.04128867
-3.153389	making	0.0421242
-4.383838	malum	0.0001330177
-4.684868	mamba	2.36342e-06
-4.1408	man	-0.0004940571
-4.508777	manage	0.006274391
-4.286928	managed	0.008730571
-4.684868	managing	0.006349471
-4.684868	mangled	0.002134835
-4.684868	manhattan	0.004876499
-4.684868	manic	0.004876499
-4.1408	manipulated	0.0008207961
-4.031655	manners	0.02198766
-4.207747	manoeuvrability	0.03208139
-4.508777	manoeuvring	0.002059756
-4.684868	mantle	0.005653279
-4.508777	mantra	0.003190467
-4.508777	manual	0.01658291
-4.1408	manufactured	1.572625e-05
-4.1408	manufacturers	0.001134586
-3.906717	manufacturing	0.01569064
-3.44183	many	0.03970686
-3.730625	marathon	0.0288086
-3.944505	marathons	0.03170638
-4.684868	marathons-the	-0.0001277649
-4.383838	marie-helene	-0.0002823965
-3.570925	market	0.04146054
-4.684868	market-leading	-0.0001412243
-4.684868	marketed	0.001846294
-4.508777	marlin	-7.271566e-05
-4.684868	marquee	0.006481556
-4.1408	marriage	0.004446775
-4.684868	marries	0.002491267
-4.082808	marzocchi	0.01589783
-4.286928	massive	0.01472313
-4.684868	master	-0.0001412243
-4.684868	mastering	-0.0001277649
-4.207747	match	0.02305908
-3.663678	matched	0.01299665
-4.684868	matches	-0.0001277649
-4.1408	matching	0.0002764234
-4.383838	mated	0.01375956
-3.554534	material	0.05243344
-3.871954	materials	0.03333266
-4.684868	materials-that	-0.0001322514
-4.508777	mates	0.01658291
-4.508777	mating	-7.271566e-05
-4.508777	matrix	0.005144045
-4.1408	matte	-0.0004973835
-3.730625	matter	0.04688511
-3.755449	mavic	0.0155115
-4.508777	max	0.0005438469
-4.684868	maximise	0.0007569785
-4.031655	maximize	0.0004322522
-3.362648	maximum	0.001129512
-4.684868	maxle	-0.0001367379
-4.383838	maxmax	0.0006364484
-4.207747	maxxis	0.01753829
-3.871954	may	0.0002791313
-4.508777	maybe	0.01259893
-4.684868	mayfair	0.004876499
-3.663678	mean	0.04396857
-4.684868	meander	-0.0001053318
-4.684868	meandering	0.0002268143
-3.985898	meaning	0.01899153
-3.467384	means	0.05386993
-4.286928	meant	0.01194073
-4.286928	measure	0.02228775
-4.684868	measured	0.0003525574
-4.684868	measurement	0.0007974415
-4.684868	mech	0.01665799
-3.605687	mechanical	-0.001212819
-3.663678	meet	0.02367471
-3.944505	meets	-0.0005247561
-4.684868	mega-sized	-7.841051e-05
-4.684868	mega-solid	-0.0001232784
-4.383838	mega/marathon	-0.0002554769
-4.286928	megavalanche	0.0008825841
-4.684868	mellow	7.417513e-05
-4.286928	mellowpark	0.006124272
-4.508777	men	0.0149631
-4.286928	men's	0.0007039942
-4.508777	mens	0.0149631
-3.809807	merckx	0.001518571
-4.508777	merckxs'	-0.0002073305
-4.684868	mercury	0.004876499
-4.383838	mess	0.007529088
-4.684868	messengers	0.01740943
-4.508777	met	1.705077e-05
-4.1408	meta	-0.0004850838
-4.684868	meteor	0.004876499
-4.684868	methods	0.01503818
-4.684868	methonal	-0.0001322514
-4.508777	meticulous	0.0001349936
-4.508777	meticulously	-0.0001523214
-4.286928	metro	-0.0003170695
-4.508777	metropolis	0.0002517696
-4.508777	metropolis2	-0.0002330944
-4.082808	micro	0.000357478
-4.684868	micron	0.004876499
-3.417696	mid	0.02647957
-4.508777	mid-range	9.785642e-05
-4.383838	mid-sized	3.419802e-05
-3.944505	might	0.00197446
-4.1408	mike	-0.0005018709
-4.508777	milanino	0.005684984
-4.684868	milano	0.004876499
-4.684868	mild	1.582723e-05
-3.730625	mile	0.0221433
-4.1408	mileage	0.01699605
-3.44183	miles	0.05675316
-4.684868	mimic	0.02335931
-4.684868	mimosa	-0.0001367379
-3.494536	mind	0.04346565
-4.082808	mini	-0.0005320096
-3.985898	minimal	9.667187e-06
-4.684868	minimise	-2.905042e-05
-4.286928	minimising	-0.000236298
-4.508777	minimize	0.0004224987
-3.871954	minimum	0.02350859
-4.383838	minnows	0.016526
-4.684868	minted	0.002983533
-3.985898	minutes	0.0007010259
-4.207747	mirraco	-0.0007061199
-4.684868	miserable	0.0001549773
-4.031655	miss	-0.0008840536
-4.508777	missed	0.009903712
-4.1408	missing	0.009669458
-4.383838	mistake	0.01650784
-4.286928	mix	0.01035875
-4.383838	mixed	0.009470543
-4.1408	mixer	0.005491537
-4.383838	mixte	0.003572411
-4.1408	mlo	0.001549174
-4.508777	mm	0.005139503
-4.684868	mmc	0.001566953
-4.508777	mo	0.003204034
-4.684868	mobeus	-0.0001143052
-4.684868	mobility	-0.0001277649
-4.684868	mod	8.315242e-05
-4.1408	mode	0.02296576
-3.332685	model	0.07086249
-4.684868	model)	0.01665799
-3.730625	models	0.02097527
-4.684868	moderate	-9.635823e-05
-3.508776	modern	0.0129517
-4.684868	modest	0.0001011075
-4.508777	modified	0.001263645
-4.1408	modular	-0.0003818775
-4.684868	modulate	0.0001459986
-4.684868	modulated	-6.046205e-05
-4.207747	modulation	0.03454996
-4.031655	modulus	0.0008523136
-4.508777	mold	0.0149631
-4.684868	molded	-9.187136e-05
-4.684868	molding-to	-0.0001412243
-4.383838	moly	0.0009216442
-4.684868	moment	9.212985e-05
-4.684868	momentous	0.006349471
-4.1408	momentum	0.02219441
-4.684868	moncoque	0.002983533
-4.383838	monday	0.006199325
-3.22247	mondraker	0.037227
-4.383838	mondraker's	-0.0002420164
-4.207747	mondrakers	-0.0002628938
-3.83977	money	0.04277654
-3.605687	mongoose	0.03226284
-4.684868	mono	0.004876499
-3.480748	monocoque	0.02779115
-4.383838	monolever	0.01488803
-4.684868	monona	0.0006580852
-4.684868	monoque	-0.0001232784
-4.383838	monostay	0.01578501
-4.684868	monster	0.0004334116
-3.871954	montague	0.01628756
-4.684868	montague's	0.01665799
-4.684868	montare	0.004876499
-4.684868	month-long	-9.635823e-05
-4.286928	months	0.004596842
-4.383838	monza	0.001275567
-4.508777	mood	0.01733436
-4.508777	moods	0.01733436
-4.684868	moon	0.01665799
-2.71174	more	0.04972553
-4.508777	morning	0.01653577
-4.684868	morph	0.0002806998
-4.684868	morphs	0.0002806998
-2.93668	most	0.004576077
-4.508777	mothra	0.007896648
-4.684868	motion	0.01665799
-4.508777	motor	0.0149631
-4.383838	moulding	-0.0001241554
-3.781778	mount	0.03287503
-2.137709	mountain	0.04010972
-4.383838	mountain"	0.0003371778
-4.684868	mountain-levelling	8.315242e-05
-3.809807	mountains	0.05185531
-3.871954	mounted	0.007194894
-3.781778	mounting	0.01635951
-3.304657	mounts	0.1016221
-4.207747	move	0.01742665
-4.207747	movement	0.03208139
-4.684868	moving	0.02335931
-4.684868	mp2	0.0006176353
-3.707144	mtb	0.0243941
-4.1408	mu	-0.0006240823
-3.383838	much	0.03401414
-3.985898	mud	0.01437051
-3.44183	mudguard	0.01283476
-3.3138	mudguards	0.06604169
-4.1408	multi	0.0008613136
-3.83977	multi-day	-0.001017723
-4.684868	multi-link	-5.148751e-05
-4.508777	multi-mould	-1.436955e-05
-4.684868	multi-pivot	-0.0001143052
-4.684868	multi-purpose	0.0001639564
-4.684868	multi-tasking	0.0002133439
-4.684868	multifaceted	-0.0001412243
-4.508777	multiple	-0.000202844
-4.508777	multisport	0.0008662611
-4.684868	multitude	0.004822041
-4.684868	mundane	0.01665799
-4.684868	muscular	0.0007749615
-4.684868	muss	0.01665799
-4.684868	must	0.004822041
-4.684868	muster	0.01740943
-4.684868	mx	0.0002447753
-4.684868	mx6	0.004876499
-4.286928	my	-0.0004101346
-4.082808	myka	-0.000406334
-4.508777	mystic	0.004780767
-4.684868	n	-0.0001322514
-4.207747	nail	0.001311758
-4.508777	nails	0.01614887
