
\data\
ngram 1=3438
ngram 2=26315
ngram 3=60718

\1-grams:
-5.683624	"	0.0178872
-2.82226	#	-0.3264597
-5.528722	&	-0.0007307947
-3.719162	'	-0.05476914
-1.279545	(	-1.574902
-1.279545	)	-1.422663
-5.487329	+	0.02365787
-1.75563	,	-1.148761
-1.067797	-	-1.805119
-5.926661	--	-0.0005278225
-0.9623467	.	-2.008105
-3.4957	...	-0.1021372
-6.0516	....	0.001709028
-4.885269	/	0.01737454
-3.175768	0	-0.04663806
-2.664745	00	-0.3710614
-5.625632	000	0.04792627
-2.983538	01	-0.1923935
-6.227691	014	0.02318443
-3.057283	02	-0.1506077
-3.080789	03	-0.1459754
-3.11559	04	-0.1307294
-6.227691	040	-0.0002408906
-3.104167	05	-0.1297846
-3.115087	06	-0.1311069
-3.122182	07	-0.09061465
-3.104657	08	-0.1354099
-3.107612	09	-0.1342399
-2.211327	1	-0.6251273
-2.235116	10	-0.5884808
-5.0516	100	0.04551896
-6.227691	1000	-0.0002513031
-6.0516	101	0.009401801
-6.227691	102	0.009528104
-5.926661	103	0.009275534
-6.0516	104	0.009401801
-6.227691	105	0.007438479
-6.227691	107	0.009528104
-6.227691	108	0.009528104
-2.347364	11	-0.4997152
-6.227691	116	-0.0002513031
-6.227691	117	0.00482984
-2.334069	12	-0.5365653
-6.227691	121	-0.00025246
-6.227691	123	0.0007901517
-6.227691	125	-0.0001676106
-6.227691	126	-0.0001676106
-6.227691	127	-0.0001676106
-6.0516	128	-0.0002939141
-6.227691	129	-0.0001676106
-2.40726	13	-0.4797825
-6.227691	131	-0.0001763534
-5.926661	136	0.02289527
-6.0516	137	-0.0002939141
-6.227691	138	0.02318443
-2.44907	14	-0.4471047
-6.227691	144	0.009528104
-2.491654	15	-0.3888377
-6.227691	150	-0.0002519458
-6.227691	153	-0.0002408906
-2.716009	16	-0.2574859
-2.522213	17	-0.409609
-6.227691	175	-0.0001676106
-6.227691	178	-0.0002513031
-2.637575	18	-0.3219523
-6.227691	184	-0.0001676106
-6.227691	185	0.02318443
-2.751367	19	-0.2532519
-6.227691	191	0.02318443
-6.227691	1966	0.01526301
-6.227691	1970	0.02318443
-6.227691	1979	0.0008905426
-6.227691	1983	0.02318443
-6.227691	1985	0.03858574
-6.0516	1986	0.02305813
-6.227691	1987	-0.0001912672
-6.227691	1993	-0.0002514316
-6.227691	1996	-0.0002514316
-6.227691	1998	0.02318443
-2.204275	2	-0.6530441
-2.529939	20	-0.332093
-6.0516	200	-0.000492194
-6.0516	2000	-0.0003481929
-6.227691	2002	0.04989733
-6.0516	2003	0.03845944
-6.0516	2005	0.05828668
-6.227691	2006	0.01526301
-5.926661	2007	-0.0005006596
-6.227691	204	0.02318443
-2.530811	21	-0.401074
-6.227691	213	0.009528104
-2.628519	22	-0.3310211
-2.530201	23	-0.3964957
-6.227691	237	-0.0002520744
-2.573467	24	-0.3172531
-6.227691	244	-0.0001676106
-2.561548	25	-0.318961
-2.607243	26	-0.31046
-6.227691	267	0.00482984
-2.621203	27	-0.3176199
-2.569633	28	-0.3730131
-2.609539	29	-0.3104981
-6.227691	294	0.00482984
-2.231224	3	-0.6137947
-2.467458	30	-0.4287521
-5.829752	300	0.03808095
-2.643474	31	-0.3251646
-2.611952	32	-0.300455
-6.227691	322	-0.0002519458
-2.677647	33	-0.2956345
-2.611269	34	-0.3380025
-2.770491	35	-0.1814983
-2.708192	36	-0.2764724
-6.227691	369	0.02318443
-2.781621	37	-0.1923472
-2.788991	38	-0.229526
-2.732564	39	-0.2601523
-2.284296	4	-0.6099192
-2.858383	40	-0.1656906
-6.227691	400	-0.0001676106
-2.79899	41	-0.2236328
-2.807984	42	-0.1956935
-2.751222	43	-0.2198816
-6.227691	437	0.02318443
-2.784977	44	-0.2316273
-2.803627	45	-0.1999
-2.808149	46	-0.2152984
-2.83036	47	-0.1961169
-2.760454	48	-0.2472181
-2.826463	49	-0.2070787
-6.227691	491	-0.0001740391
-2.192883	5	-0.676523
-2.756694	50	-0.2524679
-2.778368	51	-0.2607886
-6.227691	510	-0.0002516887
-6.227691	513	-0.0002516887
-2.77422	52	-0.2636803
-6.227691	523	-0.0002516887
-2.917105	53	-0.1823716
-2.849748	54	-0.217093
-2.759714	55	-0.2730213
-6.227691	555	0.03858574
-2.802892	56	-0.2454319
-6.227691	561	0.00482984
-2.964766	57	-0.1573666
-2.895556	58	-0.1943525
-2.897989	59	-0.1882682
-6.227691	597	0.002053232
-6.227691	599	-0.00025246
-2.34284	6	-0.5594158
-3.66659	60	-0.03419358
-6.227691	600	-0.0001676106
-3.684245	61	0.02546365
-3.989646	62	0.007460162
-3.808563	63	-0.01161796
-3.631645	64	-0.03988347
-3.56305	65	-0.05342456
-3.556056	66	-0.05578614
-3.657733	67	-0.03558752
-3.713144	68	-0.02340409
-3.624547	69	-0.04089132
-2.318965	7	-0.5559924
-3.335041	70	-0.1044722
-3.618097	71	-0.04258224
-3.56352	72	-0.05354181
-3.866909	73	0.003344271
-3.706554	74	-0.02675489
-3.647908	75	-0.03578195
-3.840302	76	0.02356325
-3.869757	77	0.08662267
-3.857549	78	-0.001769215
-6.227691	785	0.02318443
-3.786783	79	0.01225376
-6.227691	792	-0.0002408906
-2.357346	8	-0.4862847
-3.076782	80	-0.2030838
-6.0516	800	-0.0002939141
-2.949281	81	-0.2114845
-6.227691	814	-0.0001676106
-6.227691	815	-0.0001676106
-6.227691	819	-0.0001676106
-3.128184	82	-0.1842748
-3.004196	83	-0.24282
-3.045705	84	-0.2262324
-6.227691	849	-0.0002408906
-3.111582	85	-0.1859633
-6.227691	851	-0.0002408906
-3.158209	86	-0.1506007
-6.227691	862	-0.0002408906
-6.227691	865	-0.0002516887
-3.146885	87	-0.08222301
-3.222511	88	-0.1043622
-6.227691	884	0.04989733
-3.044422	89	-0.198383
-2.276087	9	-0.5972635
-3.198105	90	-0.1574148
-6.227691	900	-0.0002408906
-3.100425	91	-0.1944076
-3.099939	92	-0.04770812
-3.136905	93	-0.1294563
-3.154157	94	-0.1523915
-3.211494	95	-0.06325069
-6.227691	952	-0.0002408906
-3.27757	96	-0.06862298
-3.222082	97	-0.121151
-3.226391	98	-0.08942711
-3.207745	99	-0.1521541
-1.475198	:	-1.424595
-3.065127	;	-0.2028481
-1.454747	</s>
-99	<s>	-1.47397
-5.414778	=	0.00198773
-6.227691	?	-0.0002439758
-5.926661	@	-0.0004728922
-2.355215	A	-0.6759141
-5.528722	AA	0.04888793
-6.227691	AF	0.0002969127
-6.227691	AFL	0.03858574
-5.487329	AND	-0.0005494599
-2.959465	ARZ	-0.1907751
-6.0516	AT	-0.000378635
-2.975324	ATL	-0.1136635
-4.098969	ATTEMPT	0.01718175
-4.511688	Aa	0.03719994
-4.65949	Abdullah	0.02756761
-4.812718	Abiamiri	0.05484996
-4.10384	Aborted	0.05309815
-4.130782	Above	-0.02882603
-4.382594	Abraham	0.01489809
-5.528722	Ad	0.04888793
-5.683624	Adam	-0.001112179
-3.899312	Adams	0.07019709
-3.764546	Addai	0.08420476
-4.647908	Adeyanju	0.04242029
-4.84748	Adibi	0.1026686
-6.227691	Adjusted	-9.663279e-05
-6.227691	Aeneas	0.0002673103
-4.905472	Afalava	0.02672605
-6.227691	After	0.002282031
-5.273449	Ah	-0.002266864
-4.788359	Aiken	0.1370369
-3.928839	Akers	0.01536773
-4.926662	Alama	0.03381185
-5.382594	Albert	0.04961227
-4.100587	Albright	0.05286359
-3.892234	Alexander	0.1118298
-4.327324	Alford	0.01223598
-5.449541	Ali	0.09148902
-5.75057	Alleman	0.006843447
-3.764546	Allen	0.05268048
-4.609643	Allison	0.1457567
-5.0516	Allred	0.08170601
-6.227691	Along	-0.0002362628
-6.227691	Also	-0.0002505318
-4.671389	Alston	0.03155084
-5.414778	Amano	0.02478808
-4.098969	Amato	0.07537299
-4.65366	Amendola	0.1171806
-4.533087	An	0.03781378
-4.865964	Andersen	0.01819865
-3.344314	Anderson	0.0348725
-6.227691	Andre	-0.0002504033
-6.227691	Andrew	-0.0002090089
-5.010208	Andrews	0.04215671
-5.249968	Andrus	-0.00084023
-5.113749	Angulo	0.08227965
-6.0516	Anthony	-0.0004419276
-6.227691	Antwan	-0.0002493749
-4.96052	Applewhite	0.08162161
-5.829752	Archer	0.03080089
-4.865964	Archuleta	0.02595079
-3.83324	Arizona	-0.05877719
-5.414778	Aromashodu	0.09200491
-5.625632	Around	0.09157002
-4.25226	Arrington	0.1465379
-6.227691	Ashworth	0.04989733
-6.0516	Asiodu	0.02332644
-4.73633	Askew	0.1375922
-4.438817	Asomugha	0.03640445
-4.238687	Assistant	-0.02381622
-6.227691	Assisted	-0.0002353629
-6.227691	At	0.002469169
-4.997243	Atkins	0.04735019
-6.227691	Atl	0.0004016954
-3.835875	Atlanta	-0.04698109
-4.105476	Atogwe	0.05715017
-6.227691	Attemped	-0.00025246
-6.227691	Attempt	0.01526301
-6.227691	Attempts	0.01341595
-4.373386	Austin	0.1362697
-4.361404	Avant	0.1275515
-4.273449	Avery	0.1391211
-4.715808	Avril	0.04395158
-4.683624	Ayanbadejo	0.1297908
-5.487329	Ayers	0.03033827
-4.271043	Ayodele	0.02952261
-6.227691	Azteca	-0.00025246
-2.261879	B	-0.754677
-5.382594	BAL	0.02346548
-6.227691	BARTON	0.01526301
-6.0516	BB	0.001859836
-6.227691	BETHEA	0.01526301
-4.65366	BLOCKED	0.0151398
-2.97715	BLT	-0.07263495
-6.227691	BOSCH	0.01526301
-6.227691	BOWDEN	0.01526301
-6.227691	BRACKETT	0.01526301
-2.912351	BUF	-0.2151211
-6.227691	BULLITT	0.01526301
-6.227691	BUTLER	0.01526301
-4.515884	BY	-0.01131146
-5.414778	Baas	0.04967259
-4.821152	Babin	0.05078309
-4.006278	Babineaux	0.08085466
-6.0516	Back	-0.0005049203
-5.130782	Backus	0.04816419
-5.829752	Backward	0.004326057
-5.75057	Backwards	0.004324846
-4.029035	Bailey	0.07088825
-5.066324	Bajema	0.1050217
-3.830621	Baker	0.0952085
-6.227691	Baldwin	0.02318443
-4.259209	Ball	0.1042874
-5.113749	Balmer	0.04833347
-3.838526	Baltimore	-0.05177486
-4.479504	Bannan	0.05895338
-4.56968	Banta	0.02748616
-3.609121	Barber	0.06928948
-5.528722	Barbre	0.02520882
-5.273449	Barclay	0.06366558
-5.574479	Barksdale	0.03029634
-4.683624	Barnes	0.1300768
-4.247688	Barnett	0.02943175
-5.166994	Barnidge	0.1296578
-4.702647	Barr	0.06860394
-4.424918	Barrett	0.07307668
-5.010208	Barron	0.02728127
-4.192262	Bartell	0.02549402
-4.599303	Barth	0.0326861
-4.112081	Barton	0.02070376
-5.324602	Barwin	0.04958975
-5.249968	Bashir	0.04908611
-4.550998	Baskett	0.1335032
-5.023572	Bassey	0.1342897
-5.926661	Bat	0.007185909
-5.75057	Batch	-0.0006966623
-5.487329	Batiste	0.0499245
-6.227691	Batted	-0.0002285496
-4.13427	Battle	0.1272474
-3.574962	Bay	-0.1004327
-3.903409	Bears	-0.02877629
-3.984654	Beason	0.03621354
-6.0516	Beatty	0.03105339
-4.926662	Becht	0.1474503
-4.65949	Beck	0.09039983
-5.625632	Beckham	0.03069815
-5.487329	Beckum	0.1007386
-5.414778	Beekman	0.02966951
-4.75787	Beisel	0.06470703
-5.227692	Belcher	0.08364029
-3.808563	Bell	0.08818302
-6.227691	Bellamy	0.02318443
-6.227691	Ben	-0.00025246
-3.890233	Bengals	-0.04632588
-6.227691	Benji	-0.0002520744
-3.880362	Bennett	0.1344031
-3.749847	Benson	0.06944332
-4.507533	Bentley	0.09538902
-4.200342	Berger	0.0776791
-4.915938	Berlin	0.03776114
-4.408148	Bernard	0.05326034
-4.098969	Berrian	0.1284729
-4.677464	Berry	0.04320792
-4.247688	Bess	0.1258539
-4.180417	Bethea	0.05138132
-4.202386	Betts	0.1145087
-5.03736	Bey	0.09330863
-4.915938	Biamila	0.02681445
-4.10384	Bidwell	0.02752708
-5.249968	Bienemann	0.05372742
-4.75057	Biermann	0.05428693
-4.45684	Bigby	0.04699191
-6.227691	Bill	-0.00025246
-3.880362	Bills	-0.04813206
-6.227691	Billy	-0.0002479609
-5.574479	Bing	0.09741754
-4.677464	Bingham	0.02292795
-4.002382	Binn	0.04496289
-5.382594	Birk	0.02976623
-4.044422	Bironas	0.02326265
-4.696213	Bishop	0.07732031
-4.599303	Black	0.09784892
-4.392001	Blackburn	0.1224165
-4.278302	Blackmon	0.09873593
-4.812718	Blackstock	0.08601316
-4.574479	Blades	0.1032108
-5.574479	Blakley	0.1011336
-5.186299	Blalock	0.03376917
-6.227691	Blanda	0.02318443
-6.227691	Bledsoe	-0.0001697963
-6.227691	Blindside	-0.0002126086
-4.034567	Block	-0.03014893
-5.324602	Blocked	0.02141952
-5.414778	Blue	0.04129578
-4.295726	Bly	0.05778538
-6.227691	Bobbled	-0.0002345916
-6.227691	Bobby	-0.0002176223
-6.0516	Bockwoldt	0.03105339
-4.112081	Bodden	0.02061587
-6.0516	Bodiford	0.01328964
-4.471817	Boiman	0.09428659
-4.041584	Boldin	0.148914
-4.208575	Boley	0.08330332
-4.034567	Boller	0.07693104
-4.796328	Bollinger	0.001469689
-6.0516	Bolston	0.02305813
-4.219091	Booker	0.1380888
-4.796328	Boone	0.02509118
-5.528722	Boothe	0.02510174
-5.926661	Bootleg	0.05816042
-4.370359	Bosch	0.03435505
-5.829752	Boschetti	0.08484989
-4.428351	Boss	0.1364157
-6.0516	Both	0.007186023
-5.298273	Boulware	0.04387908
-6.227691	Bounced	0.01341595
-5.298273	Bounds	0.006482883
-4.047279	Bowe	0.1091109
-4.865964	Bowen	0.08016161
-4.408148	Bowens	0.1047558
-6.0516	Bowie	0.02305813
-5.75057	Bowl	-0.001126264
-4.905472	Bowman	0.04620459
-6.0516	Boyd	0.01818578
-5.487329	Boykin	0.03032001
-6.227691	Bra	0.04989733
-6.227691	Brace	0.007438479
-4.96052	Brackenridge	0.09747772
-6.227691	Bracket	0.02318443
-4.190265	Brackett	0.03536507
-5.829752	Brad	0.0003622583
-4.043	Bradley	0.135027
-4.026295	Bradshaw	0.1464447
-3.660665	Brady	0.04764622
-4.073877	Branch	0.1155017
-6.227691	Brandon	0.0002889328
-4.507533	Brayton	0.03875216
-3.93989	Breaston	0.1143705
-3.346878	Brees	-0.01296991
-6.0516	Brett	-0.0002167638
-6.227691	Brian	-0.0002495034
-5.683624	Bridges	0.04513864
-4.15581	Briggs	0.06032311
-5.528722	Brinkley	0.03017029
-5.352631	Brisiel	0.02969569
-4.821152	Britt	0.09659781
-6.0516	Britton	0.03105339
-4.594223	Brock	0.06757843
-6.227691	Brodrick	-0.0002383196
-6.227691	Broke	-0.0002500176
-6.0516	Broken	0.0008933524
-3.911721	Broncos	-0.04445652
-4.086242	Brooking	0.01824985
-4.144907	Brooks	0.08003008
-5.625632	Broussard	0.1038197
-3.047853	Brown	-0.0246703
-3.828884	Browns	-0.05423272
-4.081563	Bruce	0.1229855
-5.926661	Bruener	0.03092712
-4.856624	Brunell	0.0476916
-4.385707	Bruschi	0.01494592
-5.625632	Bruton	0.08480058
-4.788359	Bry	0.04325335
-4.915938	Bryan	0.08702841
-3.763053	Bryant	0.153833
-3.859405	Buccaneers	-0.0499303
-4.313878	Buchanon	0.06931751
-4.0589	Buckhalter	0.1017709
-5.528722	Buckley	0.03126604
-4.885269	Buehler	0.01854998
-6.227691	Buenning	0.02318443
-6.227691	Buf	0.04989733
-3.858476	Buffalo	-0.04811312
-5.130782	Buggs	0.02843905
-3.491694	Bulger	-0.06742671
-4.40487	Bullitt	0.1224685
-4.174613	Bullocks	0.03467471
-4.105476	Bulluck	0.04693202
-4.821152	Bulman	0.04539636
-5.249968	Bumpus	0.1016919
-4.479504	Bunkley	0.0651044
-4.54195	Burgess	0.07989201
-4.060374	Burleson	0.1186932
-4.392001	Burnett	0.0920475
-4.266271	Burress	0.0926341
-4.550998	Burton	0.1427538
-3.620773	Bush	0.1019882
-5.829752	Bushrod	0.007199744
-4.865964	Busing	0.04614603
-4.112081	Butler	0.1215468
-5.829752	By	-0.0006297178
-4.75787	Byrd	0.1012399
-2.259326	C	-0.7569441
-2.968217	CAR	-0.1168798
-6.227691	CARTER	0.007438479
-6.227691	CASON	0.01526301
-5.227692	CC	0.04762946
-6.227691	CESAIRE	-0.0002513031
-6.227691	CHANGE	0.03858574
-3.029447	CHI	-0.08690467
-6.227691	CHange	0.04989733
-2.985275	CIN	-0.145305
-6.227691	CLE	0.0005832579
-2.928948	CLV	-0.136113
-4.398388	CONVERSION	-0.01670212
-4.677464	COVERAGE	-0.00886937
-6.227691	COVERAVE	-0.0002394765
-6.227691	COVERGE	-0.0002394765
-4.273449	Cain	0.0698088
-4.464264	Caldwell	0.1356178
-5.414778	Calhoun	0.02423503
-5.324602	Callaghan	0.005475657
-6.0516	Callahan	-0.0003607666
-6.227691	Called	0.01341595
-4.414778	Camarillo	0.1343948
-6.227691	Cambell	0.0008214652
-5.926661	Came	-0.0004879331
-3.457208	Campbell	0.05853446
-5.273449	Cannon	0.0493382
-4.609643	Canty	0.02161576
-3.848386	Cardinals	-0.0519207
-6.227691	Career	-0.00025246
-5.298273	Carey	0.04933758
-5.683624	Cargile	0.02255328
-6.227691	Carl	-0.0002507889
-5.206502	Carlisle	0.04871025
-4.370359	Carlson	0.128109
-4.089389	Carney	0.04660025
-3.822004	Carolina	-0.0534623
-4.092559	Carpenter	0.05086019
-3.765294	Carr	0.05382852
-4.73633	Carriker	0.1012816
-4.984653	Carroll	0.0976633
-3.869757	Carter	0.1210367
-4.379503	Cartwright	0.1127905
-5.574479	Casey	0.1306933
-5.829752	Casillas	0.03095598
-4.150324	Cason	0.1018483
-3.550541	Cassel	0.01240435
-5.926661	Cassell	-0.0005583434
-5.066324	Castille	0.04304805
-4.550998	Castillo	0.06114451
-4.495298	Catch	0.02332336
-3.551913	Caught	-0.0852059
-4.379503	Celek	0.134345
-5.066324	Celestin	0.08216048
-2.535594	Center	-0.5483999
-4.609643	Cesaire	0.09868209
-4.856624	Ch	0.04424972
-6.227691	Chad	0.04989733
-4.812718	Challenged	-0.005380061
-5.130782	Chamberlain	0.08233297
-4.11042	Chambers	0.1184438
-5.227692	Change	0.07967412
-6.227691	Channing	-5.70242e-05
-5.926661	Charged	-0.0006044482
-3.868806	Chargers	-0.04935171
-4.210659	Charles	0.151824
-4.895253	Charleston	0.04121963
-6.227691	Charlie	-0.00025246
-5.206502	Chatham	0.09993722
-4.192262	Chatman	0.1166823
-6.227691	Chavis	-0.0002523315
-4.355536	Chavous	0.03336775
-5.249968	Cherilus	0.04891773
-5.574479	Chester	0.006555125
-6.227691	Chi	0.0004016954
-3.882318	Chicago	-0.05236743
-3.905473	Chiefs	-0.04520433
-4.225526	Chillar	0.02740039
-4.204439	Choice	0.126017
-4.915938	Chop	-0.005111428
-4.796328	Chris	-0.006612304
-5.382594	Chukwurah	0.1067177
-5.206502	Chung	0.05155745
-6.227691	Cieslak	0.01341595
-3.874545	Cincinnati	-0.05032264
-3.885269	City	-0.002274547
-5.0516	Ciurciu	0.08189848
-5.449541	Clabo	0.006177093
-5.683624	Clady	0.03054854
-5.574479	Clair	0.02533486
-4.780534	Clancy	0.03009991
-3.620237	Clark	0.08941647
-5.829752	Clarke	0.02583942
-5.206502	Clary	0.03380719
-3.910674	Clayton	0.1127074
-4.038763	Clemens	0.05198552
-5.829752	Clement	0.02583942
-4.084677	Clements	0.1179441
-4.555594	Clemons	0.1086428
-3.820301	Cleveland	-0.06018841
-5.227692	Clifton	0.02906692
-5.829752	Clipping	0.007059678
-5.227692	Clowney	0.1158983
-6.227691	Club	-0.0002522029
-6.227691	Coaching	-0.00025246
-6.227691	Coates	0.007438479
-4.743392	Coats	0.125973
-4.40487	Cobbs	0.1465611
-4.829752	Cochran	0.04520678
-4.599303	Cody	0.09843533
-6.0516	Coe	0.007312175
-4.533087	Coffee	0.1003406
-4.537496	Cofield	0.01966834
-5.206502	Cohen	0.02906191
-4.609643	Colbert	0.1349816
-5.324602	Colclough	0.08346378
-4.006278	Cole	0.01171702
-3.889235	Coleman	0.08748712
-4.150324	Coles	0.1321351
-6.227691	Colin	-0.0002425618
-5.528722	Collar	0.006429078
-5.352631	Colledge	0.02473106
-4.875509	Collie	0.1046918
-5.926661	Collier	-0.0005777079
-3.475259	Collins	-0.0499358
-5.186299	Colombo	0.0485408
-5.0516	Colon	0.02269553
-4.090971	Colquitt	0.03248767
-4.100587	Colston	0.1134887
-3.957013	Colts	-0.0162883
-4.984653	Colvin	0.04722505
-6.227691	Complete	0.0007901517
-6.227691	Completed	-0.0002487321
-6.0516	Concussion	0.0393242
-4.011526	Condo	0.04609874
-5.528722	Condren	0.03044602
-4.546451	Conduct	0.04657952
-5.273449	Connell	0.09671607
-5.528722	Connolly	-0.001258775
-5.414778	Connor	0.02979237
-4.560239	Considine	0.09744971
-4.150324	Contact	-0.02162266
-4.625632	Cook	0.1399097
-4.196283	Cooley	0.1262984
-3.923417	Cooper	0.09159987
-6.227691	Cop	0.04989733
-4.875509	Copper	0.1394189
-6.227691	Cordova	0.007438479
-6.0516	Corey	-0.0004860235
-4.709178	Corner	0.04304964
-5.097358	Corto	0.1110406
-5.066324	Cosby	0.08948432
-4.905472	Costanzo	0.102711
-6.227691	Coston	0.007438479
-4.053051	Cotchery	0.1205275
-5.324602	Cottam	0.1007864
-6.0516	Cou	0.04977102
-4.579332	Cousin	0.04113036
-6.227691	Cousins	0.007438479
-4.341201	Coverage	-0.01775918
-6.227691	Coverge	0.0008905426
-3.920196	Cowboys	-0.04366723
-4.487329	Cox	0.1283563
-5.298273	Crabtree	0.06383825
-5.829752	Crackback	0.007059678
-4.355536	Craft	0.09055243
-5.487329	Cramer	0.08101919
-4.120482	Crayton	0.1316015
-3.884283	Cribbs	0.1409754
-4.290676	Crocker	0.09221704
-6.227691	Crockett	0.0008837117
-3.947797	Cromartie	0.1066138
-3.978493	Crosby	0.01616621
-6.0516	Crossbar	0.007312175
-5.829752	Crossing	-0.0006157059
-4.107118	Crowder	0.08837394
-4.5244	Crowell	0.09587988
-4.105476	Croyle	0.02270548
-4.388843	Crumpler	0.1355557
-5.75057	Cu	0.04939234
-4.599303	Culberson	0.09784892
-3.95469	Culpepper	0.01482715
-4.702647	Culver	0.1126985
-5.066324	Cundiff	0.002827055
-5.574479	Curl	-0.001242945
-4.202386	Curry	0.1370832
-4.112081	Curtis	0.1200354
-4.604443	Cushing	0.04143214
-3.35321	Cutler	-0.03889631
-2.091368	D	-0.9025026
-3.013908	DAL	-0.06548591
-6.227691	DAVIS	-0.0002513031
-6.227691	DE	-0.0002523315
-2.992416	DEN	-0.06718026
-2.936212	DET	-0.2037695
-5.926661	DOUBTFUL	0.06489009
-6.227691	DOWN	0.04989733
-6.227691	DSAL	0.0004235816
-6.227691	DT	-0.0002522029
-5.926661	DURANT	0.01488549
-4.73633	Da	0.0423834
-5.528722	Dacus	0.03017029
-4.689873	Dahl	0.1000587
-3.789941	Dallas	-0.01161693
-5.926661	Dan	-0.0007037728
-3.964056	Daniels	0.1086942
-6.227691	Danny	-8.480206e-05
-4.026295	Dansby	0.1008189
-4.34403	Darby	0.1005187
-4.313878	Darche	0.06523207
-6.227691	Daren	-0.0002495034
-5.414778	Darius	0.02979237
-4.677464	Darling	0.1370563
-4.370359	Davenport	0.1442626
-4.5244	David	0.1073765
-3.301092	Davis	-0.009011224
-4.18433	Dawkins	0.08190253
-3.93989	Dawson	0.1427238
-4.221226	Dayne	0.08665495
-5.75057	De	0.04939234
-6.227691	DeAngelo	0.01526301
-4.73633	DeCoud	0.04415499
-6.227691	DeMarcus	-0.0002146655
-4.204439	DeOssie	0.05992796
-6.227691	DeShaun	0.04989733
-4.604443	DeVries	0.0986841
-4.040171	Dearth	0.04819873
-6.227691	Deep	-0.0002466754
-3.366755	Defensive	-0.1510339
-6.227691	Deflect	0.004613344
-6.227691	Deflected	-0.0002353629
-6.227691	Deion	-0.0002160796
-3.971215	Delay	-0.04315213
-5.829752	Delayed	-0.0007516324
-3.597773	Delhomme	-0.03157002
-5.0516	Deljuan	0.04638604
-4.796328	Delmas	0.03958135
-6.0516	Deloatch	0.03105339
-4.227692	Demps	0.09611274
-5.273449	Dendy	0.02916323
-3.910674	Denney	0.05346575
-3.892234	Denver	-0.04897888
-5.683624	Derrick	-0.0008386166
-5.414778	Det	-0.0009670205
-3.859405	Detroit	-0.05545221
-6.0516	Deuce	-0.0003589668
-6.227691	Devin	0.04989733
-4.84748	Devito	0.04599093
-6.227691	Devree	0.04989733
-4.108766	Dh	0.01811887
-4.5244	DiGiorgio	0.09672186
-3.853861	Diego	-0.05599262
-5.227692	Diehl	0.04879205
-5.227692	Dielman	0.0338945
-5.249968	Diem	0.005436365
-6.0516	Dietrich	0.03845944
-4.408148	Diggs	0.03571884
-4.438817	Diles	0.09377337
-4.113749	Dilfer	0.02529847
-5.625632	Dillard	0.03674006
-6.227691	Dillon	0.00242519
-4.865964	Dinkins	0.1082237
-6.227691	Dino	-0.00011605
-4.120482	Direct	-0.03142181
-5.227692	Direction	0.02522081
-5.414778	Disqualification	0.006051157
-5.926661	Diving	-0.0003431591
-5.449541	Dixon	0.03521106
-4.885269	Dizon	0.03129548
-4.361404	Dobbins	0.09047812
-4.35846	Dockery	0.1023482
-4.249968	Dockett	0.03852995
-3.915938	Dolphins	-0.04400507
-5.829752	Dombrowski	0.007059678
-3.95585	Dorenbos	0.04093875
-4.168886	Dorsey	0.1420756
-5.75057	Doss	0.02294775
-6.227691	Dotson	0.007438479
-5.75057	Double	-0.0008767974
-4.905472	Doubtful	0.04487362
-5.206502	Doucet	0.07247094
-4.599303	Doughty	0.02099064
-4.14851	Douglas	0.1323403
-5.683624	Douzable	0.02283951
-5.829752	Down	0.04940005
-6.227691	Downed	0.0008905426
-4.398388	Downfield	-0.01664053
-4.487329	Draft	0.0183169
-4.382594	Dreessen	0.1273112
-3.668983	Drew	0.07938717
-4.102211	Driver	0.122346
-5.14851	Dropped	0.06206256
-4.533087	Droughns	0.1375516
-4.709178	Drummond	0.09870099
-5.273449	Du	0.04788087
-4.398388	Duckett	0.08617822
-6.0516	Due	0.01328964
-5.166994	Dugan	0.05783571
-4.392001	Dumervil	0.03503606
-4.788359	Dump	-0.001814136
-5.010208	Dunbar	0.02755699
-3.821151	Dunn	0.08300015
-4.208575	Durant	0.02627726
-6.227691	During	0.001423426
-4.972419	Dvoracek	0.02719984
-5.066324	Dwight	0.1451843
-6.227691	Dykes	0.02318443
-5.683624	Dyson	0.02255328
-2.723629	E	-0.4059083
-6.227691	ED	-0.00025246
-6.227691	EDWARDS	0.01526301
-3.226607	END	-0.199494
-3.823714	Eagles	-0.05452726
-5.75057	Ealy	0.07571193
-4.96052	Eason	0.1003813
-5.227692	Echemandu	0.0694018
-4.821152	Eckel	0.1055429
-4.007584	Economos	0.04542368
-5.926661	Ed	-0.0004033375
-4.856624	Edelman	0.09114677
-3.291681	Edwards	-0.009118497
-6.227691	Eischeid	0.008604816
-4.997243	Ekejiuba	0.1038317
-4.856624	Ekuban	0.04589483
-4.060374	El	0.1290182
-3.980947	Elam	0.1122486
-5.75057	Eligible	0.05043662
-6.227691	Ellard	-5.70242e-05
-5.352631	Ellerbe	0.02954061
-3.903409	Ellis	0.1205008
-4.182369	Ellison	0.05490486
-4.324602	Encroachment	-0.01207533
-4.285684	End	0.01704933
-6.227691	Enforced	0.0007901517
-4.677464	Engelberger	0.09389815
-3.918061	England	-0.04871573
-5.206502	English	0.02908017
-4.144907	Engram	0.1229722
-6.227691	Equipment	-0.00025246
-6.0516	Er	0.04977102
-6.227691	Eric	-0.0001717248
-6.227691	Erik	-0.0002518173
-4.937657	Ernster	0.04588706
-5.75057	Essex	0.03082979
-4.780534	Estandia	0.1329003
-6.0516	Eubanks	0.03105339
-4.424918	Eugene	0.07024067
-6.227691	Euhus	0.007438479
-3.834116	Evans	0.1062739
-5.926661	Everett	0.03740397
-6.227691	Excess	-0.0002504033
-6.227691	Extra	5.757806e-05
-3.057283	F	-0.2197731
-6.227691	FAGGINS	0.01526301
-4.647908	FAILS	0.04064869
-6.0516	FG	0.0006638481
-6.227691	FIRST	-0.00025246
-6.227691	FOOTE	0.01526301
-6.0516	FORMATION	0.0496449
-3.314939	FUMBLES	-0.132286
-6.227691	Fabian	-6.846995e-05
-5.829752	Fabini	0.007059678
-4.163234	Face	-0.02834635
-4.515884	Faggins	0.09584437
-5.574479	Faine	0.02533486
-5.273449	Fair	-0.002219575
-5.829752	Fake	-0.000650402
-3.86408	Falcons	-0.04990913
-3.35408	False	-0.1566896
-5.249968	Faneca	0.04891773
-4.722542	Fanene	0.02414314
-3.824571	Fargas	0.08009957
-3.994696	Farrior	0.1195047
-5.023572	Farwell	0.1044359
-4.520122	Fasano	0.1326059
-4.014174	Faulk	0.1471491
-5.683624	Fauria	0.02981895
-3.427662	Favre	-0.04592725
-4.027662	Feagles	0.04838028
-6.227691	Federkeil	0.007438479
-4.671389	Feeley	-0.0005997457
-4.043	Feely	0.01935989
-6.0516	Felix	0.0001626292
-4.84748	Fells	0.138646
-4.948938	Felton	0.127824
-4.15581	Ferguson	0.1116603
-6.227691	Ferotte	-0.0002450042
-5.683624	Fiammetta	0.1131958
-3.95585	Field	-0.04467301
-3.979718	Fields	0.06772876
-5.574479	Fifita	0.03047408
-4.376433	Figurs	0.1590314
-5.487329	Fincher	0.05547361
-4.96052	Fine	0.1470742
-6.227691	Fingertip	-0.0002523315
-4.885269	Finley	0.1455922
-4.210659	Finnegan	0.09564079
-4.702647	Finneran	0.1260567
-6.0516	First	-0.0004694398
-4.367354	Fisher	0.03413936
-3.896265	Fitzgerald	0.09484254
-3.749125	Fitzpatrick	0.05433001
-4.589202	Fitzsimmons	0.1417783
-6.227691	Five	0.0006092752
-3.545998	Flacco	0.0186111
-5.75057	Flag	-0.000867799
-6.0516	Flanagan	0.007312175
-6.227691	Flanker	-0.0002479609
-5.625632	Flare	0.00407257
-5.0516	Flat	0.00118126
-5.487329	Flea	0.03720154
-6.227691	Fleaflicker	0.04989733
-5.926661	Flee	0.03808438
-3.95238	Fletcher	0.09619139
-5.75057	Flicker	0.03897981
-4.33839	Florence	0.03283828
-4.418132	Flowers	0.04566939
-4.625632	Floyd	0.1351121
-5.227692	Fluellen	0.02170234
-5.625632	Fly	-0.000994176
-4.696213	Flynn	0.06005183
-5.487329	Fokou	0.05021925
-4.108766	Folk	0.02416398
-6.0516	Follett	0.02305813
-4.198308	Foote	0.1343166
-4.722542	Ford	0.02447685
-4.223371	Formation	0.03736939
-5.926661	Forney	0.007185909
-4.438817	Forsett	0.1279582
-3.778213	Forte	0.08775831
-5.130782	Forward	-0.00296484
-5.324602	Foschi	0.1417423
-3.91488	Foster	0.114446
-4.445936	Foul	-0.007339512
-4.677464	Fowler	0.07712073
-4.460536	Fox	0.1054325
-4.4353	Foxworth	0.03621054
-5.166994	Fraley	0.04830926
-4.948938	Frampton	0.08122668
-5.683624	Francies	0.03070363
-4.926662	Francis	0.05705877
-3.738436	Francisco	-0.007096373
-4.445936	Franklin	0.1185825
-4.997243	Franks	0.1395646
-5.227692	Fraser	0.04879205
-4.948938	Frazier	0.1001117
-4.804446	Free	-0.006608863
-5.528722	Freeman	0.01159262
-4.537496	Freeney	0.01978909
-3.804446	Frerotte	-0.009190895
-5.75057	Friedman	0.02061665
-4.280748	Frost	0.0819208
-6.0516	Fryar	0.03228571
-4.796328	Frye	0.009776829
-6.227691	Fubled	-0.0002466754
-4.96052	Fudge	0.1043368
-4.238687	Fujita	0.0282979
-6.227691	Full	-0.0002225075
-4.550998	Fuller	0.139237
-5.683624	Fumble	-0.0009398025
-6.227691	Fumbled	-0.0002345916
-4.266271	Furrey	0.1107304
-2.876572	G	-0.3127961
-3.844775	GAME	-0.03646657
-3.018311	GB	-0.1579937
-2.910778	GOOD	-0.3362112
-6.227691	GREENWAY	0.01526301
-6.227691	GREGORY	0.01526301
-4.599303	Gado	0.1020585
-4.408148	Gaffney	0.1294851
-4.385707	Gafford	0.06825852
-4.221226	Gage	0.1268819
-4.631094	Gaines	0.1351539
-4.172696	Gaither	0.08146961
-5.273449	Gallery	0.02916323
-4.385707	Galloway	0.1012042
-4.232057	Gamble	0.03704577
-3.96762	Game	-0.03641087
-5.03736	Gandy	0.04758032
-5.186299	Ganther	0.05220636
-5.75057	Garay	0.0306747
-3.609121	Garcia	-0.03786618
-4.555594	Garcon	0.1388459
-5.683624	Gardner	0.03054854
-5.625632	Garner	-0.0009917336
-3.365859	Garrard	-0.02345307
-5.487329	Garza	0.02508281
-6.0516	Gasperson	0.04977102
-5.574479	Gaston	0.02230108
-4.081563	Gates	0.1119163
-6.0516	Gatewood	0.02305813
-6.227691	Gattis	0.007438479
-4.11042	Gay	0.1137113
-4.915938	Gbaja	0.03368692
-5.625632	Ge	0.04914006
-4.379503	Geathers	0.044507
-6.227691	Gessner	0.007438479
-6.227691	Ghent	0.04989733
-5.382594	Ghiaciuc	0.02976623
-5.081563	Gholston	0.08195668
-4.388843	Gi	0.03304865
-3.861269	Giants	-0.04983697
-6.227691	Gibril	-0.0001034482
-5.113749	Gibson	0.08308005
-5.298273	Gilberry	0.02928898
-5.926661	Gilbert	0.02293186
-5.829752	Gilles	0.03095598
-4.696213	Gilmore	0.1413291
-3.999805	Ginn	0.1200788
-4.875509	Giordano	0.05600531
-5.113749	Glenn	0.09912261
-4.631094	Glover	0.0221303
-3.957013	Goal	-0.04475287
-4.321896	Gocong	0.03220325
-6.0516	Goddard	0.007312175
-4.414778	Godfrey	0.03596235
-5.010208	Goff	0.04732987
-4.937657	Goings	0.0497249
-4.709178	Gold	0.04365866
-5.324602	Goldberg	0.02971043
-4.515884	Goldson	0.09584437
-4.702647	Golston	0.04370355
-3.834116	Gonzalez	0.1014801
-4.030411	Good	-0.03040271
-4.212751	Goode	0.08270203
-5.010208	Gooden	0.02755699
-4.453175	Goodman	0.0374207
-5.298273	Goodson	0.02764704
-5.449541	Goodwin	0.03506318
-4.35846	Gordon	0.09125175
-3.672597	Gore	0.09642722
-6.0516	Gorin	0.03105339
-3.950083	Gostkowski	0.03645499
-4.076935	Gould	0.01216931
-6.227691	Grabbing	0.001423426
-4.715808	Gradkowski	0.05649212
-6.227691	Gradkowskj	-0.0001740391
-3.430424	Graham	0.0714974
-4.75057	Gramatica	-0.0007931367
-3.521828	Grant	0.05174711
-4.418132	Gray	0.03698663
-6.0516	Greco	0.0211026
-3.421851	Green	0.07866676
-4.915938	Greene	0.1369108
-4.094153	Greenway	0.05646842
-4.293193	Greenwood	0.03070827
-4.346878	Greer	0.07051501
-4.625632	Gregg	0.04192593
-4.546451	Gregory	0.06073292
-5.010208	Greisen	0.08133027
-6.227691	Grennan	0.02318443
-3.887248	Griese	-0.02064931
-3.775139	Griffin	0.08669668
-4.689873	Griffith	0.1492966
-5.382594	Grigsby	0.09182066
-4.555594	Grimes	0.03948743
-5.186299	Gross	0.03376917
-4.210659	Grossman	0.02603658
-4.631094	Grounding	-0.002180978
-5.324602	Grove	0.02449718
-4.905472	Groves	0.02696603
-5.487329	Grubbs	0.03004428
-6.227691	Guion	0.02318443
-5.926661	Gunheim	0.03724476
-5.273449	Gurode	0.04929252
-6.227691	Gus	-0.00025246
-5.683624	Gutierrez	0.004015383
-4.584239	Guyton	0.09750086
-5.574479	Guzman	0.106972
-3.24339	H	-0.1433665
-5.926661	HALL	0.01501044
-6.227691	HAMLIN	0.01526301
-5.926661	HARRISON	0.01501044
-6.227691	HART	0.01526301
-6.227691	HATCHER	-0.0001822675
-6.227691	HOLLY	0.01526301
-6.0516	HOPE	0.01513671
-2.948938	HST	-0.1263993
-4.584239	Hackett	0.1036362
-5.414778	Hadnot	0.02483089
-4.709178	Hagan	0.1312983
-5.081563	Hagans	0.1276815
-4.683624	Haggan	0.09385827
-4.464264	Haggans	0.1145025
-4.495298	Hagler	0.02310045
-6.227691	Hail	-0.00025246
-6.0516	Haley	0.03105339
-6.227691	Halfback	0.00482984
-4.367354	Hali	0.03413936
-3.502188	Hall	0.06117136
-6.227691	Haloti	-0.0002325347
-5.829752	Halterman	0.103764
-4.984653	Hamilton	0.04042031
-4.254564	Hamlin	0.02965742
-4.642231	Hampton	0.02208314
-5.926661	Hand	0.03822574
-6.227691	Handed	-0.0002353629
-5.449541	Handoff	0.01279877
-4.564934	Hands	-0.003784227
-6.227691	Hang	-0.0002353629
-5.574479	Hangartner	0.04488643
-6.0516	Hanie	0.004703537
-6.227691	Hansen	-0.0002423047
-3.687989	Hanson	0.1183921
-6.0516	Hanyesworth	0.0003047458
-5.449541	Hara	0.03007339
-4.438817	Haralson	0.09389877
-6.0516	Hard	-0.0003752928
-5.414778	Hardwick	0.02994746
-5.0516	Hardy	0.1407235
-4.772847	Hargrove	0.0791278
-6.227691	Harold	0.0002230395
-3.866909	Harper	0.09766424
-5.186299	Harrell	0.0289363
-4.020866	Harrington	-0.01448055
-3.339512	Harris	-0.0008943826
-3.583746	Harrison	0.09505434
-4.202386	Hart	0.1196232
-4.555594	Hartley	0.03120338
-5.227692	Hartline	0.1157085
-4.984653	Hartsock	0.1405316
-5.227692	Hartwig	0.1059409
-4.743392	Harvey	0.04398403
-4.584239	Harvin	0.1132336
-6.227691	Harvins	-0.0002513031
-3.499744	Hasselbeck	-0.02233484
-4.75787	Hatcher	0.1037487
-4.401617	Hauschka	0.01605576
-5.227692	Havner	0.1106623
-4.266271	Hawk	0.009467052
-4.865964	Hawkins	0.1548828
-4.75057	Hawthorne	0.04461437
-4.300835	Hayden	0.06801143
-4.445936	Haye	0.03689094
-3.966429	Hayes	0.01823575
-5.528722	Haynes	0.06729674
-4.313878	Haynesworth	0.05870578
-5.249968	Haynos	0.1424566
-4.487329	Hayward	0.1256657
-4.709178	He	-0.007704862
-4.330065	Heap	0.1265824
-6.227691	Heat	-0.00025246
-6.227691	Heavy	-0.0002434616
-4.780534	Hebert	0.131683
-4.905472	Hedgecock	0.143846
-4.574479	Heiden	0.1096263
-6.227691	Heinrich	0.02318443
-5.487329	Heitmann	0.05003493
-4.780534	Heller	0.1378304
-6.227691	Helmet	0.01341595
-3.865021	Henderson	0.1083504
-4.293193	Henne	0.09164621
-3.935436	Henry	0.1163021
-5.574479	Henson	0.01769216
-4.113749	Hentrich	0.05483637
-5.926661	Herndon	0.02293186
-5.273449	Herremans	0.0385693
-5.382594	Herrera	0.04954669
-4.780534	Herring	0.1014407
-5.113749	Herron	0.08272943
-3.899312	Hester	0.1119769
-5.273449	Heyer	0.04921183
-5.03736	Heyward	0.03493777
-4.268651	Hicks	0.09644888
-4.168886	Higgins	0.1328303
-6.0516	High	-0.0003443115
-5.382594	Highsmith	0.08371548
-3.961695	Hightower	0.1074951
-3.46614	Hill	0.0681565
-4.537496	Hillenmeyer	0.09683482
-4.26155	Hilliard	0.1321775
-4.438817	Hillis	0.1474589
-3.834995	His	-0.05826496
-5.03736	Hit	-0.004087304
-4.15581	Hixon	0.1215576
-4.117102	Hobbs	0.08947722
-4.84748	Hobson	0.02570141
-5.227692	Hochstein	0.0432901
-4.084677	Hodel	0.05169267
-6.227691	Hodgdon	0.007438479
-5.449541	Hodge	0.08448923
-4.424918	Hodges	0.04344236
-5.0516	Hoke	0.02838263
-4.937657	Holcomb	0.008983791
-2.87224	Holder	-0.3265667
-3.324059	Holding	-0.1585138
-4.885269	Holland	0.1027916
-4.499338	Holliday	0.03886693
-4.765294	Holly	0.04450626
-3.953534	Holmes	0.1409497
-3.811884	Holt	0.0955387
-4.34403	Hood	0.0425604
-6.0516	Hook	-0.0003632091
-4.75787	Hoover	0.1350392
-4.263904	Hope	0.0564339
-4.948938	Horn	0.1090909
-5.414778	Horse	-0.001761825
-4.40487	Horton	0.06197938
-4.063339	Houser	0.05005867
-3.966429	Houshmandzadeh	0.1125014
-3.694301	Houston	-0.01670535
-4.487329	Hovan	0.03833035
-3.971215	Howard	0.1091998
-6.227691	Howey	-9.251777e-05
-4.895253	Howling	0.140914
-5.130782	Hoyer	0.005405279
-6.0516	Hoyte	0.007312175
-3.990903	Huard	0.0166485
-4.689873	Huber	0.09430674
-3.041442	Huddle	-0.2458953
-4.765294	Hudson	0.101192
-4.349745	Huff	0.08999356
-4.915938	Hughes	0.1333341
-5.449541	Humber	0.02991831
-5.130782	Humphrey	0.09988406
-5.14851	Hunt	0.09514437
-4.560239	Hunter	0.09139261
-5.926661	Huntley	0.02293186
-4.73633	Hurd	0.1377382
-6.227691	Hurdled	0.0004016954
-4.507533	Hutchins	0.03823986
-5.625632	Hutchinson	0.05030264
-3.481058	I	-0.07199905
-3.025203	IND	-0.08798711
-6.0516	INJURED	-0.000378635
-5.066324	INJURY	0.03506393
-5.528722	INT	0.05867481
-3.465013	INTERCEPTED	-0.1249946
-4.715808	Idonije	0.04348755
-5.227692	Ihedigbo	0.08315331
-3.533087	Illegal	-0.1115366
-6.227691	In	-0.0002369055
-5.206502	Incognito	0.02894127
-5.829752	Incomplete	0.005162764
-6.227691	Ind	0.04989733
-3.943261	Indianapolis	-0.04624098
-4.398388	Ineligible	-0.01671934
-4.499338	Infraction	-0.005626803
-4.268651	Ingram	0.09736264
-6.227691	Initial	-0.0002434616
-5.75057	Injured	0.0002333584
-6.227691	Injures	0.002924997
-5.0516	Injury	0.06180587
-5.926661	Inside	-0.0006178177
-6.227691	Intended	0.008604816
-4.631094	Intentional	-0.009862019
-3.763053	Interference	-0.06048331
-4.972419	Into	-0.002850418
-5.926661	Invalid	-0.0005029734
-5.14851	Irons	0.1050851
-6.0516	Irving	-0.000378635
-6.227691	Isaac	-0.0002167224
-6.227691	It	0.0004310493
-4.460536	Ivy	0.05802817
-5.382594	Iwebema	0.04485496
-4.729381	Iwuh	0.04419975
-4.972419	Izzo	0.04678607
-1.982698	J	-1.000442
-6.0516	JACKSON	0.01501176
-6.0516	JAMES	0.01513671
-6.0516	JAMMER	0.01513671
-2.961813	JAX	-0.1193462
-6.227691	JENNINGS	0.01526301
-5.298273	JJ	0.00776008
-5.926661	JOHNSON	0.01504579
-5.683624	JONES	0.01450691
-5.926661	JOSEPH	0.01501044
-5.081563	Ja	0.04662532
-5.926661	JaMarcus	-0.0006138978
-2.960637	Jackson	-0.1234332
-3.853861	Jacksonville	-0.0559921
-3.717818	Jacobs	0.08098893
-6.227691	Jacoby	0.0002889328
-3.865021	Jaguars	-0.0497977
-6.227691	Jake	-0.0002506603
-6.227691	Jameel	-0.0002001381
-3.583253	James	0.06393521
-5.829752	Jamison	0.08484989
-6.0516	Jammal	1.013748e-05
-4.141332	Jammer	0.07927842
-4.107118	Janikowski	0.017298
-4.689873	Jansen	0.09968284
-5.574479	Jarmon	0.02256939
-6.227691	Jarret	0.000343122
-4.856624	Jarrett	0.1211979
-6.0516	Jason	0.0496853
-6.227691	Jaworski	0.04989733
-5.926661	Jax	0.0001082039
-4.26155	Je	0.02737468
-5.829752	Jean	0.03820694
-4.346878	Jeanty	0.09014841
-5.206502	Jefferson	0.04896116
-3.785212	Jenkins	0.09352054
-3.496103	Jennings	0.04552063
-5.683624	Jerious	0.06659336
-6.227691	Jermaine	-0.0001911386
-5.625632	Jerry	0.02280186
-6.227691	Jet	0.02318443
-3.859405	Jets	-0.01816855
-6.0516	Jim	-0.000116019
-6.0516	Jimmy	0.0001446104
-5.926661	Jimoh	0.08497613
-5.528722	Jo	0.04888793
-5.625632	Joe	0.03070465
-6.227691	Johnnie	-0.0001903673
-2.862953	Johnson	-0.1723116
-5.75057	Johnston	0.03082979
-6.227691	Joiner	0.008604816
-4.479504	Jolly	0.03816008
-2.904336	Jones	-0.06063005
-5.625632	Joppru	0.08480058
-3.915938	Jordan	0.1144534
-4.232057	Joseph	0.03774668
-4.885269	Josh	0.04456118
-6.227691	Jospeh	0.02318443
-5.75057	Ju	0.04939234
-6.227691	Judge	-0.0002523315
-6.227691	Julius	0.0002889328
-4.367354	June	0.1207529
-6.227691	Juqua	-0.0001629819
-4.589202	Jurevicius	0.134658
-5.625632	Justice	0.02546095
-2.366935	K	-0.6678613
-2.982302	KC	-0.07119104
-6.227691	KEARSE	0.01526301
-6.0516	KEIAHO	0.01513671
-6.0516	KIWANUKA	0.01513671
-5.926661	KNIGHT	0.01501044
-5.829752	KO	-0.0006661389
-6.227691	KORet	0.008604816
-5.926661	KOReturn	0.0150117
-5.487329	Kaczur	0.04997009
-3.96762	Kaeding	0.007553361
-4.4353	Kaesviharn	0.09402832
-5.574479	Kalil	0.01147233
-5.166994	Kalu	0.02891316
-4.236465	Kampman	0.02792323
-3.886257	Kansas	-0.05216199
-4.772847	Kapinos	0.07069981
-6.227691	Kareem	-0.0002384481
-4.73633	Karney	0.1107864
-4.247688	Kasay	0.001945145
-5.14851	Kassell	0.08245847
-3.994696	Katula	0.04460177
-4.589202	Kearse	0.04132544
-5.14851	Keasey	0.09904182
-5.298273	Keglar	0.02989788
-4.788359	Kehl	0.07110231
-4.221226	Keiaho	0.08449627
-4.392001	Keisel	0.1120316
-4.546451	Keith	0.1329705
-4.349745	Keller	0.1337987
-5.081563	Kelley	0.02847775
-4.064829	Kelly	0.1047889
-4.313878	Kelsay	0.07204637
-4.471817	Kemoeatu	0.03780932
-6.227691	Ken	-0.0002268784
-5.683624	Kendall	0.04513864
-4.487329	Kennedy	0.03892501
-5.03736	Kennison	0.1395947
-6.227691	Kenny	-0.0001911386
-5.352631	Kent	0.1032247
-4.259209	Kern	0.02858234
-4.418132	Kerney	0.03591526
-6.227691	Kerry	-0.0001073059
-5.926661	Kershaw	0.02293186
-4.035961	Kevin	-0.03730481
-5.227692	Key	-0.002644036
-6.227691	Keyshawn	0.000343122
-4.047279	Kick	-0.02976182
-4.856624	Kicker	0.001790877
-6.227691	Kicking	-0.0002500176
-5.926661	Kickoff	0.0001267464
-5.926661	Killings	0.01043622
-4.254564	King	0.1297578
-6.227691	Kinnison	9.083829e-06
-4.584239	Kirschke	0.118166
-3.675632	Kitna	0.02847086
-4.41145	Kiwanuka	0.03593497
-5.186299	Klecko	0.1002607
-4.838526	Kleinsasser	0.1447067
-5.113749	Klopfenstein	0.1412393
-4.03736	Kluwe	0.02943202
-4.4353	Knight	0.0365248
-5.166994	Knighton	0.02896604
-5.382594	Knocked	-0.001741773
-4.689873	Knox	0.1362982
-3.994696	Koch	0.04925965
-3.813554	Koenen	0.04252872
-6.227691	Koets	0.007438479
-4.300835	Kolb	0.04172998
-5.528722	Koppen	0.03032538
-5.487329	Kosier	0.0499245
-4.972419	Koutouvides	0.081284
-5.574479	Kowalewski	0.07445004
-6.227691	Kozlowski	0.01341595
-5.829752	Krause	0.04539099
-5.449541	Kreider	0.1243117
-5.352631	Kreutz	0.04942083
-5.829752	Kriewaldt	0.03080089
-6.227691	Kruger	0.02318443
-4.780534	Kuhn	0.1233492
-5.249968	Kuper	0.04908611
-4.65949	Kv	0.04089608
-3.990903	Kyle	0.04392789
-2.501005	L	-0.5628619
-6.227691	LA	-0.0001912672
-6.227691	LANDRY	0.01526301
-6.227691	LB	-0.0001740391
-5.926661	LEONHARD	0.01488549
-6.0516	LEWIS	0.01501176
-4.73633	LaBoy	0.04403768
-5.625632	LaRocque	0.07540852
-4.915938	Lacey	0.09697781
-6.227691	Ladarius	-0.0002417905
-4.05743	Ladouceur	0.04959293
-5.113749	Lake	0.02860782
-4.772847	Landri	0.07138306
-4.0516	Landry	0.07380645
-6.0516	Lang	0.03105339
-4.75057	Langford	0.02960272
-6.0516	Lansanah	0.02305813
-6.227691	Largent	0.008604816
-5.03736	Larsen	0.0817732
-4.15581	Larson	0.05823227
-6.0516	Last	-0.0005045347
-6.0516	Late	-0.0004977216
-4.564934	Lateral	0.003892967
-6.227691	Lateraled	0.01341595
-4.689873	Laurinaitis	0.06970613
-4.856624	Laury	0.07991025
-4.702647	Law	0.04900149
-5.298273	Lawrence	0.05102568
-5.625632	Lawrie	0.1014018
-5.097358	Laws	0.04809017
-4.438817	Lawson	0.124741
-4.96052	Lawton	0.1464666
-6.227691	Le	-0.0001697963
-5.75057	LeVoir	0.01779578
-3.944391	Leach	0.1116518
-6.0516	Leahy	0.0383333
-6.227691	Leavy	0.0007901517
-4.295726	Leber	0.08774487
-4.022217	Lechler	0.04816284
-5.625632	Leckey	0.03042242
-3.84298	Lee	0.08941169
-4.355536	Left	-0.01086756
-4.208575	Leftwich	0.004331008
-4.614908	Leggett	0.1095641
-5.926661	Legursky	0.02282471
-4.729381	Lehan	0.04419975
-5.113749	Lehman	0.08253666
-5.574479	Lehr	0.08447513
-4.349745	Leinart	0.007438088
-5.926661	Lekkerkerker	0.05816042
-4.65949	Lelie	0.13518
-4.159506	Lemon	0.03179548
-4.092559	Lenon	0.02887679
-4.332822	Leonard	0.1320942
-4.07084	Leonhard	0.08615692
-5.528722	Lepsis	0.0250826
-6.227691	Leroy	-0.0001042197
-5.829752	Leverage	0.007059678
-5.829752	Levitre	0.03590949
-4.905472	Levy	0.1031854
-3.221012	Lewis	-0.03090833
-6.227691	Lichtensteiger	-0.000234463
-5.227692	Light	0.005097548
-6.0516	Lilja	0.03105339
-4.054505	Lindell	0.02876748
-5.683624	Line	-0.0006485624
-6.227691	Lined	0.0008837117
-3.878414	Lions	-0.04823469
-4.620237	Little	0.03651294
-5.75057	Liwienski	0.0306747
-4.24092	Lloyd	0.1303664
-5.75057	Loadholt	0.006933485
-5.574479	Lockett	0.08434534
-5.625632	Locklear	0.02561288
-4.035961	Loeffler	0.04785088
-4.229869	Lofton	0.08459695
-4.804446	Logan	0.08705863
-5.166994	London	0.1294786
-4.5244	Long	0.1267694
-6.227691	Longest	0.00482984
-4.019519	Longwell	0.01007687
-4.361404	Looker	0.1638669
-5.926661	Loper	0.03092712
-4.010208	Losman	0.05557148
-3.637184	Louis	0.001642093
-5.166994	Low	-0.002948999
-5.926661	Lowe	0.02293186
-4.431812	Lowery	0.03610769
-4.65949	Lowry	0.06887656
-4.225526	Lucas	0.09615742
-5.829752	Lumpkin	0.01619044
-5.206502	Lutui	0.02878618
-3.6502	Lynch	0.08324142
-2.133186	M	-0.865624
-6.0516	MCCRAY	0.01501442
-6.227691	MCFADDEN	0.01526301
-6.0516	MCGINEST	0.01513671
-2.994823	MIA	-0.1015552
-3.004845	MIN	-0.1685604
-4.214855	MUFFS	-0.02512466
-5.683624	MV	0.006712654
-6.227691	Mace	0.02318443
-4.984653	Mack	0.08175942
-5.829752	Macklin	0.02268342
-4.875509	Maclin	0.1026015
-6.227691	Madatory	-0.0002353629
-5.273449	Maddox	0.02916323
-6.227691	Made	-0.00025246
-4.491295	Madison	0.09609605
-5.352631	Madsen	0.1014981
-5.926661	Magee	0.02293186
-5.625632	Mahan	0.03553102
-4.895253	Mahe	0.1036701
-5.081563	Maiava	0.02790768
-6.227691	Malfunction	0.03858574
-5.186299	Mallard	0.02903873
-5.75057	Malone	0.0306747
-6.227691	Mandatory	-0.0002522029
-5.352631	Mangold	0.04440311
-5.324602	Mankins	0.02941478
-4.045848	Mannelly	0.04866296
-3.065127	Manning	-0.09549043
-4.696213	Manningham	0.1408729
-4.316534	Manuel	0.0721914
-4.875509	Manumaleuna	0.1381901
-5.625632	Manuwai	0.03103132
-4.112081	Mare	0.02425416
-6.227691	Marino	0.008604816
-6.227691	Marion	-0.0001458812
-6.0516	Mark	-0.0004460417
-6.0516	Marks	0.03105339
-4.050155	Maroney	0.07898267
-6.227691	Marques	0.04989733
-3.693031	Marshall	0.08434852
-4.186299	Martin	0.1298728
-4.65949	Martinez	0.1355019
-6.227691	Mary	0.007438479
-4.163234	Mask	-0.004939023
-3.982179	Mason	0.1207059
-4.765294	Massaquoi	0.1378381
-4.038763	Massey	0.05408843
-4.023572	Mathis	0.08262619
-5.926661	Matt	-0.0006217417
-4.84748	Matthews	0.1450806
-4.96052	Maualuga	0.08170233
-5.574479	Mauia	0.09337571
-6.0516	Maurice	-0.0003695081
-5.010208	Mawae	0.04808503
-5.487329	Maxwell	0.0449632
-5.625632	Maybin	0.03042242
-4.047279	Maynard	0.05556826
-4.311238	Mayo	0.03172057
-4.609643	Mays	0.08181383
-4.528722	McAfee	0.06538614
-4.812718	McAlister	0.07147568
-4.335597	McAllister	0.1108042
-6.227691	McAllisters	-0.0002408906
-5.298273	McBath	0.1300667
-5.382594	McBean	0.05541534
-4.408148	McBriar	0.06061923
-4.370359	McBride	0.09149462
-5.528722	McCain	0.03017029
-6.0516	McCardell	0.01328964
-4.388843	McCareins	0.1370885
-4.937657	McCargo	0.08683939
-4.804446	McCauley	0.02493968
-3.916998	McClain	0.137173
-5.066324	McClover	0.0282544
-5.487329	McClure	0.0499245
-5.574479	McCollum	0.03029634
-5.081563	McCourty	0.04278734
-3.898294	McCown	-0.01081555
-4.41145	McCoy	0.1551207
-6.227691	McCrary	0.02318443
-4.579332	McCray	0.04081568
-4.515884	McCree	0.03937974
-6.0516	McCune	0.03105339
-4.96052	McDaniel	0.02735085
-3.873583	McDonald	0.1042441
-5.75057	McDougle	0.0306747
-3.945523	McFadden	0.1293061
-5.926661	McFoy	0.07646974
-3.793123	McGahee	0.08784904
-5.926661	McGarigle	0.03092712
-4.130782	McGee	0.05895835
-4.483399	McGinest	0.03820789
-4.515884	McGowan	0.03926313
-4.620237	McGraw	0.1375449
-4.997243	McHugh	0.1286079
-4.212751	McIntosh	0.05323076
-5.097358	McIntyre	0.09981743
-4.431812	McKelvin	0.04669812
-4.483399	McKenzie	0.04792533
-4.812718	McKie	0.1491464
-5.382594	McKillop	0.03499451
-5.227692	McKinley	0.04388287
-4.875509	McKinney	0.07253531
-5.75057	McKinnie	0.007073551
-4.414778	McMichael	0.1292195
-5.683624	McMillan	0.03565714
-5.206502	McMullen	0.09019738
-3.369154	McNabb	-0.01501286
-4.361404	McNair	0.01996111
-5.352631	McNeill	0.03452509
-4.604443	McQuarters	0.09282456
-5.625632	McQuistan	0.02546095
-5.574479	McRath	0.03029634
-4.84748	Meachem	0.147647
-4.788359	Measurement	0.07057214
-4.460536	Mebane	0.03747386
-5.829752	Medlock	0.002371423
-5.625632	Meester	0.05041307
-5.023572	Mehlhaff	0.0002963557
-4.709178	Meier	0.02382381
-4.442362	Mendenhall	0.06507196
-6.0516	Meredith	-0.0002426046
-4.247688	Meriweather	0.03904131
-4.743392	Merling	0.05416273
-4.511688	Merriman	0.03897154
-6.227691	Metcalf	0.007438479
-6.227691	Mexico	-0.0001961527
-3.903409	Miami	-0.01897875
-6.227691	Middle	-0.0002479609
-4.665399	Middleton	0.1047317
-4.696213	Mike	-0.008431128
-4.129048	Mikell	0.02213661
-5.186299	Miles	0.08301333
-3.709178	Miller	0.07947992
-5.75057	Milligan	0.04217811
-4.206502	Milloy	0.05310775
-5.206502	Mills	0.1304675
-5.625632	Milner	0.01280244
-5.926661	Min	0.0001491252
-5.249968	Mincey	0.0296919
-6.227691	Minn	6.426743e-05
-3.876475	Minnesota	-0.05344391
-4.702647	Minor	0.1040545
-5.75057	Minus	0.008160198
-3.498527	Minute	-0.1177929
-6.227691	Minutes	0.03858574
-4.117102	Mitchell	0.08866923
-5.75057	Mix	0.0306747
-6.227691	Moala	0.02318443
-4.546451	Moats	0.1320086
-5.081563	Molden	0.104793
-5.382594	Moll	0.02470499
-6.227691	Monroe	0.007438479
-4.382594	Montgomery	0.09170385
-3.576414	Moore	0.0715891
-4.702647	Moorehead	0.1243033
-4.022217	Moorman	0.05256356
-5.03736	Morency	0.1381617
-4.41145	Moreno	0.07829388
-4.75057	Morey	0.129519
-4.355536	Morgan	0.1419513
-6.227691	Morrah	0.01341595
-3.688616	Morris	0.09140029
-4.034567	Morrison	0.01417522
-4.631094	Morstead	0.02282141
-5.574479	Moses	0.03029634
-4.875509	Mosley	0.02635161
-3.667785	Moss	0.09488459
-6.227691	Mossl	-0.00024449
-4.838526	Motion	0.001541568
-4.972419	Moulds	0.1184666
-5.023572	Mouton	0.09854431
-5.625632	Mruczkowski	0.04481957
-6.227691	Muffed	-0.0002523315
-4.812718	Mughelli	0.1174705
-4.180417	Muhammad	0.1180385
-4.033177	Muhlbach	0.04761913
-5.081563	Muir	0.02856207
-5.528722	Mulitalo	0.02520882
-5.414778	Mundy	0.03006809
-4.812718	Munnerlyn	0.09559458
-4.743392	Murphy	0.1458564
-5.249968	Murrell	0.02931324
-5.528722	Mustard	0.1014011
-4.885269	Myers	0.07247292
-2.894446	N	-0.3027621
-6.227691	NAKAMURA	0.01526301
-3.036241	NE	-0.07693328
-6.0516	NELSON	0.01513671
-6.227691	NEW	-0.00025246
-6.227691	NEWMAN	0.01526301
-4.905472	NFL	-0.006632494
-6.227691	NGATA	0.01526301
-5.926661	NJY	0.002814561
-2.987143	NO	-0.1756215
-6.227691	NOT	-0.0001782819
-4.471817	NULLIFIED	-0.01303194
-5.574479	NY	-0.0007100999
-3.009156	NYG	-0.1652742
-2.968935	NYJ	-0.07726304
-4.589202	Na	0.03929055
-4.665399	Naanee	0.1415519
-5.625632	Nading	0.03042242
-6.0516	Naeole	0.01818578
-5.023572	Nakamura	0.08191748
-5.75057	Naked	-0.0008830963
-5.166994	Nall	0.01723798
-5.75057	Navies	0.02267944
-4.355536	Ndukwe	0.1328515
-4.311238	Neal	0.1428903
-6.0516	Nearly	-0.0003769639
-4.564934	Nece	0.08073162
-4.064829	Nedney	0.009842332
-4.136025	Neill	0.07242477
-4.050155	Nelson	0.1159032
-5.487329	Nesbit	0.0766312
-5.75057	Neufeld	0.0452648
-4.499338	Neutral	-0.01329692
-3.265559	New	-0.1860376
-5.414778	Newberry	0.04448999
-4.290676	Newman	0.1301247
-4.332822	Ngata	0.05866088
-6.0516	Nic	0.04977102
-4.537496	Nicholas	0.0797691
-5.683624	Nicholson	0.03054854
-5.113749	Nick	0.04687614
-4.96052	Nickey	0.08137242
-4.84748	Nicks	0.1393227
-5.352631	Ninkovich	0.02954061
-5.449541	Niswanger	0.006404954
-5.066324	Nkang	0.08206625
-2.622225	No	-0.4683719
-5.324602	Norman	0.02432763
-4.812718	Norris	0.1434763
-4.118789	Northcutt	0.1230227
-3.885269	Norwood	0.1346129
-4.948938	Novak	0.004286309
-6.227691	Now	-0.0002514316
-4.424918	Nugent	0.03875316
-5.227692	Nwagbuo	0.02891183
-5.574479	Nwaneri	0.03090523
-3.260612	O	-0.1372858
-2.940674	OAK	-0.1316796
-6.227691	OFFICIALS	-0.00025246
-6.227691	OLSHANSKY	0.01526301
-6.0516	ON	-0.000378635
-6.227691	ONEAL	0.01526301
-5.829752	OUT	0.05934638
-6.227691	Oak	0.04989733
-3.850203	Oakland	-0.01776389
-4.804446	Obomanu	0.1448945
-4.636627	Ochocinco	0.1395366
-6.227691	Oct	0.04989733
-5.75057	Octavien	0.0306747
-4.574479	Odom	0.02092887
-6.0516	Oelhoffen	0.02305813
-5.75057	Off	-0.0008071181
-3.35321	Offensive	-0.155022
-5.829752	Offically	0.007059678
-5.023572	Official	-0.004642945
-5.066324	Officially	0.00394283
-5.829752	Officials	-0.001008684
-3.663618	Offside	-0.07535244
-6.227691	Ogden	0.02318443
-5.227692	Oglesby	0.04070185
-5.683624	Ogletree	0.03686618
-4.324602	Ogunleye	0.03241839
-5.75057	Oher	0.02072391
-5.487329	Ojinnaka	0.03004428
-5.683624	Okam	0.03054854
-4.428351	Okeafor	0.03624896
-4.515884	Okoye	0.03918851
-5.926661	Olivea	0.007325974
-5.023572	Oliver	0.0332929
-4.278302	Olsen	0.1301215
-4.491295	Olshansky	0.03834478
-5.829752	Olson	0.007110231
-5.487329	Omiyale	0.03019937
-5.382594	Omon	0.07233346
-4.56968	On	0.02894432
-5.352631	Onatolu	0.0745267
-5.574479	One	0.03770239
-5.0516	Onside	-0.003860295
-5.574479	Opportunity	0.01253259
-5.926661	Option	-0.0003677135
-4.972419	Orakpo	0.02763147
-3.855701	Orleans	-0.05536815
-4.053051	Orlovsky	0.0004684962
-5.066324	Orr	0.08216048
-5.487329	Ortega	0.0707105
-3.611742	Orton	-0.03660325
-4.804446	Osgood	0.1320563
-6.227691	Oshiomogho	-0.0002324062
-5.249968	Otah	0.0291926
-4.56968	Out	0.09347709
-5.528722	Outlet	0.00382044
-4.511688	Overthrown	-0.004559818
-6.227691	Overthrrown	0.007438479
-4.96052	Overtime	0.0108641
-3.898294	Owens	0.1368973
-2.671751	P	-0.4403301
-6.0516	PAT	-0.0001513998
-6.227691	PEKO	0.01526301
-2.720781	PENALTY	-0.456869
-2.964885	PHI	-0.08022769
-6.227691	PHIL	0.04989733
-6.227691	PHILLIPS	0.01526301
-6.227691	PIERCE	0.01526301
-2.990022	PIT	-0.06730473
-6.0516	PLAY	0.01513671
-5.829752	PM	0.01488421
-4.398388	POINT	-0.01671934
-6.227691	POLAMALU	0.01526301
-6.227691	POOL	0.01526301
-6.227691	PRESSEURE	-0.0002394765
-5.03736	PRESSURE	-0.003359427
-6.227691	PROBABLE	0.01341595
-6.227691	PRYCE	-0.0002513031
-4.157654	Pace	0.1121022
-3.925577	Packers	-0.0430591
-4.26155	Page	0.056103
-4.594223	Pakulak	0.06710904
-3.559306	Palmer	0.03669172
-3.843876	Panthers	-0.05181781
-3.684866	Parker	0.09035127
-5.926661	Parmele	0.02400498
-4.243165	Parrish	0.1372203
-6.227691	Paschal	0.02318443
-5.081563	Pashos	0.04766515
-3.373994	Pass	-0.01909238
-4.349745	Passer	-0.01098702
-4.829752	Patrick	0.1396647
-5.926661	Patriot	0.0737203
-3.910674	Patriots	-0.0409683
-4.560239	Patten	0.1538885
-4.280748	Patterson	0.0873588
-4.722542	Paulescu	0.01652919
-6.227691	Paxson	0.007438479
-4.083117	Paxton	0.0250618
-4.503416	Paymah	0.125679
-4.395183	Payne	0.1227437
-5.487329	Pearman	0.04590924
-5.382594	Pears	0.02982156
-4.361404	Pearson	0.09047812
-4.96052	Peek	0.0475333
-4.631094	Peelle	0.1420992
-4.414778	Peko	0.03596235
-3.444503	Penalty	0.0165453
-5.186299	Penn	0.04845742
-3.56968	Pennington	0.01210265
-4.319207	Peppers	0.04177245
-5.206502	Peprah	0.02878619
-4.308614	Perry	0.1451863
-4.445936	Personal	-0.01501515
-5.352631	Peterman	0.02954061
-5.010208	Peters	0.08721161
-3.378272	Peterson	0.001525357
-5.926661	Petitti	0.04243053
-4.915938	Pettigrew	0.1041956
-5.352631	Pettway	0.08378208
-3.80281	Philadelphia	-0.04297657
-3.848386	Phillips	0.03344938
-4.491295	Pickett	0.01867936
-4.102211	Pierce	0.01958997
-5.625632	Pinner	0.03028437
-5.414778	Pinnock	0.1086029
-4.428351	Piscitelli	0.04179158
-5.926661	Pitch	0.0503627
-5.227692	Pitcock	0.02936115
-3.796328	Pittman	0.08033504
-5.166994	Pitts	0.0485836
-3.860336	Pittsburgh	-0.05493505
-4.115422	Plackemeier	0.04608413
-2.853218	Play	-0.3083094
-4.905472	Player	0.05393023
-2.879776	Plays	-0.3463442
-6.227691	Pociask	0.0003198238
-4.090971	Podlesh	0.05362332
-4.190265	Polamalu	0.1480956
-4.75787	Polite	0.1248867
-5.010208	Polk	0.08165942
-5.625632	Pollak	0.03042242
-4.100587	Pollard	0.1187316
-6.0516	Polumbus	0.007212716
-3.995967	Pontbriand	0.04438758
-6.227691	Pooch	-0.0002511746
-4.232057	Pool	0.0656598
-5.75057	Poole	0.02267944
-4.424918	Pope	0.1470281
-4.428351	Poppinga	0.07052011
-3.988392	Porter	0.1121121
-3.668983	Portis	0.1102445
-4.26155	Posluszny	0.05575312
-2.879776	Possession	-0.3463442
-5.926661	Post	-0.0006121615
-4.479504	Poteat	0.06441054
-4.594223	Pouha	0.02097194
-5.926661	Power	-0.000503392
-4.926662	Powers	0.07265117
-4.161366	Prater	0.02160162
-6.227691	Pressbure	0.0008905426
-6.227691	Presssure	0.0008905426
-4.487329	Pressure	-0.01162311
-6.227691	Pressured	0.0008905426
-5.487329	Preston	0.02505583
-6.227691	Previous	-0.0002519458
-5.574479	Price	0.03675858
-4.743392	Prioleau	0.1010293
-6.227691	Prior	-0.0002459041
-4.206502	Probable	0.02438653
-6.227691	Procedure	0.007438479
-5.683624	Procter	0.03054854
-5.75057	Prude	0.0306747
-4.620237	Pryce	0.02216944
-5.414778	Pryor	0.03008636
-3.457208	Punt	-0.1210122
-5.324602	Putzier	0.1019312
-3.469916	Q	-0.0747571
-4.127321	QB	0.2164284
-3.346022	QUARTER	-0.1494089
-6.227691	QUARTERBACK	0.008604816
-6.227691	QUESTIONABLE	0.01341595
-5.829752	Qb	0.01476099
-3.174421	Quarter	-0.2040773
-5.166994	Quarterback	0.06445502
-6.0516	Quaterback	0.05083744
-4.144907	Questionable	0.02048353
-4.885269	Quick	-0.003547586
-4.972419	Quin	0.02718157
-4.202386	Quinn	0.02431761
-2.343208	R	-0.6871454
-6.227691	RATLIFF	0.01526301
-5.75057	RB	0.06669585
-3.567301	RECOVERED	-0.1013927
-6.227691	REED	-0.0002523315
-6.227691	REEVES	0.01526301
-6.227691	REVERSE	0.03858574
-4.087812	REVERSED	0.01659524
-6.227691	ROGERS	0.01526301
-6.227691	ROSS	-0.0002487321
-5.273449	Rabach	0.04915388
-5.926661	Rachal	0.03092712
-3.95238	Rackers	0.07239281
-4.895253	Rackley	0.05326443
-5.829752	Rader	0.03003792
-6.227691	Raider	-0.0002486036
-3.865021	Raiders	-0.04979771
-5.449541	Raiola	0.04979853
-5.528722	Raji	0.03044602
-5.683624	Ramirez	0.05042876
-3.849294	Rams	-0.01845473
-5.010208	Ramsey	0.04802812
-6.0516	Ran	-0.0005008068
-4.060374	Randle	-0.03561788
-6.227691	Randy	-0.0001593818
-5.683624	Rankin	0.0127848
-6.227691	Raonall	0.000270914
-4.194268	Ratliff	0.09395319
-5.926661	Rattay	0.009328587
-3.862204	Ravens	0.01779671
-5.829752	Ray	-0.0004354152
-4.75057	Rayner	0.02633163
-5.926661	Reagor	0.04551722
-4.464264	Receiver	-0.01015076
-6.227691	Reception	-0.00024449
-5.926661	Record	0.05803441
-5.487329	Redd	0.03004428
-4.487329	Redding	0.03840496
-4.278302	Redman	-0.01678224
-3.95469	Redskins	-0.03957069
-3.629449	Reed	0.1232288
-6.227691	Reels	-9.251777e-05
-4.355536	Reeves	0.04326603
-6.227691	Ref	-0.00025246
-6.227691	Referee	-0.0002523315
-4.56968	Reid	0.09716378
-4.895253	Reis	0.1030823
-5.75057	Removed	-1.098146e-05
-6.227691	Renaldo	-0.0001042197
-4.236465	Replay	-0.02419377
-5.829752	Reports	-0.0006307461
-6.227691	Respot	-0.0001858674
-4.464264	Retkofsky	0.07106161
-4.398388	Return	0.04279315
-6.227691	Reuben	-0.0002399908
-5.03736	Reverse	0.0100008
-6.227691	Reverses	4.9088e-05
-4.186299	Revis	0.03545285
-5.829752	Reyes	0.04539099
-5.130782	Reynaud	0.09972024
-3.793123	Rhodes	0.09954936
-3.850203	Rice	0.1157148
-6.0516	Rich	-0.0005023494
-5.829752	Richard	0.03590949
-4.332822	Richardson	0.124221
-5.926661	Ricky	0.04964476
-6.227691	Rideau	0.007438479
-4.40487	Right	-0.008924948
-5.249968	Ringer	0.04339635
-3.359635	Rivers	-0.03545028
-4.515884	Roach	0.0962208
-4.75057	Roba	0.04263178
-4.431812	Robbins	0.1235864
-6.227691	Roberson	0.02318443
-4.614908	Robertson	0.02703725
-3.548718	Robinson	0.05695646
-5.449541	Robiskie	0.1202944
-4.875509	Robison	0.09712989
-4.73633	Roby	0.09504315
-3.95469	Rocca	0.0418443
-6.227691	Rocky	-0.0002357486
-6.227691	Rod	0.000270914
-3.473726	Rodgers	-0.01278239
-3.389158	Roethlisberger	-0.006661743
-3.926662	Rogers	0.1037379
-5.75057	Roland	0.006810473
-6.227691	Roll	-0.0001348233
-4.001092	Rolle	0.118704
-4.330065	Roman	0.03268223
-6.227691	Romanowski	0.008604816
-6.227691	Romberg	0.007438479
-3.456104	Romo	-0.007497564
-6.0516	Ron	-0.0004525984
-4.885269	Ronnie	0.04462396
-5.298273	Roos	0.04916921
-4.555594	Rosario	0.1400892
-3.886257	Rosenfels	-0.03505269
-4.442362	Ross	0.04682445
-4.330065	Rossum	0.09821603
-4.584239	Roth	0.02101973
-4.319207	Roughing	-0.01833186
-3.966429	Roughness	-0.03615353
-4.479504	Rouse	0.04837571
-4.550998	Routt	0.1389923
-4.829752	Roy	-0.005452807
-3.912772	Royal	0.1131824
-4.84748	Roye	0.02606181
-5.010208	Rubin	0.03267043
-4.579332	Rucker	0.128419
-6.227691	Ruled	-0.0002523315
-6.227691	Ruling	-1.741202e-05
-4.004975	Run	-0.03785025
-4.972419	Running	-0.004521933
-5.414778	Runyan	0.04984097
-5.75057	Rush	-0.0007279366
-4.589202	Rushing	0.1030946
-6.227691	Russel	-0.0002423047
-3.512106	Russell	0.04298562
-4.026295	Ruud	0.04070116
-3.419819	Ryan	0.03471009
-4.006278	Ryans	0.02234309
-2.401066	S	-0.6404337
-4.829752	SAFETY	0.1166513
-6.227691	SAMUEL	-0.0002523315
-6.227691	SAPP	-0.0002513031
-6.227691	SCANDRICK	0.01526301
-6.0516	SCOTT	0.01513671
-2.962049	SD	-0.115315
-2.94191	SEA	-0.1301088
-2.907338	SF	-0.2125004
-2.941685	SL	-0.1781472
-6.227691	SMITH	0.01526301
-6.227691	SPEARS	0.007438479
-6.227691	SPICER	-0.0002513031
-6.0516	SS	0.0002753918
-5.926661	STL	0.002271967
-4.75057	SUCCEEDS	0.04263178
-6.227691	SUGGS	0.01526301
-5.683624	Sack	0.008187864
-3.873583	Saints	-0.0481957
-5.829752	Saipaia	0.04539099
-5.414778	Salaam	0.02979237
-5.487329	Salley	0.1010236
-6.0516	Samari	-0.000441799
-5.023572	Sams	0.0707529
-4.316534	Samuel	0.06918742
-5.324602	Samuels	0.07566015
-3.538383	San	-0.1087655
-4.636627	Sanborn	0.0489171
-4.075403	Sanchez	0.08398825
-3.985896	Sanders	0.09858923
-4.765294	Sands	0.02985124
-5.625632	Sanford	0.02269547
-5.382594	Santi	0.07437555
-4.170787	Sapp	0.1349747
-5.324602	Satele	0.049295
-5.926661	Saturday	0.03092712
-4.382594	Sauerbrun	0.03401837
-4.589202	Savage	0.1021461
-4.278302	Scaife	0.09268393
-4.584239	Scandrick	0.1276227
-5.528722	Scanlon	0.1068459
-3.471436	Schaub	-0.005720049
-4.327324	Scheffler	0.1371942
-4.937657	Schilens	0.1141421
-5.273449	Schlegel	0.02143628
-5.081563	Schmitt	0.151203
-4.048715	Schneck	0.04889527
-4.324602	Schobel	0.1323483
-4.905472	Schouman	0.1153845
-5.166994	Schulters	0.03408286
-4.647908	Schweigert	0.09896044
-3.998522	Scifres	0.04608027
-4.064829	Scobee	0.02353377
-5.352631	Scobey	0.1003779
-3.822004	Scott	0.0590357
-6.227691	Scramble	-0.0002401193
-4.589202	Screen	0.005026372
-6.227691	Scrimmage	-0.0002327918
-3.840302	Seahawks	-0.0527963
-5.249968	Sears	0.04891774
-5.926661	Seatle	0.002513584
-3.819452	Seattle	-0.05456342
-4.515884	Seau	0.06901633
-6.227691	Second	-0.0002522029
-4.499338	Sellers	0.1498641
-5.829752	Seminole	-0.0004749067
-5.414778	Sendlein	0.02989213
-6.227691	Seneca	-0.0001843246
-5.0516	Senn	0.02765701
-4.418132	Sensabaugh	0.03598046
-6.227691	Sensabaught	-0.0002324062
-4.352631	Sepulveda	0.07371344
-4.288173	Session	0.03063649
-5.829752	Setterstrom	0.02583942
-5.186299	Seubert	0.1057217
-5.298273	Seward	0.03439758
-4.421512	Seymour	0.05343454
-5.414778	Shaffer	0.04954983
-5.414778	Shaken	-0.0005036101
-4.223371	Shanle	0.02774856
-6.227691	Shannon	-0.00025246
-6.227691	Sharpe	0.008604816
-4.283209	Sharper	0.06829698
-5.382594	Shaughnessy	0.04986057
-5.066324	Shaw	0.02821337
-6.227691	Shawn	-0.000248475
-5.625632	Shelton	0.02062035
-4.533087	Sheppard	0.03965057
-4.401617	Shiancoe	0.1354414
-4.702647	Shift	-0.0006957869
-5.166994	Shipp	0.1395817
-5.75057	Shirley	0.03095042
-5.625632	Shoate	0.03042242
-4.280748	Shockey	0.1302417
-5.113749	Short	0.004297808
-2.159061	Shotgun	-0.8697239
-5.298273	Shovel	0.002939134
-6.0516	Shuffle	0.004703537
-5.625632	Siavii	0.03042242
-6.0516	Sidbury	0.007312175
-5.926661	Signal	0.007185909
-4.604443	Siler	0.07532106
-4.905472	Silva	0.09678834
-4.96052	Simmons	0.04682938
-5.926661	Simms	0.004771053
-4.75787	Simoneau	0.02460845
-4.300835	Simpson	0.1297122
-3.846577	Sims	0.068582
-6.227691	Sinorice	-0.0001593818
-5.829752	Sintim	0.03080089
-6.0516	Sippio	0.02305813
-5.528722	Sitton	0.05005051
-6.227691	Six	-0.0002523315
-5.0516	Slant	0.004060786
-4.96052	Slater	0.1281015
-3.836757	Slaton	0.09326959
-5.382594	Smiley	0.04971507
-2.919021	Smith	-0.140478
-5.75057	Smolko	0.03729249
-4.453175	Smoot	0.03213556
-4.972419	Snap	0.07871236
-5.926661	Sneak	0.06697194
-5.249968	Snee	0.04891773
-4.468024	Snelling	0.1484114
-4.094153	Snow	0.05239484
-5.487329	Snyder	0.05009288
-5.926661	Sobomehin	0.06542948
-5.166994	Soliai	0.028535
-4.631094	Sopoaga	0.02221463
-4.788359	Sorensen	0.1075433
-4.865964	Sorgi	0.0003058724
-6.227691	Sowells	0.02318443
-4.65366	Sp	0.04077237
-5.03736	Spach	0.1353106
-4.829752	Spaeth	0.1385393
-5.625632	Spann	0.03042242
-4.599303	Spears	0.07566036
-4.194268	Spencer	0.08248794
-4.54195	Spicer	0.02015197
-4.188278	Spikes	0.02547452
-5.130782	Spires	0.02873328
-5.487329	Spitz	0.03004428
-6.227691	Spot	-1.741202e-05
-5.0516	Spragan	0.05278655
-4.449541	Springs	0.04636322
-3.828884	Sproles	0.07213187
-4.96052	Spurlock	0.1473972
-5.926661	Squib	-0.0005027163
-3.620773	St	-0.0416745
-6.227691	Stadium	0.007438479
-6.227691	Staff	-0.0002520744
-4.214855	Stafford	0.008357665
-5.097358	Staley	0.04802278
-6.227691	Stallings	0.007438479
-4.537496	Stallworth	0.1590222
-5.166994	Stamer	0.08258401
-5.249968	Stanback	0.07251348
-4.84748	Standeford	0.1271016
-4.424918	Stanley	0.1412485
-4.84748	Stanton	0.007718444
-5.487329	Stapleton	0.006443134
-4.35846	Starks	0.0911328
-3.35408	Start	-0.1491907
-4.259209	Stecker	0.1281747
-3.873583	Steelers	0.001846783
-5.414778	Steinbach	0.02971769
-5.097358	Steltz	0.04843173
-6.227691	Stepanovich	0.007438479
-6.0516	Stephen	-0.0003731075
-4.895253	Stephens	0.03343718
-4.796328	Steptoe	0.1322043
-6.0516	Steussie	0.007312175
-5.829752	Steve	-0.0003713908
-4.395183	Stevens	0.1351982
-3.934329	Stewart	0.1031787
-5.066324	Stills	0.104458
-5.249968	Stinchcomb	0.04908611
-4.311238	Stokley	0.1262034
-5.130782	Stone	0.1050432
-5.273449	Storer	0.1064477
-6.227691	Stoutmire	0.02318443
-4.65949	Stovall	0.1586361
-4.204439	Stover	0.0241732
-4.865964	Strahan	0.02603495
-6.227691	Streif	-0.000234463
-4.491295	Strickland	0.03326483
-5.683624	Strief	0.006699495
-5.298273	Strong	0.1100555
-4.367354	Stroud	0.09122244
-4.84748	Stroughter	0.1389081
-4.594223	Stuckey	0.1399157
-6.227691	Studdard	0.02318443
-5.487329	Studebaker	0.1070737
-5.829752	Stupar	0.04569944
-4.5244	Stutz	0.0461982
-5.03736	Substitution	0.003790509
-4.838526	Succop	0.02513306
-4.16511	Suggs	0.1464848
-4.120482	Suisham	0.02754878
-4.023572	Sullivan	0.01648455
-5.75057	Super	-0.0007569395
-4.75787	Surtain	0.02969448
-5.829752	Svitek	0.03080089
-5.683624	Swain	0.08479002
-5.03736	Sweed	0.1281421
-5.113749	Swing	0.001808648
-4.856624	Sypniewski	0.1392075
-2.34075	T	-0.6891543
-6.0516	TAYLOR	0.02298382
-2.987892	TB	-0.1063788
-4.804446	TD	0.1043917
-6.227691	TDs	-0.0001740391
-5.829752	TE	-0.000751761
-3.019519	TEN	-0.05320169
-6.0516	THE	-0.000378635
-6.227691	THOMAS	0.01526301
-6.227691	TIME	-0.00025246
-6.227691	TJ	-0.0002057948
-6.227691	TOLLEFSON	0.01526301
-3.064381	TOUCHDOWN	-0.2162997
-6.227691	TT	0.001028473
-4.398388	TWO	0.02210176
-5.14851	Tafoya	0.08313793
-4.821152	Tahi	0.1389363
-5.487329	Tait	0.03019937
-4.599303	Talib	0.1283256
-5.324602	Tamme	0.1010149
-3.841193	Tampa	-0.05432592
-5.206502	Tapeh	0.1261331
-4.268651	Tapp	0.02960051
-5.829752	Tate	0.01621879
-4.087812	Tatupu	0.01853572
-4.997243	Taunting	0.003414876
-5.574479	Tauscher	0.03045143
-3.385082	Taylor	0.04794945
-4.856624	Teal	0.08572533
-4.636627	Team	0.06679347
-6.227691	Temp	7.540308e-06
-6.227691	Temporary	-0.0002522029
-5.829752	Ten	0.03867286
-3.885269	Tennessee	-0.0523573
-6.0516	Terrell	0.007215987
-4.73633	Terrill	0.05363759
-5.010208	Terry	0.05235325
-4.367354	Testaverde	0.01363101
-3.848386	Texans	-0.05204186
-5.926661	Th	0.04964476
-4.16511	The	-0.02838725
-6.227691	Therefore	-0.0001858674
-3.789941	Thigpen	0.0115358
-6.0516	This	-0.0005042776
-3.33811	Thomas	0.02915452
-4.56968	Thompson	0.07008281
-4.073877	Thornton	0.01743161
-5.186299	Thorpe	0.09059691
-4.75057	Thrash	0.137959
-6.227691	Three	0.03858574
-6.227691	Threw	0.001423426
-5.683624	Through	-0.000961045
-4.625632	Thrown	-0.01059524
-6.227691	Ties	0.002304919
-5.829752	Tight	0.000481197
-6.227691	Tiki	-0.0001458812
-4.152145	Tillman	0.03322017
-5.926661	Time	-0.0005498553
-2.898905	Timeout	-0.2842423
-4.295726	Timmons	0.1078163
-4.316534	Tinoisamoa	0.08929648
-6.227691	Tinoisanoa	-0.0002324062
-5.14851	Tipped	0.00389873
-3.892234	Titans	-0.04625345
-5.829752	To	0.04951853
-6.0516	Todd	-0.0003587097
-6.227691	Toeaina	0.02318443
-5.249968	Toefield	0.01952165
-5.206502	Togafau	0.02894127
-4.829752	Tolbert	0.1382279
-5.926661	Toler	0.07581835
-4.915938	Tollefson	0.02665902
-3.63942	Tomlinson	0.09727536
-6.227691	Tonight	-0.0001697963
-5.926661	Tony	-0.0005875361
-6.227691	Took	-0.0002505318
-4.275869	Toomer	0.1230527
-5.298273	Torain	0.005543711
-4.609643	Torbor	0.06233435
-6.227691	Torrance	-0.0002324062
-4.743392	Torrence	0.07836086
-6.227691	Toss	8.95519e-06
-4.96052	Touch	-0.004555469
-3.3879	Touchback	-0.07048527
-5.926661	Touchdown	0.004452417
-4.431812	Townsend	0.1259459
-4.796328	Travis	0.04337777
-4.948938	Traylor	0.02693148
-5.352631	Trent	0.03011067
-5.926661	Trevor	-0.0006178177
-6.227691	Triceps	-0.0002452613
-4.972419	Tripping	0.003164635
-4.984653	Tripplett	0.08736058
-5.625632	Tro	0.04914006
-5.249968	Trotter	0.02132849
-5.487329	Troupe	0.1049773
-5.926661	Troy	0.05010612
-5.023572	Trueblood	0.0472867
-4.216968	Trufant	0.03712366
-4.812718	Trusnik	0.1321808
-5.166994	Tryon	0.08258401
-4.24092	Tuck	0.05599901
-4.604443	Tucker	0.0981191
-5.574479	Tuiasosopo	0.0152725
-4.214855	Tulloch	0.08430468
-5.75057	Tuman	0.0452648
-4.022217	Turk	0.04674545
-5.75057	Turley	0.02571322
-3.674416	Turner	0.06137674
-5.926661	Tutt	0.0232181
-3.497717	Two	-0.07397641
-4.528722	Tyler	0.03963143
-4.219091	Tynes	0.0191876
-5.414778	Tyree	0.1421199
-4.528722	U	0.03769094
-5.382594	UPDATE	0.03803196
-4.875509	Udeze	0.06673381
-5.449541	Ugoh	0.00631716
-4.702647	Ulbrich	0.1000748
-4.574479	Umenyiora	0.0507518
-6.227691	Umpire	-0.00025246
-5.528722	Unabated	0.01240655
-6.227691	Undehanded	-0.0002511746
-6.227691	Under	-0.0002434616
-6.227691	Underhand	-0.0002511746
-4.788359	Underthrown	0.0004421053
-6.0516	Underwood	0.01328964
-5.75057	Unger	0.0306747
-5.926661	Unidentified	0.04964476
-3.966429	Unnecessary	-0.0437978
-4.54195	Unsportsmanlike	-0.0122043
-6.227691	Upback	0.01526301
-6.227691	Update	0.01453702
-3.869757	Upheld	-0.003969628
-5.081563	Upright	0.004166468
-4.395183	Urban	0.135168
-4.25226	Urlacher	0.05508614
-4.564934	Use	-0.01124012
-6.227691	Using	-0.0001858674
-4.665399	Utecht	0.1365037
-3.21591	V	-0.1534483
-6.227691	VANDEN	-0.00025246
-5.926661	Vallos	0.03102688
-4.370359	Vanden	-0.01781136
-4.812718	Vasher	0.1025699
-5.926661	Vasquez	0.01215609
-5.75057	Veal	0.02323432
-5.249968	Ventrone	0.08327899
-5.010208	Vick	0.008302984
-4.584239	Vickers	0.1445316
-4.865964	Vickerson	0.03159127
-3.896265	Vikings	-0.04568125
-4.136025	Vilma	0.02177308
-4.069329	Vinatieri	0.02300345
-5.926661	Vince	-0.0004021802
-5.75057	Vincent	0.007073551
-5.382594	Vinnett	0.08371548
-4.937657	Vobora	0.08125922
-4.96052	Volek	0.02537293
-5.829752	Vollmer	0.006846592
-6.0516	Von	-0.000378635
-4.204439	Vrabel	0.125139
-2.93444	W	-0.2809696
-3.072204	WAS	-0.02922823
-5.926661	WASHINGTON	0.01501044
-6.227691	WEBSTER	0.01526301
-6.227691	WHITE	0.01526301
-6.0516	WILDCAT	-0.000378635
-6.227691	WILL	-0.00025246
-5.829752	WILLIAMS	0.01488421
-6.227691	WIMBLEY	0.01526301
-6.0516	WOODLEY	0.01513671
-5.227692	WR	0.04740719
-6.0516	WRIGHT	0.01513671
-4.003677	Wade	0.1216649
-5.382594	Wahle	0.04954669
-4.130782	Waist	-0.02281098
-5.449541	Wake	0.0300023
-5.625632	Wakefield	0.02269547
-5.023572	Walden	0.08178464
-3.811884	Walker	0.1271633
-6.0516	Walks	-0.0003616665
-3.80281	Wallace	0.1074247
-5.449541	Walls	0.02208636
-6.227691	Walt	-5.393772e-05
-3.997243	Walter	0.1291717
-4.895253	Walters	0.09906979
-3.704596	Ward	0.1021535
-4.05743	Ware	0.1018802
-3.34745	Warner	-0.05125897
-3.498527	Warning	-0.102415
-3.877444	Warren	0.05582215
-6.227691	Warrick	-0.0001871531
-6.0516	Wash	0.07603949
-3.372476	Washington	0.0295925
-5.113749	Waters	0.0482071
-4.546451	Watkins	0.1290052
-3.96052	Watson	0.1310679
-3.96762	Wayne	0.1117048
-5.829752	Weary	0.03095598
-4.043	Weatherford	0.06531011
-6.227691	Weatherspoon	-0.0002324062
-4.087812	Weaver	0.1295981
-4.599303	Webb	0.1389532
-4.026295	Webster	0.02442041
-4.066324	Weddle	0.08486371
-4.743392	Weems	0.110674
-5.75057	Weiner	0.007073551
-5.0516	Weinke	0.00145415
-5.926661	Welbourn	0.007185909
-3.923417	Welker	0.1236883
-4.564934	Wells	0.1310706
-4.796328	Wendling	0.1016895
-6.227691	Went	0.01341595
-4.788359	Wesley	0.112859
-3.628355	Westbrook	0.08008381
-5.683624	Westerman	0.05042876
-5.352631	Wharton	0.04958921
-5.625632	Wheatley	0.03057751
-6.227691	Wheel	-0.0002489892
-4.96052	Wheeler	0.09776012
-5.75057	Whitaker	0.02267944
-3.412779	White	0.0317395
-4.293193	Whitner	0.09309343
-6.0516	Whitten	-0.0002640844
-5.829752	Whittle	0.01194018
-5.227692	Whitworth	0.02906692
-4.122181	Wide	-0.0311896
-5.414778	Wiegmann	0.02989213
-4.984653	Wilcox	0.1405475
-5.206502	Wildcat	-0.002489614
-4.537496	Wilford	0.1327231
-4.35846	Wilfork	0.03377569
-4.361404	Wilhelm	0.03404267
-4.75787	Wilhite	0.1009237
-4.528722	Wilkerson	0.03955682
-4.511688	Wilkins	0.03490244
-4.895253	Wilkinson	0.08015549
-5.926661	Will	-0.0006802451
-6.227691	William	0.02318443
-2.922018	Williams	-0.1503935
-4.722542	Williamson	0.1414884
-3.902381	Willis	0.1007568
-3.46389	Wilson	0.04165776
-4.24092	Wimbley	0.04884699
-4.34403	Winborn	0.06735294
-5.414778	Winborne	0.02179711
-4.263904	Winfield	0.03914979
-4.026295	Winslow	0.1127331
-5.273449	Winston	0.02931832
-4.696213	Wire	0.09997266
-5.829752	With	0.0009195026
-3.990903	Witherspoon	0.1328886
-6.0516	Withrow	0.007312175
-4.078473	Witten	0.1248301
-4.560239	Wolfe	0.149545
-5.75057	Womack	0.0306747
-5.75057	Wood	0.006933485
-5.75057	Woodhead	0.02727076
-4.275869	Woodley	0.1525597
-4.574479	Woods	0.07479489
-4.210659	Woodson	0.09564079
-5.249968	Woody	0.02422797
-4.594223	Woodyard	0.0676048
-4.84748	Worrell	0.02583846
-5.625632	Wragge	0.03042242
-5.066324	Wrighster	0.1105325
-3.729381	Wright	0.09899028
-5.206502	Wroten	0.02908017
-5.625632	Wrotto	0.006681208
-5.03736	Wyms	0.02825734
-4.449541	Wynn	0.1252934
-4.729381	X	0.08597312
-3.993428	Y	0.009434484
-5.414778	Yanda	0.04984097
-5.298273	Yard	-0.002246569
-5.926661	Yardline	-0.0006245024
-4.163234	Yards	-0.004939023
-5.926661	Yates	0.007325974
-5.081563	Yoder	0.1409072
-3.556056	York	-0.09784199
-5.273449	You	0.02145421
-4.788359	Youboty	0.1015869
-3.624547	Young	0.09194808
-3.637742	Z	-0.03849133
-6.227691	Zach	-5.329467e-05
-4.048715	Zastudil	0.06635547
-4.937657	Zbikowski	0.0422309
-5.206502	Zeigler	0.1197237
-4.144907	Zelenka	0.05592284
-4.772847	Zgonina	0.04448108
-6.227691	Zinger	0.01341595
-4.313878	Zone	-0.00377927
-5.625632	Zuttah	0.03057751
-3.045848	[	-0.2453067
-3.045848	]	-0.2111384
-4.196283	a	0.03934018
-6.227691	accepted	-0.0002459041
-5.926661	across	0.001170856
-5.186299	action	0.06200004
-4.520122	advance	0.01237533
-5.926661	advanced	0.01516956
-4.537496	after	-0.007932316
-6.227691	again	-0.0001740391
-6.227691	against	0.001423426
-5.829752	air	0.05792216
-6.227691	align	-0.00025246
-5.023572	all	0.03877105
-5.829752	almost	-0.000738006
-6.227691	alone	0.004613344
-4.379503	along	-0.01407369
-6.227691	already	-0.00025246
-5.829752	also	-0.0009005619
-6.227691	ambulance	0.04989733
-5.273449	an	-0.001247635
-3.346307	and	-0.1360274
-5.829752	ankle	0.04939298
-6.227691	announced	0.001423426
-6.227691	any	-0.000230735
-5.829752	are	0.0006725006
-6.227691	area	0.04989733
-5.75057	arm	-0.0009766375
-4.696213	around	0.08733809
-4.280748	as	-0.009386148
-5.926661	assessed	0.05057373
-6.227691	assistance	-0.0002327918
-5.625632	assisted	-0.0009926334
-1.953038	at	-1.036234
-5.683624	attempt	0.0654718
-5.683624	attempted	0.01743668
-6.227691	attempting	0.01341595
-6.0516	attempts	-0.0004876946
-6.227691	attended	0.01341595
-6.0516	avoid	0.002155728
-6.227691	avoiding	-0.0002434616
-6.227691	avoids	-0.0002225075
-6.227691	awarded	-0.0002428189
-4.821152	away	0.07970566
-6.227691	ayt	-0.00025246
-4.620237	back	0.1052247
-5.926661	backfield	0.07501012
-6.227691	backing	-0.0002465468
-6.0516	backswing	-0.0001437156
-6.0516	backtracked	0.0002539143
-5.625632	backward	0.01777831
-6.0516	backwards	0.05535341
-3.812718	ball	0.04075213
-6.227691	bast	0.002304919
-6.0516	bats	-0.000312171
-5.066324	batted	0.001856404
-5.625632	be	-0.000549114
-6.0516	beat	-0.0003156423
-6.227691	beats	0.0002852003
-5.625632	because	-0.0009007104
-5.926661	becomes	0.001498787
-5.683624	been	-0.001007839
-4.972419	before	0.0008276687
-6.0516	began	-0.0003625663
-6.227691	begin	-0.0002250786
-6.227691	beginning	-1.741202e-05
-5.227692	behind	-0.0009522301
-5.449541	being	-0.001693388
-6.0516	bench	0.01501122
-5.273449	best	0.05611245
-4.283209	between	-0.02177195
-6.0516	beyond	-0.000150242
-6.227691	blew	0.001423426
-6.227691	blitzed	0.04989733
-5.249968	block	0.02740676
-5.683624	blocked	0.05577846
-6.227691	blocking	-0.00025246
-5.926661	blocks	0.01428445
-6.227691	blt	0.0004016954
-6.227691	bobble	0.04989733
-6.227691	bobbling	0.00482984
-6.227691	boot	-0.0002516887
-5.75057	bootleg	0.05319808
-6.0516	both	0.0005406557
-5.298273	bounced	0.01583788
-6.0516	bouncing	-0.000387155
-3.585722	bounds	0.02056799
-6.0516	breaking	-0.0005046632
-6.0516	breaks	0.000631252
-5.382594	breakup	0.01019318
-4.665399	broke	0.005917978
-5.625632	broken	0.0001264411
-6.227691	brought	-0.0002423047
-6.0516	bruised	0.002937688
-5.926661	bubble	-0.0005005311
-6.0516	burner	0.00719335
-5.528722	but	0.003226052
-5.829752	button	-0.0006308747
-2.580211	by	-0.4150529
-6.0516	cAUGHT	-0.000378635
-6.227691	caiught	0.004613344
-5.926661	calf	-0.0006238596
-6.227691	call	0.008604816
-5.487329	called	0.06653658
-5.324602	came	0.00324527
-6.227691	can	-0.0002502747
-6.227691	cannot	-0.00025246
-4.564934	career	0.0595433
-6.227691	carries	-0.0001858674
-6.227691	carry	0.007438479
-5.683624	cart	0.06659336
-6.0516	carted	0.01318114
-3.428007	catch	-0.05319077
-6.0516	catches	0.04971964
-4.054505	caught	-0.01410294
-6.0516	caused	0.000764239
-6.227691	causes	-0.0002486036
-6.0516	causing	-0.0004831953
-5.829752	celebration	0.04950769
-5.625632	center	0.06630984
-6.227691	chains	0.01341595
-6.227691	challenge	-0.0002516887
-3.695575	challenged	-0.07685157
-4.84748	change	0.08775558
-5.186299	changed	-0.001955413
-6.227691	changes	0.0004940123
-5.023572	charged	0.008943395
-6.227691	charles	-0.0002493749
-5.926661	checkoff	0.06476408
-5.926661	chest	0.007172948
-5.829752	choice	0.04951853
-6.227691	cle	0.001054129
-4.18433	clock	0.03782157
-4.330065	closest	0.03081385
-5.528722	club	0.03733444
-6.227691	clutched	0.04989733
-6.0516	coin	-0.000377221
-5.113749	collar	-0.002347789
-6.227691	collided	-0.0002362628
-6.227691	comes	0.0004940123
-4.225526	complete	0.04322886
-6.0516	completes	0.006273036
-6.0516	completing	0.001297123
-4.105476	completion	-0.03173485
-6.227691	completions	0.007438479
-6.0516	concussion	0.05006438
-6.227691	conduct	-0.0002459041
-6.227691	confirm	0.002009941
-5.487329	confirms	0.005535488
-5.487329	consecutive	0.0006039268
-6.227691	considered	-0.0001348233
-4.856624	contact	0.04411346
-6.227691	contacted	0.002130131
-3.496909	continues	-0.1181772
-6.0516	contusion	0.05828668
-6.227691	conversion	0.04989733
-4.804446	corner	-0.005292949
-6.227691	counter	8.95519e-06
-4.528722	coverage	0.03762757
-6.227691	covered	0.0008837117
-6.227691	covering	0.001423426
-6.227691	cramp	0.01341595
-6.227691	credit	0.008604816
-4.722542	credited	0.0143434
-6.227691	credted	0.01341595
-6.227691	cross	-0.0002504033
-6.0516	crossbar	0.0152131
-6.227691	crossbars	-5.70242e-05
-5.926661	crossed	0.01368353
-4.475643	crossing	0.006665589
-6.227691	crossover	0.004613344
-6.227691	crowd	0.01341595
-4.743392	curl	0.06222966
-5.926661	curled	0.002556502
-6.227691	curling	0.01341595
-5.75057	cut	0.06452332
-5.926661	cutting	0.01291171
-4.84748	dead	0.04929241
-6.227691	debut	0.04989733
-4.856624	declared	0.04946933
-3.588704	declined	-0.04797167
-2.657441	deep	-0.4400356
-6.227691	defended	0.00482984
-4.349745	defender	0.03813781
-6.227691	defenders	0.04989733
-6.227691	defense	0.04989733
-6.227691	defensed	0.0008905426
-6.227691	defenses	-0.00025246
-6.227691	defensive	0.0007929867
-5.75057	defer	0.04926708
-6.0516	deferred	0.06709821
-6.227691	deffered	-0.0002516887
-5.023572	deflected	0.008944813
-6.227691	deflection	0.04989733
-6.227691	deflects	-0.0002353629
-6.0516	deg	0.05828668
-5.926661	delay	0.0210972
-5.926661	delayed	0.01006059
-6.227691	determined	0.01341595
-5.75057	did	-0.0008806539
-4.5244	didn	-0.01249898
-5.625632	difference	-8.361042e-05
-6.227691	different	-0.0002522029
-5.14851	direct	-0.002988234
-5.926661	direction	0.04964476
-5.926661	directly	0.01316338
-6.227691	distributed	-0.00025246
-6.227691	dive	0.000121259
-6.227691	diverting	-0.0001858674
-6.0516	diving	-0.000323888
-6.0516	done	0.001662259
-5.829752	double	-0.0008679276
-6.227691	doubtful	0.04989733
-4.254564	down	0.06107173
-3.671993	downed	-0.08137462
-5.926661	downfield	0.07578968
-4.288173	downs	0.028696
-5.683624	drive	0.07537815
-6.227691	drives	-0.0001740391
-5.414778	drop	0.04865721
-5.113749	dropped	0.06837834
-4.642231	due	0.004043669
-6.227691	dump	0.007438479
-3.466892	during	-0.1242376
-5.829752	each	-0.0005221117
-6.227691	eighth	-0.0002502747
-5.926661	ejected	0.06020384
-6.227691	elbow	0.007438479
-5.75057	elected	0.01291095
-6.227691	elects	0.01341595
-6.227691	elibible	-0.0002078518
-6.227691	eligibible	0.04989733
-4.084677	eligible	0.05151794
-2.591957	end	-0.4000896
-6.227691	ended	0.04989733
-5.249968	ends	0.05733095
-5.829752	endzone	0.05994816
-2.714674	enforced	-0.4399883
-5.926661	entered	0.001067284
-6.227691	erased	-0.0002401193
-6.227691	errant	0.00482984
-3.847481	ers	-0.05190998
-6.227691	escaped	0.001423426
-6.227691	escapes	-0.0002515602
-6.227691	evaluation	0.04989733
-6.227691	ever	0.01341595
-6.227691	excess	-0.0002504033
-5.829752	excessive	-0.0006308747
-6.227691	exchange	-0.0002300922
-6.227691	extending	-0.0002516887
-3.147607	extra	-0.2301237
-6.227691	facemask	0.01526301
-3.515884	fair	-0.1137034
-6.0516	fake	0.004580244
-6.227691	falling	-0.0002459041
-6.227691	false	-0.0002513031
-6.227691	fastest	0.04989733
-5.829752	fell	0.00322771
-3.158209	field	-0.1550096
-6.227691	filed	2.451913e-05
-6.0516	final	0.002342865
-6.227691	finds	0.0002230395
-6.227691	fingers	0.004613344
-4.555594	first	0.08816589
-5.625632	flag	0.00363584
-6.227691	flare	-0.0002489892
-4.168886	flat	0.02754476
-5.352631	flea	0.03682348
-5.166994	flicker	0.1532885
-6.227691	flight	0.04989733
-5.75057	flushed	-1.929869e-05
-5.0516	fly	-0.003885749
-5.829752	foot	0.007153978
-1.694893	for	-1.162897
-6.227691	force	-0.0002504033
-5.414778	forced	0.006458091
-3.227909	formation	-0.08709634
-5.414778	forward	0.01701874
-6.227691	fought	0.008604816
-5.298273	foul	0.1134282
-5.574479	fourth	-0.001111903
-5.926661	franchise	-0.0006216743
-6.0516	free	0.005115777
-2.764994	from	-0.3705018
-5.298273	front	0.004256593
-4.295726	fumble	0.04832901
-5.574479	fumbled	0.05617293
-6.227691	fumbles	-0.000218008
-6.227691	further	-0.00025246
-2.861362	gain	-0.2952084
-4.550998	game	0.2070849
-5.487329	games	0.05690698
-6.227691	gave	-0.00025246
-6.227691	get	0.001423426
-5.926661	gets	0.001987277
-6.227691	given	0.001423426
-6.227691	gives	-0.0002523315
-6.227691	glanced	-0.0002353629
-3.195073	goal	-0.2006718
-6.227691	goalposts	0.02318443
-6.0516	goals	-0.0003003427
-5.926661	goes	-0.0006189747
-5.625632	going	0.01584612
-6.227691	grabs	0.0007040846
-6.227691	grazed	-0.000195767
-6.0516	groin	0.05828668
-6.0516	ground	0.001362124
-2.72465	guard	-0.3791226
-5.926661	had	-0.0007572519
-5.227692	half	0.1105662
-6.227691	halftime	0.04989733
-5.75057	hamstring	-0.000750255
-5.352631	hand	0.1024638
-5.298273	handed	0.06329284
-6.227691	handled	0.0008905426
-6.227691	handles	-0.00025246
-4.856624	handoff	0.06095437
-4.997243	hands	0.03816081
-6.227691	handtime	9.083829e-06
-4.564934	hang	-0.01145807
-5.023572	hangtime	-0.002847049
-6.0516	happened	-0.000503892
-4.75057	has	0.02509056
-6.227691	hash	-0.0002523315
-5.625632	have	0.0009152223
-6.227691	having	0.01341595
-5.382594	he	-0.001976369
-5.683624	head	0.05753773
-5.528722	heavy	-0.001346881
-6.227691	held	0.008604816
-5.528722	helmet	0.02784048
-5.829752	helped	-0.0006141632
-5.75057	high	0.03181365
-6.227691	hike	0.01526301
-5.926661	him	0.05935324
-6.227691	himself	0.0008837117
-4.856624	his	0.0002976446
-4.915938	history	0.1279429
-5.066324	hit	0.0954305
-6.0516	hits	0.001171225
-6.0516	hold	0.01609114
-5.829752	holding	-0.0006842675
-6.227691	home	-0.0002523315
-5.829752	hook	0.0493963
-5.166994	horse	-0.002894065
-6.227691	huddle	-0.0002327918
-6.227691	hurt	0.007438479
-5.449541	illegal	-0.001853988
-6.227691	illegally	0.0008905426
-6.227691	illness	-5.70242e-05
-6.227691	imcomplete	0.004613344
-5.324602	impetus	-0.00201519
-6.227691	improvised	-0.0002362628
-3.74197	in	-0.05802437
-6.0516	including	-0.000378635
-6.227691	incompete	0.003190146
-2.368523	incomplete	-0.5909129
-6.227691	incompletion	0.04989733
-6.227691	incorrect	-0.0002497605
-6.227691	index	6.426743e-05
-6.0516	individual	0.04964735
-6.0516	ineligible	-0.0003341554
-5.829752	infraction	0.07571942
-6.0516	initial	-0.0004513128
-6.227691	initially	-0.0002425618
-3.433204	injured	-0.07389562
-6.227691	injures	0.002924997
-4.765294	injury	0.08627954
-5.487329	inside	0.002880114
-3.472579	intended	-0.1154661
-6.227691	intentended	0.008604816
-5.324602	intercepted	0.056155
-5.487329	interception	0.05708743
-6.227691	interceptions	0.04989733
-5.926661	interference	0.05057995
-4.84748	into	-0.003770368
-6.0516	involving	0.0005991611
-2.803218	is	-0.3853985
-5.625632	it	0.01246476
-6.227691	ith	-0.0002513031
-6.227691	judge	-0.0002523315
-6.227691	judged	-0.0001348233
-6.227691	juggled	-0.0002522029
-5.926661	just	-0.0007342413
-5.829752	keeper	0.04951853
-5.829752	kept	0.0002376118
-6.0516	key	-0.0005024779
-5.227692	kick	0.1103105
-6.0516	kicked	0.001237817
-5.449541	kickoff	0.05165587
-2.777751	kicks	-0.3885941
-5.298273	knee	0.07284239
-3.601351	kneels	-0.07411188
-4.997243	knocked	-0.003010083
-6.227691	knocks	-0.0001858674
-6.227691	laceration	0.000121259
-5.829752	largest	-0.0009310343
-5.528722	last	0.009511926
-6.227691	lat	0.04989733
-6.0516	late	-0.0003752928
-5.487329	lateral	0.08875126
-5.829752	lateraled	0.01292148
-5.683624	lateralled	0.0125444
-5.625632	laterals	0.01597004
-5.926661	leader	-0.0004266093
-6.227691	leave	-0.000240505
-6.0516	leaves	-7.721555e-05
-2.137257	left	-0.7970492
-5.625632	leg	0.06290215
-6.227691	legally	-0.0002489892
-5.683624	limps	-0.0008665134
-4.306005	line	0.1139318
-5.206502	lined	-0.001509796
-6.227691	lineman	-0.0002523315
-5.03736	lines	-0.002764258
-6.0516	list	0.06709821
-6.227691	lobbed	0.001610194
-5.449541	locker	-0.00151256
-6.0516	lockerroom	0.04966308
-5.829752	lofted	0.004369108
-6.227691	long	-0.0002500176
-5.574479	longest	-0.00147623
-6.227691	looking	-0.0002353629
-5.414778	loose	-0.001573189
-5.683624	loss	0.05792481
-5.926661	lost	0.0009853581
-6.227691	low	-0.000218008
-6.227691	lower	0.002924997
-5.926661	made	0.03818013
-6.0516	maintain	-0.0003734931
-6.227691	make	-0.00025246
-6.227691	malfunction	-0.0001897244
-5.528722	many	-0.001260832
-5.926661	margin	-0.0002699822
-6.0516	mark	0.04990873
-6.0516	marked	-0.0003616665
-5.382594	marker	0.04826086
-6.227691	may	-0.0001782819
-6.227691	measured	0.01341595
-4.96052	measurement	0.06316622
-6.227691	measurements	-0.00025246
-6.227691	member	-1.741202e-05
-6.0516	men	0.0006163015
-6.227691	merger	-0.0001740391
-2.271643	middle	-0.6506432
-6.227691	midfield	0.04989733
-6.227691	midlde	0.04989733
-6.0516	minute	-0.0005024779
-5.487329	minutes	0.06575292
-6.227691	missed	0.007438479
-6.227691	misses	-0.0002507889
-6.227691	mistake	0.04989733
-5.926661	more	-0.0007555807
-5.625632	most	-0.001182503
-6.0516	motion	0.004558526
-6.227691	move	-0.0001740391
-6.0516	moved	0.01489307
-6.0516	moves	0.01423948
-6.0516	moving	0.002937947
-6.227691	muff	-5.70242e-05
-6.227691	muffed	0.001423426
-6.227691	named	0.0008905426
-3.75787	nd	-0.06981065
-4.445936	near	-0.01378779
-6.227691	nearing	-0.0002045092
-5.574479	nearly	-0.001259914
-6.227691	neck	0.03858574
-6.0516	negative	0.05006438
-6.227691	net	0.009528104
-6.227691	neutral	-0.0001021622
-5.352631	new	-0.002323147
-6.227691	next	8.95519e-06
-2.860709	no	-0.3694007
-6.227691	none	-0.0002522029
-5.249968	not	-0.003305288
-4.838526	now	-0.000291687
-6.227691	nullified	0.0008905426
-2.740836	ob	-0.4401303
-6.227691	observation	0.04989733
-6.227691	observed	0.04989733
-6.227691	occured	-0.0002401193
-5.926661	occurred	-0.0007270421
-3.266271	of	-0.1159539
-4.398388	off	0.08195403
-6.227691	offense	0.01341595
-6.227691	offensive	-0.0002459041
-5.926661	official	0.02268429
-6.227691	officially	-0.0002515602
-4.221226	offsetting	0.0337368
-6.227691	old	-0.0002479609
-2.620076	on	-0.4565502
-5.926661	one	-0.0004667661
-6.0516	only	0.003903153
-4.392001	onside	0.02244004
-6.227691	onto	0.001423426
-6.227691	opening	-0.0002511746
-6.227691	opponent	-0.0001348233
-5.926661	option	0.03808354
-6.0516	or	-0.0003785065
-6.227691	orginal	-0.00025246
-6.0516	originally	-0.0003776067
-6.227691	originated	0.04989733
-5.926661	other	0.0004115544
-3.566352	out	0.04511579
-6.227691	outage	0.04989733
-6.227691	outlet	0.00482984
-5.926661	outside	0.04941772
-5.273449	over	0.06598198
-5.574479	overthrown	0.07507733
-5.206502	own	-0.002999095
-6.227691	pad	0.004613344
-6.227691	part	-1.741202e-05
-5.926661	partially	-0.0006266877
-1.934241	pass	-0.9452729
-5.926661	passed	-0.0007467109
-6.0516	passer	-0.0003722076
-5.683624	passes	0.07319706
-5.75057	passing	-0.0003168336
-6.227691	patter	0.004613344
-4.438817	pattern	0.07368025
-6.227691	penality	0.01526301
-5.829752	penalized	0.008125627
-4.804446	penalty	0.07877137
-6.227691	per	-0.0002480894
-6.227691	picked	-0.0002353629
-5.273449	pitch	0.06732156
-6.227691	pitchback	0.01341595
-6.227691	pitched	0.01341595
-6.0516	pitches	0.01317398
-5.75057	place	5.2911e-05
-5.926661	placed	0.005288994
-4.702647	plane	-0.008299562
-6.227691	plat	9.083829e-06
-3.220157	play	-0.01721691
-6.0516	played	0.004360887
-5.249968	player	0.04765316
-5.528722	players	-0.0002192488
-6.0516	playoff	-0.0004923225
-6.0516	playoffs	0.02305813
-6.227691	plays	0.00242519
-4.702647	pm	0.01497586
-5.298273	pocket	0.05770742
-3.146164	point	-0.2303518
-5.625632	points	0.05860808
-5.926661	popped	0.000502668
-6.0516	position	0.06709821
-6.227691	possesion	-0.0002327918
-4.895253	possession	0.06274201
-5.0516	post	0.05249438
-6.227691	posted	-0.0002523315
-5.683624	postseason	-0.001122849
-5.249968	power	0.04752494
-4.671389	pressure	0.07540646
-6.227691	pressured	0.0008837117
-6.227691	presure	0.0008905426
-6.227691	prevent	0.001450913
-5.829752	previous	-0.0003698451
-6.227691	previously	0.02318443
-5.574479	prior	0.01228915
-6.227691	proable	0.04989733
-6.227691	probable	0.04989733
-6.227691	progress	-0.0002523315
-6.227691	prop	0.04989733
-6.227691	protect	-0.000220322
-5.926661	pts	5.446898e-06
-6.227691	punch	0.04989733
-4.625632	punt	0.06610636
-6.227691	punted	0.001423426
-6.227691	punter	0.01526301
-6.227691	punting	-0.0002511746
-2.80461	punts	-0.3493947
-2.880264	pushed	-0.3600775
-6.227691	pylon	-0.0001740391
-5.829752	qb	0.06811414
-6.0516	quad	-0.0004975931
-4.937657	quarter	0.1081852
-5.097358	quarterback	0.07812205
-6.227691	quarters	0.04989733
-6.227691	quaterback	0.01526301
-5.227692	questionable	0.08084404
-5.449541	quick	0.003440987
-3.304707	ran	-0.1552335
-5.625632	rays	0.05005832
-3.763053	rd	-0.06878822
-6.227691	re	0.03858574
-5.926661	reach	0.0004337003
-6.227691	reached	0.002469169
-5.249968	rear	0.00400512
-5.75057	rec	0.06013916
-6.227691	receive	0.04989733
-5.75057	received	0.001601519
-3.985896	receiver	0.07439187
-5.528722	receivers	0.04943671
-6.227691	receives	-0.0002513031
-5.382594	receiving	0.0699624
-6.227691	recent	0.01453702
-5.206502	reception	0.06604983
-5.528722	receptions	0.05724324
-6.227691	reciever	0.04989733
-4.96052	record	0.1304243
-6.227691	recover	0.0007901517
-6.227691	recoverd	0.0008905426
-3.859405	recovered	-0.04092216
-3.942134	recovers	-0.04137146
-5.574479	recovery	0.07503147
-6.227691	ref	0.04989733
-6.227691	referee	0.0004016954
-5.683624	regular	-0.000748609
-5.926661	remainder	-0.0002699822
-5.926661	remaining	0.04964476
-6.227691	remarked	0.0007901517
-6.227691	removed	0.0004940123
-5.683624	replaces	-0.0006067469
-5.249968	report	0.04744174
-5.113749	reported	-0.0032859
-4.376433	reports	-0.01296174
-6.227691	requires	-0.0002250786
-6.227691	reset	-0.0002243073
-6.227691	respotted	0.007438479
-5.926661	result	-0.0001344531
-6.0516	resulted	-0.0004261137
-6.227691	resulting	-0.0001740391
-6.227691	results	-0.0001740391
-6.227691	ret	0.04989733
-6.227691	retreating	0.0004940123
-6.227691	retruned	-0.0002516887
-3.766043	return	0.05004159
-5.926661	returned	0.01421683
-5.487329	returns	0.0805357
-5.113749	reverse	0.1384947
-5.574479	reversed	0.01249603
-6.0516	reverses	0.01336518
-6.0516	review	0.04977102
-6.227691	reviewed	0.01526301
-6.227691	rib	-0.0002452613
-2.102585	right	-0.8305117
-5.487329	roll	0.04447039
-5.683624	rolled	0.00216596
-5.926661	rolling	-0.000499117
-5.75057	rollout	0.06276864
-5.926661	rolls	0.01977066
-5.449541	room	0.06695353
-6.0516	roughing	0.001297123
-5.066324	route	0.06762319
-5.382594	rule	0.1214445
-5.926661	ruled	-0.0006099115
-3.696213	ruling	-0.07073101
-5.066324	run	0.129059
-4.382594	runner	-0.01719958
-6.227691	runnijng	-0.0002522029
-5.75057	running	-0.0006205165
-5.574479	runoff	0.06794121
-5.926661	runs	0.002555809
-5.130782	rush	0.06884517
-5.829752	rushed	0.01388209
-5.03736	rushes	0.004581691
-5.298273	rushing	0.07079697
-4.696213	s	0.008763465
-4.157654	sack	0.07060531
-3.13761	sacked	-0.1783548
-5.829752	sacks	0.05799782
-5.829752	safety	-0.0007961896
-6.227691	sails	-0.0002504033
-6.227691	same	-0.0002480894
-6.227691	save	0.004613344
-5.75057	saved	0.002564859
-6.0516	scimmage	-0.0003590954
-6.0516	score	0.04967563
-6.0516	scored	-0.0005033778
-6.0516	scores	0.00251886
-5.926661	scoring	-0.0007521099
-6.227691	scramble	0.04989733
-6.227691	scrambled	-0.0002401193
-3.427318	scrambles	-0.1048277
-6.227691	scrambling	-0.0001348233
-4.96052	screen	0.06505942
-6.227691	scrimamge	-0.0002327918
-4.696213	scrimmage	0.06068063
-6.0516	scrimmmage	-0.0003590954
-5.75057	seam	0.004202205
-4.972419	season	0.1091877
-5.186299	second	0.03533838
-4.4353	seconds	0.06102166
-6.227691	see	-0.0002504033
-5.926661	series	0.04951878
-6.0516	set	0.008380307
-5.926661	sets	-0.0006766451
-6.227691	several	-0.0001930671
-6.0516	sf	0.001092386
-5.130782	shaken	-0.002012015
-6.227691	shap	0.01341595
-6.227691	shifted	-0.0001740391
-6.227691	shin	0.04989733
-6.227691	shoe	0.04989733
-2.038496	short	-0.934534
-5.683624	shotgun	0.01455529
-5.528722	shoulder	0.05743261
-5.528722	shovel	0.00382044
-6.0516	shutout	-0.0003782494
-4.715808	side	0.0809376
-5.926661	sideliine	0.004360774
-3.95469	sideline	0.04373979
-6.227691	sidline	0.000121259
-6.227691	signaled	0.008604816
-5.683624	since	0.002988258
-5.926661	single	0.03821182
-6.227691	site	-1.741202e-05
-5.487329	skinny	-0.001384271
-4.856624	slant	0.06362034
-5.273449	slanting	0.0120437
-6.227691	slid	-5.70242e-05
-6.227691	sliding	-0.0001740391
-6.0516	slipped	0.004479849
-6.227691	slipping	0.04989733
-6.227691	slips	0.0007901517
-6.227691	slot	0.01526301
-5.926661	slowly	0.007077159
-4.097358	snap	0.08574176
-6.0516	snapped	-0.0003785065
-5.487329	sneak	0.06638546
-6.227691	spasms	0.04989733
-4.194268	spiked	-0.02480147
-6.227691	spiking	0.001423426
-4.210659	split	-0.02450154
-5.166994	spot	0.01273577
-5.574479	spotted	0.004357724
-5.75057	sprain	0.04977911
-5.829752	sprained	-0.0006293321
-6.227691	squib	-0.0002501462
-6.0516	squirted	0.0003677087
-3.754935	st	-0.06751371
-5.926661	stadium	0.07591322
-6.227691	staff	0.04989733
-6.227691	stands	-0.00025246
-5.487329	start	0.01560915
-5.574479	started	0.02874857
-6.227691	starter	0.04989733
-6.227691	status	0.0004310493
-5.414778	step	-0.001638368
-6.0516	stepped	0.0007574081
-6.227691	still	-0.0002250786
-6.227691	stinger	0.04989733
-4.194268	stop	-0.02480147
-6.0516	stopped	0.00835328
-5.625632	straight	-0.00137507
-6.0516	strain	0.04986426
-5.926661	strained	0.005888203
-5.926661	streak	-0.0006788308
-5.829752	stretcher	0.04937634
-6.227691	stumbled	-0.0002327918
-6.227691	subequently	-0.0002515602
-6.227691	substitution	-0.0002520744
-6.227691	suffered	0.0007901517
-5.75057	superseded	0.04939234
-6.227691	sweeping	0.002924997
-6.227691	swing	0.00482984
-6.227691	synced	-0.0002362628
-6.227691	system	-0.00025246
-4.5244	t	-0.01256892
-2.618898	tackle	-0.4031959
-5.298273	tackled	0.05446451
-6.0516	tackles	0.004440192
-5.352631	taken	0.02047258
-5.324602	takes	-0.0024105
-6.0516	taking	0.001176774
-5.206502	team	0.0467766
-6.0516	teams	0.008478513
-6.227691	ten	0.0002356509
-3.707864	th	-0.07812373
-6.227691	than	0.002282031
-6.0516	that	-0.0005018352
-2.414311	the	-0.6428552
-5.625632	their	0.002346582
-5.414778	then	-0.001066029
-6.227691	they	-0.0001651676
-5.683624	third	-0.001109608
-5.528722	this	-0.001027599
-6.227691	thr	0.003190146
-6.227691	three	0.04989733
-5.75057	threw	0.005563458
-5.324602	through	0.04907338
-5.449541	throw	0.06236515
-5.926661	throwing	0.0009470276
-4.677464	thrown	0.07426296
-5.625632	throws	0.00546761
-6.227691	tickets	0.000121259
-5.528722	tied	0.007485795
-5.298273	ties	-0.001628679
-5.926661	tight	0.000483462
-4.398388	time	0.1528922
-5.273449	timeout	0.1005251
-6.0516	timeouts	0.04964519
-6.0516	times	-0.0004988786
-6.227691	tip	0.004613344
-4.631094	tipped	0.05504786
-6.227691	tips	-0.0001858674
-1.508875	to	-1.268606
-6.0516	today	0.007881755
-5.528722	too	-0.001260832
-5.487329	took	-5.145988e-05
-6.227691	tops	0.00242519
-5.382594	toss	0.06379262
-6.0516	tossed	-0.0004375563
-6.0516	tosses	0.003554882
-6.227691	total	-0.00025246
-5.926661	touch	0.05080175
-5.352631	touchback	0.04887121
-5.574479	touchdown	0.0246864
-5.926661	touchdowns	0.02276244
-4.385707	touched	-0.01034639
-6.227691	touching	-0.0001858674
-5.829752	toward	0.007386277
-6.227691	towchdown	0.01526301
-6.227691	training	-0.00025246
-6.227691	travel	0.002282031
-6.227691	traveled	-0.0002522029
-6.227691	tried	0.01341595
-6.0516	tripped	-0.0005033778
-6.227691	trouble	0.04989733
-4.5244	try	0.001086758
-5.926661	turnaround	0.05522715
-5.829752	turning	0.0003790131
-6.227691	twice	0.007438479
-5.574479	two	0.03707867
-5.352631	tying	0.00115813
-5.683624	unabated	0.0127848
-6.227691	uncovered	0.0007901517
-5.03736	under	-0.001917139
-5.528722	underthrown	0.01151475
-6.227691	unkinown	0.04989733
-5.75057	unknown	0.06703006
-6.227691	unofficially	0.04989733
-2.58281	up	-0.4677809
-5.324602	update	0.01277211
-5.926661	upfield	0.04964476
-6.227691	upheld	-0.0002516887
-5.625632	upon	-0.001222872
-6.227691	upright	0.04989733
-6.227691	used	0.01526301
-6.0516	valve	0.05226037
-5.75057	victory	-0.0003714035
-5.528722	vs	0.04884317
-6.227691	walk	-0.0002353629
-6.227691	walked	-0.0002353629
-5.382594	walks	-0.001874485
-6.227691	warned	0.008604816
-3.219944	was	-0.1869928
-5.926661	waved	-0.0004879331
-6.227691	way	0.01341595
-5.75057	went	0.01265592
-6.0516	were	-0.0005046632
-6.0516	wheel	-0.0003752928
-5.926661	when	-0.0007442684
-5.829752	where	0.0008156353
-6.0516	which	-0.0002432477
-5.574479	while	0.0008252496
-6.0516	whistle	0.04977102
-5.206502	who	-0.003684433
-6.227691	whom	-0.000251046
-4.804446	wide	0.07104339
-6.227691	wideout	0.01526301
-5.926661	wildcat	-0.0002482454
-5.414778	will	-0.001883262
-5.683624	win	0.07713026
-6.227691	wind	0.02318443
-6.227691	winning	-0.0002515602
-5.926661	wins	0.04948222
-4.421512	with	0.06244684
-5.683624	within	0.003147057
-5.574479	won	0.0005400726
-6.0516	wrist	0.00719335
-5.75057	x	0.03808075
-2.702712	yard	-0.3304995
-5.449541	yardage	0.04958007
-1.65229	yards	-1.186302
-5.75057	yd	0.04948718
-4.895253	yds	0.05326353
-6.227691	year	-0.0002474466
-6.227691	yeard	-0.0002495034
-6.0516	years	0.007312175
-6.227691	zero	0.009528104
-3.460165	zone	-0.0344151
-4.335597	{	-0.008042207
-4.33839	}	0.02756098
-2.40272		-0.6774389

\2-grams:
-2.934877	" </s>
-3.235907	" Baltimore
-3.235907	" covering
-3.235907	" right
-0.637451	# 1	-0.1466917
-2.629562	# 10	-0.001714338
-2.8892	# 11	0.1061968
-3.027503	# 12	0.1264177
-3.629562	# 14
-3.328532	# 15
-2.27738	# 16	-0.003717452
-3.328532	# 17
-3.328532	# 18
-0.7869533	# 2	-0.1111188
-2.515619	# 20	-0.001774182
-2.754501	# 21	-0.0007483464
-2.453471	# 22	-0.002101056
-2.206317	# 23	0.2466612
-2.267835	# 24	-0.003621117
-2.58817	# 25	-0.00183508
-2.453471	# 26	-0.002221387
-2.8892	# 27	-0.0005303176
-3.085495	# 28
-2.515619	# 29	-0.002006003
-1.042413	# 3	-0.06171369
-3.629562	# 30
-2.784464	# 31	-0.001044053
-3.027503	# 32
-3.085495	# 33	-0.0002548671
-2.754501	# 34	-0.0008890949
-3.152441	# 35
-2.8892	# 36	0.1340614
-3.629562	# 37
-3.453471	# 38
-3.453471	# 39
-2.754501	# 4	-0.00147569
-3.453471	# 41
-3.453471	# 42
-2.568865	# 43	-0.001676157
-3.629562	# 45
-3.629562	# 47
-2.851411	# 5	0.1312077
-2.851411	# 50	-0.000637146
-2.532652	# 51	-0.001870601
-3.085495	# 52	-0.0002356652
-3.085495	# 53	-0.0004110712
-3.085495	# 54	-0.0002198756
-2.97635	# 55	-0.0002384083
-2.37429	# 56	-0.002813689
-3.085495	# 57	-0.0003903258
-3.328532	# 58
-3.231622	# 59
-2.97635	# 6	0.107358
-3.629562	# 60
-3.453471	# 62
-3.453471	# 63	-4.996819e-05
-3.152441	# 64	-0.0001639869
-3.453471	# 65
-2.930593	# 66	-0.0002414154
-3.453471	# 67
-2.930593	# 68	-0.0001989731
-3.629562	# 69
-2.499229	# 7	0.1167928
-3.328532	# 70	-0.0001181511
-3.085495	# 71	-0.0001439357
-3.629562	# 72
-3.629562	# 73
-3.453471	# 74
-2.174718	# 75	-0.001162463
-3.152441	# 76
-3.152441	# 77
-2.182405	# 78	-0.000495235
-2.629562	# 79	-0.0003201512
-2.851411	# 8	-0.001023663
-3.629562	# 80
-3.152441	# 81	-0.0001985224
-3.629562	# 82
-3.231622	# 83
-3.453471	# 84
-3.152441	# 85	-0.0001632486
-3.231622	# 86	-0.0001534465
-3.231622	# 87	-0.0001558375
-3.629562	# 88
-3.231622	# 89
-3.453471	# 9
-2.754501	# 90	0.2075734
-2.754501	# 91	-0.000715131
-2.297124	# 92	-0.00206475
-3.027503	# 93	-0.0004208142
-2.726473	# 94	-0.0008189578
-3.152441	# 95
-3.027503	# 96	-0.000128756
-3.027503	# 97	-0.0001398686
-3.085495	# 98	-0.0001391014
-2.8892	# 99	-0.0004756978
-2.935255	& 55	0.2098819
-3.060194	& 64	0.05595674
-3.060194	& 65	0.06104159
-3.236285	& 78
-3.236285	& Deion
-3.309736	' 04
-3.309736	' 131
-3.309736	' 33
-3.309736	' 72
-3.309736	' 94
-3.309736	' </s>
-3.133645	' Anderson
-2.406647	' Callaghan	0
-3.133645	' Callahan	0
-3.309736	' Coaching
-2.355494	' Connell	0
-3.309736	' Direct
-2.531585	' Hara	0
-3.309736	' Henry
-3.309736	' Keith
-1.619541	' Neal	0.00388026
-3.309736	' RB
-3.309736	' Ron
-1.108339	' Sullivan	0.0001049787
-3.309736	' Wildcat
-3.309736	' Witten
-3.309736	' hands
-3.133645	' pass	-0.0003485385
-1.784692	' s	-1.3588e-06
-1.606445	' t	0
-4.558533	( #
-1.437105	( 1	-0.2609406
-1.550104	( 10	-0.06773347
-1.54764	( 11	-0.06285295
-1.546456	( 12	-0.03553167
-1.570599	( 13	-0.08549869
-4.956473	( 136
-4.956473	( 138
-1.558881	( 14	-0.1223216
-4.956473	( 144
-2.031161	( 15	0.04276717
-3.343689	( 16	0.1038581
-3.328084	( 17	0.2173627
-3.594746	( 18	0.1720806
-3.558533	( 19	0.09614243
-4.956473	( 1983
-4.956473	( 1993
-1.446935	( 2	-0.2050358
-1.95474	( 20	0.003323168
-4.956473	( 2000
