
\data\
ngram 1=949
ngram 2=6596
ngram 3=5589

\1-grams:
-4.312107	//.	-0.001225426
-4.488198	0900/CD	0.03559515
-3.94413	1/CD	0.03978682
-3.886138	10/CD	0.002679034
-4.312107	100/CD	0.03513776
-3.357864	1000/CD	-0.01184191
-4.488198	1017/CD	0.005158908
-4.488198	1020pm/CD	0.03559515
-4.488198	1024/CD	0.005158908
-4.488198	1026/CD	0.03559515
-4.488198	1030am/CD	0.004651174
-4.312107	1039/CD	0.03647855
-4.488198	1045am/CD	0.03559515
-4.488198	1055/CD	-0.0008950651
-4.488198	1059/CD	0.03559515
-4.488198	106/CD	0.026046
-4.488198	1083/CD	0.026046
-3.176444	10am/CD	0.06092262
-3.789228	10pm/CD	0.04309507
-4.488198	11/CD	-0.0002100634
-3.94413	1100/CD	-0.00283133
-4.488198	110pm/CD	0.009740959
-4.312107	1110/CD	0.004701515
-4.090258	1115am/CD	0.003280438
-4.488198	1130am/CD	0.03559515
-4.488198	1133am/CD	0.004651174
-4.312107	1145am/CD	0.03513776
-4.488198	1158pm/CD	0.008037726
-4.090258	11am/CD	0.04537006
-4.312107	11pm/CD	0.03513776
-3.209445	12/CD	-0.0109192
-4.488198	1200/CD	-0.0008597822
-4.488198	1205/CD	0.005158908
-4.488198	1209/CD	0.03559515
-4.488198	1220pm/CD	0.004651174
-4.312107	1222/CD	0.02558861
-4.488198	1230pm/CD	0.03559515
-4.488198	124/CD	-0.0005491686
-4.090258	1245pm/CD	0.03422441
-4.488198	1288/CD	0.03559515
-4.187168	1291/CD	0.02619964
-3.675285	12pm/CD	0.07642432
-4.488198	130/CD	0.005158908
-4.488198	1300/CD	-0.0008597822
-4.488198	137338/CD	0.03559515
-4.488198	139/CD	0.03559515
-4.488198	150/CD	-0.0005491686
-4.488198	1500/CD	-0.0005491686
-4.488198	1505/CD	0.026046
-4.488198	1600/CD	-0.0008597822
-4.488198	163/CD	0.03559515
-4.312107	1700/CD	0.008882578
-4.312107	1765/CD	0.02558861
-4.488198	1850/CD	0.004651174
-4.488198	19/CD	0.026046
-4.488198	1940/CD	0.03559515
-3.467009	1991/CD	0.05686859
-4.090258	1992/CD	0.06317437
-4.488198	1993/CD	0.03559515
-3.886138	1pm/CD	0.03482347
-3.886138	2/CD	0.04034996
-4.488198	200/CD	-0.0005491686
-4.312107	201/CD	0.06408772
-4.187168	21/CD	0.03468085
-4.488198	210/CD	0.03559515
-4.090258	2100/CD	0.03422441
-4.488198	210pm/CD	0.03559515
-4.488198	212/CD	0.026046
-4.312107	2134/CD	0.03513776
-4.488198	2153/CD	0.026046
-4.488198	217/CD	0.026046
-4.488198	225pm/CD	0.0004477068
-4.488198	229/CD	0.026046
-4.488198	230/CD	0.009740959
-4.187168	230pm/CD	0.03468085
-4.488198	257/CD	0.03559515
-4.312107	269/CD	0.002571539
-4.187168	270/CD	0.0251317
-4.488198	271/CD	0.026046
-4.488198	279/CD	-0.0003937781
-3.94413	281/CD	0.02376384
-4.187168	296/CD	0.03194755
-4.488198	297/CD	0.026046
-3.510474	2pm/CD	0.07532507
-3.789228	3/CD	0.006710409
-4.488198	300/CD	-0.0005491686
-4.488198	305/CD	0.005158908
-4.488198	311/CD	0.03559515
-4.488198	315/CD	0.03559515
-4.488198	323/CD	-0.0008950651
-4.488198	324/CD	0.009740959
-4.488198	324pm/CD	0.03559515
-4.488198	329/CD	-0.0005491686
-4.488198	3357/CD	0.026046
-4.312107	343/CD	0.02558861
-4.488198	345/CD	0.026046
-4.488198	352/CD	0.026046
-4.312107	3724/CD	0.00300187
-3.789228	3pm/CD	0.07546254
-3.533956	4/CD	0.00335149
-4.488198	400/CD	-0.0005491686
-4.488198	402/CD	0.026046
-4.488198	405/CD	0.03559515
-4.187168	415/CD	0.03053593
-4.488198	416/CD	-0.0005491686
-4.488198	417/CD	0.026046
-4.488198	420/CD	0.008037726
-4.488198	428/CD	0.008037726
-4.488198	430/CD	0.004651174
-4.090258	430pm/CD	0.0398247
-4.488198	43pm/CD	0.03559515
-4.488198	4400/CD	0.026046
-4.488198	445/CD	0.004651174
-4.488198	459/CD	-0.0006480243
-3.886138	466/CD	-0.003286328
-4.488198	497766/CD	0.026046
-3.446805	4pm/CD	0.04358061
-3.32683	5/CD	0.03558944
-4.488198	500/CD	-0.0005491686
-4.312107	505/CD	0.02568571
-4.488198	515pm/CD	0.03559515
-4.312107	530/CD	0.04073804
-4.187168	530pm/CD	0.03468085
-4.488198	539/CD	0.03559515
-4.187168	555/CD	0.04397015
-3.056834	5pm/CD	0.04706968
-3.467009	6/CD	0.0391639
-4.488198	615pm/CD	0.03559515
-4.488198	630/CD	0.03559515
-4.187168	630am/CD	0.04331134
-4.312107	630pm/CD	0.03513776
-4.488198	645am/CD	-0.0004502902
-4.488198	650/CD	0.03559515
-3.198164	6pm/CD	0.03858036
-3.710047	7/CD	0.0008637989
-4.488198	705/CD	0.03051358
-4.488198	71/CD	0.026046
-4.090258	718am/CD	0.0437378
-4.312107	720am/CD	0.03513776
-4.488198	723pm/CD	0.03559515
-4.312107	727/CD	0.03057698
-4.312107	72s/CD	0.03475567
-4.488198	730pm/CD	0.03559515
-4.488198	733/CD	0.03559515
-4.488198	734/CD	0.03559515
-4.187168	737/CD	0.03423735
-4.488198	73s/CD	0.03559515
-4.488198	746/CD	-0.0006974436
-4.011077	747/CD	0.03946253
-4.488198	755/CD	0.007433101
-4.488198	755am/CD	0.007433101
-4.312107	757/CD	-9.68622e-06
-4.312107	767/CD	0.03513776
-4.488198	771/CD	0.003951332
-4.090258	7am/CD	0.04537006
-3.284078	7pm/CD	0.06622239
-3.558779	8/CD	0.03525816
-4.488198	810pm/CD	0.001312102
-4.187168	813/CD	0.0251317
-4.488198	815am/CD	0.03559515
-4.488198	819/CD	0.007433101
-4.488198	82/CD	0.004651174
-4.488198	823/CD	0.005158908
-4.090258	825/CD	0.02634752
-4.187168	838/CD	0.04003198
-4.312107	838am/CD	0.004987468
-4.312107	845/CD	0.004701515
-4.312107	852/CD	0.06408772
-3.585108	8am/CD	0.08574994
-3.467009	8pm/CD	0.05568586
-3.789228	9/CD	-0.004258087
-4.488198	928/CD	0.026046
-4.312107	932/CD	-0.001006562
-4.187168	934pm/CD	0.03468085
-4.488198	98/CD	0.03559515
-3.558779	9am/CD	0.04679208
-3.94413	9pm/CD	0.07423288
-1.093484	</s>
-99	<s>	-0.4915552
-1.835952	a/DT	-0.2460831
-4.488198	aa/NN	-0.0009021214
-3.886138	abbreviation/NN	-0.003049846
-4.312107	abbreviations/NNS	0.03513776
-4.488198	able/JJ	0.03051358
-3.15576	about/IN	0.01984224
-3.710047	about/RB	-0.006941372
-4.312107	ac/JJ	0.04073804
-4.488198	across/IN	-0.0007680331
-4.312107	actually/RB	0.00826105
-4.488198	advertises/VBZ	-0.0009021214
-2.4275	after/IN	-0.1070633
-2.548679	afternoon/NN	0.07857532
-4.488198	afternoons/NNS	0.03559515
-4.488198	afterwards/NNS	0.03559515
-3.675285	again/RB	0.06318279
-2.85473	air/NN	0.1020446
-4.312107	air/NNP	-0.001797187
-2.94413	aircraft/NN	0.03305652
-3.533956	airfare/NN	0.05381788
-4.488198	airfares/NNS	0.00163137
-2.834985	airline/NN	0.08633138
-2.162888	airlines/NNS	0.003271967
-3.789228	airplane/NN	0.03551701
-4.312107	airplanes/NNS	0.003999459
-2.655689	airport/NN	0.06809552
-3.409017	airports/NNS	0.06679526
-4.312107	alaska/NNP	0.00162135
-2.008911	all/DT	-0.1551056
-4.312107	along/IN	0.01450937
-3.488198	also/RB	0.07047984
-3.585108	am/RB	0.05963756
-3.747835	am/VB	-0.005474821
-4.187168	america/NNP	-0.001802313
-4.312107	american's/NNP	-0.001430092
-2.556232	american/NNP	0.0961974
-4.090258	amount/NN	0.0003884081
-3.011077	an/DT	-0.01261762
-1.894912	and/CC	0.05661243
-2.969684	angeles/NNP	0.07468624
-4.090258	another/DT	0.04394224
-2.776391	any/DT	-0.001797043
-4.488198	anything/DT	0.026046
-4.011077	anywhere/RB	0.08234929
-4.488198	ap/55/NN	0.03559515
-3.747835	ap/57/NN	0.03114599
-4.187168	ap/80/NN	0.03461359
-4.488198	ap/NN	0.001248276
-4.090258	ap57/NN	0.03387455
-4.488198	ap68/NN	0.03559515
-4.187168	ap80/NN	0.03468085
-4.312107	approximately/RB	-0.001761903
-3.409017	april/NNP	-0.01284273
-2.130263	are/VBP	-0.03196041
-4.090258	area/NN	0.03422441
-4.312107	arizona/NNP	0.01407
-2.989887	around/RB	-0.03561285
-3.94413	arrange/VB	0.004713675
-3.533956	arrangements/NNS	0.02041074
-4.488198	arrival/JJ	-0.0006127211
-4.090258	arrival/NN	0.005101772
-4.011077	arrivals/NNS	0.03188435
-2.63694	arrive/VB	-0.03091634
-3.32683	arrives/VBZ	-0.003446352
-2.503671	arriving/VBG	0.08985545
-3.391288	as/IN	0.05107313
-2.57704	at/IN	-0.01369406
-4.312107	atl/NN	0.06897694
-4.312107	atlanta's/NNS	-0.0004129543
-1.911281	atlanta/NNP	0.01421443
-2.802456	august/NNP	0.005076163
-2.505927	available/JJ	0.08672979
-4.312107	b/NN	0.05099908
-3.558779	back/RB	0.1013316
-1.998943	baltimore/NNP	-0.01664399
-4.488198	bay/NN	-0.0008809523
-3.391288	be/VB	0.02720897
-3.209445	beach/NNP	0.0680566
-2.529157	before/IN	-0.08396419
-4.488198	beginning/VBG	0.009740959
-4.488198	begins/VBZ	0.005158908
-4.488198	being/VBG	-0.0007750914
-4.488198	belong/VBP	0.03051358
-4.488198	besides/IN	-0.0002312654
-2.232926	between/IN	-0.02708377
-4.488198	bna/NN	0.03559515
-3.886138	boeing/NN	-0.004500999
-3.198164	book/NN	0.01600412
-4.312107	booking/JJ	-0.0003057002
-4.488198	booking/NN	0.0005114148
-4.187168	booking/VBG	-0.001406973
-1.761878	boston/NNP	-0.04901785
-3.886138	both/DT	-0.002086133
-4.312107	bound/VBN	0.03170363
-3.374255	breakfast/NN	0.03307646
-4.488198	bring/VB	-0.0008950651
-4.488198	bur/NN	0.03559515
-3.391288	burbank/NNP	0.09462757
-3.467009	business/NN	-0.008097729
-3.834985	but/CC	0.00141882
-4.312107	buy/VB	0.005009305
-3.585108	bwi/NN	0.07757954
-3.048865	by/IN	-0.0251975
-4.312107	c/NN	0.03513776
-3.270714	california/NNP	0.08011109
-4.488198	calling/VBG	0.026046
-2.692318	can/MD	-0.003206201
-3.94413	canada/NNP	0.06431042
-3.747835	canadian/NNP	-0.002020553
-4.488198	capacities/NNS	0.001759144
-3.747835	capacity/NN	0.03653514
-3.409017	car/NN	0.03289087
-3.675285	carolina/NNP	0.0881843
-4.312107	carries/VBZ	0.01360762
-4.187168	cars/NNS	0.04083405
-4.488198	catch/VB	-0.0004926692
-4.488198	charges/NNS	0.00163137
-2.789228	charlotte/NNP	0.1149301
-4.090258	cheap/JJ	0.02345129
-2.469082	cheapest/JJS	0.02410263
-2.784907	chicago/NNP	0.05631664
-4.187168	choices/NNS	0.00084484
-3.165979	cincinnati/NNP	0.07001721
-3.4275	cities/NNS	0.03208905
-2.494762	city/NN	0.03521199
-2.483877	class/NN	0.04500512
-3.6431	classes/NNS	0.002790112
-2.950379	cleveland/NNP	0.07120335
-4.187168	close/RB	0.02959927
-4.488198	closest/JJS	0.03051358
-4.187168	co/NN	-0.001915253
-3.221026	coach/NN	0.05328243
-2.919996	code/NN	-0.001890507
-3.886138	codes/NNS	0.03067405
-3.747835	colorado/NNP	0.06777598
-3.284078	columbus/NNP	0.06886102
-4.488198	come/VBP	0.026046
-4.011077	coming/VBG	0.02486566
-4.488198	companies/NNS	0.001028503
-4.488198	concerning/VBG	0.0002920151
-4.090258	connect/VBP	0.01191489
-3.467009	connecting/VBG	0.135562
-4.312107	connection/NN	0.001020434
-4.187168	connections/NNS	0.03699376
-4.488198	connects/VBZ	0.005158908
-4.488198	continent/NN	0.004651174
-2.802456	continental/JJ	0.07916659
-4.488198	continuing/VBG	0.03051358
-3.198164	cost/NN	0.07115381
-3.297866	cost/VB	0.0945401
-4.011077	costs/NNS	0.004904084
-3.090258	could/MD	-0.01586962
-3.585108	county/NN	0.06504673
-4.488198	cover/VBP	0.01658474
-4.312107	cp/NN	-0.001317175
-4.488198	currently/RB	0.0004406286
-4.488198	d/s/NN	-0.0007962657
-4.488198	d10/NN	0.03559515
-4.488198	d9s/NN	0.03559515
-3.187168	daily/RB	0.07931646
-1.97498	dallas/NNP	0.006675526
-4.312107	database/NN	0.03513776
-4.488198	date/NN	-0.0005350443
-3.257749	day/NN	0.1165114
-4.011077	days/NNS	0.06822106
-2.624875	dc/NN	0.09892632
-4.187168	dc10/NN	0.03454446
-3.284078	december/NNP	0.05327731
-4.187168	define/JJ	-0.001195036
-4.187168	delta's/NN	0.01516385
-2.743905	delta/NNP	0.1221326
-1.794032	denver/NNP	-0.0786975
-3.209445	depart/VB	0.09625309
-3.136016	departing/VBG	0.06495402
-4.090258	departs/VBZ	0.01036785
-3.789228	departure/NN	0.02992674
-4.090258	departures/NNS	0.03179694
-4.187168	describe/VB	0.005550277
-4.488198	designate/VB	-0.0007397986
-4.090258	destination/NN	0.003327041
-4.488198	determine/VB	0.008037726
-3.24516	detroit/NNP	0.08202043
-3.834985	dfw/NN	0.04885009
-2.834985	diego/NNP	0.1040096
-4.312107	difference/NN	0.001173977
-4.187168	different/JJ	0.006160667
-3.488198	dinner/NN	0.06441651
-4.312107	dinnertime/NN	0.03497833
-3.374255	direct/JJ	0.02064196
-4.488198	directly/RB	0.026046
-4.488198	discount/NN	0.0008938596
-3.585108	display/NN	0.01387029
-3.886138	distance/NN	0.02556129
-3.467009	dl/NN	0.05069914
-2.806957	do/VB	0.000272464
-2.460849	does/VBZ	-0.06044175
-4.488198	doesn't/VBZ	0.03559515
-3.073225	dollars/NNS	0.05442353
-4.488198	don't/VB	0.000200042
-2.950379	downtown/NN	0.1388499
-4.312107	dulles/NNS	0.04106503
-3.94413	during/IN	0.01692417
-4.011077	ea/NN	0.0491332
-3.94413	each/DT	0.009668533
-4.312107	earlier/JJR	-0.001013623
-2.624875	earliest/JJS	-0.01974733
-3.099032	early/JJ	0.0071047
-3.187168	early/RB	0.01779049
-3.4275	eastern/JJ	0.00292494
-4.488198	economic/JJ	0.0005114148
-3.221026	economy/NN	0.03980611
-4.312107	eight/CD	0.03471729
-4.011077	eighteenth/CD	0.03586156
-3.467009	eighth/CD	0.03557141
-3.675285	either/RB	0.04839924
-4.488198	eleven/CD	-0.0005985992
-3.675285	eleventh/CD	0.06013614
-4.488198	else/NN	-0.0008950651
-4.488198	enroute/NN	0.000235414
-4.488198	equal/JJ	0.03051358
-4.488198	equipment/NN	0.003772983
-2.732323	evening/NN	0.09432208
-4.488198	everywhere/RB	-0.000838611
-3.789228	ewr/NN	0.03155346
-3.090258	expensive/JJ	0.01127305
-3.747835	explain/VB	0.01091651
-3.613137	express/JJ	0.01111619
-4.488198	eye/NN	0.007433101
-3.710047	f/NN	0.0365808
-4.187168	f28/NN	0.06363081
-3.886138	far/RB	0.02784129
-2.380988	fare/NN	0.03526574
-2.553699	fares/NNS	0.02845067
-3.94413	february/NNP	-0.002343783
-4.011077	ff/NN	0.03370121
-3.297866	field/NN	0.0878188
-4.488198	fifteen/CD	0.03559515
-3.533956	fifteenth/CD	0.06718364
-3.446805	fifth/CD	0.0654632
-4.488198	final/JJ	-0.0008809523
-2.702868	find/VB	0.04388133
-4.488198	fine/NN	-3.334129e-05
-3.048865	first/CD	0.11035
-2.512766	first/JJ	-0.05146501
-4.187168	fit/VBP	0.008826654
-3.613137	flies/VBZ	0.02168204
-1.7203	flight/NN	-0.1902171
-1.403443	flights/NNS	-0.3433918
-3.675285	florida/NNP	0.06627672
-2.349895	fly/VB	0.09574024
-3.32683	flying/VBG	0.1046973
-4.187168	fn/NN	0.03424646
-4.090258	following/VBG	-0.0007214083
-2.346748	for/IN	0.07555015
-2.834985	fort/NN	-0.03879328
-4.312107	four/CD	0.008709039
-3.789228	fourteenth/CD	0.03431419
-3.446805	fourth/CD	0.03511973
-1.851209	francisco/NNP	-0.02477017
-4.488198	friday's/NNP	0.01658474
-2.834985	friday/NNP	0.09061376
-4.488198	fridays/NNPS	0.03559515
-4.312107	friends/NNS	0.03237492
-1.22044	from/IN	-0.5990521
-3.312107	general/NNP	-0.01333285
-4.090258	georgia/NNP	0.03519544
-3.090258	get/VB	0.06095757
-4.488198	gets/VBZ	0.005158908
-2.558779	give/VB	-0.05809264
-2.655689	go/VB	0.02144504
-3.446805	goes/VBZ	0.06397584
-2.969684	going/VBG	0.0434902
-4.488198	got/VBD	-0.0009021214
-4.187168	great/RB	-0.002466379
-4.488198	greatest/JJS	-0.0008456682
-2.440923	ground/NN	-0.06336459
-4.488198	grounds/NNS	0.0005680518
-3.747835	guardia/NNP	0.06875905
-3.747835	h/NN	0.03149585
-4.488198	hartfield/NNP	0.03559515
-3.446805	has/VBZ	0.04183258
-2.529157	have/VB	0.1295134
-4.488198	having/VBG	-0.0008809523
-4.187168	heading/VBG	0.0291556
-4.090258	hello/JJ	0.003851394
-4.090258	help/NN	0.007578868
-4.312107	here/RB	0.004307077
-3.789228	hi/NN	0.001475316
-4.312107	highest/JJS	0.001141193
-4.488198	hold/NN	0.03559515
-4.488198	home/NN	0.03559515
-4.488198	hopefully/RB	0.005466698
-4.488198	hou/NN	-0.0005562303
-3.886138	hours/NNS	0.04491713
-2.85473	houston/NNP	0.1045926
-2.655689	how/WRB	-0.02769116
-3.886138	hp/NN	0.03285799
-2.442875	i'd/VBD	-0.08781081
-4.011077	i'll/VB	-0.002042263
-3.099032	i'm/VB	-0.01862347
-4.488198	i've/VB	-0.0009021214
-1.931293	i/PRP	-0.2385212
-4.488198	iah/NN	-0.0005562303
-3.747835	if/IN	0.00248207
-1.857262	in/IN	-0.106416
-4.187168	include/VBP	0.004881929
-4.488198	includes/VBZ	-0.0007750914
-4.488198	including/VBG	-0.0008880088
-4.488198	indiana/NNP	0.001312102
-2.87015	indianapolis/NNP	0.06903882
-4.488198	inexpensive/JJ	0.007433101
-4.488198	inform/VB	0.00806654
-2.671957	information/NN	0.0558072
-4.488198	instead/IN	0.001759144
-4.488198	intercontinental/JJ	0.03559515
-3.467009	interested/VBN	-0.003450235
-3.145775	international/JJ	0.05413641
-3.198164	into/IN	0.03641
-1.969027	is/VBZ	-0.154344
-4.488198	it's/VB	0.009740959
-3.284078	it/PRP	0.04308309
-4.312107	itinerary/NN	0.002813954
-4.488198	j31/NN	-0.0004220351
-3.789228	january/NNP	-0.003074451
-3.747835	jersey/NNP	0.06533276
-4.488198	jet/NN	0.007433101
-4.011077	jfk/NN	0.06776337
-3.107987	jose/NNP	0.08576697
-2.834985	july/NNP	-0.008763209
-3.056834	june/NNP	-0.02777055
-4.312107	just/RB	0.009968767
-4.488198	k/NN	0.03559515
-2.875414	kansas/NNP	-0.03467314
-3.312107	kind/NN	-0.01086921
-4.488198	kindly/RB	0.0002849394
-4.187168	kinds/NNS	0.00084484
-3.15576	know/VB	0.03379203
-3.391288	la/NN	0.07531369
-2.976315	lake/NNP	0.008736588
-4.090258	land/NN	-0.001135322
-4.312107	landing/NN	0.01505188
-3.834985	landings/NNS	-0.001450982
-4.488198	lands/NNS	0.000235414
-4.488198	largest/JJS	-0.0008456682
-2.743905	las/NNP	-0.0473447
-3.257749	last/JJ	-0.00542473
-4.312107	lastest/JJS	-0.00157838
-3.446805	late/JJ	0.0500126
-4.488198	later/JJ	0.01658474
-4.011077	later/RB	0.003238455
-2.93797	latest/JJS	0.0004448816
-4.488198	lax/NN	-0.0007962657
-4.488198	laying/VBG	-0.0008597822
-3.834985	layover/NN	0.001967228
-3.176444	least/JJS	-0.01847058
-2.607384	leave/VB	0.1278135
-3.11713	leaves/VBZ	0.06211965
-2.290917	leaving/VBG	0.009104386
-3.187168	less/JJR	-0.01760717
-4.488198	lester/JJR	-0.0009021214
-4.011077	let's/VB	-0.002297151
-4.488198	let/VB	0.00806654
-4.488198	level/NN	0.03559515
-2.104383	like/VB	-0.08786178
-4.312107	limo/NN	0.004543303
-3.613137	limousine/NN	0.03266637
-4.488198	limousines/NNS	-0.0003937781
-3.145775	list/NN	-0.0170483
-2.191533	list/VB	-0.08646052
-4.488198	listed/VBN	-0.0007680331
-3.6431	listing/NN	-0.003698032
-4.488198	listings/NNS	0.001759144
-3.789228	live/VB	0.001513184
-4.312107	lives/VBZ	0.004701515
-4.488198	local/JJ	-0.0006127211
-4.488198	locate/VB	0.01658474
-4.312107	located/VBN	0.03513776
-3.886138	logan/NNP	0.07348711
-4.488198	long/JJ	0.003772983
-3.209445	long/NNP	-0.01681804
-3.94413	long/RB	0.002553876
-4.488198	longest/JJS	-0.0008809523
-4.312107	look/VB	0.002756902
-3.409017	looking/VBG	0.02220801
-2.969684	los/NNP	-0.02879352
-3.145775	louis/NNP	0.111981
-3.297866	love/VB	-0.01377008
-3.221026	lowest/JJS	-0.0142881
-4.488198	ls/NN	-0.0007962657
-4.011077	lufthansa/NNP	0.05814784
-3.710047	lunch/NN	0.03924812
-4.312107	m/NN	0.0350705
-4.312107	m80/NN	0.03513776
-3.357864	make/VB	0.02022364
-3.789228	makes/VBZ	0.001820973
-4.011077	making/VBG	0.003640009
-3.04104	many/JJ	-0.000556346
-3.834985	march/NNP	-0.003952452
-4.187168	maximum/JJ	-0.002098828
-4.488198	may//NP	-0.0002948646
-3.585108	may/MD	-0.002158927
-3.221026	may/NNP	0.01788884
-3.789228	mco/NN	0.0377137
-1.688858	me/PRP	-0.08972642
-3.198164	meal/NN	0.07509463
-3.747835	meals/NNS	0.046725
-4.488198	mealtime/NN	0.03559515
-3.081658	mean/VB	0.01373082
-4.187168	meaning/NN	0.00084484
-3.048865	memphis/NNP	0.07363831
-4.488198	mia/NN	0.03559515
-2.72477	miami/NNP	0.09316797
-4.312107	michigan/NNP	0.0374893
-4.011077	midnight/NN	0.03536724
-4.312107	midway/NN	0.00162135
-3.613137	midwest/NNP	-0.00671924
-2.699323	milwaukee/NNP	0.05466283
-4.488198	minimum/JJ	-0.0008950651
-3.107987	minneapolis/NNP	0.08264841
-4.187168	minnesota/NNP	0.05159155
-4.312107	missouri/NNP	0.03005618
-3.312107	mitchell/NNP	0.0234323
-2.630866	monday/NNP	0.06645869
-4.488198	mondays/NNPS	0.03559515
-4.312107	month/NN	0.001301751
-3.056834	montreal/NNP	0.1080384
-4.090258	more/JJR	0.01468165
-2.32833	morning/NN	0.08486395
-4.011077	mornings/NNS	0.06271843
-3.533956	most/JJS	-0.009380118
-3.11713	much/RB	0.002726223
-4.488198	must/MD	-0.0007397986
-3.789228	my/PRP$	0.001430011
-4.011077	name/NN	0.05219313
-4.312107	names/NNS	0.001301751
-3.090258	nashville/NNP	0.06847688
-4.011077	nationair/NNP	0.05825349
-4.090258	near/IN	-0.0002598956
-2.483877	need/VB	0.002110094
-4.488198	nevada/NNP	0.00166686
-2.582402	new/JJ	-0.06795631
-2.759844	newark/NNP	0.06355355
-2.839838	next/JJ	-0.02909577
-3.270714	night/NN	0.07560162
-4.488198	nights/NNS	0.03559515
-4.488198	nighttime/JJ	-0.0008456682
-3.834985	nineteenth/CD	0.06373178
-3.558779	ninth/CD	0.06643441
-3.834985	no/RB	0.03389692
-4.488198	non/JJ	0.0004193946
-2.633892	nonstop/JJ	0.06069642
-4.312107	nonstops/NNS	0.02558861
-2.74001	noon/NN	0.04564808
-4.187168	noontime/NN	0.06363081
-3.675285	north/JJ	-0.005829517
-3.284078	northwest/NNP	0.01436571
-3.232926	november/NNP	0.01927857
-3.297866	now/RB	0.05251756
-3.446805	number/NN	0.06441246
-3.94413	numbers/NNS	0.06491911
-4.187168	nw/NN	0.0343525
-2.789228	o'clock/NN	0.0852918
-4.488198	o'hare/VB	-0.0005985992
-4.488198	oak/NN	0.004651174
-2.403622	oakland/NNP	0.1136062
-3.675285	october/NNP	-0.006543594
-2.211736	of/IN	-0.04023598
-4.488198	off/RP	0.004651174
-3.94413	offer/VB	0.01203109
-4.488198	offered/VBN	0.004651174
-4.187168	offers/VBZ	0.05729835
-4.488198	oh/UH	-0.0008738958
-4.011077	ohio/NNP	0.07972036
-3.198164	okay/NN	0.03103649
-1.615459	on/IN	-0.2080286
-4.488198	once/RB	0.004201147
-4.488198	one's/CD	-0.0008880088
-2.574384	one/CD	0.03999733
-3.6431	only/RB	0.09112505
-3.510474	ontario/NNP	0.06144428
-4.488198	operating/NN	0.009740959
-4.488198	operation/NN	0.000235414
-4.187168	options/NNS	0.02752963
-2.919996	or/CC	0.1083787
-4.312107	ord/NN	0.0350705
-4.488198	order/NN	0.03559515
-4.312107	originate/VB	0.02520485
-4.187168	originating/VBG	0.004244604
-2.834985	orlando/NNP	0.06748275
-3.533956	other/JJ	0.01443282
-3.374255	out/IN	0.05781188
-3.886138	over/RP	0.0031308
-4.488198	overnight/JJ	0.01658474
-4.090258	passengers/NNS	0.03429743
-3.24516	paul/NNP	0.07527088
-4.488198	pearson/NNP	4.443881e-05
-4.090258	pennsylvania/NNP	0.04537006
-3.886138	people/NNS	0.02904626
-3.081658	petersburg/NNP	0.07203338
-2.019851	philadelphia/NNP	-0.01669998
-4.312107	philly/NNP	0.03513776
-2.793593	phoenix/NNP	0.05108979
-1.952904	pittsburgh/NNP	-0.05670117
-4.488198	place/NN	0.03559515
-4.187168	plan/VB	0.004552394
-3.585108	plane/NN	0.0352753
-3.834985	planes/NNS	0.006926764
-4.488198	planning/VBG	0.005466698
-2.303507	please/VB	-0.01538377
-3.284078	pm/RB	0.07695924
-3.391288	possible/JJ	0.07355358
-4.488198	prefer/VB	0.005466698
-4.488198	preferably/RB	-0.0004220351
-3.488198	price/NN	0.07383932
-4.488198	priced/VBN	0.0008938596
-3.488198	prices/NNS	0.07039303
-4.488198	proper/JJ	0.03559515
-4.187168	provide/VB	0.03475386
-4.011077	provided/VBN	-0.002354671
-4.488198	provides/VBZ	-0.0007680331
-4.488198	put/VB	0.00806654
-3.94413	q/NN	0.03973313
-3.94413	qo/NN	-0.002838392
-4.488198	qualify/VBP	0.001042679
-4.312107	quebec/NNP	0.03005618
-4.488198	question/NN	0.003772983
-3.94413	qw/NN	0.03885104
-3.675285	qx/NNP	0.03766714
-4.312107	rate/NN	-8.204253e-06
-4.090258	rates/NNS	0.005912929
-4.488198	reaches/VBZ	-0.000202996
-4.312107	reaching/VBG	-0.0008010742
-4.488198	red/JJ	-0.0009021214
-4.488198	regarding/VBG	0.006219194
-4.011077	rent/VB	0.003640009
-3.533956	rental/NN	-0.003057805
-4.187168	rentals/NNS	0.007060923
-4.312107	repeat/VB	0.01844686
-4.488198	repeating/VBG	0.001312102
-4.488198	represented/VBN	0.005158908
-4.090258	requesting/VBG	0.006062365
-4.187168	reservation/NN	0.02675754
-4.312107	reservations/NNS	0.02558861
-3.4275	restriction/NN	0.02309781
-4.312107	restrictions/NNS	0.009283566
-3.6431	return/JJ	0.01936485
-3.747835	return/NN	0.1309943
-3.886138	return/VB	0.105076
-3.558779	returning/VBG	0.05723505
-4.488198	reverse/VB	0.01406501
-3.789228	right/RB	0.006693467
-2.481732	round/JJ	-0.08323036
-4.488198	route/NN	0.03559515
-4.488198	run/NN	-0.0006339034
-4.488198	runs/VBZ	0.026046
-4.312107	s//NN	-0.001698385
-4.488198	s/NN	0.03559515
-4.187168	sa/NN	0.03468085
-2.976315	salt/NNP	-0.02837165
-3.533956	same/JJ	-0.001363955
-1.787927	san/NNP	-0.307453
-2.806957	saturday/NNP	0.13912
-4.090258	saturdays/NNPS	0.06317437
-4.312107	say/VBP	-0.001599559
-4.488198	scenario/NN	-0.0008880088
-3.4275	schedule/NN	0.02897392
-4.312107	schedule/VB	0.01366764
-4.488198	scheduled/VBN	0.001042679
-4.312107	schedules/NNS	0.02558861
-4.488198	sd/d/NN	0.03559515
-4.488198	seat/NN	0.009740959
-3.789228	seating/VBG	-0.004929063
-4.090258	seats/NNS	0.03068359
-2.859809	seattle/NNP	0.09419139
-3.284078	second/CD	0.06545438
-3.056834	see/VB	0.02560605
-3.270714	september/NNP	-0.01698146
-3.270714	serve/VB	0.0147703
-3.488198	served/VBD	0.03815828
-3.284078	serves/VBZ	0.03496968
-3.165979	service/NN	0.143909
-4.312107	serviced/VBN	-0.0009853751
-4.187168	services/NNS	0.01241516
-3.886138	serving/VBG	0.004268462
-4.488198	seven/CD	0.03559515
-4.488198	seventeen/CD	0.026046
-3.789228	seventeenth/CD	0.03266907
-2.844745	seventh/CD	0.1151181
-3.94413	sfo/NN	0.06715217
-3.789228	shortest/JJS	0.02526721
-3.710047	should/MD	0.000237558
-1.767212	show/VB	-0.2714517
-4.488198	single/JJ	-0.0002807322
-4.090258	six/CD	0.03524935
-4.090258	sixteen/CD	0.06331594
-3.789228	sixteenth/CD	0.06292205
-3.585108	sixth/CD	0.07772221
-3.710047	smallest/JJS	-0.00601321
-4.312107	snack/NN	0.03513776
-4.312107	so/CC	0.002329258
-4.312107	so/SO	0.001209467
-3.834985	some/DT	-0.003514142
-4.488198	somebody/DT	-0.0009021214
-4.011077	sometime/RB	0.004522237
-4.312107	soon/RB	-0.0001923925
-4.187168	sorry/NN	0.003185127
-4.488198	sort/NN	0.001759144
-4.488198	sounds/VBZ	-0.0008880088
-4.011077	southwest/NNP	0.03677445
-4.488198	spend/VB	-0.0005844767
-2.682018	st./NNP	-0.05505841
-3.558779	stand/VB	-0.005768142
-4.187168	stands/VBZ	0.0001283747
-4.312107	stapleton/NNP	-0.0005605348
-4.488198	start/VB	0.026046
-4.011077	starting/VBG	0.03101224
-4.488198	staying/VBG	-0.000429099
-4.488198	still/RB	-0.0008597822
-4.488198	stop//VB	0.005158908
-3.064952	stop/NN	0.03502438
-3.176444	stop/VB	0.02838838
-3.003898	stopover/NN	0.01636675
-4.011077	stopovers/NNS	0.008519726
-3.4275	stopping/VBG	-0.00403949
-3.34207	stops/NNS	0.1147581
-4.488198	straight/RB	-0.0007892077
-4.488198	such/PDT	0.005466698
-4.488198	summer/NN	0.03559515
-4.312107	sunday's/NNP	0.01612735
-2.72853	sunday/NNP	0.1380025
-4.187168	sundays/NNPS	0.03468085
-4.488198	supper/NN	-0.0007750914
-4.312107	sure/JJ	0.004872802
-4.488198	symbols/NNS	-0.0007962657
-3.176444	tacoma/NNP	0.07685743
-3.391288	take/VB	0.1004372
-4.312107	takeoff/NN	0.03105621
-3.94413	takeoffs/NNS	0.002369013
-4.488198	takes/VBZ	0.01406501
-4.312107	taking/VBG	-0.001557199
-3.081658	tampa/NNP	0.06791438
-4.187168	taxi/NN	0.02425858
-2.85473	tell/VB	-0.02876757
-4.187168	ten/CD	-0.001774086
-4.187168	tennessee/NNP	0.07462152
-3.675285	tenth/CD	0.03838769
-4.187168	texas/NNP	0.06852003
-3.081658	than/IN	-0.02929023
-3.789228	thank/VB	-0.002992703
-4.488198	thanks/NNS	0.004651174
-4.488198	that's/DT	-0.0005421065
-2.226935	that/DT	-0.08289666
-1.469706	the/DT	-0.4289062
-4.011077	their/PRP$	-0.00113478
-4.488198	them/PRP	-0.0008950651
-3.585108	then/RB	0.0668229
-2.4275	there/EX	0.08658891
-4.488198	thereafter/RB	-0.0007397986
-4.011077	these/DT	0.014527
-4.312107	they/PRP	0.002500266
-4.488198	thing/NN	0.005158908
-3.32683	third/CD	0.0977691
-4.312107	thirteenth/CD	0.03475567
-3.613137	thirtieth/CD	0.04880674
-3.834985	thirty/CD	-0.003719663
-3.467009	this/DT	0.03922854
-4.090258	those/DT	0.05252873
-4.187168	three/CD	0.03526185
-4.011077	thrift/NN	-0.00112943
-3.533956	through/IN	0.03805745
-2.62786	thursday/NNP	0.08703075
-4.187168	thursdays/NNPS	0.03468085
-3.090258	ticket/NN	0.09924807
-3.675285	tickets/NNS	0.03734641
-3.15576	time/NN	0.1412652
-3.374255	times/NNS	0.1059211
-1.156063	to/TO	-0.5745425
-3.558779	today/NN	0.06484689
-2.94413	tomorrow/NN	0.05737796
-4.488198	tonight/NN	0.026046
-4.312107	too/RB	0.0349169
-2.82544	toronto/NNP	0.09825517
-4.090258	total/JJ	-0.002816888
-4.488198	toward/IN	0.006664138
-4.312107	tower/NN	-0.0007663896
-4.488198	town/NN	0.03559515
-4.312107	train/NN	0.03005618
-4.488198	trans/NNS	-0.0009021214
-4.312107	transcontinental/JJ	0.006975708
-3.710047	transport/NN	0.04966412
-2.467009	transportation/NN	0.09651404
-3.15576	travel/VB	0.04299113
-3.834985	traveling/VBG	0.06885103
-4.488198	travels/VBZ	0.026046
-2.448784	trip/NN	0.09599946
-4.187168	trips/NNS	0.0251317
-4.488198	try/NN	-0.0006762645
-3.94413	trying/VBG	0.02823141
-2.652508	tuesday/NNP	0.1439753
-4.090258	tuesdays/NNPS	0.0633232
-4.187168	turboprop/NN	0.0532921
-3.064952	twa/NNP	0.1314313
-3.710047	twelfth/CD	0.04202083
-4.488198	twelve/CD	0.03559515
-3.488198	twentieth/CD	0.11738
-2.706443	twenty/CD	-0.01580171
-3.510474	two/CD	0.0379726
-3.11713	type/NN	-0.01749734
-3.613137	types/NNS	-0.0005002297
-3.510474	ua/NN	0.02533033
-3.710047	under/IN	-0.004809726
-2.646213	united/NNP	0.07254633
-4.312107	up/RP	0.02676958
-4.312107	us/NNP	-0.001352458
-2.849709	us/PRP	0.00770238
-4.488198	usa/NNP	-0.0003089965
-3.886138	use/VB	0.04650396
-3.270714	used/VBN	0.1032102
-3.886138	uses/VBZ	0.04871932
-3.533956	using/VBG	0.009602142
-4.312107	utah/NNP	0.04024801
-4.312107	various/JJ	-0.001648975
-2.74001	vegas/NNP	0.05368289
-4.312107	very/RB	-0.001472465
-3.510474	via/IN	0.007695769
-4.488198	vicinity/NN	0.001759144
-4.488198	visit/VB	0.00806654
-2.590571	want/VBP	-0.006751224
-4.488198	wanted/VBD	0.03051358
-4.488198	wants/VBZ	0.03051358
-2.256474	washington/NNP	0.04733482
-2.601707	way/NN	0.1134823
-4.187168	we're/VB	-0.001364594
-4.488198	wednesday's/NNP	0.01658474
-2.431293	wednesday/NNP	0.06276554
-3.613137	wednesdays/NNPS	0.03662095
-3.510474	week/NN	0.03956483
-3.789228	weekday/NN	0.0615187
-4.090258	weekdays/NNS	0.03589671
-4.187168	well/RB	-0.002183865
-4.187168	west/NN	0.03479031
-3.533956	westchester/NNP	-0.00327788
-4.011077	what're/WDT	0.01223832
-2.875414	what's/NNS	-0.01280691
-1.690238	what/WDT	-0.2931268
-3.789228	when/WRB	0.009246709
-3.6431	where/WRB	0.01929896
-4.488198	whether/IN	-0.000838611
-2.54619	which/WDT	-0.02714192
-4.488198	while/IN	-0.0005703537
-4.312107	who/WP	-0.0008364366
-3.488198	will/MD	-0.00229855
-4.187168	wish/VBP	0.02959927
-2.519715	with/IN	-0.01910058
-4.312107	within/IN	0.01818817
-4.312107	without/IN	-0.0004543714
-4.488198	working/VBG	0.009740959
-4.488198	world/NN	-0.0002807322
-2.834985	worth/NN	0.1163708
-2.349895	would/MD	-0.09926587
-3.789228	y/NN	0.0091947
-4.488198	year/NN	-0.0007680331
-3.886138	yes/UH	0.02173341
-3.886138	yn/NN	0.0325712
-4.312107	york's/NNP	-0.001168701
-2.616042	york/NNP	0.04272442
-2.442875	you/PRP	-0.0321463
-3.558779	your/PRP$	0.01025794
-4.488198	yyz/NN	0.03559515
-4.488198	zone/NN	0.003772983

\2-grams:
-2.500602	//. dl/NN
-2.676236	0900/CD </s>
-2.678518	1/CD </s>
-2.678518	1/CD in/IN
-2.280578	1/CD o'clock/NN	0.005702695
-2.678973	10/CD in/IN
-2.134905	10/CD o'clock/NN	0.006163449
-2.500602	100/CD </s>
-1.557195	1000/CD dollars/NNS	0.007353141
-2.676236	1017/CD in/IN
-2.676236	1020pm/CD </s>
-2.676236	1024/CD in/IN
-2.676236	1026/CD </s>
-2.676236	1030am/CD and/CC
-2.676694	1039/CD from/IN
-2.676694	1039/CD on/IN
-2.676236	1045am/CD </s>
-2.676236	1055/CD //.
-2.676236	1059/CD </s>
-2.676236	106/CD from/IN
-2.676236	1083/CD from/IN
-1.739484	10am/CD </s>
-1.994757	10am/CD and/CC	-0.001587402
-2.693727	10am/CD any/DT
-2.693727	10am/CD boston/NNP
-2.693727	10am/CD first/JJ
-2.517636	10am/CD in/IN	0.06376936
-2.693727	10am/CD local/JJ
-2.216606	10am/CD on/IN	0.01403605
-2.392697	10am/CD what/WDT	0.004924407
-2.02667	10pm/CD </s>
-2.679882	10pm/CD on/IN
-2.676236	11/CD o'clock/NN
-2.13445	1100/CD dollars/NNS	0.01274081
-2.676236	110pm/CD on/IN
-2.500602	1110/CD in/IN	0.06376936
-2.279667	1115am/CD and/CC	-0.001030693
-2.676236	1130am/CD </s>
-2.676236	1133am/CD and/CC
-2.500602	1145am/CD </s>
-2.676236	1158pm/CD what/WDT
-2.376577	11am/CD </s>
-2.677607	11am/CD on/IN
-2.500602	11pm/CD </s>
-1.952044	12/CD and/CC	-0.002246909
-1.738164	12/CD noon/NN	0.02511294
-1.952044	12/CD o'clock/NN	0.005513876
-2.676236	1200/CD hours/NNS
-2.676236	1205/CD in/IN
-2.676236	1209/CD </s>
-2.676236	1220pm/CD and/CC
-2.500602	1222/CD from/IN	0.002942146
-2.676236	1230pm/CD </s>
-2.676236	124/CD dollars/NNS
-2.279667	1245pm/CD </s>
-2.676236	1288/CD </s>
-2.501059	1291/CD from/IN
-2.67715	1291/CD round/JJ
-2.283301	12pm/CD </s>
-2.137173	12pm/CD less/JJR	0.01476878
-2.681241	12pm/CD on/IN
-2.681241	12pm/CD to/TO
-2.676236	130/CD in/IN
-2.676236	1300/CD hours/NNS
-2.676236	137338/CD </s>
-2.676236	139/CD </s>
-2.676236	150/CD dollars/NNS
-2.676236	1500/CD dollars/NNS
-2.676236	1505/CD from/IN
-2.676236	1600/CD hours/NNS
-2.676236	163/CD </s>
-2.676694	1700/CD hours/NNS
-2.676694	1700/CD on/IN
-2.500602	1765/CD from/IN	0.05549949
-2.676236	1850/CD and/CC
-2.676236	19/CD from/IN
-2.676236	1940/CD </s>
-1.755426	1991/CD </s>
-2.684845	1991/CD carries/VBZ
-2.508754	1991/CD from/IN
-2.684845	1991/CD i'd/VBD
-2.677607	1992/CD </s>
-2.376577	1992/CD from/IN	0.05550093
-2.676236	1993/CD </s>
-2.134905	1pm/CD </s>
-2.678973	1pm/CD leaving/VBG
-2.678973	2/CD </s>
-2.678973	2/CD first/JJ
-2.502882	2/CD in/IN	0.06376936
-2.377943	2/CD o'clock/NN
-2.676236	200/CD dollars/NNS
-2.676694	201/CD </s>
-2.676694	201/CD from/IN
-2.376121	21/CD </s>
-2.676236	210/CD </s>
-2.279667	2100/CD </s>
-2.676236	210pm/CD </s>
-2.676236	212/CD from/IN
-2.500602	2134/CD </s>
-2.676236	2153/CD from/IN
-2.676236	217/CD from/IN
-2.676236	225pm/CD arriving/VBG
-2.676236	229/CD from/IN
-2.676236	230/CD on/IN
-2.376121	230pm/CD </s>
-2.676236	257/CD </s>
-2.676694	269/CD leaving/VBG
-2.676694	269/CD please/VB
-2.376121	270/CD from/IN	0.0369096
-2.676236	271/CD from/IN
-2.676236	279/CD or/CC
-2.13445	281/CD from/IN	0.05367472
-2.67715	296/CD denver/NNP
-2.67715	296/CD from/IN
-2.67715	296/CD serves/VBZ
-2.676236	297/CD from/IN
-1.808886	2pm/CD </s>
-2.683947	2pm/CD and/CC
-2.683947	2pm/CD from/IN
-2.683947	2pm/CD next/JJ
-2.683947	2pm/CD on/IN
-2.679882	3/CD and/CC
-2.503791	3/CD in/IN	0.06376936
-2.281942	3/CD o'clock/NN	0.01040176
-2.503791	3/CD stops/NNS	0.0004117595
-2.676236	300/CD dollars/NNS
-2.676236	305/CD in/IN
-2.676236	311/CD </s>
-2.676236	315/CD </s>
-2.676236	323/CD //.
-2.676236	324/CD on/IN
-2.676236	324pm/CD </s>
-2.676236	329/CD dollars/NNS
-2.676236	3357/CD from/IN
-2.500602	343/CD from/IN	0.05549949
-2.676236	345/CD from/IN
-2.676236	352/CD from/IN
-2.500602	3724/CD baltimore/NNP	0.06640701
-2.202761	3pm/CD </s>
-2.503791	3pm/CD between/IN
-2.679882	3pm/CD from/IN
-2.679882	3pm/CD on/IN
-2.285557	4/CD and/CC	-0.0008238811
-2.030285	4/CD in/IN	0.06103507
-2.206376	4/CD o'clock/NN
-2.676236	400/CD dollars/NNS
-2.676236	402/CD from/IN
-2.676236	405/CD </s>
-2.67715	415/CD and/CC
-2.67715	415/CD dollars/NNS
-2.67715	415/CD from/IN
-2.676236	416/CD dollars/NNS
-2.676236	417/CD from/IN
-2.676236	420/CD what/WDT
-2.676236	428/CD what/WDT
-2.676236	430/CD and/CC
-2.376577	430pm/CD </s>
-2.677607	430pm/CD and/CC
-2.676236	43pm/CD </s>
-2.676236	4400/CD from/IN
-2.676236	445/CD and/CC
-2.676236	459/CD depart/VB
-2.076913	466/CD dollars/NNS	0.01409349
-2.676236	497766/CD from/IN
-1.840196	4pm/CD </s>
-2.509202	4pm/CD and/CC
-2.208173	4pm/CD on/IN	0.02771722
-2.685294	4pm/CD or/CC
-2.68842	5/CD </s>
-2.512329	5/CD and/CC
-2.38739	5/CD in/IN	0.06331245
-1.627722	5/CD o'clock/NN	0.02316982
-2.676236	500/CD dollars/NNS
-2.676694	505/CD from/IN
-2.676694	505/CD or/CC
-2.676236	515pm/CD </s>
-2.676694	530/CD </s>
-2.676694	530/CD and/CC
-2.376121	530pm/CD </s>
-2.676236	539/CD </s>
-2.501059	555/CD </s>
-2.67715	555/CD what/WDT
-1.444132	5pm/CD </s>
-2.699404	5pm/CD and/CC
-2.699404	5pm/CD but/CC
-2.699404	5pm/CD can/MD
-2.699404	5pm/CD it/PRP
-2.699404	5pm/CD next/JJ
-2.699404	5pm/CD nonstop/JJ
-2.000434	5pm/CD on/IN	0.06154136
-2.699404	5pm/CD or/CC
-2.523313	5pm/CD the/DT	0.005261356
-2.684845	6/CD </s>
-2.684845	6/CD and/CC
-2.684845	6/CD in/IN
-1.730603	6/CD o'clock/NN	0.01655356
-2.676236	615pm/CD </s>
-2.676236	630/CD </s>
-2.501059	630am/CD </s>
-2.67715	630am/CD flight/NN
-2.500602	630pm/CD </s>
-2.676236	645am/CD going/VBG
-2.676236	650/CD </s>
-1.595937	6pm/CD </s>
-2.215726	6pm/CD and/CC
-2.692847	6pm/CD between/IN
-2.692847	6pm/CD next/JJ
-2.090787	6pm/CD on/IN	0.03838079
-2.379759	7/CD in/IN	0.06331245
-2.027576	7/CD o'clock/NN	0.007238598
-2.676236	705/CD to/TO
-2.676236	71/CD from/IN
-2.501516	718am/CD </s>
-2.677607	718am/CD american/NNP
-2.677607	718am/CD flight/NN
-2.500602	720am/CD </s>
-2.676236	723pm/CD </s>
-2.676694	727/CD from/IN
-2.676694	727/CD i/PRP
-2.676694	72s/CD </s>
-2.676694	72s/CD airplane/NN
-2.676236	730pm/CD </s>
-2.676236	733/CD </s>
-2.676236	734/CD </s>
-2.501059	737/CD </s>
-2.67715	737/CD hold/NN
-2.676236	73s/CD </s>
-2.676236	746/CD cost/VB
-2.678063	747/CD from/IN
-2.678063	747/CD leaving/VBG
-2.678063	747/CD on/IN
-2.501972	747/CD that/DT	0.0002846206
-2.676236	755/CD flight/NN
-2.676236	755am/CD flight/NN
-2.500602	757/CD arriving/VBG
-2.500602	767/CD </s>
-2.676236	771/CD pittsburgh/NNP
-2.376577	7am/CD </s>
-2.677607	7am/CD on/IN
-1.73551	7pm/CD </s>
-2.689753	7pm/CD and/CC
-2.291813	7pm/CD from/IN
-2.689753	7pm/CD in/IN
-2.145685	7pm/CD next/JJ	0.01261972
-2.513661	7pm/CD please/VB	0.01703444
-2.382017	8/CD </s>
-2.506956	8/CD in/IN	0.06376936
-1.904896	8/CD o'clock/NN	0.02546026
-2.676236	810pm/CD leaving/VBG
-2.376121	813/CD from/IN	0.05504258
-2.676236	815am/CD </s>
-2.676236	819/CD flight/NN
-2.676236	82/CD and/CC
-2.676236	823/CD in/IN
-2.677607	825/CD flying/VBG
-2.501516	825/CD from/IN	0.0291768
-2.677607	825/CD leaving/VBG
-2.67715	838/CD </s>
-2.67715	838/CD and/CC
-2.67715	838/CD make/VB
-2.676694	838am/CD and/CC
-2.676694	838am/CD which/WDT
-2.500602	845/CD in/IN	0.06376936
-2.676694	852/CD </s>
-2.676694	852/CD from/IN
-2.080536	8am/CD </s>
-2.682596	8am/CD flight/NN
-2.506505	8am/CD from/IN
-2.682596	8am/CD is/VBZ
-2.381566	8am/CD on/IN	0.008986821
-2.682596	8am/CD tuesday/NNP
-1.985875	8pm/CD </s>
-2.684845	8pm/CD and/CC
-2.684845	8pm/CD before/IN
-2.684845	8pm/CD for/IN
-2.684845	8pm/CD friday/NNP
-2.684845	8pm/CD in/IN
-2.508754	8pm/CD monday/NNP	0.001421842
-2.508754	8pm/CD on/IN
-2.684845	8pm/CD tomorrow/NN
-2.684845	8pm/CD wednesday/NNP
-2.679882	9/CD hours/NNS
-2.02667	9/CD o'clock/NN	0.006488529
-2.676236	928/CD from/IN
-2.500602	932/CD dollars/NNS	0.01456558
-2.376121	934pm/CD </s>
-2.676236	98/CD </s>
-1.942684	9am/CD </s>
-2.683047	9am/CD during/IN
-2.683047	9am/CD in/IN
-2.506956	9am/CD on/IN
-2.683047	9am/CD tell/VB
-2.683047	9am/CD thursday/NNP
-2.280578	9pm/CD </s>
-2.678518	9pm/CD from/IN
-2.678518	9pm/CD on/IN
-3.470557	<s> 630am/CD
-99	<s> <s>	0
-2.868498	<s> a/DT	0.003625143
-3.470557	<s> actually/RB
-3.294466	<s> afternoon/NN
-3.470557	<s> again/RB
-3.169528	<s> airline/NN
-3.470557	<s> airlines/NNS
-3.169528	<s> airports/NNS	0.001319736
-1.939079	<s> all/DT	0.09266165
-3.072618	<s> also/RB	-2.842466e-05
-3.294466	<s> am/RB	0.001340722
-2.692406	<s> american/NNP	0.04953694
-3.294466	<s> an/DT
-2.868498	<s> and/CC	3.146124e-05
-3.470557	<s> anything/DT
-2.055584	<s> are/VBP	0.01607386
-3.072618	<s> atlanta/NNP	0.08269281
-3.169528	<s> baltimore/NNP	0.0659501
-3.470557	<s> before/IN
-3.470557	<s> between/IN
-2.993436	<s> boston/NNP	0.1372881
-3.470557	<s> bring/VB
-1.908265	<s> can/MD	0.01116198
-2.771587	<s> cheapest/JJS	0.03468457
-3.294466	<s> chicago/NNP	0.01595819
-3.294466	<s> coach/NN
-3.470557	<s> code/NN
-3.470557	<s> continental/JJ
-2.180523	<s> could/MD	0.004359398
-3.470557	<s> daily/RB
-2.926489	<s> dallas/NNP	0.0577813
-3.169528	<s> define/JJ	0
-3.169528	<s> delta/NNP	0.006876375
-3.169528	<s> denver/NNP	0.09586533
-3.169528	<s> describe/VB
-2.567467	<s> display/NN	0
-3.470557	<s> dl/NN
-2.138119	<s> do/VB	0.01628238
-1.958674	<s> does/VBZ	0.0225297
-3.294466	<s> earliest/JJS	0.04735197
-3.470557	<s> early/JJ
-3.294466	<s> eastern/JJ
-3.470557	<s> economy/NN
-3.470557	<s> evening/NN
-2.771587	<s> explain/VB	-4.305039e-06
-3.470557	<s> fare/NN
-2.993436	<s> fares/NNS	0.0005082347
-1.958674	<s> find/VB	0.01923044
-3.470557	<s> fine/NN
-2.771587	<s> first/JJ	0.05914737
-2.191804	<s> flight/NN	0.1794911
-1.674677	<s> flights/NNS	0.2632354
-3.294466	<s> fly/VB	0.06950022
-3.294466	<s> flying/VBG	0.007618298
-3.470557	<s> for/IN
-3.470557	<s> friday's/NNP
-2.32443	<s> from/IN	0.07475033
-3.470557	<s> get/VB
-1.746282	<s> give/VB	0.02425118
-3.470557	<s> great/RB
-2.280226	<s> ground/NN	0.07510409
-3.072618	<s> hello/JJ	0
-2.771587	<s> hi/NN	0
-3.294466	<s> houston/NNP	-0.0001105295
-1.671217	<s> how/WRB	0.003568441
-1.541139	<s> i'd/VBD	0.01930395
-3.470557	<s> i'll/VB
-2.191804	<s> i'm/VB	0.002531311
-1.035191	<s> i/PRP	0.01182877
-2.730195	<s> in/IN	0.06378085
-2.492834	<s> information/NN	0.02837632
-3.470557	<s> instead/IN
-3.470557	<s> interested/VBN
-1.812546	<s> is/VBZ	0.1047236
-3.470557	<s> july/NNP
-3.470557	<s> kindly/RB
-3.470557	<s> last/JJ
-3.470557	<s> latest/JJS
-3.470557	<s> leave/VB
-3.294466	<s> leaving/VBG
-3.294466	<s> let's/VB
-3.470557	<s> like/VB
-1.343453	<s> list/VB	0.03575648
-3.470557	<s> listing/NN
-3.470557	<s> locate/VB
-2.868498	<s> looking/VBG	0.0067575
-3.169528	<s> lowest/JJS	0.003498296
-2.625459	<s> may/MD	0.0009028981
-3.470557	<s> minneapolis/NNP
-2.926489	<s> morning/NN	0.01906322
-3.294466	<s> my/PRP$
-3.470557	<s> name/NN
-3.470557	<s> names/NNS
-3.294466	<s> need/VB
-2.993436	<s> newark/NNP	0.01620652
-3.470557	<s> next/JJ
-3.470557	<s> no/RB
-2.868498	<s> nonstop/JJ	0.02605728
-3.470557	<s> northwest/NNP
-2.429165	<s> now/RB	0.001730515
-3.072618	<s> oakland/NNP	0.01788166
-3.294466	<s> of/IN
-3.470557	<s> oh/UH
-2.180523	<s> okay/NN	0
-2.191804	<s> on/IN	0.1067865
-3.294466	<s> one/CD	0.05444587
-3.470557	<s> only/RB
-2.730195	<s> philadelphia/NNP	0.05887697
-3.169528	<s> phoenix/NNP	0.01640021
-2.868498	<s> pittsburgh/NNP	0.08417697
-1.447305	<s> please/VB	0.005441397
-3.294466	<s> pm/RB	0.0008501083
-3.294466	<s> price/NN	0.004504473
-3.169528	<s> rental/NN	0.0004317464
-3.470557	<s> repeating/VBG
-3.294466	<s> requesting/VBG	0.000913343
-3.470557	<s> return/NN
-2.391376	<s> round/JJ	0.07210498
-2.993436	<s> san/NNP	0.2526632
-3.169528	<s> saturday/NNP	0.0007147756
-3.470557	<s> sfo/NN
-2.993436	<s> shortest/JJS	0.0009056946
-0.7929505	<s> show/VB	0.0213677
-3.470557	<s> sunday's/NNP
-3.470557	<s> sunday/NNP
-3.294466	<s> sure/JJ
-2.340224	<s> tell/VB	0.02554136
-3.072618	<s> thank/VB	0.002274989
-3.470557	<s> thanks/NNS
-2.926489	<s> the/DT	0.02809466
-3.470557	<s> then/RB
-3.294466	<s> train/NN	0
-3.470557	<s> tuesday/NNP
-3.169528	<s> united/NNP	0.03399929
-3.470557	<s> us/NNP
-2.926489	<s> us/PRP	0.02950926
-3.470557	<s> very/RB
-3.470557	<s> we're/VB
-3.169528	<s> wednesday/NNP	0.009860201
-3.470557	<s> weekday/NN
-3.470557	<s> well/RB
-2.993436	<s> what're/WDT	0
-1.908265	<s> what's/NNS	0.0006268732
-0.7011802	<s> what/WDT	0.009100825
-2.868498	<s> when/WRB	-3.817724e-06
-2.730195	<s> where/WRB	-1.57482e-05
-1.902356	<s> which/WDT	0.003101885
-3.470557	<s> while/IN
-3.294466	<s> would/MD	5.02913e-05
-2.868498	<s> yes/UH	0
-2.964966	a/DT 100/CD
-2.964966	a/DT 124/CD
-2.964966	a/DT 4/CD
-2.964966	a/DT 727/CD
-2.788875	a/DT 72s/CD
-2.964966	a/DT 733/CD
-2.964966	a/DT 734/CD
-2.964966	a/DT 73s/CD
-2.487845	a/DT 747/CD	0
-2.964966	a/DT 9/CD
-2.964966	a/DT airline/NN
-2.420898	a/DT boeing/NN	-3.360678e-06
-2.663936	a/DT breakfast/NN	0.001305175
-2.964966	a/DT business/NN
-2.362906	a/DT car/NN	0.002195057
-2.663936	a/DT cheap/JJ	-1.926557e-06
-2.663936	a/DT class/NN	-0.0003159959
-2.567026	a/DT coach/NN	0.002595288
-2.964966	a/DT connecting/VBG
-2.964966	a/DT connection/NN
-2.964966	a/DT continental/JJ
-2.964966	a/DT d9s/NN
-2.964966	a/DT dallas/NNP
-2.964966	a/DT day/NN
-2.487845	a/DT delta/NNP	0.003875027
-2.788875	a/DT dinner/NN
-2.487845	a/DT direct/JJ	0.0008426041
-2.964966	a/DT evening/NN
-2.964966	a/DT fare/NN
-1.904269	a/DT first/JJ	0.05196148
-0.6479483	a/DT flight/NN	0.09962021
-2.788875	a/DT friday/NNP	0.01658205
-2.964966	a/DT j31/NN
-2.964966	a/DT jet/NN
-2.788875	a/DT late/JJ
-2.362906	a/DT layover/NN	0.000454521
-2.964966	a/DT limo/NN
-2.567026	a/DT limousine/NN	0.003622855
-1.697795	a/DT list/NN	0.003078556
-2.152053	a/DT listing/NN	0.0004521552
-1.760846	a/DT meal/NN	0.0003570663
-2.964966	a/DT minneapolis/NNP
-2.224604	a/DT monday/NNP	0.02215501
-2.663936	a/DT morning/NN	0.006685313
-2.964966	a/DT name/NN
-2.964966	a/DT night/NN
-1.904269	a/DT nonstop/JJ	0.002205592
-2.061876	a/DT one/CD	0.04854319
-2.420898	a/DT plane/NN	-2.13841e-05
-2.964966	a/DT red/JJ
-2.567026	a/DT rental/NN	0.002691968
-2.663936	a/DT reservation/NN	0
-2.420898	a/DT return/JJ	0.001344476
-2.964966	a/DT return/NN
-1.642747	a/DT round/JJ	0.06412792
-2.487845	a/DT saturday/NNP	0.01513203
-2.567026	a/DT schedule/NN	0.004485231
-2.964966	a/DT single/JJ
-2.788875	a/DT snack/NN	0
-1.697795	a/DT stop/NN	0.003803136
-1.510121	a/DT stopover/NN	0.00126894
-2.224604	a/DT sunday/NNP	0.01773146
-2.964966	a/DT taxi/NN
-2.186815	a/DT thursday/NNP	0.01922479
-2.311754	a/DT ticket/NN	0.01141932
-2.964966	a/DT to/TO
-2.964966	a/DT transcontinental/JJ
-2.152053	a/DT trip/NN	0.005093393
-2.035547	a/DT tuesday/NNP	0.02031479
-2.788875	a/DT turboprop/NN	-1.447159e-06
-2.487845	a/DT twa/NNP	0.001621883
-2.420898	a/DT united/NNP	0.03478621
-2.663936	a/DT us/PRP	0.02906371
-2.788875	a/DT wednesday/NNP	0.02925012
-2.567026	a/DT weekday/NN	-9.57388e-06
-2.676236	aa/NN 459/CD
-2.678973	abbreviation/NN co/NN
-2.678973	abbreviation/NN d10/NN
-2.678973	abbreviation/NN dl/NN
-2.502882	abbreviation/NN for/IN
-2.678973	abbreviation/NN ua/NN
-2.678973	abbreviation/NN us/PRP
-2.500602	abbreviations/NNS </s>
-2.676236	able/JJ to/TO
-2.694605	about/IN 7pm/CD
-2.393575	about/IN a/DT	0.1092882
-2.694605	about/IN april/NNP
-2.694605	about/IN arrivals/NNS
-2.694605	about/IN car/NN
-1.694605	about/IN flights/NNS	0.2848602
-1.995635	about/IN ground/NN	0.07909659
-2.150537	about/IN the/DT	0.003069553
-2.694605	about/IN twa/NNP
-2.379759	about/RB 12/CD	0.006179219
-2.680789	about/RB 3/CD
-2.680789	about/RB 4/CD
-2.504697	about/RB 7pm/CD
-2.379759	about/RB 8/CD	0.003609548
-2.680789	about/RB mealtime/NN
-2.676694	ac/JJ </s>
-2.676694	ac/JJ and/CC
-2.676236	across/IN this/DT
-2.676694	actually/RB want/VBP
-2.676694	actually/RB what/WDT
-2.676236	advertises/VBZ having/VBG
-2.769747	after/IN 1/CD
-2.769747	after/IN 10/CD
-2.769747	after/IN 1020pm/CD
-2.769747	after/IN 1024/CD
-2.769747	after/IN 1026/CD
-2.371806	after/IN 10am/CD	0.00569824
-2.769747	after/IN 10pm/CD
-2.769747	after/IN 11/CD
-2.593655	after/IN 11pm/CD	0
-1.924648	after/IN 12/CD	0.006146087
-2.769747	after/IN 1200/CD
-2.769747	after/IN 1205/CD
-2.769747	after/IN 1230pm/CD
-1.956833	after/IN 12pm/CD	0
-2.769747	after/IN 130/CD
-2.769747	after/IN 1300/CD
-2.769747	after/IN 1600/CD
-2.593655	after/IN 1700/CD
-2.593655	after/IN 1pm/CD
-2.371806	after/IN 2/CD	0.0004521189
-2.371806	after/IN 2100/CD	0
-2.593655	after/IN 2134/CD	0
-2.371806	after/IN 2pm/CD	0.005425874
-2.593655	after/IN 3/CD
-2.769747	after/IN 305/CD
-2.225678	after/IN 3pm/CD	-8.616131e-06
-2.468716	after/IN 4/CD	0.001336527
-2.468716	after/IN 430pm/CD	-1.926557e-06
-2.029384	after/IN 4pm/CD	0.004958269
-2.070776	after/IN 5/CD	0.006253317
-2.769747	after/IN 530/CD
-2.769747	after/IN 530pm/CD
-1.690565	after/IN 5pm/CD	0.01047769
-1.924648	after/IN 6/CD	0.002236702
-1.792023	after/IN 6pm/CD	0.006615225
-2.468716	after/IN 718am/CD	-1.443317e-06
-2.769747	after/IN 723pm/CD
-2.593655	after/IN 7am/CD	0.0004549846
-2.116534	after/IN 7pm/CD	0.008949723
-2.292625	after/IN 8/CD	0.002697163
-2.769747	after/IN 815am/CD
-2.769747	after/IN 823/CD
-2.593655	after/IN 845/CD	0
-2.468716	after/IN 8am/CD	0.002250735
-1.956833	after/IN 8pm/CD	0.001324358
-2.468716	after/IN 934pm/CD	0
-2.769747	after/IN 9am/CD
-2.292625	after/IN 9pm/CD	0.0004554744
-2.769747	after/IN a/DT
-2.769747	after/IN delta/NNP
-2.593655	after/IN lunch/NN
-2.769747	after/IN midnight/NN
-1.792023	after/IN noon/NN	0.03626928
-2.769747	after/IN say/VBP
-2.769747	after/IN sunday/NNP
-2.292625	after/IN tomorrow/NN	0.009840099
-1.141121	afternoon/NN </s>
-1.794333	afternoon/NN and/CC	0.01922674
-2.748576	afternoon/NN any/DT
-2.350636	afternoon/NN arriving/VBG	0.03600243
-2.748576	afternoon/NN first/JJ
-1.794333	afternoon/NN flight/NN	0.1796206
-1.669394	afternoon/NN flights/NNS	0.2981406
-1.935662	afternoon/NN from/IN	0.08296467
-2.748576	afternoon/NN going/VBG
-2.748576	afternoon/NN have/VB
-2.748576	afternoon/NN i/PRP
-2.748576	afternoon/NN nonstop/JJ
-2.204508	afternoon/NN on/IN	0.0251272
-2.572484	afternoon/NN or/CC
-2.748576	afternoon/NN please/VB
-2.748576	afternoon/NN show/VB
-2.748576	afternoon/NN tomorrow/NN
-2.572484	afternoon/NN what's/NNS	0.002016006
-2.748576	afternoon/NN what/WDT
-2.676236	afternoons/NNS </s>
-2.676236	afterwards/NNS </s>
-2.028029	again/RB </s>
-2.681241	again/RB i/PRP
-2.681241	again/RB on/IN
-2.681241	again/RB qx/NNP
-2.681241	again/RB the/DT
-2.71307	air/NN 1039/CD
-2.71307	air/NN 269/CD
-2.71307	air/NN 311/CD
-1.867972	air/NN </s>
-2.71307	air/NN and/CC
-2.71307	air/NN around/RB
-2.536979	air/NN at/IN
-2.536979	air/NN boston/NNP
-2.41204	air/NN canada/NNP	-4.321686e-06
-2.71307	air/NN cost/VB
-2.41204	air/NN fare/NN
-2.41204	air/NN fares/NNS	0.04013695
-2.536979	air/NN first/JJ	0.06100961
-2.31513	air/NN flight/NN	0.1689663
-1.80998	air/NN flights/NNS	0.2605079
-2.536979	air/NN fly/VB	0.06950022
-1.934919	air/NN from/IN	0.08999677
-2.41204	air/NN have/VB
-2.71307	air/NN how/WRB
-2.71307	air/NN laying/VBG
-2.71307	air/NN leaving/VBG
-2.71307	air/NN next/JJ
-2.71307	air/NN number/NN
-2.536979	air/NN on/IN
-2.71307	air/NN restrictions/NNS
-2.71307	air/NN round/JJ
-2.71307	air/NN stopping/VBG
-2.71307	air/NN taxi/NN
-2.31513	air/NN that/DT	0.01642458
-2.71307	air/NN with/IN
-2.676694	air/NNP 2153/CD
-2.676694	air/NNP 269/CD
-2.5302	aircraft/NN </s>
-2.5302	aircraft/NN and/CC
-2.405261	aircraft/NN are/VBP	0.0008000738
-2.5302	aircraft/NN available/JJ
-2.706291	aircraft/NN can/MD
-2.706291	aircraft/NN departing/VBG
-2.5302	aircraft/NN do/VB	0.03193355
-2.22917	aircraft/NN does/VBZ	0.007026317
-2.706291	aircraft/NN flies/VBZ
-2.706291	aircraft/NN fly/VB
-2.706291	aircraft/NN for/IN
-2.706291	aircraft/NN has/VBZ
-1.752048	aircraft/NN is/VBZ	-0.002556829
-2.405261	aircraft/NN leaves/VBZ	0.001678931
-2.405261	aircraft/NN leaving/VBG
-2.706291	aircraft/NN number/NN
-2.706291	aircraft/NN of/IN
-2.007321	aircraft/NN that/DT	-0.0008650101
-2.706291	aircraft/NN type/NN
-2.706291	aircraft/NN types/NNS
-2.5302	aircraft/NN united/NNP	0.0344562
-2.162223	aircraft/NN used/VBN	0.006231932
-2.5302	aircraft/NN will/MD
-2.706291	aircraft/NN you/PRP
-2.507406	airfare/NN between/IN
-2.683497	airfare/NN flight/NN
-2.683497	airfare/NN flights/NNS
-2.683497	airfare/NN for/IN
-1.984527	airfare/NN from/IN	0.02981134
-2.507406	airfare/NN of/IN
-2.683497	airfare/NN round/JJ
-2.676236	airfares/NNS between/IN
-2.112689	airline/NN </s>
-2.538657	airline/NN abbreviations/NNS	0
-2.714749	airline/NN and/CC
-2.714749	airline/NN besides/IN
-2.714749	airline/NN can/MD
-2.538657	airline/NN code/NN
-2.714749	airline/NN dl/NN
-2.714749	airline/NN ff/NN
-2.714749	airline/NN flies/VBZ
-2.714749	airline/NN flight/NN
-1.974386	airline/NN flights/NNS	0.2613979
-2.413719	airline/NN fly/VB	0.06950167
-2.714749	airline/NN flying/VBG
-2.538657	airline/NN for/IN
-2.237628	airline/NN from/IN
-2.061536	airline/NN has/VBZ	0.001766587
-1.974386	airline/NN have/VB	0.02355566
-2.714749	airline/NN hp/NN
-1.936597	airline/NN is/VBZ	0.1039074
-2.538657	airline/NN nw/NN	-1.447159e-06
-2.714749	airline/NN offer/VB
-2.538657	airline/NN offers/VBZ
-2.714749	airline/NN on/IN
-2.714749	airline/NN other/JJ
-2.714749	airline/NN provides/VBZ
-2.714749	airline/NN serves/VBZ
-2.714749	airline/NN stands/VBZ
-2.237628	airline/NN that/DT
-2.714749	airline/NN ua/NN
-2.538657	airline/NN us/PRP	-0.0001117532
-2.714749	airline/NN uses/VBZ
-2.714749	airline/NN with/IN
-1.172933	airlines/NNS </s>
-2.83569	airlines/NNS a/DT
-2.057539	airlines/NNS and/CC	0.01005053
-2.83569	airlines/NNS any/DT
-2.534661	airlines/NNS are/VBP
-2.659599	airlines/NNS arriving/VBG
-2.136721	airlines/NNS between/IN	0.03020357
-2.83569	airlines/NNS connect/VBP
-2.83569	airlines/NNS departing/VBG
-2.83569	airlines/NNS do/VB
-2.437751	airlines/NNS first/JJ	0.06009626
-2.659599	airlines/NNS flies/VBZ
-1.705357	airlines/NNS flight/NN	0.164825
-1.568519	airlines/NNS flights/NNS	0.3185289
-1.404327	airlines/NNS fly/VB	0.06001217
-2.358569	airlines/NNS flying/VBG	0.007611106
-2.534661	airlines/NNS for/IN	0.01232455
-1.365869	airlines/NNS from/IN	0.2952228
-2.83569	airlines/NNS give/VB
-2.534661	airlines/NNS go/VB	0.04114479
-2.659599	airlines/NNS going/VBG	0.01345313
-1.721747	airlines/NNS have/VB	0.009118809
-2.534661	airlines/NNS in/IN
-2.291623	airlines/NNS international/JJ	0.009693028
-2.83569	airlines/NNS is/VBZ
-2.83569	airlines/NNS kansas/NNP
-2.83569	airlines/NNS leave/VB
-2.136721	airlines/NNS leaving/VBG	0.01339436
-2.83569	airlines/NNS may/MD
-2.83569	airlines/NNS offer/VB
-2.358569	airlines/NNS on/IN	0.01072782
-2.659599	airlines/NNS out/IN	0.008102265
-2.659599	airlines/NNS provide/VB
-2.534661	airlines/NNS serve/VB
-2.83569	airlines/NNS serves/VBZ
-2.659599	airlines/NNS service/NN
-2.83569	airlines/NNS serving/VBG
-2.83569	airlines/NNS stop/VB
-2.83569	airlines/NNS stopping/VBG
-1.857967	airlines/NNS that/DT	0.006761299
-2.83569	airlines/NNS their/PRP$
-2.83569	airlines/NNS tomorrow/NN
-2.83569	airlines/NNS tuesday/NNP
-2.437751	airlines/NNS uses/VBZ	0.0009080644
-2.659599	airlines/NNS which/WDT
-1.932601	airlines/NNS with/IN	0.003461158
-2.679882	airplane/NN </s>
-2.378852	airplane/NN goes/VBZ	0.00585629
-2.378852	airplane/NN is/VBZ	-1.965766e-05
-2.679882	airplane/NN it's/VB
-2.679882	airplane/NN types/NNS
-2.676694	airplanes/NNS are/VBP
-2.676694	airplanes/NNS that/DT
-1.421845	airport/NN </s>
-1.80418	airport/NN and/CC	-0.001863574
-2.557507	airport/NN at/IN
-2.733598	airport/NN by/IN
-2.733598	airport/NN can/MD
-2.733598	airport/NN for/IN
-2.335659	airport/NN from/IN	-0.001268111
-2.557507	airport/NN have/VB
-1.80418	airport/NN in/IN	0.04882443
-2.557507	airport/NN into/IN
-2.557507	airport/NN is/VBZ
-2.733598	airport/NN limousine/NN
-2.733598	airport/NN mco/NN
-2.432569	airport/NN next/JJ	0.001536102
-1.391176	airport/NN to/TO	0.07400183
-1.908038	airports/NNS </s>
-2.510098	airports/NNS by/IN	0.00210771
-2.686189	airports/NNS does/VBZ
-2.209068	airports/NNS in/IN	0.0005630533
-2.686189	airports/NNS near/IN
-2.510098	airports/NNS to/TO	-0.0007935175
-2.686189	airports/NNS today/NN
-2.500602	alaska/NNP airlines/NNS
-2.71321	all/DT afternoon/NN	0.008025358
-2.889302	all/DT aircraft/NN
-2.889302	all/DT airline/NN
-2.41218	all/DT airlines/NNS	0.004287753
-2.287242	all/DT airports/NNS	-4.524342e-05
-2.889302	all/DT all/DT
-2.889302	all/DT am/RB
-2.41218	all/DT american/NNP	0.04877085
-2.889302	all/DT arrivals/NNS
-2.889302	all/DT available/JJ
-2.889302	all/DT canadian/NNP
-2.71321	all/DT cities/NNS	-2.836646e-05
-2.71321	all/DT connecting/VBG	0.001326659
-2.190332	all/DT daily/RB	0.008389685
-2.889302	all/DT day/NN
-2.71321	all/DT delta/NNP	0.007333286
-2.588272	all/DT direct/JJ	0.003107231
-2.889302	all/DT economy/NN
-2.889302	all/DT fare/NN
-2.491362	all/DT fares/NNS
-2.491362	all/DT first/JJ	0.06009626
-2.889302	all/DT flight/NN
-0.6487525	all/DT flights/NNS	0.2461406
-2.889302	all/DT ground/NN
-2.889302	all/DT meals/NNS
-2.889302	all/DT midwest/NNP
-2.71321	all/DT monday/NNP	0.0002215798
-2.71321	all/DT nationair/NNP	-4.331581e-06
-1.959883	all/DT nonstop/JJ	0.02152526
-2.71321	all/DT nonstops/NNS	0
-2.588272	all/DT northwest/NNP	0.003086735
-2.588272	all/DT of/IN	0.01080679
-2.588272	all/DT one/CD	0.05398896
-2.588272	all/DT other/JJ	0.001331266
-2.889302	all/DT overnight/JJ
-2.71321	all/DT prices/NNS	0.00314091
-2.190332	all/DT right/RB	0
-1.986212	all/DT round/JJ	0.07615628
-2.889302	all/DT takeoffs/NNS
-1.114785	all/DT the/DT	0.05186589
-2.889302	all/DT trans/NNS
-2.71321	all/DT tuesday/NNP
-2.889302	all/DT twa/NNP
-2.236089	all/DT united/NNP	0.04092422
-2.71321	all/DT us/PRP	0.02952062
-2.889302	all/DT wednesday/NNP
-2.889302	all/DT weekday/NN
-2.676694	along/IN the/DT
-2.676694	along/IN with/IN
-2.684397	also/RB arriving/VBG
-2.684397	also/RB be/VB
-2.684397	also/RB give/VB
-2.684397	also/RB in/IN
-2.508305	also/RB interested/VBN	0.008151751
-2.684397	also/RB like/VB
-2.383367	also/RB need/VB	0.01795015
-2.508305	also/RB on/IN
-2.684397	also/RB serve/VB
-2.383367	also/RB show/VB	0.2794506
-2.684397	also/RB stop/VB
-2.684397	also/RB the/DT
-2.684397	also/RB to/TO
-2.381566	am/RB </s>
-2.205475	am/RB flights/NNS	0.2533636
-2.138528	am/RB on/IN	0.01312318
-2.682596	am/RB tomorrow/NN
-2.680336	am/VB also/RB
-2.078275	am/VB interested/VBN	0.005871984
-2.504244	am/VB looking/VBG
-2.376121	america/NNP west/NN	0
-2.676694	american's/NNP last/JJ
-2.676694	american's/NNP schedule/NN
-2.446382	american/NNP </s>
-1.934498	american/NNP airline/NN	0.005135348
-0.9550201	american/NNP airlines/NNS	0.06176894
-2.270291	american/NNP and/CC	-0.0005704116
-2.747412	american/NNP doesn't/VBZ
-2.203344	american/NNP flight/NN	0.1689669
-2.094199	american/NNP flights/NNS	0.2585675
-2.145352	american/NNP from/IN	0.03769382
-2.747412	american/NNP in/IN
-2.747412	american/NNP on/IN
-2.446382	american/NNP to/TO	0.04981917
-2.279667	amount/NN of/IN	-0.0005155506
-2.701999	an/DT 819/CD
-2.048787	an/DT afternoon/NN	0.002922186
-2.701999	an/DT aircraft/NN
-2.224878	an/DT airline/NN	0.0006934033
-2.701999	an/DT airport/NN
-2.224878	an/DT american/NNP	0.04877085
-2.701999	an/DT atlanta/NNP
-1.525908	an/DT early/JJ	0.004703683
-2.701999	an/DT economy/NN
-2.525908	an/DT evening/NN	0.002326017
-2.701999	an/DT f28/NN
-2.701999	an/DT flight/NN
-2.701999	an/DT inexpensive/JJ
-2.525908	an/DT m80/NN	0
-2.761176	and/CC 1/CD	0.0009085356
-2.937267	and/CC 10pm/CD
-2.937267	and/CC 1130am/CD
-2.539327	and/CC 1245pm/CD	0
-2.937267	and/CC 2/CD
-2.238297	and/CC 2pm/CD	0.002234652
-2.937267	and/CC 3/CD
-2.937267	and/CC 3pm/CD
-2.335207	and/CC 4/CD	0.0004160276
-2.937267	and/CC 43pm/CD
-2.761176	and/CC 5/CD	0.00898329
-2.937267	and/CC 515pm/CD
-2.761176	and/CC 530pm/CD	0.0004569112
-2.636237	and/CC 5pm/CD	0.01407622
-2.937267	and/CC 630pm/CD
-2.761176	and/CC 6pm/CD	0.009779901
-2.937267	and/CC 730pm/CD
-2.636237	and/CC 7pm/CD	0.006228765
-2.761176	and/CC 8pm/CD
-2.636237	and/CC a/DT	0.1092882
-2.937267	and/CC afterwards/NNS
-2.761176	and/CC all/DT
-2.937267	and/CC also/RB
-2.937267	and/CC arrivals/NNS
-1.575539	and/CC arrive/VB	0.01830381
-2.335207	and/CC arrives/VBZ	0.005338532
-1.566199	and/CC arriving/VBG	0.02697512
-2.937267	and/CC as/IN
-2.937267	and/CC atl/NN
-1.983025	and/CC atlanta/NNP	0.06593958
-2.393199	and/CC back/RB	0.003610488
-1.791139	and/CC baltimore/NNP	0.06385197
-2.761176	and/CC be/VB
-2.335207	and/CC before/IN
-2.937267	and/CC between/IN
-1.647232	and/CC boston/NNP	0.206558
-2.761176	and/CC bwi/NN	0.001340722
-2.937267	and/CC can/MD
-2.937267	and/CC canadian/NNP
-2.539327	and/CC charlotte/NNP	0.007428584
-2.937267	and/CC chicago/NNP
-2.937267	and/CC coach/NN
-2.460146	and/CC connecting/VBG	-4.263548e-05
-2.937267	and/CC cost/VB
-2.034177	and/CC dallas/NNP	0.071742
-2.937267	and/CC dc/NN
-2.539327	and/CC delta/NNP	0.01069956
-1.604829	and/CC denver/NNP	0.07485535
-2.636237	and/CC depart/VB
-2.761176	and/CC departing/VBG
-2.937267	and/CC departure/NN
-2.636237	and/CC dfw/NN	-7.187948e-06
-2.034177	and/CC downtown/NN	0.0115168
-2.937267	and/CC earlier/JJR
-2.937267	and/CC either/RB
-2.460146	and/CC fare/NN	0.02752985
-1.959543	and/CC fares/NNS	0.03585293
-2.937267	and/CC first/JJ
-2.460146	and/CC flight/NN	0.001097126
-2.393199	and/CC flights/NNS	0.2519929
-2.539327	and/CC fly/VB	0.003895286
-2.937267	and/CC fn/NN
-2.937267	and/CC fort/NN
-2.937267	and/CC friday/NNP
-2.284055	and/CC from/IN	0.001162978
-2.937267	and/CC get/VB
-2.937267	and/CC give/VB
-2.539327	and/CC go/VB	0.00626658
-2.761176	and/CC goes/VBZ
-2.393199	and/CC going/VBG	0.00897482
-2.761176	and/CC have/VB
-2.937267	and/CC houston/NNP
-2.636237	and/CC how/WRB	0.01705892
-2.062206	and/CC i'd/VBD	0.08326582
-2.937267	and/CC i'll/VB
-2.636237	and/CC i'm/VB
-1.916078	and/CC i/PRP	0.1186579
-2.937267	and/CC in/IN
-2.761176	and/CC include/VBP
-2.761176	and/CC is/VBZ
-2.937267	and/CC it/PRP
-2.937267	and/CC la/NN
-2.937267	and/CC land/NN
-2.761176	and/CC landing/NN
-2.393199	and/CC landings/NNS	0.0009095171
-2.937267	and/CC lands/NNS
-2.335207	and/CC las/NNP	0.04448229
-2.335207	and/CC leave/VB	0.01086103
-2.761176	and/CC leaves/VBZ	0.002135843
-2.636237	and/CC list/VB
-2.393199	and/CC make/VB	0.007636955
-2.761176	and/CC makes/VBZ	0.003188332
-2.937267	and/CC memphis/NNP
-2.460146	and/CC miami/NNP	0.01148427
-2.937267	and/CC midnight/NN
-2.937267	and/CC milwaukee/NNP
-2.761176	and/CC new/JJ	0.06134752
-2.636237	and/CC newark/NNP	0.007788735
-2.539327	and/CC northwest/NNP	0.00443483
-1.895874	and/CC oakland/NNP	0.02503383
-2.761176	and/CC on/IN
-2.238297	and/CC orlando/NNP	0.01691821
-2.539327	and/CC out/IN	0.007188922
-1.895874	and/CC philadelphia/NNP	0.06407721
-2.460146	and/CC phoenix/NNP	0.01640406
-1.983025	and/CC pittsburgh/NNP	0.159027
-2.937267	and/CC price/NN
-2.937267	and/CC prices/NNS
-2.937267	and/CC qw/NN
-2.937267	and/CC qx/NNP
-2.761176	and/CC return/NN	-1.148938e-05
-2.761176	and/CC return/VB
-2.092169	and/CC returning/VBG	0.001353644
-2.937267	and/CC round/JJ
-2.937267	and/CC salt/NNP
-1.514021	and/CC san/NNP	0.2322145
-2.636237	and/CC serve/VB
-2.937267	and/CC serves/VBZ
-2.937267	and/CC serving/VBG
-2.937267	and/CC show/VB
-2.761176	and/CC st./NNP	0.01677617
-2.937267	and/CC still/RB
-2.937267	and/CC stop//VB
-2.761176	and/CC stop/VB
-2.937267	and/CC stopping/VBG
-2.761176	and/CC stops/NNS	0.007173097
-2.937267	and/CC sunday's/NNP
-2.937267	and/CC sunday/NNP
-2.937267	and/CC take/VB
-2.761176	and/CC tampa/NNP	0.004320684
-2.937267	and/CC tell/VB
-2.937267	and/CC that/DT
-1.937267	and/CC the/DT	0.09855777
-2.761176	and/CC their/PRP$	-4.331581e-06
-2.196904	and/CC then/RB	0.001348395
-2.937267	and/CC this/DT
-2.238297	and/CC thursday/NNP	0.03238532
-2.761176	and/CC thursdays/NNPS	0.0004569112
-2.937267	and/CC time/NN
-2.761176	and/CC times/NNS	0.001762086
-2.937267	and/CC to/TO
-2.937267	and/CC toronto/NNP
-2.937267	and/CC twa/NNP
-2.937267	and/CC twenty/CD
-2.460146	and/CC united/NNP	0.03354526
-1.959543	and/CC washington/NNP	0.06545889
-2.761176	and/CC wednesday/NNP	0.02925012
-2.937267	and/CC what's/NNS
-2.393199	and/CC what/WDT	0.08471253
-2.937267	and/CC with/IN
-1.775161	angeles/NNP </s>
-2.528488	angeles/NNP after/IN
-2.704579	angeles/NNP arriving/VBG
-2.704579	angeles/NNP by/IN
-2.528488	angeles/NNP departing/VBG	0.001701815
-2.704579	angeles/NNP destination/NN
-2.528488	angeles/NNP in/IN	0.06376936
-2.704579	angeles/NNP international/JJ
-2.704579	angeles/NNP leaving/VBG
-2.704579	angeles/NNP morning/NN
-2.704579	angeles/NNP next/JJ
-2.227458	angeles/NNP on/IN	0.01403605
-2.403549	angeles/NNP that/DT
-2.306639	angeles/NNP thursday/NNP	0.002109975
-1.68339	angeles/NNP to/TO	0.01609753
-2.704579	angeles/NNP wednesday/NNP
-2.528488	angeles/NNP which/WDT
-2.704579	angeles/NNP with/IN
-2.677607	another/DT </s>
-2.501516	another/DT city/NN	0.01882976
-2.677607	another/DT flight/NN
-2.720159	any/DT 4/CD
-2.066947	any/DT airline/NN	0.001897109
-2.544068	any/DT airlines/NNS	0.004691591
-2.720159	any/DT airport/NN
-2.720159	any/DT american/NNP
-2.322219	any/DT city/NN	0.01883265
-2.544068	any/DT class/NN
-2.720159	any/DT continental/JJ
-2.176091	any/DT day/NN	0.004401657
-2.419129	any/DT direct/JJ	0.003107231
-2.720159	any/DT early/JJ
-2.720159	any/DT first/JJ
-2.419129	any/DT flight/NN
-1.358431	any/DT flights/NNS	0.2903064
-2.720159	any/DT ground/NN
-2.720159	any/DT later/JJ
-2.720159	any/DT limousines/NNS
-2.243038	any/DT nonstop/JJ	0.02650939
-2.544068	any/DT of/IN	0.0112637
-2.243038	any/DT other/JJ	-1.705356e-05
-2.720159	any/DT show/VB
-2.720159	any/DT stopovers/NNS
-2.720159	any/DT thrift/NN
-2.720159	any/DT time/NN
-2.720159	any/DT turboprop/NN
-2.544068	any/DT united/NNP
-2.720159	any/DT us/PRP
-2.676236	anything/DT from/IN
-2.678063	anywhere/RB </s>
-2.678063	anywhere/RB between/IN
-2.501972	anywhere/RB on/IN	0.005446013
-2.678063	anywhere/RB to/TO
-2.676236	ap/55/NN </s>
-2.136267	ap/57/NN </s>
-2.379306	ap/57/NN mean/VB	0.02095002
-2.680336	ap/57/NN restriction/NN
-2.501059	ap/80/NN </s>
-2.67715	ap/80/NN mean/VB
-2.676236	ap/NN please/VB
-2.501516	ap57/NN </s>
-2.677607	ap57/NN mean/VB
-2.677607	ap57/NN restriction/NN
-2.676236	ap68/NN </s>
-2.376121	ap80/NN </s>
-2.676694	approximately/RB 1pm/CD
-2.676694	approximately/RB 615pm/CD
-2.510098	april/NNP eighth/CD
-2.686189	april/NNP fifteenth/CD
-2.686189	april/NNP fourth/CD
-2.686189	april/NNP ninth/CD
-2.686189	april/NNP seventeen/CD
-2.510098	april/NNP sixteen/CD
-2.288249	april/NNP sixth/CD	0.002704775
-2.510098	april/NNP twentieth/CD
-1.987219	april/NNP twenty/CD	0.01894612
-2.669936	are/VBP </s>
-2.846028	are/VBP ac/JJ
-2.846028	are/VBP after/IN
-1.942938	are/VBP all/DT	0.1488853
-2.846028	are/VBP any/DT
-1.260567	are/VBP available/JJ	0.0322639
-2.368906	are/VBP between/IN	0.0320226
-2.669936	are/VBP connecting/VBG	0.001326659
-2.846028	are/VBP currently/RB
-2.846028	are/VBP economy/NN
-2.846028	are/VBP fare/NN
-2.448088	are/VBP first/JJ	0.06009626
-2.544998	are/VBP flights/NNS	0.2533607
-2.669936	are/VBP from/IN
-2.846028	are/VBP i/PRP
-2.846028	are/VBP later/RB
-2.544998	are/VBP less/JJR	0.01613664
-2.368906	are/VBP my/PRP$	-7.650466e-06
-2.368906	are/VBP nonstop/JJ	5.512009e-05
-2.846028	are/VBP of/IN
-2.846028	are/VBP offered/VBN
-2.669936	are/VBP on/IN
-2.544998	are/VBP provided/VBN	0.0009123844
-2.846028	are/VBP represented/VBN
-2.243968	are/VBP served/VBD	0.001315189
-2.669936	are/VBP serviced/VBN	0
-0.8942046	are/VBP the/DT	0.173461
-1.067876	are/VBP there/EX	-0.001947641
-2.846028	are/VBP they/PRP
-2.846028	are/VBP use/VB
-2.30196	are/VBP used/VBN	-7.29186e-05
-2.544998	are/VBP your/PRP$	0.0008809876
-2.279667	area/NN </s>
-2.676694	arizona/NNP i/PRP
-2.676694	arizona/NNP on/IN
-2.703291	around/RB 10/CD
-2.305351	around/RB 10pm/CD	0.00181663
-2.703291	around/RB 11am/CD
-2.703291	around/RB 12/CD
-2.402261	around/RB 1pm/CD	0.001364496
-2.703291	around/RB 2/CD
-2.402261	around/RB 230pm/CD	0
-2.703291	around/RB 2pm/CD
-2.703291	around/RB 3/CD
-2.703291	around/RB 3pm/CD
-2.22617	around/RB 5/CD	0.008981841
-2.402261	around/RB 5pm/CD	0.01453458
-2.703291	around/RB 630pm/CD
-2.305351	around/RB 6pm/CD	0.001280103
-2.050079	around/RB 7/CD	0.001360714
-2.050079	around/RB 7pm/CD	0.007126403
-2.703291	around/RB 8/CD
-2.703291	around/RB 8am/CD
-2.703291	around/RB 8pm/CD
-2.703291	around/RB 9/CD
-2.5272	around/RB 9am/CD
-2.703291	around/RB dinnertime/NN
-2.5272	around/RB midnight/NN
-2.22617	around/RB noon/NN	0.02958271
-2.5272	around/RB noontime/NN
-2.201397	arrange/VB a/DT	0.1083758
-2.678518	arrange/VB for/IN
-1.754078	arrangements/NNS for/IN	0.009647042
-2.683497	arrangements/NNS from/IN
-2.676236	arrival/JJ time/NN
-2.677607	arrival/NN by/IN
-2.677607	arrival/NN for/IN
-2.677607	arrival/NN in/IN
-2.677607	arrival/NN time/NN
-2.678063	arrivals/NNS for/IN
-2.678063	arrivals/NNS from/IN
-2.377033	arrivals/NNS in/IN	0.013375
-2.735998	arrive/VB 10pm/CD
-1.957847	arrive/VB after/IN	0.009624733
-2.735998	arrive/VB and/CC
-2.338058	arrive/VB around/RB	0.0007845764
-1.806579	arrive/VB at/IN	0.009585774
-1.639088	arrive/VB before/IN	0.02363499
-2.434968	arrive/VB between/IN
-2.559907	arrive/VB by/IN
-2.735998	arrive/VB close/RB
-2.735998	arrive/VB dallas/NNP
-2.735998	arrive/VB early/RB
-1.210953	arrive/VB in/IN	0.1005697
-2.735998	arrive/VB near/IN
-2.735998	arrive/VB next/JJ
-2.133938	arrive/VB on/IN	0.01525878
-2.735998	arrive/VB soon/RB
-2.512329	arrives/VBZ around/RB
-2.68842	arrives/VBZ as/IN
-2.512329	arrives/VBZ at/IN
-2.38739	arrives/VBZ before/IN
-2.68842	arrives/VBZ between/IN
-2.68842	arrives/VBZ close/RB
-2.512329	arrives/VBZ earliest/JJS	-0.0001799626
-1.759001	arrives/VBZ in/IN	0.07246382
-2.755875	arriving/VBG </s>
-2.755875	arriving/VBG about/RB
-1.942961	arriving/VBG after/IN	0.002355733
-2.755875	arriving/VBG also/RB
-2.579784	arriving/VBG and/CC	-0.000620297
-2.056905	arriving/VBG around/RB	0.0006756478
-1.734686	arriving/VBG at/IN	0.006519048
-2.755875	arriving/VBG atlanta/NNP
-2.755875	arriving/VBG baltimore/NNP
-1.910777	arriving/VBG before/IN	0.002502715
-2.211807	arriving/VBG between/IN	0.002609308
-2.579784	arriving/VBG boston/NNP
-2.454845	arriving/VBG by/IN	0.0003650007
-2.755875	arriving/VBG cleveland/NNP
-2.579784	arriving/VBG denver/NNP
-2.755875	arriving/VBG flights/NNS
-2.755875	arriving/VBG i'd/VBD
-1.083777	arriving/VBG in/IN	0.1896332
-2.755875	arriving/VBG july/NNP
-2.357935	arriving/VBG may/NNP	0.00260753
-2.579784	arriving/VBG near/IN
-2.056905	arriving/VBG on/IN	0.01092748
-2.579784	arriving/VBG philadelphia/NNP
-2.755875	arriving/VBG pittsburgh/NNP
-2.454845	arriving/VBG to/TO	0.02375368
-2.288696	as/IN </s>
-2.686636	as/IN a/DT
-2.686636	as/IN boston/NNP
-2.686636	as/IN business/NN
-2.142568	as/IN early/RB	-9.189243e-05
-2.686636	as/IN i/PRP
-2.084576	as/IN possible/JJ	0.003563597
-2.686636	as/IN san/NNP
-2.686636	as/IN soon/RB
-2.686636	as/IN well/RB
-2.744293	at/IN 10am/CD
-2.744293	at/IN 110pm/CD
-2.568202	at/IN 1110/CD	0
-2.744293	at/IN 11am/CD
-2.744293	at/IN 12/CD
-2.744293	at/IN 1220pm/CD
-2.744293	at/IN 1505/CD
-2.744293	at/IN 1940/CD
-2.744293	at/IN 210pm/CD
-2.744293	at/IN 225pm/CD
-2.744293	at/IN 230/CD
-2.744293	at/IN 324pm/CD
-2.744293	at/IN 329/CD
-2.744293	at/IN 420/CD
-2.744293	at/IN 428/CD
-2.744293	at/IN 4pm/CD
-2.443263	at/IN 5/CD	0.008984737
-2.443263	at/IN 555/CD	0
-2.142233	at/IN 5pm/CD	0.01271173
-2.568202	at/IN 6/CD	0.006778125
-2.744293	at/IN 630/CD
-2.744293	at/IN 645am/CD
-2.744293	at/IN 650/CD
-2.744293	at/IN 7/CD
-2.744293	at/IN 705/CD
-2.568202	at/IN 720am/CD	0
-2.267172	at/IN 7pm/CD	0.006674261
-2.568202	at/IN 838/CD
-2.568202	at/IN 838am/CD
-2.744293	at/IN 8am/CD
-2.744293	at/IN 8pm/CD
-2.744293	at/IN 9/CD
-2.443263	at/IN 9am/CD	0.003611954
-2.744293	at/IN a/DT
-2.744293	at/IN about/IN
-2.267172	at/IN about/RB	0.0004459406
-2.568202	at/IN another/DT	-2.890476e-06
-2.744293	at/IN approximately/RB
-2.346353	at/IN around/RB	0.002058685
-2.744293	at/IN atlanta/NNP
-2.346353	at/IN baltimore/NNP
-2.443263	at/IN boston/NNP	0.001008708
-2.346353	at/IN chicago/NNP	0.0002483627
-2.267172	at/IN dallas/NNP	0.01750398
-2.200225	at/IN denver/NNP	0.06727713
-2.744293	at/IN economy/NN
-1.766569	at/IN general/NNP	0.004917437
-2.443263	at/IN least/JJS
-2.568202	at/IN logan/NNP	0.0004492284
-2.267172	at/IN love/VB	0.01124595
-2.744293	at/IN milwaukee/NNP
-2.568202	at/IN new/JJ	0.06134752
-2.744293	at/IN night/NN
-2.346353	at/IN noon/NN	0.004824725
-2.744293	at/IN noontime/NN
-2.443263	at/IN one/CD	0.0005212429
-2.744293	at/IN orlando/NNP
-2.443263	at/IN philadelphia/NNP
-2.744293	at/IN phoenix/NNP
-2.142233	at/IN pittsburgh/NNP	-0.000301323
-2.744293	at/IN salt/NNP
-2.568202	at/IN san/NNP	0.2540325
-2.744293	at/IN stapleton/NNP
-2.744293	at/IN tampa/NNP
-1.93138	at/IN the/DT	-0.001316364
-2.744293	at/IN toronto/NNP
-2.676694	atl/NN </s>
-2.676694	atl/NN to/TO
-2.500602	atlanta's/NNS airport/NN	0.01538711
-0.9192057	atlanta/NNP </s>
-2.23096	atlanta/NNP after/IN	0.008246839
-2.929929	atlanta/NNP again/RB
-2.276717	atlanta/NNP airport/NN	0.03230624
-1.587507	atlanta/NNP and/CC	0.06613216
-2.753838	atlanta/NNP around/RB
-2.929929	atlanta/NNP arrives/VBZ
-2.6289	atlanta/NNP arriving/VBG	0.03600099
-2.929929	atlanta/NNP at/IN
-2.6289	atlanta/NNP august/NNP	0.0007127714
-2.929929	atlanta/NNP back/RB
-2.929929	atlanta/NNP baltimore/NNP
-2.189567	atlanta/NNP before/IN	0.02220817
-2.929929	atlanta/NNP beginning/VBG
-2.929929	atlanta/NNP between/IN
-2.929929	atlanta/NNP bound/VBN
-2.929929	atlanta/NNP by/IN
-2.929929	atlanta/NNP can/MD
-2.929929	atlanta/NNP coach/NN
-2.929929	atlanta/NNP could/MD
-2.929929	atlanta/NNP denver/NNP
-2.929929	atlanta/NNP early/JJ
-2.929929	atlanta/NNP evening/NN
-2.929929	atlanta/NNP find/VB
-2.929929	atlanta/NNP flight/NN
-2.929929	atlanta/NNP flights/NNS
-2.452808	atlanta/NNP for/IN	0.001478548
-2.385861	atlanta/NNP from/IN	0.07955176
-2.53199	atlanta/NNP georgia/NNP	0
-2.929929	atlanta/NNP ground/NN
-2.929929	atlanta/NNP have/VB
-2.929929	atlanta/NNP heading/VBG
-2.53199	atlanta/NNP i/PRP	0.07176477
-2.084831	atlanta/NNP in/IN	0.05922794
-2.929929	atlanta/NNP later/RB
-2.929929	atlanta/NNP least/JJS
-2.929929	atlanta/NNP leave/VB
-2.276717	atlanta/NNP leaving/VBG	0.01277827
-2.6289	atlanta/NNP next/JJ	0.004503476
-1.460108	atlanta/NNP on/IN	0.1410481
-2.753838	atlanta/NNP one/CD	0.05444587
-2.6289	atlanta/NNP please/VB	0.01703588
-2.929929	atlanta/NNP return/NN
-2.929929	atlanta/NNP returning/VBG
-2.753838	atlanta/NNP round/JJ	0.08160061
-2.929929	atlanta/NNP so/CC
-2.929929	atlanta/NNP so/SO
-2.753838	atlanta/NNP sometime/RB	0.0004530612
-2.084831	atlanta/NNP that/DT	0.03793409
-2.753838	atlanta/NNP the/DT
-2.929929	atlanta/NNP then/RB
-2.753838	atlanta/NNP this/DT	0.0004246971
-0.7523931	atlanta/NNP to/TO	0.1699796
-2.929929	atlanta/NNP traveling/VBG
-2.929929	atlanta/NNP wednesday/NNP
-2.929929	atlanta/NNP what/WDT
-2.452808	atlanta/NNP which/WDT	0.008813008
-2.929929	atlanta/NNP will/MD
-2.32787	atlanta/NNP with/IN	0.03030345
-2.71767	august/NNP </s>
-2.71767	august/NNP eighteenth/CD
-2.416641	august/NNP eighth/CD	0.005407872
-2.71767	august/NNP eleventh/CD
-2.71767	august/NNP fifteenth/CD
-2.71767	august/NNP fifth/CD
-2.319731	august/NNP first/CD	0.01225697
-2.71767	august/NNP fourth/CD
-2.541579	august/NNP nineteenth/CD
-2.71767	august/NNP ninth/CD
-2.71767	august/NNP one/CD
-1.977308	august/NNP second/CD	0.007584713
-2.71767	august/NNP seven/CD
-2.71767	august/NNP seventeenth/CD
-2.319731	august/NNP seventh/CD	0.0007323886
-2.416641	august/NNP sixth/CD	0.003161207
-2.173602	august/NNP tenth/CD	0.001807591
-2.416641	august/NNP the/DT	-0.001114235
-2.115611	august/NNP third/CD	0.004436176
-2.115611	august/NNP thirtieth/CD	0.002713824
-2.416641	august/NNP thirty/CD	0.002277376
-2.541579	august/NNP twelfth/CD	0.003178768
-2.71767	august/NNP twelve/CD
-2.018701	august/NNP twentieth/CD	0.001322857
-1.656973	august/NNP twenty/CD	0.007072616
-1.94258	available/JJ </s>
-2.579402	available/JJ after/IN
-2.755494	available/JJ around/RB
-1.977342	available/JJ at/IN	0.003462249
-1.94258	available/JJ between/IN	0.03892295
-2.755494	available/JJ coach/NN
-2.278373	available/JJ flights/NNS	0.2524483
-2.755494	available/JJ flying/VBG
-2.579402	available/JJ for/IN
-2.278373	available/JJ friday/NNP	0.00355125
-1.217675	available/JJ from/IN	0.3146768
-2.454464	available/JJ ground/NN	0.08182801
-1.403311	available/JJ in/IN	0.1795249
-2.755494	available/JJ into/IN
-2.579402	available/JJ leaving/VBG
-2.755494	available/JJ meals/NNS
-2.755494	available/JJ monday/NNP
-2.755494	available/JJ next/JJ
-2.278373	available/JJ on/IN
-2.579402	available/JJ saturday/NNP	-0.0001226573
-2.755494	available/JJ sunday/NNP
-2.755494	available/JJ thursday/NNP
-2.579402	available/JJ to/TO	0.01216895
-2.579402	available/JJ tomorrow/NN
-2.755494	available/JJ tuesday/NNP
-2.454464	available/JJ wednesday/NNP	0.002339762
-2.755494	available/JJ with/IN
-2.676694	b/NN </s>
-2.676694	b/NN the/DT
-2.506956	back/RB </s>
-2.506956	back/RB from/IN
-2.506956	back/RB in/IN	0.06376936
-1.942684	back/RB to/TO	0.01957097
-0.9413837	baltimore/NNP </s>
-2.893207	baltimore/NNP a/DT
-2.239994	baltimore/NNP after/IN	0.009616152
-2.717115	baltimore/NNP airport/NN	0.01538711
-2.018146	baltimore/NNP and/CC	0.01865037
-2.717115	baltimore/NNP around/RB
-1.963788	baltimore/NNP arriving/VBG	0.03795967
-2.717115	baltimore/NNP at/IN
-2.893207	baltimore/NNP august/NNP
-2.416085	baltimore/NNP before/IN	0.008291742
-2.152844	baltimore/NNP between/IN	-0.000461298
-2.893207	baltimore/NNP bound/VBN
-2.893207	baltimore/NNP carries/VBZ
-2.893207	baltimore/NNP coach/NN
-2.592177	baltimore/NNP denver/NNP	0.01183759
-2.893207	baltimore/NNP early/RB
-2.717115	baltimore/NNP first/JJ	0.06100961
-2.349139	baltimore/NNP for/IN	0.003334111
-2.018146	baltimore/NNP from/IN	0.1723694
-2.893207	baltimore/NNP has/VBZ
-2.239994	baltimore/NNP in/IN	0.06149343
-2.893207	baltimore/NNP is/VBZ
-2.893207	baltimore/NNP july/NNP
-2.239994	baltimore/NNP leaving/VBG	0.01400687
-2.893207	baltimore/NNP making/VBG
-2.893207	baltimore/NNP monday/NNP
-2.717115	baltimore/NNP nonstop/JJ
-2.893207	baltimore/NNP oakland/NNP
-1.416085	baltimore/NNP on/IN	0.1269696
-2.291147	baltimore/NNP or/CC	0.0001918364
-2.495267	baltimore/NNP please/VB
-2.893207	baltimore/NNP scheduled/VBN
-2.893207	baltimore/NNP starting/VBG
-2.194237	baltimore/NNP that/DT	0.006080298
-2.893207	baltimore/NNP thursday/NNP
-0.8401283	baltimore/NNP to/TO	0.1949191
-2.717115	baltimore/NNP tomorrow/NN
-2.893207	baltimore/NNP using/VBG
-2.893207	baltimore/NNP via/IN
-2.416085	baltimore/NNP washington/NNP	0.01995308
-2.717115	baltimore/NNP what/WDT	0.001196756
-2.717115	baltimore/NNP which/WDT
-2.495267	baltimore/NNP with/IN	0.004029087
-2.676236	bay/NN area/NN
-2.686636	be/VB a/DT
-2.686636	be/VB able/JJ
-2.686636	be/VB american/NNP
-2.686636	be/VB cost/NN
-2.510545	be/VB flying/VBG
-2.288696	be/VB in/IN
-2.510545	be/VB nonstop/JJ	0.009928354
-2.385606	be/VB on/IN
-2.686636	be/VB serving/VBG
-2.686636	be/VB staying/VBG
-2.385606	be/VB the/DT	0.02763198
-2.686636	be/VB there/EX
-2.686636	be/VB traveling/VBG
-2.510545	be/VB used/VBN	0.006226162
-2.215285	beach/NNP </s>
-2.692406	beach/NNP after/IN
-2.516315	beach/NNP airport/NN	0.01663928
-2.692406	beach/NNP arriving/VBG
-2.215285	beach/NNP california/NNP	0.00440612
-2.692406	beach/NNP late/JJ
-2.516315	beach/NNP on/IN
-1.692406	beach/NNP to/TO	-0.001726722
-2.692406	beach/NNP two/CD
-2.751664	before/IN 0900/CD
-2.575573	before/IN 1/CD
-2.353724	before/IN 10/CD	0.001366423
-2.751664	before/IN 1045am/CD
-1.637721	before/IN 10am/CD	0.002540505
-2.575573	before/IN 10pm/CD	0.002729973
-2.575573	before/IN 1145am/CD	0
-2.751664	before/IN 11am/CD
-2.052694	before/IN 12/CD	0.007957537
-2.751664	before/IN 1pm/CD
-2.751664	before/IN 2pm/CD
-2.751664	before/IN 3/CD
-2.751664	before/IN 3pm/CD
-2.052694	before/IN 4pm/CD	0.004036762
-2.353724	before/IN 5/CD	0.008069946
-2.098451	before/IN 5pm/CD	0.01586395
-2.575573	before/IN 6/CD
-2.575573	before/IN 630am/CD	-1.447159e-06
-2.098451	before/IN 6pm/CD	0.007503973
-2.575573	before/IN 7/CD	0.002721374
-2.575573	before/IN 7am/CD
-2.353724	before/IN 7pm/CD	0.005772334
-2.207596	before/IN 8/CD	0.004528658
-2.098451	before/IN 8am/CD	0.00225409
-2.575573	before/IN 8pm/CD
-2.575573	before/IN 9/CD	0.002729973
-2.011301	before/IN 9am/CD	0.001796257
-2.751664	before/IN arriving/VBG
-2.751664	before/IN evening/NN
-2.751664	before/IN midnight/NN
-1.289266	before/IN noon/NN	0.01952476
-2.751664	before/IN or/CC
-2.676236	beginning/VBG on/IN
-2.676236	begins/VBZ in/IN
-2.676236	being/VBG served/VBD
-2.676236	belong/VBP to/TO
-2.676236	besides/IN continental/JJ
-2.815246	between/IN 1/CD
-2.815246	between/IN 1030am/CD
-2.116276	between/IN 10am/CD	-0.0001438684
-2.417305	between/IN 1115am/CD	0
-2.815246	between/IN 1133am/CD
-2.074883	between/IN 12/CD	-0.0001382553
-2.815246	between/IN 1850/CD
-2.815246	between/IN 2pm/CD
-2.815246	between/IN 3/CD
-2.417305	between/IN 4/CD	-3.088918e-05
-2.815246	between/IN 415/CD
-2.815246	between/IN 430/CD
-2.815246	between/IN 430pm/CD
-2.815246	between/IN 445/CD
-2.639154	between/IN 5/CD	-3.664941e-05
-2.815246	between/IN 530/CD
-2.815246	between/IN 5pm/CD
-2.815246	between/IN 6/CD
-2.639154	between/IN 6pm/CD	0.001277213
-2.815246	between/IN </s>
-2.213186	between/IN airport/NN	0.003217859
-2.815246	between/IN all/DT
-1.754548	between/IN atlanta/NNP	0.0009532738
-2.271178	between/IN baltimore/NNP	0.0009869351
-1.125049	between/IN boston/NNP	-0.01743455
-2.639154	between/IN charlotte/NNP	-0.0001274437
-2.815246	between/IN cincinnati/NNP
-1.912156	between/IN dallas/NNP	0.01713636
-1.653878	between/IN denver/NNP	0.0001099277
-2.639154	between/IN dfw/NN	-8.635106e-06
-2.639154	between/IN fare/NN	0.01970738
-2.639154	between/IN houston/NNP	0.001156252
-2.417305	between/IN indianapolis/NNP	0.0006746214
-2.639154	between/IN logan/NNP	-7.203082e-06
-2.639154	between/IN memphis/NNP
-2.271178	between/IN milwaukee/NNP	0.0004699994
-2.815246	between/IN nashville/NNP
-2.116276	between/IN new/JJ	0.05815919
-2.815246	between/IN newark/NNP
-2.639154	between/IN noon/NN	0.004821835
-2.815246	between/IN oak/NN
-1.940184	between/IN oakland/NNP	0.0005360073
-2.639154	between/IN orlando/NNP	-0.0001154088
-1.861003	between/IN philadelphia/NNP	-0.0007581925
-2.514216	between/IN phoenix/NNP	0.0002504173
-1.736064	between/IN pittsburgh/NNP	0.0003595175
-1.912156	between/IN san/NNP	0.2485882
-2.639154	between/IN st./NNP	0.01973488
-2.639154	between/IN tampa/NNP	-6.616639e-05
-2.213186	between/IN the/DT	0.002278732
-2.815246	between/IN those/DT
-2.514216	between/IN toronto/NNP	0.0002644709
-2.002332	between/IN washington/NNP	0.04473028
-2.676236	bna/NN </s>
-2.377943	boeing/NN 737/CD	0
-2.502882	boeing/NN 757/CD	0
-2.502882	boeing/NN 767/CD	0
-1.546719	book/NN a/DT	0.09846406
-2.215726	book/NN an/DT	0.01085034
-2.692847	book/NN for/IN
-2.692847	book/NN on/IN
-2.294907	book/NN the/DT	0.02717555
-2.676694	booking/JJ class/NN
-2.676694	booking/JJ classes/NNS
-2.676236	booking/NN class/NN
-2.376121	booking/VBG an/DT	0.01130437
-1.06059	boston/NNP </s>
-2.303628	boston/NNP after/IN	0.007128118
-3.002598	boston/NNP afternoon/NN
-2.262235	boston/NNP airport/NN	0.03094075
-1.246723	boston/NNP and/CC	0.04219578
-3.002598	boston/NNP approximately/RB
-3.002598	boston/NNP arrive/VB
-2.701568	boston/NNP arriving/VBG	0.03600099
-2.826507	boston/NNP as/IN	0.001765326
-2.262235	boston/NNP at/IN	-0.0001867795
-3.002598	boston/NNP baltimore/NNP
-2.701568	boston/NNP before/IN	0.02153229
-2.701568	boston/NNP between/IN	0.001294257
-3.002598	boston/NNP both/DT
-3.002598	boston/NNP by/IN
-3.002598	boston/NNP dc/NN
-3.002598	boston/NNP denver/NNP
-3.002598	boston/NNP departing/VBG
-2.826507	boston/NNP departure/NN
-2.826507	boston/NNP downtown/NN	0.01120293
-3.002598	boston/NNP flight/NN
-2.701568	boston/NNP flights/NNS
-2.262235	boston/NNP for/IN	0.001908714
-2.604658	boston/NNP from/IN
-3.002598	boston/NNP goes/VBZ
-2.45853	boston/NNP going/VBG	0.00897482
-2.826507	boston/NNP ground/NN	0.08228492
-3.002598	boston/NNP heading/VBG
-2.826507	boston/NNP i'd/VBD	0.08871728
-2.826507	boston/NNP i/PRP
-2.525477	boston/NNP in/IN	0.06240007
-2.826507	boston/NNP is/VBZ
-3.002598	boston/NNP july/NNP
-2.262235	boston/NNP leaving/VBG	0.01166948
-3.002598	boston/NNP logan/NNP
-3.002598	boston/NNP making/VBG
-2.826507	boston/NNP monday/NNP	0.02488068
-2.826507	boston/NNP nonstop/JJ
-1.497448	boston/NNP on/IN	0.1382387
-2.826507	boston/NNP one/CD	0.05444587
-2.525477	boston/NNP philadelphia/NNP	9.561423e-05
-3.002598	boston/NNP pittsburgh/NNP
-2.701568	boston/NNP please/VB
-2.826507	boston/NNP saturday/NNP	0.01604296
-3.002598	boston/NNP stop/NN
-2.1575	boston/NNP that/DT	0.01637161
-3.002598	boston/NNP the/DT
-3.002598	boston/NNP this/DT
-0.5609028	boston/NNP to/TO	0.09008464
-2.826507	boston/NNP today/NN	0.004522891
-2.826507	boston/NNP tomorrow/NN	0.01075104
-2.45853	boston/NNP using/VBG	0.000436068
-3.002598	boston/NNP via/IN
-3.002598	boston/NNP which/WDT
-2.224447	boston/NNP with/IN	0.02848821
-3.002598	boston/NNP within/IN
-2.678973	both/DT american/NNP
-2.678973	both/DT by/IN
-2.281033	both/DT direct/JJ	0.0003993961
-2.678973	both/DT one/CD
-2.676694	bound/VBN for/IN
-2.676694	bound/VBN to/TO
-1.757664	breakfast/NN </s>
-2.143015	breakfast/NN flight/NN	0.1751066
-2.386053	breakfast/NN served/VBD	-2.273964e-05
-2.676236	bring/VB up/RP
-2.676236	bur/NN </s>
-2.510545	burbank/NNP </s>
-2.686636	burbank/NNP after/IN
-2.686636	burbank/NNP also/RB
-2.686636	burbank/NNP arriving/VBG
-2.686636	burbank/NNP leaving/VBG
-2.084576	burbank/NNP on/IN	0.008902082
-2.686636	burbank/NNP sunday/NNP
-2.686636	burbank/NNP the/DT
-2.033424	burbank/NNP to/TO	0.02403125
-2.686636	burbank/NNP tomorrow/NN
-1.663656	business/NN class/NN	0.03251034
-2.503337	but/CC i'd/VBD	0.08871728
-2.378398	but/CC i/PRP	0.04098493
-2.679428	but/CC return/VB
-2.679428	but/CC stopover/NN
-2.679428	but/CC stopping/VBG
-2.500602	buy/VB a/DT	-0.0001950791
-2.205475	bwi/NN </s>
-2.682596	bwi/NN flight/NN
-2.381566	bwi/NN that/DT	0.00652475
-2.205475	bwi/NN to/TO
-2.682596	bwi/NN washington/NNP
-2.699838	by/IN 10am/CD
-2.699838	by/IN 4pm/CD
-2.699838	by/IN 5pm/CD
-2.398808	by/IN 6pm/CD	0.00932299
-2.699838	by/IN 8/CD
-2.523746	by/IN 8pm/CD
-2.523746	by/IN 9/CD	0.002729973
-2.699838	by/IN 9pm/CD
-2.15577	by/IN american/NNP	0.04831538
-2.699838	by/IN both/DT
-2.523746	by/IN canadian/NNP	0.003641902
-2.699838	by/IN continental/JJ
-2.097778	by/IN delta/NNP	0.01262565
-2.699838	by/IN dinnertime/NN
-2.699838	by/IN eastern/JJ
-2.699838	by/IN ground/NN
-2.699838	by/IN limousine/NN
-2.699838	by/IN lufthansa/NNP
-2.699838	by/IN midway/NN
-2.523746	by/IN nationair/NNP
-2.398808	by/IN noon/NN	0.0296292
-2.699838	by/IN one/CD
-2.699838	by/IN this/DT
-2.523746	by/IN twa/NNP
-2.699838	by/IN united/NNP
-2.000868	by/IN way/NN	-0.0005993908
-2.500602	c/NN </s>
-2.036983	california/NNP </s>
-2.690196	california/NNP after/IN
-2.690196	california/NNP arriving/VBG
-2.690196	california/NNP early/JJ
-2.690196	california/NNP leaving/VBG
-2.690196	california/NNP monday/NNP
-2.213075	california/NNP on/IN
-2.690196	california/NNP please/VB
-2.514105	california/NNP that/DT
-1.991226	california/NNP to/TO	0.02389179
-2.690196	california/NNP tuesday/NNP
-2.690196	california/NNP which/WDT
-2.676236	calling/VBG from/IN
-2.553074	can/MD </s>
-2.729165	can/MD a/DT
-2.553074	can/MD be/VB
-2.428135	can/MD fly/VB
-1.951014	can/MD get/VB	0.01049645
-1.632255	can/MD i/PRP	0.002675899
-2.331225	can/MD take/VB	0.0004021684
-1.1381	can/MD you/PRP	0.01133316
-2.502427	canada/NNP </s>
-2.678518	canada/NNP departing/VBG
-2.678518	canada/NNP from/IN
-2.502427	canada/NNP leaving/VBG	0.01368202
-1.939973	canadian/NNP airlines/NNS	-0.001194734
-2.676236	capacities/NNS of/IN
-2.379306	capacity/NN </s>
-2.680336	capacity/NN for/IN
-2.203214	capacity/NN of/IN	0.006569286
-2.680336	capacity/NN which/WDT
-2.510098	car/NN </s>
-2.385159	car/NN at/IN
-2.686189	car/NN fares/NNS
-2.142121	car/NN in/IN
-2.686189	car/NN information/NN
-2.385159	car/NN rates/NNS	-1.926557e-06
-2.288249	car/NN rental/NN	-2.46854e-05
-2.385159	car/NN rentals/NNS	0
-2.50515	carolina/NNP </s>
-2.681241	carolina/NNP and/CC
-2.681241	carolina/NNP leaving/VBG
-2.283301	carolina/NNP next/JJ	0.004898602
-2.681241	carolina/NNP on/IN
-2.681241	carolina/NNP that/DT
-2.50515	carolina/NNP to/TO
-2.500602	carries/VBZ the/DT	0.0002038029
-2.67715	cars/NNS </s>
-2.501059	cars/NNS in/IN
-2.676236	catch/VB an/DT
-2.676236	charges/NNS between/IN
-1.697727	charlotte/NNP </s>
-2.542825	charlotte/NNP and/CC
-2.542825	charlotte/NNP around/RB
-2.718917	charlotte/NNP between/IN
-2.718917	charlotte/NNP by/IN
-2.718917	charlotte/NNP flights/NNS
-2.718917	charlotte/NNP for/IN
-2.718917	charlotte/NNP from/IN
-2.718917	charlotte/NNP leaving/VBG
-2.542825	charlotte/NNP monday/NNP	0.007879872
-2.718917	charlotte/NNP next/JJ
-1.906003	charlotte/NNP north/JJ	0
-2.241796	charlotte/NNP on/IN	0.01405243
-2.320977	charlotte/NNP that/DT	0.02176634
-1.376494	charlotte/NNP to/TO	0.04429917
-2.718917	charlotte/NNP today/NN
-2.718917	charlotte/NNP which/WDT
-2.376577	cheap/JJ flight/NN	0.1689644
-2.677607	cheap/JJ flights/NNS
-2.761928	cheapest/JJS </s>
-2.585837	cheapest/JJS airfare/NN	0.003150315
-2.585837	cheapest/JJS coach/NN
-2.761928	cheapest/JJS direct/JJ
-1.450174	cheapest/JJS fare/NN	0.04149737
-2.363988	cheapest/JJS fares/NNS	0.03968052
-2.460898	cheapest/JJS first/JJ	0.0605527
-1.307083	cheapest/JJS flight/NN	0.1801036
-1.858838	cheapest/JJS flights/NNS	0.2483821
-2.761928	cheapest/JJS nonstop/JJ
-2.761928	cheapest/JJS of/IN
-1.355388	cheapest/JJS one/CD	0.03349729
-2.585837	cheapest/JJS rate/NN
-1.740739	cheapest/JJS round/JJ	0.07390721
-2.460898	cheapest/JJS ticket/NN	0.0118965
-2.761928	cheapest/JJS to/TO
-2.21786	cheapest/JJS way/NN	2.995948e-05
-1.719331	chicago/NNP </s>
-2.719331	chicago/NNP after/IN
-2.719331	chicago/NNP and/CC
-2.24221	chicago/NNP around/RB	0.004607938
-2.719331	chicago/NNP arrive/VB
-2.321391	chicago/NNP at/IN
-2.719331	chicago/NNP departing/VBG
-2.719331	chicago/NNP early/RB
-2.24221	chicago/NNP into/IN	-9.208289e-05
-2.719331	chicago/NNP leave/VB
-2.54324	chicago/NNP leaving/VBG	-0.0003400018
-2.321391	chicago/NNP next/JJ	0.006210192
-1.94118	chicago/NNP on/IN	0.03611085
-2.719331	chicago/NNP round/JJ
-2.719331	chicago/NNP that/DT
-2.719331	chicago/NNP then/RB
-1.407577	chicago/NNP to/TO	0.02165514
-2.719331	chicago/NNP which/WDT
-2.376121	choices/NNS of/IN	0.01692372
-1.881253	cincinnati/NNP </s>
-2.694166	cincinnati/NNP along/IN
-2.518075	cincinnati/NNP and/CC
-2.694166	cincinnati/NNP as/IN
-2.694166	cincinnati/NNP nonstop/JJ
-2.694166	cincinnati/NNP on/IN
-1.614985	cincinnati/NNP to/TO	0.1069024
-2.287802	cities/NNS </s>
-2.032529	cities/NNS are/VBP	-0.001166091
-2.50965	cities/NNS does/VBZ
-2.384712	cities/NNS served/VBD	0.003138044
-2.384712	cities/NNS that/DT
-2.50965	cities/NNS today/NN	0.004522891
-1.342423	city/NN </s>
-2.456366	city/NN airport/NN	0.01538856
-2.359456	city/NN and/CC	0.0006410547
-2.581305	city/NN arrive/VB
-2.581305	city/NN arriving/VBG
-2.581305	city/NN at/IN	0.0005870737
-2.757396	city/NN back/RB
-2.757396	city/NN before/IN
-2.757396	city/NN departing/VBG
-2.757396	city/NN does/VBZ
-2.359456	city/NN in/IN	0.06331438
-2.581305	city/NN is/VBZ
-2.757396	city/NN land/NN
-2.359456	city/NN leaving/VBG	0.000698979
-2.581305	city/NN missouri/NNP	0
-2.757396	city/NN monday/NNP
-2.757396	city/NN nonstop/JJ
-2.058426	city/NN of/IN	0.001424853
-1.882335	city/NN on/IN	0.02801121
-2.757396	city/NN proper/JJ
-2.757396	city/NN served/VBD
-2.757396	city/NN that/DT
-2.757396	city/NN then/RB
-2.757396	city/NN thursday/NNP
-1.144612	city/NN to/TO	0.052448
-2.581305	city/NN utah/NNP
-2.581305	city/NN which/WDT
-1.568958	class/NN </s>
-2.583199	class/NN airfare/NN
-2.75929	class/NN airlines/NNS
-2.75929	class/NN airplane/NN
-2.282169	class/NN american/NNP	0.04922873
-2.75929	class/NN and/CC
-2.583199	class/NN between/IN
-2.75929	class/NN c/NN
-1.8562	class/NN fare/NN	0.04737229
-1.805048	class/NN fares/NNS	0.04195759
-2.06032	class/NN flight/NN	0.02212983
-1.480536	class/NN flights/NNS	0.3098047
-1.946377	class/NN from/IN	0.04062802
-2.75929	class/NN h/NN
-2.75929	class/NN k/NN
-2.75929	class/NN leaving/VBG
-2.75929	class/NN night/NN
-2.45826	class/NN of/IN	0.002120615
-2.018927	class/NN on/IN	0.03518887
-2.583199	class/NN one/CD	0.05444587
-2.75929	class/NN only/RB
-2.75929	class/NN or/CC
-2.75929	class/NN price/NN
-2.75929	class/NN prices/NNS
-2.75929	class/NN reservations/NNS
-2.106077	class/NN round/JJ	0.07886632
-2.75929	class/NN seat/NN
-2.75929	class/NN seats/NNS
-2.106077	class/NN service/NN	0.001235929
-1.75929	class/NN ticket/NN	0.008725813
-2.282169	class/NN tickets/NNS	0.002719974
-2.75929	class/NN travel/VB
-2.75929	class/NN yn/NN
-2.505602	classes/NNS are/VBP	0.03745738
-2.681693	classes/NNS for/IN
-1.982723	classes/NNS of/IN	-0.0001524468
-2.681693	classes/NNS that/DT
-2.705864	cleveland/NNP 5/CD
-1.776445	cleveland/NNP </s>
-2.705864	cleveland/NNP after/IN
-2.705864	cleveland/NNP and/CC
-2.404834	cleveland/NNP daily/RB	0.001275965
-2.705864	cleveland/NNP departing/VBG
-2.705864	cleveland/NNP in/IN
-2.529773	cleveland/NNP leaving/VBG
-2.529773	cleveland/NNP ohio/NNP	-4.331581e-06
-2.103804	cleveland/NNP on/IN	0.03272913
-2.705864	cleveland/NNP that/DT
-1.48838	cleveland/NNP to/TO	0.01910195
-2.376121	close/RB to/TO	-0.001499142
-2.676236	closest/JJS to/TO
-2.67715	co/NN 1209/CD
-2.501059	co/NN mean/VB	0.02140693
-1.951602	coach/NN class/NN	0.02233911
-2.691965	coach/NN discount/NN
-2.515874	coach/NN economy/NN
-2.214844	coach/NN fare/NN	0.03586343
-1.992995	coach/NN fares/NNS	0.04731888
-2.515874	coach/NN flight/NN	0.006693996
-2.390935	coach/NN flights/NNS	0.0152705
-2.691965	coach/NN from/IN
-2.691965	coach/NN on/IN
-2.691965	coach/NN one/CD
-2.691965	coach/NN or/CC
-2.531904	code/NN </s>
-2.707996	code/NN again/RB
-2.707996	code/NN as/IN
-2.531904	code/NN b/NN
-2.707996	code/NN c/NN
-2.707996	code/NN dl/NN
-1.929844	code/NN f/NN	0
-2.707996	code/NN ff/NN
-2.707996	code/NN fn/NN
-2.707996	code/NN for/IN
-2.009026	code/NN h/NN	0.0004535709
-2.707996	code/NN hp/NN
-2.531904	code/NN m/NN
-2.707996	code/NN mean/VB
-2.230875	code/NN q/NN	-2.88384e-06
-2.163928	code/NN qo/NN	0
-2.310056	code/NN qw/NN	-3.841822e-06
-2.009026	code/NN qx/NNP	0.0009009368
-2.707996	code/NN s//NN
-2.707996	code/NN s/NN
-2.707996	code/NN us/PRP
-2.054783	code/NN y/NN	0.0004540458
-2.406966	code/NN yn/NN	-5.755923e-06
-2.502882	codes/NNS </s>
-2.678973	codes/NNS belong/VBP
-2.678973	codes/NNS cover/VBP
-2.678973	codes/NNS qw/NN
-2.678973	codes/NNS sd/d/NN
-2.678973	codes/NNS symbols/NNS
-2.282396	colorado/NNP </s>
-2.680336	colorado/NNP august/NNP
-2.680336	colorado/NNP please/VB
-2.282396	colorado/NNP to/TO	0.0201914
-2.212631	columbus/NNP </s>
-2.689753	columbus/NNP after/IN
-2.689753	columbus/NNP late/JJ
-2.388723	columbus/NNP ohio/NNP	-2.884422e-06
-2.513661	columbus/NNP on/IN
-1.689753	columbus/NNP to/TO	0.002283824
-2.676236	come/VBP from/IN
-2.678063	coming/VBG back/RB
-2.501972	coming/VBG from/IN
-2.678063	coming/VBG sunday/NNP
-2.678063	coming/VBG tuesday/NNP
-2.676236	companies/NNS fly/VB
-2.676236	concerning/VBG american/NNP
-2.677607	connect/VBP boston/NNP
-2.501516	connect/VBP in/IN
-2.677607	connect/VBP with/IN
-2.684845	connecting/VBG </s>
-2.383815	connecting/VBG flight/NN	0.1694227
-2.207724	connecting/VBG flights/NNS	0.2524483
-2.508754	connecting/VBG from/IN
-2.383815	connecting/VBG in/IN
-2.508754	connecting/VBG that/DT
-2.383815	connecting/VBG through/IN	0.002693404
-2.684845	connecting/VBG to/TO
-2.676694	connection/NN between/IN
-2.676694	connection/NN time/NN
-2.67715	connections/NNS </s>
-2.501059	connections/NNS between/IN
-2.676236	connects/VBZ in/IN
-2.676236	continent/NN and/CC
-2.416641	continental/JJ 1291/CD	0
-2.71767	continental/JJ 1765/CD
-2.71767	continental/JJ 271/CD
-1.872572	continental/JJ </s>
-2.541579	continental/JJ after/IN
-2.71767	continental/JJ airline/NN
-1.571543	continental/JJ airlines/NNS	0.06708336
-2.71767	continental/JJ between/IN
-2.71767	continental/JJ depart/VB
-2.71767	continental/JJ departing/VBG
-2.71767	continental/JJ flies/VBZ
-2.416641	continental/JJ flight/NN
-1.904757	continental/JJ flights/NNS	0.2676348
-2.173602	continental/JJ fly/VB	0.06813381
-2.173602	continental/JJ from/IN	0.03737228
-2.71767	continental/JJ into/IN
-2.240549	continental/JJ leaving/VBG	0.005353106
-2.173602	continental/JJ on/IN	0.01721702
-2.71767	continental/JJ service/NN
-2.416641	continental/JJ which/WDT	0.002125513
-2.71767	continental/JJ with/IN
-2.676236	continuing/VBG to/TO
-2.692847	cost/NN </s>
-2.692847	cost/NN air/NN
-2.692847	cost/NN between/IN
-2.692847	cost/NN fare/NN
-2.516756	cost/NN flight/NN	0.1694213
-2.391817	cost/NN for/IN	0.01600192
-1.546719	cost/NN of/IN	0.005765439
-2.692847	cost/NN to/TO
-2.692847	cost/NN within/IN
-1.990339	cost/VB </s>
-2.689309	cost/VB from/IN
-2.689309	cost/VB in/IN
-2.212188	cost/VB less/JJR	0.01522425
-2.689309	cost/VB taking/VBG
-1.844211	cost/VB to/TO	0.00854279
-2.678063	costs/NNS and/CC
-2.678063	costs/NNS less/JJR
-2.377033	costs/NNS of/IN
-2.697665	could/MD do/VB
-2.153597	could/MD i/PRP	0.002693228
-1.365227	could/MD you/PRP	0.01822735
-2.029384	county/NN </s>
-2.682596	county/NN new/JJ
-2.284656	county/NN to/TO	-0.0004587881
-2.506505	county/NN with/IN	0.004414479
-2.676236	cover/VBP flights/NNS
-2.500602	cp/NN uses/VBZ	0.001821407
-2.676236	currently/RB available/JJ
-2.676236	d/s/NN stand/VB
-2.676236	d10/NN </s>
-2.676236	d9s/NN </s>
-2.693287	daily/RB 5/CD
-2.216166	daily/RB </s>
-2.693287	daily/RB flight/NN
-1.531919	daily/RB flights/NNS	0.2724841
-2.693287	daily/RB from/IN
-2.693287	daily/RB nonstop/JJ
-2.693287	daily/RB us/PRP
-2.693287	daily/RB with/IN
-0.9071833	dallas/NNP </s>
-2.902818	dallas/NNP about/RB
-2.726727	dallas/NNP after/IN
-2.35875	dallas/NNP airport/NN	0.01573075
-1.881629	dallas/NNP and/CC	0.02052003
-2.902818	dallas/NNP arrive/VB
-2.425697	dallas/NNP arriving/VBG	0.003081898
-2.902818	dallas/NNP atlanta/NNP
-2.601789	dallas/NNP before/IN
-2.726727	dallas/NNP by/IN
-2.726727	dallas/NNP can/MD	0.03143478
-2.902818	dallas/NNP connecting/VBG
-2.601789	dallas/NNP dallas/NNP	0.0586908
-2.902818	dallas/NNP denver/NNP
-2.902818	dallas/NNP departing/VBG
-2.902818	dallas/NNP early/RB
-2.902818	dallas/NNP first/JJ
-2.902818	dallas/NNP flights/NNS
-2.726727	dallas/NNP for/IN
-1.37134	dallas/NNP fort/NN	0.009312717
-2.504879	dallas/NNP from/IN	0.02281629
-2.902818	dallas/NNP going/VBG
-2.726727	dallas/NNP ground/NN
-2.300758	dallas/NNP in/IN	0.06194796
-2.504879	dallas/NNP into/IN	0.0003638696
-2.902818	dallas/NNP least/JJS
-2.504879	dallas/NNP leaving/VBG
-2.902818	dallas/NNP makes/VBZ
-2.902818	dallas/NNP monday/NNP
-2.726727	dallas/NNP next/JJ
-1.57038	dallas/NNP on/IN	0.1410944
-2.902818	dallas/NNP one/CD
-2.300758	dallas/NNP please/VB	0.01521303
-2.203848	dallas/NNP round/JJ	0.07841227
-2.902818	dallas/NNP saturday/NNP
-2.902818	dallas/NNP serve/VB
-2.902818	dallas/NNP stopover/NN
-2.601789	dallas/NNP stopping/VBG	0.007217591
-2.902818	dallas/NNP texas/NNP
-2.162456	dallas/NNP that/DT	0.01588347
-2.726727	dallas/NNP the/DT
-2.726727	dallas/NNP through/IN
-0.8857851	dallas/NNP to/TO	0.2029098
-2.726727	dallas/NNP tomorrow/NN
-2.601789	dallas/NNP via/IN	-2.134021e-05
-2.35875	dallas/NNP which/WDT	0.005199013
-2.249606	dallas/NNP with/IN	0.03183769
-2.500602	database/NN </s>
-2.676236	date/NN june/NNP
-1.877726	day/NN </s>
-2.213518	day/NN after/IN	-0.0005233542
-2.514548	day/NN and/CC
-2.690639	day/NN arriving/VBG
-2.690639	day/NN at/IN
-2.514548	day/NN find/VB	0.01140673
-2.690639	day/NN following/VBG
-2.690639	day/NN from/IN
-2.514548	day/NN leaving/VBG
-2.514548	day/NN of/IN	0.0112637
-2.690639	day/NN on/IN
-2.690639	day/NN time/NN
-2.514548	day/NN to/TO
-2.501972	days/NNS </s>
-2.501972	days/NNS from/IN
-2.678063	days/NNS i/PRP
-1.366522	dc/NN </s>
-2.561499	dc/NN after/IN
-2.260469	dc/NN and/CC	0.01167842
-2.73759	dc/NN area/NN
-2.561499	dc/NN arriving/VBG
-2.561499	dc/NN at/IN	0.000194225
-2.73759	dc/NN baltimore/NNP
-2.73759	dc/NN before/IN
-2.73759	dc/NN but/CC
-2.73759	dc/NN departing/VBG
-2.561499	dc/NN for/IN
-2.73759	dc/NN from/IN
-2.73759	dc/NN give/VB
-2.561499	dc/NN i/PRP	0.04098349
-2.73759	dc/NN late/JJ
-2.561499	dc/NN leaving/VBG	0.01368202
-2.73759	dc/NN nonstop/JJ
-1.576222	dc/NN on/IN	0.05434407
-2.73759	dc/NN one/CD
-2.73759	dc/NN san/NNP
-2.73759	dc/NN stop/NN
-2.73759	dc/NN stop/VB
-2.73759	dc/NN that/DT
-1.458837	dc/NN to/TO	0.1569859
-2.561499	dc/NN via/IN	-2.278737e-05
-2.73759	dc/NN wednesday/NNP
-2.501059	dc10/NN </s>
-2.67715	dc10/NN service/NN
-2.291813	december/NNP </s>
-2.689753	december/NNP are/VBP
-2.689753	december/NNP first/CD
-2.689753	december/NNP from/IN
-2.689753	december/NNP second/CD
-2.212631	december/NNP seventeenth/CD	0.0009028029
-2.689753	december/NNP sixteen/CD
-2.388723	december/NNP sixteenth/CD
-2.689753	december/NNP third/CD
-1.844655	december/NNP twenty/CD	0.01157835
-2.376121	define/JJ airline/NN
-2.67715	delta's/NN flights/NNS
-2.67715	delta's/NN night/NN
-2.67715	delta's/NN schedule/NN
-2.723456	delta/NNP 139/CD
-2.723456	delta/NNP 82/CD
-1.983093	delta/NNP </s>
-2.723456	delta/NNP aircraft/NN
-2.325516	delta/NNP airline/NN	0.000307699
-1.562088	delta/NNP airlines/NNS	0.07314216
-2.723456	delta/NNP and/CC
-2.723456	delta/NNP arrive/VB
-1.820366	delta/NNP flight/NN	0.1671768
-1.702266	delta/NNP flights/NNS	0.3087011
-2.325516	delta/NNP fly/VB
-2.246334	delta/NNP from/IN	0.01761772
-2.723456	delta/NNP has/VBZ
-2.121396	delta/NNP have/VB	0.007775188
-2.723456	delta/NNP in/IN
-2.723456	delta/NNP is/VBZ
-2.723456	delta/NNP leaves/VBZ
-2.723456	delta/NNP leaving/VBG
-2.422426	delta/NNP or/CC	-9.421527e-05
-2.723456	delta/NNP that/DT
-2.547364	delta/NNP to/TO
-2.723456	delta/NNP use/VB
-0.8397473	denver/NNP </s>
-2.985875	denver/NNP a/DT
-2.286905	denver/NNP after/IN	0.002214873
-2.286905	denver/NNP airport/NN	0.03176194
-1.523477	denver/NNP and/CC	0.04046218
-2.985875	denver/NNP around/RB
-2.332663	denver/NNP arriving/VBG	0.0350958
-2.587935	denver/NNP at/IN	-0.0001953784
-2.985875	denver/NNP august/NNP
-2.985875	denver/NNP be/VB
-1.944483	denver/NNP before/IN	0.0301948
-2.809784	denver/NNP by/IN
-2.587935	denver/NNP can/MD	0.03097979
-2.985875	denver/NNP coach/NN
-2.245513	denver/NNP colorado/NNP	0
-2.809784	denver/NNP connecting/VBG
-2.985875	denver/NNP cost/VB
-2.985875	denver/NNP dallas/NNP
-2.985875	denver/NNP delta/NNP
-2.985875	denver/NNP departing/VBG
-2.985875	denver/NNP do/VB
-2.985875	denver/NNP during/IN
-2.684845	denver/NNP early/RB	0.00841766
