
\data\
ngram 1=927
ngram 2=6553
ngram 3=5605

\1-grams:
-4.481478	/	-0.5026469
-4.782507	0900	-0.2819901
-4.004357	1	-0.7516087
-3.93741	10	-0.8483031
-4.481478	100	-0.4656923
-3.367535	1000	-1.430998
-4.782507	1017	-0.3129248
-4.782507	1020pm	-0.2819901
-4.782507	1024	-0.3129248
-4.782507	1026	-0.2819901
-4.782507	1030am	-0.3134405
-4.481478	1039	-0.2801677
-4.782507	1045am	-0.2819901
-4.782507	1055	-0.3190737
-4.782507	1059	-0.2819901
-4.782507	106	-0.2916995
-4.782507	1083	-0.2916995
-3.180449	10am	-0.8398309
-3.828266	10pm	-1.224437
-4.782507	11	-0.318378
-4.004357	1100	-1.081078
-4.782507	110pm	-0.3082699
-4.481478	1110	-0.496627
-4.180449	1115am	-0.6933225
-4.782507	1130am	-0.2819901
-4.782507	1133am	-0.3134405
-4.481478	1145am	-0.4656923
-4.782507	1158pm	-0.3100003
-4.180449	11am	-0.3368771
-4.481478	11pm	-0.4656923
-3.214307	12	-1.572608
-4.782507	1200	-0.3190379
-4.782507	1205	-0.3129248
-4.782507	1209	-0.2819901
-4.782507	1220pm	-0.3134405
-4.481478	1222	-0.4754017
-4.782507	1230pm	-0.2819901
-4.782507	124	-0.3187224
-4.180449	1245pm	-0.6618721
-4.782507	1288	-0.2819901
-4.305387	1291	-0.4036323
-3.703327	12pm	-0.8306879
-4.782507	130	-0.3129248
-4.782507	1300	-0.3190379
-4.782507	137338	-0.2819901
-4.782507	139	-0.2819901
-4.782507	150	-0.3187224
-4.782507	1500	-0.3187224
-4.782507	1505	-0.2916995
-4.782507	1600	-0.3190379
-4.782507	163	-0.2819901
-4.481478	1700	-0.3082185
-4.481478	1765	-0.4754017
-4.782507	1850	-0.3134405
-4.782507	19	-0.2916995
-4.782507	1940	-0.2819901
-3.481478	1991	-1.031384
-4.180449	1992	-0.3187562
-4.782507	1993	-0.2819901
-3.93741	1pm	-0.8156309
-3.93741	2	-0.3586853
-4.782507	200	-0.3187224
-4.481478	201	-0.2520732
-4.305387	21	-0.3733882
-4.782507	210	-0.2819901
-4.180449	2100	-0.6618721
-4.782507	210pm	-0.2819901
-4.782507	212	-0.2916995
-4.481478	2134	-0.4656923
-4.782507	2153	-0.2916995
-4.782507	217	-0.2916995
-4.782507	225pm	-0.31771
-4.782507	229	-0.2916995
-4.782507	230	-0.3082699
-4.305387	230pm	-0.3733882
-4.782507	257	-0.2819901
-4.481478	269	-0.3146295
-4.305387	270	-0.3830975
-4.782507	271	-0.2916995
-4.782507	279	-0.3185503
-4.004357	281	-1.054055
-4.305387	296	-0.2838515
-4.782507	297	-0.2916995
-3.527236	2pm	-0.8850724
-3.828266	3	-0.7017601
-4.782507	300	-0.3187224
-4.782507	305	-0.3129248
-4.782507	311	-0.2819901
-4.782507	315	-0.2819901
-4.782507	323	-0.3190737
-4.782507	324	-0.3082699
-4.782507	324pm	-0.2819901
-4.782507	329	-0.3187224
-4.782507	3357	-0.2916995
-4.481478	343	-0.4754017
-4.782507	345	-0.2916995
-4.782507	352	-0.2916995
-4.481478	3724	-0.4983535
-3.828266	3pm	-0.4510963
-3.55206	4	-1.198755
-4.782507	400	-0.3187224
-4.782507	402	-0.2916995
-4.782507	405	-0.2819901
-4.305387	415	-0.2852869
-4.782507	416	-0.3187224
-4.782507	417	-0.2916995
-4.782507	420	-0.3100003
-4.782507	428	-0.3100003
-4.782507	430	-0.3134405
-4.180449	430pm	-0.3425184
-4.782507	43pm	-0.2819901
-4.782507	4400	-0.2916995
-4.782507	445	-0.3134405
-4.782507	459	-0.3188228
-3.93741	466	-0.5652986
-4.782507	497766	-0.2916995
-3.460289	4pm	-0.9333583
-3.335351	5	-1.039529
-4.782507	500	-0.3187224
-4.481478	505	-0.2911267
-4.782507	515pm	-0.2819901
-4.481478	530	-0.2758354
-4.305387	530pm	-0.3733882
-4.782507	539	-0.2819901
-4.305387	555	-0.3855599
-3.058233	5pm	-1.047238
-3.481478	6	-1.092134
-4.782507	615pm	-0.2819901
-4.782507	630	-0.2819901
-4.305387	630am	-0.3862302
-4.481478	630pm	-0.4656923
-4.782507	645am	-0.318622
-4.782507	650	-0.2819901
-3.202725	6pm	-0.9290519
-3.741116	7	-0.9678741
-4.782507	705	-0.2871574
-4.782507	71	-0.2916995
-4.180449	718am	-0.3536051
-4.481478	720am	-0.4656923
-4.782507	723pm	-0.2819901
-4.481478	727	-0.2861691
-4.481478	72s	-0.2819199
-4.782507	730pm	-0.2819901
-4.782507	733	-0.2819901
-4.782507	734	-0.2819901
-4.305387	737	-0.3954596
-4.782507	73s	-0.2819901
-4.782507	746	-0.3186005
-4.083539	747	-0.3392965
-4.782507	755	-0.3106146
-4.782507	755am	-0.3106146
-4.481478	757	-0.5014122
-4.481478	767	-0.4656923
-4.782507	771	-0.3141514
-4.180449	7am	-0.3368771
-3.291147	7pm	-1.087909
-3.578388	8	-0.9056401
-4.782507	810pm	-0.3168321
-4.305387	813	-0.3830975
-4.782507	815am	-0.2819901
-4.782507	819	-0.3106146
-4.782507	82	-0.3134405
-4.782507	823	-0.3129248
-4.180449	825	-0.371291
-4.305387	838	-0.2756295
-4.481478	838am	-0.3121755
-4.481478	845	-0.496627
-4.481478	852	-0.2520732
-3.606417	8am	-0.3685191
-3.481478	8pm	-0.5664793
-3.828266	9	-1.27257
-4.782507	928	-0.2916995
-4.481478	932	-0.5024247
-4.305387	934pm	-0.3733882
-4.782507	98	-0.2819901
-3.578388	9am	-0.7403829
-4.004357	9pm	-0.7165447
-1.086852	</s>
-99	<s>	-1.418513
-1.829716	a	-1.292172
-4.782507	aa	-0.3190809
-3.93741	abbreviation	-0.3612258
-4.481478	abbreviations	-0.4656923
-4.782507	able	-0.2871574
-3.058233	about	-0.7498525
-4.481478	ac	-0.2758354
-4.782507	across	-0.3189447
-4.481478	actually	-0.3088499
-4.782507	advertises	-0.3190809
-2.422673	after	-0.9237817
-2.544462	afternoon	-1.258184
-4.782507	afternoons	-0.2819901
-4.782507	afterwards	-0.2819901
-3.703327	again	-0.724106
-2.842989	air	-0.5756539
-2.943659	aircraft	-0.6142812
-3.55206	airfare	-0.6628692
-4.782507	airfares	-0.3165078
-2.833118	airline	-0.5622998
-2.157196	airlines	-1.104436
-3.828266	airplane	-0.3352712
-4.481478	airplanes	-0.3131791
-2.652175	airport	-1.211474
-3.420781	airports	-0.707041
-4.481478	alaska	-0.4997557
-2.002912	all	-1.287638
-4.481478	along	-0.3025014
-3.503755	also	-0.293928
-3.384568	am	-0.5356992
-4.305387	america	-0.4104646
-2.55206	american	-1.196056
-4.481478	american's	-0.3186794
-4.180449	amount	-0.69626
-3.011657	an	-0.8939316
-1.888747	and	-0.5977584
-2.969595	angeles	-0.7430553
-4.180449	another	-0.3533971
-2.773908	any	-0.7867987
-4.782507	anything	-0.2916995
-4.083539	anywhere	-0.2956341
-4.782507	ap	-0.3168969
-4.782507	ap/55	-0.2819901
-3.782508	ap/57	-0.6313443
-4.305387	ap/80	-0.395077
-4.180449	ap57	-0.3636375
-4.782507	ap68	-0.2819901
-4.305387	ap80	-0.3733882
-4.481478	approximately	-0.3190307
-3.420781	april	-0.7798418
-2.124497	are	-1.209983
-4.180449	area	-0.6618721
-4.481478	arizona	-0.3029478
-2.990117	around	-0.652044
-4.004357	arrange	-0.5865272
-3.55206	arrangements	-1.520037
-4.083539	arrival	-0.3746881
-4.083539	arrivals	-0.3354901
-2.633289	arrive	-1.234633
-3.335351	arrives	-0.7818958
-2.499207	arriving	-1.065738
-3.402297	as	-0.5519745
-2.572994	at	-0.5311705
-4.481478	atl	-0.2470947
-1.905137	atlanta	-1.12077
-4.481478	atlanta's	-0.5018218
-2.800237	august	-0.7310582
-2.501475	available	-0.9371159
-4.481478	b	-0.2653958
-3.578388	back	-0.8163942
-1.992928	baltimore	-1.288373
-4.782507	bay	-0.3190594
-3.402297	be	-0.4288141
-3.214307	beach	-0.7565042
-2.52483	before	-1.192945
-4.782507	beginning	-0.3082699
-4.782507	begins	-0.3129248
-4.782507	being	-0.3189519
-4.782507	belong	-0.2871574
-4.782507	besides	-0.3183995
-2.227414	between	-1.030725
-4.782507	bna	-0.2819901
-3.93741	boeing	-0.460759
-3.202725	book	-1.241945
-4.004357	booking	-0.4194247
-1.755567	boston	-1.274529
-3.93741	both	-0.6841024
-4.481478	bound	-0.2850235
-3.384568	breakfast	-1.130501
-4.782507	bring	-0.3190737
-4.782507	bur	-0.2819901
-3.402297	burbank	-0.4982252
-3.481478	business	-1.320776
-3.879418	but	-0.3858529
-4.481478	buy	-0.4963143
-3.606417	bwi	-0.4631561
-3.050115	by	-0.5297914
-4.481478	c	-0.4656923
-3.277359	california	-0.6619036
-4.782507	calling	-0.2916995
-2.689087	can	-1.575992
-4.004357	canada	-0.3625466
-3.782508	canadian	-1.038358
-4.782507	capacities	-0.316378
-3.782508	capacity	-0.4553402
-3.420781	car	-0.5672011
-3.703327	carolina	-0.4788906
-4.481478	carries	-0.4875787
-4.305387	cars	-0.3887502
-4.782507	catch	-0.3186651
-4.782507	charges	-0.3165078
-2.786873	charlotte	-0.9665772
-4.180449	cheap	-0.3591679
-2.464445	cheapest	-1.345461
-2.782508	chicago	-1.013705
-4.305387	choices	-0.4077761
-3.169725	cincinnati	-1.113608
-3.440086	cities	-0.7420145
-2.490252	city	-1.106925
-2.479312	class	-1.033258
-3.668565	classes	-0.9025025
-2.95	cleveland	-0.866366
-4.305387	close	-0.3785554
-4.782507	closest	-0.2871574
-4.305387	co	-0.4321997
-3.226206	coach	-0.7122506
-2.919186	code	-0.8069268
-3.93741	codes	-0.326969
-3.782508	colorado	-0.9426597
-3.291147	columbus	-0.8247429
-4.782507	come	-0.2916995
-4.083539	coming	-0.3541401
-4.782507	companies	-0.3171201
-4.782507	concerning	-0.3178681
-4.180449	connect	-0.38596
-3.481478	connecting	-0.3201882
-4.481478	connection	-0.3162049
-4.305387	connections	-0.3926563
-4.782507	connects	-0.3129248
-4.782507	continent	-0.3134405
-2.800237	continental	-0.7901419
-4.782507	continuing	-0.2871574
-2.95	cost	-0.9034767
-4.083539	costs	-0.362912
-3.092312	could	-1.692796
-3.606417	county	-1.056614
-4.782507	cover	-0.301316
-4.481478	cp	-0.5027401
-4.782507	currently	-0.3177172
-4.782507	d/s	-0.3189734
-4.782507	d10	-0.2819901
-4.782507	d9s	-0.2819901
-3.191444	daily	-0.89526
-1.968928	dallas	-1.156627
-4.481478	database	-0.4656923
-4.782507	date	-0.3187081
-3.263994	day	-0.5296509
-4.083539	days	-0.3862312
-2.62114	dc	-0.8953324
-4.305387	dc10	-0.3951473
-3.291147	december	-0.7101792
-4.305387	define	-0.4098478
-2.741116	delta	-0.8370162
-4.305387	delta's	-0.3008977
-1.787752	denver	-1.241973
-3.214307	depart	-0.4924999
-3.139056	departing	-0.6267378
-4.180449	departs	-0.3048624
-3.828266	departure	-0.3472034
-4.180449	departures	-0.3657502
-4.305387	describe	-0.3106803
-4.782507	designate	-0.318916
-4.180449	destination	-0.3120153
-4.782507	determine	-0.3100003
-3.251029	detroit	-0.8569983
-3.879418	dfw	-0.3934187
-2.833118	diego	-0.8964645
-4.481478	difference	-0.50021
-4.305387	different	-0.4239968
-3.503755	dinner	-0.4366041
-4.481478	dinnertime	-0.2816934
-3.384568	direct	-0.7205731
-4.782507	directly	-0.2916995
-4.782507	discount	-0.3172569
-3.606417	display	-1.171754
-3.93741	distance	-0.8250492
-3.481478	dl	-0.364041
-2.804785	do	-1.081746
-2.456173	does	-1.029696
-4.782507	doesn't	-0.2819901
-3.074938	dollars	-0.8892953
-4.782507	don't	-0.3179615
-2.95	downtown	-0.7211106
-4.481478	dulles	-0.2755028
-4.004357	during	-0.3498563
-4.083539	ea	-0.3294577
-4.004357	each	-0.7822279
-4.481478	earlier	-0.5024318
-2.62114	earliest	-1.285679
-2.842989	early	-0.9139016
-3.440086	eastern	-0.7803482
-4.782507	economic	-0.3176453
-3.226206	economy	-0.8226843
-4.481478	eight	-0.2819589
-4.083539	eighteenth	-0.3314454
-3.481478	eighth	-0.937955
-3.703327	either	-0.4759043
-4.782507	eleven	-0.3187726
-3.703327	eleventh	-0.5766528
-4.782507	else	-0.3190737
-4.782507	enroute	-0.3179256
-4.782507	equal	-0.2871574
-4.782507	equipment	-0.3143325
-2.72943	evening	-0.7913922
-4.782507	everywhere	-0.3190164
-3.828266	ewr	-0.4868188
-3.092312	expensive	-0.991488
-3.782508	explain	-0.6256785
-3.63638	express	-0.7991508
-4.782507	eye	-0.3106146
-3.741116	f	-0.9531881
-4.305387	f28	-0.3655504
-3.93741	far	-0.8227311
-2.375968	fare	-1.181319
-2.549512	fares	-1.068766
-4.004357	february	-1.080583
-4.083539	ff	-0.9805697
-3.305387	field	-1.305977
-4.782507	fifteen	-0.2819901
-3.55206	fifteenth	-0.6492589
-3.460289	fifth	-0.594374
-4.782507	final	-0.3190594
-2.699723	find	-1.434683
-4.782507	fine	-0.3181986
-2.398693	first	-1.277074
-4.305387	fit	-0.399668
-3.63638	flies	-0.9150287
-1.713952	flight	-1.233735
-1.396902	flights	-1.630945
-3.703327	florida	-0.6990807
-2.344758	fly	-1.027244
-3.335351	flying	-0.717241
-4.305387	fn	-0.2815138
-4.180449	following	-0.3987968
-2.341599	for	-0.6276924
-2.833118	fort	-1.953604
-4.481478	four	-0.3083948
-3.828266	fourteenth	-0.440727
-3.460289	fourth	-1.116981
-1.844991	francisco	-1.149673
-2.833118	friday	-0.6460864
-4.782507	friday's	-0.301316
-4.782507	fridays	-0.2819901
-4.481478	friends	-0.2843409
-1.213838	from	-2.27178
-3.320111	general	-1.476913
-4.180449	georgia	-0.3472268
-3.092312	get	-1.011429
-4.782507	gets	-0.3129248
-2.554622	give	-2.054657
-2.652175	go	-1.536405
-3.460289	goes	-0.9297748
-2.969595	going	-2.056646
-4.782507	got	-0.3190809
-4.305387	great	-0.3188228
-4.782507	greatest	-0.3190235
-2.436156	ground	-1.875245
-4.782507	grounds	-0.3175878
-3.782508	guardia	-0.3359007
-3.782508	h	-1.004295
-4.782507	hartfield	-0.2819901
-3.460289	has	-0.6694652
-2.52483	have	-0.6916189
-4.782507	having	-0.3190594
-4.305387	heading	-0.400627
-4.180449	hello	-0.3941521
-4.180449	help	-0.3752981
-4.481478	here	-0.3128666
-3.828266	hi	-0.61936
-4.481478	highest	-0.3160823
-4.782507	hold	-0.2819901
-4.782507	home	-0.2819901
-4.782507	hopefully	-0.3126121
-4.782507	hou	-0.3187296
-3.93741	hours	-0.3544694
-2.85309	houston	-0.826704
-2.652175	how	-1.207511
-3.93741	hp	-0.5285662
-1.925176	i	-1.746039
-2.438116	i'd	-2.181278
-4.083539	i'll	-0.3699676
-3.101267	i'm	-0.7943998
-4.782507	i've	-0.3190809
-4.782507	iah	-0.3187296
-3.782508	if	-0.442695
-1.851051	in	-1.244529
-4.305387	include	-0.3113592
-4.782507	includes	-0.3189519
-4.782507	including	-0.3190666
-4.782507	indiana	-0.3168321
-2.868695	indianapolis	-1.101057
-4.782507	inexpensive	-0.3106146
-4.782507	inform	-0.309971
-2.668565	information	-1.210858
-4.782507	instead	-0.316378
-4.782507	intercontinental	-0.2819901
-3.481478	interested	-1.316056
-3.14904	international	-1.101596
-3.202725	into	-0.519519
-1.962965	is	-1.183814
-3.291147	it	-0.7139944
-4.782507	it's	-0.3082699
-4.481478	itinerary	-0.3143833
-4.782507	j31	-0.3185933
-3.828266	january	-0.5206537
-3.782508	jersey	-0.5965542
-4.782507	jet	-0.3106146
-4.083539	jfk	-0.3866804
-3.110411	jose	-0.7409139
-2.833118	july	-0.833657
-3.058233	june	-0.7562134
-4.481478	just	-0.307115
-4.782507	k	-0.2819901
-2.874023	kansas	-1.912407
-3.320111	kind	-1.474411
-4.782507	kindly	-0.3178753
-4.305387	kinds	-0.4077761
-3.159259	know	-0.7161222
-3.402297	la	-0.6266975
-2.976328	lake	-2.086638
-4.180449	land	-0.6978076
-4.481478	landing	-0.3019501
-3.879418	landings	-0.5228861
-4.782507	lands	-0.3179256
-4.782507	largest	-0.3190235
-2.741116	las	-2.044527
-3.263994	last	-1.306331
-4.481478	lastest	-0.3187009
-3.460289	late	-0.5327768
-4.004357	later	-0.7716356
-2.93741	latest	-0.9438457
-4.782507	lax	-0.3189734
-4.782507	laying	-0.3190379
-3.879418	layover	-0.9480792
-3.180449	least	-1.317322
-2.603532	leave	-0.6138127
-3.119751	leaves	-0.4215727
-2.285579	leaving	-0.9697389
-3.191444	less	-1.601701
-4.782507	lester	-0.3190809
-4.782507	let	-0.309971
-4.083539	let's	-0.3702265
-4.782507	level	-0.2819901
-2.098561	like	-1.719941
-4.481478	limo	-0.3126267
-3.63638	limousine	-0.9465881
-4.782507	limousines	-0.3185503
-2.140044	list	-1.423823
-4.782507	listed	-0.3189447
-3.668565	listing	-1.143418
-4.782507	listings	-0.316378
-3.828266	live	-0.9938367
-4.481478	lives	-0.496627
-4.782507	local	-0.318787
-4.782507	locate	-0.301316
-4.481478	located	-0.4656923
-3.93741	logan	-0.3253837
-3.139056	long	-1.413316
-4.782507	longest	-0.3190594
-4.481478	look	-0.3144412
-3.420781	looking	-1.646751
-2.969595	los	-1.819078
-3.14904	louis	-0.5460106
-3.305387	love	-1.491147
-3.226206	lowest	-1.130558
-4.782507	ls	-0.3189734
-4.083539	lufthansa	-0.255347
-3.741116	lunch	-0.8365377
-4.481478	m	-0.2815997
-4.481478	m80	-0.4656923
-3.367535	make	-1.222612
-3.828266	makes	-0.9935241
-4.083539	making	-0.673422
-3.042146	many	-0.694463
-3.879418	march	-0.9522818
-4.305387	maximum	-0.4323861
-3.066505	may	-0.9570783
-3.828266	mco	-0.4895239
-1.682483	me	-1.271184
-3.202725	meal	-0.7229134
-3.782508	meals	-0.6269094
-4.782507	mealtime	-0.2819901
-3.083539	mean	-1.670472
-4.305387	meaning	-0.4077761
-3.050115	memphis	-1.077365
-4.782507	mia	-0.2819901
-2.721811	miami	-1.124851
-4.481478	michigan	-0.2791398
-4.083539	midnight	-0.3319482
-4.481478	midway	-0.4997557
-3.63638	midwest	-1.175991
-2.696149	milwaukee	-1.235913
-4.782507	minimum	-0.3190737
-3.110411	minneapolis	-0.9556895
-4.305387	minnesota	-0.2638687
-4.481478	missouri	-0.4708596
-3.320111	mitchell	-1.441967
-2.627172	monday	-0.8222124
-4.782507	mondays	-0.2819901
-4.481478	month	-0.5000803
-3.058233	montreal	-0.7150022
-4.180449	more	-0.3004791
-2.323116	morning	-1.097371
-4.083539	mornings	-0.9510432
-3.55206	most	-0.9144329
-3.119751	much	-1.154447
-4.782507	must	-0.318916
-3.828266	my	-0.3386303
-4.083539	name	-0.31483
-4.481478	names	-0.5000803
-3.092312	nashville	-1.132847
-4.083539	nationair	-0.39638
-4.180449	near	-0.398328
-2.479312	need	-1.257603
-4.782507	nevada	-0.3164718
-2.578388	new	-2.404732
-2.757203	newark	-0.9220116
-2.838026	next	-1.015388
-3.277359	night	-0.5939628
-4.782507	nights	-0.2819901
-4.782507	nighttime	-0.3190235
-3.879418	nineteenth	-0.4376174
-3.578388	ninth	-0.7465234
-3.879418	no	-0.3603741
-4.782507	non	-0.3173504
-2.63022	nonstop	-1.201338
-4.481478	nonstops	-0.4754017
-2.737185	noon	-1.307739
-4.305387	noontime	-0.3655504
-3.703327	north	-1.113857
-3.291147	northwest	-1.043582
-3.238441	november	-0.7850603
-3.305387	now	-0.7159222
-3.460289	number	-0.5597694
-4.004357	numbers	-0.7260306
-4.305387	nw	-0.3953425
-2.786873	o'clock	-0.9135993
-4.782507	o'hare	-0.3187726
-4.782507	oak	-0.3134405
-2.398693	oakland	-0.8699309
-3.703327	october	-0.9778212
-2.206167	of	-0.8452699
-4.782507	off	-0.3134405
-4.004357	offer	-0.3544259
-4.782507	offered	-0.3134405
-4.305387	offers	-0.2580605
-4.782507	oh	-0.3190522
-4.083539	ohio	-0.3745176
-3.202725	okay	-0.4503132
-1.609031	on	-1.459836
-4.782507	once	-0.3138976
-2.570321	one	-1.269894
-4.782507	one's	-0.3190666
-3.668565	only	-0.2599887
-3.527236	ontario	-1.138088
-4.782507	operating	-0.3082699
-4.782507	operation	-0.3179256
-4.305387	options	-0.2883435
-2.907447	or	-0.3597751
-4.481478	ord	-0.2815997
-4.782507	order	-0.2819901
-4.481478	originate	-0.2916308
-4.305387	originating	-0.4043228
-2.833118	orlando	-1.040647
-3.55206	other	-0.4903553
-3.384568	out	-0.9449213
-3.93741	over	-0.8478442
-4.782507	overnight	-0.301316
-4.180449	passengers	-0.3632074
-3.251029	paul	-0.8837123
-4.782507	pearson	-0.3181196
-4.180449	pennsylvania	-0.3368771
-3.93741	people	-0.3706121
-3.083539	petersburg	-0.9886107
-2.01387	philadelphia	-1.141301
-4.481478	philly	-0.4656923
-2.791282	phoenix	-1.18183
-1.946818	pittsburgh	-1.294712
-4.782507	place	-0.2819901
-4.305387	plan	-0.4040101
-3.606417	plane	-0.4969541
-3.879418	planes	-0.3376504
-4.782507	planning	-0.3126121
-2.298209	please	-1.472064
-3.291147	pm	-0.9116728
-3.402297	possible	-0.6530559
-4.782507	prefer	-0.3126121
-4.782507	preferably	-0.3185933
-3.503755	price	-0.761446
-4.782507	priced	-0.3172569
-3.503755	prices	-0.7798678
-4.782507	proper	-0.2819901
-4.305387	provide	-0.2809978
-4.083539	provided	-0.6795108
-4.782507	provides	-0.3189447
-4.782507	put	-0.309971
-4.004357	q	-0.3875596
-4.004357	qo	-1.081085
-4.782507	qualify	-0.3171057
-4.481478	quebec	-0.4708596
-4.782507	question	-0.3143325
-4.004357	qw	-0.3777367
-3.703327	qx	-0.4284092
-4.481478	rate	-0.3172497
-4.180449	rates	-0.3769906
-4.782507	reaches	-0.3183708
-4.481478	reaching	-0.3180549
-4.782507	red	-0.3190809
-4.782507	regarding	-0.3118477
-4.083539	rent	-0.673422
-3.55206	rental	-0.7746953
-4.305387	rentals	-0.4230822
-4.481478	repeat	-0.2984999
-4.782507	repeating	-0.3168321
-4.782507	represented	-0.3129248
-4.180449	requesting	-0.6904965
-4.305387	reservation	-0.4030651
-4.481478	reservations	-0.4754017
-3.440086	restriction	-0.6038036
-4.481478	restrictions	-0.4919722
-3.305387	return	-0.5445103
-3.578388	returning	-0.6255526
-4.782507	reverse	-0.3038765
-3.828266	right	-0.3645716
-2.477157	round	-2.237129
-4.782507	route	-0.2819901
-4.782507	run	-0.3188085
-4.782507	runs	-0.2916995
-4.782507	s	-0.2819901
-4.481478	s/	-0.3189662
-4.305387	sa	-0.3733882
-2.976328	salt	-1.812455
-3.55206	same	-0.9382648
-1.781641	san	-2.994061
-2.804785	saturday	-0.7641771
-4.180449	saturdays	-0.4357755
-4.481478	say	-0.3185646
-4.782507	scenario	-0.3190666
-3.402297	schedule	-0.8903114
-4.782507	scheduled	-0.3171057
-4.481478	schedules	-0.4754017
-4.782507	sd/d	-0.2819901
-4.782507	seat	-0.3082699
-3.828266	seating	-1.273252
-4.180449	seats	-0.351815
-2.858229	seattle	-1.24138
-3.291147	second	-0.825578
-3.058233	see	-1.033405
-3.277359	september	-0.9025053
-3.277359	serve	-0.4648152
-3.503755	served	-1.023775
-3.291147	serves	-1.082086
-3.169725	service	-0.4992009
-4.481478	serviced	-0.5024031
-4.305387	services	-0.3037058
-3.93741	serving	-0.3957947
-4.782507	seven	-0.2819901
-4.782507	seventeen	-0.2916995
-3.828266	seventeenth	-0.4587869
-2.842989	seventh	-0.7641289
-4.004357	sfo	-0.3384927
-3.828266	shortest	-0.5417584
-3.741116	should	-0.4243737
-1.760906	show	-1.991824
-4.782507	single	-0.3184498
-4.180449	six	-0.4641913
-4.180449	sixteen	-0.2510099
-3.828266	sixteenth	-0.463869
-3.606417	sixth	-0.6813157
-3.741116	smallest	-0.6562861
-4.481478	snack	-0.4656923
-4.180449	so	-0.3815586
-3.879418	some	-0.5249815
-4.782507	somebody	-0.3190809
-4.083539	sometime	-0.4372597
-4.481478	soon	-0.3174367
-4.305387	sorry	-0.4270194
-4.782507	sort	-0.316378
-4.782507	sounds	-0.3190666
-4.083539	southwest	-0.3305012
-4.782507	spend	-0.3187583
-2.678705	st.	-2.1063
-3.578388	stand	-1.228467
-4.305387	stands	-0.4085037
-4.481478	stapleton	-0.3178106
-4.782507	start	-0.2916995
-4.083539	starting	-0.336377
-4.782507	staying	-0.3186005
-4.782507	still	-0.318873
-2.814025	stop	-1.422515
-3.004357	stopover	-1.751108
-4.083539	stopovers	-0.4331986
-3.440086	stopping	-1.290473
-3.351145	stops	-0.6916506
-4.782507	straight	-0.3189662
-4.782507	such	-0.3126121
-4.782507	summer	-0.2819901
-2.725604	sunday	-0.697975
-4.481478	sunday's	-0.4850182
-4.305387	sundays	-0.3733882
-4.782507	supper	-0.3189519
-4.481478	sure	-0.3122919
-4.782507	symbols	-0.3189734
-3.180449	tacoma	-0.7842646
-3.402297	take	-0.4819588
-4.481478	takeoff	-0.2856818
-4.004357	takeoffs	-1.075796
-4.782507	takes	-0.3038765
-4.481478	taking	-0.3188228
-3.083539	tampa	-1.083433
-4.305387	taxi	-0.291669
-2.85309	tell	-1.925381
-4.305387	ten	-0.4104359
-4.305387	tennessee	-0.240421
-3.703327	tenth	-0.8747412
-4.305387	texas	-0.3605719
-3.083539	than	-0.699538
-3.828266	thank	-0.9984134
-4.782507	thanks	-0.3134405
-2.221407	that	-1.023919
-4.782507	that's	-0.3187152
-1.463194	the	-1.26109
-4.083539	their	-0.4565481
-4.782507	them	-0.3190737
-3.606417	then	-0.5704684
-2.422673	there	-1.097192
-4.782507	thereafter	-0.318916
-4.083539	these	-0.999778
-4.481478	they	-0.3147019
-4.782507	thing	-0.3129248
-3.335351	third	-0.5907125
-4.481478	thirteenth	-0.2819199
-3.63638	thirtieth	-0.7723333
-3.879418	thirty	-0.9525049
-3.481478	this	-0.3194635
-4.180449	those	-0.3446601
-4.305387	three	-0.2804811
-4.083539	thrift	-0.4430003
-3.55206	through	-0.8981898
-2.624146	thursday	-0.8298398
-4.305387	thursdays	-0.3733882
-3.092312	ticket	-0.6963942
-3.703327	tickets	-0.8330714
-3.159259	time	-0.3679688
-3.384568	times	-0.502668
-1.149444	to	-1.879459
-3.578388	today	-0.9281809
-2.943659	tomorrow	-0.9623534
-4.782507	tonight	-0.2916995
-4.481478	too	-0.2817559
-2.823467	toronto	-0.9724331
-4.180449	total	-0.4009106
-4.782507	toward	-0.3113957
-4.481478	tower	-0.5021664
-4.782507	town	-0.2819901
-4.481478	train	-0.4708596
-4.782507	trans	-0.3190809
-4.481478	transcontinental	-0.4943168
-3.741116	transport	-0.4212632
-2.462362	transportation	-0.9460067
-3.159259	travel	-1.117751
-3.879418	traveling	-0.626298
-4.782507	travels	-0.2916995
-2.444052	trip	-1.041814
-4.305387	trips	-0.3830975
-4.782507	try	-0.3188515
-4.004357	trying	-1.049513
-2.64897	tuesday	-0.6330056
-4.180449	tuesdays	-0.3336553
-4.305387	turboprop	-0.3760746
-3.066505	twa	-0.7256764
-3.741116	twelfth	-1.010268
-4.782507	twelve	-0.2819901
-3.503755	twentieth	-0.7673696
-2.703327	twenty	-1.266696
-3.527236	two	-0.6396989
-3.119751	type	-1.9778
-3.63638	types	-1.156851
-3.527236	ua	-0.4870895
-3.741116	under	-0.8813195
-2.642629	united	-1.041439
-4.481478	up	-0.2900401
-2.838026	us	-1.086
-4.782507	usa	-0.3184642
-3.93741	use	-0.3616062
-3.277359	used	-0.7155176
-3.93741	uses	-0.8014943
-3.55206	using	-0.3843986
-4.481478	utah	-0.2763338
-4.481478	various	-0.318916
-2.737185	vegas	-1.218431
-4.481478	very	-0.3187368
-3.527236	via	-0.5733026
-4.782507	vicinity	-0.316378
-4.782507	visit	-0.309971
-2.586609	want	-1.440187
-4.782507	wanted	-0.2871574
-4.782507	wants	-0.2871574
-2.251029	washington	-1.165952
-2.597817	way	-0.9911219
-4.305387	we're	-0.41002
-2.426483	wednesday	-0.8782043
-4.782507	wednesday's	-0.301316
-3.63638	wednesdays	-1.056503
-3.527236	week	-0.6185989
-3.828266	weekday	-0.5582982
-4.180449	weekdays	-0.3465136
-4.305387	well	-0.3185359
-4.305387	west	-0.3948816
-3.55206	westchester	-1.24262
-1.683865	what	-1.569663
-4.083539	what're	-0.6646864
-2.874023	what's	-1.359031
-3.828266	when	-0.330689
-3.668565	where	-0.6656477
-4.782507	whether	-0.3190164
-2.541959	which	-0.9223487
-4.782507	while	-0.3187439
-4.481478	who	-0.3180908
-3.503755	will	-0.4148072
-4.305387	wish	-0.3785554
-2.515337	with	-0.9150581
-4.481478	within	-0.2987628
-4.481478	without	-0.3177028
-4.782507	working	-0.3082699
-4.782507	world	-0.3184498
-2.833118	worth	-0.6611513
-2.344758	would	-1.655325
-3.828266	y	-0.6519223
-4.782507	year	-0.3189447
-3.93741	yes	-0.3283057
-3.93741	yn	-0.43311
-2.612247	york	-1.404145
-4.481478	york's	-0.3184283
-2.438116	you	-1.24778
-3.578388	your	-0.5672227
-4.782507	yyz	-0.2819901
-4.782507	zone	-0.3143325

\2-grams:
-0.1638041	/ dl
-0.2836929	0900 </s>
-1.061844	1 </s>
-1.061844	1 in
-0.1760913	1 o'clock	-0.2192086
-1.128791	10 in
-0.1045302	10 o'clock	-0.005328827
-0.1638041	100 </s>
-0.01639042	1000 dollars	-0.09887969
-0.2836929	1017 in
-0.2836929	1020pm </s>
-0.2836929	1024 in
-0.2836929	1026 </s>
-0.2836929	1030am and
-0.5847229	1039 from
-0.5847229	1039 on
-0.2836929	1045am </s>
-0.2836929	1055 /
-0.2836929	1059 </s>
-0.2836929	106 from
-0.2836929	1083 from
-0.3716111	10am </s>
-0.6478175	10am and	-0.5592507
-1.885753	10am any
-1.885753	10am boston
-1.885753	10am first
-1.464834	10am in	-0.3267003
-1.885753	10am local
-1.004902	10am on	-0.08396093
-1.33862	10am what	-0.5904875
-0.05115252	10pm </s>
-1.237935	10pm on
-0.2836929	11 o'clock
-0.03758346	1100 dollars	-0.3416478
-0.2836929	110pm on
-0.1638041	1110 in	-0.3267003
-0.09691001	1115am and	-0.6967457
-0.2836929	1130am </s>
-0.2836929	1133am and
-0.1638041	1145am </s>
-0.2836929	1158pm what
-0.3386204	11am </s>
-0.8857529	11am on
-0.1638041	11pm </s>
-0.5797836	12 and	-0.5082806
-0.3493347	12 noon	0.07735923
-0.5797836	12 o'clock	-0.2646861
-0.2836929	1200 hours
-0.2836929	1205 in
-0.2836929	1209 </s>
-0.2836929	1220pm and
-0.1638041	1222 from	-0.4718127
-0.2836929	1230pm </s>
-0.2836929	124 dollars
-0.09691001	1245pm </s>
-0.2836929	1288 </s>
-0.3398954	1291 from
-0.7608142	1291 round
-0.4771213	12pm </s>
-0.3386135	12pm less	0.7569619
-1.362874	12pm on
-1.362874	12pm to
-0.2836929	130 in
-0.2836929	1300 hours
-0.2836929	137338 </s>
-0.2836929	139 </s>
-0.2836929	150 dollars
-0.2836929	1500 dollars
-0.2836929	1505 from
-0.2836929	1600 hours
-0.2836929	163 </s>
-0.5847229	1700 hours
-0.5847229	1700 on
-0.1638041	1765 from	-0.4045493
-0.2836929	1850 and
-0.2836929	19 from
-0.2836929	1940 </s>
-0.09691001	1991 </s>
-1.584723	1991 carries
-1.163804	1991 from
-1.584723	1991 i'd
-0.8857529	1992 </s>
-0.3386204	1992 from	-0.1492768
-0.2836929	1993 </s>
-0.1045302	1pm </s>
-1.128791	1pm leaving
-1.128791	2 </s>
-1.128791	2 first
-0.7078722	2 in	-0.3267003
-0.5816584	2 o'clock
-0.2836929	200 dollars
-0.5847229	201 </s>
-0.5847229	201 from
-0.2136816	21 </s>
-0.2836929	210 </s>
-0.09691001	2100 </s>
-0.2836929	210pm </s>
-0.2836929	212 from
-0.1638041	2134 </s>
-0.2836929	2153 from
-0.2836929	217 from
-0.2836929	225pm arriving
-0.2836929	229 from
-0.2836929	230 on
-0.2136816	230pm </s>
-0.2836929	257 </s>
-0.5847229	269 leaving
-0.5847229	269 please
-0.2136816	270 from	-0.5529546
-0.2836929	271 from
-0.2836929	279 or
-0.03758346	281 from	-0.772526
-0.7608142	296 denver
-0.7608142	296 from
-0.7608142	296 serves
-0.2836929	297 from
-0.1091445	2pm </s>
-1.538965	2pm and
-1.538965	2pm from
-1.538965	2pm next
-1.538965	2pm on
-1.237935	3 and
-0.8170167	3 in	-0.3267003
-0.3521825	3 o'clock	-0.00782536
-0.8170167	3 stops	-0.4465688
-0.2836929	300 dollars
-0.2836929	305 in
-0.2836929	311 </s>
-0.2836929	315 </s>
-0.2836929	323 /
-0.2836929	324 on
-0.2836929	324pm </s>
-0.2836929	329 dollars
-0.2836929	3357 from
-0.1638041	343 from	-0.4045493
-0.2836929	345 from
-0.2836929	352 from
-0.1638041	3724 baltimore	-0.2797173
-0.3570843	3pm </s>
-0.8170167	3pm between
-1.237935	3pm from
-1.237935	3pm on
-0.6283889	4 and	-0.3000115
-0.3273589	4 in	-0.8038216
-0.6332908	4 o'clock
-0.2836929	400 dollars
-0.2836929	402 from
-0.2836929	405 </s>
-0.7608142	415 and
-0.7608142	415 dollars
-0.7608142	415 from
-0.2836929	416 dollars
-0.2836929	417 from
-0.2836929	420 what
-0.2836929	428 what
-0.2836929	430 and
-0.3386204	430pm </s>
-0.8857529	430pm and
-0.2836929	43pm </s>
-0.2836929	4400 from
-0.2836929	445 and
-0.2836929	459 depart
-0.1377816	466 dollars	0.1583882
-0.2836929	497766 from
-0.2082759	4pm </s>
-1.184993	4pm and
-0.7250611	4pm on	-0.06082267
-1.605912	4pm or
-1.730851	5 </s>
-1.309932	5 and
-1.183718	5 in	-0.4516391
-0.1047354	5 o'clock	-0.00267601
-0.2836929	500 dollars
-0.5847229	505 from
-0.5847229	505 or
-0.2836929	515pm </s>
-0.5847229	530 </s>
-0.5847229	530 and
-0.2136816	530pm </s>
-0.2836929	539 </s>
-0.3398954	555 </s>
-0.7608142	555 what
-0.1802078	5pm </s>
-2.007969	5pm and
-2.007969	5pm but
-2.007969	5pm can
-2.007969	5pm it
-2.007969	5pm next
-2.007969	5pm nonstop
-0.7700334	5pm on	-0.3968318
-2.007969	5pm or
-1.58705	5pm the	-0.46765
-1.584723	6 </s>
-1.584723	6 and
-1.584723	6 in
-0.07058107	6 o'clock	-0.1248435
-0.2836929	615pm </s>
-0.2836929	630 </s>
-0.3398954	630am </s>
-0.7608142	630am flight
-0.1638041	630pm </s>
-0.2836929	645am going
-0.2836929	650 </s>
-0.1995724	6pm </s>
-0.9826254	6pm and
-1.863477	6pm between
-1.863477	6pm next
-0.8724671	6pm on	-0.3275816
-0.7779531	7 in	-0.4516391
-0.1383027	7 o'clock	-0.3129292
-0.2836929	705 to
-0.2836929	71 from
-0.4648341	718am </s>
-0.8857529	718am american
-0.8857529	718am flight
-0.1638041	720am </s>
-0.2836929	723pm </s>
-0.5847229	727 from
-0.5847229	727 i
-0.5847229	72s </s>
-0.5847229	72s airplane
-0.2836929	730pm </s>
-0.2836929	733 </s>
-0.2836929	734 </s>
-0.3398954	737 </s>
-0.7608142	737 hold
-0.2836929	73s </s>
-0.2836929	746 cost
-0.9826629	747 from
-0.9826629	747 leaving
-0.9826629	747 on
-0.5617442	747 that	-0.4723224
-0.2836929	755 flight
-0.2836929	755am flight
-0.1638041	757 arriving
-0.1638041	767 </s>
-0.2836929	771 pittsburgh
-0.3386204	7am </s>
-0.8857529	7am on
-0.2609128	7pm </s>
-1.775055	7pm and
-0.8893017	7pm from
-1.775055	7pm in
-0.7507939	7pm next	-0.009759843
-1.354136	7pm please	-0.3976551
-0.9406804	8 </s>
-1.066894	8 in	-0.3267003
-0.1627273	8 o'clock	0.191155
-0.2836929	810pm leaving
-0.2136816	813 from	-0.529488
-0.2836929	815am </s>
-0.2836929	819 flight
-0.2836929	82 and
-0.2836929	823 in
-0.8857529	825 flying
-0.4648341	825 from	-0.4385219
-0.8857529	825 leaving
-0.7608142	838 </s>
-0.7608142	838 and
-0.7608142	838 make
-0.5847229	838am and
-0.5847229	838am which
-0.1638041	845 in	-0.3267003
-0.5847229	852 </s>
-0.5847229	852 from
-0.4687748	8am </s>
-1.459784	8am flight
-1.038865	8am from
-1.459784	8am is
-0.9126517	8am on	-0.5845254
-1.459784	8am tuesday
-0.3467875	8pm </s>
-1.584723	8pm and
-1.584723	8pm before
-1.584723	8pm for
-1.584723	8pm friday
-1.584723	8pm in
-1.163804	8pm monday	-0.4600797
-1.163804	8pm on
-1.584723	8pm tomorrow
-1.584723	8pm wednesday
-1.237935	9 hours
-0.05115252	9 o'clock	-0.05448214
-0.2836929	928 from
-0.1638041	932 dollars	0.02632895
-0.2136816	934pm </s>
-0.2836929	98 </s>
-0.20412	9am </s>
-1.487813	9am during
-1.487813	9am in
-1.066894	9am on
-1.487813	9am tell
-1.487813	9am thursday
-0.1760913	9pm </s>
-1.061844	9pm from
-1.061844	9pm on
-3.97935	<s> 630am
-99	<s> <s>	0.2714531
-2.98834	<s> a	-0.1141543
-3.97935	<s> actually
-3.558431	<s> afternoon
-3.97935	<s> again
-3.432217	<s> airline
-3.97935	<s> airlines
-3.432217	<s> airports	-0.1398995
-1.869582	<s> all	-0.2629241
-3.093597	<s> also	-0.2569412
-3.558431	<s> am	-0.402328
-2.654264	<s> american	0.09531629
-3.558431	<s> an
-2.98834	<s> and	-0.1720027
-3.97935	<s> anything
-1.988087	<s> are	-1.115482
-3.093597	<s> atlanta	-0.08071448
-3.432217	<s> baltimore	-0.4046561
-3.97935	<s> before
-3.97935	<s> between
-3.098499	<s> boston	-0.05030513
-3.97935	<s> bring
-1.838324	<s> can	-0.8365081
-2.741414	<s> cheapest	-0.1407766
-3.558431	<s> chicago	-0.2552725
-3.558431	<s> coach
-3.97935	<s> code
-3.97935	<s> continental
-2.115873	<s> could	0.2138276
-3.97935	<s> daily
-2.955089	<s> dallas	-0.2597707
-3.432217	<s> define	-0.1915739
-3.432217	<s> delta	-0.5149099
-3.432217	<s> denver	-0.3847299
-3.432217	<s> describe
-2.519566	<s> display	0.3187588
-3.97935	<s> dl
-2.072407	<s> do	-0.1415478
-1.889477	<s> does	-0.2817639
-3.558431	<s> earliest	0.2071255
-3.97935	<s> early
-3.558431	<s> eastern
-3.97935	<s> economy
-3.97935	<s> evening
-2.741414	<s> explain	0.04450637
-3.97935	<s> fare
-3.098499	<s> fares	-0.1939571
-1.889477	<s> find	0.06159592
-3.97935	<s> fine
-2.741414	<s> first	-0.04575154
-2.127455	<s> flight	-0.1134625
-1.602235	<s> flights	-0.6590315
-3.558431	<s> fly	0.001587927
-3.558431	<s> flying	0.01579425
-3.97935	<s> for
-3.97935	<s> friday's
-2.264293	<s> from	-0.1254953
-3.97935	<s> get
-1.674467	<s> give	-0.2745403
-3.97935	<s> great
-2.218535	<s> ground	0.5848011
-3.093597	<s> hello	0.03623965
-2.741414	<s> hi	0.1179629
-3.558431	<s> houston	-0.4700561
-1.598747	<s> how	0.01852679
-0.9600579	<s> i	-0.6396781
-1.46777	<s> i'd	0.3307126
-3.97935	<s> i'll
-2.127455	<s> i'm	0.0775013
-2.695657	<s> in	0.1021163
-2.440384	<s> information	-0.3534181
-3.97935	<s> instead
-3.97935	<s> interested
-1.741414	<s> is	-0.302385
-3.97935	<s> july
-3.97935	<s> kindly
-3.97935	<s> last
-3.97935	<s> latest
-3.97935	<s> leave
-3.558431	<s> leaving
-3.558431	<s> let's
-3.97935	<s> like
-1.269145	<s> list	-0.2176304
-3.97935	<s> listing
-3.97935	<s> locate
-2.98834	<s> looking	0.4586378
-3.432217	<s> lowest	-0.4436975
-2.581713	<s> may	-0.9983264
-3.97935	<s> minneapolis
-2.955089	<s> morning	-0.4986933
-3.558431	<s> my
-3.97935	<s> name
-3.97935	<s> names
-3.558431	<s> need
-3.098499	<s> newark	-0.5452371
-3.97935	<s> next
-3.97935	<s> no
-2.98834	<s> nonstop	-0.1821654
-3.97935	<s> northwest
-2.373437	<s> now	0.04359657
-3.093597	<s> oakland	-0.5916165
-3.558431	<s> of
-3.97935	<s> oh
-2.115873	<s> okay	0.06446806
-2.127455	<s> on	-0.1470187
-3.558431	<s> one	0.2579451
-3.97935	<s> only
-2.695657	<s> philadelphia	-0.8502464
-3.432217	<s> phoenix	-0.359022
-2.98834	<s> pittsburgh	-0.6551104
-1.373438	<s> please	-0.5271297
-3.558431	<s> pm	-0.4171233
-3.558431	<s> price	-0.0434657
-3.432217	<s> rental	-0.172266
-3.97935	<s> repeating
-3.558431	<s> requesting	0.2218488
-3.97935	<s> return
-2.333929	<s> round	0.4480189
-3.098499	<s> san	0.08642906
-3.432217	<s> saturday	-0.2031665
-3.97935	<s> sfo
-3.098499	<s> shortest	0.146128
-0.7174762	<s> show	0.269261
-3.97935	<s> sunday
-3.97935	<s> sunday's
-3.558431	<s> sure
-2.280684	<s> tell	0.5031347
-3.093597	<s> thank	0.30103
-3.97935	<s> thanks
-2.955089	<s> the	-0.04383786
-3.97935	<s> then
-3.558431	<s> train	0.02566901
-3.97935	<s> tuesday
-3.432217	<s> united	-0.1864568
-2.98834	<s> us	0.5160443
-3.97935	<s> very
-3.97935	<s> we're
-3.432217	<s> wednesday	-0.1624881
-3.97935	<s> weekday
-3.97935	<s> well
-0.6256189	<s> what	0.1246041
-3.098499	<s> what're	-0.09825331
-1.838324	<s> what's	-0.1272305
-2.98834	<s> when	-0.0259627
-2.695657	<s> where	-0.100792
-1.832334	<s> which	-0.4000942
-3.97935	<s> while
-3.558431	<s> would	-0.4742043
-2.98834	<s> yes	0.007019222
-3.236485	a 100
-3.236485	a 124
-3.236485	a 4
-3.236485	a 727
-2.815567	a 72s
-3.236485	a 733
-3.236485	a 734
-3.236485	a 73s
-2.355634	a 747	0.03010975
-3.236485	a 9
-3.236485	a airline
-2.212225	a boeing	-0.0862087
-2.689353	a breakfast	-0.4940968
-3.236485	a business
-2.245476	a car	-0.1357768
-2.689353	a cheap	-0.3356244
-2.689353	a class	-0.5980788
-2.350733	a coach	-0.5576409
-3.236485	a connecting
-3.236485	a connection
-3.236485	a continental
-3.236485	a d9s
-3.236485	a dallas
-3.236485	a day
-2.355634	a delta	-0.7144822
-2.815567	a dinner
-2.355634	a direct	-0.6791294
-3.236485	a evening
-3.236485	a fare
-1.61037	a first	-0.9369539
-0.3357921	a flight	-0.3384364
-2.815567	a friday	-0.2089725
-3.236485	a j31
-3.236485	a jet
-2.815567	a late
-2.245476	a layover	0.05115253
-3.236485	a limo
-2.350733	a limousine	0.3679768
-1.39649	a list	-1.522334
-1.873611	a listing	0.03218472
-1.461431	a meal	-0.0100227
-3.236485	a minneapolis
-1.952792	a monday	-0.1627273
-2.689353	a morning	-0.5659134
-3.236485	a name
-3.236485	a night
-1.61037	a nonstop	-0.6035866
-1.776701	a one	-0.4690537
-2.212225	a plane	-0.1205739
-3.236485	a red
-2.350733	a rental	-0.3136191
-2.689353	a reservation	0.04351005
-2.245476	a return	-0.7269987
-1.340009	a round	0.2049809
-2.355634	a saturday	-0.1306159
-2.350733	a schedule	0.03778857
-3.236485	a single
-2.815567	a snack	0.02566901
-1.39649	a stop	-0.5143906
-1.204604	a stopover	0.1908145
-1.952792	a sunday	-0.0503051
-3.236485	a taxi
-1.9114	a thursday	-0.040905
-2.049702	a ticket	0.1299109
-3.236485	a to
-3.236485	a transcontinental
-1.873611	a trip	-0.3750967
-1.748672	a tuesday	-0.4301476
-2.815567	a turboprop	-0.2117625
-2.355634	a twa	-0.6956164
-2.212225	a united	-0.1527747
-2.689353	a us	0.1383027
-2.815567	a wednesday	-0.2913571
-2.350733	a weekday	-0.202054
-0.2836929	aa 459
-1.128791	abbreviation co
-1.128791	abbreviation d10
-1.128791	abbreviation dl
-0.7078722	abbreviation for
-1.128791	abbreviation ua
-1.128791	abbreviation us
-0.1638041	abbreviations </s>
-0.2836929	able to
-1.460836	about 12	-0.3444957
-2.007969	about 3
-2.007969	about 4
-1.460836	about 7pm	0.1233849
-1.460836	about 8	-0.09691006
-1.460836	about a	0.04699656
-2.007969	about april
-2.007969	about arrivals
-2.007969	about car
-0.4455223	about flights	-0.1636423
-0.7700334	about ground	0.09108055
-2.007969	about mealtime
-0.9837081	about the	-0.1479766
-2.007969	about twa
-0.5847229	ac </s>
-0.5847229	ac and
-0.2836929	across this
-0.5847229	actually want
-0.5847229	actually what
-0.2836929	advertises having
-2.643528	after 1
-2.643528	after 10
-2.643528	after 1020pm
-2.643528	after 1024
-2.643528	after 1026
-1.757776	after 10am	-0.4586379
-2.643528	after 10pm
-2.643528	after 11
-2.22261	after 11pm	0.02566901
-1.245892	after 12	-0.3366703
-2.643528	after 1200
-2.643528	after 1205
-2.643528	after 1230pm
-1.280654	after 12pm	0.2557241
-2.643528	after 130
-2.643528	after 1300
-2.643528	after 1600
-2.22261	after 1700
-2.22261	after 1pm
-1.757776	after 2	-0.0141701
-1.757776	after 2100	0
-2.22261	after 2134	0.02566901
-1.757776	after 2pm	0.5070844
-2.22261	after 3
-2.643528	after 305
-1.619268	after 3pm	-0.1745782
-2.096396	after 4	-0.1068404
-2.096396	after 430pm	-0.3356244
-1.359836	after 4pm	0.4480138
-1.405593	after 5	0.1047353
-2.643528	after 530
-2.643528	after 530pm
-0.9981077	after 5pm	0.2259653
-1.245892	after 6	0.1249387
-1.104563	after 6pm	0.06597692
-2.096396	after 718am	-0.03948106
-2.643528	after 723pm
-2.22261	after 7am	-0.2106856
-1.456746	after 7pm	0.4581888
-1.762677	after 8	-0.2730013
-2.643528	after 815am
-2.643528	after 823
-2.22261	after 845	0.02566901
-2.096396	after 8am	-0.04152332
-1.280654	after 8pm	0.06220314
-2.096396	after 934pm	-0.1915739
-2.643528	after 9am
-1.762677	after 9pm	0.2730013
-2.643528	after a
-2.643528	after delta
-2.22261	after lunch
-2.643528	after midnight
-1.104563	after noon	0.5779616
-2.643528	after say
-2.643528	after sunday
-1.762677	after tomorrow	-0.152377
-0.3349561	afternoon </s>
-1.007597	afternoon and	-0.6575651
-2.521739	afternoon any
-1.635986	afternoon arriving	0.141538
-2.521739	afternoon first
-1.007597	afternoon flight	-0.006259531
-0.8763183	afternoon flights	0.02314472
-1.158865	afternoon from	-0.1644701
-2.521739	afternoon going
-2.521739	afternoon have
-2.521739	afternoon i
-2.521739	afternoon nonstop
-1.497478	afternoon on	-0.3054855
-2.10082	afternoon or
-2.521739	afternoon please
-2.521739	afternoon show
-2.521739	afternoon tomorrow
-2.521739	afternoon what
-2.10082	afternoon what's	-0.4488951
-0.2836929	afternoons </s>
-0.2836929	afterwards </s>
-0.1760913	again </s>
-1.362874	again i
-1.362874	again on
-1.362874	again qx
-1.362874	again the
-2.223212	air 1039
-2.223212	air 2153
-1.802293	air 269
-2.223212	air 311
-0.8255759	air </s>
-2.223212	air and
-2.223212	air around
-1.802293	air at
-1.802293	air boston
-1.67608	air canada	-0.1091289
-2.223212	air cost
-1.67608	air fare
-1.67608	air fares	0.1660493
-1.802293	air first	-0.0523473
-1.337459	air flight	0.08357978
-0.763428	air flights	0.2220829
-1.802293	air fly	0.001587927
-0.8981265	air from	-0.1322057
-1.67608	air have
-2.223212	air how
-2.223212	air laying
-2.223212	air leaving
-2.223212	air next
-2.223212	air number
-1.802293	air on
-2.223212	air restrictions
-2.223212	air round
-2.223212	air stopping
-2.223212	air taxi
-1.337459	air that	-0.232689
-2.223212	air with
-1.701623	aircraft </s>
-1.701623	aircraft and
-1.575409	aircraft are	-0.2165646
-1.701623	aircraft available
-2.122542	aircraft can
-2.122542	aircraft departing
-1.701623	aircraft do	0.2218488
-1.241691	aircraft does	-0.493971
-2.122542	aircraft flies
-2.122542	aircraft fly
-2.122542	aircraft for
-2.122542	aircraft has
-0.6084002	aircraft is	-0.7896234
-1.575409	aircraft leaves	-0.5510571
-1.575409	aircraft leaving
-2.122542	aircraft number
-2.122542	aircraft of
-0.8846066	aircraft that	-0.1722495
-2.122542	aircraft type
-2.122542	aircraft types
-1.701623	aircraft united	-0.06151804
-1.098281	aircraft used	0.2138798
-1.701623	aircraft will
-2.122542	aircraft you
-1.093223	airfare between
-1.514142	airfare flight
-1.514142	airfare flights
-1.514142	airfare for
-0.2762064	airfare from	-0.2577926
-1.093223	airfare of
-1.514142	airfare round
-0.2836929	airfares between
-1.242074	airline </s>
-1.812164	airline abbreviations	0.02566901
-2.233083	airline and
-2.233083	airline besides
-2.233083	airline can
-1.812164	airline code
-2.233083	airline dl
-2.233083	airline ff
-2.233083	airline flies
-2.233083	airline flight
-0.94939	airline flights	0.1646814
-1.68595	airline fly	0.2568604
-2.233083	airline flying
-1.812164	airline for
-1.352232	airline from
-1.0463	airline has	-0.06159604
-0.94939	airline have	-0.2421849
-2.233083	airline hp
-0.9079973	airline is	0.07601097
-1.812164	airline nw	-0.2117625
-2.233083	airline offer
-1.812164	airline offers
-2.233083	airline on
-2.233083	airline other
-2.233083	airline provides
-2.233083	airline serves
-2.233083	airline stands
-1.352232	airline that
-2.233083	airline ua
-1.812164	airline us	-0.4702989
-2.233083	airline uses
-2.233083	airline with
-0.666271	airlines </s>
-2.909005	airlines a
-1.58392	airlines and	-0.2451144
-2.909005	airlines any
-2.361873	airlines are
-2.488087	airlines arriving
-1.67107	airlines between	-0.2434181
-2.909005	airlines connect
-2.909005	airlines departing
-2.909005	airlines do
-2.023252	airlines first	-0.2741961
-2.488087	airlines flies
-1.210339	airlines flight	0.1833819
-1.06901	airlines flights	0.09887236
-0.9010366	airlines fly	-0.1085502
-2.028154	airlines flying	0.04782349
-2.361873	airlines for	-0.1593376
-0.8618845	airlines from	-0.06764424
-2.909005	airlines give
-2.361873	airlines go	0.364417
-2.488087	airlines going	-0.1693579
-1.227372	airlines have	-0.2370906
-2.361873	airlines in
-1.884745	airlines international	-0.1625062
-2.909005	airlines is
-2.909005	airlines kansas
-2.909005	airlines leave
-1.67107	airlines leaving	-0.06038246
-2.909005	airlines may
-2.909005	airlines offer
-2.028154	airlines on	-0.0894817
-2.488087	airlines out	0.2218488
-2.488087	airlines provide
-2.361873	airlines serve
-2.909005	airlines serves
-2.488087	airlines service
-2.909005	airlines serving
-2.909005	airlines stop
-2.909005	airlines stopping
-1.37004	airlines that	-0.3066572
-2.909005	airlines their
-2.909005	airlines tomorrow
-2.909005	airlines tuesday
-2.023252	airlines uses	-0.02921033
-2.488087	airlines which
-1.449221	airlines with	-0.2109136
-1.237935	airplane </s>
-0.6908029	airplane goes	0.02118927
-0.6908029	airplane is	-0.2192087
-1.237935	airplane it's
-1.237935	airplane types
-0.5847229	airplanes are
-0.5847229	airplanes that
-0.5282738	airport </s>
-0.9262138	airport and	-0.3595763
-1.993108	airport at
-2.414027	airport by
-2.414027	airport can
-2.414027	airport for
-1.528274	airport from	-0.300566
-1.993108	airport have
-0.9262138	airport in	-0.142345
-1.993108	airport into
-1.993108	airport is
-2.414027	airport limousine
-2.414027	airport mco
-1.866894	airport next	-0.5761475
-0.4968653	airport to	-0.3863404
-0.3203351	airports </s>
-1.224502	airports by	-0.4340628
-1.645421	airports does
-0.7645696	airports in	-0.1065447
-1.645421	airports near
-1.224502	airports to	-0.4765646
-1.645421	airports today
-0.1638041	alaska airlines
-2.642371	all afternoon	-0.4151664
-3.063289	all aircraft
-3.063289	all airline
-2.182438	all airlines	-0.2810709
-2.07228	all airports	-0.1209345
-3.063289	all all
-3.063289	all am
-2.182438	all american	0.1903743
-3.063289	all arrivals
-3.063289	all available
-3.063289	all canadian
-2.642371	all cities	-0.4491642
-2.642371	all connecting	-0.3814281
-1.825354	all daily	-0.4503281
-3.063289	all day
-2.642371	all delta	-0.3899711
-2.516157	all direct	-0.3802113
-3.063289	all economy
-3.063289	all fare
-2.177536	all fares
-2.177536	all first	-0.2741961
-3.063289	all flight
-0.239267	all flights	-0.2664486
-3.063289	all ground
-3.063289	all meals
-3.063289	all midwest
-2.642371	all monday	-0.4715148
-2.642371	all nationair	-0.337867
-1.575477	all nonstop	-0.9354931
-2.642371	all nonstops	0.02566901
-2.516157	all northwest	-0.07290976
-2.516157	all of	-0.5571976
-2.516157	all one	0.1330063
-2.516157	all other	-0.4322108
-3.063289	all overnight
-2.642371	all prices	-0.1983677
-1.825354	all right	-0.01565796
-1.603505	all round	1.074903
-3.063289	all takeoffs
-0.7077145	all the	-0.413239
-3.063289	all trans
-2.642371	all tuesday
-3.063289	all twa
-1.876506	all united	-0.06424081
-2.642371	all us	0.2632414
-3.063289	all wednesday
-3.063289	all weekday
-0.5847229	along the
-0.5847229	along with
-1.562447	also arriving
-1.562447	also be
-1.562447	also give
-1.562447	also in
-1.141528	also interested	0.845098
-1.562447	also like
-1.015314	also need	-0.1004963
-1.141528	also on
-1.562447	also serve
-1.015314	also show	0.4239075
-1.562447	also stop
-1.562447	also the
-1.562447	also to
-1.1345	am </s>
-1.681633	am also
-0.8007818	am flights	0.3070459
-0.6906235	am interested	0.4191293
-1.260714	am looking
-0.6573722	am on	-0.230089
-1.681633	am tomorrow
-0.2136816	america west	0.04351005
-1.967009	american </s>
-1.151268	american airline	-0.1964145
-0.1405438	american airlines	-0.1589206
-1.633291	american and	-0.2018957
-2.514142	american doesn't
-1.489881	american flight	0.1639961
-1.327359	american flights	-0.2661561
-1.523132	american from	-0.2115022
-2.514142	american in
-2.514142	american on
-1.967009	american to	-0.5382526
-0.5847229	american's last
-0.5847229	american's schedule
-0.09691001	amount of	-0.2989119
-2.054545	an 819
-0.867762	an afternoon	-0.909321
-2.054545	an aircraft
-1.173694	an airline	-0.1843782
-2.054545	an airport
-1.173694	an american	0.1903743
-2.054545	an atlanta
-0.308454	an early	-0.7417219
-2.054545	an economy
-1.633626	an evening	-0.4452321
-2.054545	an f28
-2.054545	an flight
-2.054545	an inexpensive
-1.633626	an m80	0.02566901
-2.756536	and 1	0
-3.177455	and 10pm
-3.177455	and 1130am
-2.291702	and 1245pm	0
-3.177455	and 2
-1.939519	and 2pm	-0.3467875
-3.177455	and 3
-3.177455	and 3pm
-2.186445	and 4	-0.6268836
-3.177455	and 43pm
-2.756536	and 5	0.1918855
-3.177455	and 515pm
-2.756536	and 530pm	-0.06663519
-2.630322	and 5pm	-0.1330566
-3.177455	and 630pm
-2.756536	and 6pm	-0.0434657
-3.177455	and 730pm
-2.630322	and 7pm	-0.2568264
-2.756536	and 8pm
-2.630322	and a	0.04699656
-3.177455	and afterwards
-2.756536	and all
-3.177455	and also
-3.177455	and arrivals
-1.240549	and arrive	-0.08085191
-2.186445	and arrives	0.02274993
-1.231004	and arriving	-0.2594205
-3.177455	and as
-3.177455	and atl
-1.663313	and atlanta	-0.2539264
-2.153194	and back	0.2142062
-1.462398	and baltimore	-0.3905624
-2.756536	and be
-2.186445	and before
-3.177455	and between
-1.313978	and boston	0.05633092
-2.756536	and bwi	-0.3441916
-3.177455	and can
-3.177455	and canadian
-2.291702	and charlotte	-0.04811993
-3.177455	and chicago
-3.177455	and coach
-2.296604	and connecting	-0.2369605
-3.177455	and cost
-1.717671	and dallas	-0.4273425
-3.177455	and dc
-2.291702	and delta	-0.0185492
-1.270512	and denver	-0.4443316
-2.630322	and depart
-2.756536	and departing
-3.177455	and departure
-2.630322	and dfw	-0.1401678
-1.717671	and downtown	-0.02036959
-3.177455	and earlier
-3.177455	and either
-2.296604	and fare	-0.1400025
-1.638489	and fares	-0.5792685
-3.177455	and first
-2.296604	and flight	-0.1050456
-2.153194	and flights	-0.00977838
-2.291702	and fly	-0.2765792
-3.177455	and fn
-3.177455	and fort
-3.177455	and friday
-1.990672	and from	-0.05908865
-3.177455	and get
-3.177455	and give
-2.291702	and go	-0.2351542
-2.756536	and goes
-2.153194	and going	-0.6119683
-2.756536	and have
-3.177455	and houston
-2.630322	and how	-0.05055638
-1.592732	and i	-0.07761461
-1.747634	and i'd	0.6911798
-3.177455	and i'll
-2.630322	and i'm
-3.177455	and in
-2.756536	and include
-2.756536	and is
-3.177455	and it
-3.177455	and la
-3.177455	and land
-2.756536	and landing
-2.153194	and landings	0.01427749
-3.177455	and lands
-2.186445	and las	1.142233
-2.186445	and leave	-0.1561465
-2.756536	and leaves	-0.4261184
-2.630322	and list
-2.153194	and make	0.09275407
-2.756536	and makes	0.5228788
-3.177455	and memphis
-2.296604	and miami	0.02213444
-3.177455	and midnight
-3.177455	and milwaukee
-2.756536	and new	0.6478175
-2.630322	and newark	-0.1259618
-2.291702	and northwest	0.06648004
-1.571543	and oakland	-0.1967685
-2.756536	and on
-1.939519	and orlando	-0.009651393
-2.291702	and out	0
-1.571543	and philadelphia	-0.1976679
-2.296604	and phoenix	0.03891806
-1.663313	and pittsburgh	-0.005042672
-3.177455	and price
-3.177455	and prices
-3.177455	and qw
-3.177455	and qx
-2.291702	and return	-0.2736313
-1.779818	and returning	0.2223706
-3.177455	and round
-3.177455	and salt
-1.177758	and san	-0.3906922
-2.630322	and serve
-3.177455	and serves
-3.177455	and serving
-3.177455	and show
-2.756536	and st.	-0.2993302
-3.177455	and still
-2.630322	and stop	0.4456042
-3.177455	and stopping
-2.756536	and stops	0
-3.177455	and sunday
-3.177455	and sunday's
-3.177455	and take
-2.756536	and tampa	-0.3579349
-3.177455	and tell
-3.177455	and that
-1.615008	and the	-0.02084847
-2.756536	and their	-0.337867
-1.893762	and then	0.1797255
-3.177455	and this
-1.939519	and thursday	0.05914241
-2.756536	and thursdays	-0.06663519
-3.177455	and time
-2.756536	and times	-0.369158
-3.177455	and to
-3.177455	and toronto
-3.177455	and twa
-3.177455	and twenty
-2.296604	and united	0.04762644
-1.638489	and washington	-0.02545866
-2.756536	and wednesday	-0.2913571
-2.153194	and what	0.01025449
-3.177455	and what's
-3.177455	and with
-0.6087934	angeles </s>
-1.675688	angeles after
-2.096606	angeles arriving
-2.096606	angeles by
-1.675688	angeles departing	-0.4191
-2.096606	angeles destination
-1.675688	angeles in	-0.3267003
-2.096606	angeles international
-2.096606	angeles leaving
-2.096606	angeles morning
-2.096606	angeles next
-1.215755	angeles on	-0.08396093
-1.549474	angeles that
-1.210853	angeles thursday	-0.6677123
-0.5118834	angeles to	-0.4647135
-2.096606	angeles wednesday
-1.675688	angeles which
-2.096606	angeles with
-0.8857529	another </s>
-0.4648341	another city	-0.3462332
-0.8857529	another flight
-2.292293	any 4
-1.10551	any airline	-0.1823203
-1.871374	any airlines	-0.4581902
-2.292293	any airport
-2.292293	any american
-1.40654	any city	-0.01523998
-1.871374	any class
-2.292293	any continental
-1.268032	any day	0.003780186
-1.745161	any direct	-0.3802113
-2.292293	any early
-2.292293	any first
-1.745161	any flight
-0.3553877	any flights	0.03828397
-2.292293	any ground
-2.292293	any later
-2.292293	any limousines
-1.411442	any nonstop	-0.4831954
-1.871374	any of	-0.4322588
-1.411442	any other	-0.07261022
-2.292293	any show
-2.292293	any stopovers
-2.292293	any thrift
-2.292293	any time
-2.292293	any turboprop
-1.871374	any united
-2.292293	any us
-0.2836929	anything from
-0.9826629	anywhere </s>
-0.9826629	anywhere between
-0.5617442	anywhere on	-0.466208
-0.9826629	anywhere to
-0.2836929	ap please
-0.2836929	ap/55 </s>
-0.2594322	ap/57 </s>
-0.7365604	ap/57 mean	1.10551
-1.283693	ap/57 restriction
-0.3398954	ap/80 </s>
-0.7608142	ap/80 mean
-0.4648341	ap57 </s>
-0.8857529	ap57 mean
-0.8857529	ap57 restriction
-0.2836929	ap68 </s>
-0.2136816	ap80 </s>
-0.5847229	approximately 1pm
-0.5847229	approximately 615pm
-1.224502	april eighth
-1.645421	april fifteenth
-1.645421	april fourth
-1.645421	april ninth
-1.645421	april seventeen
-1.224502	april sixteen
-0.7596679	april sixth	0.09691003
-1.224502	april twentieth
-0.4074853	april twenty	0.1091445
-2.520786	are </s>
-2.941704	are ac
-2.941704	are after
-1.48192	are all	0.1422735
-2.941704	are any
-0.7771978	are available	0.0852173
-2.060853	are between	-0.06732683
-2.520786	are connecting	-0.3814281
-2.941704	are currently
-2.941704	are economy
-2.941704	are fare
-2.055951	are first	-0.2741961
-2.394572	are flights	0.1943416
-2.520786	are from
-2.941704	are i
-2.941704	are later
-2.394572	are less	0.9999999
-2.060853	are my	-0.105144
-2.060853	are nonstop	-0.2911131
-2.941704	are of
-2.941704	are offered
-2.520786	are on
-2.394572	are provided	0.07783794
-2.941704	are represented
-1.950695	are served	-0.5785789
-2.520786	are serviced	0.02566901
-0.4075914	are the	-0.2150932
-0.5824645	are there	-0.534147
-2.941704	are they
-2.941704	are use
-1.917444	are used	-0.3686725
-2.394572	are your	-0.478743
-0.09691001	area </s>
-0.5847229	arizona i
-0.5847229	arizona on
-2.076085	around 10
-1.190332	around 10pm	0.2552725
-2.076085	around 11am
-2.076085	around 12
-1.528952	around 1pm	0.06769967
-2.076085	around 2
-1.528952	around 230pm	-0.1915739
-2.076085	around 2pm
-2.076085	around 3
-2.076085	around 3pm
-1.195233	around 5	0.2833884
-1.528952	around 5pm	0.2471546
-2.076085	around 630pm
-1.190332	around 6pm	-0.09839643
-0.8893017	around 7	0.2757875
-0.8893017	around 7pm	0.1227429
-2.076085	around 8
-2.076085	around 8am
-2.076085	around 8pm
-2.076085	around 9
-1.655166	around 9am
-2.076085	around dinnertime
-1.655166	around midnight
-1.195233	around noon	-0.06256306
-1.655166	around noontime
-0.1809931	arrange a	-0.09913146
-1.061844	arrange for
-0.02632894	arrangements for	-1.149375
-1.514142	arrangements from
-0.9826629	arrival by
-0.9826629	arrival for
-0.9826629	arrival in
-0.5617442	arrival time	-0.4577287
-0.9826629	arrivals for
-0.9826629	arrivals from
-0.4355304	arrivals in	-0.5698754
-2.432912	arrive 10pm
-1.107826	arrive after	-0.03373972
-2.432912	arrive and
-1.547159	arrive around	-0.1171643
-0.9450991	arrive at	-0.1038695
-0.7690079	arrive before	-0.07613528
-1.88578	arrive between
-2.011993	arrive by
-2.432912	arrive close
-2.432912	arrive dallas
-2.432912	arrive early
-0.3296752	arrive in	-0.1671673
-2.432912	arrive near
-2.432912	arrive next
-1.441903	arrive on	-0.2715034
-2.432912	arrive soon
-1.309932	arrives around
-1.730851	arrives as
-1.309932	arrives at
-1.183718	arrives before
-1.730851	arrives between
-1.730851	arrives close
-1.309932	arrives earliest	-0.4729936
-0.243038	arrives in	0.0949228
-2.566994	arriving </s>
-2.566994	arriving about
-1.20412	arriving after	-0.2667685
-2.566994	arriving also
-2.146075	arriving and	-0.4763598
-1.329059	arriving around	-0.2004655
-0.9822713	arriving at	-0.1752258
-2.566994	arriving atlanta
-2.566994	arriving baltimore
-1.169358	arriving before	-0.09957301
-1.542733	arriving between	-0.2045734
-2.146075	arriving boston
-2.019862	arriving by	-0.2068411
-2.566994	arriving cleveland
-2.146075	arriving denver
-2.566994	arriving flights
-2.566994	arriving i'd
-0.3148183	arriving in	0.1757455
-2.566994	arriving july
-1.681241	arriving may	-0.2082759
-2.146075	arriving near
-1.329059	arriving on	-0.2200098
-2.146075	arriving philadelphia
-2.566994	arriving pittsburgh
-2.019862	arriving to	-0.5707299
-0.7781513	as </s>
-1.663904	as a
-1.663904	as boston
-1.663904	as business
-0.6396434	as early	-0.4057624
-1.663904	as i
-0.6728948	as possible	0.03778857
-1.663904	as san
-1.663904	as soon
-1.663904	as well
-2.493208	at 10am
-2.493208	at 110pm
-2.072289	at 1110	0.02566901
-2.493208	at 11am
-2.493208	at 12
-2.493208	at 1220pm
-2.493208	at 1505
-2.493208	at 1940
-2.493208	at 210pm
-2.493208	at 225pm
-2.493208	at 230
-2.493208	at 324pm
-2.493208	at 329
-2.493208	at 420
-2.493208	at 428
-2.493208	at 4pm
-1.946075	at 5	0.447158
-1.946075	at 555	0.04351005
-1.502199	at 5pm	-0.008117884
-2.072289	at 6	0.3467875
-2.493208	at 630
-2.493208	at 645am
-2.493208	at 650
-2.493208	at 7
-2.493208	at 705
-2.072289	at 720am	0.02566901
-1.612357	at 7pm	0.08898321
-2.072289	at 838
-2.072289	at 838am
-2.493208	at 8am
-2.493208	at 8pm
-2.493208	at 9
-1.946075	at 9am	0.20412
-2.493208	at a
-1.468947	at about	-0.1906986
-2.072289	at another	-0.2947536
-2.493208	at approximately
-1.607455	at around	-0.241032
-2.493208	at atlanta
-1.607455	at baltimore
-1.946075	at boston	-0.2177477
-1.607455	at chicago	-0.2833012
-1.612357	at dallas	-0.06197634
-1.468947	at denver	-0.2025236
-2.493208	at economy
-0.9542425	at general	0.1983676
-1.946075	at least
-2.072289	at logan	-0.3451633
-1.612357	at love	0.7132105
-2.493208	at milwaukee
-2.072289	at new	0.6478175
-2.493208	at night
-1.607455	at noon	-0.0875768
-2.493208	at noontime
-1.946075	at one	-0.5913922
-2.493208	at orlando
-1.946075	at philadelphia
-2.493208	at phoenix
-1.502199	at pittsburgh	-0.07138623
-2.493208	at salt
-2.072289	at san	0.3874591
-2.493208	at stapleton
-2.493208	at tampa
-1.130334	at the	-0.3798928
-2.493208	at toronto
-0.5847229	atl </s>
-0.5847229	atl to
-0.5677412	atlanta </s>
-1.923129	atlanta after	-0.2726218
-3.161064	atlanta again
-1.974281	atlanta airport	0.2034771
-1.243903	atlanta and	-0.1277239
-2.740145	atlanta around
-3.161064	atlanta arrives
-2.613932	atlanta arriving	0.06581727
-3.161064	atlanta at
-2.613932	atlanta august	-0.2033654
-3.161064	atlanta back
-3.161064	atlanta baltimore
-1.877371	atlanta before	0.06935288
-3.161064	atlanta beginning
-3.161064	atlanta between
-3.161064	atlanta bound
-3.161064	atlanta by
-3.161064	atlanta can
-3.161064	atlanta coach
-3.161064	atlanta could
-3.161064	atlanta denver
-3.161064	atlanta early
-3.161064	atlanta evening
-3.161064	atlanta find
-3.161064	atlanta flight
-3.161064	atlanta flights
-2.280213	atlanta for	-0.1010492
-2.136804	atlanta from	-0.1160248
-2.275311	atlanta georgia	-0.03459433
-3.161064	atlanta ground
-3.161064	atlanta have
-3.161064	atlanta heading
-2.275311	atlanta i	-0.1073984
-1.763428	atlanta in	-0.5485491
-3.161064	atlanta later
-3.161064	atlanta least
-3.161064	atlanta leave
-1.974281	atlanta leaving	-0.09734009
-2.613932	atlanta next	-0.5268091
-1.113943	atlanta on	-0.1980881
-2.740145	atlanta one	0.2579451
-2.613932	atlanta please	-0.1423826
-3.161064	atlanta return
-3.161064	atlanta returning
-2.740145	atlanta round	1.351109
-2.740145	atlanta so	-0.2106856
-2.740145	atlanta sometime	-0.2786388
-1.763428	atlanta that	-0.1454267
-2.740145	atlanta the
-3.161064	atlanta then
-2.740145	atlanta this	-0.4353465
-0.4002501	atlanta to	-0.872568
-3.161064	atlanta traveling
-3.161064	atlanta wednesday
-3.161064	atlanta what
-2.280213	atlanta which	-0.0417815
-3.161064	atlanta will
-2.170055	atlanta with	-0.04669547
-0.1638041	atlanta's airport	-0.3245111
-2.265964	august </s>
-2.265964	august eighteenth
-1.718832	august eighth	0
-2.265964	august eleventh
-2.265964	august fifteenth
-2.265964	august fifth
-1.380211	august first	-0.6373739
-2.265964	august fourth
-1.845045	august nineteenth
-2.265964	august ninth
-2.265964	august one
-0.9822713	august second	-0.05786079
-2.265964	august seven
-2.265964	august seventeenth
-1.380211	august seventh	-0.1256869
-1.718832	august sixth	0.1760913
-1.241703	august tenth	0.1760913
-1.718832	august the	-0.5906694
-1.274955	august third	-0.1091445
-1.274955	august thirtieth	0.3231708
-1.718832	august thirty	0.3521825
-1.845045	august twelfth	0.2632414
-2.265964	august twelve
-1.028029	august twentieth	-0.05570015
-0.6398485	august twenty	-0.5282738
-1.201852	available </s>
-2.143807	available after
-2.564726	available around
-1.239641	available at	-0.1309291
-1.201852	available between	0.02179459
-2.564726	available coach
-1.683875	available flights	0.04821357
-2.564726	available flying
-2.143807	available for
-1.683875	available friday	-0.4912371
-0.4485244	available from	-0.3814698
-2.017594	available ground	0.4890205
-0.6375807	available in	0.1673836
-2.564726	available into
-2.143807	available leaving
-2.564726	available meals
-2.564726	available monday
-2.564726	available next
-1.683875	available on
-2.143807	available saturday	-0.4708053
-2.564726	available sunday
-2.564726	available thursday
-2.143807	available to	-0.4606375
-2.143807	available tomorrow
-2.564726	available tuesday
-2.017594	available wednesday	-0.2042794
-2.564726	available with
-0.5847229	b </s>
-0.5847229	b the
-1.066894	back </s>
-1.066894	back from
-1.066894	back in	-0.3267003
-0.20412	back to	-0.05303549
-0.5391607	baltimore </s>
-3.073274	baltimore a
-1.886491	baltimore after	-0.08295775
-2.652355	baltimore airport	-0.3245111
-1.643453	baltimore and	-0.09933666
-2.652355	baltimore around
-1.585461	baltimore arriving	-0.1665488
-2.652355	baltimore at
-3.073274	baltimore august
-2.192423	baltimore before	-0.139566
-1.789581	baltimore between	-0.7621329
-3.073274	baltimore bound
-3.073274	baltimore carries
-3.073274	baltimore coach
-2.526141	baltimore denver	-0.1960415
-3.073274	baltimore early
-2.652355	baltimore first	-0.0523473
-2.049013	baltimore for	-0.1993154
-1.643453	baltimore from	-0.1580562
-3.073274	baltimore has
-1.886491	baltimore in	-0.3724577
-3.073274	baltimore is
-3.073274	baltimore july
-1.886491	baltimore leaving	-0.1421313
-3.073274	baltimore making
-3.073274	baltimore monday
-2.652355	baltimore nonstop
-3.073274	baltimore oakland
-1.018729	baltimore on	-0.2309693
-2.082264	baltimore or	-0.3627703
-2.187521	baltimore please
-3.073274	baltimore scheduled
-3.073274	baltimore starting
-1.835338	baltimore that	-0.1050761
-3.073274	baltimore thursday
-0.4373982	baltimore to	-0.86829
-2.652355	baltimore tomorrow
-3.073274	baltimore using
-3.073274	baltimore via
-2.192423	baltimore washington	-0.1166859
-2.652355	baltimore what	-0.4729487
-2.652355	baltimore which
-2.187521	baltimore with	-0.1144848
-0.2836929	bay area
-1.663904	be a
-1.663904	be able
-1.663904	be american
-1.663904	be cost
-1.242985	be flying
-0.7781513	be in
-1.242985	be nonstop	-0.3855308
-1.116772	be on
-1.663904	be serving
-1.663904	be staying
-1.116772	be the	-0.5587477
-1.663904	be there
-1.663904	be traveling
-1.242985	be used	-0.1760913
-0.9710435	beach </s>
-1.851895	beach after
-1.430976	beach airport	-0.3105753
-1.851895	beach arriving
-0.9710435	beach california	-0.07565857
-1.851895	beach late
-1.430976	beach on
-0.2894481	beach to	-0.5264342
-1.851895	beach two
-2.541372	before 0900
-2.120453	before 1
-1.655619	before 10	0.3687297
-2.541372	before 1045am
-0.8597386	before 10am	-0.03700393
-2.120453	before 10pm	0.4771213
-2.120453	before 1145am	0.02566901
-2.541372	before 11am
-1.303436	before 12	-0.2019718
-2.541372	before 1pm
-2.541372	before 2pm
-2.541372	before 3
-2.541372	before 3pm
-1.303436	before 4pm	-0.02505046
-1.655619	before 5	-0.02996325
-1.354589	before 5pm	0.0710634
-2.120453	before 6
-2.120453	before 630am	-0.2117625
-1.354589	before 6pm	-0.08922315
-2.120453	before 7	0.08715019
-2.120453	before 7am
-1.655619	before 7pm	-0.3537364
-1.517111	before 8	0.4731193
-1.354589	before 8am	0.0584285
-2.120453	before 8pm
-2.120453	before 9	0.4771213
-1.257679	before 9am	0.1707118
-2.541372	before arriving
-2.541372	before evening
-2.541372	before midnight
-0.5018037	before noon	0.06891084
-2.541372	before or
-0.2836929	beginning on
-0.2836929	begins in
-0.2836929	being served
-0.2836929	belong to
-0.2836929	besides continental
-2.838787	between 1
-2.838787	between 1030am
-1.600852	between 10am	-0.8893017
-1.953034	between 1115am	0
-2.838787	between 1133am
-1.555094	between 12	-0.9087671
-2.838787	between 1850
-2.838787	between 2pm
-2.838787	between 3
-1.953034	between 4	-0.5824645
-2.838787	between 415
-2.838787	between 430
-2.838787	between 430pm
-2.838787	between 445
-2.417869	between 5	-0.4553084
-2.838787	between 530
-2.838787	between 5pm
-2.838787	between 6
-2.417869	between 6pm	-0.4293897
-2.838787	between </s>
-1.847778	between airport	-0.8483032
-2.838787	between all
-1.212672	between atlanta	-1.336226
-1.814527	between baltimore	-0.8351138
-0.5683227	between boston	-1.942465
-2.417869	between charlotte	-0.4710623
-2.838787	between cincinnati
-1.379003	between dallas	-0.867117
-1.107936	between denver	-1.436591
-2.417869	between dfw	-0.3954403
-2.417869	between fare	-0.3694341
-2.417869	between houston	-0.456428
-1.953034	between indianapolis	-0.6688029
-2.417869	between logan	-0.3824086
-2.417869	between memphis
-1.814527	between milwaukee	-0.815643
-2.838787	between nashville
-1.600852	between new	0.1249387
-2.838787	between newark
-2.417869	between noon	-0.41857
-2.838787	between oak
-1.408966	between oakland	-1.140581
-2.417869	between orlando	-0.4703762
-1.324646	between philadelphia	-1.236371
-2.291655	between phoenix	-0.5839618
-1.193367	between pittsburgh	-0.8953607
-1.379003	between san	0.1112527
-2.417869	between st.	-0.2620059
-2.417869	between tampa	-0.4650413
-1.847778	between the	-0.255681
-2.838787	between those
-2.291655	between toronto	-0.5825379
-1.475913	between washington	-0.6124722
-0.2836929	bna </s>
-0.5816584	boeing 737	0.04351005
-0.7078722	boeing 757	0.02566901
-0.7078722	boeing 767	0.02566901
-0.1484198	book a	-0.7164314
-0.9826254	book an	-0.07424602
-1.863477	book for
-1.863477	book on
-0.9777236	book the	-0.6556577
-0.5147116	booking an	-0.3083293
-0.6409254	booking class
-1.061844	booking classes
-0.7863924	boston </s>
-2.072699	boston after	-0.04420837
-3.310635	boston afternoon
-2.026942	boston airport	0.04635367
-0.9738632	boston and	-0.4222691
-3.310635	boston approximately
-3.310635	boston arrive
-2.763502	boston arriving	0.06581727
-2.889716	boston as	-0.3640208
-2.026942	boston at	-0.04461201
-3.310635	boston baltimore
-2.763502	boston before	-0.05759186
-2.763502	boston between	-0.2156385
-3.310635	boston both
-3.310635	boston by
-3.310635	boston dc
-3.310635	boston denver
-3.310635	boston departing
-2.889716	boston departure
-2.889716	boston downtown	-0.2466723
-3.310635	boston flight
-2.763502	boston flights
-2.026942	boston for	-0.09400152
-2.424882	boston from
-3.310635	boston goes
-2.286374	boston going	-0.6119683
-2.889716	boston ground	0.6139593
-3.310635	boston heading
-2.889716	boston i
-2.889716	boston i'd	1.39015
-2.429783	boston in	-0.6277303
-2.889716	boston is
-3.310635	boston july
-2.026942	boston leaving	-0.1266955
-3.310635	boston logan
-3.310635	boston making
-2.889716	boston monday	-0.2248752
-2.889716	boston nonstop
-1.227601	boston on	-0.2568432
-2.889716	boston one	0.2579451
-2.429783	boston philadelphia	-0.771441
-3.310635	boston pittsburgh
-2.763502	boston please
-2.889716	boston saturday	-0.2397603
-3.310635	boston stop
-1.912998	boston that	-0.1315383
-3.310635	boston the
-3.310635	boston this
-0.2850026	boston to	-0.8773749
-2.889716	boston today	0.1249388
-2.889716	boston tomorrow	-0.2615215
-2.286374	boston using	-0.03756743
-3.310635	boston via
-3.310635	boston which
-1.985549	boston with	-0.1928235
-3.310635	boston within
-1.128791	both american
-1.128791	both by
-0.243038	both direct	-0.6241767
-1.128791	both one
-0.5847229	bound for
-0.5847229	bound to
-0.19382	breakfast </s>
-0.6573722	breakfast flight	-0.1943685
-1.1345	breakfast served	-0.1893082
-0.2836929	bring up
-0.2836929	bur </s>
-1.242985	burbank </s>
-1.663904	burbank after
-1.663904	burbank also
-1.663904	burbank arriving
-1.663904	burbank leaving
-0.6728948	burbank on	-0.4574585
-1.663904	burbank sunday
-1.663904	burbank the
-0.4771213	burbank to	-0.4049495
-1.663904	burbank tomorrow
-0.0211893	business class	-0.04525861
-0.6396503	but i	-0.1173327
-0.7658641	but i'd	1.39015
-1.186783	but return
-1.186783	but stopover
-1.186783	but stopping
-0.1638041	buy a	-0.4751803
-0.5789331	bwi </s>
-1.459784	bwi flight
-0.9126517	bwi that	-0.5724375
-0.5789331	bwi to
-1.459784	bwi washington
-2.016087	by 10am
-2.016087	by 4pm
-2.016087	by 5pm
-1.468954	by 6pm	-0.1684045
-2.016087	by 8
-1.595168	by 8pm
-1.595168	by 9	0.4771213
-2.016087	by 9pm
-0.991826	by american	0.1323824
-2.016087	by both
-1.595168	by canadian	0.5642715
-2.016087	by continental
-1.025077	by delta	-0.4691524
-2.016087	by dinnertime
-2.016087	by eastern
-2.016087	by ground
-2.016087	by limousine
-2.016087	by lufthansa
-2.016087	by midway
-1.595168	by nationair
-1.468954	by noon	-0.1365206
-2.016087	by one
-2.016087	by this
-1.595168	by twa
-2.016087	by united
-0.7781513	by way	-0.9736711
-0.1638041	c </s>
-0.60206	california </s>
-1.788843	california after
-1.788843	california arriving
-1.788843	california early
-1.788843	california leaving
-1.788843	california monday
-0.9079918	california on
-1.788843	california please
-1.367924	california that
-0.5509075	california to	-0.1430192
-1.788843	california tuesday
-1.788843	california which
-0.2836929	calling from
-1.956196	can </s>
-2.377115	can a
-1.956196	can be
-1.829982	can fly
-1.052029	can get	0.01916018
-0.7132105	can i	-0.474991
-1.491362	can take	-0.6207625
-0.206931	can you	-0.5490116
-0.6409254	canada </s>
-1.061844	canada departing
-1.061844	canada from
-0.6409254	canada leaving	-0.4147605
-0.04139268	canadian airlines	-0.5019922
-0.2836929	capacities of
-0.7365604	capacity </s>
-1.283693	capacity for
-0.4028418	capacity of	-0.08180639
-1.283693	capacity which
-1.224502	car </s>
-1.098288	car at
-1.645421	car fares
-0.62116	car in
-1.645421	car information
-1.098288	car rates	-0.3356244
-0.7596679	car rental	-0.2514472
-1.098288	car rentals	0.04351005
-0.9419554	carolina </s>
-1.362874	carolina and
-1.362874	carolina leaving
-0.4771213	carolina next	-0.6118199
-1.362874	carolina on
-1.362874	carolina that
-0.9419554	carolina to
-0.1638041	carries the	-0.4750343
-0.7608142	cars </s>
-0.3398954	cars in
-0.2836929	catch an
-0.2836929	charges between
-0.6946052	charlotte </s>
-1.858409	charlotte and
-1.858409	charlotte around
-2.279328	charlotte between
-2.279328	charlotte by
-2.279328	charlotte flights
-2.279328	charlotte for
-2.279328	charlotte from
-2.279328	charlotte leaving
-1.858409	charlotte monday	-0.4045706
-2.279328	charlotte next
-0.916454	charlotte north	0
-1.398477	charlotte on	-0.5160975
-1.393575	charlotte that	-0.3843672
-0.3621667	charlotte to	-0.3557058
-2.279328	charlotte today
-2.279328	charlotte which
-0.3386204	cheap flight	-0.2174503
-0.8857529	cheap flights
-2.601756	cheapest </s>
-2.180837	cheapest airfare	-0.1497623
-2.180837	cheapest coach
-2.601756	cheapest direct
-0.7160034	cheapest fare	-0.1956973
-1.716003	cheapest fares	0.08686808
-2.054624	cheapest first	-0.1772861
-0.5698753	cheapest flight	-0.2668828
-1.141972	cheapest flights	-0.2361667
-2.601756	cheapest nonstop
-2.601756	cheapest of
-0.6190934	cheapest one	-0.5038157
-2.180837	cheapest rate
-1.017033	cheapest round	0.9629287
-2.054624	cheapest ticket	0.1673173
-2.601756	cheapest to
-1.577496	cheapest way	-0.4100617
-0.7212464	chicago </s>
-2.283693	chicago after
-2.283693	chicago and
-1.402842	chicago around	-0.4144342
-2.283693	chicago arrive
-1.39794	chicago at	-0.1311202
-2.283693	chicago departing
-2.283693	chicago early
-1.402842	chicago into	-0.7304196
-2.283693	chicago leave
-1.862774	chicago leaving	-0.4752201
-1.39794	chicago next	-0.2016453
-0.9586073	chicago on	-0.1462528
-2.283693	chicago round
-2.283693	chicago that
-2.283693	chicago then
-0.39794	chicago to	-0.4294049
-2.283693	chicago which
-0.2136816	choices of	-0.5335745
-0.5336026	cincinnati </s>
-1.896477	cincinnati along
-1.475558	cincinnati and
-1.896477	cincinnati as
-1.896477	cincinnati nonstop
-1.896477	cincinnati on
-0.251056	cincinnati to	-0.2064808
-0.7403627	cities </s>
-0.4393327	cities are	-0.5179862
-1.205197	cities does
-1.078983	cities served	-0.2775489
-1.078983	cities that
-1.205197	cities today	0.1249388
-0.5846859	city </s>
-2.028816	city airport	-0.06923859
-1.690196	city and	-0.1432917
-2.15503	city arrive
-2.15503	city arriving
-2.15503	city at	-0.4662633
-2.575949	city back
-2.575949	city before
-2.575949	city departing
-2.575949	city does
-1.690196	city in	-0.150609
-2.15503	city is
-2.575949	city land
-1.690196	city leaving	-0.140623
-2.15503	city missouri	0.02566901
-2.575949	city monday
-2.575949	city nonstop
-1.338014	city of	-0.1655362
-1.146128	city on	-0.3761211
-2.575949	city proper
-2.575949	city served
-2.575949	city that
-2.575949	city then
-2.575949	city thursday
-0.3837711	city to	-0.4894792
-2.15503	city utah
-2.15503	city which
-0.8260748	class </s>
-2.16597	class airfare
-2.586889	class airlines
-2.586889	class airplane
-1.706038	class american	0.3542311
-2.586889	class and
-2.16597	class between
-2.586889	class c
-1.127105	class fare	0.0336282
-1.072747	class fares	0.004058748
-1.348954	class flight	-0.1299627
-0.7349944	class flights	-0.00862515
-1.224015	class from	-0.1796369
-2.586889	class h
-2.586889	class k
-2.586889	class leaving
-2.586889	class night
-2.039757	class of	-0.5891998
-1.303196	class on	-0.3795311
-2.16597	class one	0.2579451
-2.586889	class only
-2.586889	class or
-2.586889	class price
-2.586889	class prices
-2.586889	class reservations
-1.400106	class round	0.8739876
-2.586889	class seat
-2.586889	class seats
-1.400106	class service	-0.1398133
-1.024442	class ticket	0.1490671
-1.706038	class tickets	0.358459
-2.586889	class travel
-2.586889	class yn
-0.9767175	classes are	-0.3454491
-1.397636	classes for
-0.1597008	classes of	-0.5514112
-1.397636	classes that
-2.116202	cleveland 5
-0.6283889	cleveland </s>
-2.116202	cleveland after
-2.116202	cleveland and
-1.569069	cleveland daily	-0.1754089
-2.116202	cleveland departing
-2.116202	cleveland in
-1.695283	cleveland leaving
-1.695283	cleveland ohio	-0.337867
-1.125192	cleveland on	-0.3374023
-2.116202	cleveland that
-0.3273589	cleveland to	-0.5591685
-0.2136816	close to	-0.6018745
-0.2836929	closest to
-0.7608142	co 1209
-0.3398954	co mean	1.230449
-0.5563025	coach class	-0.07701516
-1.839995	coach discount
-1.419077	coach economy
-0.9591443	coach fare	0.009295613
-0.60206	coach fares	0.08377701
-1.419077	coach flight	-0.4627943
-1.292863	coach flights	-0.198725
-1.839995	coach from
-1.839995	coach on
-1.839995	coach one
-1.839995	coach or
-1.726097	code </s>
-2.147016	code again
-2.147016	code as
-1.726097	code b
-2.147016	code c
-2.147016	code dl
-0.8219302	code f	0.2855622
-2.147016	code ff
-2.147016	code fn
-2.147016	code for
-0.9090803	code h	0.04139268
-2.147016	code hp
-1.726097	code m
-2.147016	code mean
-1.266165	code q	-0.0356712
-1.122755	code qo	0.2363458
-1.261263	code qw	-0.1425803
-0.9090803	code qx	-0.1028458
-2.147016	code s
-2.147016	code s/
-2.147016	code us
-0.9602329	code y	0.1764137
-1.599883	code yn	-0.1271361
-0.7078722	codes </s>
-1.128791	codes belong
-1.128791	codes cover
-1.128791	codes qw
-1.128791	codes sd/d
-1.128791	codes symbols
-0.39794	colorado </s>
-1.283693	colorado august
-1.283693	colorado please
-0.39794	colorado to	-0.1197675
-0.8942035	columbus </s>
-1.775055	columbus after
-1.775055	columbus late
-1.227922	columbus ohio	-0.08259453
-1.354136	columbus on
-0.2126081	columbus to	-0.3392543
-0.2836929	come from
-0.9826629	coming back
-0.5617442	coming from
-0.9826629	coming sunday
-0.9826629	coming tuesday
-0.2836929	companies fly
-0.2836929	concerning american
-0.8857529	connect boston
-0.4648341	connect in
-0.8857529	connect with
-1.584723	connecting </s>
-1.03759	connecting flight	0.162761
-0.7038718	connecting flights	0.04821357
-1.163804	connecting from
-1.03759	connecting in
-1.163804	connecting that
-1.03759	connecting through	-0.2747011
-1.584723	connecting to
-0.5847229	connection between
-0.5847229	connection time
-0.7608142	connections </s>
-0.3398954	connections between
-0.2836929	connects in
-0.2836929	continent and
-1.718832	continental 1291	0.04351005
-2.265964	continental 1765
-2.265964	continental 271
-0.8683279	continental </s>
-1.845045	continental after
-2.265964	continental airline
-0.5509075	continental airlines	-0.09352487
-2.265964	continental between
-2.265964	continental depart
-2.265964	continental departing
-2.265964	continental flies
-1.718832	continental flight
-0.90309	continental flights	0.1963406
-1.241703	continental fly	0.05274045
-1.241703	continental from	-0.0380447
-2.265964	continental into
-1.385113	continental leaving	-0.3379148
-1.241703	continental on	-0.3188986
-2.265964	continental service
-1.718832	continental which	-0.2014076
-2.265964	continental with
-0.2836929	continuing to
-0.8325089	cost </s>
-2.116202	cost air
-2.116202	cost between
-2.116202	cost fare
-1.695283	cost flight	-0.0925115
-1.569069	cost for	-0.1407752
-2.116202	cost from
-2.116202	cost in
-1.235351	cost less	0.8239087
-0.4011452	cost of	-0.3070806
-2.116202	cost taking
-0.6863809	cost to	-0.3080273
-2.116202	cost within
-0.9826629	costs and
-0.9826629	costs less
-0.4355304	costs of
-1.973889	could do
-0.9496283	could i	-0.2442771
-0.06694679	could you	-0.4989236
-0.2730013	county </s>
-1.459784	county new
-0.5740313	county to	-0.1451159
-1.038865	county with	-0.4429457
-0.2836929	cover flights
-0.1638041	cp uses	0.1926384
-0.2836929	currently available
-0.2836929	d/s stand
-0.2836929	d10 </s>
-0.2836929	d9s </s>
-1.874758	daily 5
-0.9939064	daily </s>
-1.874758	daily flight
-0.1439066	daily flights	-0.2477275
-1.874758	daily from
-1.874758	daily nonstop
-1.874758	daily us
-1.874758	daily with
-0.5191147	dallas </s>
-3.097274	dallas about
-2.676355	dallas after
-2.073013	dallas airport	-0.08872657
-1.512551	dallas and	-0.2362485
-3.097274	dallas arrive
-2.216423	dallas arriving	-0.3375286
-3.097274	dallas atlanta
-2.550141	dallas before
-2.676355	dallas by
-2.676355	dallas can	-0.05579746
-3.097274	dallas connecting
-2.550141	dallas dallas	-0.435862
-3.097274	dallas denver
-3.097274	dallas departing
-3.097274	dallas early
-3.097274	dallas first
-3.097274	dallas flights
-2.676355	dallas for
-0.9875062	dallas fort	0.1217335
-2.211521	dallas from	-0.1156536
-3.097274	dallas going
-2.676355	dallas ground
-2.106265	dallas in	-0.3267003
-2.211521	dallas into	-0.6512384
-3.097274	dallas least
-2.211521	dallas leaving
-3.097274	dallas makes
-3.097274	dallas monday
-2.676355	dallas next
-1.190332	dallas on	-0.1369628
-3.097274	dallas one
-2.106265	dallas please	-0.3976551
-1.859339	dallas round	0.8282301
-3.097274	dallas saturday
-3.097274	dallas serve
-3.097274	dallas stopover
-2.550141	dallas stopping	0.2632414
-3.097274	dallas texas
-1.813581	dallas that	-0.1172064
-2.676355	dallas the
-2.676355	dallas through
-0.4976106	dallas to	-0.7725664
-2.676355	dallas tomorrow
-2.550141	dallas via	-0.1874269
-2.073013	dallas which	-0.1102524
-1.910491	dallas with	-0.161154
-0.1638041	database </s>
-0.2836929	date june
-0.4393327	day </s>
-0.9213558	day after	-0.7705849
-1.381288	day and
-1.802207	day arriving
-1.802207	day at
-1.381288	day find	-0.3533773
-1.802207	day following
-1.802207	day from
-1.381288	day leaving
-1.381288	day of	-0.4322588
-1.802207	day on
-1.802207	day time
-1.381288	day to
-0.5617442	days </s>
-0.5617442	days from
-0.9826629	days i
-0.4986102	dc </s>
-2.024142	dc after
-1.56421	dc and	-0.1742756
-2.445061	dc area
-2.024142	dc arriving
-2.024142	dc at	-0.4721761
-2.445061	dc baltimore
-2.445061	dc before
-2.445061	dc but
-2.445061	dc departing
-2.024142	dc for
-2.445061	dc from
-2.445061	dc give
-2.024142	dc i	-0.3726052
-2.445061	dc late
-2.024142	dc leaving	-0.4147605
-2.445061	dc nonstop
-0.71421	dc on	-0.2241437
-2.445061	dc one
-2.445061	dc san
-2.024142	dc stop	0.1903317
-2.445061	dc that
-0.5931663	dc to	-0.2124678
-2.024142	dc via	-0.4426993
-2.445061	dc wednesday
-0.3398954	dc10 </s>
-0.7608142	dc10 service
-0.8893017	december </s>
-1.775055	december are
-1.775055	december first
-1.775055	december from
-1.775055	december second
-0.8942035	december seventeenth	-0.4153049
-1.775055	december sixteen
-1.227922	december sixteenth
-1.775055	december third
-0.3774183	december twenty	-0.2146547
-0.2136816	define airline
-2.325086	delta 139
-2.325086	delta 82
-1.041393	delta </s>
-2.325086	delta aircraft
-1.439333	delta airline	-0.1370843
-0.5942346	delta airlines	0.02470255
-2.325086	delta and
-2.325086	delta arrive
-0.8653014	delta flight	0.1542422
-0.7403627	delta flights	0.07714912
-1.439333	delta fly
-1.444234	delta from	-0.08528541
-2.325086	delta has
-1.334076	delta have	-0.1144365
-2.325086	delta in
-2.325086	delta is
-2.325086	delta leaves
-2.325086	delta leaving
-1.777953	delta or	-0.2138329
-2.325086	delta that
-1.904167	delta to
-2.325086	delta use
-0.7608142	delta's flights
-0.7608142	delta's night
-0.7608142	delta's schedule
-0.5491527	denver </s>
-3.27845	denver a
-2.040514	denver after	-0.1957192
-2.040514	denver airport	-0.1721342
-1.238882	denver and	-0.2791721
-3.27845	denver around
-2.091667	denver arriving	0.1279652
-2.392697	denver at	-0.1424354
-3.27845	denver august
-3.27845	denver be
-1.672538	denver before	-0.4520153
-2.857531	denver by
-2.392697	denver can	0.1202938
-3.27845	denver coach
-1.994757	denver colorado	0.3309932
-2.857531	denver connecting
-3.27845	denver cost
-3.27845	denver dallas
-3.27845	denver delta
-3.27845	denver departing
-3.27845	denver do
-3.27845	denver during
-2.731317	denver early	-0.1018734
-3.27845	denver first
-3.27845	denver fly
-3.27845	denver flying
-2.397599	denver for	-0.102876
-2.287441	denver from	-0.1010797
-2.254189	denver going	-0.6119683
-3.27845	denver i
-3.27845	denver i'd
-2.397599	denver in	-0.2175558
-2.857531	denver into	-0.4091863
-3.27845	denver is
-3.27845	denver june
-2.857531	denver leave
-2.287441	denver leaving	-0.06257798
-2.857531	denver monday	-0.2248752
-3.27845	denver next
-3.27845	denver no
-3.27845	denver oakland
-1.113943	denver on	0.0885548
-3.27845	denver one
-2.287441	denver or	-0.3558269
-3.27845	denver pittsburgh
-2.731317	denver please	-0.5225939
-3.27845	denver qualify
-3.27845	denver rental
-2.857531	denver round	1.351109
-3.27845	denver san
-3.27845	denver saturday
-2.857531	denver stop
-1.790637	denver that	-0.06433086
-3.27845	denver this
-0.4048073	denver to	-0.7450222
-3.27845	denver today
-3.27845	denver traveling
-3.27845	denver tuesday
-2.392697	denver wednesday	-0.6883128
-2.857531	denver what
-2.091667	denver which	-0.1150512
-2.392697	denver with	-0.04669547
-1.851895	depart </s>
-0.8276339	depart after	-0.0836577
-1.430976	depart baltimore
-1.430976	depart before
-1.430976	depart between
-1.851895	depart burbank
-0.5682017	depart from	-0.1404549
-1.304762	depart in	-0.4516391
-1.851895	depart los
-1.851895	depart milwaukee
-1.851895	depart newark
-1.430976	depart on	-0.4574585
-1.851895	depart phoenix
-1.851895	depart pittsburgh
-1.851895	depart san
-1.851895	depart seattle
-1.851895	depart washington
-1.927146	departing 5
-0.9028849	departing after	-0.1514095
-1.927146	departing around
-1.046294	departing at
-1.041393	departing before	-0.236476
-1.927146	departing dallas
-1.927146	departing either
-1.927146	departing flights
-0.5295093	departing from	0.02470221
-1.380013	departing in	-0.4516391
-1.380013	departing on
-1.927146	departing pittsburgh
-1.380013	departing san	0.2625203
-1.927146	departing thursday
-0.8857529	departs 9
-0.8857529	departs after
-0.8857529	departs boston
-0.8857529	departs dallas
-1.237935	departure and
-1.237935	departure for
-1.237935	departure from
-1.237935	departure one
-0.6908029	departure time
-0.8170167	departure times
-0.8857529	departures and
-0.8857529	departures for
-0.4648341	departures from	-0.4385219
-0.7608142	describe fare
-0.7608142	describe ground
-0.7608142	describe pittsburgh
-0.2836929	designate as
-0.8857529	destination as
-0.8857529	destination charlotte
-0.8857529	destination city
-0.8857529	destination is
-0.2836929	determine what
-0.7909111	detroit </s>
-1.815172	detroit and
-1.268039	detroit around	-0.5730963
-1.815172	detroit in
-1.815172	detroit leaving
-1.394253	detroit michigan
-0.9294189	detroit on
-0.3273589	detroit to	-0.5304549
-0.7658641	dfw </s>
-0.7658641	dfw and	-0.4653145
-1.186783	dfw mean
-1.186783	dfw on
-0.7658641	dfw provided	0.2027767
-0.8354467	diego </s>
-2.233083	diego after
-2.233083	diego airport
-2.233083	diego and
-2.233083	diego but
-1.68595	diego california
-2.233083	diego coach
-2.233083	diego for
-2.233083	diego from
-1.812164	diego in	-0.3267003
-1.812164	diego leaving
-0.94939	diego on	-0.3074391
-2.233083	diego please
-1.352232	diego that	-0.09458576
-0.4179111	diego to	-0.4373998
-1.812164	diego tomorrow
-0.94939	diego with	-0.3477255
-0.1638041	difference between	-0.4754588
-0.3398954	different classes
-0.7608142	different flight
-0.5381858	dinner </s>
-1.562447	dinner and
-1.141528	dinner flight
-1.015314	dinner flights	-0.1858697
-1.562447	dinner for
-1.562447	dinner meal
-1.562447	dinner please
-1.562447	dinner served
-1.562447	dinner that's
-1.141528	dinner what's	-0.4488951
-0.5847229	dinnertime 6pm
-0.5847229	dinnertime </s>
-0.8007818	direct and	-0.775952
-1.681633	direct coach
-0.6906235	direct flight	-0.0925115
-0.39794	direct flights	-0.1858697
-1.681633	direct morning
-1.681633	direct only
-0.2836929	directly from
-0.2836929	discount fare
-0.06214791	display all	-0.1320937
-1.459784	display flights
-1.459784	display types
-1.128791	distance between
-0.1045302	distance from
-1.584723	dl 1055
-1.584723	dl 106
-1.584723	dl 1083
-1.584723	dl 229
-1.584723	dl 296
-1.584723	dl 323
-1.584723	dl 402
-1.584723	dl 405
-1.584723	dl 746
-1.584723	dl 838
-1.584723	dl 98
-0.69897	dl </s>
-1.584723	dl from
-1.584723	dl mean
-1.03759	dl stand	0.6283889
-2.261416	do all
-1.714284	do any	-0.2159692
-1.270407	do i	-0.8920946
-2.261416	do is
-2.261416	do on
-2.261416	do planes
-1.840498	do that
-2.261416	do the
-2.261416	do these
-2.261416	do this
-0.09691001	do you	-0.7528651
-2.18911	does a	-0.4663369
-1.180208	does american	-0.1686476
-1.585768	does any	-0.8096257
-2.610029	does ap57
-2.18911	does canadian	0.5642715
-2.610029	does co
-1.724276	does code	-0.09571853
-1.284943	does continental	-0.2184247
-2.610029	does d/s
-1.071063	does delta	-0.2739666
-2.610029	does dfw
-1.724276	does dl	-0.1043533
-2.18911	does ea	-0.337867
-2.062896	does each	-0.1249388
-1.619019	does eastern	0.05271316
-1.724276	does ewr	-0.202054
-1.247155	does fare	-1.006256
-2.610029	does ff
-1.284943	does flight	-0.3915889
-2.610029	does fn
-2.610029	does ground
-2.610029	does hou
-2.610029	does iah
-1.025306	does it	-0.5931923
-2.610029	does lax
-2.610029	does ls
-2.610029	does lufthansa
-2.062896	does mco	-0.15004
-1.247155	does midwest	0.06214797
-2.610029	does northwest
-2.610029	does nw
-2.610029	does oakland
-2.610029	does ord
-1.729178	does restriction	-0.1394975
-2.610029	does s/
-2.610029	does that
-0.9839132	does the	-0.1316244
-1.423246	does twa	-0.1997271
-2.610029	does ua
-1.212392	does united	-0.003012359
-1.423246	does us	0.353908
-2.610029	does y
-2.610029	does yn
-0.2836929	doesn't </s>
-0.1635021	dollars </s>
-1.991263	dollars and
-1.991263	dollars for
-1.444131	dollars from
-1.444131	dollars one	0.1330063
-1.570344	dollars or	-0.4691054
-1.991263	dollars please
-1.110412	dollars round	1.050079
-0.2836929	don't want
-0.3853509	downtown </s>
-2.116202	downtown and
-1.695283	downtown area	0.2218488
-1.569069	downtown atlanta	-0.4650514
-1.230449	downtown boston	-0.6214184
-2.116202	downtown by
-1.091941	downtown dallas	-0.6885729
-2.116202	downtown denver
-1.230449	downtown from	-0.6944915
-1.235351	downtown in	-0.09414055
-2.116202	downtown long
-1.569069	downtown philadelphia	-0.4451452
-2.116202	downtown phoenix
-1.230449	downtown pittsburgh	-0.58509
-1.569069	downtown san	0.2625203
-2.116202	downtown to
-0.5847229	dulles on
-0.5847229	dulles to
-1.061844	during a
-1.061844	during breakfast
-0.6409254	during the
-1.061844	during week
-1.061844	during weekdays
-0.9826629	ea 212
-0.9826629	ea </s>
-0.5617442	ea mean	1.230449
-0.9826629	ea the
-0.1760913	each airline	-0.2492671
-1.061844	each flight
-1.061844	each is
-0.1638041	earlier than
-2.024142	earliest american	0.08122984
-2.445061	earliest arrival
-2.024142	earliest boston	-0.4765611
-2.024142	earliest breakfast	-0.369158
-2.445061	earliest departure
-0.1006702	earliest flight	-0.03785652
-1.258278	earliest flights	-0.1066884
-2.024142	earliest in
-2.445061	earliest lunch
-1.559308	earliest morning	-0.6628234
-2.024142	earliest nonstop	-0.3817378
-2.445061	earliest one
-1.897928	earliest possible	-0.1873215
-2.445061	earliest united
-1.036429	early afternoon	-0.1147793
-1.802293	early am
-1.342361	early as	-0.6744703
-0.9852768	early flight	0.1274597
-2.223212	early flights
-1.802293	early friday	-0.4680775
-0.6173	early in	-1.192002
-2.223212	early monday
-0.5415792	early morning	0.125403
-1.67608	early on	-0.1966652
-2.223212	early saturday
-2.223212	early the
-2.223212	early thursday
-2.223212	early today
-2.223212	early tomorrow
-1.67608	early tuesday	-0.5440681
-2.223212	early wednesday
-2.223212	early weekday
-1.626116	eastern 210
-1.626116	eastern airline
-0.3424227	eastern airlines	-0.03744534
-1.626116	eastern flies
-0.7403627	eastern flight	-0.697484
-1.205197	eastern fly	0.001587927
-1.626116	eastern has
-1.626116	eastern have
-1.626116	eastern with
-0.2836929	economic class
-0.5563025	economy class	-0.2661778
-1.419077	economy fare
-0.4771213	economy fares	0.1715437
-1.419077	economy flight
-0.9591443	economy flights	-0.08261443
-1.839995	economy from
-1.839995	economy level
-1.839995	economy prices
-1.839995	economy thrift
-1.839995	economy ticket
-0.5847229	eight </s>
-0.5847229	eight sixteen
-0.9826629	eighteenth </s>
-0.9826629	eighteenth again
-0.4355304	eighteenth of	-0.5974275
-1.584723	eighth 1991
-0.1249387	eighth </s>
-1.584723	eighth i
-1.584723	eighth i'd
-1.163804	eighth of	-0.4707357
-1.362874	either boston
-1.362874	either from
-1.362874	either on
-1.362874	either order
-1.362874	either orlando
-0.4771213	either san	0.1656103
-1.362874	either twa
-0.9419554	either wednesday
-0.2836929	eleven departing
-0.9419554	eleventh 1991	0.2218488
-0.3386135	eleventh </s>
-1.362874	eleventh before
-1.362874	eleventh economy
-0.9419554	eleventh from	-0.4706241
-0.2836929	else who
-0.2836929	enroute at
-0.2836929	equal to
-0.2836929	equipment is
-0.3628824	evening </s>
-1.345762	evening and	-0.3645163
-2.336771	evening could
-1.149988	evening flight	0.04218709
-0.8769872	evening flights	0.187711
-1.345762	evening from	-0.09859513
-1.915853	evening in	-0.4143078
-2.336771	evening june
-2.336771	evening next
-1.345762	evening of	-0.3754817
-1.789639	evening on
-2.336771	evening one
-1.451018	evening or	-0.2520435
-2.336771	evening schedule
-2.336771	evening sunday
-2.336771	evening thank
-2.336771	evening that
-2.336771	evening tomorrow
-2.336771	evening what
-2.336771	evening which
-0.2836929	everywhere if
-0.3570843	ewr </s>
-0.6908029	ewr mean	1.10551
-1.237935	ewr stand
-1.426757	expensive airfare
-1.55297	expensive business	0.845098
-0.7871061	expensive fare	-0.1186486
-1.093038	expensive first	-0.3533773
-0.4349236	expensive flight	0.02748019
-1.55297	expensive flights
-1.973889	expensive is
-0.7871061	expensive one	-0.2191762
-1.55297	expensive way
-0.8627741	explain fare	-0.3694341
-1.283693	explain meal
-0.7365604	explain restriction
-0.39794	explain the	-0.4682088
-1.429821	express flights
-0.8826884	express have	-0.5696907
-0.1918855	express serve	-0.08601573
-1.429821	express serves
-0.2836929	eye flight
-0.1383027	f </s>
-1.325086	f and
-0.9041668	f mean	1.230449
-0.3398954	f28 </s>
-0.7608142	f28 from
-1.128791	far from
-0.1045302	far is	0.1048721
-1.044812	fare </s>
-2.690233	fare around
-2.690233	fare at
-2.690233	fare available
-1.327359	fare between	-0.1524757
-2.690233	fare class
-0.6583521	fare code	0.01907176
-1.665972	fare codes	0.007562526
-2.269314	fare flights
-1.292597	fare for	-0.09034444
-0.410905	fare from	-0.1868655
-1.809382	fare going	-0.06021339
-2.269314	fare i	-0.4648868
-2.690233	fare in
-2.143101	fare information	-0.1797874
-2.690233	fare is
-2.269314	fare less	1.124939
-2.690233	fare of
-1.230449	fare on	-0.2791979
-2.269314	fare one	0.2579451
-2.269314	fare please	-0.3976551
-2.690233	fare round
-2.143101	fare that
-2.690233	fare ticket
-2.690233	fare united
-1.191603	fares </s>
-1.635838	fares and	-0.7750884
-1.969556	fares are
-2.516689	fares at
-1.635838	fares between	-0.08807614
-0.8712683	fares for	-0.2527593
-0.2286747	fares from	-0.1115285
-2.09577	fares leaving	-0.4147605
-2.09577	fares less	1.124939
-1.969556	fares new	0.5228787
-1.969556	fares of
-1.52568	fares on	-0.1904297
-2.516689	fares only
-1.969556	fares that
-2.516689	fares under
-0.03758346	february twenty	-0.2962431
-0.09691001	ff </s>
-0.9826629	ff mean
-0.1153934	field </s>
-0.8750613	field from	-0.4763621
-1.213682	field to
-0.2836929	fifteen </s>
-1.093223	fifteenth 1991
-0.2762064	fifteenth </s>
-1.093223	fifteenth from	-0.4744161
-1.514142	fifteenth i
-1.514142	fifteenth i'd
-1.514142	fifteenth leaving
-1.514142	fifteenth with
-0.4191293	fifth 1991	0.3565474
-0.6149028	fifth </s>
-1.605912	fifth after
-1.184993	fifth and	-0.4698502
-1.605912	fifth from
-1.605912	fifth or
-1.605912	fifth that
-0.2836929	final destination
-0.5264829	find a	-0.4206024
-2.366478	find all
-2.366478	find an
-2.366478	find any
-1.94556	find flights	-0.06093091
-2.366478	find from
-0.6056641	find me	-0.4761236
-1.480725	find out
-2.366478	find that
-0.6514216	find the	-0.2137584
-0.8786654	find travel	-1.022173
-2.366478	find what
-0.2836929	fine can
-1.781755	first 1991	0
-2.120376	first 1992	0.0445869
-2.667508	first 1993
-0.8786654	first </s>
-2.246589	first and	-0.4664529
-0.2048384	first class	0.1877173
-0.8653014	first flight	-0.09054524
-2.246589	first flights
-2.120376	first from
-2.667508	first i
-2.120376	first i'd	1.265211
-2.246589	first of
-2.246589	first on	-0.4595867
-2.667508	first that
-2.667508	first thing
-2.667508	first to
-0.2136816	fit on	-0.5725335
-1.429821	flies across
-1.008902	flies between
-0.146128	flies from	-0.08922584
-1.429821	flies out
-3.35225	flight 1059
-2.931331	flight 1222	0.02566901
-3.35225	flight 1765
-3.35225	flight 19
-2.805117	flight 21	-0.1915739
-3.35225	flight 217
-3.35225	flight 257
-2.931331	flight 296
-3.35225	flight 315
-3.35225	flight 324
-3.35225	flight 3357
-3.35225	flight 352
-3.35225	flight 415
-3.35225	flight 417
-3.35225	flight 4400
-3.35225	flight 497766
-2.931331	flight 505
-3.35225	flight 539
-3.35225	flight 71
-2.931331	flight 813	-0.06663519
-2.466497	flight 825	0.03623965
-2.931331	flight 852
-3.35225	flight 928
-1.670617	flight </s>
-3.35225	flight aa
-2.466497	flight after
-3.35225	flight and
-2.931331	flight around
-2.805117	flight arriving	-0.314394
-3.35225	flight as
-2.466497	flight available
-2.931331	flight back	-0.4381983
-1.488773	flight between	-0.1288527
-2.931331	flight classes
-3.35225	flight code
-3.35225	flight cost
-2.931331	flight delta
-2.327989	flight departing	-0.4234816
-3.35225	flight departures
-2.466497	flight dl
-2.471399	flight do	-0.07918125
-3.35225	flight ea
-3.35225	flight earlier
-3.35225	flight eastern
-3.35225	flight fare
-3.35225	flight first
-2.931331	flight flies
-2.805117	flight flying	-0.1091445
-2.466497	flight for	-0.1373821
-0.2309685	flight from	0.179987
-3.35225	flight goes
-2.931331	flight going	-0.1693579
-3.35225	flight how
-2.327989	flight i	-0.8328636
-3.35225	flight if
-2.027164	flight in	-0.4864011
-1.746338	flight information	0.2965915
-3.35225	flight into
-2.466497	flight is	-0.1133355
-3.35225	flight least
-2.931331	flight leave
-2.931331	flight leaves	-0.4639748
-1.360987	flight leaving	-0.1458391
-3.35225	flight meal
-3.35225	flight meals
-2.027164	flight number	-0.1071035
-2.327989	flight numbers	0.2218488
-2.805117	flight of	-0.1769863
-1.165467	flight on	-0.2055141
-2.805117	flight originating	-0.1915739
-2.805117	flight out	0.09691
-2.931331	flight possible
-2.466497	flight schedule	-0.1205707
-2.931331	flight schedules	0.02566901
-3.35225	flight service
-2.114314	flight should	-0.06735091
-1.591436	flight that	-0.2542919
-3.35225	flight this
-2.068557	flight times	-0.1228268
-1.954614	flight to	-0.05759336
-3.35225	flight today
-1.864437	flight tomorrow	-0.270874
-3.35225	flight tonight
-3.35225	flight traveling
-1.954614	flight ua	-0.1229942
-2.931331	flight us
-3.35225	flight wednesday
-3.35225	flight when
-2.805117	flight which	-0.2118631
-2.931331	flight will
-2.931331	flight with
-2.931331	flight would
-2.466497	flight you	-0.0996525
-1.954242	flights </s>
-3.24838	flights after
-3.669299	flights again
-2.023878	flights and	-0.410905
-1.227244	flights are	-0.8498448
-2.783546	flights arrive	-0.02687213
-1.923208	flights arriving	-0.1912436
-3.122167	flights at	-0.1706962
-2.063387	flights available	-0.3319385
-2.788448	flights before
-1.285236	flights between	-0.0716269
-3.24838	flights both	-0.1091445
-3.24838	flights can	-0.3836996
-3.669299	flights come
-3.24838	flights dallas	-0.3109232
-2.788448	flights denver	-0.5608212
-2.385606	flights depart	0.008212462
-2.482516	flights departing	-0.3707877
-3.24838	flights direct
-2.181486	flights do	-0.5314789
-2.005395	flights does	-0.3337795
-3.24838	flights during
-3.669299	flights early
-2.783546	flights first	-0.2741961
-3.122167	flights fly	-0.1233508
-3.24838	flights flying
-2.271663	flights for	-0.2170552
-0.2100945	flights from	0.2379205
-1.686636	flights go	-0.4232458
-2.271663	flights going	-0.8383647
-3.24838	flights has	-0.447787
-3.669299	flights if
-2.645038	flights in	-0.1048516
-3.669299	flights including
-2.645038	flights into	-0.155661
-3.669299	flights land
-1.732394	flights leave	-0.1002704
-1.522283	flights leaving	-0.1102239
-3.669299	flights monday
-3.122167	flights next	-0.1346986
-3.669299	flights of
-1.436216	flights on	-0.2163084
-3.669299	flights one
-2.67829	flights out	-0.20412
-3.669299	flights philadelphia
-3.669299	flights phoenix
-3.669299	flights pittsburgh
-3.122167	flights please	-0.1423826
-3.669299	flights return
-3.122167	flights round	1.22617
-3.24838	flights seattle	-0.3916911
-3.669299	flights serving
-3.24838	flights should	-0.3979004
-2.788448	flights stop	-0.1106983
-3.24838	flights stopping	0.3881802
-3.669299	flights takeoff
-3.669299	flights taking
-3.122167	flights than	-0.2097688
-1.678036	flights that	-0.3596088
-3.122167	flights there	-0.5944071
-1.841538	flights to	-0.1789814
-3.24838	flights today	0.1249388
-3.24838	flights tomorrow	-0.3625481
-3.669299	flights tuesday
-3.24838	flights united
-2.482516	flights which	-0.1318066
-3.669299	flights will
-2.271663	flights with	-0.1656211
-3.669299	flights without
-2.783546	flights you	-0.4975925
-0.4820231	florida </s>
-1.362874	florida for
-0.3386135	florida to	-0.2154327
-2.300525	fly </s>
-2.721443	fly a
-2.721443	fly before
-1.115531	fly between	-0.1413868
-2.174311	fly boston	-0.2843884
-2.721443	fly continental
-2.721443	fly dallas
-2.721443	fly dc10
-2.721443	fly delta
-2.721443	fly denver
-2.721443	fly directly
-2.721443	fly during
-2.300525	fly early
-2.721443	fly eastern
-2.721443	fly first
-0.1752995	fly from	-0.1146463
-1.697183	fly into	-0.07118458
-2.721443	fly late
-2.721443	fly leaving
-2.721443	fly me
-1.835691	fly nonstop	-0.4672043
-1.396358	fly on	-0.141232
-2.721443	fly one
-2.721443	fly only
-2.721443	fly out
-2.300525	fly philadelphia	-0.285975
-2.721443	fly round
-2.721443	fly that
-2.721443	fly the
-1.261659	fly to	-0.032573
