[n]
3

[smoother]
kylm.model.ngram.smoother.MKNSmoother

[closed]
true

[max_length]
91

[vocab_cutoff]
0

[start_symbol]
<s>

[terminal_symbol]
</s>

[unknown_symbol]
<unk>

\data\
ngram 1=927
ngram 2=6553
ngram 3=5605

\1-grams:
-4.311973	/	-0.001257997
-4.488064	0900	0.03558515
-3.943996	1	0.03970344
-3.886004	10	0.002583707
-4.311973	100	0.0351169
-3.35773	1000	-0.01212804
-4.488064	1017	0.005139028
-4.488064	1020pm	0.03558515
-4.488064	1024	0.005139028
-4.488064	1026	0.03558515
-4.488064	1030am	0.004631137
-4.311973	1039	0.03644738
-4.488064	1045am	0.03558515
-4.488064	1055	-0.0009168265
-4.488064	1059	0.03558515
-4.488064	106	0.02603282
-4.488064	1083	0.02603282
-3.17631	10am	0.06089613
-3.789094	10pm	0.04299195
-4.488064	11	-0.0002316132
-3.943996	1100	-0.002907001
-4.488064	110pm	0.009722523
-4.311973	1110	0.004670787
-4.090124	1115am	0.003227922
-4.488064	1130am	0.03558515
-4.488064	1133am	0.004631137
-4.311973	1145am	0.0351169
-4.488064	1158pm	0.008018753
-4.090124	11am	0.04532061
-4.311973	11pm	0.0351169
-3.20931	12	-0.01133716
-4.488064	1200	-0.0008815326
-4.488064	1205	0.005139028
-4.488064	1209	0.03558515
-4.488064	1220pm	0.004631137
-4.311973	1222	0.02556458
-4.488064	1230pm	0.03558515
-4.488064	124	-0.0005708229
-4.090124	1245pm	0.03418193
-4.488064	1288	0.03558515
-4.187034	1291	0.02615436
-3.675151	12pm	0.07628015
-4.488064	130	0.005139028
-4.488064	1300	-0.0008815326
-4.488064	137338	0.03558515
-4.488064	139	0.03558515
-4.488064	150	-0.0005708229
-4.488064	1500	-0.0005708229
-4.488064	1505	0.02603282
-4.488064	1600	-0.0008815326
-4.488064	163	0.03558515
-4.311973	1700	0.008842392
-4.311973	1765	0.02556458
-4.488064	1850	0.004631137
-4.488064	19	0.02603282
-4.488064	1940	0.03558515
-3.466875	1991	0.05663438
-4.090124	1992	0.06313119
-4.488064	1993	0.03558515
-3.886004	1pm	0.03473861
-3.886004	2	0.04066873
-4.488064	200	-0.0005708229
-4.311973	201	0.06406616
-4.187034	21	0.03464917
-4.488064	210	0.03558515
-4.090124	2100	0.03418193
-4.488064	210pm	0.03558515
-4.488064	212	0.02603282
-4.311973	2134	0.0351169
-4.488064	2153	0.02603282
-4.488064	217	0.02603282
-4.488064	225pm	0.0004263605
-4.488064	229	0.02603282
-4.488064	230	0.009722523
-4.187034	230pm	0.03464917
-4.488064	257	0.03558515
-4.311973	269	0.002529369
-4.187034	270	0.02509684
-4.488064	271	0.02603282
-4.488064	279	-0.0004012511
-3.943996	281	0.02369664
-4.187034	296	0.03189339
-4.488064	297	0.02603282
-3.51034	2pm	0.07510743
-3.789094	3	0.006573625
-4.488064	300	-0.0005708229
-4.488064	305	0.005139028
-4.488064	311	0.03558515
-4.488064	315	0.03558515
-4.488064	323	-0.0009168265
-4.488064	324	0.009722523
-4.488064	324pm	0.03558515
-4.488064	329	-0.0005708229
-4.488064	3357	0.02603282
-4.311973	343	0.02556458
-4.488064	345	0.02603282
-4.488064	352	0.02603282
-4.311973	3724	0.002970611
-3.789094	3pm	0.07534945
-3.533822	4	0.0031409
-4.488064	400	-0.0005708229
-4.488064	402	0.02603282
-4.488064	405	0.03558515
-4.187034	415	0.0304813
-4.488064	416	-0.0005708229
-4.488064	417	0.02603282
-4.488064	420	0.008018753
-4.488064	428	0.008018753
-4.488064	430	0.004631137
-4.090124	430pm	0.03977334
-4.488064	43pm	0.03558515
-4.488064	4400	0.02603282
-4.488064	445	0.004631137
-4.488064	459	-0.0006697092
-3.886004	466	-0.003372731
-4.488064	497766	0.02603282
-3.446671	4pm	0.04334744
-3.326696	5	0.03526619
-4.488064	500	-0.0005708229
-4.311973	505	0.02566598
-4.488064	515pm	0.03558515
-4.311973	530	0.04070832
-4.187034	530pm	0.03464917
-4.488064	539	0.03558515
-4.187034	555	0.04393087
-3.0567	5pm	0.04645588
-3.466875	6	0.03892343
-4.488064	615pm	0.03558515
-4.488064	630	0.03558515
-4.187034	630am	0.04327182
-4.311973	630pm	0.0351169
-4.488064	645am	-0.0004719142
-4.488064	650	0.03558515
-3.198029	6pm	0.03814732
-3.709913	7	0.0007257606
-4.488064	705	0.03050187
-4.488064	71	0.02603282
-4.090124	718am	0.043677
-4.311973	720am	0.0351169
-4.488064	723pm	0.03558515
-4.311973	727	0.03054383
-4.311973	72s	0.03472393
-4.488064	730pm	0.03558515
-4.488064	733	0.03558515
-4.488064	734	0.03558515
-4.187034	737	0.03419476
-4.488064	73s	0.03558515
-4.488064	746	-0.0004507164
-4.010943	747	0.03937883
-4.488064	755	0.007413936
-4.488064	755am	0.007413936
-4.311973	757	-4.188134e-05
-4.311973	767	0.0351169
-4.488064	771	0.003931076
-4.090124	7am	0.04532061
-3.283944	7pm	0.0658583
-3.558645	8	0.03506844
-4.488064	810pm	0.001291024
-4.187034	813	0.02509684
-4.488064	815am	0.03558515
-4.488064	819	0.007413936
-4.488064	82	0.004631137
-4.488064	823	0.005139028
-4.090124	825	0.02628085
-4.187034	838	0.03998056
-4.311973	838am	0.004946054
-4.311973	845	0.004670787
-4.311973	852	0.06406616
-3.584974	8am	0.08555644
-3.466875	8pm	0.05538594
-3.789094	9	-0.00437669
-4.488064	928	0.02603282
-4.311973	932	-0.001039065
-4.187034	934pm	0.03464917
-4.488064	98	0.03558515
-3.558645	9am	0.04657388
-3.943996	9pm	0.07416174
-1.09335	</s>
-99	<s>	-0.4978947
-1.835818	a	-0.2471595
-4.488064	aa	-0.0009238849
-3.886004	abbreviation	-0.003176083
-4.311973	abbreviations	0.0351169
-4.488064	able	0.03050187
-3.0567	about	0.0127005
-4.311973	ac	0.04070832
-4.488064	across	-0.0007897551
-4.311973	actually	0.008220668
-4.488064	advertises	-0.0009238849
-2.427366	after	-0.1097102
-2.548545	afternoon	0.07740661
-4.488064	afternoons	0.03558515
-4.488064	afterwards	0.03558515
-3.675151	again	0.06302292
-2.844611	air	0.100518
-2.943996	aircraft	0.03211414
-3.533822	airfare	0.05358095
-4.488064	airfares	0.001610392
-2.834852	airline	0.08515675
-2.162754	airlines	0.001208335
-3.789094	airplane	0.03537887
-4.311973	airplanes	0.003957735
-2.655555	airport	0.06669333
-3.408883	airports	0.06650146
-4.311973	alaska	0.00158966
-2.008777	all	-0.1590447
-4.311973	along	0.01447098
-3.488064	also	0.07061803
-3.374121	am	0.05398695
-4.187034	america	-0.001845747
-2.556098	american	0.09457573
-4.311973	american's	-0.001459375
-4.090124	amount	0.0003349897
-3.010943	an	-0.01308169
-1.894778	and	0.05482799
-2.96955	angeles	0.07386433
-4.090124	another	0.04388152
-2.776257	any	-0.002280518
-4.488064	anything	0.02603282
-4.010943	anywhere	0.08228099
-4.488064	ap	0.001227178
-4.488064	ap/55	0.03558515
-3.747701	ap/57	0.0310175
-4.187034	ap/80	0.03457113
-4.090124	ap57	0.0338104
-4.488064	ap68	0.03558515
-4.187034	ap80	0.03464917
-4.311973	approximately	-0.001805418
-3.408883	april	-0.01318544
-2.130129	are	-0.03504482
-4.090124	area	0.03418193
-4.311973	arizona	0.01403147
-2.989753	around	-0.03652425
-3.943996	arrange	0.004629582
-3.533822	arrangements	0.02021647
-4.010943	arrival	0.004550698
-4.010943	arrivals	0.03180889
-2.636806	arrive	-0.03204675
-3.326696	arrives	-0.003826048
-2.503537	arriving	0.0885336
-3.391154	as	0.05112571
-2.576906	at	-0.01544459
-4.311973	atl	0.06895716
-1.911147	atlanta	0.01043868
-4.311973	atlanta's	-0.0004452736
-2.802322	august	0.005389478
-2.505793	available	0.08476881
-4.311973	b	0.0509729
-3.558645	back	0.1011555
-1.998809	baltimore	-0.01986772
-4.488064	bay	-0.0009027093
-3.391154	be	0.02704875
-3.20931	beach	0.06760073
-2.529023	before	-0.08595936
-4.488064	beginning	0.009722523
-4.488064	begins	0.005139028
-4.488064	being	-0.0007968157
-4.488064	belong	0.03050187
-4.488064	besides	-0.0002528214
-2.232791	between	-0.03047019
-4.488064	bna	0.03558515
-3.886004	boeing	-0.004609355
-3.198029	book	0.01556332
-3.943996	booking	-0.002261783
-1.761744	boston	-0.05436876
-3.886004	both	-0.002204566
-4.311973	bound	0.03167086
-3.374121	breakfast	0.03279357
-4.488064	bring	-0.0009168265
-4.488064	bur	0.03558515
-3.391154	burbank	0.09430157
-3.466875	business	-0.008321313
-3.834852	but	0.001445213
-4.311973	buy	0.004978673
-3.584974	bwi	0.07739377
-3.048731	by	-0.02604084
-4.311973	c	0.0351169
-3.27058	california	0.08002351
-4.488064	calling	0.02603282
-2.692184	can	-0.004468169
-3.943996	canada	0.06422486
-3.747701	canadian	-0.002138213
-4.488064	capacities	0.001738205
-3.747701	capacity	0.03639766
-3.408883	car	0.03257404
-3.675151	carolina	0.0880121
-4.311973	carries	0.01357971
-4.187034	cars	0.04079368
-4.488064	catch	-0.0005143064
-4.488064	charges	0.001610392
-2.789094	charlotte	0.1138295
-4.090124	cheap	0.02339446
-2.468948	cheapest	0.02260412
-2.784773	chicago	0.05560629
-4.187034	choices	0.0008022252
-3.165845	cincinnati	0.06954443
-3.427366	cities	0.03180395
-2.494628	city	0.03319176
-2.483743	class	0.04290394
-3.642966	classes	0.002610131
-2.950245	cleveland	0.07041843
-4.187034	close	0.02956589
-4.488064	closest	0.03050187
-4.187034	co	-0.0019695
-3.220892	coach	0.05282583
-2.919862	code	-0.00285545
-3.886004	codes	0.03054451
-3.747701	colorado	0.06764954
-3.283944	columbus	0.06849793
-4.488064	come	0.02603282
-4.010943	coming	0.02477706
-4.488064	companies	0.001007338
-4.488064	concerning	0.0002706213
-4.090124	connect	0.01184353
-3.466875	connecting	0.1353157
-4.311973	connection	0.0009777817
-4.187034	connections	0.0369521
-4.488064	connects	0.005139028
-4.488064	continent	0.004631137
-2.802322	continental	0.07803216
-4.488064	continuing	0.03050187
-2.950245	cost	0.09767454
-4.010943	costs	0.004819866
-3.090124	could	-0.01640689
-3.584974	county	0.06486713
-4.488064	cover	0.01656849
-4.311973	cp	-0.001349775
-4.488064	currently	0.00041928
-4.488064	d/s	-0.0008179964
-4.488064	d10	0.03558515
-4.488064	d9s	0.03558515
-3.187034	daily	0.07887384
-1.974846	dallas	0.003900021
-4.311973	database	0.0351169
-4.488064	date	-0.0005566945
-3.257615	day	0.1160709
-4.010943	days	0.06815831
-2.624741	dc	0.09781644
-4.187034	dc10	0.03450197
-3.283944	december	0.05443344
-4.187034	define	-0.001238283
-2.743771	delta	0.1209062
-4.187034	delta's	0.0151189
-1.793898	denver	-0.08202675
-3.20931	depart	0.09572022
-3.135881	departing	0.06437322
-4.090124	departs	0.01028519
-3.789094	departure	0.02977584
-4.090124	departures	0.03173208
-4.187034	describe	0.005487561
-4.488064	designate	-0.0007615121
-4.090124	destination	0.003242145
-4.488064	determine	0.008018753
-3.245026	detroit	0.08161063
-3.834852	dfw	0.04872708
-2.834852	diego	0.1029922
-4.311973	difference	0.00114215
-4.187034	different	0.006108941
-3.488064	dinner	0.06413006
-4.311973	dinnertime	0.03494667
-3.374121	direct	0.02032237
-4.488064	directly	0.02603282
-4.488064	discount	0.0008726524
-3.584974	display	0.01368384
-3.886004	distance	0.02547333
-3.466875	dl	0.05034235
-2.806823	do	-0.0007722043
-2.460714	does	-0.0627827
-4.488064	doesn't	0.03558515
-3.073091	dollars	0.05402082
-4.488064	don't	0.0001786189
-2.950245	downtown	0.138124
-4.311973	dulles	0.04103542
-3.943996	during	0.01681152
-4.010943	ea	0.04905284
-3.943996	each	0.009575212
-4.311973	earlier	-0.001046129
-2.624741	earliest	-0.02124492
-2.844611	early	0.02520806
-3.427366	eastern	0.002597444
-4.488064	economic	0.0004900881
-3.220892	economy	0.03933884
-4.311973	eight	0.03468553
-4.010943	eighteenth	0.03578745
-3.466875	eighth	0.03531888
-3.675151	either	0.04820146
-4.488064	eleven	-0.0006202689
-3.675151	eleventh	0.05997516
-4.488064	else	-0.0009168265
-4.488064	enroute	0.0002140019
-4.488064	equal	0.03050187
-4.488064	equipment	0.003752671
-2.732189	evening	0.09309866
-4.488064	everywhere	-0.000860355
-3.789094	ewr	0.03143562
-3.090124	expensive	0.01109489
-3.747701	explain	0.01077055
-3.613003	express	0.01092844
-4.488064	eye	0.007413936
-3.709913	f	0.03644367
-4.187034	f28	0.06359842
-3.886004	far	0.02775409
-2.380854	fare	0.03286002
-2.553566	fares	0.02674849
-3.943996	february	-0.002419304
-4.010943	ff	0.03363717
-3.297732	field	0.08750544
-4.488064	fifteen	0.03558515
-3.533822	fifteenth	0.06695157
-3.446671	fifth	0.06520624
-4.488064	final	-0.0009027093
-2.702734	find	0.04261803
-4.488064	fine	-5.483645e-05
-2.403488	first	0.07036246
-4.187034	fit	0.008786544
-3.613003	flies	0.02149773
-1.720166	flight	-0.1954549
-1.403309	flights	-0.349388
-3.675151	florida	0.06613961
-2.349761	fly	0.09437384
-3.326696	flying	0.1043753
-4.187034	fn	0.03419308
-4.090124	following	-0.0007967465
-2.346614	for	0.07340731
-2.834852	fort	-0.03968861
-4.311973	four	0.008668798
-3.789094	fourteenth	0.03454789
-3.446671	fourth	0.0348676
-1.851075	francisco	-0.0276041
-2.834852	friday	0.08956837
-4.488064	friday's	0.01656849
-4.488064	fridays	0.03558515
-4.311973	friends	0.03234238
-1.220306	from	-0.6078171
-3.311973	general	-0.01364984
-4.090124	georgia	0.03514252
-3.090124	get	0.06084754
-4.488064	gets	0.005139028
-2.558645	give	-0.05968994
-2.655555	go	0.02010116
-3.446671	goes	0.06372314
-2.96955	going	0.04280987
-4.488064	got	-0.0009238849
-4.187034	great	-0.002531596
-4.488064	greatest	-0.0008674143
-2.440789	ground	-0.06537385
-4.488064	grounds	0.0005467435
-3.747701	guardia	0.06862813
-3.747701	h	0.03138903
-4.488064	hartfield	0.03558515
-3.446671	has	0.04153931
-2.529023	have	0.1282025
-4.488064	having	-0.0009027093
-4.187034	heading	0.02911131
-4.090124	hello	0.003777484
-4.090124	help	0.00751693
-4.311973	here	0.004265448
-3.789094	hi	0.001336879
-4.311973	highest	0.001098578
-4.488064	hold	0.03558515
-4.488064	home	0.03558515
-4.488064	hopefully	0.005446914
-4.488064	hou	-0.0005778871
-3.886004	hours	0.04481413
-2.854595	houston	0.1036001
-2.655555	how	-0.0282409
-3.886004	hp	0.03278324
-1.931159	i	-0.2431381
-2.442741	i'd	-0.08979922
-4.010943	i'll	-0.002128651
-3.098898	i'm	-0.01928331
-4.488064	i've	-0.0009238849
-4.488064	iah	-0.0005778871
-3.747701	if	0.002322583
-1.857128	in	-0.1107977
-4.187034	include	0.004819
-4.488064	includes	-0.0007968157
-4.488064	including	-0.000909768
-4.488064	indiana	0.001291024
-2.870016	indianapolis	0.06813574
-4.488064	inexpensive	0.007413936
-4.488064	inform	0.008047574
-2.671823	information	0.05453194
-4.488064	instead	0.001738205
-4.488064	intercontinental	0.03558515
-3.466875	interested	-0.003672373
-3.145641	international	0.05363805
-3.198029	into	0.03584442
-1.968892	is	-0.1591818
-3.283944	it	0.04312221
-4.488064	it's	0.009722523
-4.311973	itinerary	0.00277186
-4.488064	j31	-0.0004436504
-3.789094	january	-0.001867131
-3.747701	jersey	0.06521623
-4.488064	jet	0.007413936
-4.010943	jfk	0.0677171
-3.107853	jose	0.08516139
-2.834852	july	-0.008421171
-3.0567	june	-0.02714405
-4.311973	just	0.009928925
-4.488064	k	0.03558515
-2.87528	kansas	-0.03549505
-3.311973	kind	-0.01118543
-4.488064	kindly	0.0002635432
-4.187034	kinds	0.0008022252
-3.155626	know	0.03334111
-3.391154	la	0.07501289
-2.976181	lake	0.008075016
-4.090124	land	-0.001189213
-4.311973	landing	0.01501365
-3.834852	landings	-0.001558166
-4.488064	lands	0.0002140019
-4.488064	largest	-0.0008674143
-2.743771	las	-0.04842678
-3.257615	last	-0.005811877
-4.311973	lastest	-0.001480569
-3.446671	late	0.04970037
-3.943996	later	0.02000155
-2.937836	latest	0.0005371273
-4.488064	lax	-0.0008179964
-4.488064	laying	-0.0008815326
-3.834852	layover	0.001871887
-3.17631	least	-0.01894228
-2.60725	leave	0.1266219
-3.116996	leaves	0.06189196
-2.290783	leaving	0.006557673
-3.187034	less	-0.01802547
-4.488064	lester	-0.0009238849
-4.488064	let	0.008047574
-4.010943	let's	-0.002383618
-4.488064	level	0.03558515
-2.104249	like	-0.09148467
-4.311973	limo	0.004501748
-3.613003	limousine	0.03248575
-4.488064	limousines	-0.0004012511
-2.145641	list	-0.1006931
-4.488064	listed	-0.0007897551
-3.642966	listing	-0.003847653
-4.488064	listings	0.001738205
-3.789094	live	0.001407152
-4.311973	lives	0.004670787
-4.488064	local	-0.0006343953
-4.488064	locate	0.01656849
-4.311973	located	0.0351169
-3.886004	logan	0.07339435
-3.135881	long	-0.01508483
-4.488064	longest	-0.0009027093
-4.311973	look	0.002714791
-3.408883	looking	0.02195263
-2.96955	los	-0.02946583
-3.145641	louis	0.1114179
-3.297732	love	-0.0140973
-3.220892	lowest	-0.01452628
-4.488064	ls	-0.0008179964
-4.010943	lufthansa	0.05805985
-3.709913	lunch	0.03910109
-4.311973	m	0.03503887
-4.311973	m80	0.0351169
-3.35773	make	0.01991542
-3.789094	makes	0.001715038
-4.010943	making	0.003576968
-3.040906	many	-0.0008654557
-3.834852	march	-0.002729566
-4.187034	maximum	-0.002153131
-3.064818	may	0.0153749
-3.789094	mco	0.03758714
-1.688723	me	-0.09415221
-3.198029	meal	0.0745987
-3.747701	meals	0.04659104
-4.488064	mealtime	0.03558515
-3.081524	mean	0.01321507
-4.187034	meaning	0.0008022252
-3.048731	memphis	0.07303004
-4.488064	mia	0.03558515
-2.724636	miami	0.09190926
-4.311973	michigan	0.03745847
-4.010943	midnight	0.03529296
-4.311973	midway	0.00158966
-3.613003	midwest	-0.006880235
-2.699189	milwaukee	0.05336237
-4.488064	minimum	-0.0009168265
-3.107853	minneapolis	0.08210018
-4.187034	minnesota	0.05154412
-4.311973	missouri	0.03003363
-3.311973	mitchell	0.02310561
-2.630732	monday	0.06502391
-4.488064	mondays	0.03558515
-4.311973	month	0.001269963
-3.0567	montreal	0.1078328
-4.090124	more	0.01460036
-2.328196	morning	0.0833586
-4.010943	mornings	0.06266446
-3.533822	most	-0.009616366
-3.116996	much	0.002169769
-4.488064	must	-0.0007615121
-3.789094	my	0.001258957
-4.010943	name	0.05212465
-4.311973	names	0.001269963
-3.090124	nashville	0.06791468
-4.010943	nationair	0.05818715
-4.090124	near	-0.0003350899
-2.483743	need	0.0001747832
-4.488064	nevada	0.001645891
-2.582268	new	-0.06947613
-2.75971	newark	0.06281458
-2.839704	next	-0.030121
-3.27058	night	0.0751941
-4.488064	nights	0.03558515
-4.488064	nighttime	-0.0008674143
-3.834852	nineteenth	0.06362489
-3.558645	ninth	0.06622328
-3.834852	no	0.03376564
-4.488064	non	0.0007805226
-2.633758	nonstop	0.06015646
-4.311973	nonstops	0.02556458
-2.739876	noon	0.044492
-4.187034	noontime	0.06359842
-3.675151	north	-0.005969341
-3.283944	northwest	0.01397247
-3.232791	november	0.01883603
-3.297732	now	0.05246987
-3.446671	number	0.06411641
-3.943996	numbers	0.06484456
-4.187034	nw	0.03430994
-2.789094	o'clock	0.08428586
-4.488064	o'hare	-0.0006202689
-4.488064	oak	0.004631137
-2.403488	oakland	0.1118117
-3.675151	october	-0.005384757
-2.211602	of	-0.04328427
-4.488064	off	0.004631137
-3.943996	offer	0.01231347
-4.488064	offered	0.004631137
-4.187034	offers	0.05725294
-4.488064	oh	-0.0008956505
-4.010943	ohio	0.07966185
-3.198029	okay	0.03043553
-1.615325	on	-0.2132292
-4.488064	once	0.004180969
-2.57425	one	0.03929473
-4.488064	one's	-0.000909768
-3.642966	only	0.09091084
-3.51034	ontario	0.06123231
-4.488064	operating	0.009722523
-4.488064	operation	0.0002140019
-4.187034	options	0.027474
-2.90828	or	0.1084592
-4.311973	ord	0.03503887
-4.488064	order	0.03558515
-4.311973	originate	0.02516992
-4.187034	originating	0.004203049
-2.834852	orlando	0.06646842
-3.533822	other	0.01416056
-3.374121	out	0.0575969
-3.886004	over	0.003035615
-4.488064	overnight	0.01656849
-4.090124	passengers	0.03423342
-3.245026	paul	0.07485848
-4.488064	pearson	2.296828e-05
-4.090124	pennsylvania	0.04532061
-3.886004	people	0.02893785
-3.081524	petersburg	0.07144106
-2.019717	philadelphia	-0.01966892
-4.311973	philly	0.0351169
-2.793459	phoenix	0.05043134
-1.95277	pittsburgh	-0.06041224
-4.488064	place	0.03558515
-4.187034	plan	0.004510935
-3.584974	plane	0.03544708
-3.834852	planes	0.006778885
-4.488064	planning	0.005446914
-2.303373	please	-0.01746231
-3.283944	pm	0.07657748
-3.391154	possible	0.07324122
-4.488064	prefer	0.005446914
-4.488064	preferably	-0.0004436504
-3.488064	price	0.07359998
-4.488064	priced	0.0008726524
-3.488064	prices	0.07015239
-4.488064	proper	0.03558515
-4.187034	provide	0.03470065
-4.010943	provided	-0.002419576
-4.488064	provides	-0.0007897551
-4.488064	put	0.008047574
-3.943996	q	0.03963893
-3.943996	qo	-0.002914065
-4.488064	qualify	0.001021518
-4.311973	quebec	0.03003363
-4.488064	question	0.003752671
-3.943996	qw	0.03876734
-3.675151	qx	0.03750909
-4.311973	rate	-5.117664e-05
-4.090124	rates	0.005850463
-4.488064	reaches	-0.0002245435
-4.311973	reaching	-0.000844292
-4.488064	red	-0.0009238849
-4.488064	regarding	0.006199648
-4.010943	rent	0.003576968
-3.533822	rental	-0.003008897
-4.187034	rentals	0.007009479
-4.311973	repeat	0.01840973
-4.488064	repeating	0.001291024
-4.488064	represented	0.005139028
-4.090124	requesting	0.006010721
-4.187034	reservation	0.02671245
-4.311973	reservations	0.02556458
-3.427366	restriction	0.02278788
-4.311973	restrictions	0.009254281
-3.297732	return	0.1292934
-3.558645	returning	0.05714172
-4.488064	reverse	0.01404795
-3.789094	right	0.006545837
-2.481598	round	-0.0850603
-4.488064	route	0.03558515
-4.488064	run	-0.0006555839
-4.488064	runs	0.02603282
-4.488064	s	0.03558515
-4.311973	s/	-0.00174188
-4.187034	sa	0.03464917
-2.976181	salt	-0.02903444
-3.533822	same	-0.001608566
-1.787793	san	-0.3127533
-2.806823	saturday	0.1382401
-4.090124	saturdays	0.06313119
-4.311973	say	-0.001346322
-4.488064	scenario	-0.000909768
-3.391154	schedule	0.04391974
-4.488064	scheduled	0.001021518
-4.311973	schedules	0.02556458
-4.488064	sd/d	0.03558515
-4.488064	seat	0.009722523
-3.789094	seating	-0.005047874
-4.090124	seats	0.03062915
-2.859675	seattle	0.09329152
-3.283944	second	0.06508999
-3.0567	see	0.02508194
-3.27058	september	-0.01610195
-3.27058	serve	0.01426813
-3.488064	served	0.03792776
-3.283944	serves	0.03459432
-3.165845	service	0.1436708
-4.311973	serviced	-0.001017872
-4.187034	services	0.01235462
-3.886004	serving	0.00415202
-4.488064	seven	0.03558515
-4.488064	seventeen	0.02603282
-3.789094	seventeenth	0.03255161
-2.844611	seventh	0.1141328
-3.943996	sfo	0.06708923
-3.789094	shortest	0.02511475
-3.709913	should	6.68643e-05
-1.767078	show	-0.2765945
-4.488064	single	-0.0003023038
-4.090124	six	0.03519644
-4.090124	sixteen	0.06325123
-3.789094	sixteenth	0.06280435
-3.584974	sixth	0.07752565
-3.709913	smallest	-0.006175008
-4.311973	snack	0.0351169
-4.090124	so	0.001352041
-3.834852	some	-0.003621967
-4.488064	somebody	-0.0009238849
-4.010943	sometime	0.004448697
-4.311973	soon	-0.0002354211
-4.187034	sorry	0.003132466
-4.488064	sort	0.001738205
-4.488064	sounds	-0.000909768
-4.010943	southwest	0.03671614
-4.488064	spend	-0.000606142
-2.681884	st.	-0.05630814
-3.558645	stand	-0.00594965
-4.187034	stands	8.553872e-05
-4.311973	stapleton	-0.0006036777
-4.488064	start	0.02603282
-4.010943	starting	0.03093649
-4.488064	staying	-0.0004507164
-4.488064	still	-0.000719144
-2.815966	stop	0.0157316
-3.003764	stopover	0.01573469
-4.010943	stopovers	0.008447447
-3.427366	stopping	-0.004303928
-3.341936	stops	0.1144316
-4.488064	straight	-0.0008109363
-4.488064	such	0.005446914
-4.488064	summer	0.03558515
-2.728396	sunday	0.137319
-4.311973	sunday's	0.01610025
-4.187034	sundays	0.03464917
-4.488064	supper	-0.0007968157
-4.311973	sure	0.004831352
-4.488064	symbols	-0.0008179964
-3.17631	tacoma	0.07683343
-3.391154	take	0.1001462
-4.311973	takeoff	0.03102322
-3.943996	takeoffs	0.002294959
-4.488064	takes	0.01404795
-4.311973	taking	-0.00160065
-3.081524	tampa	0.06736406
-4.187034	taxi	0.02420187
-2.854595	tell	-0.02962385
-4.187034	ten	-0.001817512
-4.187034	tennessee	0.07458238
-3.675151	tenth	0.0382299
-4.187034	texas	0.06848942
-3.081524	than	-0.0300256
-3.789094	thank	-0.003100137
-4.488064	thanks	0.004631137
-2.226801	that	-0.08501057
-4.488064	that's	-0.0005637588
-1.469571	the	-0.4349107
-4.010943	their	-0.001007853
-4.488064	them	-0.0009168265
-3.584974	then	0.06715567
-2.427366	there	0.08436927
-4.488064	thereafter	-0.0007615121
-4.010943	these	0.01473613
-4.311973	they	0.002458074
-4.488064	thing	0.005139028
-3.326696	third	0.0974113
-4.311973	thirteenth	0.03472393
-3.613003	thirtieth	0.04862087
-3.834852	thirty	-0.002486619
-3.466875	this	0.03888978
-4.090124	those	0.05247099
-4.187034	three	0.03520881
-4.010943	thrift	-0.001204734
-3.533822	through	0.03782585
-2.627726	thursday	0.08561487
-4.187034	thursdays	0.03464917
-3.090124	ticket	0.09951452
-3.675151	tickets	0.03718824
-3.155626	time	0.1406693
-3.374121	times	0.1055895
-1.155929	to	-0.5831293
-3.558645	today	0.06465684
-2.943996	tomorrow	0.05660031
-4.488064	tonight	0.02603282
-4.311973	too	0.03488521
-2.825306	toronto	0.09720643
-4.090124	total	-0.002878747
-4.488064	toward	0.006644732
-4.311973	tower	-0.0007846825
-4.488064	town	0.03558515
-4.311973	train	0.03003363
-4.488064	trans	-0.0009238849
-4.311973	transcontinental	0.006945695
-3.709913	transport	0.04950988
-2.466875	transportation	0.09439328
-3.155626	travel	0.04250938
-3.834852	traveling	0.06919856
-4.488064	travels	0.02603282
-2.44865	trip	0.09482164
-4.187034	trips	0.02509684
-4.488064	try	-0.0006979583
-3.943996	trying	0.02816569
-2.652373	tuesday	0.1430487
-4.090124	tuesdays	0.06328574
-4.187034	turboprop	0.05325605
-3.064818	twa	0.1308007
-3.709913	twelfth	0.04188555
-4.488064	twelve	0.03558515
-3.488064	twentieth	0.117147
-2.706309	twenty	-0.01563481
-3.51034	two	0.03770886
-3.116996	type	-0.01799515
-3.613003	types	-0.0006808634
-3.51034	ua	0.02506228
-3.709913	under	-0.004971153
-2.646079	united	0.07110788
-4.311973	up	0.02673517
-2.839704	us	0.005903747
-4.488064	usa	-0.0003164406
-3.886004	use	0.04639069
-3.27058	used	0.1028288
-3.886004	uses	0.04863923
-3.533822	using	0.009328303
-4.311973	utah	0.04021812
-4.311973	various	-0.001692455
-2.739876	vegas	0.05251901
-4.311973	very	-0.001515891
-3.51034	via	0.007432812
-4.488064	vicinity	0.001738205
-4.488064	visit	0.008047574
-2.590437	want	-0.008292377
-4.488064	wanted	0.03050187
-4.488064	wants	0.03050187
-2.25634	washington	0.04546575
-2.601573	way	0.1124781
-4.187034	we're	-0.001407893
-2.431159	wednesday	0.06107668
-4.488064	wednesday's	0.01656849
-3.613003	wednesdays	0.03645249
-3.51034	week	0.03929867
-3.789094	weekday	0.0614005
-4.090124	weekdays	0.03584403
-4.187034	well	-0.002248994
-4.187034	west	0.03476328
-3.533822	westchester	-0.003490558
-1.690104	what	-0.2988385
-4.010943	what're	0.012178
-2.87528	what's	-0.01366508
-3.789094	when	0.00907814
-3.642966	where	0.01911346
-4.488064	whether	-0.000860355
-2.546056	which	-0.02833976
-4.488064	while	-0.0005920148
-4.311973	who	-0.0008796649
-3.488064	will	-0.002255844
-4.187034	wish	0.02956589
-2.519581	with	-0.02036948
-4.311973	within	0.01815096
-4.311973	without	-0.0004974819
-4.488064	working	0.009722523
-4.488064	world	-0.0003023038
-2.834852	worth	0.1153143
-2.349761	would	-0.1012904
-3.789094	y	0.00905871
-4.488064	year	-0.0007897551
-3.886004	yes	0.02161175
-3.886004	yn	0.03246399
-2.615908	york	0.04120713
-4.311973	york's	-0.001212033
-2.442741	you	-0.03397215
-3.558645	your	0.01001652
-4.488064	yyz	0.03558515
-4.488064	zone	0.003752671

\2-grams:
-2.490427	/ dl
-2.66605	0900 </s>
-2.668386	1 </s>
-2.668386	1 in
-2.270446	1 o'clock	0.005822434
-2.668852	10 in
-2.124784	10 o'clock	0.006294197
-2.490427	100 </s>
-1.547273	1000 dollars	0.007513673
-2.66605	1017 in
-2.66605	1020pm </s>
-2.66605	1024 in
-2.66605	1026 </s>
-2.66605	1030am and
-2.666518	1039 from
-2.666518	1039 on
-2.66605	1045am </s>
-2.66605	1055 /
-2.66605	1059 </s>
-2.66605	106 from
-2.66605	1083 from
-1.729705	10am </s>
-1.984977	10am and	-0.00165194
-2.683947	10am any
-2.683947	10am boston
-2.683947	10am first
-2.507856	10am in	0.06460627
-2.683947	10am local
-2.206826	10am on	0.0141464
-2.382917	10am what	0.004949641
-2.016569	10pm </s>
-2.669782	10pm on
-2.66605	11 o'clock
-2.124318	1100 dollars	0.01303076
-2.66605	110pm on
-2.490427	1110 in	0.06460627
-2.269513	1115am and	-0.001068744
-2.66605	1130am </s>
-2.66605	1133am and
-2.490427	1145am </s>
-2.66605	1158pm what
-2.366423	11am </s>
-2.667453	11am on
-2.490427	11pm </s>
-1.942234	12 and	-0.00232974
-1.728354	12 noon	0.02565649
-1.942234	12 o'clock	0.005624927
-2.66605	1200 hours
-2.66605	1205 in
-2.66605	1209 </s>
-2.66605	1220pm and
-2.490427	1222 from	0.002930139
-2.66605	1230pm </s>
-2.66605	124 dollars
-2.269513	1245pm </s>
-2.66605	1288 </s>
-2.490895	1291 from
-2.666986	1291 round
-2.273233	12pm </s>
-2.127105	12pm less	0.0151114
-2.671173	12pm on
-2.671173	12pm to
-2.66605	130 in
-2.66605	1300 hours
-2.66605	137338 </s>
-2.66605	139 </s>
-2.66605	150 dollars
-2.66605	1500 dollars
-2.66605	1505 from
-2.66605	1600 hours
-2.66605	163 </s>
-2.666518	1700 hours
-2.666518	1700 on
-2.490427	1765 from	0.05575569
-2.66605	1850 and
-2.66605	19 from
-2.66605	1940 </s>
-1.745442	1991 </s>
-2.674861	1991 carries
-2.49877	1991 from
-2.674861	1991 i'd
-2.667453	1992 </s>
-2.366423	1992 from	0.05575721
-2.66605	1993 </s>
-2.124784	1pm </s>
-2.668852	1pm leaving
-2.668852	2 </s>
-2.668852	2 first
-2.49276	2 in	0.06460627
-2.367822	2 o'clock
-2.66605	200 dollars
-2.666518	201 </s>
-2.666518	201 from
-2.365956	21 </s>
-2.66605	210 </s>
-2.269513	2100 </s>
-2.66605	210pm </s>
-2.66605	212 from
-2.490427	2134 </s>
-2.66605	2153 from
-2.66605	217 from
-2.66605	225pm arriving
-2.66605	229 from
-2.66605	230 on
-2.365956	230pm </s>
-2.66605	257 </s>
-2.666518	269 leaving
-2.666518	269 please
-2.365956	270 from	0.03705874
-2.66605	271 from
-2.66605	279 or
-2.124318	281 from	0.05388776
-2.666986	296 denver
-2.666986	296 from
-2.666986	296 serves
-2.66605	297 from
-1.798881	2pm </s>
-2.673942	2pm and
-2.673942	2pm from
-2.673942	2pm next
-2.673942	2pm on
-2.669782	3 and
-2.49369	3 in	0.06460627
-2.271842	3 o'clock	0.01062549
-2.49369	3 stops	0.0004204445
-2.66605	300 dollars
-2.66605	305 in
-2.66605	311 </s>
-2.66605	315 </s>
-2.66605	323 /
-2.66605	324 on
-2.66605	324pm </s>
-2.66605	329 dollars
-2.66605	3357 from
-2.490427	343 from	0.05575569
-2.66605	345 from
-2.66605	352 from
-2.490427	3724 baltimore	0.06742224
-2.19266	3pm </s>
-2.49369	3pm between
-2.669782	3pm from
-2.669782	3pm on
-2.275542	4 and	-0.0008542825
-2.020269	4 in	0.06180738
-2.19636	4 o'clock
-2.66605	400 dollars
-2.66605	402 from
-2.66605	405 </s>
-2.666986	415 and
-2.666986	415 dollars
-2.666986	415 from
-2.66605	416 dollars
-2.66605	417 from
-2.66605	420 what
-2.66605	428 what
-2.66605	430 and
-2.366423	430pm </s>
-2.667453	430pm and
-2.66605	43pm </s>
-2.66605	4400 from
-2.66605	445 and
-2.66605	459 depart
-2.066792	466 dollars	0.01441506
-2.66605	497766 from
-1.830222	4pm </s>
-2.499229	4pm and
-2.198199	4pm on	0.02795872
-2.67532	4pm or
-2.678518	5 </s>
-2.502427	5 and
-2.377488	5 in	0.06413854
-1.617821	5 o'clock	0.02367445
-2.66605	500 dollars
-2.666518	505 from
-2.666518	505 or
-2.66605	515pm </s>
-2.666518	530 </s>
-2.666518	530 and
-2.365956	530pm </s>
-2.66605	539 </s>
-2.490895	555 </s>
-2.666986	555 what
-1.43448	5pm </s>
-2.689753	5pm and
-2.689753	5pm but
-2.689753	5pm can
-2.689753	5pm it
-2.689753	5pm next
-2.689753	5pm nonstop
-1.990783	5pm on	0.06206564
-2.689753	5pm or
-2.513661	5pm the	0.005277578
-2.674861	6 </s>
-2.674861	6 and
-2.674861	6 in
-1.720619	6 o'clock	0.01690702
-2.66605	615pm </s>
-2.66605	630 </s>
-2.490895	630am </s>
-2.666986	630am flight
-2.490427	630pm </s>
-2.66605	645am going
-2.66605	650 </s>
-1.586137	6pm </s>
-2.205926	6pm and
-2.683047	6pm between
-2.683047	6pm next
-2.080987	6pm on	0.03869619
-2.36968	7 in	0.06413854
-2.017497	7 o'clock	0.007388182
-2.66605	705 to
-2.66605	71 from
-2.491362	718am </s>
-2.667453	718am american
-2.667453	718am flight
-2.490427	720am </s>
-2.66605	723pm </s>
-2.666518	727 from
-2.666518	727 i
-2.666518	72s </s>
-2.666518	72s airplane
-2.66605	730pm </s>
-2.66605	733 </s>
-2.66605	734 </s>
-2.490895	737 </s>
-2.666986	737 hold
-2.66605	73s </s>
-2.66605	746 cost
-2.66792	747 from
-2.66792	747 leaving
-2.66792	747 on
-2.491828	747 that	0.0002803395
-2.66605	755 flight
-2.66605	755am flight
-2.490427	757 arriving
-2.490427	767 </s>
-2.66605	771 pittsburgh
-2.366423	7am </s>
-2.667453	7am on
-1.725639	7pm </s>
-2.679882	7pm and
-2.281942	7pm from
-2.679882	7pm in
-2.135814	7pm next	0.01289418
-2.503791	7pm please	0.01733801
-2.371991	8 </s>
-2.49693	8 in	0.06460627
-1.89487	8 o'clock	0.0260193
-2.66605	810pm leaving
-2.365956	813 from	0.05528796
-2.66605	815am </s>
-2.66605	819 flight
-2.66605	82 and
-2.66605	823 in
-2.667453	825 flying
-2.491362	825 from	0.02929461
-2.667453	825 leaving
-2.666986	838 </s>
-2.666986	838 and
-2.666986	838 make
-2.666518	838am and
-2.666518	838am which
-2.490427	845 in	0.06460627
-2.666518	852 </s>
-2.666518	852 from
-2.0705	8am </s>
-2.67256	8am flight
-2.496468	8am from
-2.67256	8am is
-2.37153	8am on	0.009043086
-2.67256	8am tuesday
-1.975891	8pm </s>
-2.674861	8pm and
-2.674861	8pm before
-2.674861	8pm for
-2.674861	8pm friday
-2.674861	8pm in
-2.49877	8pm monday	0.001446946
-2.49877	8pm on
-2.674861	8pm tomorrow
-2.674861	8pm wednesday
-2.669782	9 hours
-2.016569	9 o'clock	0.006624033
-2.66605	928 from
-2.490427	932 dollars	0.0148987
-2.365956	934pm </s>
-2.66605	98 </s>
-1.932658	9am </s>
-2.673021	9am during
-2.673021	9am in
-2.49693	9am on
-2.673021	9am tell
-2.673021	9am thursday
-2.270446	9pm </s>
-2.668386	9pm from
-2.668386	9pm on
-3.468938	<s> 630am
-99	<s> <s>	0
-2.866878	<s> a	0.003648234
-3.468938	<s> actually
-3.292846	<s> afternoon
-3.468938	<s> again
-3.167908	<s> airline
-3.468938	<s> airlines
-3.167908	<s> airports	0.001349792
-1.937459	<s> all	0.09402425
-3.070998	<s> also	-2.977706e-05
-3.292846	<s> am	0.001342464
-2.690787	<s> american	0.05058642
-3.292846	<s> an
-2.866878	<s> and	2.467539e-06
-3.468938	<s> anything
-2.053964	<s> are	0.01619502
-3.070998	<s> atlanta	0.08387305
-3.167908	<s> baltimore	0.06695451
-3.468938	<s> before
-3.468938	<s> between
-2.991817	<s> boston	0.1390576
-3.468938	<s> bring
-1.906645	<s> can	0.01138075
-2.769968	<s> cheapest	0.03537309
-3.292846	<s> chicago	0.01630489
-3.292846	<s> coach
-3.468938	<s> code
-3.468938	<s> continental
-2.178903	<s> could	0.004457824
-3.468938	<s> daily
-2.92487	<s> dallas	0.05862331
-3.167908	<s> define	0
-3.167908	<s> delta	0.007019732
-3.167908	<s> denver	0.09708299
-3.167908	<s> describe
-2.565848	<s> display	0
-3.468938	<s> dl
-2.136499	<s> do	0.01663352
-1.957054	<s> does	0.02291567
-3.292846	<s> earliest	0.04837985
-3.468938	<s> early
-3.292846	<s> eastern
-3.468938	<s> economy
-3.468938	<s> evening
-2.769968	<s> explain	-4.510395e-06
-3.468938	<s> fare
-2.991817	<s> fares	0.0005119301
-1.957054	<s> find	0.01963659
-3.468938	<s> fine
-2.769968	<s> first	0.05716352
-2.190184	<s> flight	0.1817122
-1.673058	<s> flights	0.2651003
-3.292846	<s> fly	0.07088129
-3.292846	<s> flying	0.007795255
-3.468938	<s> for
-3.468938	<s> friday's
-2.32281	<s> from	0.07493874
-3.468938	<s> get
-1.744662	<s> give	0.02474921
-3.468938	<s> great
-2.278606	<s> ground	0.07667604
-3.070998	<s> hello	0
-2.769968	<s> hi	0
-3.292846	<s> houston	-0.0001156196
-1.669597	<s> how	0.003640864
-1.033571	<s> i	0.01167734
-1.539519	<s> i'd	0.01968106
-3.468938	<s> i'll
-2.190184	<s> i'm	0.002586395
-2.728575	<s> in	0.06461831
-2.491214	<s> information	0.02897913
-3.468938	<s> instead
-3.468938	<s> interested
-1.810926	<s> is	0.1062169
-3.468938	<s> july
-3.468938	<s> kindly
-3.468938	<s> last
-3.468938	<s> latest
-3.468938	<s> leave
-3.292846	<s> leaving
-3.292846	<s> let's
-3.468938	<s> like
-1.341833	<s> list	0.03116909
-3.468938	<s> listing
-3.468938	<s> locate
-2.866878	<s> looking	0.006915316
-3.167908	<s> lowest	0.003577486
-2.62384	<s> may	0.0006399238
-3.468938	<s> minneapolis
-2.92487	<s> morning	0.01939942
-3.292846	<s> my
-3.468938	<s> name
-3.468938	<s> names
-3.292846	<s> need
-2.991817	<s> newark	0.0165546
-3.468938	<s> next
-3.468938	<s> no
-2.866878	<s> nonstop	0.02660544
-3.468938	<s> northwest
-2.427545	<s> now	0.001769219
-3.070998	<s> oakland	0.01821644
-3.292846	<s> of
-3.468938	<s> oh
-2.178903	<s> okay	0
-2.190184	<s> on	0.1076735
-3.292846	<s> one	0.05561826
-3.468938	<s> only
-2.728575	<s> philadelphia	0.0597604
-3.167908	<s> phoenix	0.01675697
-2.866878	<s> pittsburgh	0.0854218
-1.445685	<s> please	0.005417056
-3.292846	<s> pm	0.0008687463
-3.292846	<s> price	0.004609653
-3.167908	<s> rental	0.0004413731
-3.468938	<s> repeating
-3.292846	<s> requesting	0.0009349729
-3.468938	<s> return
-2.389756	<s> round	0.07363664
-2.991817	<s> san	0.2565837
-3.167908	<s> saturday	0.0007273072
-3.468938	<s> sfo
-2.991817	<s> shortest	0.0009269579
-0.7913309	<s> show	0.02160031
-3.468938	<s> sunday
-3.468938	<s> sunday's
-3.292846	<s> sure
-2.338604	<s> tell	0.02611421
-3.070998	<s> thank	0.002328662
-3.468938	<s> thanks
-2.92487	<s> the	0.02828504
-3.468938	<s> then
-3.292846	<s> train	0
-3.468938	<s> tuesday
-3.167908	<s> united	0.03472879
-2.866878	<s> us	0.03056446
-3.468938	<s> very
-3.468938	<s> we're
-3.167908	<s> wednesday	0.01004482
-3.468938	<s> weekday
-3.468938	<s> well
-0.6995605	<s> what	0.009098202
-2.991817	<s> what're	0
-1.906645	<s> what's	0.0006352887
-2.866878	<s> when	-3.999332e-06
-2.728575	<s> where	-1.649978e-05
-1.900736	<s> which	0.003097586
-3.468938	<s> while
-3.292846	<s> would	4.38228e-05
-2.866878	<s> yes	0
-2.959757	a 100
-2.959757	a 124
-2.959757	a 4
-2.959757	a 727
-2.783665	a 72s
-2.959757	a 733
-2.959757	a 734
-2.959757	a 73s
-2.482635	a 747	0
-2.959757	a 9
-2.959757	a airline
-2.415689	a boeing	-3.523659e-06
-2.658727	a breakfast	0.001334543
-2.959757	a business
-2.357697	a car	0.00224493
-2.658727	a cheap	-2.018642e-06
-2.658727	a class	-0.0003298209
-2.561817	a coach	0.002653339
-2.959757	a connecting
-2.959757	a connection
-2.959757	a continental
-2.959757	a d9s
-2.959757	a dallas
-2.959757	a day
-2.482635	a delta	0.003951637
-2.783665	a dinner
-2.482635	a direct	0.0008608757
-2.959757	a evening
-2.959757	a fare
-1.899059	a first	0.04988253
-0.6427386	a flight	0.100201
-2.783665	a friday	0.01694696
-2.959757	a j31
-2.959757	a jet
-2.783665	a late
-2.357697	a layover	0.0004652326
-2.959757	a limo
-2.561817	a limousine	0.003707915
-1.692585	a list	-0.002474618
-2.146843	a listing	0.0004627523
-1.755637	a meal	0.000363186
-2.959757	a minneapolis
-2.219394	a monday	0.02261553
-2.658727	a morning	0.006797745
-2.959757	a name
-2.959757	a night
-1.899059	a nonstop	0.002227103
-2.056667	a one	0.04957662
-2.415689	a plane	-2.240366e-05
-2.959757	a red
-2.561817	a rental	0.002754564
-2.658727	a reservation	0
-2.357697	a return	0.001286173
-1.637537	a round	0.06547637
-2.482635	a saturday	0.01546097
-2.561817	a schedule	0.004575795
-2.959757	a single
-2.783665	a snack	0
-1.692585	a stop	0.01754323
-1.504912	a stopover	0.001296682
-2.219394	a sunday	0.01810917
-2.959757	a taxi
-2.181605	a thursday	0.01962195
-2.306544	a ticket	0.0116791
-2.959757	a to
-2.959757	a transcontinental
-2.146843	a trip	0.005169978
-2.030338	a tuesday	0.02073088
-2.783665	a turboprop	-1.51631e-06
-2.482635	a twa	0.00165555
-2.415689	a united	0.03553142
-2.658727	a us	0.03057435
-2.783665	a wednesday	0.02982334
-2.561817	a weekday	-1.003186e-05
-2.66605	aa 459
-2.668852	abbreviation co
-2.668852	abbreviation d10
-2.668852	abbreviation dl
-2.49276	abbreviation for
-2.668852	abbreviation ua
-2.668852	abbreviation us
-2.490427	abbreviations </s>
-2.66605	able to
-2.388723	about 12	0.006320498
-2.689753	about 3
-2.689753	about 4
-2.388723	about 7pm	0.006841618
-2.388723	about 8	0.003693973
-2.388723	about a	0.1107793
-2.689753	about april
-2.689753	about arrivals
-2.689753	about car
-1.689753	about flights	0.2874052
-1.990783	about ground	0.08076032
-2.689753	about mealtime
-2.145685	about the	0.003062338
-2.689753	about twa
-2.666518	ac </s>
-2.666518	ac and
-2.66605	across this
-2.666518	actually want
-2.666518	actually what
-2.66605	advertises having
-2.761552	after 1
-2.761552	after 10
-2.761552	after 1020pm
-2.761552	after 1024
-2.761552	after 1026
-2.363612	after 10am	0.005827573
-2.761552	after 10pm
-2.761552	after 11
-2.585461	after 11pm	0
-1.916454	after 12	0.00628579
-2.761552	after 1200
-2.761552	after 1205
-2.761552	after 1230pm
-1.948639	after 12pm	0
-2.761552	after 130
-2.761552	after 1300
-2.761552	after 1600
-2.585461	after 1700
-2.585461	after 1pm
-2.363612	after 2	0.0004627149
-2.363612	after 2100	0
-2.585461	after 2134	0
-2.363612	after 2pm	0.005553067
-2.585461	after 3
-2.761552	after 305
-2.217484	after 3pm	-9.02894e-06
-2.460522	after 4	0.001367375
-2.460522	after 430pm	-2.018642e-06
-2.021189	after 4pm	0.005074131
-2.062582	after 5	0.006398071
-2.761552	after 530
-2.761552	after 530pm
-1.682371	after 5pm	0.01071457
-1.916454	after 6	0.002288555
-1.783828	after 6pm	0.006766345
-2.460522	after 718am	-1.512351e-06
-2.761552	after 723pm
-2.585461	after 7am	0.0004657188
-2.10834	after 7pm	0.009157298
-2.284431	after 8	0.002760006
-2.761552	after 815am
-2.761552	after 823
-2.585461	after 845	0
-2.460522	after 8am	0.002303252
-1.948639	after 8pm	0.001354631
-2.460522	after 934pm	0
-2.761552	after 9am
-2.284431	after 9pm	0.000466232
-2.761552	after a
-2.761552	after delta
-2.585461	after lunch
-2.761552	after midnight
-1.783828	after noon	0.03707087
-2.761552	after say
-2.761552	after sunday
-2.284431	after tomorrow	0.01005791
-1.132513	afternoon </s>
-1.785725	afternoon and	0.01938452
-2.739968	afternoon any
-2.342028	afternoon arriving	0.03673863
-2.739968	afternoon first
-1.785725	afternoon flight	0.1819068
-1.660787	afternoon flights	0.3008528
-1.927054	afternoon from	0.08329374
-2.739968	afternoon going
-2.739968	afternoon have
-2.739968	afternoon i
-2.739968	afternoon nonstop
-2.1959	afternoon on	0.02531791
-2.563876	afternoon or
-2.739968	afternoon please
-2.739968	afternoon show
-2.739968	afternoon tomorrow
-2.739968	afternoon what
-2.563876	afternoon what's	0.002057738
-2.66605	afternoons </s>
-2.66605	afterwards </s>
-2.01796	again </s>
-2.671173	again i
-2.671173	again on
-2.671173	again qx
-2.671173	again the
-2.704579	air 1039
-2.704579	air 2153
-2.528488	air 269
-2.704579	air 311
-1.859481	air </s>
-2.704579	air and
-2.704579	air around
-2.528488	air at
-2.528488	air boston
-2.403549	air canada	-4.528323e-06
-2.704579	air cost
-2.403549	air fare
-2.403549	air fares	0.04097882
-2.528488	air first	0.05914289
-2.306639	air flight	0.1711238
-1.801489	air flights	0.2627968
-2.528488	air fly	0.07088129
-1.926428	air from	0.09037516
-2.403549	air have
-2.704579	air how
-2.704579	air laying
-2.704579	air leaving
-2.704579	air next
-2.704579	air number
-2.528488	air on
-2.704579	air restrictions
-2.704579	air round
-2.704579	air stopping
-2.704579	air taxi
-2.306639	air that	0.01669928
-2.704579	air with
-2.520702	aircraft </s>
-2.520702	aircraft and
-2.395763	aircraft are	0.0008022186
-2.520702	aircraft available
-2.696793	aircraft can
-2.696793	aircraft departing
-2.520702	aircraft do	0.03264751
-2.219672	aircraft does	0.007150493
-2.696793	aircraft flies
-2.696793	aircraft fly
-2.696793	aircraft for
-2.696793	aircraft has
-1.742551	aircraft is	-0.002666519
-2.395763	aircraft leaves	0.00171525
-2.395763	aircraft leaving
-2.696793	aircraft number
-2.696793	aircraft of
-1.997823	aircraft that	-0.000900581
-2.696793	aircraft type
-2.696793	aircraft types
-2.520702	aircraft united	0.03519652
-2.152725	aircraft used	0.006375687
-2.520702	aircraft will
-2.696793	aircraft you
-2.497391	airfare between
-2.673482	airfare flight
-2.673482	airfare flights
-2.673482	airfare for
-1.974512	airfare from	0.02987341
-2.497391	airfare of
-2.673482	airfare round
-2.66605	airfares between
-2.103376	airline </s>
-2.529345	airline abbreviations	0
-2.705436	airline and
-2.705436	airline besides
-2.705436	airline can
-2.529345	airline code
-2.705436	airline dl
-2.705436	airline ff
-2.705436	airline flies
-2.705436	airline flight
-1.965073	airline flights	0.2637074
-2.404406	airline fly	0.07088281
-2.705436	airline flying
-2.529345	airline for
-2.228315	airline from
-2.052223	airline has	0.001806989
-1.965073	airline have	0.0240232
-2.705436	airline hp
-1.927285	airline is	0.1055069
-2.529345	airline nw	-1.51631e-06
-2.705436	airline offer
-2.529345	airline offers
-2.705436	airline on
-2.705436	airline other
-2.705436	airline provides
-2.705436	airline serves
-2.705436	airline stands
-2.228315	airline that
-2.705436	airline ua
-2.529345	airline us	-0.0001194436
-2.705436	airline uses
-2.705436	airline with
-1.165902	airlines </s>
-2.82866	airlines a
-2.050509	airlines and	0.01012952
-2.82866	airlines any
-2.52763	airlines are
-2.652569	airlines arriving
-2.12969	airlines between	0.03072053
-2.82866	airlines connect
-2.82866	airlines departing
-2.82866	airlines do
-2.43072	airlines first	0.05820792
-2.652569	airlines flies
-1.698326	airlines flight	0.1668702
-1.561488	airlines flights	0.3214574
-1.397296	airlines fly	0.06116114
-2.351539	airlines flying	0.007787716
-2.52763	airlines for	0.01254676
-1.358838	airlines from	0.2968476
-2.82866	airlines give
-2.52763	airlines go	0.04203942
-2.652569	airlines going	0.01375547
-1.714717	airlines have	0.009268225
-2.52763	airlines in
-2.284592	airlines international	0.009914243
-2.82866	airlines is
-2.82866	airlines kansas
-2.82866	airlines leave
-2.12969	airlines leaving	0.01362146
-2.82866	airlines may
-2.82866	airlines offer
-2.351539	airlines on	0.01080708
-2.652569	airlines out	0.008291324
-2.652569	airlines provide
-2.52763	airlines serve
-2.82866	airlines serves
-2.652569	airlines service
-2.82866	airlines serving
-2.82866	airlines stop
-2.82866	airlines stopping
-1.850936	airlines that	0.006830995
-2.82866	airlines their
-2.82866	airlines tomorrow
-2.82866	airlines tuesday
-2.43072	airlines uses	0.0009294415
-2.652569	airlines which
-1.92557	airlines with	0.003511255
-2.669782	airplane </s>
-2.368752	airplane goes	0.005993049
-2.368752	airplane is	-3.341411e-05
-2.669782	airplane it's
-2.669782	airplane types
-2.666518	airplanes are
-2.666518	airplanes that
-1.412932	airport </s>
-1.795267	airport and	-0.001950085
-2.548594	airport at
-2.724685	airport by
-2.724685	airport can
-2.724685	airport for
-2.326745	airport from	-0.001308796
-2.548594	airport have
-1.795267	airport in	0.04940274
-2.548594	airport into
-2.548594	airport is
-2.724685	airport limousine
-2.724685	airport mco
-2.423656	airport next	0.001565994
-1.382263	airport to	0.07400137
-1.898085	airports </s>
-2.500145	airports by	0.002153567
-2.676236	airports does
-2.199115	airports in	0.0005545798
-2.676236	airports near
-2.500145	airports to	-0.0008236886
-2.676236	airports today
-2.490427	alaska airlines
-2.707002	all afternoon	0.008182984
-2.883093	all aircraft
-2.883093	all airline
-2.405972	all airlines	0.00433842
-2.281033	all airports	-4.738965e-05
-2.883093	all all
-2.883093	all am
-2.405972	all american	0.0498056
-2.883093	all arrivals
-2.883093	all available
-2.883093	all canadian
-2.707002	all cities	-2.971478e-05
-2.707002	all connecting	0.00135704
-2.184123	all daily	0.008581586
-2.883093	all day
-2.707002	all delta	0.007487469
-2.582063	all direct	0.003178683
-2.883093	all economy
-2.883093	all fare
-2.485153	all fares
-2.485153	all first	0.05820792
-2.883093	all flight
-0.6425441	all flights	0.2474108
-2.883093	all ground
-2.883093	all meals
-2.883093	all midwest
-2.707002	all monday	0.0002218538
-2.707002	all nationair	-4.538568e-06
-1.953674	all nonstop	0.02196693
-2.707002	all nonstops	0
-2.582063	all northwest	0.003157231
-2.582063	all of	0.01097991
-2.582063	all one	0.05515053
-2.582063	all other	0.001361864
-2.883093	all overnight
-2.707002	all prices	0.003213954
-2.184123	all right	0
-1.980003	all round	0.07778248
-2.883093	all takeoffs
-1.108576	all the	0.05159323
-2.883093	all trans
-2.707002	all tuesday
-2.883093	all twa
-2.229881	all united	0.04180883
-2.707002	all us	0.03104209
-2.883093	all wednesday
-2.883093	all weekday
-2.666518	along the
-2.666518	along with
-2.674402	also arriving
-2.674402	also be
-2.674402	also give
-2.674402	also in
-2.498311	also interested	0.00834316
-2.674402	also like
-2.373372	also need	0.01830349
-2.498311	also on
-2.674402	also serve
-2.373372	also show	0.2838327
-2.674402	also stop
-2.674402	also the
-2.674402	also to
-2.376121	am </s>
-2.67715	am also
-2.200029	am flights	0.2556084
-2.075091	am interested	0.006009493
-2.501059	am looking
-2.133082	am on	0.01321192
-2.67715	am tomorrow
-2.365956	america west	0
-2.437751	american </s>
-1.925867	american airline	0.005238995
-0.9463888	american airlines	0.06273548
-2.261659	american and	-0.0005974743
-2.73878	american doesn't
-2.194712	american flight	0.1711172
-2.085568	american flights	0.2608371
-2.136721	american from	0.03782197
-2.73878	american in
-2.73878	american on
-2.437751	american to	0.05000686
-2.666518	american's last
-2.666518	american's schedule
-2.269513	amount of	-0.0005366973
-2.692406	an 819
-2.039194	an afternoon	0.002966855
-2.692406	an aircraft
-2.215285	an airline	0.0007049288
-2.692406	an airport
-2.215285	an american	0.0498056
-2.692406	an atlanta
-1.516315	an early	0.004932412
-2.692406	an economy
-2.516315	an evening	0.00237208
-2.692406	an f28
-2.692406	an flight
-2.692406	an inexpensive
-2.516315	an m80	0
-2.755621	and 1	0.0009299354
-2.931712	and 10pm
-2.931712	and 1130am
-2.533772	and 1245pm	0
-2.931712	and 2
-2.232742	and 2pm	0.002286403
-2.931712	and 3
-2.931712	and 3pm
-2.329652	and 4	0.0004249068
-2.931712	and 43pm
-2.755621	and 5	0.009192452
-2.931712	and 515pm
-2.755621	and 530pm	0.0004677374
-2.630682	and 5pm	0.01439702
-2.931712	and 630pm
-2.755621	and 6pm	0.0100052
-2.931712	and 730pm
-2.630682	and 7pm	0.006372364
-2.755621	and 8pm
-2.630682	and a	0.1107793
-2.931712	and afterwards
-2.755621	and all
-2.931712	and also
-2.931712	and arrivals
-1.569984	and arrive	0.01866879
-2.329652	and arrives	0.005461587
-1.560644	and arriving	0.02749033
-2.931712	and as
-2.931712	and atl
-1.97747	and atlanta	0.06681407
-2.387644	and back	0.003694958
-1.785584	and baltimore	0.06474758
-2.755621	and be
-2.329652	and before
-2.931712	and between
-1.641677	and boston	0.209404
-2.755621	and bwi	0.001371769
-2.931712	and can
-2.931712	and canadian
-2.533772	and charlotte	0.007586938
-2.931712	and chicago
-2.931712	and coach
-2.454591	and connecting	-4.4666e-05
-2.931712	and cost
-2.028622	and dallas	0.07278111
-2.931712	and dc
-2.533772	and delta	0.01092707
-1.599274	and denver	0.07562559
-2.630682	and depart
-2.755621	and departing
-2.931712	and departure
-2.630682	and dfw	-7.531606e-06
-2.028622	and downtown	0.0117708
-2.931712	and earlier
-2.931712	and either
-2.454591	and fare	0.02804926
-1.953988	and fares	0.03658945
-2.931712	and first
-2.454591	and flight	0.001090667
-2.387644	and flights	0.2542051
-2.533772	and fly	0.003957581
-2.931712	and fn
-2.931712	and fort
-2.931712	and friday
-2.2785	and from	0.001142821
-2.931712	and get
-2.931712	and give
-2.533772	and go	0.006392691
-2.755621	and goes
-2.387644	and going	0.009173188
-2.755621	and have
-2.931712	and houston
-2.630682	and how	0.01741695
-1.910523	and i	0.120434
-2.056651	and i'd	0.08502932
-2.931712	and i'll
-2.630682	and i'm
-2.931712	and in
-2.755621	and include
-2.755621	and is
-2.931712	and it
-2.931712	and la
-2.931712	and land
-2.755621	and landing
-2.387644	and landings	0.0009309633
-2.931712	and lands
-2.329652	and las	0.04547811
-2.329652	and leave	0.01107733
-2.755621	and leaves	0.002182987
-2.630682	and list
-2.387644	and make	0.007814791
-2.755621	and makes	0.003263635
-2.931712	and memphis
-2.454591	and miami	0.01172765
-2.931712	and midnight
-2.931712	and milwaukee
-2.755621	and new	0.06268399
-2.630682	and newark	0.007953596
-2.533772	and northwest	0.004536728
-1.890319	and oakland	0.02548814
-2.755621	and on
-2.232742	and orlando	0.01728829
-2.533772	and out	0.00735635
-1.890319	and philadelphia	0.06501537
-2.454591	and phoenix	0.016761
-1.97747	and pittsburgh	0.1616269
-2.931712	and price
-2.931712	and prices
-2.931712	and qw
-2.931712	and qx
-2.533772	and return	-5.101843e-05
-2.086614	and returning	0.001385312
-2.931712	and round
-2.931712	and salt
-1.508466	and san	0.2356638
-2.630682	and serve
-2.931712	and serves
-2.931712	and serving
-2.931712	and show
-2.755621	and st.	0.01713096
-2.931712	and still
-2.630682	and stop	0.03133764
-2.931712	and stopping
-2.755621	and stops	0.007339781
-2.931712	and sunday
-2.931712	and sunday's
-2.931712	and take
-2.755621	and tampa	0.004417286
-2.931712	and tell
-2.931712	and that
-1.931712	and the	0.09926359
-2.755621	and their	-4.538568e-06
-2.191349	and then	0.001379809
-2.931712	and this
-2.232742	and thursday	0.03307166
-2.755621	and thursdays	0.0004677374
-2.931712	and time
-2.755621	and times	0.00180228
-2.931712	and to
-2.931712	and toronto
-2.931712	and twa
-2.931712	and twenty
-2.454591	and united	0.03426408
-1.953988	and washington	0.06666181
-2.755621	and wednesday	0.02982334
-2.387644	and what	0.08563639
-2.931712	and what's
-2.931712	and with
-1.765625	angeles </s>
-2.518952	angeles after
-2.695044	angeles arriving
-2.695044	angeles by
-2.518952	angeles departing	0.001739203
-2.695044	angeles destination
-2.518952	angeles in	0.06460627
-2.695044	angeles international
-2.695044	angeles leaving
-2.695044	angeles morning
-2.695044	angeles next
-2.217922	angeles on	0.0141464
-2.394014	angeles that
-2.297104	angeles thursday	0.002146601
-1.673854	angeles to	0.0160024
-2.695044	angeles wednesday
-2.518952	angeles which
-2.695044	angeles with
-2.667453	another </s>
-2.491362	another city	0.01920284
-2.667453	another flight
-2.710963	any 4
-2.057751	any airline	0.00193343
-2.534872	any airlines	0.004758668
-2.710963	any airport
-2.710963	any american
-2.313023	any city	0.01920586
-2.534872	any class
-2.710963	any continental
-2.166895	any day	0.004501989
-2.409933	any direct	0.003178683
-2.710963	any early
-2.710963	any first
-2.409933	any flight
-1.349235	any flights	0.2928351
-2.710963	any ground
-2.710963	any later
-2.710963	any limousines
-2.233842	any nonstop	0.02706815
-2.534872	any of	0.01144765
-2.233842	any other	-1.786579e-05
-2.710963	any show
-2.710963	any stopovers
-2.710963	any thrift
-2.710963	any time
-2.710963	any turboprop
-2.534872	any united
-2.710963	any us
-2.66605	anything from
-2.66792	anywhere </s>
-2.66792	anywhere between
-2.491828	anywhere on	0.005475965
-2.66792	anywhere to
-2.66605	ap please
-2.66605	ap/55 </s>
-2.126178	ap/57 </s>
-2.369216	ap/57 mean	0.0214341
-2.670246	ap/57 restriction
-2.490895	ap/80 </s>
-2.666986	ap/80 mean
-2.491362	ap57 </s>
-2.667453	ap57 mean
-2.667453	ap57 restriction
-2.66605	ap68 </s>
-2.365956	ap80 </s>
-2.666518	approximately 1pm
-2.666518	approximately 615pm
-2.500145	april eighth
-2.676236	april fifteenth
-2.676236	april fourth
-2.676236	april ninth
-2.676236	april seventeen
-2.500145	april sixteen
-2.278296	april sixth	0.00276798
-2.500145	april twentieth
-1.977266	april twenty	0.01934941
-2.663072	are </s>
-2.839164	are ac
-2.839164	are after
-1.936074	are all	0.1514293
-2.839164	are any
-1.253703	are available	0.03289967
-2.362042	are between	0.03258246
-2.663072	are connecting	0.00135704
-2.839164	are currently
-2.839164	are economy
-2.839164	are fare
-2.441224	are first	0.05820792
-2.538134	are flights	0.2556053
-2.663072	are from
-2.839164	are i
-2.839164	are later
-2.538134	are less	0.0165116
-2.362042	are my	-8.016475e-06
-2.362042	are nonstop	4.79205e-05
-2.839164	are of
-2.839164	are offered
-2.663072	are on
-2.538134	are provided	0.0009339668
-2.839164	are represented
-2.237104	are served	0.001345022
-2.663072	are serviced	0
-0.8873407	are the	0.1752788
-1.061012	are there	-0.00210334
-2.839164	are they
-2.839164	are use
-2.295096	are used	-7.636473e-05
-2.538134	are your	0.0009010728
-2.269513	area </s>
-2.666518	arizona i
-2.666518	arizona on
-2.693727	around 10
-2.295787	around 10pm	0.001859408
-2.693727	around 11am
-2.693727	around 12
-2.392697	around 1pm	0.001396677
-2.693727	around 2
-2.392697	around 230pm	0
-2.693727	around 2pm
-2.693727	around 3
-2.693727	around 3pm
-2.216606	around 5	0.009190932
-2.392697	around 5pm	0.01486627
-2.693727	around 630pm
-2.295787	around 6pm	0.001308311
-2.040514	around 7	0.001392715
-2.040514	around 7pm	0.00729088
-2.693727	around 8
-2.693727	around 8am
-2.693727	around 8pm
-2.693727	around 9
-2.517636	around 9am
-2.693727	around dinnertime
-2.517636	around midnight
-2.216606	around noon	0.03022981
-2.517636	around noontime
-2.191265	arrange a	0.1098453
-2.668386	arrange for
-1.744063	arrangements for	0.009789487
-2.673482	arrangements from
-2.66792	arrival by
-2.66792	arrival for
-2.66792	arrival in
-2.491828	arrival time	0.0003920804
-2.66792	arrivals for
-2.66792	arrivals from
-2.36689	arrivals in	0.01352286
-2.727134	arrive 10pm
-1.948983	arrive after	0.009799218
-2.727134	arrive and
-2.329194	arrive around	0.0008002126
-1.797716	arrive at	0.009764686
-1.630224	arrive before	0.02409635
-2.426105	arrive between
-2.551043	arrive by
-2.727134	arrive close
-2.727134	arrive dallas
-2.727134	arrive early
-1.20209	arrive in	0.101753
-2.727134	arrive near
-2.727134	arrive next
-2.125074	arrive on	0.01536131
-2.727134	arrive soon
-2.502427	arrives around
-2.678518	arrives as
-2.502427	arrives at
-2.377488	arrives before
-2.678518	arrives between
-2.678518	arrives close
-2.502427	arrives earliest	-0.0001880255
-1.749099	arrives in	0.07341189
-2.747412	arriving </s>
-2.747412	arriving about
-1.934498	arriving after	0.002377079
-2.747412	arriving also
-2.571321	arriving and	-0.0006432073
-2.048442	arriving around	0.0006862129
-1.726223	arriving at	0.006628194
-2.747412	arriving atlanta
-2.747412	arriving baltimore
-1.902314	arriving before	0.00253848
-2.203344	arriving between	0.00263658
-2.571321	arriving boston
-2.446382	arriving by	0.0003715309
-2.747412	arriving cleveland
-2.571321	arriving denver
-2.747412	arriving flights
-2.747412	arriving i'd
-1.075314	arriving in	0.1924682
-2.747412	arriving july
-2.349472	arriving may	0.003040419
-2.571321	arriving near
-2.048442	arriving on	0.01070026
-2.571321	arriving philadelphia
-2.747412	arriving pittsburgh
-2.446382	arriving to	0.02382128
-2.278754	as </s>
-2.676694	as a
-2.676694	as boston
-2.676694	as business
-2.132626	as early	-0.0002249514
-2.676694	as i
-2.074634	as possible	0.003645848
-2.676694	as san
-2.676694	as soon
-2.676694	as well
-2.735599	at 10am
-2.735599	at 110pm
-2.559508	at 1110	0
-2.735599	at 11am
-2.735599	at 12
-2.735599	at 1220pm
-2.735599	at 1505
-2.735599	at 1940
-2.735599	at 210pm
-2.735599	at 225pm
-2.735599	at 230
-2.735599	at 324pm
-2.735599	at 329
-2.735599	at 420
-2.735599	at 428
-2.735599	at 4pm
-2.434569	at 5	0.009193968
-2.434569	at 555	0
-2.133539	at 5pm	0.01300034
-2.559508	at 6	0.006936918
-2.735599	at 630
-2.735599	at 645am
-2.735599	at 650
-2.735599	at 7
-2.735599	at 705
-2.559508	at 720am	0
-2.258478	at 7pm	0.00682814
-2.559508	at 838
-2.559508	at 838am
-2.735599	at 8am
-2.735599	at 8pm
-2.735599	at 9
-2.434569	at 9am	0.003696495
-2.735599	at a
-2.191531	at about	0.0007585359
-2.559508	at another	-3.028661e-06
-2.735599	at approximately
-2.337659	at around	0.00210229
-2.735599	at atlanta
-2.337659	at baltimore
-2.434569	at boston	0.001002555
-2.337659	at chicago	0.0002496564
-2.258478	at dallas	0.01774075
-2.191531	at denver	0.06808173
-2.735599	at economy
-1.757875	at general	0.005031376
-2.434569	at least
-2.559508	at logan	0.0004596863
-2.258478	at love	0.01150821
-2.735599	at milwaukee
-2.559508	at new	0.06268399
-2.735599	at night
-2.337659	at noon	0.004924647
-2.735599	at noontime
-2.434569	at one	0.0005254427
-2.735599	at orlando
-2.434569	at philadelphia
-2.735599	at phoenix
-2.133539	at pittsburgh	-0.0003190314
-2.735599	at salt
-2.559508	at san	0.2579854
-2.735599	at stapleton
-2.735599	at tampa
-1.922686	at the	-0.001422402
-2.735599	at toronto
-2.666518	atl </s>
-2.666518	atl to
-0.9135554	atlanta </s>
-2.225309	atlanta after	0.008388503
-2.924279	atlanta again
-2.271067	atlanta airport	0.03299842
-1.581857	atlanta and	0.06689385
-2.748188	atlanta around
-2.924279	atlanta arrives
-2.623249	atlanta arriving	0.03673712
-2.924279	atlanta at
-2.623249	atlanta august	0.0007252161
-2.924279	atlanta back
-2.924279	atlanta baltimore
-2.183917	atlanta before	0.02265422
-2.924279	atlanta beginning
-2.924279	atlanta between
-2.924279	atlanta bound
-2.924279	atlanta by
-2.924279	atlanta can
-2.924279	atlanta coach
-2.924279	atlanta could
-2.924279	atlanta denver
-2.924279	atlanta early
-2.924279	atlanta evening
-2.924279	atlanta find
-2.924279	atlanta flight
-2.924279	atlanta flights
-2.447158	atlanta for	0.001498436
-2.380211	atlanta from	0.07991759
-2.526339	atlanta georgia	0
-2.924279	atlanta ground
-2.924279	atlanta have
-2.924279	atlanta heading
-2.526339	atlanta i	0.07279463
-2.079181	atlanta in	0.05995791
-2.924279	atlanta later
-2.924279	atlanta least
-2.924279	atlanta leave
-2.271067	atlanta leaving	0.01299637
-2.623249	atlanta next	0.004598487
-1.454457	atlanta on	0.1422709
-2.748188	atlanta one	0.05561826
-2.623249	atlanta please	0.01733952
-2.924279	atlanta return
-2.924279	atlanta returning
-2.748188	atlanta round	0.08335488
-2.748188	atlanta so	0.0004657188
-2.748188	atlanta sometime	0.0004637034
-2.079181	atlanta that	0.03858212
-2.748188	atlanta the
-2.924279	atlanta then
-2.748188	atlanta this	0.0004339907
-0.7467428	atlanta to	0.1691636
-2.924279	atlanta traveling
-2.924279	atlanta wednesday
-2.924279	atlanta what
-2.447158	atlanta which	0.008986699
-2.924279	atlanta will
-2.322219	atlanta with	0.03091904
-2.490427	atlanta's airport	0.01570897
-2.708421	august </s>
-2.708421	august eighteenth
-2.407391	august eighth	0.005534207
-2.708421	august eleventh
-2.708421	august fifteenth
-2.708421	august fifth
-2.310481	august first	0.01010577
-2.708421	august fourth
-2.53233	august nineteenth
-2.708421	august ninth
-2.708421	august one
-1.968058	august second	0.007760084
-2.708421	august seven
-2.708421	august seventeenth
-2.310481	august seventh	0.0007456986
-2.407391	august sixth	0.003235215
-2.164353	august tenth	0.001849936
-2.407391	august the	0.006129663
-2.106361	august third	0.004538125
-2.106361	august thirtieth	0.002777463
-2.407391	august thirty	0.002331162
-2.53233	august twelfth	0.003253613
-2.708421	august twelve
-2.009451	august twentieth	0.001353055
-1.647723	august twenty	0.007205103
-1.93411	available </s>
-2.570932	available after
-2.747023	available around
-1.968872	available at	0.003521242
-1.93411	available between	0.03960352
-2.747023	available coach
-2.269902	available flights	0.2546713
-2.747023	available flying
-2.570932	available for
-2.269902	available friday	0.003622843
-1.209204	available from	0.3164337
-2.445993	available ground	0.08355622
-1.394841	available in	0.1821938
-2.747023	available into
-2.570932	available leaving
-2.747023	available meals
-2.747023	available monday
-2.747023	available next
-2.269902	available on
-2.570932	available saturday	-0.0001282791
-2.747023	available sunday
-2.747023	available thursday
-2.570932	available to	0.01219429
-2.570932	available tomorrow
-2.747023	available tuesday
-2.445993	available wednesday	0.00237835
-2.747023	available with
-2.666518	b </s>
-2.666518	b the
-2.49693	back </s>
-2.49693	back from
-2.49693	back in	0.06460627
-1.932658	back to	0.01962055
-0.9352313	baltimore </s>
-2.887054	baltimore a
-2.233842	baltimore after	0.009790227
-2.710963	baltimore airport	0.01570897
-2.011993	baltimore and	0.01885031
-2.710963	baltimore around
-1.957635	baltimore arriving	0.03872488
-2.710963	baltimore at
-2.887054	baltimore august
-2.409933	baltimore before	0.008451981
-2.146692	baltimore between	-0.0005044709
-2.887054	baltimore bound
-2.887054	baltimore carries
-2.887054	baltimore coach
-2.586024	baltimore denver	0.01195924
-2.887054	baltimore early
-2.710963	baltimore first	0.05914289
-2.342986	baltimore for	0.003381191
-2.011993	baltimore from	0.1732561
-2.887054	baltimore has
-2.233842	baltimore in	0.06227663
-2.887054	baltimore is
-2.887054	baltimore july
-2.233842	baltimore leaving	0.01424278
-2.887054	baltimore making
-2.887054	baltimore monday
-2.710963	baltimore nonstop
-2.887054	baltimore oakland
-1.409933	baltimore on	0.1280159
-2.284994	baltimore or	0.0001824945
-2.489114	baltimore please
-2.887054	baltimore scheduled
-2.887054	baltimore starting
-2.188084	baltimore that	0.006170522
-2.887054	baltimore thursday
-0.8339759	baltimore to	0.1945925
-2.710963	baltimore tomorrow
-2.887054	baltimore using
-2.887054	baltimore via
-2.409933	baltimore washington	0.02029813
-2.710963	baltimore what	0.001190144
-2.710963	baltimore which
-2.489114	baltimore with	0.004104216
-2.66605	bay area
-2.676694	be a
-2.676694	be able
-2.676694	be american
-2.676694	be cost
-2.500602	be flying
-2.278754	be in
-2.500602	be nonstop	0.01013167
-2.375664	be on
-2.676694	be serving
-2.676694	be staying
-2.375664	be the	0.02781126
-2.676694	be there
-2.676694	be traveling
-2.500602	be used	0.006369642
-2.205475	beach </s>
-2.682596	beach after
-2.506505	beach airport	0.01698819
-2.682596	beach arriving
-2.205475	beach california	0.004506658
-2.682596	beach late
-2.506505	beach on
-1.682596	beach to	-0.001909071
-2.682596	beach two
-2.743118	before 0900
-2.567026	before 1
-2.345178	before 10	0.001398696
-2.743118	before 1045am
-1.629174	before 10am	0.002595985
-2.567026	before 10pm	0.002794381
-2.567026	before 1145am	0
-2.743118	before 11am
-2.044148	before 12	0.008139772
-2.743118	before 1pm
-2.743118	before 2pm
-2.743118	before 3
-2.743118	before 3pm
-2.044148	before 4pm	0.004130605
-2.345178	before 5	0.008257478
-2.089905	before 5pm	0.01622614
-2.567026	before 6
-2.567026	before 630am	-1.51631e-06
-2.089905	before 6pm	0.007675551
-2.567026	before 7	0.002785371
-2.567026	before 7am
-2.345178	before 7pm	0.005905128
-2.199049	before 8	0.004634989
-2.089905	before 8am	0.002306767
-2.567026	before 8pm
-2.567026	before 9	0.002794381
-2.002755	before 9am	0.001838065
-2.743118	before arriving
-2.743118	before evening
-2.743118	before midnight
-1.28072	before noon	0.01994399
-2.743118	before or
-2.66605	beginning on
-2.66605	begins in
-2.66605	being served
-2.66605	belong to
-2.66605	besides continental
-2.807873	between 1
-2.807873	between 1030am
-2.108903	between 10am	-0.0001506442
-2.409933	between 1115am	0
-2.807873	between 1133am
-2.06751	between 12	-0.0001447774
-2.807873	between 1850
-2.807873	between 2pm
-2.807873	between 3
-2.409933	between 4	-3.23623e-05
-2.807873	between 415
-2.807873	between 430
-2.807873	between 430pm
-2.807873	between 445
-2.631782	between 5	-3.838551e-05
-2.807873	between 530
-2.807873	between 5pm
-2.807873	between 6
-2.631782	between 6pm	0.001305282
-2.807873	between </s>
-2.205813	between airport	0.003274975
-2.807873	between all
-1.747175	between atlanta	0.000859377
-2.263805	between baltimore	0.0009711566
-1.117677	between boston	-0.01811366
-2.631782	between charlotte	-0.000133274
-2.807873	between cincinnati
-1.904783	between dallas	0.01731111
-1.646505	between denver	-4.267879e-05
-2.631782	between dfw	-9.047915e-06
-2.631782	between fare	0.02007734
-2.631782	between houston	0.00117885
-2.409933	between indianapolis	0.0006852392
-2.631782	between logan	-7.548253e-06
-2.631782	between memphis
-2.263805	between milwaukee	0.0004715561
-2.807873	between nashville
-2.108903	between new	0.05942036
-2.807873	between newark
-2.631782	between noon	0.004921618
-2.807873	between oak
-1.932812	between oakland	0.0005148347
-2.631782	between orlando	-0.0001207136
-1.853631	between philadelphia	-0.0008420004
-2.506843	between phoenix	0.0002517924
-1.728692	between pittsburgh	0.0002641296
-1.904783	between san	0.252413
-2.631782	between st.	0.02015441
-2.631782	between tampa	-6.926607e-05
-2.205813	between the	0.002243346
-2.807873	between those
-2.506843	between toronto	0.0002664593
-1.99496	between washington	0.04552308
-2.66605	bna </s>
-2.367822	boeing 737	0
-2.49276	boeing 757	0
-2.49276	boeing 767	0
-1.536919	book a	0.0997021
-2.205926	book an	0.01109416
-2.683047	book for
-2.683047	book on
-2.285107	book the	0.02734402
-2.367356	booking an	0.01155888
-2.492295	booking class
-2.668386	booking classes
-1.055815	boston </s>
-2.298853	boston after	0.007257448
-2.997823	boston afternoon
-2.25746	boston airport	0.0316007
-1.241948	boston and	0.04239428
-2.997823	boston approximately
-2.997823	boston arrive
-2.696793	boston arriving	0.03673712
-2.821732	boston as	0.001805669
-2.25746	boston at	-0.0001950475
-2.997823	boston baltimore
-2.696793	boston before	0.02196741
-2.696793	boston between	0.001307503
-2.997823	boston both
-2.997823	boston by
-2.997823	boston dc
-2.997823	boston denver
-2.997823	boston departing
-2.821732	boston departure
-2.821732	boston downtown	0.01145283
-2.997823	boston flight
-2.696793	boston flights
-2.25746	boston for	0.001929712
-2.599883	boston from
-2.997823	boston goes
-2.453755	boston going	0.009173188
-2.821732	boston ground	0.08402395
-2.997823	boston heading
-2.821732	boston i
-2.821732	boston i'd	0.09060919
-2.520702	boston in	0.06320457
-2.821732	boston is
-2.997823	boston july
-2.25746	boston leaving	0.01185767
-2.997823	boston logan
-2.997823	boston making
-2.821732	boston monday	0.0254054
-2.821732	boston nonstop
-1.492673	boston on	0.1394142
-2.821732	boston one	0.05561826
-2.520702	boston philadelphia	7.200008e-05
-2.997823	boston pittsburgh
-2.696793	boston please
-2.821732	boston saturday	0.01639342
-2.997823	boston stop
-2.152725	boston that	0.01662753
-2.997823	boston the
-2.997823	boston this
-0.556128	boston to	0.08801171
-2.821732	boston today	0.004628946
-2.821732	boston tomorrow	0.01099036
-2.453755	boston using	0.0004459014
-2.997823	boston via
-2.997823	boston which
-2.219672	boston with	0.02906109
-2.997823	boston within
-2.668852	both american
-2.668852	both by
-2.270912	both direct	0.0004074916
-2.668852	both one
-2.666518	bound for
-2.666518	bound to
-1.747732	breakfast </s>
-2.133082	breakfast flight	0.1773464
-2.376121	breakfast served	-2.382137e-05
-2.66605	bring up
-2.66605	bur </s>
-2.500602	burbank </s>
-2.676694	burbank after
-2.676694	burbank also
-2.676694	burbank arriving
-2.676694	burbank leaving
-2.074634	burbank on	0.00893813
-2.676694	burbank sunday
-2.676694	burbank the
-2.023481	burbank to	0.02405651
-2.676694	burbank tomorrow
-1.653672	business class	0.03314877
-2.368287	but i	0.04154746
-2.493226	but i'd	0.09060919
-2.669317	but return
-2.669317	but stopover
-2.669317	but stopping
-2.490427	buy a	-0.0002134537
-2.195438	bwi </s>
-2.67256	bwi flight
-2.37153	bwi that	0.006625204
-2.195438	bwi to
-2.67256	bwi washington
-2.690196	by 10am
-2.690196	by 4pm
-2.690196	by 5pm
-2.389166	by 6pm	0.00953746
-2.690196	by 8
-2.514105	by 8pm
-2.514105	by 9	0.002794381
-2.690196	by 9pm
-2.146128	by american	0.04933937
-2.690196	by both
-2.514105	by canadian	0.003727873
-2.690196	by continental
-2.088136	by delta	0.01289075
-2.690196	by dinnertime
-2.690196	by eastern
-2.690196	by ground
-2.690196	by limousine
-2.690196	by lufthansa
-2.690196	by midway
-2.514105	by nationair
-2.389166	by noon	0.03027849
-2.690196	by one
-2.690196	by this
-2.514105	by twa
-2.690196	by united
-1.991226	by way	-0.0006261389
-2.490427	c </s>
-2.027123	california </s>
-2.680336	california after
-2.680336	california arriving
-2.680336	california early
-2.680336	california leaving
-2.680336	california monday
-2.203214	california on
-2.680336	california please
-2.504244	california that
-1.981366	california to	0.02393422
-2.680336	california tuesday
-2.680336	california which
-2.66605	calling from
-2.544068	can </s>
-2.720159	can a
-2.544068	can be
-2.419129	can fly
-1.942008	can get	0.01073416
-1.623249	can i	0.002586646
-2.322219	can take	0.000410395
-1.129095	can you	0.01147107
-2.492295	canada </s>
-2.668386	canada departing
-2.668386	canada from
-2.492295	canada leaving	0.01392129
-1.929883	canadian airlines	-0.001250682
-2.66605	capacities of
-2.369216	capacity </s>
-2.670246	capacity for
-2.193125	capacity of	0.006672165
-2.670246	capacity which
-2.500145	car </s>
-2.375206	car at
-2.676236	car fares
-2.132168	car in
-2.676236	car information
-2.375206	car rates	-2.018642e-06
-2.278296	car rental	-2.586201e-05
-2.375206	car rentals	0
-2.495082	carolina </s>
-2.671173	carolina and
-2.671173	carolina leaving
-2.273233	carolina next	0.005001581
-2.671173	carolina on
-2.671173	carolina that
-2.495082	carolina to
-2.490427	carries the	0.0001827286
-2.666986	cars </s>
-2.490895	cars in
-2.66605	catch an
-2.66605	charges between
-1.688505	charlotte </s>
-2.533603	charlotte and
-2.533603	charlotte around
-2.709694	charlotte between
-2.709694	charlotte by
-2.709694	charlotte flights
-2.709694	charlotte for
-2.709694	charlotte from
-2.709694	charlotte leaving
-2.533603	charlotte monday	0.008039776
-2.709694	charlotte next
-1.89678	charlotte north	0
-2.232573	charlotte on	0.01413672
-2.311754	charlotte that	0.02213144
-1.367271	charlotte to	0.04414017
-2.709694	charlotte today
-2.709694	charlotte which
-2.366423	cheap flight	0.1711218
-2.667453	cheap flights
-2.753583	cheapest </s>
-2.577492	cheapest airfare	0.003223805
-2.577492	cheapest coach
-2.753583	cheapest direct
-1.441829	cheapest fare	0.04226715
-2.355643	cheapest fares	0.04051159
-2.452553	cheapest first	0.05867516
-1.298738	cheapest flight	0.1822894
-1.850493	cheapest flights	0.2504986
-2.753583	cheapest nonstop
-2.753583	cheapest of
-1.347043	cheapest one	0.03418568
-2.577492	cheapest rate
-1.732394	cheapest round	0.07548097
-2.452553	cheapest ticket	0.01216808
-2.753583	cheapest to
-2.209515	cheapest way	2.173334e-05
-1.710117	chicago </s>
-2.710117	chicago after
-2.710117	chicago and
-2.232996	chicago around	0.0047075
-2.710117	chicago arrive
-2.312177	chicago at	0.001399986
-2.710117	chicago departing
-2.710117	chicago early
-2.232996	chicago into	-9.642215e-05
-2.710117	chicago leave
-2.534026	chicago leaving	-0.0003542575
-2.312177	chicago next	0.006342913
-1.931966	chicago on	0.03639156
-2.710117	chicago round
-2.710117	chicago that
-2.710117	chicago then
-1.398363	chicago to	0.0214211
-2.710117	chicago which
-2.365956	choices of	0.01720398
-1.871483	cincinnati </s>
-2.684397	cincinnati along
-2.508305	cincinnati and
-2.684397	cincinnati as
-2.684397	cincinnati nonstop
-2.684397	cincinnati on
-1.605215	cincinnati to	0.1072007
-2.277838	cities </s>
-2.022566	cities are	-0.001212748
-2.499687	cities does
-2.374748	cities served	0.003210952
-2.374748	cities that
-2.499687	cities today	0.004628946
-1.33399	city </s>
-2.447933	city airport	0.01571048
-2.351023	city and	0.0006345345
-2.572872	city arrive
-2.572872	city arriving
-2.572872	city at	0.0005941954
-2.748963	city back
-2.748963	city before
-2.748963	city departing
-2.748963	city does
-2.351023	city in	0.06414056
-2.572872	city is
-2.748963	city land
-2.351023	city leaving	0.0007033108
-2.572872	city missouri	0
-2.748963	city monday
-2.748963	city nonstop
-2.049993	city of	0.001427863
-1.873902	city on	0.02818046
-2.748963	city proper
-2.748963	city served
-2.748963	city that
-2.748963	city then
-2.748963	city thursday
-1.136179	city to	0.05198794
-2.572872	city utah
-2.572872	city which
-1.560562	class </s>
-2.574803	class airfare
-2.750894	class airlines
-2.750894	class airplane
-2.273773	class american	0.05027435
-2.750894	class and
-2.574803	class between
-2.750894	class c
-1.847804	class fare	0.04828928
-1.796651	class fares	0.04283205
-2.051924	class flight	0.02232813
-1.47214	class flights	0.3126056
-1.937981	class from	0.04073862
-2.750894	class h
-2.750894	class k
-2.750894	class leaving
-2.750894	class night
-2.449864	class of	0.002144192
-2.010531	class on	0.03544754
-2.574803	class one	0.05561826
-2.750894	class only
-2.750894	class or
-2.750894	class price
-2.750894	class prices
-2.750894	class reservations
-2.097682	class round	0.08055598
-2.750894	class seat
-2.750894	class seats
-2.097682	class service	0.001262065
-1.750894	class ticket	0.008922929
-2.273773	class tickets	0.002783904
-2.750894	class travel
-2.750894	class yn
-2.495544	classes are	0.03807235
-2.671636	classes for
-1.972666	classes of	-0.0001824512
-2.671636	classes that
-2.696356	cleveland 5
-1.766937	cleveland </s>
-2.696356	cleveland after
-2.696356	cleveland and
-2.395326	cleveland daily	0.001303979
-2.696356	cleveland departing
-2.696356	cleveland in
-2.520265	cleveland leaving
-2.520265	cleveland ohio	-4.538568e-06
-2.094296	cleveland on	0.03298818
-2.696356	cleveland that
-1.478872	cleveland to	0.01887666
-2.365956	close to	-0.001541188
-2.66605	closest to
-2.666986	co 1209
-2.490895	co mean	0.02190184
-1.941782	coach class	0.02277339
-2.682145	coach discount
-2.506054	coach economy
-2.205024	coach fare	0.03655426
-1.983175	coach fares	0.04831752
-2.506054	coach flight	0.006746816
-2.381115	coach flights	0.01534918
-2.682145	coach from
-2.682145	coach on
-2.682145	coach one
-2.682145	coach or
-2.522444	code </s>
-2.698535	code again
-2.698535	code as
-2.522444	code b
-2.698535	code c
-2.698535	code dl
-1.920384	code f	0
-2.698535	code ff
-2.698535	code fn
-2.698535	code for
-1.999565	code h	0.0004642382
-2.698535	code hp
-2.522444	code m
-2.698535	code mean
-2.221414	code q	-3.021676e-06
-2.154467	code qo	0
-2.300596	code qw	-4.025525e-06
-1.999565	code qx	0.0009219735
-2.698535	code s
-2.698535	code s/
-2.698535	code us
-2.045323	code y	0.0004647349
-2.397506	code yn	-6.031943e-06
-2.49276	codes </s>
-2.668852	codes belong
-2.668852	codes cover
-2.668852	codes qw
-2.668852	codes sd/d
-2.668852	codes symbols
-2.272306	colorado </s>
-2.670246	colorado august
-2.670246	colorado please
-2.272306	colorado to	0.02025206
-2.202761	columbus </s>
-2.679882	columbus after
-2.679882	columbus late
-2.378852	columbus ohio	-3.022258e-06
-2.503791	columbus on
-1.679882	columbus to	0.002127652
-2.66605	come from
-2.66792	coming back
-2.491828	coming from
-2.66792	coming sunday
-2.66792	coming tuesday
-2.66605	companies fly
-2.66605	concerning american
-2.667453	connect boston
-2.491362	connect in
-2.667453	connect with
-2.674861	connecting </s>
-2.373831	connecting flight	0.171591
-2.19774	connecting flights	0.2546713
-2.49877	connecting from
-2.373831	connecting in
-2.49877	connecting that
-2.373831	connecting through	0.002756068
-2.674861	connecting to
-2.666518	connection between
-2.666518	connection time
-2.666986	connections </s>
-2.490895	connections between
-2.66605	connects in
-2.66605	continent and
-2.407391	continental 1291	0
-2.708421	continental 1765
-2.708421	continental 271
-1.863323	continental </s>
-2.53233	continental after
-2.708421	continental airline
-1.562293	continental airlines	0.06821579
-2.708421	continental between
-2.708421	continental depart
-2.708421	continental departing
-2.708421	continental flies
-2.407391	continental flight
-1.895508	continental flights	0.2700157
-2.164353	continental fly	0.06948261
-2.164353	continental from	0.03753253
-2.708421	continental into
-2.2313	continental leaving	0.005435703
-2.164353	continental on	0.01733154
-2.708421	continental service
-2.407391	continental which	0.002163208
-2.708421	continental with
-2.66605	continuing to
-1.955994	cost </s>
-2.696356	cost air
-2.696356	cost between
-2.696356	cost fare
-2.520265	cost flight	0.1715895
-2.395326	cost for	0.01629393
-2.696356	cost from
-2.696356	cost in
-2.219235	cost less	0.01557764
-1.550228	cost of	0.005795163
-2.696356	cost taking
-1.821295	cost to	0.008488391
-2.696356	cost within
-2.66792	costs and
-2.66792	costs less
-2.36689	costs of
-2.687975	could do
-2.143907	could i	0.0027061
-1.355536	could you	0.01852848
-2.019347	county </s>
-2.67256	county new
-2.27462	county to	-0.0004874205
-2.496468	county with	0.004497261
-2.66605	cover flights
-2.490427	cp uses	0.001864414
-2.66605	currently available
-2.66605	d/s stand
-2.66605	d10 </s>
-2.66605	d9s </s>
-2.683497	daily 5
-2.206376	daily </s>
-2.683497	daily flight
-1.522129	daily flights	0.2748384
-2.683497	daily from
-2.683497	daily nonstop
-2.683497	daily us
-2.683497	daily with
-0.9011665	dallas </s>
-2.896802	dallas about
-2.720711	dallas after
-2.352734	dallas airport	0.01605825
-1.875612	dallas and	0.02070123
-2.896802	dallas arrive
-2.41968	dallas arriving	0.003134037
-2.896802	dallas atlanta
-2.595772	dallas before
-2.720711	dallas by
-2.720711	dallas can	0.03211679
-2.896802	dallas connecting
-2.595772	dallas dallas	0.05955426
-2.896802	dallas denver
-2.896802	dallas departing
-2.896802	dallas early
-2.896802	dallas first
-2.896802	dallas flights
-2.720711	dallas for
-1.365323	dallas fort	0.009516796
-2.498862	dallas from	0.02290202
-2.896802	dallas going
-2.720711	dallas ground
-2.294742	dallas in	0.06274186
-2.498862	dallas into	0.0003703092
-2.896802	dallas least
-2.498862	dallas leaving
-2.896802	dallas makes
-2.896802	dallas monday
-2.720711	dallas next
-1.564363	dallas on	0.1423911
-2.896802	dallas one
-2.294742	dallas please	0.01547359
-2.197832	dallas round	0.08009125
-2.896802	dallas saturday
-2.896802	dallas serve
-2.896802	dallas stopover
-2.595772	dallas stopping	0.007386379
-2.896802	dallas texas
-2.156439	dallas that	0.01613555
-2.720711	dallas the
-2.720711	dallas through
-0.8797684	dallas to	0.2027304
-2.720711	dallas tomorrow
-2.595772	dallas via	-2.235582e-05
-2.352734	dallas which	0.005297488
-2.243589	dallas with	0.03248318
-2.490427	database </s>
-2.66605	date june
-1.867875	day </s>
-2.203667	day after	-0.0005459921
-2.504697	day and
-2.680789	day arriving
-2.680789	day at
-2.504697	day find	0.01164673
-2.680789	day following
-2.680789	day from
-2.504697	day leaving
-2.504697	day of	0.01144765
-2.680789	day on
-2.680789	day time
-2.504697	day to
-2.491828	days </s>
-2.491828	days from
-2.66792	days i
-1.357692	dc </s>
-2.552668	dc after
-2.251638	dc and	0.01181178
-2.72876	dc area
-2.552668	dc arriving
-2.552668	dc at	0.0001933699
-2.72876	dc baltimore
-2.72876	dc before
-2.72876	dc but
-2.72876	dc departing
-2.552668	dc for
-2.72876	dc from
-2.72876	dc give
-2.552668	dc i	0.04154594
-2.72876	dc late
-2.552668	dc leaving	0.01392129
-2.72876	dc nonstop
-1.567392	dc on	0.05472589
-2.72876	dc one
-2.72876	dc san
-2.552668	dc stop	0.03133613
-2.72876	dc that
-1.450006	dc to	0.1574987
-2.552668	dc via	-2.387213e-05
-2.72876	dc wednesday
-2.490895	dc10 </s>
-2.666986	dc10 service
-2.281942	december </s>
-2.679882	december are
-2.679882	december first
-2.679882	december from
-2.679882	december second
-2.202761	december seventeenth	0.0009239293
-2.679882	december sixteen
-2.378852	december sixteenth
-2.679882	december third
-1.834784	december twenty	0.01181609
-2.365956	define airline
-2.71433	delta 139
-2.71433	delta 82
-1.973967	delta </s>
-2.71433	delta aircraft
-2.31639	delta airline	0.000311672
-1.552962	delta airlines	0.07440211
-2.71433	delta and
-2.71433	delta arrive
-1.81124	delta flight	0.1692708
-1.693141	delta flights	0.3115557
-2.31639	delta fly
-2.237209	delta from	0.01767753
-2.71433	delta has
-2.11227	delta have	0.007921956
-2.71433	delta in
-2.71433	delta is
-2.71433	delta leaves
-2.71433	delta leaving
-2.4133	delta or	-0.0001011908
-2.71433	delta that
-2.538239	delta to
-2.71433	delta use
-2.666986	delta's flights
-2.666986	delta's night
-2.666986	delta's schedule
-0.8347839	denver </s>
-2.980912	denver a
-2.281942	denver after	0.002239097
-2.281942	denver airport	0.03243921
-1.518514	denver and	0.04078919
-2.980912	denver around
-2.327699	denver arriving	0.03581069
-2.582972	denver at	-0.0002040574
-2.980912	denver august
-2.980912	denver be
-1.939519	denver before	0.03079485
-2.804821	denver by
-2.582972	denver can	0.03165107
-2.980912	denver coach
-2.240549	denver colorado	0
-2.804821	denver connecting
-2.980912	denver cost
-2.980912	denver dallas
-2.980912	denver delta
-2.980912	denver departing
-2.980912	denver do
-2.980912	denver during
-2.679882	denver early	0.008131064
-2.980912	denver first
-2.980912	denver fly
-2.980912	denver flying
-2.503791	denver for	0.0007715831
-2.378852	denver from	0.01721331
-2.436844	denver going	0.009173188
-2.980912	denver i
-2.980912	denver i'd
-2.503791	denver in	0.06367382
-2.804821	denver into	0.001758853
-2.980912	denver is
-2.980912	denver june
-2.804821	denver leave
-2.378852	denver leaving	0.01346161
-2.804821	denver monday	0.0254054
-2.980912	denver next
-2.980912	denver no
-2.980912	denver oakland
-1.395451	denver on	0.2197406
-2.980912	denver one
-2.378852	denver or	0.001497875
-2.980912	denver pittsburgh
-2.679882	denver please	0.01687027
-2.980912	denver qualify
-2.980912	denver rental
-2.804821	denver round	0.08335488
-2.980912	denver san
-2.980912	denver saturday
-2.804821	denver stop
-2.051493	denver that	0.01948478
-2.980912	denver this
-0.6908773	denver to	0.1476164
-2.980912	denver today
-2.980912	denver traveling
-2.980912	denver tuesday
-2.582972	denver wednesday	0.0003034731
-2.804821	denver what
-2.327699	denver which	0.004834262
-2.582972	denver with	0.03184899
-2.682596	depart </s>
-2.138528	depart after	0.0001064622
-2.506505	depart baltimore
-2.506505	depart before
-2.506505	depart between
-2.682596	depart burbank
-1.942234	depart from	0.08101826
-2.381566	depart in	0.06413854
-2.682596	depart los
-2.682596	depart milwaukee
-2.682596	depart newark
-2.506505	depart on	0.01080254
-2.682596	depart phoenix
-2.682596	depart pittsburgh
-2.682596	depart san
-2.682596	depart seattle
-2.682596	depart washington
-2.685742	departing 5
-2.141674	departing after	-0.0003612757
-2.685742	departing around
-2.208621	departing at
-2.287802	departing before	0.008449966
-2.685742	departing dallas
-2.685742	departing either
-2.685742	departing flights
-1.840644	departing from	0.07846581
-2.384712	departing in	0.06413854
-2.384712	departing on
-2.685742	departing pittsburgh
-2.384712	departing san	0.2575177
-2.685742	departing thursday
-2.667453	departs 9
-2.667453	departs after
-2.667453	departs boston
-2.667453	departs dallas
-2.669782	departure and
-2.669782	departure for
-2.669782	departure from
-2.669782	departure one
-2.368752	departure time
-2.49369	departure times
-2.667453	departures and
-2.667453	departures for
-2.491362	departures from	0.02929461
-2.666986	describe fare
-2.666986	describe ground
-2.666986	describe pittsburgh
-2.66605	designate as
-2.667453	destination as
-2.667453	destination charlotte
-2.667453	destination city
-2.667453	destination is
-2.66605	determine what
-2.137173	detroit </s>
-2.681241	detroit and
-2.380211	detroit around	0.0003294465
-2.681241	detroit in
-2.681241	detroit leaving
-2.50515	detroit michigan
-2.283301	detroit on
-1.751822	detroit to	0.04992203
-2.493226	dfw </s>
-2.493226	dfw and	0.004220737
-2.669317	dfw mean
-2.669317	dfw on
-2.493226	dfw provided	0.001401704
-1.860338	diego </s>
-2.705436	diego after
-2.705436	diego airport
-2.705436	diego and
-2.705436	diego but
-2.404406	diego california
-2.705436	diego coach
-2.705436	diego for
-2.705436	diego from
-2.529345	diego in	0.06460627
-2.529345	diego leaving
-1.965073	diego on	0.03206323
-2.705436	diego please
-2.228315	diego that	0.002997108
-1.462398	diego to	0.0574365
-2.529345	diego tomorrow
-1.965073	diego with	0.02905609
-2.490427	difference between	-0.0003911407
-2.490895	different classes
-2.666986	different flight
-2.130334	dinner </s>
-2.674402	dinner and
-2.498311	dinner flight
-2.373372	dinner flights	0.2551361
-2.674402	dinner for
-2.674402	dinner meal
-2.674402	dinner please
-2.674402	dinner served
-2.674402	dinner that's
-2.498311	dinner what's	0.002057738
-2.666518	dinnertime 6pm
-2.666518	dinnertime </s>
-2.200029	direct and	-0.001280533
-2.67715	direct coach
-2.075091	direct flight	0.1697251
-1.936788	direct flights	0.2523452
-2.67715	direct morning
-2.67715	direct only
-2.66605	directly from
-2.66605	discount fare
-1.827462	display all	0.1066555
-2.67256	display flights
-2.67256	display types
-2.668852	distance between
-2.124784	distance from
-2.674861	dl 1055
-2.674861	dl 106
-2.674861	dl 1083
-2.674861	dl 229
-2.674861	dl 296
-2.674861	dl 323
-2.674861	dl 402
-2.674861	dl 405
-2.674861	dl 746
-2.674861	dl 838
-2.674861	dl 98
-2.276921	dl </s>
-2.674861	dl from
-2.674861	dl mean
-2.373831	dl stand	0.006035189
-2.707996	do all
-2.406966	do any	-0.0001354776
-2.105936	do i	0.001302368
-2.707996	do is
-2.707996	do on
-2.707996	do planes
-2.531904	do that
-2.707996	do the
-2.707996	do these
-2.707996	do this
-1.122535	do you	-0.0002302118
-2.579021	does a	0.00410792
-1.880051	does american	0.04562743
-2.211044	does any	0.0005447504
-2.755112	does ap57
-2.579021	does canadian	0.003727873
-2.755112	does co
-2.357172	does code	0.00252708
-1.976961	does continental	0.01000514
-2.755112	does d/s
-1.777389	does delta	0.01086344
-2.755112	does dfw
-2.357172	does dl	0.0004370194
-2.579021	does ea	-4.538568e-06
-2.454082	does each	0.0004621979
-2.153052	does eastern	0.003190804
-2.357172	does ewr	-1.003186e-05
-1.942199	does fare	0.01542248
-2.755112	does ff
-1.976961	does flight	-0.001175717
-2.755112	does fn
-2.755112	does ground
-2.755112	does hou
-2.755112	does iah
-1.733923	does it	0.0003458969
-2.755112	does lax
-2.755112	does ls
-2.755112	does lufthansa
-2.454082	does mco	-9.028125e-06
-1.942199	does midwest	0.0009250133
-2.755112	does northwest
-2.755112	does nw
-2.755112	does oakland
-2.755112	does ord
-2.277991	does restriction	0.002266805
-2.755112	does s/
-2.755112	does that
-1.694414	does the	0.001737423
-2.1019	does twa	-0.0001263095
-2.755112	does ua
-1.910014	does united	0.03322075
-2.1019	does us	0.03009322
-2.755112	does y
-2.755112	does yn
-2.66605	doesn't </s>
-1.433592	dollars </s>
-2.688864	dollars and
-2.688864	dollars for
-2.387835	dollars from
-2.387835	dollars one	0.05515053
-2.512773	dollars or	-0.0001027071
-2.688864	dollars please
-2.211743	dollars round	0.08195318
-2.66605	don't want
-1.534988	downtown </s>
-2.696356	downtown and
-2.520265	downtown area	0.0009349729
-2.395326	downtown atlanta	0.05464328
-2.298416	downtown boston	0.03763524
-2.696356	downtown by
-2.152288	downtown dallas	0.05499325
-2.696356	downtown denver
-2.298416	downtown from	0.001332483
-2.219235	downtown in	0.005980249
-2.696356	downtown long
-2.395326	downtown philadelphia	0.05280912
-2.696356	downtown phoenix
-2.298416	downtown pittsburgh	0.04278771
-2.395326	downtown san	0.2575177
-2.696356	downtown to
-2.666518	dulles on
-2.666518	dulles to
-2.668386	during a
-2.668386	during breakfast
-2.492295	during the
-2.668386	during week
-2.668386	during weekdays
-2.66792	ea 212
-2.66792	ea </s>
-2.491828	ea mean	0.02190184
-2.66792	ea the
-2.270446	each airline	0.002860367
-2.668386	each flight
-2.668386	each is
-2.490427	earlier than
-2.552668	earliest american	0.05073805
-2.72876	earliest arrival
-2.552668	earliest boston	-0.000751034
-2.552668	earliest breakfast	0.00180228
-2.72876	earliest departure
-0.9653315	earliest flight	0.2070493
-2.075547	earliest flights	0.2532741
-2.552668	earliest in
-2.72876	earliest lunch
-2.330819	earliest morning	0.00633051
-2.552668	earliest nonstop	0.01054946
-2.72876	earliest one
-2.427729	earliest possible	0.0004277423
-2.72876	earliest united
-2.051367	early afternoon	0.004840835
-2.528488	early am
-2.227458	early as	0.0008647551
-2.00561	early flight	0.1945269
-2.704579	early flights
-2.528488	early friday	0.0003086433
-1.663187	early in	0.05580427
-2.704579	early monday
-1.590636	early morning	0.07012562
-2.403549	early on	0.01414338
-2.704579	early saturday
-2.704579	early the
-2.704579	early thursday
-2.704579	early today
-2.704579	early tomorrow
-2.403549	early tuesday	0.005550038
-2.704579	early wednesday
-2.704579	early weekday
-2.675778	eastern 210
-2.675778	eastern airline
-1.935416	eastern airlines	0.07986062
-2.675778	eastern flies
-2.277838	eastern flight	-0.001304466
-2.499687	eastern fly	0.07088129
-2.675778	eastern has
-2.675778	eastern have
-2.675778	eastern with
-2.66605	economic class
-1.941782	economy class	0.0126306
-2.506054	economy fare
-1.869232	economy fares	0.05185715
-2.506054	economy flight
-2.205024	economy flights	0.01777994
-2.682145	economy from
-2.682145	economy level
-2.682145	economy prices
-2.682145	economy thrift
-2.682145	economy ticket
-2.666518	eight </s>
-2.666518	eight sixteen
-2.66792	eighteenth </s>
-2.66792	eighteenth again
-2.36689	eighteenth of	-0.0002042573
-2.674861	eighth 1991
-1.771771	eighth </s>
-2.674861	eighth i
-2.674861	eighth i'd
-2.49877	eighth of	0.0009331706
-2.671173	either boston
-2.671173	either from
-2.671173	either on
-2.671173	either order
-2.671173	either orlando
-2.273233	either san	0.2570505
-2.671173	either twa
-2.495082	either wednesday
-2.66605	eleven departing
-2.495082	eleventh 1991	0.006469178
-2.127105	eleventh </s>
-2.671173	eleventh before
-2.671173	eleventh economy
-2.495082	eleventh from	0.003878587
-2.66605	else who
-2.66605	enroute at
-2.66605	equal to
-2.66605	equipment is
-1.317646	evening </s>
-2.113526	evening and	0.0117815
-2.715585	evening could
-2.062373	evening flight	0.1697286
-1.812496	evening flights	0.2523701
-2.113526	evening from	0.019178
-2.539494	evening in	0.02786044
-2.715585	evening june
-2.715585	evening next
-2.113526	evening of	0.00331648
-2.414556	evening on
-2.715585	evening one
-2.317646	evening or	0.002050444
-2.715585	evening schedule
-2.715585	evening sunday
-2.715585	evening thank
-2.715585	evening that
-2.715585	evening tomorrow
-2.715585	evening what
-2.715585	evening which
-2.66605	everywhere if
-2.19266	ewr </s>
-2.368752	ewr mean	0.0214341
-2.669782	ewr stand
-2.386945	expensive airfare
-2.511883	expensive business	0.00834316
-2.034762	expensive fare	0.006585377
-2.210853	expensive first	0.05774119
-1.710251	expensive flight	0.1736664
-2.511883	expensive flights
-2.687975	expensive is
-2.034762	expensive one	0.05281937
-2.511883	expensive way
-2.494155	explain fare	0.02007734
-2.670246	explain meal
-2.369216	explain restriction
-2.272306	explain the	0.003726443
-2.672098	express flights
-2.371068	express have	0.003653479
-1.973128	express serve	-6.733742e-05
-2.672098	express serves
-2.66605	eye flight
-2.017497	f </s>
-2.67071	f and
-2.494618	f mean	0.02190184
-2.490895	f28 </s>
-2.666986	f28 from
-2.668852	far from
-2.124784	far is	0.1061831
-1.692039	fare </s>
-2.77122	fare around
-2.77122	fare at
-2.77122	fare available
-1.958307	fare between	0.03782704
-2.77122	fare class
-1.316375	fare code	0.002758879
-2.227152	fare codes	-1.50362e-06
-2.595129	fare flights
-1.926122	fare for	0.02977885
-1.07225	fare from	0.2908008
-2.294099	fare going	0.01282302
-2.595129	fare i	0.004170221
-2.77122	fare in
-2.47019	fare information	0.003974883
-2.77122	fare is
-2.595129	fare less	0.01697934
-2.77122	fare of
-1.86813	fare on	0.03124002
-2.595129	fare one	0.05561826
-2.595129	fare please	0.01733801
-2.77122	fare round
-2.47019	fare that
-2.77122	fare ticket
-2.77122	fare united
-1.961025	fares </s>
-2.262055	fares and	-0.001025441
-2.438147	fares are
-2.739177	fares at
-2.262055	fares between	0.004724808
-1.659995	fares for	0.006101188
-1.031606	fares from	0.2842304
-2.563085	fares leaving	0.01392129
-2.563085	fares less	0.01697934
-2.438147	fares new	0.06221626
-2.438147	fares of
-2.137117	fares on	0.00145617
-2.739177	fares only
-2.438147	fares that
-2.739177	fares under
-2.124318	february twenty	0.003842128
-2.26998	ff </s>
-2.66792	ff mean
-1.600247	field </s>
-2.281488	field from	-0.001777949
-2.378398	field to
-2.66605	fifteen </s>
-2.497391	fifteenth 1991
-1.974512	fifteenth </s>
-2.497391	fifteenth from	0.0008508146
-2.673482	fifteenth i
-2.673482	fifteenth i'd
-2.673482	fifteenth leaving
-2.673482	fifteenth with
-2.022107	fifth 1991	0.00460828
-2.07326	fifth </s>
-2.67532	fifth after
-2.499229	fifth and	0.002166116
-2.67532	fifth from
-2.67532	fifth or
-2.67532	fifth that
-2.66605	final destination
-1.451745	find a	0.1032416
-2.718917	find all
-2.718917	find an
-2.718917	find any
-2.542825	find flights	0.2556038
-2.718917	find from
-1.528585	find me	0.1244806
-2.320977	find out
-2.718917	find that
-1.572789	find the	0.1458114
-1.789498	find travel	-0.0002143285
-2.718917	find what
-2.66605	fine can
-2.368473	first 1991	0.005534205
-2.465383	first 1992	0.0004672351
-2.766413	first 1993
-1.548929	first </s>
-2.590322	first and	0.00370617
-0.8855993	first class	0.01409225
-1.535964	first flight	0.1888441
-2.590322	first flights
-2.465383	first from
-2.766413	first i
-2.465383	first i'd	0.09014146
-2.590322	first of
-2.590322	first on	0.009510824
-2.766413	first that
-2.766413	first thing
-2.766413	first to
-2.365956	fit on	0.01628924
-2.672098	flies across
-2.496006	flies between
-1.931735	flies from	0.0858575
-2.672098	flies out
-3.020568	flight 1059
-2.844477	flight 1222	0
-3.020568	flight 1765
-3.020568	flight 19
-2.719538	flight 21	0
-3.020568	flight 217
-3.020568	flight 257
-2.844477	flight 296
-3.020568	flight 315
-3.020568	flight 324
-3.020568	flight 3357
-3.020568	flight 352
-3.020568	flight 415
-3.020568	flight 417
-3.020568	flight 4400
-3.020568	flight 497766
-2.844477	flight 505
-3.020568	flight 539
-3.020568	flight 71
-2.844477	flight 813	0.0004677374
-2.622628	flight 825	0
-2.844477	flight 852
-3.020568	flight 928
-1.906625	flight </s>
-3.020568	flight aa
-2.622628	flight after
-3.020568	flight and
-2.844477	flight around
-2.719538	flight arriving	0.03626787
-3.020568	flight as
-2.622628	flight available
-2.844477	flight back	-2.093276e-05
-1.730534	flight between	0.0654218
-2.844477	flight classes
-3.020568	flight code
-3.020568	flight cost
-2.844477	flight delta
-2.4765	flight departing	0.004390845
-3.020568	flight departures
-2.622628	flight dl
-2.543447	flight do	0.0312458
-3.020568	flight ea
-3.020568	flight earlier
-3.020568	flight eastern
-3.020568	flight fare
-3.020568	flight first
-2.844477	flight flies
-2.719538	flight flying	0.007327517
-2.622628	flight for	0.001133347
-0.4833792	flight from	0.3874848
-3.020568	flight goes
-2.844477	flight going	0.01375547
-3.020568	flight how
-2.4765	flight i	0.002302285
-3.020568	flight if
-2.242417	flight in	0.06088391
-1.979176	flight information	0.04169192
-3.020568	flight into
-2.622628	flight is	0.0122261
-3.020568	flight least
-2.844477	flight leave
-2.844477	flight leaves	-6.375543e-05
-1.605595	flight leaving	0.03390858
-3.020568	flight meal
-3.020568	flight meals
-2.242417	flight number	-4.946766e-05
-2.4765	flight numbers	0
-2.719538	flight of	0.01144916
-1.413113	flight on	0.136563
-2.719538	flight originating	0
-2.719538	flight out	0.007823586
-2.844477	flight possible
-2.622628	flight schedule	-2.9588e-05
-2.844477	flight schedules	0
-3.020568	flight service
-2.321599	flight should	-1.002336e-05
-1.830237	flight that	0.01572123
-3.020568	flight this
-2.280206	flight times	0.0004086883
-2.17547	flight to	0.1055473
-3.020568	flight today
-2.09115	flight tomorrow	0.003185648
-3.020568	flight tonight
-3.020568	flight traveling
-2.17547	flight ua	-3.481284e-05
-2.844477	flight us
-3.020568	flight wednesday
-3.020568	flight when
-2.719538	flight which	0.0009706357
-2.844477	flight will
-2.844477	flight with
-2.844477	flight would
-2.622628	flight you	0.03074983
-2.078664	flights </s>
-3.048701	flights after
-3.224792	flights again
-2.145611	flights and	-0.003927907
-1.364454	flights are	0.007752791
-2.826852	flights arrive	0.02629245
-2.048701	flights arriving	0.03891411
-2.923762	flights at	0.006246463
-2.183399	flights available	0.04211696
-2.747671	flights before
-1.422018	flights between	0.05307663
-3.048701	flights both	0.0009274238
-3.048701	flights can	0.009059191
-3.224792	flights come
-3.048701	flights dallas	0.060022
-2.747671	flights denver	0.09614902
-2.484429	flights depart	0.003099941
-2.571579	flights departing	0.002577954
-3.048701	flights direct
-2.295373	flights do	0.02614458
-2.127882	flights does	0.01187492
-3.048701	flights during
-3.224792	flights early
-2.826852	flights first	0.05820792
-2.923762	flights fly	0.07041356
-3.048701	flights flying
-2.379694	flights for	0.003073399
-0.3500203	flights from	0.2468121
-1.818252	flights go	0.02422678
-2.379694	flights going	0.008637859
-3.048701	flights has	-2.825854e-05
-3.224792	flights if
-2.680724	flights in	0.06367633
-3.224792	flights including
-2.680724	flights into	0.0008142143
-3.224792	flights land
-1.863064	flights leave	0.01597226
-1.65659	flights leaving	0.04532846
-3.224792	flights monday
-2.923762	flights next	0.00593807
-3.224792	flights of
-1.571579	flights on	0.1334359
-3.224792	flights one
-2.622732	flights out	0.005957657
-3.224792	flights philadelphia
-3.224792	flights phoenix
-3.224792	flights pittsburgh
-2.923762	flights please	0.01733952
-3.224792	flights return
-2.923762	flights round	0.08288714
-3.048701	flights seattle	0.005528745
-3.224792	flights serving
-3.048701	flights should	0.0004517034
-2.747671	flights stop	0.02993443
-3.048701	flights stopping	0.007854117
-3.224792	flights takeoff
-3.224792	flights taking
-2.923762	flights than	-6.774976e-05
-1.809819	flights that	0.03184101
-2.923762	flights there	1.016329e-05
-1.969519	flights to	0.1249139
-3.048701	flights today	0.004628946
-3.048701	flights tomorrow	0.006077982
-3.224792	flights tuesday
-3.048701	flights united
-2.571579	flights which	0.009554291
-3.224792	flights will
-2.379694	flights with	0.008250989
-3.224792	flights without
-2.826852	flights you	0.03028058
-2.194052	florida </s>
-2.671173	florida for
-2.127105	florida to	0.002634811
