
\data\
ngram 1=948
ngram 2=6594
ngram 3=5589

\1-grams:
-4.3121	//.	-0.001226873
-4.488191	0900/CD	0.0355948
-3.944123	1/CD	0.03978322
-3.886131	10/CD	0.002674813
-4.3121	100/CD	0.03513693
-3.357857	1000/CD	-0.01185463
-4.488191	1017/CD	0.00515804
-4.488191	1020pm/CD	0.0355948
-4.488191	1024/CD	0.00515804
-4.488191	1026/CD	0.0355948
-4.488191	1030am/CD	0.004650298
-4.3121	1039/CD	0.03647726
-4.488191	1045am/CD	0.0355948
-4.488191	1055/CD	-0.0008960321
-4.488191	1059/CD	0.0355948
-4.488191	106/CD	0.02604549
-4.488191	1083/CD	0.02604549
-3.176437	10am/CD	0.06136268
-3.789221	10pm/CD	0.04309061
-4.488191	11/CD	-0.0002110194
-3.944123	1100/CD	-0.002834694
-4.488191	110pm/CD	0.009740166
-4.3121	1110/CD	0.004700165
-4.090251	1115am/CD	0.003278118
-4.488191	1130am/CD	0.0355948
-4.488191	1133am/CD	0.004650298
-4.3121	1145am/CD	0.03513693
-4.488191	1158pm/CD	0.008036908
-4.090251	11am/CD	0.04536798
-4.3121	11pm/CD	0.03513693
-3.209437	12/CD	-0.01093777
-4.488191	1200/CD	-0.0008607485
-4.488191	1205/CD	0.00515804
-4.488191	1209/CD	0.0355948
-4.488191	1220pm/CD	0.004650298
-4.3121	1222/CD	0.02558761
-4.488191	1230pm/CD	0.0355948
-4.488191	124/CD	-0.0005501297
-4.090251	1245pm/CD	0.03422262
-4.488191	1288/CD	0.0355948
-4.187161	1291/CD	0.0261977
-3.675278	12pm/CD	0.07641814
-4.488191	130/CD	0.00515804
-4.488191	1300/CD	-0.0008607485
-4.488191	137338/CD	0.0355948
-4.488191	139/CD	0.0355948
-4.488191	150/CD	-0.0005501297
-4.488191	1500/CD	-0.0005501297
-4.488191	1505/CD	0.02604549
-4.488191	1600/CD	-0.0008607485
-4.488191	163/CD	0.0355948
-4.3121	1700/CD	0.008880818
-4.3121	1765/CD	0.02558761
-4.488191	1850/CD	0.004650298
-4.488191	19/CD	0.02604549
-4.488191	1940/CD	0.0355948
-3.467002	1991/CD	0.05685835
-4.090251	1992/CD	0.06317263
-4.488191	1993/CD	0.0355948
-3.886131	1pm/CD	0.0348198
-3.886131	2/CD	0.04076863
-4.488191	200/CD	-0.0005501297
-4.3121	201/CD	0.06408693
-4.187161	21/CD	0.03467953
-4.488191	210/CD	0.0355948
-4.090251	2100/CD	0.03422262
-4.488191	210pm/CD	0.0355948
-4.488191	212/CD	0.02604549
-4.3121	2134/CD	0.03513693
-4.488191	2153/CD	0.02604549
-4.488191	217/CD	0.02604549
-4.488191	225pm/CD	0.0004467614
-4.488191	229/CD	0.02604549
-4.488191	230/CD	0.009740166
-4.187161	230pm/CD	0.03467953
-4.488191	257/CD	0.0355948
-4.3121	269/CD	0.002569675
-4.187161	270/CD	0.02513022
-4.488191	271/CD	0.02604549
-4.488191	279/CD	-0.0003947371
-3.944123	281/CD	0.02376092
-4.187161	296/CD	0.03194523
-4.488191	297/CD	0.02604549
-3.510467	2pm/CD	0.07531563
-3.789221	3/CD	0.006704362
-4.488191	300/CD	-0.0005501297
-4.488191	305/CD	0.00515804
-4.488191	311/CD	0.0355948
-4.488191	315/CD	0.0355948
-4.488191	323/CD	-0.0008960321
-4.488191	324/CD	0.009740166
-4.488191	324pm/CD	0.0355948
-4.488191	329/CD	-0.0005501297
-4.488191	3357/CD	0.02604549
-4.3121	343/CD	0.02558761
-4.488191	345/CD	0.02604549
-4.488191	352/CD	0.02604549
-4.3121	3724/CD	0.003000492
-3.789221	3pm/CD	0.07545774
-3.533948	4/CD	0.003342159
-4.488191	400/CD	-0.0005501297
-4.488191	402/CD	0.02604549
-4.488191	405/CD	0.0355948
-4.187161	415/CD	0.03053359
-4.488191	416/CD	-0.0005501297
-4.488191	417/CD	0.02604549
-4.488191	420/CD	0.008036908
-4.488191	428/CD	0.008036908
-4.488191	430/CD	0.004650298
-4.090251	430pm/CD	0.03982252
-4.488191	43pm/CD	0.0355948
-4.488191	4400/CD	0.02604549
-4.488191	445/CD	0.004650298
-4.488191	459/CD	-0.0006489871
-3.886131	466/CD	-0.003290167
-4.488191	497766/CD	0.02604549
-3.446798	4pm/CD	0.04356968
-3.326823	5/CD	0.0355752
-4.488191	500/CD	-0.0005501297
-4.3121	505/CD	0.02568423
-4.488191	515pm/CD	0.0355948
-4.3121	530/CD	0.04073683
-4.187161	530pm/CD	0.03467953
-4.488191	539/CD	0.0355948
-4.187161	555/CD	0.04396853
-3.056827	5pm/CD	0.04704184
-3.467002	6/CD	0.03915334
-4.488191	615pm/CD	0.0355948
-4.488191	630/CD	0.0355948
-4.187161	630am/CD	0.0433097
-4.3121	630pm/CD	0.03513693
-4.488191	645am/CD	-0.0004512498
-4.488191	650/CD	0.0355948
-3.198156	6pm/CD	0.03856125
-3.71004	7/CD	0.0008576782
-4.488191	705/CD	0.03051313
-4.488191	71/CD	0.02604549
-4.090251	718am/CD	0.04373522
-4.3121	720am/CD	0.03513693
-4.488191	723pm/CD	0.0355948
-4.3121	727/CD	0.03057559
-4.3121	72s/CD	0.03475435
-4.488191	730pm/CD	0.0355948
-4.488191	733/CD	0.0355948
-4.488191	734/CD	0.0355948
-4.187161	737/CD	0.03423555
-4.488191	73s/CD	0.0355948
-4.488191	746/CD	-0.0006984073
-4.01107	747/CD	0.03945892
-4.488191	755/CD	0.00743227
-4.488191	755am/CD	0.00743227
-4.3121	757/CD	-1.111382e-05
-4.3121	767/CD	0.03513693
-4.488191	771/CD	0.003950445
-4.090251	7am/CD	0.04536798
-3.284071	7pm/CD	0.06620643
-3.558772	8/CD	0.03524984
-4.488191	810pm/CD	0.00131117
-4.187161	813/CD	0.02513022
-4.488191	815am/CD	0.0355948
-4.488191	819/CD	0.00743227
-4.488191	82/CD	0.004650298
-4.488191	823/CD	0.00515804
-4.090251	825/CD	0.02634463
-4.187161	838/CD	0.04002981
-4.3121	838am/CD	0.004985644
-4.3121	845/CD	0.004700165
-4.3121	852/CD	0.06408693
-3.585101	8am/CD	0.0857416
-3.467002	8pm/CD	0.05567272
-3.789221	9/CD	-0.004263359
-4.488191	928/CD	0.02604549
-4.3121	932/CD	-0.001008005
-4.187161	934pm/CD	0.03467953
-4.488191	98/CD	0.0355948
-3.558772	9am/CD	0.04678253
-3.944123	9pm/CD	0.07422993
-1.093477	</s>
-99	<s>	-0.4911056
-1.835945	a/DT	-0.2458867
-4.488191	aa/NN	-0.0009030884
-3.886131	abbreviation/NN	-0.003056082
-4.3121	abbreviations/NNS	0.03513693
-4.488191	able/JJ	0.03051313
-3.155753	about/IN	0.01981912
-3.71004	about/RB	-0.006949538
-4.3121	ac/JJ	0.04073683
-4.488191	across/IN	-0.0007689979
-4.3121	actually/RB	0.008259282
-4.488191	advertises/VBZ	-0.0009030884
-2.427493	after/IN	-0.1071811
-2.548672	afternoon/NN	0.07904963
-4.488191	afternoons/NNS	0.0355948
-4.488191	afterwards/NNS	0.0355948
-3.675278	again/RB	0.06317586
-2.854722	air/NN	0.1025375
-4.3121	air/NNP	-0.001799122
-2.944123	aircraft/NN	0.03301482
-3.533948	airfare/NN	0.05380753
-4.488191	airfares/NNS	0.001630445
-2.834979	airline/NN	0.08627868
-2.162881	airlines/NNS	0.003694564
-3.789221	airplane/NN	0.03551098
-4.3121	airplanes/NNS	0.003997618
-2.655682	airport/NN	0.0680335
-3.40901	airports/NNS	0.06678242
-4.3121	alaska/NNP	0.001619948
-2.008904	all/DT	-0.1548473
-4.3121	along/IN	0.01450771
-3.488191	also/RB	0.07046598
-3.585101	am/RB	0.05962967
-3.747828	am/VB	-0.005481056
-4.187161	america/NNP	-0.001804244
-4.3121	american's/NNP	-0.001432021
-2.556225	american/NNP	0.09612572
-4.090251	amount/NN	0.0003860402
-3.01107	an/DT	-0.01265103
-1.894905	and/CC	0.05727187
-2.969677	angeles/NNP	0.07465001
-4.090251	another/DT	0.04393967
-2.776384	any/DT	-0.001421262
-4.488191	anything/DT	0.02604549
-4.01107	anywhere/RB	0.08234649
-4.488191	ap/55/NN	0.0355948
-3.747828	ap/57/NN	0.03114038
-4.187161	ap/80/NN	0.0346118
-4.488191	ap/NN	0.001247344
-4.090251	ap57/NN	0.0338718
-4.488191	ap68/NN	0.0355948
-4.187161	ap80/NN	0.03467953
-4.3121	approximately/RB	-0.001763838
-3.40901	april/NNP	-0.01285796
-2.130256	are/VBP	-0.03157963
-4.090251	area/NN	0.03422262
-4.3121	arizona/NNP	0.01406833
-2.989881	around/RB	-0.03565337
-3.944123	arrange/VB	0.004709959
-3.533948	arrangements/NNS	0.02040218
-4.488191	arrival/JJ	-0.0006136835
-4.090251	arrival/NN	0.005098044
-4.01107	arrivals/NNS	0.03188109
-2.636933	arrive/VB	-0.03098297
-3.326823	arrives/VBZ	-0.0034632
-2.503664	arriving/VBG	0.08976947
-3.391281	as/IN	0.05105808
-2.577033	at/IN	-0.01379376
-4.3121	atl/NN	0.06897625
-4.3121	atlanta's/NNS	-0.0004143878
-1.911274	atlanta/NNP	0.01398778
-2.802449	august/NNP	0.006543335
-2.50592	available/JJ	0.08664303
-4.3121	b/NN	0.05099806
-3.558772	back/RB	0.1013241
-1.998936	baltimore/NNP	-0.01620749
-4.488191	bay/NN	-0.000881919
-3.391281	be/VB	0.02719153
-3.209437	beach/NNP	0.06803657
-2.52915	before/IN	-0.08405362
-4.488191	beginning/VBG	0.009740166
-4.488191	begins/VBZ	0.00515804
-4.488191	being/VBG	-0.0007760563
-4.488191	belong/VBP	0.03051313
-4.488191	besides/IN	-0.0002322214
-2.232919	between/IN	-0.02723426
-4.488191	bna/NN	0.0355948
-3.886131	boeing/NN	-0.004505814
-3.198156	book/NN	0.01598462
-4.3121	booking/JJ	-0.0003076106
-4.488191	booking/NN	0.0005104711
-4.187161	booking/VBG	-0.001408898
-1.761871	boston/NNP	-0.04928192
-3.886131	both/DT	-0.002091389
-4.3121	bound/VBN	0.03170226
-3.374248	breakfast/NN	0.033064
-4.488191	bring/VB	-0.0008960321
-4.488191	bur/NN	0.0355948
-3.391281	burbank/NNP	0.09461339
-3.467002	business/NN	-0.008107666
-3.834979	but/CC	0.001412672
-4.3121	buy/VB	0.00500796
-3.585101	bwi/NN	0.07757151
-3.048858	by/IN	-0.02523496
-4.3121	c/NN	0.03513693
-3.270707	california/NNP	0.08009207
-4.488191	calling/VBG	0.02604549
-2.692311	can/MD	-0.003262218
-3.944123	canada/NNP	0.06430681
-3.747828	canadian/NNP	-0.002025777
-4.488191	capacities/NNS	0.00175822
-3.747828	capacity/NN	0.03652914
-3.40901	car/NN	0.03287691
-3.675278	carolina/NNP	0.08817691
-4.3121	carries/VBZ	0.01360641
-4.187161	cars/NNS	0.04083236
-4.488191	catch/VB	-0.0004936297
-4.488191	charges/NNS	0.001630445
-2.789221	charlotte/NNP	0.1148816
-4.090251	cheap/JJ	0.02344883
-2.469075	cheapest/JJS	0.02451434
-2.7849	chicago/NNP	0.05626599
-4.187161	choices/NNS	0.0008429511
-3.165972	cincinnati/NNP	0.06999645
-3.427493	cities/NNS	0.0320765
-2.494755	city/NN	0.03512242
-2.48387	class/NN	0.04491112
-3.643093	classes/NNS	0.002782139
-2.950372	cleveland/NNP	0.07116874
-4.187161	close/RB	0.02959787
-4.488191	closest/JJS	0.03051313
-4.187161	co/NN	-0.001917664
-3.221019	coach/NN	0.05326158
-2.919989	code/NN	-0.001934003
-3.886131	codes/NNS	0.03066839
-3.747828	colorado/NNP	0.06777056
-3.284071	columbus/NNP	0.06884512
-4.488191	come/VBP	0.02604549
-4.01107	coming/VBG	0.0248618
-4.488191	companies/NNS	0.001027568
-4.488191	concerning/VBG	0.0002910678
-4.090251	connect/VBP	0.01191176
-3.467002	connecting/VBG	0.1355516
-4.3121	connection/NN	0.001018545
-4.187161	connections/NNS	0.03699201
-4.488191	connects/VBZ	0.00515804
-4.488191	continent/NN	0.004650298
-2.802449	continental/JJ	0.07911651
-4.488191	continuing/VBG	0.03051313
-3.198156	cost/NN	0.07113342
-3.297859	cost/VB	0.09452516
-4.01107	costs/NNS	0.004900361
-3.090251	could/MD	-0.01589349
-3.585101	county/NN	0.06503895
-4.488191	cover/VBP	0.01658407
-4.3121	cp/NN	-0.001318624
-4.488191	currently/RB	0.0004396837
-4.488191	d/s/NN	-0.0007972309
-4.488191	d10/NN	0.0355948
-4.488191	d9s/NN	0.0355948
-3.187161	daily/RB	0.07929628
-1.974973	dallas/NNP	0.007157817
-4.3121	database/NN	0.03513693
-4.488191	date/NN	-0.0005360055
-3.257742	day/NN	0.1164922
-4.01107	days/NNS	0.06821846
-2.624868	dc/NN	0.09885599
-4.187161	dc10/NN	0.03454267
-3.284071	december/NNP	0.05482724
-4.187161	define/JJ	-0.001196958
-4.187161	delta's/NN	0.01516124
-2.743898	delta/NNP	0.1220776
-1.794025	denver/NNP	-0.07826257
-3.209437	depart/VB	0.09622975
-3.136009	departing/VBG	0.06492845
-4.090251	departs/VBZ	0.01036422
-3.789221	departure/NN	0.02992012
-4.090251	departures/NNS	0.03179415
-4.187161	describe/VB	0.005547513
-4.488191	designate/VB	-0.000740763
-4.090251	destination/NN	0.003323285
-4.488191	determine/VB	0.008036908
-3.245153	detroit/NNP	0.08200249
-3.834979	dfw/NN	0.04884477
-2.834979	diego/NNP	0.1039648
-4.3121	difference/NN	0.001172569
-4.187161	different/JJ	0.006158388
-3.488191	dinner/NN	0.06440398
-4.3121	dinnertime/NN	0.03497702
-3.374248	direct/JJ	0.02062784
-4.488191	directly/RB	0.02604549
-4.488191	discount/NN	0.0008929222
-3.585101	display/NN	0.01386205
-3.886131	distance/NN	0.02555746
-3.467002	dl/NN	0.05068346
-2.80695	do/VB	0.0002261102
-2.460841	does/VBZ	-0.06054653
-4.488191	doesn't/VBZ	0.0355948
-3.073218	dollars/NNS	0.05439815
-4.488191	don't/VB	0.0001990926
-2.950372	downtown/NN	0.1388149
-4.3121	dulles/NNS	0.04106383
-3.944123	during/IN	0.01691922
-4.01107	ea/NN	0.04912976
-3.944123	each/DT	0.009664419
-4.3121	earlier/JJR	-0.001015067
-2.624868	earliest/JJS	-0.0198142
-3.099025	early/JJ	0.007078754
-3.187161	early/RB	0.0177667
-3.427493	eastern/JJ	0.002910423
-4.488191	economic/JJ	0.0005104711
-3.221019	economy/NN	0.03978549
-4.3121	eight/CD	0.03471597
-4.01107	eighteenth/JJ	0.03585837
-3.467002	eighth/JJ	0.03556031
-3.675278	either/RB	0.0483906
-4.488191	eleven/CD	-0.0005995613
-3.675278	eleventh/JJ	0.06012916
-4.488191	else/NN	-0.0008960321
-4.488191	enroute/NN	0.0002344657
-4.488191	equal/JJ	0.03051313
-4.488191	equipment/NN	0.003772092
-2.732316	evening/NN	0.09426633
-4.488191	everywhere/RB	-0.000839577
-3.789221	ewr/NN	0.03154832
-3.090251	expensive/JJ	0.01166215
-3.747828	explain/VB	0.01091006
-3.61313	express/JJ	0.01110789
-4.488191	eye/NN	0.00743227
-3.71004	f/NN	0.03657482
-4.187161	f28/NN	0.06362954
-3.886131	far/RB	0.0278375
-2.380981	fare/NN	0.03515901
-2.553693	fares/NNS	0.0283752
-3.944123	february/NNP	-0.002347139
-4.01107	ff/NN	0.03369846
-3.297859	field/NN	0.08780515
-4.488191	fifteen/CD	0.0355948
-3.533948	fifteenth/JJ	0.06717353
-3.446798	fifth/JJ	0.06545123
-4.488191	final/JJ	-0.000881919
-2.702861	find/VB	0.0438254
-4.488191	fine/NN	-3.429444e-05
-2.403615	first/JJ	0.07246705
-4.187161	fit/VBP	0.008824898
-3.61313	flies/VBZ	0.02167392
-1.720293	flight/NN	-0.1899062
-1.403436	flights/NNS	-0.3430875
-3.675278	florida/NNP	0.06627083
-2.349888	fly/VB	0.09626044
-3.326823	flying/VBG	0.1046825
-4.187161	fn/NN	0.03424418
-4.090251	following/VBG	-0.0007247503
-2.346741	for/IN	0.07604642
-2.834979	fort/NN	-0.0388331
-4.3121	four/CD	0.008707276
-3.789221	fourteenth/JJ	0.03430813
-3.446798	fourth/JJ	0.03510864
-1.851202	francisco/NNP	-0.0242767
-4.488191	friday's/NNP	0.01658407
-2.834979	friday/NNP	0.09056766
-4.488191	fridays/NNPS	0.0355948
-4.3121	friends/NNS	0.03237356
-1.220433	from/IN	-0.5994474
-3.3121	general/NNP	-0.01334695
-4.090251	georgia/NNP	0.03519318
-3.090251	get/VB	0.06139798
-4.488191	gets/VBZ	0.00515804
-2.558772	give/VB	-0.05816371
-2.655682	go/VB	0.02138546
-3.446798	goes/VBZ	0.06396481
-2.969677	going/VBG	0.04346015
-4.488191	got/VBD	-0.0009030884
-4.187161	great/RB	-0.002469276
-4.488191	greatest/JJS	-0.0008466343
-2.440916	ground/NN	-0.063454
-4.488191	grounds/NNS	0.0005671091
-3.747828	guardia/NNP	0.06875268
-3.747828	h/NN	0.0314912
-4.488191	hartfield/NNP	0.0355948
-3.446798	has/VBZ	0.04181968
-2.52915	have/VB	0.1300622
-4.488191	having/VBG	-0.000881919
-4.187161	heading/VBG	0.02915371
-4.090251	hello/JJ	0.003848127
-4.090251	help/NN	0.007576143
-4.3121	here/RB	0.004305241
-3.789221	hi/NN	0.001469181
-4.3121	highest/JJS	0.001139306
-4.488191	hold/NN	0.0355948
-4.488191	home/NN	0.0355948
-4.488191	hopefully/RB	0.005465835
-4.488191	hou/NN	-0.0005571917
-3.886131	hours/NNS	0.04491268
-2.854722	houston/NNP	0.1045489
-2.655682	how/WRB	-0.02775262
-3.886131	hp/NN	0.03285477
-2.442868	i'd/VBD	-0.08789935
-4.01107	i'll/VB	-0.002046098
-3.099025	i'm/VB	-0.01865278
-4.488191	i've/VB	-0.0009030884
-1.931286	i/PRP	-0.2387323
-4.488191	iah/NN	-0.0005571917
-3.747828	if/IN	0.002475003
-1.857255	in/IN	-0.1060548
-4.187161	include/VBP	0.004879151
-4.488191	includes/VBZ	-0.0007760563
-4.488191	including/VBG	-0.0008889756
-4.488191	indiana/NNP	0.00131117
-2.870143	indianapolis/NNP	0.06899896
-4.488191	inexpensive/JJ	0.00743227
-4.488191	inform/VB	0.008065721
-2.67195	information/NN	0.05574624
-4.488191	instead/IN	0.00175822
-4.488191	intercontinental/JJ	0.0355948
-3.467002	interested/VBN	-0.003460097
-3.145768	international/JJ	0.05411446
-3.198156	into/IN	0.03638501
-1.96902	is/VBZ	-0.1545624
-4.488191	it's/VB	0.009740166
-3.284071	it/PRP	0.04306427
-4.3121	itinerary/NN	0.002812094
-4.488191	j31/NN	-0.0004229944
-3.789221	january/NNP	-0.001744217
-3.747828	jersey/NNP	0.06532776
-4.488191	jet/NN	0.00743227
-4.01107	jfk/NN	0.06776076
-3.10798	jose/NNP	0.08573955
-2.834979	july/NNP	-0.007354449
-3.056827	june/NNP	-0.02646504
-4.3121	just/RB	0.009967025
-4.488191	k/NN	0.0355948
-2.875407	kansas/NNP	-0.03470971
-3.3121	kind/NN	-0.01088326
-4.488191	kindly/RB	0.0002839919
-4.187161	kinds/NNS	0.0008429511
-3.155753	know/VB	0.0337682
-3.391281	la/NN	0.07530056
-2.976308	lake/NNP	0.008707259
-4.090251	land/NN	-0.001137714
-4.3121	landing/NN	0.01505022
-3.834979	landings/NNS	-0.001455738
-4.488191	lands/NNS	0.0002344657
-4.488191	largest/JJS	-0.0008466343
-2.743898	las/NNP	-0.04739285
-3.257742	last/JJ	-0.005441914
-4.3121	lastest/JJS	-0.001580311
-3.446798	late/JJ	0.0499989
-4.488191	later/JJ	0.01658407
-4.01107	later/RB	0.003235184
-2.937963	latest/JJS	0.0008229911
-4.488191	lax/NN	-0.0007972309
-4.488191	laying/VBG	-0.0008607485
-3.834979	layover/NN	0.001963006
-3.176437	least/JJS	-0.01849156
-2.607378	leave/VB	0.1277367
-3.117123	leaves/VBZ	0.0620912
-2.29091	leaving/VBG	0.008968905
-3.187161	less/JJR	-0.01762577
-4.488191	lester/JJR	-0.0009030884
-4.01107	let's/VB	-0.002300991
-4.488191	let/VB	0.008065721
-4.488191	level/NN	0.0355948
-2.104376	like/VB	-0.08802311
-4.3121	limo/NN	0.004541471
-3.61313	limousine/NN	0.03265845
-4.488191	limousines/NNS	-0.0003947371
-3.145768	list/NN	-0.01706864
-2.191526	list/VB	-0.08660945
-4.488191	listed/VBN	-0.0007689979
-3.643093	listing/NN	-0.003704675
-4.488191	listings/NNS	0.00175822
-3.789221	live/VB	0.001508486
-4.3121	lives/VBZ	0.004700165
-4.488191	local/JJ	-0.0006136835
-4.488191	locate/VB	0.01658407
-4.3121	located/VBN	0.03513693
-3.886131	logan/NNP	0.0734832
-4.488191	long/JJ	0.003772092
-3.209437	long/NNP	-0.01683575
-3.944123	long/RB	0.002550123
-4.488191	longest/JJS	-0.000881919
-4.3121	look/VB	0.002755043
-3.40901	looking/VBG	0.02219674
-2.969677	los/NNP	-0.02882343
-3.145768	louis/NNP	0.1119564
-3.297859	love/VB	-0.01378463
-3.221019	lowest/JJS	-0.0143082
-4.488191	ls/NN	-0.0007972309
-4.01107	lufthansa/NNP	0.0581441
-3.71004	lunch/NN	0.03924171
-4.3121	m/NN	0.0350692
-4.3121	m80/NN	0.03513693
-3.357857	make/VB	0.02021002
-3.789221	makes/VBZ	0.00181628
-4.01107	making/VBG	0.003637224
-3.041033	many/JJ	-0.0001792721
-3.834979	march/NNP	-0.002626795
-4.187161	maximum/JJ	-0.002101241
-4.488191	may//NP	-0.0002958216
-3.585101	may/MD	-0.002166471
-3.221019	may/NNP	0.01786782
-3.789221	mco/NN	0.03770819
-1.68885	me/PRP	-0.08923912
-3.198156	meal/NN	0.07507285
-3.747828	meals/NNS	0.04671919
-4.488191	mealtime/NN	0.0355948
-3.081651	mean/VB	0.01370798
-4.187161	meaning/NN	0.0008429511
-3.048858	memphis/NNP	0.07361154
-4.488191	mia/NN	0.0355948
-2.724763	miami/NNP	0.09311241
-4.3121	michigan/NNP	0.03748803
-4.01107	midnight/NN	0.03536403
-4.3121	midway/NN	0.001619948
-3.61313	midwest/NNP	-0.006726397
-2.699316	milwaukee/NNP	0.05460528
-4.488191	minimum/JJ	-0.0008960321
-3.10798	minneapolis/NNP	0.08262434
-4.187161	minnesota/NNP	0.05158958
-4.3121	missouri/NNP	0.03005526
-3.3121	mitchell/NNP	0.02341787
-2.630858	monday/NNP	0.06638832
-4.488191	mondays/NNPS	0.0355948
-4.3121	month/NN	0.001300344
-3.056827	montreal/NNP	0.1080089
-4.090251	more/JJR	0.01467808
-2.328323	morning/NN	0.0853706
-4.01107	mornings/NNS	0.06271619
-3.533948	most/JJS	-0.009390621
-3.117123	much/RB	0.002701549
-4.488191	must/MD	-0.000740763
-3.789221	my/PRP$	0.001422429
-4.01107	name/NN	0.05219023
-4.3121	names/NNS	0.001300344
-3.090251	nashville/NNP	0.06845214
-4.01107	nationair/NNP	0.0582507
-4.090251	near/IN	-0.0002632302
-2.48387	need/VB	0.002024174
-4.488191	nevada/NNP	0.001665934
-2.582395	new/JJ	-0.06802396
-2.759837	newark/NNP	0.06350125
-2.839831	next/JJ	-0.02914133
-3.270707	night/NN	0.07558298
-4.488191	nights/NNS	0.0355948
-4.488191	nighttime/JJ	-0.0008466343
-3.834979	nineteenth/JJ	0.06372721
-3.558772	ninth/JJ	0.06642523
-3.834979	no/RB	0.03389084
-4.488191	non/JJ	0.0008008195
-2.633885	nonstop/JJ	0.06114383
-4.3121	nonstops/NNS	0.02558761
-2.740003	noon/NN	0.04559692
-4.187161	noontime/NN	0.06362954
-3.675278	north/JJ	-0.005835733
-3.284071	northwest/NNP	0.01434831
-3.232919	november/NNP	0.01925899
-3.297859	now/RB	0.05249936
-3.446798	number/NN	0.06439952
-3.944123	numbers/NNS	0.06491597
-4.187161	nw/NN	0.0343507
-2.789221	o'clock/NN	0.08524316
-4.488191	o'hare/VB	-0.0005995613
-4.488191	oak/NN	0.004650298
-2.403615	oakland/NNP	0.1134987
-3.675278	october/NNP	-0.005220368
-2.211729	of/IN	-0.03987567
-4.488191	off/RP	0.004650298
-3.944123	offer/VB	0.01242254
-4.488191	offered/VBN	0.004650298
-4.187161	offers/VBZ	0.05729649
-4.488191	oh/UH	-0.0008748623
-4.01107	ohio/NNP	0.07971797
-3.198156	okay/NN	0.03100993
-1.615452	on/IN	-0.2076824
-4.488191	once/RB	0.004200263
-4.488191	one's/CD	-0.0008889756
-2.574377	one/CD	0.04042252
-3.643093	only/RB	0.09111581
-3.510467	ontario/NNP	0.06143504
-4.488191	operating/NN	0.009740166
-4.488191	operation/NN	0.0002344657
-4.187161	options/NNS	0.02752724
-2.919989	or/CC	0.1083299
-4.3121	ord/NN	0.0350692
-4.488191	order/NN	0.0355948
-4.3121	originate/VB	0.02520337
-4.187161	originating/VBG	0.004242772
-2.834979	orlando/NNP	0.06743714
-3.533948	other/JJ	0.01442079
-3.374248	out/IN	0.05779845
-3.886131	over/RP	0.003126588
-4.488191	overnight/JJ	0.01658407
-4.090251	passengers/NNS	0.03429468
-3.245153	paul/NNP	0.07525281
-4.488191	pearson/NNP	4.348741e-05
-4.090251	pennsylvania/NNP	0.04536798
-3.886131	people/NNS	0.02904152
-3.081651	petersburg/NNP	0.07200731
-2.019844	philadelphia/NNP	-0.01689582
-4.3121	philly/NNP	0.03513693
-2.793586	phoenix/NNP	0.05104177
-1.952897	pittsburgh/NNP	-0.0563072
-4.488191	place/NN	0.0355948
-4.187161	plan/VB	0.004550566
-3.585101	plane/NN	0.03526456
-3.834979	planes/NNS	0.006920225
-4.488191	planning/VBG	0.005465835
-2.303499	please/VB	-0.01550315
-3.284071	pm/RB	0.07694253
-3.391281	possible/JJ	0.07353994
-4.488191	prefer/VB	0.005465835
-4.488191	preferably/RB	-0.0004229944
-3.488191	price/NN	0.07382891
-4.488191	priced/VBN	0.0008929222
-3.488191	prices/NNS	0.07038255
-4.488191	proper/JJ	0.0355948
-4.187161	provide/VB	0.03475159
-4.01107	provided/VBN	-0.002357554
-4.488191	provides/VBZ	-0.0007689979
-4.488191	put/VB	0.008065721
-3.944123	q/NN	0.03972906
-3.944123	qo/NN	-0.002841755
-4.488191	qualify/VBP	0.001041744
-4.3121	quebec/NNP	0.03005526
-4.488191	question/NN	0.003772092
-3.944123	qw/NN	0.03884743
-3.675278	qx/NNP	0.03766023
-4.3121	rate/NN	-1.010974e-05
-4.090251	rates/NNS	0.005910174
-4.488191	reaches/VBZ	-0.0002039518
-4.3121	reaching/VBG	-0.0008029933
-4.488191	red/JJ	-0.0009030884
-4.488191	regarding/VBG	0.006218343
-4.01107	rent/VB	0.003637224
-3.533948	rental/NN	-0.003067722
-4.187161	rentals/NNS	0.00705866
-4.3121	repeat/VB	0.01844526
-4.488191	repeating/VBG	0.00131117
-4.488191	represented/VBN	0.00515804
-4.090251	requesting/VBG	0.006060091
-4.187161	reservation/NN	0.02675561
-4.3121	reservations/NNS	0.02558761
-3.427493	restriction/NN	0.02308413
-4.3121	restrictions/NNS	0.009282291
-3.643093	return/JJ	0.01935811
-3.747828	return/NN	0.1309892
-3.886131	return/VB	0.1050718
-3.558772	returning/VBG	0.05722521
-4.488191	reverse/VB	0.01406429
-3.789221	right/RB	0.006686941
-2.481725	round/JJ	-0.08331186
-4.488191	route/NN	0.0355948
-4.488191	run/NN	-0.000634866
-4.488191	runs/VBZ	0.02604549
-4.3121	s//NN	-0.001700318
-4.488191	s/NN	0.0355948
-4.187161	sa/NN	0.03467953
-2.976308	salt/NNP	-0.02840113
-3.533948	same/JJ	-0.001374806
-1.78792	san/NNP	-0.3076899
-2.80695	saturday/NNP	0.1390727
-4.090251	saturdays/NNPS	0.06317263
-4.3121	say/VBP	-0.001601491
-4.488191	scenario/NN	-0.0008889756
-3.427493	schedule/NN	0.02896179
-4.3121	schedule/VB	0.01366596
-4.488191	scheduled/VBN	0.001041744
-4.3121	schedules/NNS	0.02558761
-4.488191	sd/d/NN	0.0355948
-4.488191	seat/NN	0.009740166
-3.789221	seating/VBG	-0.004934346
-4.090251	seats/NNS	0.03068126
-2.859802	seattle/NNP	0.09415175
-3.284071	second/JJ	0.0654384
-3.056827	see/VB	0.02557684
-3.270707	september/NNP	-0.01566551
-3.270707	serve/VB	0.01474807
-3.488191	served/VBD	0.03814816
-3.284071	serves/VBZ	0.03495312
-3.165972	service/NN	0.143885
-4.3121	serviced/VBN	-0.0009868183
-4.187161	services/NNS	0.01241251
-3.886131	serving/VBG	0.00426331
-4.488191	seven/CD	0.0355948
-4.488191	seventeen/CD	0.02604549
-3.789221	seventeenth/JJ	0.03266395
-2.844738	seventh/JJ	0.1150738
-3.944123	sfo/NN	0.06714957
-3.789221	shortest/JJS	0.02526051
-3.71004	should/MD	0.000229991
-1.767205	show/VB	-0.271262
-4.488191	single/JJ	-0.0002816893
-4.090251	six/CD	0.03524709
-4.090251	sixteen/CD	0.06331325
-3.789221	sixteenth/JJ	0.06291701
-3.585101	sixth/JJ	0.07771371
-3.71004	smallest/JJS	-0.006020399
-4.3121	snack/NN	0.03513693
-4.3121	so/CC	0.00232739
-4.3121	so/SO	0.001208058
-3.834979	some/DT	-0.003518933
-4.488191	somebody/DT	-0.0009030884
-4.01107	sometime/RB	0.004518987
-4.3121	soon/RB	-0.000194301
-4.187161	sorry/NN	0.003182799
-4.488191	sort/NN	0.00175822
-4.488191	sounds/VBZ	-0.0008889756
-4.01107	southwest/NNP	0.03677127
-4.488191	spend/VB	-0.0005854385
-2.682011	st./NNP	-0.05511403
-3.558772	stand/VB	-0.005776205
-4.187161	stands/VBZ	0.0001264756
-4.3121	stapleton/NNP	-0.0005624496
-4.488191	start/VB	0.02604549
-4.01107	starting/VBG	0.03100896
-4.488191	staying/VBG	-0.0004300585
-4.488191	still/RB	-0.0008607485
-4.488191	stop//VB	0.00515804
-3.064945	stop/NN	0.03499819
-3.176437	stop/VB	0.02836774
-3.003891	stopover/NN	0.01633876
-4.01107	stopovers/NNS	0.008516542
-3.427493	stopping/VBG	-0.004051228
-3.342063	stops/NNS	0.1147439
-4.488191	straight/RB	-0.0007901728
-4.488191	such/PDT	0.005465835
-4.488191	summer/NN	0.0355948
-4.3121	sunday's/NNP	0.01612619
-2.728523	sunday/NNP	0.1385475
-4.187161	sundays/NNPS	0.03467953
-4.488191	supper/NN	-0.0007760563
-4.3121	sure/JJ	0.004870976
-4.488191	symbols/NNS	-0.0007972309
-3.176437	tacoma/NNP	0.07731512
-3.391281	take/VB	0.1004246
-4.3121	takeoff/NN	0.03105483
-3.944123	takeoffs/NNS	0.002365734
-4.488191	takes/VBZ	0.01406429
-4.3121	taking/VBG	-0.00155913
-3.081651	tampa/NNP	0.06789016
-4.187161	taxi/NN	0.02425613
-2.854722	tell/VB	-0.02880564
-4.187161	ten/CD	-0.001776017
-4.187161	tennessee/NNP	0.07461999
-3.675278	tenth/JJ	0.0383808
-4.187161	texas/NNP	0.06851886
-3.081651	than/IN	-0.02932354
-3.789221	thank/VB	-0.002997475
-4.488191	thanks/NNS	0.004650298
-4.488191	that's/DT	-0.0005430677
-2.226928	that/DT	-0.082588
-1.469699	the/DT	-0.42877
-4.01107	their/PRP$	-0.001138601
-4.488191	them/PRP	-0.0008960321
-3.585101	then/RB	0.06681275
-2.427493	there/EX	0.0864897
-4.488191	thereafter/RB	-0.000740763
-4.01107	these/DT	0.01452392
-4.3121	they/PRP	0.0024984
-4.488191	thing/NN	0.00515804
-3.326823	third/JJ	0.09775271
-4.3121	thirteenth/JJ	0.03475435
-3.61313	thirtieth/JJ	0.04879863
-3.834979	thirty/CD	-0.002394215
-3.467002	this/DT	0.03921362
-4.090251	those/DT	0.05252631
-4.187161	three/CD	0.03525959
-4.01107	thrift/NN	-0.001132773
-3.533948	through/IN	0.03804728
-2.627853	thursday/NNP	0.08696049
-4.187161	thursdays/NNPS	0.03467953
-3.090251	ticket/NN	0.09973245
-3.675278	tickets/NNS	0.03733949
-3.155753	time/NN	0.1412393
-3.374248	times/NNS	0.1059068
-1.156056	to/TO	-0.5749705
-3.558772	today/NN	0.06483865
-2.944123	tomorrow/NN	0.05734364
-4.488191	tonight/NN	0.02604549
-4.3121	too/RB	0.03491559
-2.825433	toronto/NNP	0.09820895
-4.090251	total/JJ	-0.002820265
-4.488191	toward/IN	0.006663296
-4.3121	tower/NN	-0.000767829
-4.488191	town/NN	0.0355948
-4.3121	train/NN	0.03005526
-4.488191	trans/NNS	-0.0009030884
-4.3121	transcontinental/JJ	0.006974395
-3.71004	transport/NN	0.04965742
-2.467002	transportation/NN	0.09641925
-3.155753	travel/VB	0.04296988
-3.834979	traveling/VBG	0.06929896
-4.488191	travels/VBZ	0.02604549
-2.448777	trip/NN	0.09650666
-4.187161	trips/NNS	0.02513022
-4.488191	try/NN	-0.000677228
-3.944123	trying/VBG	0.02822857
-2.6525	tuesday/NNP	0.1445347
-4.090251	tuesdays/NNPS	0.06332098
-4.187161	turboprop/NN	0.05329064
-3.064945	twa/NNP	0.1314038
-3.71004	twelfth/JJ	0.04201494
-4.488191	twelve/CD	0.0355948
-3.488191	twentieth/JJ	0.11737
-2.706436	twenty/CD	-0.01439426
-3.510467	two/CD	0.037961
-3.117123	type/NN	-0.01751947
-3.61313	types/NNS	-0.0005082428
-3.510467	ua/NN	0.02531852
-3.71004	under/IN	-0.004816897
-2.646206	united/NNP	0.07248185
-4.3121	up/RP	0.02676812
-4.3121	us/NNP	-0.001353907
-2.849702	us/PRP	0.007659227
-4.488191	usa/NNP	-0.0003099538
-3.886131	use/VB	0.04649907
-3.270707	used/VBN	0.1031935
-3.886131	uses/VBZ	0.0487159
-3.533948	using/VBG	0.009590028
-4.3121	utah/NNP	0.04024679
-4.3121	various/JJ	-0.001650907
-2.740003	vegas/NNP	0.0536314
-4.3121	very/RB	-0.001474395
-3.510467	via/IN	0.007684126
-4.488191	vicinity/NN	0.00175822
-4.488191	visit/VB	0.008065721
-2.590564	want/VBP	-0.006819658
-4.488191	wanted/VBD	0.03051313
-4.488191	wants/VBZ	0.03051313
-2.256467	washington/NNP	0.04779962
-2.6017	way/NN	0.1140001
-4.187161	we're/VB	-0.001366518
-4.488191	wednesday's/NNP	0.01658407
-2.431286	wednesday/NNP	0.0626628
-3.61313	wednesdays/NNPS	0.03661358
-3.510467	week/NN	0.03955278
-3.789221	weekday/NN	0.06151363
-4.090251	weekdays/NNS	0.03589447
-4.187161	well/RB	-0.002186757
-4.187161	west/NN	0.03478852
-3.533948	westchester/NNP	-0.00328732
-4.01107	what're/WDT	0.01223568
-2.875407	what's/NNS	-0.01284502
-1.690231	what/WDT	-0.2929355
-3.789221	when/WRB	0.009239258
-3.643093	where/WRB	0.01929079
-4.488191	whether/IN	-0.000839577
-2.546183	which/WDT	-0.027228
-4.488191	while/IN	-0.0005713154
-4.3121	who/WP	-0.0008383559
-3.488191	will/MD	-0.002313734
-4.187161	wish/VBP	0.02959787
-2.519708	with/IN	-0.01873907
-4.3121	within/IN	0.01818657
-4.3121	without/IN	-0.000456285
-4.488191	working/VBG	0.009740166
-4.488191	world/NN	-0.0002816893
-2.834979	worth/NN	0.1163243
-2.349888	would/MD	-0.09937331
-3.789221	y/NN	0.009188694
-4.488191	year/NN	-0.0007689979
-3.886131	yes/UH	0.02172807
-3.886131	yn/NN	0.03256653
-4.3121	york's/NNP	-0.001170626
-2.616035	york/NNP	0.04265719
-2.442868	you/PRP	-0.03224367
-3.558772	your/PRP$	0.01024726
-4.488191	yyz/NN	0.0355948
-4.488191	zone/NN	0.003772092

\2-grams:
-2.500145	//. dl/NN
-2.675778	0900/CD </s>
-2.678063	1/CD </s>
-2.678063	1/CD in/IN
-2.280123	1/CD o'clock/NN	0.005708031
-2.678518	10/CD in/IN
-2.13445	10/CD o'clock/NN	0.006169274
-2.500145	100/CD </s>
-1.556749	1000/CD dollars/NNS	0.007360465
-2.675778	1017/CD in/IN
-2.675778	1020pm/CD </s>
-2.675778	1024/CD in/IN
-2.675778	1026/CD </s>
-2.675778	1030am/CD and/CC
-2.676236	1039/CD from/IN
-2.676236	1039/CD on/IN
-2.675778	1045am/CD </s>
-2.675778	1055/CD //.
-2.675778	1059/CD </s>
-2.675778	106/CD from/IN
-2.675778	1083/CD from/IN
-1.739045	10am/CD </s>
-1.994317	10am/CD and/CC	-0.001590258
-2.693287	10am/CD any/DT
-2.693287	10am/CD boston/NNP
-2.693287	10am/CD first/JJ
-2.517196	10am/CD in/IN	0.06380694
-2.693287	10am/CD local/JJ
-2.216166	10am/CD on/IN	0.01404104
-2.392257	10am/CD what/WDT	0.004925567
-2.026215	10pm/CD </s>
-2.679428	10pm/CD on/IN
-2.675778	11/CD o'clock/NN
-2.133995	1100/CD dollars/NNS	0.0127537
-2.675778	110pm/CD on/IN
-2.500145	1110/CD in/IN	0.06380694
-2.279211	1115am/CD and/CC	-0.001032376
-2.675778	1130am/CD </s>
-2.675778	1133am/CD and/CC
-2.500145	1145am/CD </s>
-2.675778	1158pm/CD what/WDT
-2.376121	11am/CD </s>
-2.67715	11am/CD on/IN
-2.500145	11pm/CD </s>
-1.951602	12/CD and/CC	-0.002250575
-1.737723	12/CD noon/NN	0.02513714
-1.951602	12/CD o'clock/NN	0.005518829
-2.675778	1200/CD hours/NNS
-2.675778	1205/CD in/IN
-2.675778	1209/CD </s>
-2.675778	1220pm/CD and/CC
-2.500145	1222/CD from/IN	0.00294163
-2.675778	1230pm/CD </s>
-2.675778	124/CD dollars/NNS
-2.279211	1245pm/CD </s>
-2.675778	1288/CD </s>
-2.500602	1291/CD from/IN
-2.676694	1291/CD round/JJ
-2.282849	12pm/CD </s>
-2.136721	12pm/CD less/JJR	0.01478401
-2.680789	12pm/CD on/IN
-2.680789	12pm/CD to/TO
-2.675778	130/CD in/IN
-2.675778	1300/CD hours/NNS
-2.675778	137338/CD </s>
-2.675778	139/CD </s>
-2.675778	150/CD dollars/NNS
-2.675778	1500/CD dollars/NNS
-2.675778	1505/CD from/IN
-2.675778	1600/CD hours/NNS
-2.675778	163/CD </s>
-2.676236	1700/CD hours/NNS
-2.676236	1700/CD on/IN
-2.500145	1765/CD from/IN	0.0555111
-2.675778	1850/CD and/CC
-2.675778	19/CD from/IN
-2.675778	1940/CD </s>
-1.754978	1991/CD </s>
-2.684397	1991/CD carries/VBZ
-2.508305	1991/CD from/IN
-2.684397	1991/CD i'd/VBD
-2.67715	1992/CD </s>
-2.376121	1992/CD from/IN	0.05551255
-2.675778	1993/CD </s>
-2.13445	1pm/CD </s>
-2.678518	1pm/CD leaving/VBG
-2.678518	2/CD </s>
-2.678518	2/CD first/JJ
-2.502427	2/CD in/IN	0.06380694
-2.377488	2/CD o'clock/NN
-2.675778	200/CD dollars/NNS
-2.676236	201/CD </s>
-2.676236	201/CD from/IN
-2.375664	21/CD </s>
-2.675778	210/CD </s>
-2.279211	2100/CD </s>
-2.675778	210pm/CD </s>
-2.675778	212/CD from/IN
-2.500145	2134/CD </s>
-2.675778	2153/CD from/IN
-2.675778	217/CD from/IN
-2.675778	225pm/CD arriving/VBG
-2.675778	229/CD from/IN
-2.675778	230/CD on/IN
-2.375664	230pm/CD </s>
-2.675778	257/CD </s>
-2.676236	269/CD leaving/VBG
-2.676236	269/CD please/VB
-2.375664	270/CD from/IN	0.03691638
-2.675778	271/CD from/IN
-2.675778	279/CD or/CC
-2.133995	281/CD from/IN	0.05368441
-2.676694	296/CD denver/NNP
-2.676694	296/CD from/IN
-2.676694	296/CD serves/VBZ
-2.675778	297/CD from/IN
-1.808436	2pm/CD </s>
-2.683497	2pm/CD and/CC
-2.683497	2pm/CD from/IN
-2.683497	2pm/CD next/JJ
-2.683497	2pm/CD on/IN
-2.679428	3/CD and/CC
-2.503337	3/CD in/IN	0.06380694
-2.281488	3/CD o'clock/NN	0.01041173
-2.503337	3/CD stops/NNS	0.0004121468
-2.675778	300/CD dollars/NNS
-2.675778	305/CD in/IN
-2.675778	311/CD </s>
-2.675778	315/CD </s>
-2.675778	323/CD //.
-2.675778	324/CD on/IN
-2.675778	324pm/CD </s>
-2.675778	329/CD dollars/NNS
-2.675778	3357/CD from/IN
-2.500145	343/CD from/IN	0.0555111
-2.675778	345/CD from/IN
-2.675778	352/CD from/IN
-2.500145	3724/CD baltimore/NNP	0.06645249
-2.202307	3pm/CD </s>
-2.503337	3pm/CD between/IN
-2.679428	3pm/CD from/IN
-2.679428	3pm/CD on/IN
-2.285107	4/CD and/CC	-0.000825226
-2.029835	4/CD in/IN	0.06106978
-2.205926	4/CD o'clock/NN
-2.675778	400/CD dollars/NNS
-2.675778	402/CD from/IN
-2.675778	405/CD </s>
-2.676694	415/CD and/CC
-2.676694	415/CD dollars/NNS
-2.676694	415/CD from/IN
-2.675778	416/CD dollars/NNS
-2.675778	417/CD from/IN
-2.675778	420/CD what/WDT
-2.675778	428/CD what/WDT
-2.675778	430/CD and/CC
-2.376121	430pm/CD </s>
-2.67715	430pm/CD and/CC
-2.675778	43pm/CD </s>
-2.675778	4400/CD from/IN
-2.675778	445/CD and/CC
-2.675778	459/CD depart/VB
-2.076458	466/CD dollars/NNS	0.01410779
-2.675778	497766/CD from/IN
-1.839747	4pm/CD </s>
-2.508754	4pm/CD and/CC
-2.207724	4pm/CD on/IN	0.02772812
-2.684845	4pm/CD or/CC
-2.687975	5/CD </s>
-2.511883	5/CD and/CC
-2.386945	5/CD in/IN	0.06334955
-1.627277	5/CD o'clock/NN	0.02319229
-2.675778	500/CD dollars/NNS
-2.676236	505/CD from/IN
-2.676236	505/CD or/CC
-2.675778	515pm/CD </s>
-2.676236	530/CD </s>
-2.676236	530/CD and/CC
-2.375664	530pm/CD </s>
-2.675778	539/CD </s>
-2.500602	555/CD </s>
-2.676694	555/CD what/WDT
-1.443697	5pm/CD </s>
-2.69897	5pm/CD and/CC
-2.69897	5pm/CD but/CC
-2.69897	5pm/CD can/MD
-2.69897	5pm/CD it/PRP
-2.69897	5pm/CD next/JJ
-2.69897	5pm/CD nonstop/JJ
-2	5pm/CD on/IN	0.06156505
-2.69897	5pm/CD or/CC
-2.522879	5pm/CD the/DT	0.005262112
-2.684397	6/CD </s>
-2.684397	6/CD and/CC
-2.684397	6/CD in/IN
-1.730154	6/CD o'clock/NN	0.01656931
-2.675778	615pm/CD </s>
-2.675778	630/CD </s>
-2.500602	630am/CD </s>
-2.676694	630am/CD flight/NN
-2.500145	630pm/CD </s>
-2.675778	645am/CD going/VBG
-2.675778	650/CD </s>
-1.595496	6pm/CD </s>
-2.215285	6pm/CD and/CC
-2.692406	6pm/CD between/IN
-2.692406	6pm/CD next/JJ
-2.090346	6pm/CD on/IN	0.03839505
-2.379306	7/CD in/IN	0.06334955
-2.027123	7/CD o'clock/NN	0.007245264
-2.675778	705/CD to/TO
-2.675778	71/CD from/IN
-2.501059	718am/CD </s>
-2.67715	718am/CD american/NNP
-2.67715	718am/CD flight/NN
-2.500145	720am/CD </s>
-2.675778	723pm/CD </s>
-2.676236	727/CD from/IN
-2.676236	727/CD i/PRP
-2.676236	72s/CD </s>
-2.676236	72s/CD airplane/NN
-2.675778	730pm/CD </s>
-2.675778	733/CD </s>
-2.675778	734/CD </s>
-2.500602	737/CD </s>
-2.676694	737/CD hold/NN
-2.675778	73s/CD </s>
-2.675778	746/CD cost/VB
-2.677607	747/CD from/IN
-2.677607	747/CD leaving/VBG
-2.677607	747/CD on/IN
-2.501516	747/CD that/DT	0.0002844385
-2.675778	755/CD flight/NN
-2.675778	755am/CD flight/NN
-2.500145	757/CD arriving/VBG
-2.500145	767/CD </s>
-2.675778	771/CD pittsburgh/NNP
-2.376121	7am/CD </s>
-2.67715	7am/CD on/IN
-1.735066	7pm/CD </s>
-2.689309	7pm/CD and/CC
-2.291369	7pm/CD from/IN
-2.689309	7pm/CD in/IN
-2.145241	7pm/CD next/JJ	0.01263194
-2.513218	7pm/CD please/VB	0.01704801
-2.381566	8/CD </s>
-2.506505	8/CD in/IN	0.06380694
-1.904445	8/CD o'clock/NN	0.02548514
-2.675778	810pm/CD leaving/VBG
-2.375664	813/CD from/IN	0.0550537
-2.675778	815am/CD </s>
-2.675778	819/CD flight/NN
-2.675778	82/CD and/CC
-2.675778	823/CD in/IN
-2.67715	825/CD flying/VBG
-2.501059	825/CD from/IN	0.02918216
-2.67715	825/CD leaving/VBG
-2.676694	838/CD </s>
-2.676694	838/CD and/CC
-2.676694	838/CD make/VB
-2.676236	838am/CD and/CC
-2.676236	838am/CD which/WDT
-2.500145	845/CD in/IN	0.06380694
-2.676236	852/CD </s>
-2.676236	852/CD from/IN
-2.080085	8am/CD </s>
-2.682145	8am/CD flight/NN
-2.506054	8am/CD from/IN
-2.682145	8am/CD is/VBZ
-2.381115	8am/CD on/IN	0.008989383
-2.682145	8am/CD tuesday/NNP
-1.985426	8pm/CD </s>
-2.684397	8pm/CD and/CC
-2.684397	8pm/CD before/IN
-2.684397	8pm/CD for/IN
-2.684397	8pm/CD friday/NNP
-2.684397	8pm/CD in/IN
-2.508305	8pm/CD monday/NNP	0.001422965
-2.508305	8pm/CD on/IN
-2.684397	8pm/CD tomorrow/NN
-2.684397	8pm/CD wednesday/NNP
-2.679428	9/CD hours/NNS
-2.026215	9/CD o'clock/NN	0.006494568
-2.675778	928/CD from/IN
-2.500145	932/CD dollars/NNS	0.01458039
-2.375664	934pm/CD </s>
-2.675778	98/CD </s>
-1.942234	9am/CD </s>
-2.682596	9am/CD during/IN
-2.682596	9am/CD in/IN
-2.506505	9am/CD on/IN
-2.682596	9am/CD tell/VB
-2.682596	9am/CD thursday/NNP
-2.280123	9pm/CD </s>
-2.678063	9pm/CD from/IN
-2.678063	9pm/CD on/IN
-3.470484	<s> 630am/CD
-99	<s> <s>	0
-2.868424	<s> a/DT	0.003626202
-3.470484	<s> actually/RB
-3.294393	<s> afternoon/NN
-3.470484	<s> again/RB
-3.169454	<s> airline/NN
-3.470484	<s> airlines/NNS
-3.169454	<s> airports/NNS	0.001321073
-1.939005	<s> all/DT	0.09272277
-3.072544	<s> also/RB	-2.848357e-05
-3.294393	<s> am/RB	0.001342104
-2.692333	<s> american/NNP	0.0495837
-3.294393	<s> an/DT
-2.868424	<s> and/CC	3.018882e-05
-3.470484	<s> anything/DT
-2.055511	<s> are/VBP	0.01607943
-3.072544	<s> atlanta/NNP	0.08274573
-3.169454	<s> baltimore/NNP	0.0659951
-3.470484	<s> before/IN
-3.470484	<s> between/IN
-2.993363	<s> boston/NNP	0.1373676
-3.470484	<s> bring/VB
-1.908191	<s> can/MD	0.01117174
-2.771514	<s> cheapest/JJS	0.03471529
-3.294393	<s> chicago/NNP	0.01597363
-3.294393	<s> coach/NN
-3.470484	<s> code/NN
-3.470484	<s> continental/JJ
-2.180449	<s> could/MD	0.004363781
-3.470484	<s> daily/RB
-2.926416	<s> dallas/NNP	0.05781905
-3.169454	<s> define/JJ	0
-3.169454	<s> delta/NNP	0.006882763
-3.169454	<s> denver/NNP	0.09592001
-3.169454	<s> describe/VB
-2.567394	<s> display/NN	0
-3.470484	<s> dl/NN
-2.138046	<s> do/VB	0.01629802
-1.958601	<s> does/VBZ	0.02254698
-3.294393	<s> earliest/JJS	0.04739774
-3.470484	<s> early/JJ
-3.294393	<s> eastern/JJ
-3.470484	<s> economy/NN
-3.470484	<s> evening/NN
-2.771514	<s> explain/VB	-4.312024e-06
-3.470484	<s> fare/NN
-2.993363	<s> fares/NNS	0.0005084047
-1.958601	<s> find/VB	0.01924853
-3.470484	<s> fine/NN
-2.771514	<s> first/JJ	0.05609456
-2.19173	<s> flight/NN	0.179591
-1.674604	<s> flights/NNS	0.26332
-3.294393	<s> fly/VB	0.06956182
-3.294393	<s> flying/VBG	0.007626169
-3.470484	<s> for/IN
-3.470484	<s> friday's/NNP
-2.324356	<s> from/IN	0.07475904
-3.470484	<s> get/VB
-1.746208	<s> give/VB	0.02427338
-3.470484	<s> great/RB
-2.280152	<s> ground/NN	0.07517414
-3.072544	<s> hello/JJ	0
-2.771514	<s> hi/NN	0
-3.294393	<s> houston/NNP	-0.0001107533
-1.671143	<s> how/WRB	0.003571685
-1.541065	<s> i'd/VBD	0.01932077
-3.470484	<s> i'll/VB
-2.19173	<s> i'm/VB	0.002533764
-1.035118	<s> i/PRP	0.01182228
-2.730121	<s> in/IN	0.06381845
-2.49276	<s> information/NN	0.02840318
-3.470484	<s> instead/IN
-3.470484	<s> interested/VBN
-1.812473	<s> is/VBZ	0.1047906
-3.470484	<s> july/NNP
-3.470484	<s> kindly/RB
-3.470484	<s> last/JJ
-3.470484	<s> latest/JJS
-3.470484	<s> leave/VB
-3.294393	<s> leaving/VBG
-3.294393	<s> let's/VB
-3.470484	<s> like/VB
-1.343379	<s> list/VB	0.03578243
-3.470484	<s> listing/NN
-3.470484	<s> locate/VB
-2.868424	<s> looking/VBG	0.006764518
-3.169454	<s> lowest/JJS	0.003501819
-2.625386	<s> may/MD	0.0009038397
-3.470484	<s> minneapolis/NNP
-2.926416	<s> morning/NN	0.01907825
-3.294393	<s> my/PRP$
-3.470484	<s> name/NN
-3.470484	<s> names/NNS
-3.294393	<s> need/VB
-2.993363	<s> newark/NNP	0.01622203
-3.470484	<s> next/JJ
-3.470484	<s> no/RB
-2.868424	<s> nonstop/JJ	0.02608171
-3.470484	<s> northwest/NNP
-2.429091	<s> now/RB	0.001732237
-3.072544	<s> oakland/NNP	0.01789661
-3.294393	<s> of/IN
-3.470484	<s> oh/UH
-2.180449	<s> okay/NN	0
-2.19173	<s> on/IN	0.1068266
-3.294393	<s> one/CD	0.05449808
-3.470484	<s> only/RB
-2.730121	<s> philadelphia/NNP	0.05891658
-3.169454	<s> phoenix/NNP	0.0164161
-2.868424	<s> pittsburgh/NNP	0.08423276
-1.447232	<s> please/VB	0.005440436
-3.294393	<s> pm/RB	0.0008509379
-3.294393	<s> price/NN	0.00450915
-3.169454	<s> rental/NN	0.0004321738
-3.470484	<s> repeating/VBG
-3.294393	<s> requesting/VBG	0.0009143042
-3.470484	<s> return/NN
-2.391303	<s> round/JJ	0.07217322
-2.993363	<s> san/NNP	0.2528388
-3.169454	<s> saturday/NNP	0.0007153359
-3.470484	<s> sfo/NN
-2.993363	<s> shortest/JJS	0.0009066388
-0.792877	<s> show/VB	0.02137816
-3.470484	<s> sunday's/NNP
-3.470484	<s> sunday/NNP
-3.294393	<s> sure/JJ
-2.34015	<s> tell/VB	0.02556686
-3.072544	<s> thank/VB	0.002277375
-3.470484	<s> thanks/NNS
-2.926416	<s> the/DT	0.02810327
-3.470484	<s> then/RB
-3.294393	<s> train/NN	0
-3.470484	<s> tuesday/NNP
-3.169454	<s> united/NNP	0.03403178
-3.470484	<s> us/NNP
-2.926416	<s> us/PRP	0.0295388
-3.470484	<s> very/RB
-3.470484	<s> we're/VB
-3.169454	<s> wednesday/NNP	0.009868447
-3.470484	<s> weekday/NN
-3.470484	<s> well/RB
-2.993363	<s> what're/WDT	0
-1.908191	<s> what's/NNS	0.0006272569
-0.7011067	<s> what/WDT	0.009100795
-2.868424	<s> when/WRB	-3.825757e-06
-2.730121	<s> where/WRB	-1.577986e-05
-1.902282	<s> which/WDT	0.003101759
-3.470484	<s> while/IN
-3.294393	<s> would/MD	5.000993e-05
-2.868424	<s> yes/UH	0
-2.964731	a/DT 100/CD
-2.964731	a/DT 124/CD
-2.964731	a/DT 4/CD
-2.964731	a/DT 727/CD
-2.78864	a/DT 72s/CD
-2.964731	a/DT 733/CD
-2.964731	a/DT 734/CD
-2.964731	a/DT 73s/CD
-2.48761	a/DT 747/CD	0
-2.964731	a/DT 9/CD
-2.964731	a/DT airline/NN
-2.420663	a/DT boeing/NN	-3.367895e-06
-2.663701	a/DT breakfast/NN	0.001306483
-2.964731	a/DT business/NN
-2.362671	a/DT car/NN	0.002197275
-2.663701	a/DT cheap/JJ	-1.931447e-06
-2.663701	a/DT class/NN	-0.0003166058
-2.566791	a/DT coach/NN	0.002597873
-2.964731	a/DT connecting/VBG
-2.964731	a/DT connection/NN
-2.964731	a/DT continental/JJ
-2.964731	a/DT d9s/NN
-2.964731	a/DT dallas/NNP
-2.964731	a/DT day/NN
-2.48761	a/DT delta/NNP	0.003878446
-2.78864	a/DT dinner/NN
-2.48761	a/DT direct/JJ	0.0008434185
-2.964731	a/DT evening/NN
-2.964731	a/DT fare/NN
-1.904033	a/DT first/JJ	0.04897046
-0.6477128	a/DT flight/NN	0.09964696
-2.78864	a/DT friday/NNP	0.0165983
-2.964731	a/DT j31/NN
-2.964731	a/DT jet/NN
-2.78864	a/DT late/JJ
-2.362671	a/DT layover/NN	0.0004549972
-2.964731	a/DT limo/NN
-2.566791	a/DT limousine/NN	0.003626637
-1.697559	a/DT list/NN	0.003081677
-2.151818	a/DT listing/NN	0.0004526242
-1.760611	a/DT meal/NN	0.0003573392
-2.964731	a/DT minneapolis/NNP
-2.224368	a/DT monday/NNP	0.02217554
-2.663701	a/DT morning/NN	0.006690346
-2.964731	a/DT name/NN
-2.964731	a/DT night/NN
-1.904033	a/DT nonstop/JJ	0.002206574
-2.061641	a/DT one/CD	0.04858922
-2.420663	a/DT plane/NN	-2.142787e-05
-2.964731	a/DT red/JJ
-2.566791	a/DT rental/NN	0.002694754
-2.663701	a/DT reservation/NN	0
-2.420663	a/DT return/JJ	0.001345864
-2.964731	a/DT return/NN
-1.642512	a/DT round/JJ	0.064188
-2.48761	a/DT saturday/NNP	0.01514667
-2.566791	a/DT schedule/NN	0.004489867
-2.964731	a/DT single/JJ
-2.78864	a/DT snack/NN	0
-1.697559	a/DT stop/NN	0.003806831
-1.509886	a/DT stopover/NN	0.001270177
-2.224368	a/DT sunday/NNP	0.01774829
-2.964731	a/DT taxi/NN
-2.18658	a/DT thursday/NNP	0.0192425
-2.311518	a/DT ticket/NN	0.01143087
-2.964731	a/DT to/TO
-2.964731	a/DT transcontinental/JJ
-2.151818	a/DT trip/NN	0.005096832
-2.035312	a/DT tuesday/NNP	0.02033335
-2.78864	a/DT turboprop/NN	-1.449371e-06
-2.48761	a/DT twa/NNP	0.001623385
-2.420663	a/DT united/NNP	0.0348194
-2.663701	a/DT us/PRP	0.02909278
-2.78864	a/DT wednesday/NNP	0.0292757
-2.566791	a/DT weekday/NN	-9.594136e-06
-2.675778	aa/NN 459/CD
-2.678518	abbreviation/NN co/NN
-2.678518	abbreviation/NN d10/NN
-2.678518	abbreviation/NN dl/NN
-2.502427	abbreviation/NN for/IN
-2.678518	abbreviation/NN ua/NN
-2.678518	abbreviation/NN us/PRP
-2.500145	abbreviations/NNS </s>
-2.675778	able/JJ to/TO
-2.694166	about/IN 7pm/CD
-2.393136	about/IN a/DT	0.1093551
-2.694166	about/IN april/NNP
-2.694166	about/IN arrivals/NNS
-2.694166	about/IN car/NN
-1.694166	about/IN flights/NNS	0.2849749
-1.995196	about/IN ground/NN	0.07917072
-2.150098	about/IN the/DT	0.003069257
-2.694166	about/IN twa/NNP
-2.379306	about/RB 12/CD	0.006185502
-2.680336	about/RB 3/CD
-2.680336	about/RB 4/CD
-2.504244	about/RB 7pm/CD
-2.379306	about/RB 8/CD	0.003613301
-2.680336	about/RB mealtime/NN
-2.676236	ac/JJ </s>
-2.676236	ac/JJ and/CC
-2.675778	across/IN this/DT
-2.676236	actually/RB want/VBP
-2.676236	actually/RB what/WDT
-2.675778	advertises/VBZ having/VBG
-2.769377	after/IN 1/CD
-2.769377	after/IN 10/CD
-2.769377	after/IN 1020pm/CD
-2.769377	after/IN 1024/CD
-2.769377	after/IN 1026/CD
-2.371437	after/IN 10am/CD	0.005703995
-2.769377	after/IN 10pm/CD
-2.769377	after/IN 11/CD
-2.593286	after/IN 11pm/CD	0
-1.924279	after/IN 12/CD	0.0061523
-2.769377	after/IN 1200/CD
-2.769377	after/IN 1205/CD
-2.769377	after/IN 1230pm/CD
-1.956464	after/IN 12pm/CD	0
-2.769377	after/IN 130/CD
-2.769377	after/IN 1300/CD
-2.769377	after/IN 1600/CD
-2.593286	after/IN 1700/CD
-2.593286	after/IN 1pm/CD
-2.371437	after/IN 2/CD	0.0004525899
-2.371437	after/IN 2100/CD	0
-2.593286	after/IN 2134/CD	0
-2.371437	after/IN 2pm/CD	0.005431529
-2.593286	after/IN 3/CD
-2.769377	after/IN 305/CD
-2.225309	after/IN 3pm/CD	-8.635921e-06
-2.468347	after/IN 4/CD	0.001337899
-2.468347	after/IN 430pm/CD	-1.931447e-06
-2.029015	after/IN 4pm/CD	0.00496342
-2.070407	after/IN 5/CD	0.006259753
-2.769377	after/IN 530/CD
-2.769377	after/IN 530pm/CD
-1.690196	after/IN 5pm/CD	0.01048823
-1.924279	after/IN 6/CD	0.002239008
-1.791654	after/IN 6pm/CD	0.006621949
-2.468347	after/IN 718am/CD	-1.447159e-06
-2.769377	after/IN 723pm/CD
-2.593286	after/IN 7am/CD	0.0004554618
-2.116165	after/IN 7pm/CD	0.008958954
-2.292256	after/IN 8/CD	0.002699958
-2.769377	after/IN 815am/CD
-2.769377	after/IN 823/CD
-2.593286	after/IN 845/CD	0
-2.468347	after/IN 8am/CD	0.002253071
-1.956464	after/IN 8pm/CD	0.001325706
-2.468347	after/IN 934pm/CD	0
-2.769377	after/IN 9am/CD
-2.292256	after/IN 9pm/CD	0.0004559514
-2.769377	after/IN a/DT
-2.769377	after/IN delta/NNP
-2.593286	after/IN lunch/NN
-2.769377	after/IN midnight/NN
-1.791654	after/IN noon/NN	0.03630496
-2.769377	after/IN say/VBP
-2.769377	after/IN sunday/NNP
-2.292256	after/IN tomorrow/NN	0.009849794
-1.140733	afternoon/NN </s>
-1.793946	afternoon/NN and/CC	0.01923391
-2.748188	afternoon/NN any/DT
-2.350248	afternoon/NN arriving/VBG	0.03603525
-2.748188	afternoon/NN first/JJ
-1.793946	afternoon/NN flight/NN	0.1797233
-1.669007	afternoon/NN flights/NNS	0.2982629
-1.935275	afternoon/NN from/IN	0.08297966
-2.748188	afternoon/NN going/VBG
-2.748188	afternoon/NN have/VB
-2.748188	afternoon/NN i/PRP
-2.748188	afternoon/NN nonstop/JJ
-2.20412	afternoon/NN on/IN	0.02513584
-2.572097	afternoon/NN or/CC
-2.748188	afternoon/NN please/VB
-2.748188	afternoon/NN show/VB
-2.748188	afternoon/NN tomorrow/NN
-2.572097	afternoon/NN what's/NNS	0.002017866
-2.748188	afternoon/NN what/WDT
-2.675778	afternoons/NNS </s>
-2.675778	afterwards/NNS </s>
-2.027576	again/RB </s>
-2.680789	again/RB i/PRP
-2.680789	again/RB on/IN
-2.680789	again/RB qx/NNP
-2.680789	again/RB the/DT
-2.71265	air/NN 1039/CD
-2.71265	air/NN 269/CD
-2.71265	air/NN 311/CD
-1.867552	air/NN </s>
-2.71265	air/NN and/CC
-2.71265	air/NN around/RB
-2.536558	air/NN at/IN
-2.536558	air/NN boston/NNP
-2.41162	air/NN canada/NNP	-4.331581e-06
-2.71265	air/NN cost/VB
-2.41162	air/NN fare/NN
-2.41162	air/NN fares/NNS	0.04017447
-2.536558	air/NN first/JJ	0.05802802
-2.31471	air/NN flight/NN	0.1690632
-1.80956	air/NN flights/NNS	0.260611
-2.536558	air/NN fly/VB	0.06956182
-1.934498	air/NN from/IN	0.09001397
-2.41162	air/NN have/VB
-2.71265	air/NN how/WRB
-2.71265	air/NN laying/VBG
-2.71265	air/NN leaving/VBG
-2.71265	air/NN next/JJ
-2.71265	air/NN number/NN
-2.536558	air/NN on/IN
-2.71265	air/NN restrictions/NNS
-2.71265	air/NN round/JJ
-2.71265	air/NN stopping/VBG
-2.71265	air/NN taxi/NN
-2.31471	air/NN that/DT	0.01643687
-2.71265	air/NN with/IN
-2.676236	air/NNP 2153/CD
-2.676236	air/NNP 269/CD
-2.529773	aircraft/NN </s>
-2.529773	aircraft/NN and/CC
-2.404834	aircraft/NN are/VBP	0.000800179
-2.529773	aircraft/NN available/JJ
-2.705864	aircraft/NN can/MD
-2.705864	aircraft/NN departing/VBG
-2.529773	aircraft/NN do/VB	0.03196533
-2.228742	aircraft/NN does/VBZ	0.00703187
-2.705864	aircraft/NN flies/VBZ
-2.705864	aircraft/NN fly/VB
-2.705864	aircraft/NN for/IN
-2.705864	aircraft/NN has/VBZ
-1.751621	aircraft/NN is/VBZ	-0.002561676
-2.404834	aircraft/NN leaves/VBZ	0.001680549
-2.404834	aircraft/NN leaving/VBG
-2.705864	aircraft/NN number/NN
-2.705864	aircraft/NN of/IN
-2.006894	aircraft/NN that/DT	-0.0008665794
-2.705864	aircraft/NN type/NN
-2.705864	aircraft/NN types/NNS
-2.529773	aircraft/NN united/NNP	0.03448917
-2.161796	aircraft/NN used/VBN	0.006238325
-2.529773	aircraft/NN will/MD
-2.705864	aircraft/NN you/PRP
-2.506956	airfare/NN between/IN
-2.683047	airfare/NN flight/NN
-2.683047	airfare/NN flights/NNS
-2.683047	airfare/NN for/IN
-1.984077	airfare/NN from/IN	0.02981423
-2.506956	airfare/NN of/IN
-2.683047	airfare/NN round/JJ
-2.675778	airfares/NNS between/IN
-2.11227	airline/NN </s>
-2.538239	airline/NN abbreviations/NNS	0
-2.71433	airline/NN and/CC
-2.71433	airline/NN besides/IN
-2.71433	airline/NN can/MD
-2.538239	airline/NN code/NN
-2.71433	airline/NN dl/NN
-2.71433	airline/NN ff/NN
-2.71433	airline/NN flies/VBZ
-2.71433	airline/NN flight/NN
-1.973967	airline/NN flights/NNS	0.261502
-2.4133	airline/NN fly/VB	0.06956328
-2.71433	airline/NN flying/VBG
-2.538239	airline/NN for/IN
-2.237209	airline/NN from/IN
-2.061117	airline/NN has/VBZ	0.001768385
-1.973967	airline/NN have/VB	0.02357651
-2.71433	airline/NN hp/NN
-1.936179	airline/NN is/VBZ	0.1039791
-2.538239	airline/NN nw/NN	-1.449371e-06
-2.71433	airline/NN offer/VB
-2.538239	airline/NN offers/VBZ
-2.71433	airline/NN on/IN
-2.71433	airline/NN other/JJ
-2.71433	airline/NN provides/VBZ
-2.71433	airline/NN serves/VBZ
-2.71433	airline/NN stands/VBZ
-2.237209	airline/NN that/DT
-2.71433	airline/NN ua/NN
-2.538239	airline/NN us/PRP	-0.0001119789
-2.71433	airline/NN uses/VBZ
-2.71433	airline/NN with/IN
-1.172616	airlines/NNS </s>
-2.835373	airlines/NNS a/DT
-2.057222	airlines/NNS and/CC	0.01005412
-2.835373	airlines/NNS any/DT
-2.534343	airlines/NNS are/VBP
-2.659282	airlines/NNS arriving/VBG
-2.136404	airlines/NNS between/IN	0.03022669
-2.835373	airlines/NNS connect/VBP
-2.835373	airlines/NNS departing/VBG
-2.835373	airlines/NNS do/VB
-2.437433	airlines/NNS first/JJ	0.05711372
-2.659282	airlines/NNS flies/VBZ
-1.70504	airlines/NNS flight/NN	0.1649169
-1.568202	airlines/NNS flights/NNS	0.3186609
-1.40401	airlines/NNS fly/VB	0.06006346
-2.358252	airlines/NNS flying/VBG	0.00761896
-2.534343	airlines/NNS for/IN	0.01233448
-1.365551	airlines/NNS from/IN	0.2952965
-2.835373	airlines/NNS give/VB
-2.534343	airlines/NNS go/VB	0.04118462
-2.659282	airlines/NNS going/VBG	0.01346658
-1.72143	airlines/NNS have/VB	0.009125508
-2.534343	airlines/NNS in/IN
-2.291305	airlines/NNS international/JJ	0.00970287
-2.835373	airlines/NNS is/VBZ
-2.835373	airlines/NNS kansas/NNP
-2.835373	airlines/NNS leave/VB
-2.136404	airlines/NNS leaving/VBG	0.01340452
-2.835373	airlines/NNS may/MD
-2.835373	airlines/NNS offer/VB
-2.358252	airlines/NNS on/IN	0.01073141
-2.659282	airlines/NNS out/IN	0.008110671
-2.659282	airlines/NNS provide/VB
-2.534343	airlines/NNS serve/VB
-2.835373	airlines/NNS serves/VBZ
-2.659282	airlines/NNS service/NN
-2.835373	airlines/NNS serving/VBG
-2.835373	airlines/NNS stop/VB
-2.835373	airlines/NNS stopping/VBG
-1.85765	airlines/NNS that/DT	0.006764462
-2.835373	airlines/NNS their/PRP$
-2.835373	airlines/NNS tomorrow/NN
-2.835373	airlines/NNS tuesday/NNP
-2.437433	airlines/NNS uses/VBZ	0.0009090148
-2.659282	airlines/NNS which/WDT
-1.932284	airlines/NNS with/IN	0.003463414
-2.679428	airplane/NN </s>
-2.378398	airplane/NN goes/VBZ	0.005862372
-2.378398	airplane/NN is/VBZ	-2.026197e-05
-2.679428	airplane/NN it's/VB
-2.679428	airplane/NN types/NNS
-2.676236	airplanes/NNS are/VBP
-2.676236	airplanes/NNS that/DT
-1.421443	airport/NN </s>
-1.803778	airport/NN and/CC	-0.001867396
-2.557106	airport/NN at/IN
-2.733197	airport/NN by/IN
-2.733197	airport/NN can/MD
-2.733197	airport/NN for/IN
-2.335257	airport/NN from/IN	-0.001269917
-2.557106	airport/NN have/VB
-1.803778	airport/NN in/IN	0.04885045
-2.557106	airport/NN into/IN
-2.557106	airport/NN is/VBZ
-2.733197	airport/NN limousine/NN
-2.733197	airport/NN mco/NN
-2.432167	airport/NN next/JJ	0.001537438
-1.390775	airport/NN to/TO	0.07400214
-1.907591	airports/NNS </s>
-2.50965	airports/NNS by/IN	0.002109753
-2.685742	airports/NNS does/VBZ
-2.208621	airports/NNS in/IN	0.0005626874
-2.685742	airports/NNS near/IN
-2.50965	airports/NNS to/TO	-0.0007948563
-2.685742	airports/NNS today/NN
-2.500145	alaska/NNP airlines/NNS
-2.71293	all/DT afternoon/NN	0.008032391
-2.889021	all/DT aircraft/NN
-2.889021	all/DT airline/NN
-2.4119	all/DT airlines/NNS	0.004290039
-2.286961	all/DT airports/NNS	-4.533702e-05
-2.889021	all/DT all/DT
-2.889021	all/DT am/RB
-2.4119	all/DT american/NNP	0.04881695
-2.889021	all/DT arrivals/NNS
-2.889021	all/DT available/JJ
-2.889021	all/DT canadian/NNP
-2.71293	all/DT cities/NNS	-2.842525e-05
-2.71293	all/DT connecting/VBG	0.001328011
-2.190051	all/DT daily/RB	0.008398222
-2.889021	all/DT day/NN
-2.71293	all/DT delta/NNP	0.007340157
-2.587991	all/DT direct/JJ	0.003110408
-2.889021	all/DT economy/NN
-2.889021	all/DT fare/NN
-2.491081	all/DT fares/NNS
-2.491081	all/DT first/JJ	0.05711372
-2.889021	all/DT flight/NN
-0.6484722	all/DT flights/NNS	0.2461987
-2.889021	all/DT ground/NN
-2.889021	all/DT meals/NNS
-2.889021	all/DT midwest/NNP
-2.71293	all/DT monday/NNP	0.0002215971
-2.71293	all/DT nationair/NNP	-4.339847e-06
-1.959602	all/DT nonstop/JJ	0.02154495
-2.71293	all/DT nonstops/NNS	0
-2.587991	all/DT northwest/NNP	0.003089871
-2.587991	all/DT of/IN	0.01081455
-2.587991	all/DT one/CD	0.05404069
-2.587991	all/DT other/JJ	0.001332627
-2.889021	all/DT overnight/JJ
-2.71293	all/DT prices/NNS	0.003144158
-2.190051	all/DT right/RB	0
-1.985931	all/DT round/JJ	0.07622872
-2.889021	all/DT takeoffs/NNS
-1.114504	all/DT the/DT	0.05185424
-2.889021	all/DT trans/NNS
-2.71293	all/DT tuesday/NNP
-2.889021	all/DT twa/NNP
-2.235809	all/DT united/NNP	0.04096361
-2.71293	all/DT us/PRP	0.02955018
-2.889021	all/DT wednesday/NNP
-2.889021	all/DT weekday/NN
-2.676236	along/IN the/DT
-2.676236	along/IN with/IN
-2.683947	also/RB arriving/VBG
-2.683947	also/RB be/VB
-2.683947	also/RB give/VB
-2.683947	also/RB in/IN
-2.507856	also/RB interested/VBN	0.008160261
-2.683947	also/RB like/VB
-2.382917	also/RB need/VB	0.01796592
-2.507856	also/RB on/IN
-2.683947	also/RB serve/VB
-2.382917	also/RB show/VB	0.2796467
-2.683947	also/RB stop/VB
-2.683947	also/RB the/DT
-2.683947	also/RB to/TO
-2.381115	am/RB </s>
-2.205024	am/RB flights/NNS	0.2534647
-2.138077	am/RB on/IN	0.01312721
-2.682145	am/RB tomorrow/NN
-2.679882	am/VB also/RB
-2.077822	am/VB interested/VBN	0.0058781
-2.503791	am/VB looking/VBG
-2.375664	america/NNP west/NN	0
-2.676236	american's/NNP last/JJ
-2.676236	american's/NNP schedule/NN
-2.445993	american/NNP </s>
-1.93411	american/NNP airline/NN	0.005139971
-0.9546315	american/NNP airlines/NNS	0.06181226
-2.269902	american/NNP and/CC	-0.0005716075
-2.747023	american/NNP doesn't/VBZ
-2.202955	american/NNP flight/NN	0.1690635
-2.093811	american/NNP flights/NNS	0.2586699
-2.144963	american/NNP from/IN	0.03769968
-2.747023	american/NNP in/IN
-2.747023	american/NNP on/IN
-2.445993	american/NNP to/TO	0.0498277
-2.279211	amount/NN of/IN	-0.0005164841
-2.701568	an/DT 819/CD
-2.048356	an/DT afternoon/NN	0.002924193
-2.701568	an/DT aircraft/NN
-2.224447	an/DT airline/NN	0.0006939188
-2.701568	an/DT airport/NN
-2.224447	an/DT american/NNP	0.04881695
-2.701568	an/DT atlanta/NNP
-1.525477	an/DT early/JJ	0.00470831
-2.701568	an/DT economy/NN
-2.525477	an/DT evening/NN	0.002328074
-2.701568	an/DT f28/NN
-2.701568	an/DT flight/NN
-2.701568	an/DT inexpensive/JJ
-2.525477	an/DT m80/NN	0
-2.760925	and/CC 1/CD	0.0009094867
-2.937016	and/CC 10pm/CD
-2.937016	and/CC 1130am/CD
-2.539076	and/CC 1245pm/CD	0
-2.937016	and/CC 2/CD
-2.238046	and/CC 2pm/CD	0.002236953
-2.937016	and/CC 3/CD
-2.937016	and/CC 3pm/CD
-2.334956	and/CC 4/CD	0.0004164251
-2.937016	and/CC 43pm/CD
-2.760925	and/CC 5/CD	0.008992591
-2.937016	and/CC 515pm/CD
-2.760925	and/CC 530pm/CD	0.0004573932
-2.635986	and/CC 5pm/CD	0.0140905
-2.937016	and/CC 630pm/CD
-2.760925	and/CC 6pm/CD	0.009789922
-2.937016	and/CC 730pm/CD
-2.635986	and/CC 7pm/CD	0.006235153
-2.760925	and/CC 8pm/CD
-2.635986	and/CC a/DT	0.1093551
-2.937016	and/CC afterwards/NNS
-2.760925	and/CC all/DT
-2.937016	and/CC also/RB
-2.937016	and/CC arrivals/NNS
-1.575288	and/CC arrive/VB	0.01832009
-2.334956	and/CC arrives/VBZ	0.005344006
-1.565948	and/CC arriving/VBG	0.02699813
-2.937016	and/CC as/IN
-2.937016	and/CC atl/NN
-1.982774	and/CC atlanta/NNP	0.06597885
-2.392948	and/CC back/RB	0.003614246
-1.790888	and/CC baltimore/NNP	0.06389218
-2.760925	and/CC be/VB
-2.334956	and/CC before/IN
-2.937016	and/CC between/IN
-1.646981	and/CC boston/NNP	0.2066857
-2.760925	and/CC bwi/NN	0.001342104
-2.937016	and/CC can/MD
-2.937016	and/CC canadian/NNP
-2.539076	and/CC charlotte/NNP	0.007435641
-2.937016	and/CC chicago/NNP
-2.937016	and/CC coach/NN
-2.459895	and/CC connecting/VBG	-4.272652e-05
-2.937016	and/CC cost/VB
-2.033926	and/CC dallas/NNP	0.07178861
-2.937016	and/CC dc/NN
-2.539076	and/CC delta/NNP	0.01070969
-1.604578	and/CC denver/NNP	0.07489011
-2.635986	and/CC depart/VB
-2.760925	and/CC departing/VBG
-2.937016	and/CC departure/NN
-2.635986	and/CC dfw/NN	-7.203082e-06
-2.033926	and/CC downtown/NN	0.01152811
-2.937016	and/CC earlier/JJR
-2.937016	and/CC either/RB
-2.459895	and/CC fare/NN	0.02755305
-1.959293	and/CC fares/NNS	0.03588576
-2.937016	and/CC first/JJ
-2.459895	and/CC flight/NN	0.001096853
-2.392948	and/CC flights/NNS	0.2520925
-2.539076	and/CC fly/VB	0.00389808
-2.937016	and/CC fn/NN
-2.937016	and/CC fort/NN
-2.937016	and/CC friday/NNP
-2.283804	and/CC from/IN	0.00116209
-2.937016	and/CC get/VB
-2.937016	and/CC give/VB
-2.539076	and/CC go/VB	0.006272207
-2.760925	and/CC goes/VBZ
-2.392948	and/CC going/VBG	0.008983649
-2.760925	and/CC have/VB
-2.937016	and/CC houston/NNP
-2.635986	and/CC how/WRB	0.01707488
-2.061955	and/CC i'd/VBD	0.08334438
-2.937016	and/CC i'll/VB
-2.635986	and/CC i'm/VB
-1.915827	and/CC i/PRP	0.1187375
-2.937016	and/CC in/IN
-2.760925	and/CC include/VBP
-2.760925	and/CC is/VBZ
-2.937016	and/CC it/PRP
-2.937016	and/CC la/NN
-2.937016	and/CC land/NN
-2.760925	and/CC landing/NN
-2.392948	and/CC landings/NNS	0.0009104707
-2.937016	and/CC lands/NNS
-2.334956	and/CC las/NNP	0.04452661
-2.334956	and/CC leave/VB	0.01087068
-2.760925	and/CC leaves/VBZ	0.002137943
-2.635986	and/CC list/VB
-2.392948	and/CC make/VB	0.007644864
-2.760925	and/CC makes/VBZ	0.00319168
-2.937016	and/CC memphis/NNP
-2.459895	and/CC miami/NNP	0.01149511
-2.937016	and/CC midnight/NN
-2.937016	and/CC milwaukee/NNP
-2.760925	and/CC new/JJ	0.06140703
-2.635986	and/CC newark/NNP	0.007796079
-2.539076	and/CC northwest/NNP	0.004439362
-1.895623	and/CC oakland/NNP	0.02505414
-2.760925	and/CC on/IN
-2.238046	and/CC orlando/NNP	0.01693469
-2.539076	and/CC out/IN	0.007196368
-1.895623	and/CC philadelphia/NNP	0.06411929
-2.459895	and/CC phoenix/NNP	0.01641995
-1.982774	and/CC pittsburgh/NNP	0.1591434
-2.937016	and/CC price/NN
-2.937016	and/CC prices/NNS
-2.937016	and/CC qw/NN
-2.937016	and/CC qx/NNP
-2.760925	and/CC return/NN	-1.151278e-05
-2.760925	and/CC return/VB
-2.091918	and/CC returning/VBG	0.001355056
-2.937016	and/CC round/JJ
-2.937016	and/CC salt/NNP
-1.51377	and/CC san/NNP	0.2323691
-2.635986	and/CC serve/VB
-2.937016	and/CC serves/VBZ
-2.937016	and/CC serving/VBG
-2.937016	and/CC show/VB
-2.760925	and/CC st./NNP	0.01679198
-2.937016	and/CC still/RB
-2.937016	and/CC stop//VB
-2.760925	and/CC stop/VB
-2.937016	and/CC stopping/VBG
-2.760925	and/CC stops/NNS	0.007180509
-2.937016	and/CC sunday's/NNP
-2.937016	and/CC sunday/NNP
-2.937016	and/CC take/VB
-2.760925	and/CC tampa/NNP	0.004324984
-2.937016	and/CC tell/VB
-2.937016	and/CC that/DT
-1.937016	and/CC the/DT	0.0985897
-2.760925	and/CC their/PRP$	-4.339847e-06
-2.196653	and/CC then/RB	0.001349792
-2.937016	and/CC this/DT
-2.238046	and/CC thursday/NNP	0.0324159
-2.760925	and/CC thursdays/NNPS	0.0004573932
-2.937016	and/CC time/NN
-2.760925	and/CC times/NNS	0.001763876
-2.937016	and/CC to/TO
-2.937016	and/CC toronto/NNP
-2.937016	and/CC twa/NNP
-2.937016	and/CC twenty/CD
-2.459895	and/CC united/NNP	0.03357728
-1.959293	and/CC washington/NNP	0.06551263
-2.760925	and/CC wednesday/NNP	0.0292757
-2.937016	and/CC what's/NNS
-2.392948	and/CC what/WDT	0.08475409
-2.937016	and/CC with/IN
-1.774732	angeles/NNP </s>
-2.528059	angeles/NNP after/IN
-2.70415	angeles/NNP arriving/VBG
-2.70415	angeles/NNP by/IN
-2.528059	angeles/NNP departing/VBG	0.001703479
-2.70415	angeles/NNP destination/NN
-2.528059	angeles/NNP in/IN	0.06380694
-2.70415	angeles/NNP international/JJ
-2.70415	angeles/NNP leaving/VBG
-2.70415	angeles/NNP morning/NN
-2.70415	angeles/NNP next/JJ
-2.227029	angeles/NNP on/IN	0.01404104
-2.403121	angeles/NNP that/DT
-2.306211	angeles/NNP thursday/NNP	0.002111615
-1.682961	angeles/NNP to/TO	0.01609339
-2.70415	angeles/NNP wednesday/NNP
-2.528059	angeles/NNP which/WDT
-2.70415	angeles/NNP with/IN
-2.67715	another/DT </s>
-2.501059	another/DT city/NN	0.0188464
-2.67715	another/DT flight/NN
-2.719745	any/DT 4/CD
-2.066533	any/DT airline/NN	0.001898731
-2.543654	any/DT airlines/NNS	0.004694604
-2.719745	any/DT airport/NN
-2.719745	any/DT american/NNP
-2.321805	any/DT city/NN	0.0188493
-2.543654	any/DT class/NN
-2.719745	any/DT continental/JJ
-2.175678	any/DT day/NN	0.004406121
-2.418715	any/DT direct/JJ	0.003110408
-2.719745	any/DT early/JJ
-2.719745	any/DT first/JJ
-2.418715	any/DT flight/NN
-1.358018	any/DT flights/NNS	0.2904205
-2.719745	any/DT ground/NN
-2.719745	any/DT later/JJ
-2.719745	any/DT limousines/NNS
-2.242624	any/DT nonstop/JJ	0.02653429
-2.543654	any/DT of/IN	0.01127194
-2.242624	any/DT other/JJ	-1.709023e-05
-2.719745	any/DT show/VB
-2.719745	any/DT stopovers/NNS
-2.719745	any/DT thrift/NN
-2.719745	any/DT time/NN
-2.719745	any/DT turboprop/NN
-2.543654	any/DT united/NNP
-2.719745	any/DT us/PRP
-2.675778	anything/DT from/IN
-2.677607	anywhere/RB </s>
-2.677607	anywhere/RB between/IN
-2.501516	anywhere/RB on/IN	0.005447383
-2.677607	anywhere/RB to/TO
-2.675778	ap/55/NN </s>
-2.135814	ap/57/NN </s>
-2.378852	ap/57/NN mean/VB	0.02097156
-2.679882	ap/57/NN restriction/NN
-2.500602	ap/80/NN </s>
-2.676694	ap/80/NN mean/VB
-2.675778	ap/NN please/VB
-2.501059	ap57/NN </s>
-2.67715	ap57/NN mean/VB
-2.67715	ap57/NN restriction/NN
-2.675778	ap68/NN </s>
-2.375664	ap80/NN </s>
-2.676236	approximately/RB 1pm/CD
-2.676236	approximately/RB 615pm/CD
-2.50965	april/NNP eighth/JJ
-2.685742	april/NNP fifteenth/JJ
-2.685742	april/NNP fourth/JJ
-2.685742	april/NNP ninth/JJ
-2.685742	april/NNP seventeen/CD
-2.50965	april/NNP sixteen/CD
-2.287802	april/NNP sixth/JJ	0.002707586
-2.50965	april/NNP twentieth/JJ
-1.986772	april/NNP twenty/CD	0.01896409
-2.669627	are/VBP </s>
-2.845718	are/VBP ac/JJ
-2.845718	are/VBP after/IN
-1.942628	are/VBP all/DT	0.1489991
-2.845718	are/VBP any/DT
-1.260257	are/VBP available/JJ	0.03229227
-2.368597	are/VBP between/IN	0.03204763
-2.669627	are/VBP connecting/VBG	0.001328011
-2.845718	are/VBP currently/RB
-2.845718	are/VBP economy/NN
-2.845718	are/VBP fare/NN
-2.447778	are/VBP first/JJ	0.05711372
-2.544688	are/VBP flights/NNS	0.2534618
-2.669627	are/VBP from/IN
-2.845718	are/VBP i/PRP
-2.845718	are/VBP later/RB
-2.544688	are/VBP less/JJR	0.01615331
-2.368597	are/VBP my/PRP$	-7.667579e-06
-2.368597	are/VBP nonstop/JJ	5.480601e-05
-2.845718	are/VBP of/IN
-2.845718	are/VBP offered/VBN
-2.669627	are/VBP on/IN
-2.544688	are/VBP provided/VBN	0.0009133426
-2.845718	are/VBP represented/VBN
-2.243658	are/VBP served/VBD	0.001316517
-2.669627	are/VBP serviced/VBN	0
-0.893895	are/VBP the/DT	0.1745224
-1.067567	are/VBP there/EX	-0.001954485
-2.845718	are/VBP they/PRP
-2.845718	are/VBP use/VB
-2.30165	are/VBP used/VBN	-7.307087e-05
-2.544688	are/VBP your/PRP$	0.0008818797
-2.279211	area/NN </s>
-2.676236	arizona/NNP i/PRP
-2.676236	arizona/NNP on/IN
-2.702861	around/RB 10/CD
-2.304921	around/RB 10pm/CD	0.001818534
-2.702861	around/RB 11am/CD
-2.702861	around/RB 12/CD
-2.401831	around/RB 1pm/CD	0.001365926
-2.702861	around/RB 2/CD
-2.401831	around/RB 230pm/CD	0
-2.702861	around/RB 2pm/CD
-2.702861	around/RB 3/CD
-2.702861	around/RB 3pm/CD
-2.22574	around/RB 5/CD	0.008991139
-2.401831	around/RB 5pm/CD	0.01454934
-2.702861	around/RB 630pm/CD
-2.304921	around/RB 6pm/CD	0.001281359
-2.049649	around/RB 7/CD	0.001362137
-2.049649	around/RB 7pm/CD	0.00713372
-2.702861	around/RB 8/CD
-2.702861	around/RB 8am/CD
-2.702861	around/RB 8pm/CD
-2.702861	around/RB 9/CD
-2.52677	around/RB 9am/CD
-2.702861	around/RB dinnertime/NN
-2.52677	around/RB midnight/NN
-2.22574	around/RB noon/NN	0.02961151
-2.52677	around/RB noontime/NN
-2.200942	arrange/VB a/DT	0.1084417
-2.678063	arrange/VB for/IN
-1.753628	arrangements/NNS for/IN	0.009653438
-2.683047	arrangements/NNS from/IN
-2.675778	arrival/JJ time/NN
-2.67715	arrival/NN by/IN
-2.67715	arrival/NN for/IN
-2.67715	arrival/NN in/IN
-2.67715	arrival/NN time/NN
-2.677607	arrivals/NNS for/IN
-2.677607	arrivals/NNS from/IN
-2.376577	arrivals/NNS in/IN	0.01338166
-2.735599	arrive/VB 10pm/CD
-1.957448	arrive/VB after/IN	0.009632531
-2.735599	arrive/VB and/CC
-2.337659	arrive/VB around/RB	0.000785274
-1.80618	arrive/VB at/IN	0.009593768
-1.638689	arrive/VB before/IN	0.02365559
-2.434569	arrive/VB between/IN
-2.559508	arrive/VB by/IN
-2.735599	arrive/VB close/RB
-2.735599	arrive/VB dallas/NNP
-2.735599	arrive/VB early/RB
-1.210554	arrive/VB in/IN	0.100623
-2.735599	arrive/VB near/IN
-2.735599	arrive/VB next/JJ
-2.133539	arrive/VB on/IN	0.01526344
-2.735599	arrive/VB soon/RB
-2.511883	arrives/VBZ around/RB
-2.687975	arrives/VBZ as/IN
-2.511883	arrives/VBZ at/IN
-2.386945	arrives/VBZ before/IN
-2.687975	arrives/VBZ between/IN
-2.687975	arrives/VBZ close/RB
-2.511883	arrives/VBZ earliest/JJS	-0.0001803176
-1.758556	arrives/VBZ in/IN	0.07250639
-2.755494	arriving/VBG </s>
-2.755494	arriving/VBG about/RB
-1.94258	arriving/VBG after/IN	0.00235671
-2.755494	arriving/VBG also/RB
-2.579402	arriving/VBG and/CC	-0.0006213104
-2.056524	arriving/VBG around/RB	0.000676123
-1.734304	arriving/VBG at/IN	0.006523938
-2.755494	arriving/VBG atlanta/NNP
-2.755494	arriving/VBG baltimore/NNP
-1.910396	arriving/VBG before/IN	0.002504325
-2.211426	arriving/VBG between/IN	0.002610546
-2.579402	arriving/VBG boston/NNP
-2.454464	arriving/VBG by/IN	0.0003652925
-2.755494	arriving/VBG cleveland/NNP
-2.579402	arriving/VBG denver/NNP
-2.755494	arriving/VBG flights/NNS
-2.755494	arriving/VBG i'd/VBD
-1.083396	arriving/VBG in/IN	0.1897603
-2.755494	arriving/VBG july/NNP
-2.357554	arriving/VBG may/NNP	0.00261014
-2.579402	arriving/VBG near/IN
-2.056524	arriving/VBG on/IN	0.01093002
-2.579402	arriving/VBG philadelphia/NNP
-2.755494	arriving/VBG pittsburgh/NNP
-2.454464	arriving/VBG to/TO	0.02375678
-2.288249	as/IN </s>
-2.686189	as/IN a/DT
-2.686189	as/IN boston/NNP
-2.686189	as/IN business/NN
-2.142121	as/IN early/RB	-9.208289e-05
-2.686189	as/IN i/PRP
-2.084129	as/IN possible/JJ	0.003567256
-2.686189	as/IN san/NNP
-2.686189	as/IN soon/RB
-2.686189	as/IN well/RB
-2.743901	at/IN 10am/CD
-2.743901	at/IN 110pm/CD
-2.56781	at/IN 1110/CD	0
-2.743901	at/IN 11am/CD
-2.743901	at/IN 12/CD
-2.743901	at/IN 1220pm/CD
-2.743901	at/IN 1505/CD
-2.743901	at/IN 1940/CD
-2.743901	at/IN 210pm/CD
-2.743901	at/IN 225pm/CD
-2.743901	at/IN 230/CD
-2.743901	at/IN 324pm/CD
-2.743901	at/IN 329/CD
-2.743901	at/IN 420/CD
-2.743901	at/IN 428/CD
-2.743901	at/IN 4pm/CD
-2.442872	at/IN 5/CD	0.008994041
-2.442872	at/IN 555/CD	0
-2.141842	at/IN 5pm/CD	0.01272457
-2.56781	at/IN 6/CD	0.006785186
-2.743901	at/IN 630/CD
-2.743901	at/IN 645am/CD
-2.743901	at/IN 650/CD
-2.743901	at/IN 7/CD
-2.743901	at/IN 705/CD
-2.56781	at/IN 720am/CD	0
-2.26678	at/IN 7pm/CD	0.006681106
-2.56781	at/IN 838/CD
-2.56781	at/IN 838am/CD
-2.743901	at/IN 8am/CD
-2.743901	at/IN 8pm/CD
-2.743901	at/IN 9/CD
-2.442872	at/IN 9am/CD	0.003615712
-2.743901	at/IN a/DT
-2.743901	at/IN about/IN
-2.26678	at/IN about/RB	0.0004463978
-2.56781	at/IN another/DT	-2.89653e-06
-2.743901	at/IN approximately/RB
-2.345962	at/IN around/RB	0.002060628
-2.743901	at/IN atlanta/NNP
-2.345962	at/IN baltimore/NNP
-2.442872	at/IN boston/NNP	0.001008448
-2.345962	at/IN chicago/NNP	0.0002484247
-2.26678	at/IN dallas/NNP	0.01751461
-2.199833	at/IN denver/NNP	0.06731331
-2.743901	at/IN economy/NN
-1.766178	at/IN general/NNP	0.004922506
-2.442872	at/IN least/JJS
-2.56781	at/IN logan/NNP	0.0004496934
-2.26678	at/IN love/VB	0.01125761
-2.743901	at/IN milwaukee/NNP
-2.56781	at/IN new/JJ	0.06140703
-2.743901	at/IN night/NN
-2.345962	at/IN noon/NN	0.00482918
-2.743901	at/IN noontime/NN
-2.442872	at/IN one/CD	0.0005214367
-2.743901	at/IN orlando/NNP
-2.442872	at/IN philadelphia/NNP
-2.743901	at/IN phoenix/NNP
-2.141842	at/IN pittsburgh/NNP	-0.0003021037
-2.743901	at/IN salt/NNP
-2.56781	at/IN san/NNP	0.2542095
-2.743901	at/IN stapleton/NNP
-2.743901	at/IN tampa/NNP
-1.930988	at/IN the/DT	-0.001321055
-2.743901	at/IN toronto/NNP
-2.676236	atl/NN </s>
-2.676236	atl/NN to/TO
-2.500145	atlanta's/NNS airport/NN	0.01540145
-0.9189504	atlanta/NNP </s>
-2.230704	atlanta/NNP after/IN	0.008253178
-2.929674	atlanta/NNP again/RB
-2.276462	atlanta/NNP airport/NN	0.03233706
-1.587252	atlanta/NNP and/CC	0.06616649
-2.753583	atlanta/NNP around/RB
-2.929674	atlanta/NNP arrives/VBZ
-2.628644	atlanta/NNP arriving/VBG	0.03603381
-2.929674	atlanta/NNP at/IN
-2.628644	atlanta/NNP august/NNP	0.0007133285
-2.929674	atlanta/NNP back/RB
-2.929674	atlanta/NNP baltimore/NNP
-2.189312	atlanta/NNP before/IN	0.02222807
-2.929674	atlanta/NNP beginning/VBG
-2.929674	atlanta/NNP between/IN
-2.929674	atlanta/NNP bound/VBN
-2.929674	atlanta/NNP by/IN
-2.929674	atlanta/NNP can/MD
-2.929674	atlanta/NNP coach/NN
-2.929674	atlanta/NNP could/MD
-2.929674	atlanta/NNP denver/NNP
-2.929674	atlanta/NNP early/JJ
-2.929674	atlanta/NNP evening/NN
-2.929674	atlanta/NNP find/VB
-2.929674	atlanta/NNP flight/NN
-2.929674	atlanta/NNP flights/NNS
-2.452553	atlanta/NNP for/IN	0.001479443
-2.385606	atlanta/NNP from/IN	0.07956835
-2.531734	atlanta/NNP georgia/NNP	0
-2.929674	atlanta/NNP ground/NN
-2.929674	atlanta/NNP have/VB
-2.929674	atlanta/NNP heading/VBG
-2.531734	atlanta/NNP i/PRP	0.07181096
-2.084576	atlanta/NNP in/IN	0.05926076
-2.929674	atlanta/NNP later/RB
-2.929674	atlanta/NNP least/JJS
-2.929674	atlanta/NNP leave/VB
-2.276462	atlanta/NNP leaving/VBG	0.01278803
-2.628644	atlanta/NNP next/JJ	0.004507709
-1.459852	atlanta/NNP on/IN	0.1411034
-2.753583	atlanta/NNP one/CD	0.05449808
-2.628644	atlanta/NNP please/VB	0.01704946
-2.929674	atlanta/NNP return/NN
-2.929674	atlanta/NNP returning/VBG
-2.753583	atlanta/NNP round/JJ	0.08167873
-2.929674	atlanta/NNP so/CC
-2.929674	atlanta/NNP so/SO
-2.753583	atlanta/NNP sometime/RB	0.0004535352
-2.084576	atlanta/NNP that/DT	0.03796308
-2.753583	atlanta/NNP the/DT
-2.929674	atlanta/NNP then/RB
-2.753583	atlanta/NNP this/DT	0.0004251106
-0.7521378	atlanta/NNP to/TO	0.1699444
-2.929674	atlanta/NNP traveling/VBG
-2.929674	atlanta/NNP wednesday/NNP
-2.929674	atlanta/NNP what/WDT
-2.452553	atlanta/NNP which/WDT	0.008820758
-2.929674	atlanta/NNP will/MD
-2.327614	atlanta/NNP with/IN	0.0303309
-2.717254	august/NNP </s>
-2.717254	august/NNP eighteenth/JJ
-2.416224	august/NNP eighth/JJ	0.005413488
-2.717254	august/NNP eleventh/JJ
-2.717254	august/NNP fifteenth/JJ
-2.717254	august/NNP fifth/JJ
-2.319314	august/NNP first/JJ	0.00993464
-2.717254	august/NNP fourth/JJ
-2.541163	august/NNP nineteenth/JJ
-2.717254	august/NNP ninth/JJ
-2.717254	august/NNP one/CD
-1.976892	august/NNP second/JJ	0.007592514
-2.717254	august/NNP seven/CD
-2.717254	august/NNP seventeenth/JJ
-2.319314	august/NNP seventh/JJ	0.0007329844
-2.416224	august/NNP sixth/JJ	0.003164497
-2.173186	august/NNP tenth/JJ	0.001809473
-2.416224	august/NNP the/DT	0.006115248
-2.115194	august/NNP third/JJ	0.004440712
-2.115194	august/NNP thirtieth/JJ	0.002716655
-2.416224	august/NNP thirty/CD	0.002279765
-2.541163	august/NNP twelfth/JJ	0.003182095
-2.717254	august/NNP twelve/CD
-2.018284	august/NNP twentieth/JJ	0.001324201
-1.656556	august/NNP twenty/CD	0.007078536
-1.942199	available/JJ </s>
-2.579021	available/JJ after/IN
-2.755112	available/JJ around/RB
-1.976961	available/JJ at/IN	0.003464893
-1.942199	available/JJ between/IN	0.03895338
-2.755112	available/JJ coach/NN
-2.277991	available/JJ flights/NNS	0.2525485
-2.755112	available/JJ flying/VBG
-2.579021	available/JJ for/IN
-2.277991	available/JJ friday/NNP	0.003554442
-1.217293	available/JJ from/IN	0.3147565
-2.454082	available/JJ ground/NN	0.08190501
-1.40293	available/JJ in/IN	0.1796445
-2.755112	available/JJ into/IN
-2.579021	available/JJ leaving/VBG
-2.755112	available/JJ meals/NNS
-2.755112	available/JJ monday/NNP
-2.755112	available/JJ next/JJ
-2.277991	available/JJ on/IN
-2.579021	available/JJ saturday/NNP	-0.0001229045
-2.755112	available/JJ sunday/NNP
-2.755112	available/JJ thursday/NNP
-2.579021	available/JJ to/TO	0.01217012
-2.579021	available/JJ tomorrow/NN
-2.755112	available/JJ tuesday/NNP
-2.454082	available/JJ wednesday/NNP	0.00234149
-2.755112	available/JJ with/IN
-2.676236	b/NN </s>
-2.676236	b/NN the/DT
-2.506505	back/RB </s>
-2.506505	back/RB from/IN
-2.506505	back/RB in/IN	0.06380694
-1.942234	back/RB to/TO	0.01957325
-0.941106	baltimore/NNP </s>
-2.892929	baltimore/NNP a/DT
-2.239717	baltimore/NNP after/IN	0.009623931
-2.716838	baltimore/NNP airport/NN	0.01540145
-2.017868	baltimore/NNP and/CC	0.01865938
-2.716838	baltimore/NNP around/RB
-1.96351	baltimore/NNP arriving/VBG	0.0379938
-2.716838	baltimore/NNP at/IN
-2.892929	baltimore/NNP august/NNP
-2.415808	baltimore/NNP before/IN	0.008298893
-2.152566	baltimore/NNP between/IN	-0.0004631942
-2.892929	baltimore/NNP bound/VBN
-2.892929	baltimore/NNP carries/VBZ
-2.892929	baltimore/NNP coach/NN
-2.591899	baltimore/NNP denver/NNP	0.01184307
-2.892929	baltimore/NNP early/RB
-2.716838	baltimore/NNP first/JJ	0.05802802
-2.348861	baltimore/NNP for/IN	0.003336227
-2.017868	baltimore/NNP from/IN	0.1724096
-2.892929	baltimore/NNP has/VBZ
-2.239717	baltimore/NNP in/IN	0.06152862
-2.892929	baltimore/NNP is/VBZ
-2.892929	baltimore/NNP july/NNP
-2.239717	baltimore/NNP leaving/VBG	0.01401743
-2.892929	baltimore/NNP making/VBG
-2.892929	baltimore/NNP monday/NNP
-2.716838	baltimore/NNP nonstop/JJ
-2.892929	baltimore/NNP oakland/NNP
-1.415808	baltimore/NNP on/IN	0.127017
-2.290869	baltimore/NNP or/CC	0.0001917779
-2.494989	baltimore/NNP please/VB
-2.892929	baltimore/NNP scheduled/VBN
-2.892929	baltimore/NNP starting/VBG
-2.193959	baltimore/NNP that/DT	0.006084348
-2.892929	baltimore/NNP thursday/NNP
-0.8398505	baltimore/NNP to/TO	0.1949057
-2.716838	baltimore/NNP tomorrow/NN
-2.892929	baltimore/NNP using/VBG
-2.892929	baltimore/NNP via/IN
-2.415808	baltimore/NNP washington/NNP	0.01996852
-2.716838	baltimore/NNP what/WDT	0.001196477
-2.716838	baltimore/NNP which/WDT
-2.494989	baltimore/NNP with/IN	0.004032443
-2.675778	bay/NN area/NN
-2.686189	be/VB a/DT
-2.686189	be/VB able/JJ
-2.686189	be/VB american/NNP
-2.686189	be/VB cost/NN
-2.510098	be/VB flying/VBG
-2.288249	be/VB in/IN
-2.510098	be/VB nonstop/JJ	0.00993742
-2.385159	be/VB on/IN
-2.686189	be/VB serving/VBG
-2.686189	be/VB staying/VBG
-2.385159	be/VB the/DT	0.0276401
-2.686189	be/VB there/EX
-2.686189	be/VB traveling/VBG
-2.510098	be/VB used/VBN	0.006232544
-2.214844	beach/NNP </s>
-2.691965	beach/NNP after/IN
-2.515874	beach/NNP airport/NN	0.01665483
-2.691965	beach/NNP arriving/VBG
-2.214844	beach/NNP california/NNP	0.004410592
-2.691965	beach/NNP late/JJ
-2.515874	beach/NNP on/IN
-1.691965	beach/NNP to/TO	-0.001734799
-2.691965	beach/NNP two/CD
-2.751279	before/IN 0900/CD
-2.575188	before/IN 1/CD
-2.353339	before/IN 10/CD	0.001367857
-2.751279	before/IN 1045am/CD
-1.637336	before/IN 10am/CD	0.002542974
-2.575188	before/IN 10pm/CD	0.002732838
-2.575188	before/IN 1145am/CD	0
-2.751279	before/IN 11am/CD
-2.052309	before/IN 12/CD	0.007965643
-2.751279	before/IN 1pm/CD
-2.751279	before/IN 2pm/CD
-2.751279	before/IN 3/CD
-2.751279	before/IN 3pm/CD
-2.052309	before/IN 4pm/CD	0.004040938
-2.353339	before/IN 5/CD	0.008078287
-2.098067	before/IN 5pm/CD	0.01588006
-2.575188	before/IN 6/CD
-2.575188	before/IN 630am/CD	-1.449371e-06
-2.098067	before/IN 6pm/CD	0.007511606
-2.575188	before/IN 7/CD	0.002724221
-2.575188	before/IN 7am/CD
-2.353339	before/IN 7pm/CD	0.005778243
-2.207211	before/IN 8/CD	0.004533387
-2.098067	before/IN 8am/CD	0.002256431
-2.575188	before/IN 8pm/CD
-2.575188	before/IN 9/CD	0.002732838
-2.010916	before/IN 9am/CD	0.001798117
-2.751279	before/IN arriving/VBG
-2.751279	before/IN evening/NN
-2.751279	before/IN midnight/NN
-1.288881	before/IN noon/NN	0.01954343
-2.751279	before/IN or/CC
-2.675778	beginning/VBG on/IN
-2.675778	begins/VBZ in/IN
-2.675778	being/VBG served/VBD
-2.675778	belong/VBP to/TO
-2.675778	besides/IN continental/JJ
-2.814913	between/IN 1/CD
-2.814913	between/IN 1030am/CD
-2.115943	between/IN 10am/CD	-0.0001441669
-2.416973	between/IN 1115am/CD	0
-2.814913	between/IN 1133am/CD
-2.07455	between/IN 12/CD	-0.0001385435
-2.814913	between/IN 1850/CD
-2.814913	between/IN 2pm/CD
-2.814913	between/IN 3/CD
-2.416973	between/IN 4/CD	-3.09539e-05
-2.814913	between/IN 415/CD
-2.814913	between/IN 430/CD
-2.814913	between/IN 430pm/CD
-2.814913	between/IN 445/CD
-2.638822	between/IN 5/CD	-3.672496e-05
-2.814913	between/IN 530/CD
-2.814913	between/IN 5pm/CD
-2.814913	between/IN 6/CD
-2.638822	between/IN 6pm/CD	0.001278462
-2.814913	between/IN </s>
-2.212853	between/IN airport/NN	0.003220416
-2.814913	between/IN all/DT
-1.754215	between/IN atlanta/NNP	0.0009491658
-2.270845	between/IN baltimore/NNP	0.0009862562
-1.124717	between/IN boston/NNP	-0.01746462
-2.638822	between/IN charlotte/NNP	-0.0001276997
-2.814913	between/IN cincinnati/NNP
-1.911823	between/IN dallas/NNP	0.01714427
-1.653545	between/IN denver/NNP	0.0001032157
-2.638822	between/IN dfw/NN	-8.652452e-06
-2.638822	between/IN fare/NN	0.01972391
-2.638822	between/IN houston/NNP	0.00115726
-2.416973	between/IN indianapolis/NNP	0.0006750985
-2.638822	between/IN logan/NNP	-7.218216e-06
-2.638822	between/IN memphis/NNP
-2.270845	between/IN milwaukee/NNP	0.0004700758
-2.814913	between/IN nashville/NNP
-2.115943	between/IN new/JJ	0.05821535
-2.814913	between/IN newark/NNP
-2.638822	between/IN noon/NN	0.004826284
-2.814913	between/IN oak/NN
-1.939852	between/IN oakland/NNP	0.0005350937
-2.638822	between/IN orlando/NNP	-0.0001156422
-1.860671	between/IN philadelphia/NNP	-0.0007618773
-2.513883	between/IN phoenix/NNP	0.0002504817
-1.735732	between/IN pittsburgh/NNP	0.000355334
-1.911823	between/IN san/NNP	0.2487595
-2.638822	between/IN st./NNP	0.01975357
-2.638822	between/IN tampa/NNP	-6.630248e-05
-2.212853	between/IN the/DT	0.002277187
-2.814913	between/IN those/DT
-2.513883	between/IN toronto/NNP	0.0002645628
-2.002	between/IN washington/NNP	0.04476573
-2.675778	bna/NN </s>
-2.377488	boeing/NN 737/CD	0
-2.502427	boeing/NN 757/CD	0
-2.502427	boeing/NN 767/CD	0
-1.546278	book/NN a/DT	0.09851971
-2.215285	book/NN an/DT	0.01086119
-2.692406	book/NN for/IN
-2.692406	book/NN on/IN
-2.294466	book/NN the/DT	0.02718319
-2.676236	booking/JJ class/NN
-2.676236	booking/JJ classes/NNS
-2.675778	booking/NN class/NN
-2.375664	booking/VBG an/DT	0.0113157
-1.060374	boston/NNP </s>
-2.303412	boston/NNP after/IN	0.0071339
-3.002382	boston/NNP afternoon/NN
-2.262019	boston/NNP airport/NN	0.03097014
-1.246507	boston/NNP and/CC	0.04220506
-3.002382	boston/NNP approximately/RB
-3.002382	boston/NNP arrive/VB
-2.701352	boston/NNP arriving/VBG	0.03603381
-2.826291	boston/NNP as/IN	0.001767121
-2.262019	boston/NNP at/IN	-0.000187144
-3.002382	boston/NNP baltimore/NNP
-2.701352	boston/NNP before/IN	0.0215517
-2.701352	boston/NNP between/IN	0.001294858
-3.002382	boston/NNP both/DT
-3.002382	boston/NNP by/IN
-3.002382	boston/NNP dc/NN
-3.002382	boston/NNP denver/NNP
-3.002382	boston/NNP departing/VBG
-2.826291	boston/NNP departure/NN
-2.826291	boston/NNP downtown/NN	0.01121405
-3.002382	boston/NNP flight/NN
-2.701352	boston/NNP flights/NNS
-2.262019	boston/NNP for/IN	0.001909666
-2.604442	boston/NNP from/IN
-3.002382	boston/NNP goes/VBZ
-2.458314	boston/NNP going/VBG	0.008983649
-2.826291	boston/NNP ground/NN	0.0823624
-3.002382	boston/NNP heading/VBG
-2.826291	boston/NNP i'd/VBD	0.08880155
-2.826291	boston/NNP i/PRP
-2.525261	boston/NNP in/IN	0.0624362
-2.826291	boston/NNP is/VBZ
-3.002382	boston/NNP july/NNP
-2.262019	boston/NNP leaving/VBG	0.01167791
-3.002382	boston/NNP logan/NNP
-3.002382	boston/NNP making/VBG
-2.826291	boston/NNP monday/NNP	0.02490406
-2.826291	boston/NNP nonstop/JJ
-1.497232	boston/NNP on/IN	0.1382919
-2.826291	boston/NNP one/CD	0.05449808
-2.525261	boston/NNP philadelphia/NNP	9.458093e-05
-3.002382	boston/NNP pittsburgh/NNP
-2.701352	boston/NNP please/VB
-2.826291	boston/NNP saturday/NNP	0.01605856
-3.002382	boston/NNP stop/NN
-2.157284	boston/NNP that/DT	0.01638309
-3.002382	boston/NNP the/DT
-3.002382	boston/NNP this/DT
-0.5606869	boston/NNP to/TO	0.0899931
-2.826291	boston/NNP today/NN	0.004527607
-2.826291	boston/NNP tomorrow/NN	0.01076169
-2.458314	boston/NNP using/VBG	0.0004365054
-3.002382	boston/NNP via/IN
-3.002382	boston/NNP which/WDT
-2.224231	boston/NNP with/IN	0.02851376
-3.002382	boston/NNP within/IN
-2.678518	both/DT american/NNP
-2.678518	both/DT by/IN
-2.280578	both/DT direct/JJ	0.0003997579
-2.678518	both/DT one/CD
-2.676236	bound/VBN for/IN
-2.676236	bound/VBN to/TO
-1.757217	breakfast/NN </s>
-2.142568	breakfast/NN flight/NN	0.1752072
-2.385606	breakfast/NN served/VBD	-2.278737e-05
-2.675778	bring/VB up/RP
-2.675778	bur/NN </s>
-2.510098	burbank/NNP </s>
-2.686189	burbank/NNP after/IN
-2.686189	burbank/NNP also/RB
-2.686189	burbank/NNP arriving/VBG
-2.686189	burbank/NNP leaving/VBG
-2.084129	burbank/NNP on/IN	0.008903753
-2.686189	burbank/NNP sunday/NNP
-2.686189	burbank/NNP the/DT
-2.032977	burbank/NNP to/TO	0.02403247
-2.686189	burbank/NNP tomorrow/NN
-1.663207	business/NN class/NN	0.03253883
-2.502882	but/CC i'd/VBD	0.08880155
-2.377943	but/CC i/PRP	0.04101018
-2.678973	but/CC return/VB
-2.678973	but/CC stopover/NN
-2.678973	but/CC stopping/VBG
-2.500145	buy/VB a/DT	-0.0001958883
-2.205024	bwi/NN </s>
-2.682145	bwi/NN flight/NN
-2.381115	bwi/NN that/DT	0.006529254
-2.205024	bwi/NN to/TO
-2.682145	bwi/NN washington/NNP
-2.699404	by/IN 10am/CD
-2.699404	by/IN 4pm/CD
-2.699404	by/IN 5pm/CD
-2.398374	by/IN 6pm/CD	0.009332529
-2.699404	by/IN 8/CD
-2.523313	by/IN 8pm/CD
-2.523313	by/IN 9/CD	0.002732838
-2.699404	by/IN 9pm/CD
-2.155336	by/IN american/NNP	0.048361
-2.699404	by/IN both/DT
-2.523313	by/IN canadian/NNP	0.003645725
-2.699404	by/IN continental/JJ
-2.097344	by/IN delta/NNP	0.01263747
-2.699404	by/IN dinnertime/NN
-2.699404	by/IN eastern/JJ
-2.699404	by/IN ground/NN
-2.699404	by/IN limousine/NN
-2.699404	by/IN lufthansa/NNP
-2.699404	by/IN midway/NN
-2.523313	by/IN nationair/NNP
-2.398374	by/IN noon/NN	0.0296581
-2.699404	by/IN one/CD
-2.699404	by/IN this/DT
-2.523313	by/IN twa/NNP
-2.699404	by/IN united/NNP
-2.000434	by/IN way/NN	-0.0006005694
-2.500145	c/NN </s>
-2.03654	california/NNP </s>
-2.689753	california/NNP after/IN
-2.689753	california/NNP arriving/VBG
-2.689753	california/NNP early/JJ
-2.689753	california/NNP leaving/VBG
-2.689753	california/NNP monday/NNP
-2.212631	california/NNP on/IN
-2.689753	california/NNP please/VB
-2.513661	california/NNP that/DT
-1.990783	california/NNP to/TO	0.02389377
-2.689753	california/NNP tuesday/NNP
-2.689753	california/NNP which/WDT
-2.675778	calling/VBG from/IN
-2.552668	can/MD </s>
-2.72876	can/MD a/DT
-2.552668	can/MD be/VB
-2.427729	can/MD fly/VB
-1.950608	can/MD get/VB	0.01050703
-1.631849	can/MD i/PRP	0.002672018
-2.330819	can/MD take/VB	0.0004025358
-1.137695	can/MD you/PRP	0.01133939
-2.501972	canada/NNP </s>
-2.678063	canada/NNP departing/VBG
-2.678063	canada/NNP from/IN
-2.501972	canada/NNP leaving/VBG	0.01369272
-1.939519	canadian/NNP airlines/NNS	-0.001197201
-2.675778	capacities/NNS of/IN
-2.378852	capacity/NN </s>
-2.679882	capacity/NN for/IN
-2.202761	capacity/NN of/IN	0.006573898
-2.679882	capacity/NN which/WDT
-2.50965	car/NN </s>
-2.384712	car/NN at/IN
-2.685742	car/NN fares/NNS
-2.141674	car/NN in/IN
-2.685742	car/NN information/NN
-2.384712	car/NN rates/NNS	-1.931447e-06
-2.287802	car/NN rental/NN	-2.473732e-05
-2.384712	car/NN rentals/NNS	0
-2.504697	carolina/NNP </s>
-2.680789	carolina/NNP and/CC
-2.680789	carolina/NNP leaving/VBG
-2.282849	carolina/NNP next/JJ	0.004903192
-2.680789	carolina/NNP on/IN
-2.680789	carolina/NNP that/DT
-2.504697	carolina/NNP to/TO
-2.500145	carries/VBZ the/DT	0.0002028742
-2.676694	cars/NNS </s>
-2.500602	cars/NNS in/IN
-2.675778	catch/VB an/DT
-2.675778	charges/NNS between/IN
-1.697312	charlotte/NNP </s>
-2.54241	charlotte/NNP and/CC
-2.54241	charlotte/NNP around/RB
-2.718502	charlotte/NNP between/IN
-2.718502	charlotte/NNP by/IN
-2.718502	charlotte/NNP flights/NNS
-2.718502	charlotte/NNP for/IN
-2.718502	charlotte/NNP from/IN
-2.718502	charlotte/NNP leaving/VBG
-2.54241	charlotte/NNP monday/NNP	0.007887003
-2.718502	charlotte/NNP next/JJ
-1.905588	charlotte/NNP north/JJ	0
-2.24138	charlotte/NNP on/IN	0.01405627
-2.320562	charlotte/NNP that/DT	0.02178267
-1.376079	charlotte/NNP to/TO	0.04429233
-2.718502	charlotte/NNP today/NN
-2.718502	charlotte/NNP which/WDT
-2.376121	cheap/JJ flight/NN	0.1690613
-2.67715	cheap/JJ flights/NNS
-2.761552	cheapest/JJS </s>
-2.585461	cheapest/JJS airfare/NN	0.003153584
-2.585461	cheapest/JJS coach/NN
-2.761552	cheapest/JJS direct/JJ
-1.449798	cheapest/JJS fare/NN	0.04153178
-2.363612	cheapest/JJS fares/NNS	0.03971756
-2.460522	cheapest/JJS first/JJ	0.05757063
-1.306707	cheapest/JJS flight/NN	0.1802019
-1.858462	cheapest/JJS flights/NNS	0.2484775
-2.761552	cheapest/JJS nonstop/JJ
-2.761552	cheapest/JJS of/IN
-1.355012	cheapest/JJS one/CD	0.03352798
-2.585461	cheapest/JJS rate/NN
-1.740363	cheapest/JJS round/JJ	0.07397732
-2.460522	cheapest/JJS ticket/NN	0.01190859
-2.761552	cheapest/JJS to/TO
-2.217484	cheapest/JJS way/NN	2.960162e-05
-1.718917	chicago/NNP </s>
-2.718917	chicago/NNP after/IN
-2.718917	chicago/NNP and/CC
-2.241796	chicago/NNP around/RB	0.004612369
-2.718917	chicago/NNP arrive/VB
-2.320977	chicago/NNP at/IN
-2.718917	chicago/NNP departing/VBG
-2.718917	chicago/NNP early/RB
-2.241796	chicago/NNP into/IN	-9.227358e-05
-2.718917	chicago/NNP leave/VB
-2.542825	chicago/NNP leaving/VBG	-0.0003406305
-2.320977	chicago/NNP next/JJ	0.006216104
-1.940765	chicago/NNP on/IN	0.03612356
-2.718917	chicago/NNP round/JJ
-2.718917	chicago/NNP that/DT
-2.718917	chicago/NNP then/RB
-1.407163	chicago/NNP to/TO	0.02164487
-2.718917	chicago/NNP which/WDT
-2.375664	choices/NNS of/IN	0.01693626
-1.880814	cincinnati/NNP </s>
-2.693727	cincinnati/NNP along/IN
-2.517636	cincinnati/NNP and/CC
-2.693727	cincinnati/NNP as/IN
-2.693727	cincinnati/NNP nonstop/JJ
-2.693727	cincinnati/NNP on/IN
-1.614546	cincinnati/NNP to/TO	0.1069161
-2.287354	cities/NNS </s>
-2.032081	cities/NNS are/VBP	-0.001168153
-2.509202	cities/NNS does/VBZ
-2.384264	cities/NNS served/VBD	0.003141285
-2.384264	cities/NNS that/DT
-2.509202	cities/NNS today/NN	0.004527607
-1.342043	city/NN </s>
-2.455986	city/NN airport/NN	0.0154029
-2.359076	city/NN and/CC	0.0006407762
-2.580925	city/NN arrive/VB
-2.580925	city/NN arriving/VBG
-2.580925	city/NN at/IN	0.0005873967
-2.757016	city/NN back/RB
-2.757016	city/NN before/IN
-2.757016	city/NN departing/VBG
-2.757016	city/NN does/VBZ
-2.359076	city/NN in/IN	0.06335147
-2.580925	city/NN is/VBZ
-2.757016	city/NN land/NN
-2.359076	city/NN leaving/VBG	0.0006991811
-2.580925	city/NN missouri/NNP	0
-2.757016	city/NN monday/NNP
-2.757016	city/NN nonstop/JJ
-2.058046	city/NN of/IN	0.001425011
-1.881955	city/NN on/IN	0.02801893
-2.757016	city/NN proper/JJ
-2.757016	city/NN served/VBD
-2.757016	city/NN that/DT
-2.757016	city/NN then/RB
-2.757016	city/NN thursday/NNP
-1.144232	city/NN to/TO	0.05242787
-2.580925	city/NN utah/NNP
-2.580925	city/NN which/WDT
-1.56858	class/NN </s>
-2.582821	class/NN airfare/NN
-2.758912	class/NN airlines/NNS
-2.758912	class/NN airplane/NN
-2.281791	class/NN american/NNP	0.04927531
-2.758912	class/NN and/CC
-2.582821	class/NN between/IN
-2.758912	class/NN c/NN
-1.855822	class/NN fare/NN	0.04741322
-1.804669	class/NN fares/NNS	0.04199656
-2.059942	class/NN flight/NN	0.02213879
-1.480158	class/NN flights/NNS	0.309931
-1.945999	class/NN from/IN	0.04063311
-2.758912	class/NN h/NN
-2.758912	class/NN k/NN
-2.758912	class/NN leaving/VBG
-2.758912	class/NN night/NN
-2.457882	class/NN of/IN	0.002121681
-2.018549	class/NN on/IN	0.0352006
-2.582821	class/NN one/CD	0.05449808
-2.758912	class/NN only/RB
-2.758912	class/NN or/CC
-2.758912	class/NN price/NN
-2.758912	class/NN prices/NNS
-2.758912	class/NN reservations/NNS
-2.105699	class/NN round/JJ	0.07894158
-2.758912	class/NN seat/NN
-2.758912	class/NN seats/NNS
-2.105699	class/NN service/NN	0.001237093
-1.758912	class/NN ticket/NN	0.008734586
-2.281791	class/NN tickets/NNS	0.002722815
-2.758912	class/NN travel/VB
-2.758912	class/NN yn/NN
-2.50515	classes/NNS are/VBP	0.03748491
-2.681241	classes/NNS for/IN
-1.982271	classes/NNS of/IN	-0.0001537637
-2.681241	classes/NNS that/DT
-2.705436	cleveland/NNP 5/CD
-1.776017	cleveland/NNP </s>
-2.705436	cleveland/NNP after/IN
-2.705436	cleveland/NNP and/CC
-2.404406	cleveland/NNP daily/RB	0.001277213
-2.705436	cleveland/NNP departing/VBG
-2.705436	cleveland/NNP in/IN
-2.529345	cleveland/NNP leaving/VBG
-2.529345	cleveland/NNP ohio/NNP	-4.339847e-06
-2.103376	cleveland/NNP on/IN	0.03274085
-2.705436	cleveland/NNP that/DT
-1.487952	cleveland/NNP to/TO	0.01909206
-2.375664	close/RB to/TO	-0.00150101
-2.675778	closest/JJS to/TO
-2.676694	co/NN 1209/CD
-2.500602	co/NN mean/VB	0.02142895
-1.951161	coach/NN class/NN	0.02235849
-2.691524	coach/NN discount/NN
-2.515432	coach/NN economy/NN
-2.214402	coach/NN fare/NN	0.03589426
-1.992553	coach/NN fares/NNS	0.04736337
-2.515432	coach/NN flight/NN	0.00669639
-2.390494	coach/NN flights/NNS	0.01527407
-2.691524	coach/NN from/IN
-2.691524	coach/NN on/IN
-2.691524	coach/NN one/CD
-2.691524	coach/NN or/CC
-2.531479	code/NN </s>
-2.70757	code/NN again/RB
-2.70757	code/NN as/IN
-2.531479	code/NN b/NN
-2.70757	code/NN c/NN
-2.70757	code/NN dl/NN
-1.929419	code/NN f/NN	0
-2.70757	code/NN ff/NN
-2.70757	code/NN fn/NN
-2.70757	code/NN for/IN
-2.0086	code/NN h/NN	0.0004540454
-2.70757	code/NN hp/NN
-2.531479	code/NN m/NN
-2.70757	code/NN mean/VB
-2.230449	code/NN q/NN	-2.891058e-06
-2.163502	code/NN qo/NN	0
-2.30963	code/NN qw/NN	-3.849971e-06
-2.0086	code/NN qx/NNP	0.0009018728
-2.70757	code/NN s//NN
-2.70757	code/NN s/NN
-2.70757	code/NN us/PRP
-2.054358	code/NN y/NN	0.000454521
-2.40654	code/NN yn/NN	-5.768845e-06
-2.502427	codes/NNS </s>
-2.678518	codes/NNS belong/VBP
-2.678518	codes/NNS cover/VBP
-2.678518	codes/NNS qw/NN
-2.678518	codes/NNS sd/d/NN
-2.678518	codes/NNS symbols/NNS
-2.281942	colorado/NNP </s>
-2.679882	colorado/NNP august/NNP
-2.679882	colorado/NNP please/VB
-2.281942	colorado/NNP to/TO	0.02019417
-2.212188	columbus/NNP </s>
-2.689309	columbus/NNP after/IN
-2.689309	columbus/NNP late/JJ
-2.388279	columbus/NNP ohio/NNP	-2.890476e-06
-2.513218	columbus/NNP on/IN
-1.689309	columbus/NNP to/TO	0.002276919
-2.675778	come/VBP from/IN
-2.677607	coming/VBG back/RB
-2.501516	coming/VBG from/IN
-2.677607	coming/VBG sunday/NNP
-2.677607	coming/VBG tuesday/NNP
-2.675778	companies/NNS fly/VB
-2.675778	concerning/VBG american/NNP
-2.67715	connect/VBP boston/NNP
-2.501059	connect/VBP in/IN
-2.67715	connect/VBP with/IN
-2.684397	connecting/VBG </s>
-2.383367	connecting/VBG flight/NN	0.1695201
-2.207275	connecting/VBG flights/NNS	0.2525485
-2.508305	connecting/VBG from/IN
-2.383367	connecting/VBG in/IN
-2.508305	connecting/VBG that/DT
-2.383367	connecting/VBG through/IN	0.00269619
-2.684397	connecting/VBG to/TO
-2.676236	connection/NN between/IN
-2.676236	connection/NN time/NN
-2.676694	connections/NNS </s>
-2.500602	connections/NNS between/IN
-2.675778	connects/VBZ in/IN
-2.675778	continent/NN and/CC
-2.416224	continental/JJ 1291/CD	0
-2.717254	continental/JJ 1765/CD
-2.717254	continental/JJ 271/CD
-1.872156	continental/JJ </s>
-2.541163	continental/JJ after/IN
-2.717254	continental/JJ airline/NN
-1.571126	continental/JJ airlines/NNS	0.06713403
-2.717254	continental/JJ between/IN
-2.717254	continental/JJ depart/VB
-2.717254	continental/JJ departing/VBG
-2.717254	continental/JJ flies/VBZ
-2.416224	continental/JJ flight/NN
-1.904341	continental/JJ flights/NNS	0.2677421
-2.173186	continental/JJ fly/VB	0.06819398
-2.173186	continental/JJ from/IN	0.03737956
-2.717254	continental/JJ into/IN
-2.240133	continental/JJ leaving/VBG	0.00535681
-2.173186	continental/JJ on/IN	0.01722223
-2.717254	continental/JJ service/NN
-2.416224	continental/JJ which/WDT	0.002127199
-2.717254	continental/JJ with/IN
-2.675778	continuing/VBG to/TO
-2.692406	cost/NN </s>
-2.692406	cost/NN air/NN
-2.692406	cost/NN between/IN
-2.692406	cost/NN fare/NN
-2.516315	cost/NN flight/NN	0.1695186
-2.391376	cost/NN for/IN	0.01601496
-1.546278	cost/NN of/IN	0.005766838
-2.692406	cost/NN to/TO
-2.692406	cost/NN within/IN
-1.989895	cost/VB </s>
-2.688864	cost/VB from/IN
-2.688864	cost/VB in/IN
-2.211743	cost/VB less/JJR	0.01523996
-2.688864	cost/VB taking/VBG
-1.843767	cost/VB to/TO	0.008540176
-2.677607	costs/NNS and/CC
-2.677607	costs/NNS less/JJR
-2.376577	costs/NNS of/IN
-2.697229	could/MD do/VB
-2.153161	could/MD i/PRP	0.00269383
-1.364791	could/MD you/PRP	0.01824084
-2.028933	county/NN </s>
-2.682145	county/NN new/JJ
-2.284205	county/NN to/TO	-0.000460057
-2.506054	county/NN with/IN	0.004418178
-2.675778	cover/VBP flights/NNS
-2.500145	cp/NN uses/VBZ	0.001823319
-2.675778	currently/RB available/JJ
-2.675778	d/s/NN stand/VB
-2.675778	d10/NN </s>
-2.675778	d9s/NN </s>
-2.692847	daily/RB 5/CD
-2.215726	daily/RB </s>
-2.692847	daily/RB flight/NN
-1.531479	daily/RB flights/NNS	0.2725903
-2.692847	daily/RB from/IN
-2.692847	daily/RB nonstop/JJ
-2.692847	daily/RB us/PRP
-2.692847	daily/RB with/IN
-0.9069116	dallas/NNP </s>
-2.902547	dallas/NNP about/RB
-2.726455	dallas/NNP after/IN
-2.358479	dallas/NNP airport/NN	0.01574534
-1.881357	dallas/NNP and/CC	0.02052825
-2.902547	dallas/NNP arrive/VB
-2.425426	dallas/NNP arriving/VBG	0.003084231
-2.902547	dallas/NNP atlanta/NNP
-2.601517	dallas/NNP before/IN
-2.726455	dallas/NNP by/IN
-2.726455	dallas/NNP can/MD	0.03146515
-2.902547	dallas/NNP connecting/VBG
-2.601517	dallas/NNP dallas/NNP	0.05872951
-2.902547	dallas/NNP denver/NNP
-2.902547	dallas/NNP departing/VBG
-2.902547	dallas/NNP early/RB
-2.902547	dallas/NNP first/JJ
-2.902547	dallas/NNP flights/NNS
-2.726455	dallas/NNP for/IN
-1.371068	dallas/NNP fort/NN	0.009321796
-2.504607	dallas/NNP from/IN	0.0228202
-2.902547	dallas/NNP going/VBG
-2.726455	dallas/NNP ground/NN
-2.300487	dallas/NNP in/IN	0.06198362
-2.504607	dallas/NNP into/IN	0.0003641581
-2.902547	dallas/NNP least/JJS
-2.504607	dallas/NNP leaving/VBG
-2.902547	dallas/NNP makes/VBZ
-2.902547	dallas/NNP monday/NNP
-2.726455	dallas/NNP next/JJ
-1.570108	dallas/NNP on/IN	0.141153
-2.902547	dallas/NNP one/CD
-2.300487	dallas/NNP please/VB	0.01522469
-2.203577	dallas/NNP round/JJ	0.07848705
-2.902547	dallas/NNP saturday/NNP
-2.902547	dallas/NNP serve/VB
-2.902547	dallas/NNP stopover/NN
-2.601517	dallas/NNP stopping/VBG	0.007225095
-2.902547	dallas/NNP texas/NNP
-2.162184	dallas/NNP that/DT	0.01589476
-2.726455	dallas/NNP the/DT
-2.726455	dallas/NNP through/IN
-0.8855134	dallas/NNP to/TO	0.202903
-2.726455	dallas/NNP tomorrow/NN
-2.601517	dallas/NNP via/IN	-2.138515e-05
-2.358479	dallas/NNP which/WDT	0.005203412
-2.249334	dallas/NNP with/IN	0.03186647
-2.500145	database/NN </s>
-2.675778	date/NN june/NNP
-1.877283	day/NN </s>
-2.213075	day/NN after/IN	-0.0005243521
-2.514105	day/NN and/CC
-2.690196	day/NN arriving/VBG
-2.690196	day/NN at/IN
-2.514105	day/NN find/VB	0.01141742
-2.690196	day/NN following/VBG
-2.690196	day/NN from/IN
-2.514105	day/NN leaving/VBG
-2.514105	day/NN of/IN	0.01127194
-2.690196	day/NN on/IN
-2.690196	day/NN time/NN
-2.514105	day/NN to/TO
-2.501516	days/NNS </s>
-2.501516	days/NNS from/IN
-2.677607	days/NNS i/PRP
-1.366125	dc/NN </s>
-2.561101	dc/NN after/IN
-2.260071	dc/NN and/CC	0.01168443
-2.737193	dc/NN area/NN
-2.561101	dc/NN arriving/VBG
-2.561101	dc/NN at/IN	0.000194192
-2.737193	dc/NN baltimore/NNP
-2.737193	dc/NN before/IN
-2.737193	dc/NN but/CC
-2.737193	dc/NN departing/VBG
-2.561101	dc/NN for/IN
-2.737193	dc/NN from/IN
-2.737193	dc/NN give/VB
-2.561101	dc/NN i/PRP	0.04100873
-2.737193	dc/NN late/JJ
-2.561101	dc/NN leaving/VBG	0.01369272
-2.737193	dc/NN nonstop/JJ
-1.575825	dc/NN on/IN	0.05436141
-2.737193	dc/NN one/CD
-2.737193	dc/NN san/NNP
-2.737193	dc/NN stop/NN
-2.737193	dc/NN stop/VB
-2.737193	dc/NN that/DT
-1.458439	dc/NN to/TO	0.1570094
-2.561101	dc/NN via/IN	-2.283452e-05
-2.737193	dc/NN wednesday/NNP
-2.500602	dc10/NN </s>
-2.676694	dc10/NN service/NN
-2.291369	december/NNP </s>
-2.689309	december/NNP are/VBP
-2.689309	december/NNP first/JJ
-2.689309	december/NNP from/IN
-2.689309	december/NNP second/JJ
-2.212188	december/NNP seventeenth/JJ	0.0009037422
-2.689309	december/NNP sixteen/CD
-2.388279	december/NNP sixteenth/JJ
-2.689309	december/NNP third/JJ
-1.844211	december/NNP twenty/CD	0.01158896
-2.375664	define/JJ airline/NN
-2.676694	delta's/NN flights/NNS
-2.676694	delta's/NN night/NN
-2.676694	delta's/NN schedule/NN
-2.723045	delta/NNP 139/CD
-2.723045	delta/NNP 82/CD
-1.982682	delta/NNP </s>
-2.723045	delta/NNP aircraft/NN
-2.325105	delta/NNP airline/NN	0.0003078785
-1.561677	delta/NNP airlines/NNS	0.07319851
-2.723045	delta/NNP and/CC
-2.723045	delta/NNP arrive/VB
-1.819955	delta/NNP flight/NN	0.1672709
-1.701856	delta/NNP flights/NNS	0.3088297
-2.325105	delta/NNP fly/VB
-2.245924	delta/NNP from/IN	0.01762045
-2.723045	delta/NNP has/VBZ
-2.120985	delta/NNP have/VB	0.007781744
-2.723045	delta/NNP in/IN
-2.723045	delta/NNP is/VBZ
-2.723045	delta/NNP leaves/VBZ
-2.723045	delta/NNP leaving/VBG
-2.422015	delta/NNP or/CC	-9.44077e-05
-2.723045	delta/NNP that/DT
-2.546954	delta/NNP to/TO
-2.723045	delta/NNP use/VB
-0.839523	denver/NNP </s>
-2.985651	denver/NNP a/DT
-2.286681	denver/NNP after/IN	0.002215972
-2.286681	denver/NNP airport/NN	0.03179211
-1.523253	denver/NNP and/CC	0.04047708
-2.985651	denver/NNP around/RB
-2.332438	denver/NNP arriving/VBG	0.03512767
-2.587711	denver/NNP at/IN	-0.0001957603
-2.985651	denver/NNP august/NNP
-2.985651	denver/NNP be/VB
-1.944258	denver/NNP before/IN	0.03022157
-2.80956	denver/NNP by/IN
-2.587711	denver/NNP can/MD	0.03100969
-2.985651	denver/NNP coach/NN
-2.245288	denver/NNP colorado/NNP	0
-2.80956	denver/NNP connecting/VBG
-2.985651	denver/NNP cost/VB
-2.985651	denver/NNP dallas/NNP
-2.985651	denver/NNP delta/NNP
-2.985651	denver/NNP departing/VBG
-2.985651	denver/NNP do/VB
-2.985651	denver/NNP during/IN
-2.684621	denver/NNP early/RB	0.008426256
-2.985651	denver/NNP first/JJ
-2.985651	denver/NNP fly/VB
-2.985651	denver/NNP flying/VBG
-2.50853	denver/NNP for/IN	0.000765143
-2.383591	denver/NNP from/IN	0.01716642
-2.441583	denver/NNP going/VBG	0.008983649
-2.985651	denver/NNP i'd/VBD
-2.985651	denver/NNP i/PRP
