
\data\
ngram 1=34
ngram 2=426
ngram 3=1384

\1-grams:
-4.305589	.	0.005825918
-1.086979	</s>
-99	<s>	-1.856329
-1.844704	CC	-0.9193654
-1.604034	CD	-0.4243857
-1.162796	DT	-1.139527
-2.420995	EX	-0.3163668
-0.8726329	IN	-1.17134
-1.604034	JJ	-0.4780114
-3.110625	JJR	-0.1349362
-2.046327	JJS	-0.7962068
-2.088996	MD	-1.090755
-1.00923	NN	-0.6074042
-0.6785778	NNP	-0.8761356
-3.29136	NNPS	-0.2085802
-1.239898	NNS	-0.6805204
-4.481673	NP	-0.01538405
-4.481673	PDT	0.004599731
-1.417048	PRP	-0.8575137
-3.29136	PRP$	-0.2457869
-2.140259	RB	0.1922365
-3.741327	RP	-0.05620208
-4.305589	SO	-0.007989403
-1.149558	TO	-1.606899
-3.828477	UH	-0.02690753
-1.134363	VB	-0.7036459
-2.397117	VBD	-0.767406
-1.86838	VBG	-0.9051946
-2.943874	VBN	-0.3419404
-1.982006	VBP	-0.5853287
-1.750508	VBZ	-0.9045199
-1.625872	WDT	-1.259809
-4.305589	WP	0.05932597
-2.584066	WRB	-0.6543665

\2-grams:
-1.066947	. NN	-0.03254044
-99	<s> <s>	0
-2.795445	<s> CC	-0.06523435
-3.096476	<s> CD	0.03421641
-1.774256	<s> DT	0.2932997
-1.784722	<s> IN	0.3741663
-1.958173	<s> JJ	-0.05465841
-2.376316	<s> JJS	0.1845635
-1.598165	<s> MD	-0.5202961
-1.445682	<s> NN	-0.34172
-1.739494	<s> NNP	-0.2891446
-1.380472	<s> NNS	-0.374915
-0.9573839	<s> PRP	-1.05994
-3.221414	<s> PRP$	0.02005979
-2.096476	<s> RB	-0.2770081
-2.744293	<s> UH	0
-0.4599876	<s> VB	-1.021242
-1.468087	<s> VBD	-0.08786744
-2.522444	<s> VBG	0.5460929
-3.397506	<s> VBN
-1.982532	<s> VBP	-0.3191962
-1.508204	<s> VBZ	-0.09439933
-0.600238	<s> WDT	-0.05396187
-1.543199	<s> WRB	-0.04860532
-1.272518	CC CD	0.09938076
-1.491362	CC DT	0.4530633
-1.435246	CC IN	0.4511336
-2.05067	CC JJ	0.3062969
-2.65273	CC JJR
-2.65273	CC JJS
-2.65273	CC MD
-1.221366	CC NN	0.1921299
-0.364928	CC NNP	0.5832634
-2.3517	CC NNPS	0.146128
-1.3517	CC NNS	0.1162536
-1.55582	CC PRP	-0.03932938
-2.476639	CC PRP$	0.02005979
-1.611337	CC RB	0.002775043
-2.476639	CC TO	0.7668809
-0.966988	CC VB	0.1311603
-1.698487	CC VBD	0.50515
-1.061665	CC VBG	0.3135992
-2.476639	CC VBP
-1.698487	CC VBZ	0.1378681
-2.108662	CC WDT	0.1233599
-2.3517	CC WRB	0.1203911
-2.710681	CD .	0
-0.446651	CD </s>
-1.306989	CD CC	0.07939386
-1.000282	CD CD	-0.241077
-2.108621	CD DT	0.08087794
-0.8075914	CD IN	0.3430285
-1.983683	CD JJ	0.1999634
-2.284713	CD JJR	0.2577786
-2.886773	CD JJS
-2.710681	CD MD
-0.7484699	CD NN	-0.2700182
-1.957354	CD NNP	0.1889726
-2.886773	CD NNPS
-1.336544	CD NNS	0.06644976
-2.14641	CD PRP	-0.04507731
-2.409651	CD RB
-2.284713	CD TO	0.7088889
-2.011711	CD VB	0.04613987
-2.342705	CD VBD	0.6130554
-1.682653	CD VBG	0.420404
-2.409651	CD VBZ	0.1863943
-2.011711	CD WDT	0.4047689
-2.720159	DT </s>
-1.69383	DT CD	0.23125
-1.540464	DT DT	-0.1292089
-2.581856	DT IN	0.607864
-1.026652	DT JJ	-0.427902
-0.9234115	DT JJS	-0.01670408
-2.581856	DT MD	0.2683848
-0.4808598	DT NN	0.1604303
-1.292835	DT NNP	0.007755458
-0.5902278	DT NNS	-0.6596932
-2.243038	DT PRP	-0.0565993
-2.280827	DT RB	-0.1319235
-3.322219	DT TO
-1.387721	DT VB	-0.5920047
-2.3928	DT VBG	-0.05957602
-2.447158	DT VBP	0.1580392
-1.551367	DT VBZ	-0.09287739
-3.322219	DT WRB
-1.515211	EX </s>
-2.117271	EX CD
-0.3652228	EX DT	-0.1075763
-0.5670429	EX IN	0.2858546
-2.117271	EX JJ
-1.096082	EX NN	0.08929057
-1.64015	EX NNP	-0.04659272
-2.117271	EX NNS
-2.117271	EX PDT
-2.117271	EX PRP
-2.117271	EX RB
-1.94118	EX TO	0.7668809
-1.94118	EX VBG	0.3076997
-1.719331	EX VBP	-0.0227657
-2.117271	EX VBZ
-2.513857	IN </s>
-3.008707	IN CC	-0.05433927
-1.201679	IN CD	0.08625865
-1.01472	IN DT	-0.47673
-3.434675	IN EX
-2.367728	IN IN	0.8935262
-1.53522	IN JJ	0.1145072
-3.610767	IN JJR
-3.309736	IN JJS	0.01326989
-1.325209	IN NN	0.1357673
-0.1497936	IN NNP	-0.05250573
-2.496823	IN NNPS	0.03591254
-1.61733	IN NNS	-0.06245542
-3.610767	IN NP
-2.133645	IN PRP	0.3464857
-3.212826	IN PRP$	0.06364773
-2.420435	IN RB	-0.03556995
-3.434675	IN TO	0.7668809
-2.513857	IN VB	-0.2210711
-2.832615	IN VBG	0.2473018
-3.610767	IN VBP
-3.610767	IN VBZ
-3.610767	IN WDT
-3.610767	IN WP
-1.210079	JJ </s>
-2.073859	JJ CC	0.2793579
-1.93253	JJ CD	0.01397924
-2.886773	JJ DT
-0.9277313	JJ IN	0.4004926
-1.772829	JJ JJ	0.2731069
-2.886773	JJ JJS
-0.3775701	JJ NN	-0.1780486
-0.7612914	JJ NNP	-0.3234231
-0.8803066	JJ NNS	0.2974551
-2.488833	JJ PRP	0.02018942
-2.488833	JJ RB
-2.488833	JJ TO	-0.001011163
-1.772829	JJ VB	0.01354334
-2.585743	JJ VBD	0.6478175
-2.108621	JJ VBG	0.5048446
-2.710681	JJ VBN	-0.003079642
-2.23356	JJ VBZ	0.2009253
-2.585743	JJ WDT	-0.02617218
-0.2641586	JJR IN	-0.3283554
-1.420506	JJR NN
-1.596597	JJR NNP
-1.596597	JJR NNS
-2.460146	JJS </s>
-0.9549958	JJS CD	-0.300466
-2.159116	JJS IN	0.006363787
-0.7926928	JJS JJ	-0.2582844
-0.236131	JJS NN	-0.3938821
-1.858086	JJS NNP	-0.06886911
-1.204873	JJS NNS	0.1369279
-2.460146	JJS PRP
-2.284055	JJS TO
-2.062206	JJS VBG	-0.04538661
-2.460146	JJS VBN
-2.460146	JJS VBZ
-2.243865	MD </s>
-2.243865	MD DT
-2.419956	MD NN
-0.4829396	MD PRP	-0.6855594
-2.243865	MD RB	-0.006378599
-0.2226752	MD VB	-0.2842165
-0.7608885	NN </s>
-1.651977	NN CC	0.2820174
-1.83631	NN CD	-0.01098323
-1.675458	NN DT	0.5215023
-0.4476531	NN IN	0.1185036
-1.895015	NN JJ	0.1293291
-3.076859	NN JJR	0.2782729
-3.474799	NN JJS
-2.298707	NN MD	0.8616474
-0.7771336	NN NN	0.002847195
-1.711371	NN NNP	0.4387917
-1.185879	NN NNS	0.2203319
-2.173769	NN PRP	-0.1092829
-3.474799	NN PRP$
-2.012401	NN RB	-0.04713842
-3.474799	NN SO
-1.379629	NN TO	1.055056
-1.651977	NN VB	-0.03773838
-2.571709	NN VBD	0.7053851
-1.661885	NN VBG	0.09747225
-2.821586	NN VBN	0.2602586
-2.734436	NN VBP	0.2102839
-1.569003	NN VBZ	0.3614342
-2.520556	NN WDT	0.2940089
-3.474799	NN WP
-3.076859	NN WRB
-0.6571499	NNP </s>
-1.353958	NNP CC	-0.3942571
-1.466748	NNP CD	-0.2265891
-1.747303	NNP DT	0.2421343
-0.9205462	NNP IN	0.1599606
-1.874789	NNP JJ	0.3943346
-2.849965	NNP JJR	0.1475046
-3.503178	NNP JJS	0.02517793
-2.95911	NNP MD	0.0156032
-1.203779	NNP NN	0.1769866
-0.873768	NNP NNP	0.279422
-1.533529	NNP NNS	0.5827869
-2.804208	NNP PRP	-0.01369831
-2.18616	NNP RB	-0.226309
-3.804208	NNP SO
-0.5715926	NNP TO	-0.03393126
-1.987966	NNP VB	0.3040292
-3.063845	NNP VBD	0.5706515
-1.623795	NNP VBG	0.1426629
-3.503178	NNP VBN	0.303775
-3.327086	NNP VBP	0.05085362
-2.74351	NNP VBZ	0.2570506
-2.170739	NNP WDT	0.5884631
-3.503178	NNP WRB	-0.03087657
-0.4376127	NNPS </s>
-1.197281	NNPS CC	-0.04921586
-1.021189	NNPS IN	0.4867325
-1.214351	NNS </s>
-1.814396	NNS CC	0.01926124
-2.847819	NNS CD	0.02231719
-1.345392	NNS DT	-0.3966821
-2.944729	NNS EX	-0.04278435
-0.2020042	NNS IN	-0.1481043
-1.747449	NNS JJ	0.1753169
-2.944729	NNS JJR	0.2901721
-2.592547	NNS MD	1.033568
-1.874691	NNS NN	0.2279947
-2.245759	NNS NNP	-0.01013401
-1.967006	NNS NNS	0.2827046
-2.701691	NNS PRP	0.04533428
-3.245759	NNS PRP$
-3.069668	NNS RB
-3.245759	NNS RP
-1.934005	NNS TO	0.9601513
-1.175722	NNS VB	-0.001381516
-2.944729	NNS VBD	-0.03012112
-1.356458	NNS VBG	0.08977121
-1.296369	NNS VBP	-0.5985376
-1.913321	NNS VBZ	0.05708045
-2.467608	NNS WDT	-0.08699342
-1.230449	NP CD
-1.230449	PDT DT
-2.330229	PRP </s>
-2.195531	PRP CD	0.1903633
-0.4371235	PRP DT	-0.2457571
-3.070592	PRP EX
-1.718409	PRP IN	0.4985359
-1.840143	PRP JJ	0.2450197
-0.9107241	PRP MD	-0.612221
-1.281717	PRP NN	0.1492122
-2.225494	PRP NNP	0.01732609
-1.031178	PRP NNS	-0.3402248
-2.526524	PRP PRP	-0.04923361
-3.070592	PRP PRP$
-2.292441	PRP RB	-0.09264764
-2.769562	PRP TO	-0.002475902
-0.6683306	PRP VB	-0.004845142
-3.070592	PRP VBD
-1.172965	PRP VBP	-0.4727539
-2.672652	PRP VBZ	-0.007354219
-1.909224	PRP WDT	-0.05439472
-2.769562	PRP WRB
-1.100371	PRP$ JJ	0.1729279
-0.8962505	PRP$ JJS	0.4772913
-0.8962505	PRP$ NN	0.126671
-0.6853972	PRP$ NNS	0.2948195
-1.070961	RB </s>
-2.371991	RB CC
-0.853477	RB CD	0.0757758
-1.673021	RB DT	0.3235922
-0.7335017	RB IN	0.4207198
-2.070961	RB JJ
-1.89487	RB MD	0.1249064
-1.29281	RB NN	0.3021616
-1.371991	RB NNP	0.3280331
-1.060237	RB NNS	0.1987219
-1.417748	RB PRP	0.01757547
-1.526893	RB RB	0.0154027
-1.371991	RB TO	0.6485427
-1.141542	RB VB	0.5047734
-1.974051	RB VBD	0.6359183
-2.1959	RB VBG
-2.1959	RB VBN	0.3026454
-2.1959	RB VBP	0.03428714
-0.9570175	RB VBZ	-0.06100696
-1.89487	RB WDT	-0.03452977
-1.332438	RP CC
-0.6792259	RP IN	0.4274033
-1.332438	RP NNS
-1.066947	SO DT	-0.03642927
-3.335358	TO </s>
-2.937418	TO CC	-0.04680995
-2.937418	TO CD	0.1554446
-2.381115	TO DT	0.3506342
-3.335358	TO IN
-2.023604	TO JJ	-0.2621757
-1.591065	TO NN	-0.08920103
-0.07385682	TO NNP	0.2378893
-3.335358	TO NNS
-2.636388	TO RB	-0.006179787
-0.9745749	TO VB	-0.3532854
-1.311754	UH IN
-1.010724	UH PRP	0.0671314
-1.135663	UH VB
-1.311754	UH VBD
-1.311754	UH WDT
-1.554562	VB </s>
-2.952502	VB CC	0.01286251
-2.537529	VB CD	-0.01840974
-0.6981955	VB DT	-0.1956933
-3.049412	VB EX	0.09947935
-0.7718027	VB IN	0.005275726
-1.845292	VB JJ	0.5663295
-2.873321	VB JJR	0.266691
-3.049412	VB JJS	0.3395719
-1.433988	VB NN	0.02824163
-1.610079	VB NNP	0.2868326
-1.441957	VB NNS	-0.0999338
-0.5233958	VB PRP	-1.097278
-2.952502	VB PRP$	0.09925122
-2.028223	VB RB	-0.1107807
-2.806374	VB RP	0.02943888
-1.055976	VB TO	0.5627379
-1.220108	VB VB	-0.3445744
-3.350442	VB VBD
-1.88062	VB VBG	0.4849157
-2.350442	VB VBN	0.1307102
-3.350442	VB VBP
-3.049412	VB VBZ
-2.651472	VB WDT	0.1015617
-3.350442	VB WRB
-1.594235	VBD </s>
-1.962211	VBD DT
-1.325389	VBD IN	0.4460759
-2.138303	VBD RB
-2.138303	VBD TO
-0.09691001	VBD VB	-0.7016001
-2.138303	VBD VBP
-2.328889	VBG </s>
-2.328889	VBG CC	-0.01173598
-2.152798	VBG CD	0.01073531
-1.588526	VBG DT	0.02006161
-0.2597762	VBG IN	0.03053868
-2.027859	VBG JJ	0.07446712
-2.629919	VBG JJR
-1.39947	VBG NN	0.2308057
-0.6521955	VBG NNP	0.3793978
-2.629919	VBG NNPS
-1.930949	VBG NNS	0.3114188
-2.629919	VBG PRP
-1.515976	VBG RB	-0.05360445
-2.328889	VBG RP	0.06420098
-1.240753	VBG TO	0.894596
-2.453828	VBG VBD
-2.629919	VBG VBG
-1.101231	VBN </s>
-1.703291	VBN CC
-0.2639587	VBN IN	0.3499691
-1.5272	VBN NN
-1.5272	VBN TO
-1.5272	VBN VBG	0.3076997
-2.345047	VBP </s>
-2.521138	VBP CD
-0.4259687	VBP DT	0.01680481
-0.7429869	VBP EX	-0.03560859
-1.499949	VBP IN	0.6113234
-0.8826488	VBP JJ	0.07470065
-2.220108	VBP JJR	0.2901721
-1.97707	VBP NN	0.1446141
-2.220108	VBP NNP	-0.02488556
-2.044017	VBP NNS	0.3682484
-2.345047	VBP PRP
-1.867926	VBP PRP$	0.006100617
-2.220108	VBP RB
-0.8093309	VBP TO	-0.5776569
-2.521138	VBP VB
-1.919078	VBP VBD	-0.07587861
-2.345047	VBP VBG	-0.03379661
-1.67604	VBP VBN	0.1973196
-2.003539	VBZ </s>
-2.56781	VBZ CD
-0.3975486	VBZ DT	-0.7813563
-1.036331	VBZ EX	0.06680059
-1.032094	VBZ IN	0.4397213
-1.187599	VBZ JJ	0.04321766
-2.345962	VBZ JJR	0.3046018
-2.345962	VBZ JJS	-0.03370162
-0.8462744	VBZ NN	-0.1849877
-1.053705	VBZ NNP	0.2859513
-1.488629	VBZ PRP	-0.1771512
-2.141842	VBZ PRP$	-0.01032775
-1.930988	VBZ RB	0.09584257
-2.442872	VBZ TO	0.7680104
-2.56781	VBZ VB
-2.743901	VBZ VBD
-2.345962	VBZ VBG	0.29693
-1.743901	VBZ VBN	0.2270484
-2.743901	VBZ VBZ
-2.743901	VBZ WDT
-2.087249	WDT DT	0.3805476
-2.321332	WDT IN	-0.02839832
-2.020302	WDT JJ	0.1763004
-2.56437	WDT MD	0.3455508
-0.8808728	WDT NN	-0.4709159
-1.751457	WDT NNP	-0.2030849
-0.546294	WDT NNS	-0.4617559
-2.56437	WDT PRP
-2.689309	WDT RB	0.0006343797
-1.252616	WDT VB	-0.02040297
-2.689309	WDT VBD	0.6600519
-0.8525629	WDT VBP	-0.5529087
-0.4888232	WDT VBZ	-0.6021122
-1.243038	WP NNP
-1.243038	WP VBZ
-1.801632	WRB DT	0.003976557
-1.500602	WRB IN	-0.03769387
-0.5153256	WRB JJ	-0.2632857
-1.278754	WRB MD	0.05511173
-1.676694	WRB PRP
-0.5153256	WRB RB	-0.3656927
-1.977724	WRB TO
-1.278754	WRB VB	0.06291016
-1.977724	WRB VBP
-1.132626	WRB VBZ	0.331665

\3-grams:
-1.066947	CD . NN
-2.795445	<s> <s> CC
-3.096476	<s> <s> CD
-1.774256	<s> <s> DT
-1.784722	<s> <s> IN
-1.958173	<s> <s> JJ
-2.376316	<s> <s> JJS
-1.598165	<s> <s> MD
-1.445682	<s> <s> NN
-1.739494	<s> <s> NNP
-1.380472	<s> <s> NNS
-0.9573839	<s> <s> PRP
-3.221414	<s> <s> PRP$
-2.096476	<s> <s> RB
-2.744293	<s> <s> UH
-0.4599876	<s> <s> VB
-1.468087	<s> <s> VBD
-2.522444	<s> <s> VBG
-1.982532	<s> <s> VBP
-1.508204	<s> <s> VBZ
-0.600238	<s> <s> WDT
-1.543199	<s> <s> WRB
-1.124939	<s> CC WDT
-1.124939	<s> CC WRB
-0.3802112	CD CC CD
-1.255273	CD CC DT
-1.431364	CD CC IN
-1.334454	CD CC NNP
-1.188326	CD CC VB
-1.188326	CD CC VBG
-1.431364	CD CC VBZ
-0.8239087	IN CC IN
-1.176091	JJ CC NNP
-1.176091	JJ CC VB
-0.8081145	JJ CC VBG
-1.615424	NN CC CD
-1.263241	NN CC DT
-1.372386	NN CC IN
-1.615424	NN CC JJ
-0.8025106	NN CC NN
-0.8372727	NN CC NNP
-1.518514	NN CC PRP
-1.615424	NN CC RB
-0.819544	NN CC VB
-1.615424	NN CC VBD
-0.987035	NN CC VBG
-1.372386	NN CC VBZ
-1.740363	NN CC WDT
-1.571126	NNP CC DT
-1.629118	NNP CC IN
-2.173186	NNP CC JJ
-1.453027	NNP CC NN
-0.2287036	NNP CC NNP
-2.173186	NNP CC NNS
-1.496493	NNP CC PRP
-1.544797	NNP CC RB
-2.298125	NNP CC TO
-1.019371	NNP CC VB
-1.733854	NNP CC VBD
-1.103148	NNP CC VBG
-1.872156	NNP CC VBZ
-0.9542425	NNPS CC NNPS
-1.156347	NNS CC NN
-1.031408	NNS CC NNP
-0.3904304	NNS CC NNS
-1.235528	NNS CC VB
-0.8692317	TO CC IN
-1.09108	VB CC VB
-0.9542425	VBG CC VBG
-0.9542425	<s> CD NN
-0.4117283	CC CD </s>
-0.8239087	CC CD IN
-1.124939	CC CD NN
-0.366423	CD CD </s>
-1.269513	CD CD CC
-1.15557	CD CD CD
-1.667453	CD CD DT
-0.764363	CD CD IN
-1.792392	CD CD NNP
-1.667453	CD CD PRP
-1.491362	CD CD VBG
-1.667453	CD CD WDT
-0.8640659	DT CD </s>
-0.8640659	DT CD CD
-1.591065	DT CD DT
-1.026793	DT CD IN
-0.5241178	DT CD NN
-1.591065	DT CD NNS
-1.591065	DT CD RB
-0.4715787	IN CD </s>
-0.9882085	IN CD CC
-2.134336	IN CD CD
-2.259275	IN CD DT
-0.8279115	IN CD IN
-1.833307	IN CD JJ
-1.891298	IN CD JJR
-0.7586729	IN CD NN
-1.782154	IN CD NNP
-0.9805216	IN CD NNS
-2.259275	IN CD TO
-2.259275	IN CD VB
-2.037426	IN CD VBG
-1.833307	IN CD WDT
-1	JJ CD IN
-0.7447275	JJ CD NN
-1.09691	JJ CD NNS
-1.50515	JJS CD IN
-0.1969414	JJS CD NN
-1.598426	NN CD .
-0.8202745	NN CD </s>
-0.4223345	NN CD IN
-1.075547	NN CD NN
-1.297396	NN CD VB
-1.376577	NN CD VBG
-0.3815151	NNP CD </s>
-1.766227	NNP CD CC
-0.5794117	NNP CD CD
-2.067257	NNP CD DT
-0.997219	NNP CD IN
-1.414044	NNP CD NN
-1.891166	NNP CD PRP
-2.067257	NNP CD RB
-2.067257	NNP CD TO
-1.891166	NNP CD VB
-1.970347	NNP CD VBD
-1.414044	NNP CD VBG
-1.970347	NNP CD WDT
-0.8692317	NNS CD NN
-1.194977	PRP CD </s>
-0.8269998	PRP CD NN
-1.070038	PRP CD NNP
-0.5598623	RB CD </s>
-1.514105	RB CD CC
-0.9912261	RB CD IN
-1.213075	RB CD JJ
-0.6294982	RB CD NN
-1.09108	TO CD </s>
-1.176091	VB CD JJ
-1.051152	VB CD NN
-0.9542425	VB CD NNS
-0.8016323	VBG CD NN
-1.587337	<s> DT CD
-1.161368	<s> DT JJ
-1.286307	<s> DT JJS
-1.365488	<s> DT NN
-1.286307	<s> DT NNP
-0.365488	<s> DT NNS
-1.064458	<s> DT RB
-1.308209	CC DT CD
-1.007179	CC DT JJ
-0.9402318	CC DT JJS
-0.8310874	CC DT NN
-1.08636	CC DT NNS
-1.041393	CD DT NN
-0.8653014	CD DT VBZ
-1.70757	DT DT CD
-1.40654	DT DT JJ
-1.40654	DT DT NN
-1.184691	DT DT NNP
-0.2069678	DT DT NNS
-1.70757	DT DT PRP
-1.70757	DT DT VBG
-1.559308	EX DT CD
-0.8189453	EX DT JJ
-0.4986102	EX DT NN
-1.082187	EX DT NNP
-0.642854	EX DT NNS
-2.215373	IN DT </s>
-1.395829	IN DT CD
-1.960101	IN DT DT
-1.005858	IN DT JJ
-1.552615	IN DT JJS
-0.2223781	IN DT NN
-0.9366196	IN DT NNP
-1.233102	IN DT NNS
-2.215373	IN DT PRP
-2.136192	IN DT VBG
-1.721536	NN DT CD
-1.198657	NN DT JJ
-1.420506	NN DT JJS
-0.6671782	NN DT NN
-1.353559	NN DT NNP
-1.084714	NN DT NNS
-1.420506	NN DT PRP
-1.084714	NN DT VB
-0.6188735	NN DT VBZ
-1.13622	NNP DT CD
-1.511883	NNP DT JJ
-1.569875	NNP DT JJS
-1.716003	NNP DT MD
-1.414973	NNP DT NN
-1.937852	NNP DT NNP
-1.268845	NNP DT NNS
-0.4607309	NNP DT VB
-1.460731	NNP DT VBP
-0.563715	NNP DT VBZ
-1.201852	NNS DT JJ
-0.5734632	NNS DT JJS
-1.582063	NNS DT MD
-0.9800034	NNS DT NN
-1.678973	NNS DT NNP
-1.678973	NNS DT PRP
-0.4886417	NNS DT VB
-1.502882	NNS DT VBP
-1.996122	PRP DT CD
-1.093032	PRP DT DT
-1.210002	PRP DT JJ
-0.9169411	PRP DT JJS
-0.864005	PRP DT NN
-1.607942	PRP DT NNP
-0.280119	PRP DT NNS
-2.473244	PRP DT PRP
-2.172214	PRP DT RB
-2.473244	PRP DT VB
-1.021189	RB DT NN
-1.146128	RB DT NNP
-1.146128	RB DT NNS
-1.066947	SO DT PRP
-1.221849	TO DT JJ
-0.6575773	TO DT NN
-1.221849	TO DT NNP
-1.221849	TO DT NNS
-2.491362	VB DT </s>
-1.968483	VB DT CD
-1.463333	VB DT DT
-2.123385	VB DT IN
-0.9728478	VB DT JJ
-1.117225	VB DT JJS
-0.3774183	VB DT NN
-1.305725	VB DT NNP
-0.604871	VB DT NNS
-2.269513	VB DT PRP
-2.123385	VB DT RB
-2.491362	VB DT VB
-2.491362	VB DT VBG
-0.9542425	VBG DT JJ
-0.6532125	VBG DT NN
-1.255273	VBG DT VB
-1.255273	VBG DT VBG
-1.971585	VBP DT CD
-1.603608	VBP DT DT
-1.086978	VBP DT JJ
-1.086978	VBP DT JJS
-0.6226315	VBP DT NN
-1.670555	VBP DT NNP
-0.3588012	VBP DT NNS
-2.200486	VBZ DT CD
-0.8782664	VBZ DT JJ
-0.3722556	VBZ DT JJS
-0.4574989	VBZ DT NN
-1.774517	VBZ DT NNP
-2.075547	VBZ DT VBG
-0.8653014	WDT DT JJS
-1.166331	WDT DT NN
-1.041393	WDT DT NNS
-1.066947	WRB DT JJ
-0.9542425	NNS EX VBP
-1.079181	VB EX IN
-1.482874	VBP EX </s>
-0.4916475	VBP EX DT
-0.4414809	VBP EX IN
-1.403692	VBP EX NNP
-1.704722	VBP EX TO
-1.704722	VBP EX VBG
-0.3141914	VBZ EX DT
-0.9510136	VBZ EX IN
-0.8260748	VBZ EX NN
-1.015512	<s> IN DT
-1.211807	<s> IN JJ
-1.357935	<s> IN NN
-0.2860529	<s> IN NNP
-0.8586708	CC IN CD
-1.113943	CC IN IN
-1.335792	CC IN NN
-0.7337321	CC IN NNP
-1.210853	CC IN VB
-1.735599	CD IN CD
-0.6421772	CD IN DT
-1.656418	CD IN JJ
-1.735599	CD IN NN
-0.2250539	CD IN NNP
-1.957448	CD IN PRP
-0.8553172	DT IN DT
-1.156347	DT IN NNP
-1.535716	EX IN DT
-1.234686	EX IN JJ
-0.2275074	EX IN NNP
-1.348954	IN IN CD
-1.348954	IN IN DT
-1.348954	IN IN JJS
-1.348954	IN IN NN
-0.5473212	IN IN NNP
-1.348954	IN IN NNS
-1.348954	IN IN VB
-1.552263	JJ IN CD
-0.9686859	JJ IN DT
-1.728354	JJ IN JJ
-1.376171	JJ IN NN
-0.1781254	JJ IN NNP
-0.251812	JJR IN CD
-1.079181	JJS IN DT
-2.732595	NN IN </s>
-1.721871	NN IN CD
-1.033625	NN IN DT
-2.732595	NN IN IN
-1.610379	NN IN JJ
-1.117171	NN IN NN
-0.1476984	NN IN NNP
-2.556504	NN IN NNPS
-1.317621	NN IN NNS
-2.220711	NN IN PRP
-2.556504	NN IN RB
-2.857533	NN IN VBG
-0.8492888	NNP IN CD
-0.8134698	NNP IN DT
-2.290591	NNP IN IN
-1.477678	NNP IN JJ
-1.264262	NNP IN NN
-0.2581738	NNP IN NNP
-1.963232	NNP IN NNPS
-2.348583	NNP IN NNS
-1.778708	NNP IN PRP
-2.01759	NNP IN RB
-2.71656	NNP IN VBG
-0.9777236	NNPS IN NNP
-2.351023	NNS IN CD
-1.61066	NNS IN DT
-2.351023	NNS IN IN
-1.355388	NNS IN JJ
-1.688265	NNS IN NN
-0.06862735	NNS IN NNP
-1.580171	NNS IN NNS
-2.39678	NNS IN PRP
-2.873902	NNS IN PRP$
-2.30963	NNS IN VB
-1.041393	PRP IN DT
-0.8073095	PRP IN NN
-0.845098	PRP IN NNP
-0.6560418	PRP IN NNS
-1.034154	RB IN CD
-0.570397	RB IN DT
-1.230449	RB IN JJ
-0.5314789	RB IN NNP
-1.473487	RB IN PRP
-0.6585413	RP IN NNP
-1.721536	VB IN </s>
-2.420506	VB IN CC
-1.091447	VB IN CD
-1.198657	VB IN DT
-2.119476	VB IN IN
-1.994537	VB IN JJ
-1.329425	VB IN NN
-0.1432788	VB IN NNP
-2.052529	VB IN PRP
-2.420506	VB IN RB
-1.176091	VBD IN JJ
-0.69897	VBD IN NNP
-0.7407963	VBG IN CD
-0.959475	VBG IN DT
-2.097778	VBG IN IN
-1.523746	VBG IN NN
-0.2314904	VBG IN NNP
-2.222717	VBG IN NNPS
-2.097778	VBG IN NNS
-1.796748	VBG IN VB
-0.5081555	VBN IN DT
-0.7090703	VBN IN NNP
-1.462398	VBN IN NNS
-1.094421	VBN IN VBG
-0.8791778	VBP IN DT
-1.247155	VBP IN NN
-0.6828832	VBP IN NNP
-1.528274	VBZ IN </s>
-0.9262138	VBZ IN CD
-1.051152	VBZ IN DT
-1.352183	VBZ IN NN
-0.3174204	VBZ IN NNP
-1.653213	VBZ IN RB
-0.8129134	WDT IN DT
-0.9777236	WRB IN NNS
-0.3954512	<s> JJ NN
-0.9395192	<s> JJ NNS
-1.337459	<s> JJ PRP
-1.337459	<s> JJ VBD
-1.124939	CC JJ NN
-1	CC JJ NNP
-0.8361432	CD JJ NN
-0.6812412	CD JJ NNP
-2.028368	DT JJ </s>
-1.852277	DT JJ CC
-2.028368	DT JJ CD
-0.1518614	DT JJ NN
-2.028368	DT JJ NNP
-0.7611961	DT JJ NNS
-2.028368	DT JJ VBZ
-1.130334	IN JJ </s>
-1.653213	IN JJ CD
-1.176091	IN JJ IN
-0.7592659	IN JJ NN
-0.3860408	IN JJ NNP
-0.9400021	IN JJ NNS
-1.586266	IN JJ VBG
-1.829304	IN JJ WDT
-0.4412087	JJ JJ NN
-1.286307	JJ JJ NNP
-1.161368	JJ JJ NNS
-1.142668	JJS JJ CD
-1.318759	JJS JJ JJ
-0.2160964	JJS JJ NN
-1.39794	JJS JJ NNS
-1.033424	NN JJ </s>
-0.7112045	NN JJ IN
-0.542062	NN JJ NN
-0.9920311	NN JJ NNP
-1.556303	NN JJ VBG
-0.6925675	NNP JJ </s>
-1.82823	NNP JJ CC
-1.82823	NNP JJ IN
-1.82823	NNP JJ JJ
-0.589348	NNP JJ NN
-0.5810755	NNP JJ NNP
-1.606381	NNP JJ NNS
-1.191408	NNP JJ VB
-1.82823	NNP JJ VBN
-0.9363309	NNS JJ </s>
-0.5975124	NNS JJ IN
-0.69897	NNS JJ NN
-1.074634	NNS JJ NNP
-1.500602	NNS JJ VB
-0.4771213	PRP JJ NN
-1.342423	PRP JJ NNP
-0.8653014	PRP JJ NNS
-0.8692317	PRP$ JJ NN
-0.2612629	TO JJ NNP
-1.283301	VB JJ </s>
-1.028029	VB JJ IN
-1.380211	VB JJ JJ
-0.6398485	VB JJ NN
-1.137173	VB JJ NNP
-0.6600519	VB JJ NNS
-1	VBG JJ NNP
-1.124939	VBG JJ NNS
-1.473487	VBP JJ </s>
-1.473487	VBP JJ CC
-0.304695	VBP JJ IN
-1.297396	VBP JJ NN
-0.8994557	VBP JJ NNP
-1.238882	VBZ JJ </s>
-0.3357921	VBZ JJ IN
-1.539912	VBZ JJ NN
-1.171935	VBZ JJ NNS
-0.9756407	VBZ JJ VB
-0.7596679	WDT JJ NN
-0.8176598	WDT JJ NNS
-0.8402991	WRB JJ JJ
-1.255273	WRB JJ NNP
-0.39794	WRB JJ NNS
-1.477121	WRB JJ VBZ
-0.7569619	CD JJR IN
-0.8692317	NN JJR IN
-0.4436975	NNP JJR IN
-0.9542425	NNS JJR IN
-0.8016323	VB JJR IN
-0.9542425	VBP JJR IN
-1.09108	VBZ JJR IN
-0.4455223	<s> JJS NN
-0.9343355	DT JJS CD
-0.7973083	DT JJS JJ
-0.2395888	DT JJS NN
-1.823637	DT JJS NNP
-1.195248	DT JJS NNS
-2.027757	DT JJS VBG
-1.079181	IN JJS CD
-0.9542425	NNP JJS JJ
-1.124939	PRP$ JJS JJ
-0.8239087	PRP$ JJS NN
-1.079181	VB JJS NN
-1.09108	VBZ JJS IN
-0.09828654	<s> MD PRP
-0.5920758	DT MD VB
-0.5619428	NN MD PRP
-1.31527	NN MD RB
-0.7132105	NN MD VB
-0.5166298	NNP MD PRP
-0.9138138	NNS MD PRP
-1.010724	NNS MD VB
-2.029384	PRP MD </s>
-0.04862314	PRP MD VB
-0.9777236	RB MD PRP
-0.9542425	WDT MD VB
-0.6232493	WRB MD PRP
-1.066947	. NN CD
-1.625312	<s> NN CC
-1.847161	<s> NN CD
-1.045529	<s> NN DT
-0.6253124	<s> NN IN
-1.421193	<s> NN MD
-0.6430412	<s> NN NN
-1.178154	<s> NN NNS
-1.28289	<s> NN PRP
-1.722222	<s> NN TO
-1.324282	<s> NN VB
-1.421193	<s> NN VBD
-1.847161	<s> NN VBG
-1.722222	<s> NN WDT
-0.6122792	CC NN </s>
-0.8553172	CC NN IN
-0.980256	CC NN NN
-1.0894	CC NN NNP
-1.235528	CC NN NNS
-1.457377	CC NN VBN
-0.7547446	CD NN </s>
-1.708987	CD NN CC
-0.771135	CD NN IN
-1.532896	CD NN JJ
-0.6006476	CD NN NN
-1.584048	CD NN NNP
-0.9556594	CD NN NNS
-0.9073548	CD NN RB
-1.885078	CD NN VBG
-0.8490923	DT NN </s>
-1.647138	DT NN CC
-2.249198	DT NN CD
-1.633774	DT NN DT
-0.2618673	DT NN IN
-2.249198	DT NN JJ
-2.110896	DT NN MD
-0.9909204	DT NN NN
-2.550228	DT NN NNP
-1.30103	DT NN NNS
-2.675167	DT NN PRP
-2.249198	DT NN RB
-1.70513	DT NN TO
-1.897016	DT NN VB
-1.51882	DT NN VBG
-2.550228	DT NN VBZ
-2.453318	DT NN WDT
-1.247155	EX NN IN
-0.4455223	EX NN NN
-0.7346855	IN NN </s>
-1.189813	IN NN CC
-2.019116	IN NN CD
-1.776078	IN NN DT
-0.8969004	IN NN IN
-2.019116	IN NN MD
-0.5958704	IN NN NN
-1.445085	IN NN NNP
-1.390727	IN NN NNS
-2.144055	IN NN PRP
-1.240965	IN NN TO
-1.776078	IN NN VB
-1.922206	IN NN VBD
-1.922206	IN NN VBG
-1.776078	IN NN VBN
-1.030112	IN NN VBZ
-0.9121516	JJ NN </s>
-1.986132	JJ NN CC
-1.92814	JJ NN CD
-2.13226	JJ NN DT
-0.5687786	JJ NN IN
-1.575957	JJ NN JJ
-0.63533	JJ NN NN
-1.717286	JJ NN NNP
-0.6698617	JJ NN NNS
-2.354108	JJ NN PRP
-1.92814	JJ NN RB
-2.053078	JJ NN TO
-2.053078	JJ NN VB
-1.717286	JJ NN VBG
-2.22917	JJ NN WDT
-1.450723	JJS NN </s>
-1.523273	JJS NN DT
-0.2242219	JJS NN IN
-1.564666	JJS NN JJ
-1.020598	JJS NN NN
-1.523273	JJS NN PRP
-1.610424	JJS NN TO
-1.133302	JJS NN VBG
-2.087545	JJS NN WDT
-0.8002278	NN NN </s>
-1.836324	NN NN CC
-1.581052	NN NN CD
-2.234264	NN NN DT
-0.3572769	NN NN IN
-1.733662	NN NN JJ
-2.535294	NN NN JJR
-2.535294	NN NN MD
-1.01678	NN NN NN
-1.550017	NN NN NNP
-1.565257	NN NN NNS
-2.234264	NN NN PRP
-1.535294	NN NN TO
-1.368963	NN NN VB
-1.866287	NN NN VBG
-2.410355	NN NN VBP
-1.192871	NN NN VBZ
-0.4698482	NNP NN </s>
-1.32749	NNP NN CC
-1.556827	NNP NN CD
-2.316494	NNP NN DT
-0.818184	NNP NN IN
-1.877162	NNP NN JJ
-0.9454267	NNP NN NN
-1.772426	NNP NN NNP
-1.520615	NNP NN NNS
-2.441433	NNP NN PRP
-2.316494	NNP NN RB
-0.7482928	NNP NN TO
-1.804611	NNP NN VB
-1.663282	NNP NN VBG
-2.441433	NNP NN VBZ
-2.316494	NNP NN WDT
-0.8976271	NNS NN </s>
-1.420506	NNS NN CC
-1.052529	NNS NN CD
-0.5965971	NNS NN IN
-1.295567	NNS NN NN
-1.420506	NNS NN VBG
-1.420506	NNS NN VBZ
-1.111151	PRP NN </s>
-1.491362	PRP NN CD
-1.491362	PRP NN DT
-0.7923917	PRP NN IN
-1.491362	PRP NN JJ
-0.7431737	PRP NN NN
-1.71321	PRP NN NNP
-0.7132105	PRP NN NNS
-1.588272	PRP NN PRP
-1.345234	PRP NN VB
-1.491362	PRP NN VBG
-1	PRP$ NN IN
-1.124939	PRP$ NN VBZ
-0.6690068	RB NN </s>
-0.90309	RB NN IN
-1.271067	RB NN NN
-0.7239723	TO NN </s>
-0.5532761	TO NN DT
-1.252246	TO NN IN
-1.113943	TO NN NN
-0.757396	TO NN NNP
-1.553276	TO NN VBG
-0.7381637	VB NN </s>
-1.817345	VB NN CC
-0.4749223	VB NN IN
-0.6816823	VB NN NN
-1.817345	VB NN NNP
-1.294466	VB NN NNS
-1.817345	VB NN PRP
-1.692406	VB NN TO
-0.7403627	VBG NN </s>
-0.7781513	VBG NN IN
-0.8653014	VBG NN NN
-0.9890046	VBP NN IN
-0.6255411	VBZ NN </s>
-1.579784	VBZ NN CD
-1.676694	VBZ NN IN
-0.39794	VBZ NN NN
-0.8473898	VBZ NN VB
-0.5009242	WDT NN IN
-1.653213	WDT NN MD
-0.6532125	WDT NN NN
-1.206054	WDT NN NNS
-1.653213	WDT NN VB
-1.507084	WDT NN VBP
-0.6894247	WDT NN VBZ
-1.186815	<s> NNP NN
-1.244807	<s> NNP NNP
-0.6919651	<s> NNP NNS
-0.3823349	<s> NNP TO
-0.4164234	CC NNP </s>
-1.544068	CC NNP CC
-2.146128	CC NNP CD
-1.367977	CC NNP DT
-0.9604915	CC NNP IN
-2.146128	CC NNP JJ
-1.261521	CC NNP NN
-0.771991	CC NNP NNP
-1.447158	CC NNP NNS
-1.509306	CC NNP TO
-1.778151	CC NNP VB
-1.3928	CC NNP VBG
-1.845098	CC NNP WDT
-1.213075	CD NNP </s>
-1.088136	CD NNP NN
-0.7871061	CD NNP TO
-0.7676858	DT NNP </s>
-1.691965	DT NNP CC
-1.487845	DT NNP IN
-1.788875	DT NNP JJ
-0.5584262	DT NNP NN
-1.487845	DT NNP NNP
-0.5158738	DT NNP NNS
-1.788875	DT NNP TO
-1.913814	DT NNP VBZ
-1.788875	DT NNP WDT
-0.9777236	EX NNP NN
-1.102662	EX NNP NNS
-0.917445	IN NNP </s>
-1.224071	IN NNP CC
-1.251183	IN NNP CD
-2.220332	IN NNP DT
-1.238061	IN NNP IN
-2.533951	IN NNP JJ
-2.919302	IN NNP MD
-1.251183	IN NNP NN
-0.9797831	IN NNP NNP
-1.565743	IN NNP NNS
-2.986249	IN NNP PRP
-2.421978	IN NNP RB
-0.3138433	IN NNP TO
-2.56028	IN NNP VB
-2.86131	IN NNP VBD
-2.232921	IN NNP VBG
-2.86131	IN NNP VBZ
-2.618272	IN NNP WDT
-0.7122432	JJ NNP </s>
-1.220399	JJ NNP CC
-1.873611	JJ NNP DT
-1.153452	JJ NNP IN
-1.475671	JJ NNP JJ
-0.7513953	JJ NNP NN
-1.572581	JJ NNP NNS
-0.5671862	JJ NNP TO
-1.873611	JJ NNP VB
-1.29958	JJ NNP VBG
-1	JJS NNP NN
-0.90309	JJS NNP NNS
-0.4712917	NN NNP </s>
-1.471292	NN NNP CC
-1.568202	NN NNP CD
-1.39211	NN NNP IN
-1.568202	NN NNP JJ
-1.128869	NN NNP NN
-1.024134	NN NNP NNP
-1.216019	NN NNP NNS
-1.056318	NN NNP TO
-1.39211	NN NNP VB
-0.553808	NNP NNP </s>
-1.285307	NNP NNP CC
-1.382217	NNP NNP CD
-1.523546	NNP NNP DT
-0.7667933	NNP NNP IN
-1.558308	NNP NNP JJ
-2.762429	NNP NNP MD
-1.23095	NNP NNP NN
-1.515274	NNP NNP NNP
-2.54058	NNP NNP NNS
-2.461398	NNP NNP PRP
-2.160368	NNP NNP RB
-0.6586248	NNP NNP TO
-1.84161	NNP NNP VB
-1.394452	NNP NNP VBG
-2.093422	NNP NNP WDT
-1.017033	NNS NNP NN
-0.60206	NNS NNP TO
-1.185637	PRP NNP JJ
-1.060698	PRP NNP NN
-0.9637879	PRP NNP NNS
-1.060698	PRP NNP TO
-1.238882	RB NNP </s>
-1.238882	RB NNP CC
-0.9378521	RB NNP NN
-0.8709053	RB NNP NNP
-1.238882	RB NNP TO
-0.4601287	TO NNP </s>
-1.833926	TO NNP CC
-2.3622	TO NNP CD
-1.487138	TO NNP DT
-0.7065811	TO NNP IN
-1.715061	TO NNP JJ
-2.335871	TO NNP JJR
-3.089198	TO NNP JJS
-2.788168	TO NNP MD
-1.3622	TO NNP NN
-0.6125599	TO NNP NNP
-2.721222	TO NNP NNS
-2.788168	TO NNP PRP
-2.022252	TO NNP RB
-2.524927	TO NNP TO
-1.885078	TO NNP VB
-1.387343	TO NNP VBG
-2.612077	TO NNP VBZ
-1.858749	TO NNP WDT
-3.089198	TO NNP WRB
-0.9761971	VB NNP </s>
-1.00616	VB NNP CC
-0.4990758	VB NNP IN
-1.675167	VB NNP JJ
-1.453318	VB NNP NN
-1.249198	VB NNP NNP
-1.073107	VB NNP NNS
-1.675167	VB NNP RB
-1.198046	VB NNP TO
-1.115904	VBG NNP </s>
-1.09108	VBG NNP CC
-1.09108	VBG NNP CD
-0.6835951	VBG NNP IN
-1.23241	VBG NNP NN
-0.8692317	VBG NNP NNP
-1.443263	VBG NNP NNS
-1.346353	VBG NNP RB
-1.170262	VBG NNP TO
-1.869232	VBG NNP VB
-1.067599	VBG NNP VBG
-1.079181	VBP NNP NNS
-1.636822	VBZ NNP </s>
-1.636822	VBZ NNP CC
-1.210853	VBZ NNP IN
-0.9678153	VBZ NNP JJ
-1	VBZ NNP NN
-1.414973	VBZ NNP NNP
-0.7160034	VBZ NNP NNS
-1.511883	VBZ NNP RB
-1.636822	VBZ NNP TO
-0.6515453	VBZ NNP VB
-1.161368	WDT NNP NN
-0.4412087	WDT NNP NNS
-0.9542425	CC NNPS </s>
-0.462398	IN NNPS </s>
-1.286307	IN NNPS CC
-1.064458	IN NNPS IN
-1.60206	<s> NNS CC
-0.5168884	<s> NNS DT
-0.2798407	<s> NNS IN
-1.90309	<s> NNS NN
-1.90309	<s> NNS TO
-0.2891308	CC NNS IN
-0.3793688	CD NNS </s>
-1.410777	CD NNS CD
-0.8988939	CD NNS IN
-1.109747	CD NNS JJ
-1.899586	DT NNS </s>
-1.554352	DT NNS CC
-1.289839	DT NNS DT
-0.1137479	DT NNS IN
-1.683986	DT NNS JJ
-2.346744	DT NNS NN
-2.142624	DT NNS NNP
-1.790442	DT NNS TO
-2.443654	DT NNS VBD
-1.246374	DT NNS VBG
-2.568593	DT NNS VBP
-2.346744	DT NNS WDT
-1.405593	IN NNS </s>
-1.660865	IN NNS DT
-0.1954826	IN NNS IN
-1.882714	IN NNS NN
-1.514737	IN NNS TO
-0.9796242	IN NNS VBG
-1.581684	IN NNS VBP
-0.9908566	JJ NNS </s>
-1.672098	JJ NNS DT
-0.3218499	JJ NNS IN
-1.893947	JJ NNS JJ
-1.672098	JJ NNS NNP
-1.769008	JJ NNS NNS
-1.257125	JJ NNS VB
-1.257125	JJ NNS VBG
-1.166948	JJ NNS VBP
-1.257125	JJ NNS VBZ
-0.3273589	JJS NNS IN
-1.355388	JJS NNS JJ
-1.13292	NN NNS </s>
-1.925312	NN NNS DT
-0.1694372	NN NNS IN
-1.67004	NN NNS JJ
-1.846131	NN NNS NN
-2.147161	NN NNS NNS
-1.779184	NN NNS TO
-1.545101	NN NNS VB
-1.721192	NN NNS VBG
-1.323252	NN NNS VBP
-1.721192	NN NNS VBZ
-0.6532125	NNP NNS </s>
-1.566062	NNP NNS CC
-1.829304	NNP NNS DT
-0.5070845	NNP NNS IN
-1.566062	NNP NNS JJ
-1.145057	NNP NNS NN
-2.130334	NNP NNS NNP
-1.088941	NNP NNS NNS
-1.829304	NNP NNS TO
-1.063387	NNP NNS VB
-1.377006	NNP NNS VBG
-1.908485	NNP NNS VBP
-1.704365	NNP NNS VBZ
-2.130334	NNP NNS WDT
-1.367977	NNS NNS DT
-0.4648868	NNS NNS IN
-1	NNS NNS VB
-1	NNS NNS VBG
-1.554576	PRP NNS DT
-0.1348559	PRP NNS IN
-1.496584	PRP NNS JJ
-1.700704	PRP NNS NNP
-1.797614	PRP NNS TO
-1.320493	PRP NNS VBG
-1.922552	PRP NNS WDT
-0.5740313	PRP$ NNS IN
-0.3318439	RB NNS IN
-1.261263	RB NNS VBG
-1.386202	RB NNS VBP
-1.588832	VB NNS </s>
-1.588832	VB NNS CC
-1.810681	VB NNS DT
-0.157468	VB NNS IN
-1.685742	VB NNS JJ
-1.810681	VB NNS NN
-1.20862	VB NNS VBG
-0.6232493	VBG NNS IN
-0.8808136	VBP NNS IN
-0.7028564	WDT NNS IN
-1.953276	WDT NNS MD
-2.050186	WDT NNS NN
-2.050186	WDT NNS PRP
-0.4243596	WDT NNS VB
-2.175125	WDT NNS VBG
-0.5349751	WDT NNS VBP
-1.448126	WDT NNS VBZ
-2.066699	<s> PRP CD
-0.4115601	<s> PRP MD
-2.288547	<s> PRP NN
-2.066699	<s> PRP RB
-0.4961556	<s> PRP VB
-0.6483973	<s> PRP VBP
-0.8527849	CC PRP MD
-0.9777236	CC PRP VB
-0.6766936	CC PRP VBP
-0.6792259	CD PRP MD
-0.748188	DT PRP MD
-0.6342447	DT PRP NN
-1.271067	DT PRP VB
-1.486667	IN PRP </s>
-1.264818	IN PRP DT
-1.361728	IN PRP MD
-0.351004	IN PRP NN
-1.486667	IN PRP NNS
-1.486667	IN PRP RB
-1.361728	IN PRP VB
-1.09108	JJ PRP MD
-1.709694	MD PRP NN
-0.08130494	MD PRP VB
-1.255273	NN PRP </s>
-1.380211	NN PRP IN
-0.6812412	NN PRP MD
-0.7781513	NN PRP VB
-1.079181	NN PRP VBP
-0.6368221	NNP PRP MD
-0.9378521	NNP PRP VB
-1.113943	NNP PRP VBP
-0.8920946	NNS PRP VB
-0.8129134	PRP PRP NN
-1	RB PRP MD
-0.6575773	RB PRP VB
-1.221849	RB PRP VBP
-1.079181	UH PRP VB
-2.360152	VB PRP </s>
-2.235213	VB PRP CD
-0.2063366	VB PRP DT
-1.536243	VB PRP IN
-1.619789	VB PRP JJ
-1.448107	VB PRP NN
-1.992175	VB PRP NNP
-0.801843	VB PRP NNS
-2.360152	VB PRP PRP
-2.536243	VB PRP RB
-2.661181	VB PRP TO
-1.208884	VB PRP VB
-1.675905	VB PRP WDT
-2.536243	VB PRP WRB
-1.355388	VBZ PRP CD
-1.355388	VBZ PRP IN
-0.9874108	VBZ PRP NN
-0.4707811	VBZ PRP VB
-1.066947	<s> PRP$ NN
-1.066947	CC PRP$ NN
-1.09108	IN PRP$ NNS
-1.09108	VB PRP$ NN
-1.09108	VB PRP$ NNS
-0.7096938	VBP PRP$ NNS
-1	VBZ PRP$ JJ
-0.90309	VBZ PRP$ JJS
-1.079181	<s> RB NNS
-0.7781513	<s> RB PRP
-1.380211	<s> RB RB
-0.6268836	<s> RB VB
-1.158363	<s> RB VBD
-1.255273	CC RB </s>
-1.255273	CC RB DT
-1.033424	CC RB IN
-1.130334	CC RB NNP
-0.9542425	CC RB TO
-1.255273	CC RB VB
-0.6532125	DT RB NNS
-1.033424	DT RB VB
-1.130334	DT RB WDT
-0.7201593	IN RB CD
-0.845098	IN RB IN
-1.197281	IN RB NNP
-1.322219	IN RB RB
-1.066947	MD RB VB
-0.6320232	NN RB </s>
-1.109144	NN RB CD
-0.69897	NN RB IN
-1.255273	NN RB NN
-1.477121	NN RB NNS
-1.477121	NN RB PRP
-1.477121	NN RB TO
-0.9815166	NNP RB </s>
-0.5982999	NNP RB CD
-0.6627578	NNP RB IN
-1.458638	NNP RB NN
-1.361728	NNP RB NNP
-1.583577	NNP RB RB
-1.157608	NNP RB TO
-1.041393	PRP RB DT
-0.9444827	PRP RB VB
-1.166331	PRP RB VBP
-0.9637879	RB RB IN
-1.060698	RB RB RB
-1.185637	RB RB VB
-1.021189	TO RB IN
-0.845098	TO RB NNP
-0.9149892	VB RB CD
-0.827839	VB RB IN
-1.39211	VB RB NN
-0.6387828	VB RB NNS
-1.39211	VB RB TO
-1.39211	VB RB VBN
-0.763428	VBG RB CD
-0.860338	VBG RB IN
-0.860338	VBG RB NN
-1.176091	VBZ RB CD
-0.8750613	VBZ RB IN
-1.176091	VBZ RB NNS
-1.066947	WDT RB NNS
-1.352183	WRB RB MD
-0.2382392	WRB RB VBZ
-0.8129134	VB RP IN
-1.079181	VBG RP IN
-1.066947	CC TO NNP
-0.69897	CD TO NNP
-1.066947	EX TO NNP
-1.066947	IN TO NNP
-0.9661418	JJ TO VB
-1.369525	NN TO DT
-1.749736	NN TO JJ
-1.017343	NN TO NN
-0.1676729	NN TO NNP
-1.846646	NN TO RB
-1.302578	NN TO VB
-3.060572	NNP TO DT
-1.969491	NNP TO JJ
-1.89424	NNP TO NN
-0.01550988	NNP TO NNP
-2.935633	NNP TO RB
-2.838723	NNP TO VB
-1.261263	NNS TO CC
-1.386202	NNS TO DT
-0.4161648	NNS TO NNP
-0.9602329	NNS TO VB
-0.9542425	PRP TO VB
-1.113943	RB TO CD
-1.238882	RB TO NN
-0.5399121	RB TO NNP
-2.152288	VB TO DT
-1.085342	VB TO NN
-1.02735	VB TO NNP
-0.1297225	VB TO VB
-0.3174204	VBG TO NNP
-0.908485	VBG TO VB
-1.431364	VBP TO NN
-0.1346986	VBP TO VB
-1.079181	VBZ TO NNP
-1.010724	<s> UH PRP
-1.135663	<s> UH VB
-0.8331988	<s> VB DT
-2.547529	<s> VB IN
-1.945469	<s> VB JJ
-2.644439	<s> VB JJS
-1.831525	<s> VB NN
-2.401401	<s> VB NNP
-1.292256	<s> VB NNS
-0.2248959	<s> VB PRP
-2.100371	<s> VB RB
-0.8866631	<s> VB VB
-1.815135	<s> VB VBG
-2.246499	<s> VB VBN
-1.069197	CC VB DT
-1.633469	CC VB EX
-0.3471617	CC VB IN
-1.633469	CC VB NNS
-1.50853	CC VB PRP
-1.332438	CC VB RB
-1.156347	CC VB TO
-1.633469	CC VB VBG
-0.7690079	CD VB </s>
-1.194977	CD VB PRP
-1.070038	CD VB VB
-1.70757	DT VB </s>
-0.2268448	DT VB IN
-1.464532	DT VB JJ
-1.355388	DT VB NN
-1.195687	DT VB NNP
-1.70757	DT VB NNS
-1.464532	DT VB RB
-1.40654	DT VB TO
-0.3756636	IN VB NN
-1.064458	JJ VB DT
-0.8091855	JJ VB IN
-0.763428	JJ VB NNP
-1.286307	JJ VB TO
-0.5232961	MD VB DT
-1.093171	MD VB IN
-1.938269	MD VB JJ
-1.093171	MD VB NN
-2.063208	MD VB NNP
-1.762178	MD VB PRP
-0.3973147	MD VB TO
-1.841359	MD VB VBG
-2.063208	MD VB VBN
-0.5014806	NN VB </s>
-1.176091	NN VB DT
-0.6377003	NN VB IN
-1.518514	NN VB JJ
-1.518514	NN VB NN
-0.916454	NN VB PRP
-1.740363	NN VB VB
-1.615424	NN VB VBG
-0.4797938	NNP VB </s>
-1.735066	NNP VB CC
-1.212188	NNP VB DT
-0.6807087	NNP VB IN
-1.36709	NNP VB NN
-1.36709	NNP VB NNP
-1.513218	NNP VB PRP
-1.735066	NNP VB TO
-1.212188	NNP VB VB
-1.610128	NNP VB VBG
-1.824451	NNS VB </s>
-1.727541	NNS VB DT
-0.2621584	NNS VB IN
-1.64836	NNS VB JJ
-1.824451	NNS VB NN
-0.8244513	NNS VB NNP
-1.385119	NNS VB NNS
-1.147758	NNS VB PRP
-1.94939	NNS VB RB
-1.824451	NNS VB TO
-1.951823	PRP VB </s>
-1.951823	PRP VB CD
-0.4267782	PRP VB DT
-0.9817863	PRP VB IN
-1.826884	PRP VB JJ
-1.21146	PRP VB NN
-1.688582	PRP VB NNS
-0.8378797	PRP VB PRP
-0.8787159	PRP VB TO
-1.407755	PRP VB VB
-1.616031	PRP VB VBG
-1.826884	PRP VB VBN
-1.342423	RB VB DT
-1.217484	RB VB IN
-1.342423	RB VB JJ
-1.120574	RB VB NN
-0.615424	RB VB PRP
-1.217484	RB VB TO
-1.342423	RB VB VB
-1.342423	RB VB VBG
-1.91293	TO VB CD
-0.5575426	TO VB DT
-0.3566277	TO VB IN
-1.649689	TO VB JJ
-1.6119	TO VB NN
-1.348659	TO VB NNP
-1.486961	TO VB NNS
-2.089021	TO VB PRP
-1.691082	TO VB RB
-2.21396	TO VB RP
-1.460633	TO VB TO
-2.21396	TO VB VBG
-2.21396	TO VB VBZ
-1.691082	TO VB WDT
-0.511524	VB VB DT
-1.781037	VB VB IN
-1.781037	VB VB JJ
-1.576917	VB VB NN
-1.082067	VB VB NNS
-0.3660636	VB VB PRP
-1.877947	VB VB RB
-0.6232493	VBD VB DT
-1.322219	VBD VB NN
-1.70243	VBD VB NNS
-0.2460645	VBD VB TO
-1.102662	WDT VB DT
-0.394147	WDT VB IN
-1.454845	WDT VB JJR
-1.579784	WDT VB NN
-1.015512	WDT VB NNP
-1.102662	WDT VB PRP
-1.579784	WDT VB RP
-0.7201593	WRB VB PRP
-0.07746466	<s> VBD VB
-0.4436975	CC VBD VB
-0.7459666	CD VBD VB
-0.9542425	JJ VBD VB
-0.9822713	NN VBD </s>
-1.20412	NN VBD IN
-0.7269987	NN VBD VB
-0.5920758	NNP VBD VB
-0.9542425	NNS VBD IN
-0.8692317	RB VBD VB
-0.69897	VBP VBD IN
-1.066947	WDT VBD VB
-0.6720979	<s> VBG IN
-1.194977	<s> VBG NN
-1.194977	<s> VBG NNP
-1.263241	CC VBG DT
-0.2932047	CC VBG IN
-1.439333	CC VBG NNP
-1.564271	CC VBG NNS
-1	CC VBG TO
-1.20412	CD VBG CD
-0.5509075	CD VBG IN
-1.028029	CD VBG NNP
-1.20412	CD VBG RB
-0.7359536	DT VBG NN
-1.088136	DT VBG NNP
-0.9912261	DT VBG NNS
-1.066947	EX VBG IN
-0.9444827	IN VBG DT
-0.8653014	IN VBG IN
-0.9444827	JJ VBG IN
-0.7983546	JJ VBG NNP
-0.8692317	JJS VBG NN
-0.4241852	NN VBG IN
-1.732394	NN VBG JJ
-1.607455	NN VBG NN
-0.446087	NN VBG NNP
-1.607455	NN VBG RB
-1.732394	NN VBG RP
-1.525045	NNP VBG DT
-0.2394875	NNP VBG IN
-1.826075	NNP VBG JJ
-1.525045	NNP VBG NN
-0.8260748	NNP VBG NNP
-1.378917	NNP VBG RB
-1.163317	NNP VBG TO
-1.79472	NNS VBG CC
-0.3475623	NNS VBG IN
-0.5084136	NNS VBG NNP
-1.426744	NNS VBG RB
-1.669782	NNS VBG TO
-1.48192	VB VBG DT
-0.4027389	VB VBG IN
-1.260071	VB VBG NN
-1.113943	VB VBG NNP
-0.9176487	VB VBG TO
-1.066947	VBN VBG IN
-1.066947	VBP VBG NNS
-0.9661418	VBZ VBG IN
-1.066947	JJ VBN </s>
-0.7676858	NN VBN IN
-1.079181	NNP VBN IN
-1.066947	RB VBN IN
-0.4149733	VB VBN IN
-0.5488145	VBP VBN IN
-0.9378521	VBZ VBN </s>
-0.60206	VBZ VBN IN
-0.2167091	<s> VBP EX
-1.194977	DT VBP DT
-0.8269998	DT VBP JJ
-1.070038	DT VBP JJR
-1.09108	EX VBP IN
-1.031408	NN VBP DT
-1.156347	NN VBP JJ
-1.156347	NN VBP VBN
-1.102662	NNP VBP EX
-0.4961445	NNS VBP EX
-1.176091	NNS VBP IN
-0.4414057	NNS VBP JJ
-1.419129	NNS VBP VBD
-1.243038	NNS VBP VBN
-0.5544778	PRP VBP DT
-1.579784	PRP VBP NN
-1.801632	PRP VBP NNP
-0.2787536	PRP VBP TO
-1.066947	RB VBP TO
-0.1024191	WDT VBP DT
-1.899456	WDT VBP IN
-1.899456	WDT VBP JJ
-1.899456	WDT VBP NNS
-1.422334	WDT VBP PRP$
-1.899456	WDT VBP VBG
-1.230449	<s> VBZ DT
-0.3580278	<s> VBZ EX
-1.271842	<s> VBZ JJ
-1.230449	<s> VBZ NN
-0.680777	<s> VBZ NNP
-1.426744	<s> VBZ PRP
-1.221849	CC VBZ DT
-0.69897	CC VBZ IN
-1.221849	CC VBZ RB
-1.102662	CD VBZ DT
-0.8143634	DT VBZ DT
-0.4126633	DT VBZ IN
-1	DT VBZ NN
-1.09691	DT VBZ NNP
-1.176091	DT VBZ RB
-1.135663	JJ VBZ DT
-0.9138138	JJ VBZ IN
-1.683497	NN VBZ </s>
-0.9053461	NN VBZ DT
-1.081437	NN VBZ EX
-1.006804	NN VBZ IN
-0.569554	NN VBZ JJ
-1.808436	NN VBZ JJR
-1.109466	NN VBZ NN
-1.139429	NN VBZ NNP
-1.808436	NN VBZ PRP
-1.006804	NN VBZ VBN
-0.7861202	NNP VBZ DT
-1.138303	NNP VBZ EX
-1.263241	NNP VBZ IN
-1.138303	NNP VBZ JJS
-1.263241	NNP VBZ NNP
-1.09691	NNS VBZ </s>
-1.176091	NNS VBZ DT
-1.39794	NNS VBZ IN
-1.029963	NNS VBZ JJ
-0.5326386	NNS VBZ NNP
-1.39794	NNS VBZ VBG
-0.9661418	PRP VBZ IN
-0.509306	RB VBZ DT
-1.079181	RB VBZ NN
-0.6232493	RB VBZ PRP
-0.1705696	WDT VBZ DT
-1.860766	WDT VBZ IN
-0.6724399	WDT VBZ NN
-1.927712	WDT VBZ NNP
-1.927712	WDT VBZ PRP
-1.802774	WDT VBZ PRP$
-1.060698	WRB VBZ DT
-1.185637	WRB VBZ JJ
-1.185637	WRB VBZ NN
-0.8846066	WRB VBZ NNP
-2.33109	<s> WDT DT
-2.264143	<s> WDT IN
-1.963113	<s> WDT JJ
-0.9105839	<s> WDT NN
-1.694268	<s> WDT NNP
-0.5192913	<s> WDT NNS
-2.63212	<s> WDT RB
-2.206151	<s> WDT VB
-0.8125758	<s> WDT VBP
-0.4531428	<s> WDT VBZ
-0.9890046	CC WDT VBZ
-0.7178553	CD WDT NN
-1.070038	CD WDT NNS
-1.194977	CD WDT VBZ
-0.9542425	JJ WDT VB
-1.09691	NN WDT NNS
-1	NN WDT VB
-0.79588	NN WDT VBZ
-1.11764	NNP WDT NN
-1.293731	NNP WDT NNS
-0.308454	NNP WDT VB
-1.372912	NNP WDT VBP
-1.030489	NNP WDT VBZ
-0.6434527	NNS WDT VB
-1.007179	PRP WDT DT
-0.6713865	PRP WDT NN
-0.7439371	PRP WDT NNS
-1.102662	RB WDT PRP
-0.9242793	VB WDT NN
-0.845098	VB WDT NNS
-1.544068	<s> WRB IN
-0.49485	<s> WRB JJ
-1.339948	<s> WRB MD
-0.5106443	<s> WRB RB
-1.243038	<s> WRB VB
-1.09691	<s> WRB VBZ
-1.079181	CC WRB RB
-1.079181	NNP WRB DT

\end\
