
\data\
ngram 1=14
ngram 2=57
ngram 3=109
ngram 4=148

\1-grams:
-0.7451685	0	-3.208731
-3.20861	1	-0.7608226
-2.554277	10	-1.452557
-2.738275	11	-1.22839
-0.7428296	2	-1.916577
-0.7642566	3	-3.204704
-1.308879	4	-2.212749
-0.7816262	5	-3.045438
-1.042221	6	-2.770213
-1.627897	7	-2.025922
-0.9395317	8	-3.074872
-1.735378	9	-2.109231
-5.142363	</s>
-99	<s>

\2-grams:
-2.46365	0 1	0
-0.6614333	0 2	-2.092652
-0.1089609	0 3	-2.433877
-0.9120448	1 2	-0.1421737
-0.1161648	1 3	-0.08394086
-1.522879	10 0	2.07706
-0.6478175	10 11	0.3265234
-0.440692	10 5	2.128019
-2	10 7	0.2129035
-0.4881167	10 8	-0.0582118
-1.522879	10 9	0.3975363
-2.071882	11 10
-0.1554281	11 5	2.075946
-0.60206	11 8	-0.3723707
-2.062734	2 0	-0.9475337
-3.679034	2 2	0.06194627
-0.5137897	2 3	0.7754064
-0.6044614	2 4	0.1829948
-3.855125	2 5
-0.3725375	2 6	0.4884894
-2.311057	2 8	-0.3473073
-2.173884	2 9
-0.07953292	3 2	-1.093466
-0.857351	3 4	0.0234015
-1.562358	3 6	1.000186
-3.194477	3 8	-0.234603
-4.069539	3 9
-2.782616	4 0	-0.009681582
-3.004465	4 5	2.036912
-0.01516321	4 6	0.6793227
-1.710734	4 8	-0.4753371
-2.019188	4 9
-0.003203042	5 0	0.03942227
-4.060679	5 3
-2.165809	5 5	2.096032
-3.231215	6 11
-0.06323308	6 8	-1.542399
-0.8747107	6 9	-0.5073312
-0.4860761	7 0	1.471815
-1.309289	7 2	-1.019002
-2.561101	7 4	-0.2362131
-0.2989894	7 5	1.212656
-0.9363774	7 8	-0.9477717
-3.10517	7 9
-1.093288	8 0	0.4099967
-2.196345	8 10	-0.6272057
-2.10244	8 11	-0.4783463
-0.2206751	8 5	0.4080973
-0.6249169	8 7	-0.0456624
-1.182104	8 9	-0.6683724
-1.194237	9 0	1.408053
-1.291147	9 10	0.2307869
-1.453874	9 11	0.770852
-0.1234603	9 5	0.1378216
-1.796297	9 7	0.2776925
-1.495267	9 8	0.2692543
-1.342978	9 9	-0.1413306

\3-grams:
-0.6812412	10 0 2	0.9889066
-0.4771213	10 0 3	2.988425
-0.04011722	2 0 2	0.08581662
-0.6283889	4 0 2	1.015236
-2.46664	5 0 1	0.03698355
-0.7049429	5 0 2	0.09762502
-0.09751885	5 0 3	0.02795434
-1.9721	7 0 1	-0.1863104
-0.3188874	7 0 2	-0.4007806
-0.3030932	7 0 3	1.653972
-0.4573253	8 0 2	-0.3490268
-0.1929688	8 0 3	1.427921
-0.6178542	9 0 2	0.6282909
-0.1799863	9 0 3	2.354957
-0.9120448	0 1 2	0
-0.1161648	0 1 3	0
-1.518514	8 10 0	0.07918125
-0.9956352	8 10 11	-0.08071604
-0.2032435	8 10 5	0.326668
-1.393575	8 10 7	0
-0.916454	8 10 9	0
-1.11869	9 10 0	0.1014576
-0.60206	9 10 11	0.464532
-0.7596679	9 10 5	0.7487417
-0.3955861	9 10 8	-0.4177679
-0.4645321	10 11 5	0.5758753
-0.2604122	10 11 8	0.01874942
-0.04575749	8 11 5	0.01752436
-0.2218488	9 11 5	0.5404031
-1	9 11 8	0.6471384
-0.03264606	0 2 3	-0.235039
-1.158381	0 2 6	1.882389
-3.070869	0 2 9
-0.30103	1 2 3	0.4635468
-0.69897	2 2 3	0.6676667
-3.500328	3 2 2	0
-3.023207	3 2 3	-0.2420441
-0.4257553	3 2 4	0
-0.2177814	3 2 6	-0.101583
-2.132351	3 2 8	0
-2.008966	3 2 9
-0.04329888	7 2 0	0
-0.0002676974	0 3 2	0.0009174347
-0.06445799	1 3 2	1.381586
-2.640923	2 3 2	0.01716144
-0.08194782	2 3 4	0
-0.7869545	2 3 6	0
-2.419074	2 3 8	0
-0.01492812	2 4 6	0.5126593
-2.140229	2 4 8	0.3933443
-1.732743	2 4 9
-0.01677212	3 4 6	0.1521404
-1.546494	3 4 8	0.05931401
-2.408966	3 4 9
-0.5797836	7 4 0	0
-0.8016323	7 4 5	0
-0.1167184	10 5 0	1.372859
-0.7809263	10 5 5	0.5231644
-0.04385328	11 5 0	-0.4901556
-1.469822	11 5 5	0.8476755
-0.69897	4 5 0	0.5996332
-0.04319527	5 5 0	1.23816
-1.528917	5 5 5	0.8724991
-0.005071616	7 5 0	0.3453913
-2.509202	7 5 5	0.898828
-0.005624418	8 5 0	0.4478991
-1.938098	8 5 5	0.07356423
-0.004405392	9 5 0	1.283553
-2.742725	2 6 11
-0.1363438	2 6 8	-1.152685
-0.5798621	2 6 9	0
-0.1134566	3 6 8	-0.9470903
-0.6791357	3 6 9
-0.09885317	4 6 8	-1.291656
-0.7127583	4 6 9
-0.7269987	10 7 5	1.838261
-0.4837306	8 7 0	0.003099442
-1.303801	8 7 2	0
-2.555613	8 7 4	0
-0.3020669	8 7 5	0.008485794
-0.9308886	8 7 8	0
-0.7900504	9 7 0	1.433709
-0.2894481	9 7 5	1.522991
-0.2601937	10 8 0	1.093031
-0.4447182	10 8 5	1.170357
-1.675167	10 8 7	0.2030855
-0.08040634	11 8 5	1.153201
-0.1823402	2 8 7
-0.2552725	3 8 7
-0.1280298	4 8 7
-0.157987	6 8 5	0.5091112
-0.5570402	6 8 7	-1.137511
-1.603608	6 8 9	0.07958883
-0.02324539	7 8 0	0.5658313
-1.788168	7 8 5	1.739248
-0.4121805	9 8 5	1.413395
-0.9472936	9 8 7	0.1004232
-0.4913617	9 8 9	0.4465431
-0.4259687	10 9 0	0.7269987
-0.7781513	10 9 5	1.871062
-0.154902	6 9 11
-1.368454	8 9 0	0.3416478
-2.181367	8 9 10	-0.09311702
-1.783427	8 9 11	0.0457575
-0.07870478	8 9 5	0.1875646
-1.81339	8 9 7	0.1532284
-1.11442	8 9 9	0.005264282
-0.5766554	9 9 0	0.01713675
-0.2201081	9 9 5	1.28279

\4-grams:
-0.69897	8 10 0 3
-0.6766936	9 10 0 2
-0.6766936	9 10 0 3
-0.04011722	7 2 0 2
-0.6283889	7 4 0 2
-0.7983546	10 5 0 2
-0.1249387	10 5 0 3
-1.758407	11 5 0 1
-0.03687136	11 5 0 3
-0.69897	4 5 0 3
-0.5272878	5 5 0 2
-0.1962947	5 5 0 3
-0.3342786	7 5 0 2
-0.2771058	7 5 0 3
-2.796894	8 5 0 1
-0.7485722	8 5 0 2
-0.08684217	8 5 0 3
-2.033789	9 5 0 1
-0.4953983	9 5 0 2
-0.1786556	9 5 0 3
-1.969002	8 7 0 1
-0.319018	8 7 0 2
-0.303108	8 7 0 3
-0.7781513	9 7 0 2
-0.6532125	9 7 0 3
-0.1281677	10 8 0 2
-0.8750613	10 8 0 3
-0.1311946	7 8 0 2
-0.6489337	7 8 0 3
-0.7201593	10 9 0 2
-0.544068	10 9 0 3
-0.5936268	8 9 0 2
-0.2762064	8 9 0 3
-0.1890562	9 9 0 3
-1.352183	5 0 1 2
-0.07918125	5 0 1 3
-0.3679768	7 0 1 2
-0.4771213	8 9 10 5
-0.3424227	8 10 11 5
-0.3136191	9 10 11 5
-0.69897	9 10 11 8
-0.2552725	8 9 11 5
-0.5314789	10 0 2 3
-0.04011722	2 0 2 3
-0.60206	4 0 2 3
-0.04115026	5 0 2 3
-1.062086	5 0 2 6
-2.973243	5 0 2 9
-0.01268103	7 0 2 3
-0.01431265	8 0 2 3
-0.1597008	9 0 2 3
-0.30103	0 1 2 3
-0.69897	3 2 2 3
-3.499412	0 3 2 2
-3.022291	0 3 2 3
-0.4261827	0 3 2 4
-0.2173946	0 3 2 6
-2.131435	0 3 2 8
-2.017492	0 3 2 9
-0.6368221	1 3 2 4
-0.5118834	1 3 2 6
-0.455932	2 3 2 4
-0.04329888	8 7 2 0
-0.39794	10 0 3 2
-0.0002855009	5 0 3 2
-0.01223446	7 0 3 2
-0.007228369	8 0 3 2
-0.06526673	9 0 3 2
-0.06445799	0 1 3 2
-0.08136039	0 2 3 4
-0.7846317	0 2 3 6
-2.416751	0 2 3 8
-0.30103	1 2 3 4
-0.69897	2 2 3 4
-0.3679768	3 2 3 2
-0.01492812	3 2 4 6
-2.140229	3 2 4 8
-1.732743	3 2 4 9
-0.01677212	2 3 4 6
-1.546494	2 3 4 8
-2.408966	2 3 4 9
-0.5797836	8 7 4 0
-0.8016323	8 7 4 5
-0.2671717	8 10 5 0
-0.5075039	8 10 5 5
-0.30103	9 10 5 0
-0.9700368	9 10 5 5
-0.1949766	10 11 5 0
-0.8939466	10 11 5 5
-0.04575749	8 11 5 0
-0.1760913	9 11 5 0
-0.69897	7 4 5 0
-0.1648103	10 5 5 0
-0.4771213	11 5 5 0
-0.5314789	5 5 5 0
-0.60206	7 5 5 0
-0.05166017	8 5 5 0
-0.69897	10 7 5 0
-0.005172286	8 7 5 0
-2.500717	8 7 5 5
-0.2126081	9 7 5 0
-0.09177037	10 8 5 0
-0.08783036	11 8 5 0
-0.006172469	6 8 5 0
-2.00877	6 8 5 5
-0.5314789	7 8 5 0
-0.1760913	9 8 5 0
-0.60206	10 9 5 0
-0.006803708	8 9 5 0
-0.09342168	9 9 5 0
-0.860338	0 2 6 11
-0.559308	0 2 6 8
-0.6173	0 2 6 9
-0.1350763	3 2 6 8
-0.5812098	3 2 6 9
-0.1134566	2 3 6 8
-0.6791357	2 3 6 9
-0.1805326	2 4 6 8
-0.5112526	2 4 6 9
-0.07360277	3 4 6 8
-0.847859	3 4 6 9
-0.7269987	8 10 7 5
-0.69897	10 8 7 5
-0.01615588	6 8 7 5
-0.4336556	9 8 7 5
-0.6368221	8 9 7 0
-0.5118834	8 9 7 5
-0.1219944	9 10 8 5
-0.08432089	10 11 8 5
-0.60206	9 11 8 5
-0.1823402	3 2 8 7
-0.2552725	2 3 8 7
-0.4336556	2 4 8 7
-0.1503859	3 4 8 7
-0.02266398	2 6 8 7
-0.03698356	3 6 8 7
-0.01633902	4 6 8 7
-0.02324539	8 7 8 0
-1.788168	8 7 8 5
-0.4259687	8 10 9 0
-0.7781513	8 10 9 5
-0.154902	2 6 9 11
-0.06835455	6 8 9 5
-1.410777	6 8 9 9
-0.2498775	9 8 9 0
-1.028029	9 8 9 5
-0.5713912	8 9 9 0
-0.2236178	8 9 9 5

\end\
