
\data\
ngram 1=37
ngram 2=200
ngram 3=312
ngram 4=398

\1-grams:
-0.7510234	0	-2.693777
-3.214465	1	-0.3654553
-1.048076	10	-2.307545
-1.954449	11	-1.072138
-3.279732	12	-0.2998776
-2.34756	13	-0.9287994
-3.356572	14	-0.2750224
-2.125299	15	-1.126129
-1.183809	16	-2.238675
-1.996981	17	-1.486988
-1.791219	18	-1.705666
-2.036694	19	-1.478017
-0.7486845	2	-1.685306
-1.647357	20	-1.749502
-1.849674	21	-1.443042
-2.664664	22	-0.8461791
-2.732323	23	-0.7853515
-3.11554	24	-0.4529875
-3.209444	25	-0.4004958
-2.81451	26	-0.7897713
-3.059058	27	-0.6567028
-3.214465	28	-0.4697691
-4.546904	29	0.02991923
-0.7701114	3	-2.660692
-3.219544	30	-0.3935695
-2.993627	31	-0.5847947
-4.03502	32	-0.1321246
-3.077081	33	-0.5808537
-4.148963	35	-0.03222869
-1.314734	4	-1.684707
-0.7896593	5	-2.532094
-3.476866	6	-0.3052462
-3.657602	7	-0.1077947
-4.002835	8	0.008653566
-3.7176	9	-0.08064242
-5.148527	</s>
-99	<s>

\2-grams:
-2.464049	0 1	0
-0.6618325	0 2	-1.578204
-0.1093601	0 3	-1.971613
-1.003604	1 2	0.03051916
-0.2077241	1 3	0.2769623
-0.2381414	10 16	-1.098936
-1.117901	10 17	-0.7162428
-1.294409	10 18	-0.4016166
-1.189316	10 19	-0.08614564
-1.033335	10 20	-0.2592853
-0.8761746	10 21	-0.2396985
-3.232678	10 31
-0.4258006	11 0	1.300597
-0.5695152	11 16	-0.8210883
-2.236033	11 19	-0.03384013
-1.612784	11 2	-0.2003509
-1.236033	11 20	-0.2348476
-2.633973	11 21
-0.6449686	11 5	1.592918
-2.457882	11 7	0.00567713
-2.457882	11 8	0.01102785
-1.192328	12 0	0.5855117
-0.6224532	12 16	0.2453986
-0.6060627	12 19	-0.2364063
-0.8069776	12 5	2.238643
-0.9271494	13 0	1.797575
-0.6099326	13 16	-0.3823991
-1.444565	13 2	-0.2230149
-1.319626	13 20	-0.1437379
-0.2958598	13 5	1.382937
-0.9453791	14 0	2.191722
-0.2707684	14 5	2.015127
-0.5259414	15 0	1.298177
-1.759071	15 16	0.1898927
-1.12934	15 2	-0.5043864
-2.192727	15 4	-0.09063124
-0.2419447	15 5	1.135102
-2.435765	15 6	0.2986156
-0.8802512	16 0	1.420825
-0.6544336	16 11	-0.02943552
-2.410309	16 14	0.19438
-1.593699	16 15	0.115863
-2.178914	16 16	-0.3030621
-3.063521	16 19	-0.05679844
-1.363106	16 20	-0.8450901
-1.106872	16 21	-0.1135051
-3.540642	16 22
-3.364551	16 25	0.4171758
-1.877884	16 26	-0.2650988
-3.239612	16 30	0.3816613
-2.063521	16 31	-0.000258863
-0.3357087	16 5	0.8367002
-3.364551	16 8	0.01102785
-2.463594	17 0	0.6067011
-1.293333	17 12	0
-0.9952471	17 16	0.2600492
-2.685443	17 18	0.2626948
-0.9048858	17 19	0.1970252
-1.764624	17 20	0.1967395
-1.582781	17 21	0.4206831
-1.041991	17 22	-0.02493668
-2.208322	17 26	0.08904287
-1.958444	17 27	0.3693534
-0.2600176	17 5	1.03348
-2.063333	18 0	-0.07734746
-0.5629597	18 13	0
-1.224484	18 16	-0.5517992
-3.063333	18 20
-2.887242	18 21	-0.004445173
-1.074329	18 23	-0.08792561
-2.188272	18 26	-0.04078554
-1.859213	18 28	0.004372478
-1.495132	18 33	-0.02070844
-0.3036655	18 5	1.273661
-1.933	18 7	-0.01860523
-1.544068	19 0	1.991157
-2.64673	19 11	0.07581335
-1.567549	19 14	0.02636892
-2.278754	19 21	0.4575132
-1.407848	19 24	0.01490194
-2.822822	19 25
-0.0597682	19 5	0.8776419
-2.424882	19 6	0.2876202
-2.06343	2 0	-0.5506164
-0.3732341	2 10	-1.290933
-2.311754	2 16	-0.1105637
-3.679731	2 2	0.1228334
-2.174581	2 21
-0.5144863	2 3	0.7732961
-0.605158	2 4	0.3098848
-3.855822	2 5
-1.18415	20 0	1.465314
-0.5643617	20 15	0.07878387
-3.20534	20 2
-1.72104	20 25	0.01468816
-3.029248	20 30
-3.029248	20 35	0.07342893
-0.2086092	20 5	1.042028
-2.00122	20 6	0.06360537
-2.464977	20 9	0.1296339
-1.158193	21 0	1.829174
-1.754178	21 11	0.2317356
-1.611511	21 19	0.8279614
-1.779002	21 20	0.2562656
-1.407391	21 21	0.3117601
-1.895508	21 24	0.2857691
-2.2313	21 25	0.3841756
-1.453148	21 26	-0.01462054
-2.708421	21 27
-2.407391	21 29	0
-2.708421	21 30
-1.453148	21 31	0.1240702
-2.310481	21 33	-0.02863655
-0.1491129	21 5	1.073833
-1.686381	22 0	0.5732773
-0.562996	22 16	0.03444076
-0.8782664	22 21	0.1899069
-2.230449	22 24
-1	22 27	0.2226349
-2.230449	22 31
-2.054358	22 32
-0.4311084	22 5	1.74782
-1.99417	23 0
-0.8480424	23 16	0.007778436
-1.325164	23 21	0.4340932
-2.170262	23 25
-1.568202	23 26	0.09902709
-1.517049	23 28	0.1827218
-2.170262	23 33
-0.1971339	23 5	1.606341
-0.9792448	24 0	2.15551
-1.310238	24 11	0.03234767
-0.9000635	24 21	0.4625455
-0.3040777	24 5	1.92934
-1.308209	25 0	2.241696
-1.609239	25 30	0.3807079
-1.78533	25 35
-0.1887327	25 5	1.897741
-1.098644	26 0	2.114117
-2.098644	26 11
-1.797614	26 19	0.8560935
-0.4965837	26 20	-0.01629806
-2.098644	26 24
-1.700704	26 25	-0.03609011
-0.8556057	26 31	0.2873751
-1.195554	26 33	0.4158516
-0.6362457	26 5	2.378896
-2.098644	26 7
-2.098644	26 9
-0.1572644	27 16	-0.1414276
-1.721536	27 21	-0.02014157
-1.897627	27 26
-1.157264	27 32	-0.005650267
-0.667812	28 16	0.484852
-1.304634	28 21	-0.04090738
-0.6056641	28 26	-0.1072177
-0.6848454	28 33	0.2516382
-1.605664	28 5
-0.9890046	29 5	2.363582
-1.562783	3 10	-0.6762037
-3.194903	3 16	-0.04610574
-0.07995826	3 2	-0.5320464
-4.069964	3 21
-0.8577763	3 4	0.1527246
-1.380211	30 0	0.6067011
-1.234083	30 35	0.02996324
-0.2099495	30 5	1.91722
-1.778151	30 7
-0.9398128	31 19	0.7189202
-0.5904781	31 20	0.09933347
-1.869232	31 30
-0.4143869	31 5	1.990858
-1.693141	31 9	0.1768925
-0.6398485	32 16	0.1446635
-1.380211	32 26
-1.380211	32 31
-0.1846914	33 16	-0.3248789
-1.485721	33 20	0.3605963
-1.70757	33 26	0.07840087
-1.184691	33 31	0.03173347
-1.70757	33 5	2.374863
-1.883661	33 9
-0.6532125	35 5	2.301434
-2.785899	4 0	0.06095524
-0.01844631	4 10	-0.9876155
-1.714017	4 16	-0.1922338
-2.022471	4 21
-3.007748	4 5	2.374863
-0.00169064	5 0	0.039608
-4.058938	5 3
-2.627574	5 5	2.005256
-0.2606013	6 5	2.051556
-1.436693	6 6	0.3098966
-1.041393	7 0	0.5837427
-0.4045706	7 5	2.169317
-0.9912261	8 0	2.25242
-0.7871061	8 5	2.321178
-1.213075	8 8	0.04169667
-1.190332	9 0	0.605462
-0.4121805	9 5	2.183794

\3-grams:
-0.489425	11 0 2	0.4790344
-0.2358197	11 0 3	1.904361
-0.845098	12 0 3	2.677184
-0.2243959	13 0 2	0.6451741
-0.9777236	13 0 3	2.61787
-1.185637	14 0 2	1.078228
-0.7085153	14 0 3	2.646515
-0.3233064	15 0 2	0.3441442
-0.3659708	15 0 3	2.011214
-2.023481	16 0 1	-0.05402576
-0.4361444	16 0 2	0.0870471
-0.2295356	16 0 3	1.515451
-1	17 0 3	2.698903
-0.4616091	18 0 2	0.9256176
-1.164353	19 0 2	1.055951
-0.3318439	19 0 3	2.451119
-0.1079754	2 0 2	0.4566143
-0.5696222	20 0 2	0.65369
-0.2277981	20 0 3	2.034695
-0.7030866	21 0 2	0.9098234
-0.3177357	21 0 3	2.355469
-0.7781513	22 0 3	2.666718
-1.09691	24 0 2	1.066947
-0.6197888	24 0 3	2.61787
-1.010724	25 0 2	1.066947
-1.135663	25 0 3	2.710184
-1.041393	26 0 2	1.055951
-0.5362427	26 0 3	2.582397
-1	30 0 3	2.698903
-1	4 0 2	1.066947
-2.466849	5 0 1	0.0297069
-0.7053449	5 0 2	0.09732318
-0.09796601	5 0 3	0.02815795
-0.8346326	7 0 3	2.677184
-1.124939	8 0 2	1.078228
-1.124939	8 0 3	2.710184
-0.9890046	9 0 3	2.698903
-1.003604	0 1 2	0
-0.2077241	0 1 3	0
-0.1408362	2 10 16	-0.6241888
-0.5843545	2 10 21	0
-2.747218	2 10 31
-0.131737	3 10 16	-0.441338
-0.6974162	3 10 21
-0.1076814	4 10 16	-0.7524683
-0.7215865	4 10 21
-0.4192594	16 11 0	0.006108284
-0.5561985	16 11 16	0
-2.222717	16 11 19	0
-1.599467	16 11 2	0
-1.222716	16 11 20	0
-0.6737132	16 11 5	0.03539199
-2.444565	16 11 8	0
-1.102662	19 11 5	0.7819442
-0.9461246	21 11 0	0.9410991
-0.6828832	21 11 5	0.69897
-0.7781513	24 11 5	0.7384785
-1.192328	17 12 0	0
-0.6224532	17 12 16	0
-0.6060627	17 12 19	0
-0.8069776	17 12 5	0
-0.9271494	18 13 0	0
-0.6099326	18 13 16	0
-1.444565	18 13 2	0
-1.319626	18 13 20	0
-0.2958598	18 13 5	0
-0.750999	16 14 0	0
-0.5619428	16 14 5	0.2235159
-0.2949558	19 14 5	0.08826089
-0.3263358	16 15 0	0.4259688
-1.849215	16 15 4	-0.003530871
-0.4512746	16 15 5	0.7781512
-0.604933	20 15 0	0.139662
-1.680288	20 15 16	0
-1.055951	20 15 2	-0.00847429
-2.260071	20 15 4	-0.002944376
-0.2218488	20 15 5	0.05536783
-2.356982	20 15 6	0
-0.365318	10 16 11	-0.4131692
-1.491612	10 16 21	0.1313023
-0.2860401	10 16 5	0.3854302
-0.06102328	11 16 0	0.4594421
-1.18327	12 16 11	-0.02017974
-0.423602	12 16 5	1.592349
-0.3398117	13 16 0	0.8773531
-0.6360952	13 16 16	0
-0.8364551	13 16 5	1.549597
-0.5563025	15 16 0	0.231757
-1.033424	15 16 5	1.753717
-0.2457272	16 16 0	-0.1662899
-1.18089	17 16 0	0.2708637
-1.48192	17 16 11	-0.04189899
-0.3735807	17 16 21	0.3202327
-1.78295	17 16 26	0.3046602
-0.5357955	17 16 5	1.411294
-1.635986	18 16 11	-0.02017974
-0.1077123	18 16 21	-0.08394504
-0.4017002	2 16 11
-1.262112	22 16 11	0.02427934
-0.2942966	22 16 21	0.2803061
-1.630089	22 16 25	0
-0.80618	22 16 5	1.615414
-1.409369	23 16 20	-0.03051436
-0.9322482	23 16 21	0.4346565
-0.845098	23 16 31	0.0265249
-0.544068	23 16 5	1.599902
-1.684247	27 16 0	0.3509434
-0.5703034	27 16 21	0.2119874
-0.3689763	27 16 26	-0.102328
-1.258278	27 16 5	1.722309
-1.08636	28 16 0	0.1401352
-1.308209	28 16 11
-0.6092386	28 16 26	0.2890384
-1.007179	28 16 5	1.742993
-0.5228788	3 16 11
-1.060698	32 16 31	0.09821813
-0.7596679	32 16 5	1.722309
-1.653213	33 16 26
-0.9542425	33 16 31	0.2787536
-0.2060545	33 16 5	1.28023
-0.30103	4 16 11
-1.841985	10 17 12	-0.01576175
-1.402652	10 17 22	-0.09079923
-0.05222787	10 17 5	0.1985321
-0.4421843	10 18 13	-0.3877155
-0.3125504	10 18 5	0.6399257
-1.184123	10 18 7	0.002005979
-1.102662	17 18 5	1.404534
-1.900367	10 19 24	0.21094
-0.03903189	10 19 5	0.4039835
-1	11 19 14	0.2601937
-0.3610279	12 19 14	0.05886665
-0.8346326	16 19 14	0.2384745
-1.255273	17 19 0	0.1442284
-0.1040048	17 19 5	0.7652505
-1.30103	21 19 21	0.04346569
-0.5228788	21 19 24	0.08721358
-1.079181	21 19 5	1.474944
-1.113943	26 19 5	1.497221
-0.4855544	31 19 5	1.361001
-1.160497	0 2 10	1.633275
-3.072985	0 2 21
-0.03476211	0 2 3	-0.08946133
-0.5929166	1 2 3	0.6245673
-0.4259687	11 2 0	0.4532091
-0.3906408	13 2 0	0.4305451
-0.161368	15 2 0	0.1406993
-1.102662	2 2 3	0.7168816
-0.2188322	3 2 10	-0.0336014
-2.133402	3 2 16	0
-3.501379	3 2 2	0
-2.010017	3 2 21
-3.024258	3 2 3	-0.09839647
-0.4268062	3 2 4	0
-0.7455952	10 20 15	-0.2360892
-1.824776	10 20 25	0.3290587
-0.1214851	10 20 5	0.5372421
-0.2392228	11 20 15	0.4261712
-0.3209248	13 20 15	0.5245664
-0.05212301	16 20 15	0.2308353
-1.924279	16 20 25	0.3912067
-0.39794	17 20 5	1.498784
-0.5399121	21 20 25	0.2833013
-1.238882	21 20 5	1.689852
-0.2613573	26 20 0	-0.2986105
-0.8302489	26 20 5	1.553632
-0.2835393	31 20 5	1.406313
-0.90309	33 20 5	1.667576
-0.3521825	10 21 31
-1.483174	16 21 0	0.2929121
-1.682747	16 21 11	0.05217801
-1.363988	16 21 19	0
-1.531479	16 21 20	0
-1.205625	16 21 21	0.02380288
-1.647985	16 21 24	0
-1.983777	16 21 25	0
-1.983777	16 21 26	0.006525412
-2.284806	16 21 29	0.01128101
-2.062958	16 21 33	0
-0.1502045	16 21 5	0.2334307
-1.018225	17 21 0	0.02894016
-1.261263	17 21 21	0.08770201
-0.4319591	17 21 5	1.088422
-1.102662	18 21 0
-0.7781513	19 21 5	1.257564
-0.552842	21 21 0	0.08082318
-0.5740313	21 21 5	1.140451
-0.2596373	22 21 5	0.9831866
-0.6488034	23 21 26	-0.04558269
-1.088136	23 21 5	1.289749
-0.6450946	24 21 0	0.1569134
-0.8791778	24 21 5	1.257564
-1.102662	27 21 26
-0.9138138	28 21 26	-0.006074142
-1.745595	17 22 0	0.04346569
-0.5067132	17 22 16	0.07829028
-0.589248	17 22 21	-0.001239061
-0.6545147	17 22 5	0.3494934
-0.8302489	18 23 16	0.04764161
-1.759668	18 23 21	-0.010013
-0.1603307	18 23 5	0.06050313
-0.8255759	19 24 21	-0.01344672
-0.3374593	19 24 5	0.1502446
-0.90309	21 24 21	-0.007197771
-0.8361432	21 24 5	0.4020566
-1.102662	16 25 5	0.4771213
-0.1969414	20 25 5	0.0746336
-0.8346326	21 25 5	0.444121
-0.90309	26 25 0	0.01072387
-1.062411	16 26 0	0.04284274
-1.501744	16 26 19	0
-0.2649546	16 26 20	0.03107539
-1.258706	16 26 33	0.01373982
-1.041393	17 26 31	0.07382561
-0.8653014	17 26 5	0.1144373
-0.5228788	18 26 5	-0.005962953
-0.9481683	21 26 0	0.1068942
-1.152288	21 26 25	0
-0.8098657	21 26 31	0.002132379
-0.8512583	21 26 33	0.006052971
-1.152288	21 26 5	0.1251612
-1.031408	23 26 31	0.07382561
-0.9344984	23 26 5	0.1251612
-1.335792	28 26 0	0.1135825
-0.3815496	28 26 5	0.1760912
-1.102662	33 26 5	0.1132234
-0.5614421	17 27 16	0.02401391
-1.230449	17 27 21	0
-0.3073702	22 27 16	-0.1587189
-1.348954	18 28 16	0.009251595
-1.127105	18 28 21	-0.001510587
-0.4111015	18 28 26	0.004102424
-1.041393	23 28 16	-0.002029415
-1.041393	23 28 26	-0.01424044
-0.9890046	21 29 5	0
-0.0007803235	0 3 2	0.0009133816
-0.1663314	1 3 2	1.520618
-0.7894842	2 3 10	0
-2.421604	2 3 16	0
-2.643453	2 3 2	0.1264524
-0.08447759	2 3 4	0
-1.113943	16 30 5	0.4576429
-1.102662	25 30 5	0.4576429
-0.5463598	16 31 20	0.07093117
-0.4462447	16 31 5	0.1249388
-0.7403627	21 31 5	0.3303194
-0.6146491	26 31 19	0
-1.367977	26 31 20	0.2835393
-0.6146491	26 31 5	0.2477845
-0.8081145	33 31 20	0.2400736
-1.176091	33 31 9	0
-0.6213651	27 32 16	0
-0.1741036	18 33 16	-0.06659213
-0.90309	21 33 31	0.01543698
-0.8624721	26 33 16	0.3435823
-1.0086	26 33 20	0
-0.9294189	26 33 31	0.04042865
-0.4357286	28 33 16	0.3744589
-1.30103	28 33 26	0
-1.102662	20 35 5	0.07342893
-0.7781513	30 35 5	0.02996324
-0.9242793	15 4 0	0
-1.146128	15 4 5	0
-0.0228907	2 4 10	0.49338
-2.148191	2 4 16	0.2218487
-1.740706	2 4 21
-0.02230154	3 4 10	0.1484901
-1.552024	3 4 16	0.03891805
-2.414496	3 4 21
-0.07169323	11 5 0	1.483371
-0.4855544	12 5 0	2.129095
-0.04279213	13 5 0	1.27339
-0.2235159	14 5 0	1.905579
-0.02366392	15 5 0	1.025555
-0.006752227	16 5 0	0.8502772
-2.306559	16 5 5	0.2418198
-0.01861927	17 5 0	0.9239326
-0.01605225	18 5 0	1.288164
-2.119476	18 5 5	0.3059373
-0.01292089	19 5 0	0.7680942
-0.008247719	20 5 0	0.5403928
-2.703291	20 5 5	0.3583254
-0.02047559	21 5 0	1.478127
-0.1064553	22 5 0	1.638273
-0.07414702	23 5 0	1.496794
-0.1740475	24 5 0	1.819793
-0.1592778	25 5 0	2.302036
-0.463333	26 5 0	2.031613
-0.5371192	26 5 5	0.1569983
-0.9890046	29 5 0	0.6477749
-0.1681948	30 5 0	0.2014131
-0.207913	31 5 0	0.2698655
-1.102662	33 5 0	0.6590559
-0.6532125	35 5 0	0.5856271
-1.102662	4 5 0	0.6590559
-0.2169963	5 5 0	1.895709
-0.2498775	6 5 0	1.942008
-0.3703565	7 5 0	2.059769
-0.7303784	8 5 0	0.6176056
-0.3906408	9 5 0	2.074246
-0.9890046	15 6 5	0.3120254
-0.90309	19 6 5	0.30103
-0.3209248	20 6 5	0.07701519
-1.102662	6 6 5	0.3233064
-1.102662	11 7 0	0.03300026
-0.3774183	18 7 5	0
-1.102662	11 8 0	-0.001857284
-1.102662	16 8 0	-0.001857284
-1.102662	8 8 5	0.05368486
-1.060698	20 9 0	0
-0.7596679	20 9 5	0.1373836
-1.102662	31 9 5	0.1910684

\4-grams:
-0.4908698	16 11 0 2
-0.2360208	16 11 0 3
-1.135663	21 11 0 2
-1.010724	21 11 0 3
-0.845098	17 12 0 3
-0.2243959	18 13 0 2
-0.9777236	18 13 0 3
-1.185637	16 14 0 2
-0.7085153	16 14 0 3
-0.2218488	16 15 0 2
-0.8293038	16 15 0 3
-0.4575991	20 15 0 2
-0.2831016	20 15 0 3
-0.1736582	11 16 0 2
-0.6941175	11 16 0 3
-1.146128	13 16 0 1
-0.4014005	13 16 0 2
-0.5688916	13 16 0 3
-0.5228788	15 16 0 3
-0.2457272	16 16 0 2
-0.6307052	17 16 0 3
-1.102662	27 16 0 3
-0.90309	28 16 0 2
-0.5929166	17 19 0 3
-0.4259687	11 2 0 2
-0.3906408	13 2 0 2
-0.1576079	15 2 0 2
-0.1988344	26 20 0 2
-0.8293038	16 21 0 2
-0.6532125	16 21 0 3
-0.845098	17 21 0 2
-0.4259687	21 21 0 3
-0.5929166	24 21 0 3
-1.102662	17 22 0 3
-1.124939	26 25 0 2
-1.124939	26 25 0 3
-0.6627578	16 26 0 3
-1.031408	21 26 0 2
-0.9344984	21 26 0 3
-1.102662	28 26 0 3
-1	15 4 0 2
-0.7085153	11 5 0 2
-0.1827509	11 5 0 3
-0.5399121	12 5 0 2
-1.238882	12 5 0 3
-0.143574	13 5 0 2
-0.7204505	13 5 0 3
-1.094421	14 5 0 2
-0.2767614	14 5 0 3
-0.441146	15 5 0 2
-0.231833	15 5 0 3
-3.031543	16 5 0 1
-0.6723403	16 5 0 2
-0.11003	16 5 0 3
-1.076068	17 5 0 2
-0.05784319	17 5 0 3
-2.029384	18 5 0 1
-0.4921373	18 5 0 2
-0.1934051	18 5 0 3
-1.386808	19 5 0 2
-0.03129027	19 5 0 3
-0.8077763	20 5 0 2
-0.08224956	20 5 0 3
-1.926571	21 5 0 1
-0.5247877	21 5 0 2
-0.1897321	21 5 0 3
-0.6505234	22 5 0 2
-0.2477845	22 5 0 3
-0.5094558	23 5 0 2
-0.2691236	23 5 0 3
-0.8791778	24 5 0 2
-0.2618779	24 5 0 3
-1.579784	25 5 0 1
-0.695177	25 5 0 2
-0.3165421	25 5 0 3
-0.5473212	26 5 0 2
-0.7121314	26 5 0 3
-0.9890046	29 5 0 3
-0.1681948	30 5 0 3
-1.486667	31 5 0 1
-0.2234251	31 5 0 3
-1.102662	33 5 0 3
-0.6532125	35 5 0 3
-1.102662	4 5 0 3
-0.74527	5 5 0 2
-0.3583254	5 5 0 3
-0.4717262	6 5 0 2
-0.6243364	6 5 0 3
-1.18327	7 5 0 2
-0.423602	7 5 0 3
-0.7883704	8 5 0 3
-1.168792	9 5 0 2
-0.4486327	9 5 0 3
-1.102662	11 7 0 3
-1.102662	11 8 0 2
-1.102662	16 8 0 3
-0.9890046	20 9 0 3
-0.6892102	16 0 1 2
-1.451018	5 0 1 2
-0.1780172	5 0 1 3
-0.8129134	0 2 10 16
-0.8709053	0 2 10 21
-1.113943	0 2 10 31
-0.1396013	3 2 10 16
-0.5857348	3 2 10 21
-0.131737	2 3 10 16
-0.6974162	2 3 10 21
-0.2086402	2 4 10 16
-0.5393602	2 4 10 21
-0.0860818	3 4 10 16
-0.860338	3 4 10 21
-0.1576079	10 16 11 5
-0.9890046	12 16 11 20
-0.8346326	17 16 11 20
-0.9890046	18 16 11 20
-0.7781513	22 16 11 5
-0.8939466	16 21 11 0
-0.9731278	16 21 11 5
-0.7303784	10 17 12 5
-0.09816702	10 18 13 5
-0.9890046	11 19 14 5
-0.3610279	12 19 14 5
-0.8346326	16 19 14 5
-0.1147847	10 20 15 5
-1.021189	11 20 15 0
-0.3332147	11 20 15 5
-1.322219	11 20 15 6
-0.5956259	13 20 15 0
-0.6219548	13 20 15 5
-0.4617464	16 20 15 0
-0.7742562	16 20 15 2
-1.823474	16 20 15 4
-0.4290226	16 20 15 5
-0.06305175	2 10 16 11
-0.1001152	3 10 16 11
-0.04603491	4 10 16 11
-0.06102328	16 11 16 0
-1.18327	17 12 16 11
-0.423602	17 12 16 5
-0.3398117	18 13 16 0
-0.6360952	18 13 16 16
-0.8364551	18 13 16 5
-0.5563025	20 15 16 0
-1.033424	20 15 16 5
-0.2457272	13 16 16 0
-0.4017002	3 2 16 11
-0.3484547	17 22 16 21
-0.8255759	17 22 16 5
-1.361728	18 23 16 20
-1.060698	18 23 16 21
-0.7974564	18 23 16 31
-0.6084002	18 23 16 5
-0.9120448	17 27 16 21
-0.7871061	17 27 16 5
-0.3073702	22 27 16 21
-1.102662	18 28 16 5
-0.9890046	23 28 16 5
-0.5228788	2 3 16 11
-1.060698	27 32 16 31
-0.7596679	27 32 16 5
-0.1701009	18 33 16 5
-0.7781513	26 33 16 5
-1.278754	28 33 16 26
-0.5797836	28 33 16 31
-0.9777236	28 33 16 5
-0.7781513	2 4 16 11
-0.343782	3 4 16 11
-1	16 11 19 14
-0.3610279	17 12 19 14
-1.30103	16 21 19 21
-0.5228788	16 21 19 24
-1.079181	16 21 19 5
-1.113943	16 26 19 5
-0.4855544	26 31 19 5
-0.114519	11 0 2 3
-0.1803283	13 0 2 3
-1.102662	14 0 2 3
-0.08087111	15 0 2 3
-0.0428693	16 0 2 3
-0.4536402	18 0 2 3
-0.90309	19 0 2 3
-0.1079754	2 0 2 3
-0.1847774	20 0 2 3
-0.4259687	21 0 2 3
-0.9890046	24 0 2 3
-0.9890046	25 0 2 3
-0.90309	26 0 2 3
-0.9890046	4 0 2 3
-1.064504	5 0 2 10
-2.975662	5 0 2 21
-0.04382242	5 0 2 3
-1.102662	8 0 2 3
-0.5929166	0 1 2 3
-0.4259687	16 11 2 0
-0.3906408	18 13 2 0
-0.1576079	20 15 2 0
-1.102662	3 2 2 3
-0.2184476	0 3 2 10
-2.132488	0 3 2 16
-3.500465	0 3 2 2
-2.018545	0 3 2 21
-3.023344	0 3 2 3
-0.4272358	0 3 2 4
-0.7871061	1 3 2 10
-0.9120448	1 3 2 4
-0.7883704	2 3 2 4
-0.2392228	16 11 20 15
-0.3209248	18 13 20 15
-1.102662	23 16 20 25
-0.5399121	16 21 20 25
-1.238882	16 21 20 5
-0.2176928	16 26 20 0
-1.171935	16 26 20 5
-0.3610279	16 31 20 5
-1.102662	26 31 20 5
-0.7781513	33 31 20 5
-0.90309	26 33 20 5
-0.3521825	2 10 21 31
-0.2186787	10 16 21 5
-1.350248	17 16 21 11
-0.7067953	17 16 21 19
-0.8731267	17 16 21 20
-0.845098	17 16 21 21
-0.7067953	17 16 21 5
-1.385351	18 16 21 0
-1.327359	18 16 21 11
-1.628389	18 16 21 25
-0.154902	18 16 21 5
-1.09691	22 16 21 0
-1.522879	22 16 21 20
-0.8239087	22 16 21 21
-0.3767507	22 16 21 5
-0.6892102	23 16 21 5
-1.09108	27 16 21 26
-0.3377528	27 16 21 5
-1.102662	21 19 21 5
-0.529039	16 21 21 0
-0.6471384	16 21 21 5
-0.9890046	17 21 21 5
-0.2586261	17 22 21 5
-0.9890046	18 23 21 5
-0.60206	19 24 21 0
-0.8346326	21 24 21 5
-1.102662	17 27 21 26
-0.90309	18 28 21 26
-0.4336556	10 17 22 5
-0.9138138	10 19 24 5
-0.4690034	21 19 24 5
-0.90309	16 21 24 21
-0.8361432	16 21 24 5
-1.102662	22 16 25 5
-0.6532125	10 20 25 5
-0.9890046	16 20 25 5
-0.5228788	21 20 25 5
-0.8346326	16 21 25 5
-0.90309	21 26 25 0
-1.102662	17 16 26 20
-0.19438	27 16 26 20
-0.6575773	28 16 26 0
-1.221849	28 16 26 20
-1.135663	16 21 26 0
-1.010724	16 21 26 5
-0.6213651	23 21 26 31
-0.90309	28 21 26 0
-0.3873898	18 28 26 5
-1.113943	23 28 26 0
-1.102662	28 33 26 5
-1.102662	16 21 29 5
-0.06754294	11 0 3 2
-0.8346326	12 0 3 2
-0.5929166	13 0 3 2
-0.6892102	14 0 3 2
-0.0884219	15 0 3 2
-0.02632894	16 0 3 2
-0.9890046	17 0 3 2
-0.3073702	19 0 3 2
-0.0939045	20 0 3 2
-0.2269283	21 0 3 2
-0.7781513	22 0 3 2
-0.5929166	24 0 3 2
-1.102662	25 0 3 2
-0.5034502	26 0 3 2
-0.9890046	30 0 3 2
-0.0008326428	5 0 3 2
-0.8346326	7 0 3 2
-1.102662	8 0 3 2
-0.9890046	9 0 3 2
-0.1663314	0 1 3 2
-0.787175	0 2 3 10
-2.419295	0 2 3 16
-0.08390369	0 2 3 4
-0.5929166	1 2 3 4
-1.102662	2 2 3 4
-0.6892102	3 2 3 2
-0.6213651	23 16 31 20
-0.9890046	32 16 31 20
-0.6197888	33 16 31 20
-1.09691	33 16 31 5
-0.9890046	17 26 31 5
-0.6213651	21 26 31 5
-0.9890046	23 26 31 5
-0.90309	21 33 31 20
-1.135663	26 33 31 20
-1.135663	26 33 31 9
-0.90309	16 21 33 31
-0.9242793	16 26 33 20
-1.146128	16 26 33 31
-0.8081145	21 26 33 16
-1.051152	21 26 33 31
-1.102662	16 15 4 5
-0.90309	20 15 4 0
-0.0228907	3 2 4 10
-2.148191	3 2 4 16
-1.740706	3 2 4 21
-0.02230154	2 3 4 10
-1.552024	2 3 4 16
-2.414496	2 3 4 21
-0.07836259	16 11 5 0
-1.102662	19 11 5 0
-0.6213651	21 11 5 0
-0.7781513	24 11 5 0
-0.4855544	17 12 5 0
-0.04279213	18 13 5 0
-0.4855544	16 14 5 0
-0.2949558	19 14 5 0
-0.1663314	16 15 5 0
-0.02698349	20 15 5 0
-0.01658718	10 16 5 0
-0.4017002	12 16 5 0
-0.343782	13 16 5 0
-0.90309	15 16 5 0
-0.2202068	17 16 5 0
-0.4393327	22 16 5 0
-0.4134522	23 16 5 0
-0.7303784	27 16 5 0
-0.8346326	28 16 5 0
-0.7303784	32 16 5 0
-0.1512677	33 16 5 0
-0.029787	10 17 5 0
-0.07487933	10 18 5 0
-1.102662	17 18 5 0
-0.03353442	10 19 5 0
-0.08130494	17 19 5 0
-0.90309	21 19 5 0
-1.102662	26 19 5 0
-0.4855544	31 19 5 0
-0.02910238	10 20 5 0
-0.3906408	17 20 5 0
-1.102662	21 20 5 0
-0.4855544	26 20 5 0
-0.2835393	31 20 5 0
-0.90309	33 20 5 0
-0.03565966	16 21 5 0
-0.3610279	17 21 5 0
-0.7781513	19 21 5 0
-0.4393327	21 21 5 0
-0.2541744	22 21 5 0
-0.9890046	23 21 5 0
-0.7781513	24 21 5 0
-0.2891308	17 22 5 0
-0.08640461	18 23 5 0
-0.2730013	19 24 5 0
-0.7781513	21 24 5 0
-1.102662	16 25 5 0
-0.1969414	20 25 5 0
-0.8346326	21 25 5 0
-0.8346326	17 26 5 0
-0.5228788	18 26 5 5
-0.90309	21 26 5 0
-0.90309	23 26 5 0
-0.5619428	28 26 5 0
-0.750999	28 26 5 5
-1.102662	33 26 5 5
-0.9890046	21 29 5 0
-1.102662	16 30 5 0
-1.102662	25 30 5 0
-0.3073702	16 31 5 0
-0.7303784	21 31 5 0
-0.4855544	26 31 5 0
-1.102662	20 35 5 0
-0.7781513	30 35 5 0
-1.102662	15 4 5 0
-0.5034502	16 5 5 0
-0.6892102	18 5 5 0
-0.9890046	20 5 5 0
-0.3610279	26 5 5 0
-0.9890046	15 6 5 0
-0.90309	19 6 5 0
-0.3209248	20 6 5 0
-1.102662	6 6 5 0
-0.3703565	18 7 5 0
-1.102662	8 8 5 0
-0.7303784	20 9 5 0
-1.102662	31 9 5 0
-0.9890046	20 15 6 5
-0.3802112	10 18 7 5
-1.102662	16 11 8 0
-1.102662	33 31 9 5

\end\
