
\data\
ngram 1=40
ngram 2=244
ngram 3=597

\1-grams:
-0.3896369	(none)	-1.953694
-1.513081	--	-1.054536
-2.147781	0-10	-0.7733654
-2.583688	0-25	-0.2682897
-1.550662	10-20	-1.249098
-1.812746	13-21	-0.9119998
-2.371599	17-21	-0.6442811
-2.801977	17-26	-0.1393844
-1.091981	17-30	-1.272911
-3.029775	21-30	-0.2444071
-2.139991	25-50	-0.6126985
-1.848721	26-30	-0.6175631
-1.862764	50-75	-0.8592607
-3.130446	6-13	-0.1993066
-1.04938	6-21	-1.296201
-2.398752	6-9	-0.6505021
-1.780366	75-100	-0.9354679
-3.169954	9-21	-0.1993086
-1.491739	</s>
-0.8882716	<num>	-1.66441
-99	<s>	-1.05453
-1.51445	chc	-1.130253
-1.714747	def	-0.9090758
-3.346045	e	0.2148699
-4.191143	ene	0.2051973
-3.316082	ese	0.1351941
-1.93829	lkly	-0.7030656
-3.647075	n	0.2133983
-3.21342	ne	0.1107359
-3.316082	nnw	0.2065974
-2.923972	nw	0.05581203
-1.890113	s	-0.7106009
-1.835118	schc	-0.7932625
-2.454747	se	-0.2364441
-2.21342	sse	-0.4270616
-2.528386	ssw	-0.1830701
-2.659665	sw	-0.09928358
-2.634841	w	0.03614166
-2.721322	wnw	-0.120161
-2.87939	wsw	-0.03815708

\2-grams:
-0.5016693	(none) (none)	-1.151051
-1.602779	(none) --	-0.2130076
-2.240515	(none) 0-10	0.3679768
-2.848565	(none) 0-25	0.3273589
-2.070414	(none) 13-21	-0.03796893
-3.802808	(none) 17-21
-0.9038087	(none) 17-30	-0.3437816
-2.18476	(none) 25-50	0.3371704
-2.396268	(none) 26-30	0.004593015
-1.674086	(none) 50-75	0.1793796
-0.8575856	(none) 6-21	-0.3685241
-1.578793	(none) 75-100	0.1710163
-3.200748	(none) 9-21	-0.0196924
-1.352559	(none) </s>
-1.037139	(none) <num>	0.4790585
-1.358763	(none) chc	0.00789547
-1.631081	(none) def	0.2790946
-2.95771	(none) e	0
-3.802808	(none) ene
-2.95771	(none) ese	0.008272529
-1.878529	(none) lkly	-0.01057148
-3.25874	(none) n	0
-2.825084	(none) ne	0
-2.95771	(none) nnw	-0.002451345
-2.547535	(none) nw	0.005829543
-1.526346	(none) s	0.02238083
-1.744002	(none) schc	0.2524889
-2.074454	(none) se	0.005949378
-1.834325	(none) sse	0.007686853
-2.144797	(none) ssw	0.003353655
-2.284294	(none) sw	-0.003008485
-2.264989	(none) w	0.01200885
-2.332986	(none) wnw	0
-2.491054	(none) wsw	0
-0.3864793	-- (none)	-0.5366703
-2.041831	-- --	0.1486275
-2.518952	-- 10-20	0.8130512
-0.6656599	-- 13-21	-0.3538626
-2.217922	-- 17-30	0.1386848
-0.8407376	-- 26-30	-0.2749288
-2.695044	-- 6-13
-1.518952	-- 6-21	0.06845596
-1.740801	-- 6-9	-0.1172519
-2.695044	-- 75-100
-1.26368	-- chc	0.2008196
-1.954681	-- def	0.4272078
-1.615862	-- lkly	0.3404167
-2.695044	-- nnw
-2.041831	-- s	0.77415
-1.615862	-- schc	0.226504
-2.518952	-- se	0.5110677
-2.297104	-- sse	0.1675294
-2.695044	-- ssw
-2.695044	-- sw
-2.518952	-- w	0.03990947
-0.06890749	0-10 <num>	-0.3483963
-0.1670619	0-25 (none)	-0.3107942
-1.617572	10-20 17-30	-0.007294759
-1.102662	10-20 6-21	-0.2847444
-0.06678808	10-20 <num>	-0.8489103
-0.8095597	13-21 (none)	-0.1621246
-0.312976	13-21 --	-0.2777377
-2.01368	13-21 0-25	0.4420785
-1.132866	13-21 25-50	0.5391422
-2.235528	13-21 50-75	1.053734
-1.867552	13-21 75-100	1.089513
-1.350922	13-21 chc	0.419694
-1.265492	13-21 def	0.1428641
-1.370227	13-21 lkly	0.1229278
-1.250252	13-21 schc	0.3102404
-2.41162	13-21 w
-1.929419	17-21 75-100
-0.69897	17-21 chc	0.3573213
-0.2392228	17-21 def	-0.03995132
-0.3832167	17-26 (none)	-0.2619686
-1.638489	17-26 0-25
-0.8255759	17-26 def	0.2169604
-0.5135037	17-30 (none)	-0.9630975
-2.327529	17-30 --	0.2208668
-2.230619	17-30 0-10	0.6890239
-3.10568	17-30 0-25
-1.929589	17-30 10-20	0.6622639
-0.7401925	17-30 17-30	-0.9298472
-3.10568	17-30 26-30
-1.168664	17-30 </s>
-0.4486246	17-30 <num>	-0.4395936
-1.959552	17-30 chc	0.3450634
-1.959552	17-30 def	0.1198279
-1.975347	17-30 lkly	0.3036578
-1.674317	17-30 schc	0.1596585
-0.5250448	21-30 chc	0.4011794
-0.9229848	21-30 lkly	0.2008537
-1.348954	21-30 schc	0.4061118
-0.06777323	25-50 (none)	-0.5946264
-0.9312398	26-30 (none)	-0.1798583
-0.4593198	26-30 --	-0.3039508
-2.202307	26-30 17-30	0.1580726
-2.202307	26-30 25-50	0.8071719
-1.111226	26-30 75-100	0.8676639
-2.378398	26-30 <num>
-0.8533531	26-30 chc	0.3189785
-1.202307	26-30 def	0.1699982
-0.7603498	26-30 lkly	0.07027429
-2.378398	26-30 schc
-0.03710838	50-75 (none)	-0.9041146
-1.4843	6-13 --
-0.9402318	6-13 chc	0.5118061
-0.6092386	6-13 def	0.2119026
-1.4843	6-13 lkly
-0.5913738	6-21 (none)	-0.8041666
-1.685278	6-21 --	0.01380241
-2.749736	6-21 0-10	0.7798313
-2.749736	6-21 0-25	0.4420785
-1.419322	6-21 10-20	0.6034006
-2.603608	6-21 13-21	0.2160192
-1.857642	6-21 25-50	0.533465
-0.7445558	6-21 6-21	-0.9789505
-2.001548	6-21 75-100	0.9231812
-1.023825	6-21 </s>
-0.4755785	6-21 <num>	-0.4769043
-1.741136	6-21 chc	0.2152174
-2.749736	6-21 lkly	0.2301431
-2.302578	6-21 s	-0.113839
-1.917227	6-21 schc	0.1615632
-3.147676	6-21 sw
-0.9542425	6-9 --	0.06125636
-1.607455	6-9 25-50	0.7967065
-1.607455	6-9 50-75	1.043269
-1.431364	6-9 75-100	1.099272
-1.033424	6-9 chc	0.4403315
-0.6532125	6-9 def	0.05529881
-1.005395	6-9 lkly	0.1312178
-0.704365	6-9 schc	0.2477514
-0.0309179	75-100 (none)	-0.953366
-1.293731	9-21 0-25	0.4627631
-0.867762	9-21 75-100	1.079967
-0.9927008	9-21 chc	0.5211547
-0.925754	9-21 lkly	0.210399
-0.1721465	<num> (none)	-1.621033
-3.306961	<num> --
-1.494048	<num> 0-10	0.1879905
-0.7405234	<num> 10-20	-0.4634666
-1.326957	<num> 17-30	-0.6208374
-1.244379	<num> 6-21	-0.7373688
-3.306961	<num> ese
-3.306961	<num> nw
-3.306961	<num> s
-0.7355822	<s> (none)	-0.7206362
-0.9128118	<s> --	-0.009234488
-1.300612	<s> 0-25	0.1213045
-1.569458	<s> 13-21	0.08264375
-2.715585	<s> 17-26
-2.715585	<s> 17-30
-1.224224	<s> 25-50	0.4199558
-1.363403	<s> 26-30	-0.1107811
-0.8319241	<s> 50-75	0.3854846
-1.309045	<s> 6-21	-0.3818146
-1.937434	<s> 6-9	-0.1034142
-1.108131	<s> 75-100	0.6671782
-2.539494	<s> 9-21	-0.01033628
-99	<s> <s>	0
-1.016616	<s> chc	0.0247283
-1.300612	<s> def	-0.02971196
-1.276253	<s> schc	0.05041274
-0.1308396	chc (none)	-0.8345038
-1.532359	chc 13-21	-0.1611734
-1.463278	chc 17-21	-0.1806389
-1.489607	chc 17-26	-0.03336537
-1.953364	chc 17-30	0.07654357
-1.693727	chc 21-30	-0.02966745
-1.162248	chc 26-30	-0.1552604
-2.149659	chc 6-13	-0.02049285
-2.693727	chc 6-21
-1.818666	chc 6-9	-0.1022946
-2.216606	chc 9-21	-0.01709294
-2.216606	chc lkly	0.2201589
-0.261314	def (none)	-0.5227203
-1.312778	def 13-21	0.06725398
-0.8129134	def 17-21	-0.1806388
-1.600019	def 17-26	0.1955436
-1.573691	def 17-30	0.02637698
-1.170671	def 26-30	-0.2425596
-1.628048	def 6-13	-0.02192026
-2.503109	def 6-21
-1.247837	def 6-9	-0.1803037
-0.9378521	e (none)	-0.02816548
-0.9378521	e 17-30	0.1065945
-1.113943	e 6-21	0.08509435
-1.30103	ene (none)
-0.6103325	ese (none)	0.06292655
-1.247155	ese 17-30	0.1259824
-0.3189416	lkly (none)	-0.5475209
-1.255273	lkly 13-21	-0.1794449
-1.518514	lkly 17-30	0.06750081
-1.694605	lkly 21-30	-0.02775145
-0.6682763	lkly 26-30	-0.3724752
-2.296665	lkly 6-13
-1.752597	lkly 6-21	0.09301671
-1.393575	lkly 6-9	-0.107448
-1.342423	lkly 75-100	0.9945371
-1.752597	lkly 9-21	-0.01858025
-0.9542425	n (none)	0.03349153
-1.176091	n 6-21	0.09555978
-0.5254259	ne (none)	-0.1580757
-1.278754	ne 6-21	0.09555978
-0.6450946	nnw (none)	0.1877497
-1.423246	nnw 17-30
-1.247155	nnw 6-21
-0.5133334	nw (none)	-0.02641499
-1.574031	nw 17-30
-0.7289332	nw 6-21	0.2402069
-0.1112744	s (none)	-0.5083848
-1.02869	s 17-30	0.1380155
-1.299051	s 6-21	0.178059
-0.1964208	schc (none)	-0.4006873
-1.029207	schc 13-21	0.1515483
-2.390935	schc 17-26
-1.068716	schc 17-30	-0.1293017
-2.214844	schc 21-30	-0.01310544
-2.390935	schc 25-50
-1.691965	schc 26-30	0.03902292
-1.612784	schc 6-21	0.02065464
-1.186815	schc 6-9	-0.1697428
-0.146128	se (none)	-0.3964212
-1.690196	se 17-30	0.1259824
-1.690196	se 6-21	0.09555978
-0.3988934	sse (none)	-0.08229876
-0.3802112	sse 17-30	-0.3813872
-1.579784	sse 6-21	-0.05161461
-0.262685	ssw (none)	-0.2581418
-0.8834944	ssw 17-30	-0.001596481
-1.335792	ssw 6-21	0.1737002
-0.239976	sw (none)	-0.2419914
-1.724276	sw 0-10
-1.724276	sw 17-30
-1.247155	sw 6-21	0.06489096
-0.3253894	w (none)	-0.1895605
-1.740363	w 17-30
-0.8109438	w 6-21	0.2463619
-1.439333	w <num>	0.04364878
-0.5096505	wnw (none)	0.06235051
-0.5096505	wnw 6-21	-0.003774166
-0.3413246	wsw (none)	-0.1531582
-1.119476	wsw 17-30	0.09531354

\3-grams:
-0.358546	(none) (none) (none)
-1.934176	(none) (none) --
-2.703184	(none) (none) 13-21
-0.7399865	(none) (none) 17-30
-2.263851	(none) (none) 50-75
-0.6919307	(none) (none) 6-21
-2.564881	(none) (none) 75-100
-1.210075	(none) (none) </s>
-1.179763	(none) (none) <num>
-3.129153	(none) (none) chc
-2.907304	(none) (none) def
-3.129153	(none) (none) ese
-2.564881	(none) (none) lkly
-2.761176	(none) (none) nnw
-2.828123	(none) (none) nw
-2.402154	(none) (none) schc
-3.129153	(none) (none) se
-2.828123	(none) (none) ssw
-2.564881	(none) (none) sw
-2.703184	(none) (none) w
-2.761176	(none) (none) wnw
-2.907304	(none) (none) wsw
-1.393088	-- (none) (none)
-0.4415341	-- (none) --
-2.171239	-- (none) 0-25
-1.534417	-- (none) 13-21
-1.393088	-- (none) 17-30
-1.569179	-- (none) 25-50
-2.171239	-- (none) 26-30
-0.9323567	-- (none) 50-75
-0.884932	-- (none) 6-21
-1.472269	-- (none) 75-100
-1.129846	-- (none) </s>
-1.870209	-- (none) chc
-1.326141	-- (none) def
-2.171239	-- (none) lkly
-1.94939	-- (none) schc
-0.2366979	0-25 (none) (none)
-1.473487	0-25 (none) --
-1.376577	0-25 (none) 0-25
-1.598426	0-25 (none) w
-1.293731	13-21 (none) (none)
-1.11764	13-21 (none) --
-1.594761	13-21 (none) 0-25
-1.11764	13-21 (none) 25-50
-0.7101542	13-21 (none) 50-75
-1.372912	13-21 (none) 6-21
-1.372912	13-21 (none) 75-100
-1.030489	13-21 (none) def
-1.372912	13-21 (none) lkly
-1.226784	13-21 (none) s
-1.594761	13-21 (none) w
-1.267172	17-26 (none) def
-0.37787	17-26 (none) lkly
-0.8100101	17-30 (none) (none)
-1.683365	17-30 (none) 0-10
-0.5793601	17-30 (none) 17-30
-1.872421	17-30 (none) 26-30
-2.436693	17-30 (none) 50-75
-0.770799	17-30 (none) </s>
-0.4808446	17-30 (none) <num>
-2.436693	17-30 (none) def
-0.2707366	25-50 (none) (none)
-1.574858	25-50 (none) --
-1.077533	25-50 (none) 13-21
-1.942834	25-50 (none) 50-75
-1.720986	25-50 (none) 6-21
-1.465713	25-50 (none) nw
-1.641804	25-50 (none) s
-1.720986	25-50 (none) sse
-1.942834	25-50 (none) ssw
-1.942834	25-50 (none) sw
-1.378563	25-50 (none) w
-1.273828	25-50 (none) wnw
-1.641804	25-50 (none) wsw
-1.12803	26-30 (none) (none)
-1.496007	26-30 (none) --
-1.496007	26-30 (none) 25-50
-1.496007	26-30 (none) 26-30
-1.194977	26-30 (none) 50-75
-1.194977	26-30 (none) 75-100
-0.9731278	26-30 (none) def
-0.9731278	26-30 (none) lkly
-0.8939466	26-30 (none) schc
-0.06229193	50-75 (none) (none)
-1.587337	50-75 (none) se
-1.763428	50-75 (none) sse
-2.064458	50-75 (none) sw
-0.8114833	6-21 (none) (none)
-2.180699	6-21 (none) --
-1.925427	6-21 (none) 0-10
-2.101518	6-21 (none) 25-50
-1.800488	6-21 (none) 50-75
-1.108817	6-21 (none) 6-21
-2.277609	6-21 (none) 75-100
-0.8189713	6-21 (none) </s>
-0.2964704	6-21 (none) <num>
-2.402548	6-21 (none) chc
-2.402548	6-21 (none) nw
-1.838277	6-21 (none) schc
-0.3465258	75-100 (none) (none)
-1.596597	75-100 (none) --
-1.327752	75-100 (none) 13-21
-1.964574	75-100 (none) 26-30
-2.140665	75-100 (none) 75-100
-2.265604	75-100 (none) chc
-0.8794023	75-100 (none) s
-1.441695	75-100 (none) se
-1.043755	75-100 (none) sse
-1.663544	75-100 (none) ssw
-1.487453	75-100 (none) sw
-1.265604	75-100 (none) w
-1.512276	75-100 (none) wsw
-0.4396861	<num> (none) (none)
-2.48761	<num> (none) --
-2.663701	<num> (none) 0-25
-2.48761	<num> (none) 13-21
-0.9839703	<num> (none) 17-30
-1.717576	<num> (none) 25-50
-2.839792	<num> (none) 26-30
-2.140822	<num> (none) 50-75
-0.7925173	<num> (none) 6-21
-1.163099	<num> (none) 75-100
-2.441852	<num> (none) e
-2.362671	<num> (none) ese
-2.596754	<num> (none) n
-2.163099	<num> (none) ne
-2.742882	<num> (none) nnw
-2.163099	<num> (none) nw
-0.9824597	<num> (none) s
-1.566791	<num> (none) se
-1.40046	<num> (none) sse
-1.603003	<num> (none) ssw
-1.923338	<num> (none) sw
-2.163099	<num> (none) w
-1.839792	<num> (none) wnw
-2.265761	<num> (none) wsw
-1.456746	<s> (none) --
-0.1695038	<s> (none) <num>
-1.757776	<s> (none) chc
-0.9448621	<s> (none) lkly
-1.739798	chc (none) (none)
-1.681806	chc (none) --
-2.186956	chc (none) 0-25
-1.844534	chc (none) 17-30
-1.982836	chc (none) 26-30
-1.107775	chc (none) 50-75
-1.681806	chc (none) 6-21
-1.153533	chc (none) 75-100
-1.982836	chc (none) 9-21
-0.1616505	chc (none) chc
-1.709835	chc (none) def
-2.408805	chc (none) schc
-1.357262	def (none) (none)
-1.125313	def (none) --
-2.11059	def (none) 13-21
-1.082561	def (none) 17-30
-2.11059	def (none) 26-30
-2.11059	def (none) 6-21
-1.225983	def (none) </s>
-1.742613	def (none) chc
-0.2512512	def (none) def
-1.587711	def (none) lkly
-1.41162	def (none) schc
-1.166331	e (none) 0-10
-0.8624721	ese (none) 17-30
-1.230449	ese (none) 6-21
-1.230449	ese (none) <num>
-1.015512	lkly (none) (none)
-0.685837	lkly (none) 50-75
-0.7558749	lkly (none) 75-100
-1.755875	lkly (none) chc
-1.454845	lkly (none) def
-0.5066765	lkly (none) lkly
-1.156347	n (none) 6-21
-0.5099137	ne (none) 0-10
-1.09691	nnw (none) (none)
-1.09691	nnw (none) 17-30
-1.221849	nnw (none) <num>
-1.221849	nnw (none) nnw
-1.18327	nw (none) 17-30
-0.5812098	nw (none) 6-21
-1.18327	nw (none) <num>
-2.09922	s (none) (none)
-2.09922	s (none) --
-1.731243	s (none) 0-10
-0.4829197	s (none) 17-30
-1.576341	s (none) 26-30
-0.3916499	s (none) 6-21
-0.9742814	s (none) <num>
-1.79819	s (none) s
-0.9890046	schc (none) (none)
-1.591065	schc (none) --
-1.943247	schc (none) 13-21
-1.503914	schc (none) 17-30
-1.943247	schc (none) 26-30
-1.068186	schc (none) 50-75
-1.369216	schc (none) 6-21
-1.431364	schc (none) 75-100
-1.545307	schc (none) </s>
-2.068186	schc (none) chc
-1.466126	schc (none) def
-1.591065	schc (none) lkly
-0.3199978	schc (none) schc
-0.5532761	se (none) 17-30
-0.4149733	se (none) 6-21
-1.113943	se (none) <num>
-1.633469	sse (none) (none)
-1.633469	sse (none) 0-10
-0.5791108	sse (none) 17-30
-0.768167	sse (none) 6-21
-0.8318361	sse (none) <num>
-0.9344984	sse (none) sse
-1.083184	ssw (none) 0-10
-0.6950038	ssw (none) 17-30
-0.5460648	ssw (none) 6-21
-1.338457	ssw (none) <num>
-1.435367	ssw (none) ssw
-0.9956352	sw (none) 0-10
-0.5332372	sw (none) 17-30
-1.393575	sw (none) 26-30
-0.7651863	sw (none) 6-21
-1.518514	sw (none) <num>
-0.6754889	w (none) 13-21
-1.352183	w (none) 17-30
-0.5925147	w (none) 6-21
-1.109144	w (none) <num>
-1.054358	wnw (none) (none)
-1.230449	wnw (none) 13-21
-0.6283889	wnw (none) 6-21
-0.9874108	wnw (none) <num>
-1.267172	wsw (none) 0-10
-0.6139592	wsw (none) 17-30
-0.7231037	wsw (none) 6-21
-0.2760705	(none) -- (none)
-0.7720771	(none) -- 13-21
-1.207806	(none) -- 26-30
-1.135255	(none) -- 6-21
-1.346108	(none) -- 6-9
-1.595986	(none) -- lkly
-0.7690079	-- -- (none)
-0.6096395	13-21 -- (none)
-1.557808	13-21 -- --
-1.983777	13-21 -- 10-20
-0.5366185	13-21 -- 13-21
-1.761928	13-21 -- 6-21
-0.9423839	13-21 -- chc
-1.858838	13-21 -- def
-1.31477	13-21 -- lkly
-1.761928	13-21 -- s
-1.138679	13-21 -- schc
-1.983777	13-21 -- se
-1.761928	13-21 -- sse
-1.983777	13-21 -- w
-0.9208187	17-30 -- (none)
-0.8538719	17-30 -- 26-30
-0.5772364	26-30 -- (none)
-1.531479	26-30 -- 17-30
-0.4645321	26-30 -- 26-30
-0.9672075	26-30 -- chc
-1.40654	26-30 -- def
-1.832509	26-30 -- lkly
-1.61066	26-30 -- s
-1.70757	26-30 -- schc
-0.2833012	6-21 -- (none)
-1.028029	6-21 -- 13-21
-0.4929155	6-9 -- (none)
-0.9622114	<s> -- (none)
-0.411304	<s> -- 13-21
-0.5547261	<s> -- 26-30
-0.1820001	(none) 0-10 <num>
-0.5481846	17-30 0-10 <num>
-0.9344984	6-21 0-10 <num>
-0.1113659	<num> 0-10 <num>
-0.4929155	(none) 0-25 (none)
-0.9344984	13-21 0-25 (none)
-0.9344984	6-21 0-25 (none)
-1.135663	9-21 0-25 (none)
-0.2382392	<s> 0-25 (none)
-1.135663	-- 10-20 <num>
-0.4900862	17-30 10-20 17-30
-0.8782664	17-30 10-20 <num>
-0.3040355	6-21 10-20 6-21
-0.6050655	6-21 10-20 <num>
-0.02183422	<num> 10-20 <num>
-0.7841416	(none) 13-21 (none)
-0.551569	(none) 13-21 --
-1.465383	(none) 13-21 0-25
-0.5961511	(none) 13-21 25-50
-1.562293	(none) 13-21 75-100
-0.8699216	-- 13-21 (none)
-0.1509805	-- 13-21 --
-0.9542425	6-21 13-21 --
-1.176091	6-21 13-21 75-100
-0.4216039	<s> 13-21 --
-0.9229848	chc 13-21 (none)
-0.4836521	chc 13-21 chc
-1.236789	def 13-21 --
-0.3916911	def 13-21 def
-0.4357286	lkly 13-21 lkly
-0.6938304	schc 13-21 (none)
-1.447158	schc 13-21 --
-0.4771213	schc 13-21 schc
-0.3258536	chc 17-21 chc
-0.1423128	def 17-21 def
-0.3399481	chc 17-26 (none)
-1.130334	def 17-26 (none)
-0.6184504	def 17-26 def
-0.5201225	(none) 17-30 (none)
-1.733197	(none) 17-30 10-20
-0.5466176	(none) 17-30 17-30
-0.9722724	(none) 17-30 </s>
-0.6104354	(none) 17-30 <num>
-2.733197	(none) 17-30 chc
-2.06419	(none) 17-30 def
-1.867896	(none) 17-30 lkly
-0.9444827	-- 17-30 <num>
-0.4357286	10-20 17-30 <num>
-0.03418574	17-30 17-30 <num>
-1.135663	26-30 17-30 <num>
-0.1984675	<num> 17-30 (none)
-1.318443	<num> 17-30 --
-1.017413	<num> 17-30 chc
-1.183744	<num> 17-30 schc
-0.845098	chc 17-30 <num>
-0.9912261	chc 17-30 chc
-1.263241	def 17-30 <num>
-0.5642715	def 17-30 def
-0.9444827	e 17-30 (none)
-1.135663	ese 17-30 (none)
-0.8538719	lkly 17-30 <num>
-0.9208187	lkly 17-30 lkly
-0.3924771	s 17-30 (none)
-1.119476	s 17-30 0-10
-1.198657	s 17-30 <num>
-1.425969	schc 17-30 <num>
-0.30103	schc 17-30 schc
-1.135663	se 17-30 (none)
-0.1944327	sse 17-30 (none)
-1.123852	sse 17-30 0-10
-0.5099137	ssw 17-30 (none)
-0.8653014	wsw 17-30 (none)
-0.462398	chc 21-30 chc
-0.7596679	lkly 21-30 lkly
-1.135663	schc 21-30 schc
-0.1637073	(none) 25-50 (none)
-0.30103	13-21 25-50 (none)
-1.135663	26-30 25-50 (none)
-0.2954261	6-21 25-50 (none)
-1.021189	6-9 25-50 (none)
-0.2076083	<s> 25-50 (none)
-0.803262	(none) 26-30 (none)
-0.6706364	(none) 26-30 --
-1.472269	(none) 26-30 25-50
-0.7732987	(none) 26-30 75-100
-1.472269	(none) 26-30 def
-0.9566486	-- 26-30 (none)
-0.1784973	-- 26-30 --
-1.780557	-- 26-30 chc
-0.5573503	<s> 26-30 --
-0.5573503	<s> 26-30 75-100
-1.326336	chc 26-30 --
-0.2259653	chc 26-30 chc
-0.7323937	def 26-30 (none)
-0.461327	def 26-30 def
-1.487845	lkly 26-30 (none)
-0.1760913	lkly 26-30 lkly
-0.90309	schc 26-30 (none)
-1.20412	schc 26-30 chc
-0.0573861	(none) 50-75 (none)
-1.135663	13-21 50-75 (none)
-1.021189	6-9 50-75 (none)
-0.09634194	<s> 50-75 (none)
-0.8081145	chc 6-13 chc
-0.5481846	def 6-13 def
-0.5304192	(none) 6-21 (none)
-2.255514	(none) 6-21 --
-1.242676	(none) 6-21 10-20
-2.778393	(none) 6-21 13-21
-0.5688775	(none) 6-21 6-21
-1.97676	(none) 6-21 75-100
-0.8306321	(none) 6-21 </s>
-0.7356857	(none) 6-21 <num>
-2.410416	(none) 6-21 chc
-2.109386	(none) 6-21 s
-0.4900862	-- 6-21 --
-1.133539	-- 6-21 6-21
-1.230449	-- 6-21 <num>
-0.1840602	10-20 6-21 <num>
-0.03144838	6-21 6-21 <num>
-0.3398472	<num> 6-21 (none)
-0.9825943	<num> 6-21 --
-1.730782	<num> 6-21 13-21
-0.7765397	<num> 6-21 chc
-0.8982733	<num> 6-21 schc
-1.25042	<s> 6-21 0-25
-0.3696064	<s> 6-21 25-50
-0.94939	<s> 6-21 75-100
-1.021189	e 6-21 (none)
-1.176091	lkly 6-21 <num>
-0.9542425	lkly 6-21 lkly
-1.135663	n 6-21 (none)
-1.135663	ne 6-21 (none)
-0.8709053	nw 6-21 (none)
-0.8129134	nw 6-21 <num>
-0.8239087	s 6-21 (none)
-0.6320232	s 6-21 <num>
-0.6575773	schc 6-21 (none)
-1.135663	se 6-21 (none)
-0.9444827	sse 6-21 0-10
-1.166331	ssw 6-21 (none)
-1.041393	ssw 6-21 6-21
-0.8653014	sw 6-21 (none)
-0.7403627	w 6-21 (none)
-1.041393	w 6-21 10-20
-1.138303	w 6-21 <num>
-0.60206	wnw 6-21 (none)
-0.7185656	wnw 6-21 6-21
-0.4929155	-- 6-9 --
-1.09691	<s> 6-9 25-50
-1.09691	<s> 6-9 50-75
-0.9208187	<s> 6-9 75-100
-0.5481846	chc 6-9 chc
-0.3129292	def 6-9 def
-0.5282738	lkly 6-9 lkly
-0.3399481	schc 6-9 schc
-0.04666403	(none) 75-100 (none)
-0.8081145	13-21 75-100 (none)
-0.3068596	26-30 75-100 (none)
-0.3723859	6-21 75-100 (none)
-0.8653014	6-9 75-100 (none)
-0.7596679	9-21 75-100 (none)
-0.1670619	<s> 75-100 (none)
-0.4929155	lkly 75-100 (none)
-0.7596679	(none) 9-21 75-100
-1.135663	<s> 9-21 0-25
-0.8653014	chc 9-21 chc
-0.8081145	lkly 9-21 lkly
-0.2744465	(none) <num> (none)
-2.381656	(none) <num> 0-10
-1.067789	(none) <num> 10-20
-0.7995931	(none) <num> 17-30
-0.7170145	(none) <num> 6-21
-0.06890749	0-10 <num> (none)
-0.0206071	10-20 <num> (none)
-0.2386985	17-30 <num> (none)
-1.10083	17-30 <num> 0-10
-0.5195251	17-30 <num> 10-20
-0.255539	6-21 <num> (none)
-1.274336	6-21 <num> 0-10
-0.4512627	6-21 <num> 10-20
-1.021189	w <num> 10-20
-0.7355822	<s> <s> (none)
-0.9128118	<s> <s> --
-1.300612	<s> <s> 0-25
-1.569458	<s> <s> 13-21
-1.224224	<s> <s> 25-50
-1.363403	<s> <s> 26-30
-0.8319241	<s> <s> 50-75
-1.309045	<s> <s> 6-21
-1.937434	<s> <s> 6-9
-1.108131	<s> <s> 75-100
-2.539494	<s> <s> 9-21
-1.016616	<s> <s> chc
-1.300612	<s> <s> def
-1.276253	<s> <s> schc
-0.1464206	(none) chc (none)
-1.597695	(none) chc 13-21
-1.627658	(none) chc 17-21
-1.268636	(none) chc 17-26
-1.928688	(none) chc 17-30
-1.150537	(none) chc 26-30
-2.296665	(none) chc 6-13
-1.597695	(none) chc 6-9
-1.995635	(none) chc 9-21
-1.995635	(none) chc lkly
-0.2313941	-- chc (none)
-0.8310874	13-21 chc (none)
-0.6092386	13-21 chc 13-21
-0.7112045	17-21 chc (none)
-0.5351132	17-21 chc 17-21
-0.3723859	17-30 chc (none)
-0.462398	21-30 chc (none)
-0.7659168	26-30 chc (none)
-1.322219	26-30 chc 17-30
-0.7201593	26-30 chc 21-30
-0.5898255	26-30 chc 26-30
-1.176091	6-13 chc (none)
-0.9542425	6-13 chc 6-13
-0.2418198	6-21 chc (none)
-0.5481846	6-9 chc (none)
-0.8653014	9-21 chc (none)
-0.1398791	<s> chc (none)
-0.2971581	(none) def (none)
-1.411101	(none) def 13-21
-1.047924	(none) def 17-21
-1.320925	(none) def 17-26
-1.411101	(none) def 17-30
-1.202826	(none) def 26-30
-1.826075	(none) def 6-13
-0.9687423	(none) def 6-9
-1.088136	-- def (none)
-0.9912261	-- def 17-21
-1.088136	-- def 6-13
-0.819544	13-21 def (none)
-0.5407903	13-21 def 13-21
-0.60206	17-21 def (none)
-0.3206255	17-21 def 17-21
-0.5936268	17-26 def (none)
-0.4045706	17-30 def (none)
-1.342423	17-30 def 17-30
-1.054358	26-30 def (none)
-1.355388	26-30 def 17-30
-0.4707811	26-30 def 26-30
-0.8211859	6-13 def (none)
-0.8211859	6-13 def 6-13
-0.3129292	6-9 def (none)
-0.2382392	<s> def (none)
-0.9378521	(none) e (none)
-0.9378521	(none) e 17-30
-1.113943	(none) e 6-21
-0.6368221	(none) ese (none)
-1.238882	(none) ese 17-30
-0.4107772	(none) lkly (none)
-1.359625	(none) lkly 13-21
-1.359625	(none) lkly 17-30
-1.410777	(none) lkly 21-30
-0.5895913	(none) lkly 26-30
-1.468769	(none) lkly 6-21
-1.468769	(none) lkly 9-21
-1.01424	-- lkly (none)
-1.190332	-- lkly 26-30
-0.5882717	-- lkly 6-9
-0.8239087	13-21 lkly (none)
-0.6320232	13-21 lkly 13-21
-0.9098234	17-30 lkly (none)
-1.335792	17-30 lkly 17-30
-0.5576409	17-30 lkly 26-30
-0.7596679	21-30 lkly (none)
-0.3585095	26-30 lkly (none)
-0.968842	26-30 lkly 26-30
-0.8275129	26-30 lkly 75-100
-0.9344984	6-21 lkly (none)
-0.5282738	6-9 lkly (none)
-0.8081145	9-21 lkly (none)
-0.8653014	chc lkly (none)
-0.9542425	(none) n (none)
-1.176091	(none) n 6-21
-0.5254259	(none) ne (none)
-1.278754	(none) ne 6-21
-0.6368221	(none) nnw (none)
-0.526809	(none) nw (none)
-0.7231037	(none) nw 6-21
-0.09534686	(none) s (none)
-1.050892	(none) s 17-30
-1.664851	(none) s 6-21
-0.9731278	-- s (none)
-0.9731278	-- s 17-30
-0.5698753	6-21 s 6-21
-0.2961775	(none) schc (none)
-0.9641132	(none) schc 13-21
-1.064783	(none) schc 17-30
-1.94939	(none) schc 21-30
-1.426511	(none) schc 26-30
-1.34733	(none) schc 6-21
-1.084089	(none) schc 6-9
-0.4121805	-- schc (none)
-0.7468936	13-21 schc (none)
-0.5708023	13-21 schc 13-21
-0.4197198	17-30 schc (none)
-0.6627578	17-30 schc 17-30
-1.135663	21-30 schc (none)
-0.3258536	6-21 schc (none)
-0.5026754	6-9 schc (none)
-0.8037053	6-9 schc 6-9
-0.2281203	<s> schc (none)
-0.1485308	(none) se (none)
-1.684247	(none) se 17-30
-1.684247	(none) se 6-21
-1.135663	-- se (none)
-0.4107288	(none) sse (none)
-0.3725244	(none) sse 17-30
-1.572097	(none) sse 6-21
-0.9344984	-- sse (none)
-0.2593314	(none) ssw (none)
-0.9064697	(none) ssw 17-30
-1.332438	(none) ssw 6-21
-0.2317035	(none) sw (none)
-1.318063	(none) sw 6-21
-0.3133804	(none) w (none)
-0.8832557	(none) w 6-21
-1.427324	(none) w <num>
-1.135663	-- w 6-21
-0.5096505	(none) wnw (none)
-0.5096505	(none) wnw 6-21
-0.3413246	(none) wsw (none)
-1.119476	(none) wsw 17-30

\end\
